solver_type L2R_L2LOSS_SVC_DUAL
nr_class 2
label 1 -1
nr_feature 76800
bias -1.0000000000000000
w
0.3163652011387295 -0.3513708500834875 -0.2125387979855457 0.4410369131411193 0.9164102439204835 0.0317601839552792 -0.0405036462260579 -1.0550447316132789 0.5210960086217978 -0.0806755371426591 0.1217174654099531 0.6808694504642215 0.6948253411395459 0.2271145190785560 -0.0671400223670917 0.2253308180668106 0.1927042290493787 -0.1538833976029743 0.1082112965882227 -0.1353182585851814 -0.1452448805871592 -0.1807595136218847 -0.3629140154732625 -0.2402152295359732 -0.3927881107390189 0.5930602158084080 -0.1828413236105255 0.0515369197302442 -0.3221842804536043 -0.3761196974609000 -0.1179505618248961 0.2913159993948662 0.3441100897441117 0.3913566807393540 -0.0026079261291823 0.2691778966562018 -0.0021738814261231 -0.2429838232205002 -0.1089062259959863 -0.2450580297991874 -0.0979172792308158 0.2252459102543401 -0.0687379607484218 0.1887926713513017 0.0281668824227922 -0.1828580410305158 -0.3299423020767486 -0.2389930226803547 0.2866551385662282 -0.0866070018330047 -0.2068786112865921 -0.1991030198376121 -0.1692926226453310 -0.2567225725369658 0.2646386130468159 -0.0195951062463279 0.1657874393626403 0.0543510849386663 -0.3164407950960347 0.4688358046467402 -0.1398505886332111 -0.1743741072398369 -0.0559003010786374 -0.0578305062803086 0.0279707012989695 0.0970159408004382 0.1387759533845494 0.1001719615355326 -0.0525950134039695 -0.0423620111017157 -0.1545708875143251 -0.1104021328023600 0.1563716154032520 0.1512779541008406 0.0051380617728432 -0.0965617200008461 0.0460788348810341 -0.2771743620097639 0.0273285485351069 0.0168120019192004 0.0258092420718087 -0.2136718315552910 -0.3396178982249103 -0.3433869337784936 -0.0853125896061523 0.2831762217023100 -0.0807167436991899 -0.1553703797998385 -0.0399566802605704 0.1751041477193750 0.0087173190841078 0.0583976126865708 0.1500147334338436 -0.0690411276812870 0.0179317739033454 0.0444230493350458 -0.2648487981689751 -0.0807718491992041 0.0340850390028660 -0.1000221184967826 0.0448125009947270 0.0793431770245306 -0.0075181774148995 -0.0803426279128363 -0.0335686425345979 0.3322694123811016 0.0901301472116848 0.0585356904944602 0.0598891474359057 -0.0846995437508314 -0.4810034300574773 -0.0057817234270192 0.0887529824971966 0.0941162355208493 -0.0209051057038456 -0.0308521126550877 -0.0528064821059805 -0.2730585788519123 -0.2242848337093580 0.2132477181365802 0.2674528068471215 0.1150122169350993 0.0378251764176631 -0.1556103582699773 -0.0467558303946504 0.0010574757341561 0.1180315446483264 0.0301810037051918 0.1317197202543434 -0.0042972996371436 -0.1213288733011741 -0.3734027619509992 0.3876998109621291 0.1522668010786430 -0.0698786521763884 0.0306722834656240 -0.0389125916932170 -0.2304279517854078 -0.0011845740107955 0.1823594868841745 0.0399308425050636 -0.0980747672725545 0.0225400382728903 0.2014797974148097 -0.1148634150101877 0.0855963432669679 -0.0832462008759173 0.0515151825001266 -0.1476513229935189 0.1496655531242886 0.1679735987061653 -0.0212071315505135 0.0888277613001859 0.0530425498897992 0.0822304178020543 0.1657057868695055 -0.0569955504576135 -0.0726944901614039 0.0105340187078205 -0.1926066849426446 0.0010632111920355 -0.2141384460884913 -0.1222453339183763 -0.1211011675637052 -0.3433809818088878 -0.1108123872032566 0.0483169229134413 0.4043557787372878 0.2075024784626957 -0.2782136363900122 0.1941612182056430 -0.0965244703647431 0.4372407041664158 0.0724693940888759 -0.1621991548697599 -0.0225434868696283 -0.0544293553657797 -0.2926009997723469 0.0182162975819966 -0.0663824729722302 -0.0981817806364367 -0.1349910192851316 0.1036731211637496 -0.0700477959947004 0.3316191684728135 0.1121268992643124 -0.2499646545259442 -0.3514012191410050 0.1664007363405422 0.2470206598576599 0.1097976236272631 0.2242978223075872 0.0260519675420913 0.1420870965817752 0.2478566963031708 -0.2286438792905582 0.2216450266340641 -0.2386190841313806 0.2432283564967847 -0.0833569568238701 0.4893318378070394 0.0010563633928508 0.0474266710401912 -0.0428328450812689 0.4491965481430300 0.2253529504199846 0.1808878071040110 0.0323113448114625 0.1847931580987714 0.1240587085061609 0.0769277508985856 -0.0947586979704579 -0.0921880713551794 -0.1607164553234974 0.1439895831175403 -0.0816102288816883 0.0460589250233443 0.0079372572892284 0.0022944772263332 0.0075190722796797 -0.1884614234397877 0.2626104791471345 -0.2350068546697454 0.0043179054414482 0.3111801943168872 -0.0740368188684408 -0.1137663454780869 -0.1273307007763385 -0.0800069854896487 -0.0214546887334307 0.0576856091656981 -0.1806696369953070 -0.0619237079301223 0.0723223568091247 0.0175256021524987 -0.0893022404403213 0.0648729816472682 0.0487885341591131 0.1113634921181687 -0.1337788920545318 -0.0987840112955751 -0.1908060237219720 -0.0109182644627736 -0.0692223416625792 -0.0734067006545253 0.2536142082785389 -0.0529444994125470 0.1555968190288173 -0.0364821030076345 -0.1844658984240333 0.0170538255145969 -0.0163882624923061 0.3161899773081680 0.4768883216092856 -0.1919638898574476 -0.2821464365059972 -0.0372963531641469 -0.1256286590682575 0.0532586304446323 -0.0678841226910809 -0.1520827878365035 -0.1391509224731319 0.1600139544317390 -0.0122534144252451 0.2334654397647500 -0.0875103652395128 -0.2268345585643372 0.0730503267584978 -0.1096959331816367 0.0771422304561149 0.1892222312651324 -0.2770867761545154 -0.0131171698154892 -0.1004957374662556 -0.1350231576178289 0.0934490137817456 -0.0788052102854502 -0.1979893991380284 -0.1275585002537621 -0.0387546508595632 0.0464330478437807 -0.2138910310581021 0.0842907980306781 0.0449827761832419 0.0218510012648199 0.1157022577596914 0.0979618861398193 0.2230999526546062 0.1201729417641176 0.0744021912938240 -0.0219935960714336 0.1194802631073403 -0.2574326995311678 -0.0838610019604611 -0.0780744376493407 0.0754588680440518 0.1247996051989216 -0.0107957249962189 -0.1412745966424552 0.1182138509309774 0.0006792237218658 -0.0017121245142513 -0.0049610538610581 0.0008455095606390 0.0040401679404674 0.0013682537061873 0.0069759463773965 0.0065771726818315 0.0001373411355777 -0.0020016551585802 -0.0042272876996408 0.0023672486807609 0.0012270261136197 -0.0039369627368280 0.0048000694369380 0.0025120019011859 0.0075889222072382 -0.0006431271453740 -0.0056064722835031 0.0046439923612930 -0.0102430307330864 0.0053963570503498 0.0012796816570825 0.0005285561906316 -0.0043644734512784 0.0050552695472574 -0.0068021309757022 0.0079047493222870 0.0024719991678236 0.0074277764429752 0.0035661121931885 0.0071860260498469 0.0041844942651042 -0.0033535097553636 -0.0006779527032406 -0.0043224919998698 -0.0034277084361575 0.0054066263836106 -0.0042251586497779 -0.0022773630993768 -0.0029398140566840 0.0085059265477441 0.0088145524909912 -0.0006809395245204 0.0074018242271747 -0.0056941167832106 -0.0059961636706575 -0.0075439253823682 0.0069127232953091 -0.0091571902352540 -0.0060147043383250 -0.0077048369097063 0.0023655466336271 -0.0032043078798366 -0.0077649213204282 0.0031933808412610 0.0013228911702569 0.0068320791841355 0.0061728543067370 -0.0013215435204837 -0.0074168065442354 0.0063522910211865 -0.0044212068310408 0.0007658408504275 -0.0022161421108193 0.0018859245621546 -0.0067139554971859 0.0089856627983348 -0.0040446333529495 -0.0061204383327055 -0.0072309499133846 -0.0070941205401953 0.0009795141947958 0.0066282358846581 0.0051007813594315 -0.0005584050832592 -0.0013378441726347 0.0047545272581871 -0.0008347408996079 -0.0053723895608730 0.0070982028530409 0.0043708737860907 -0.0008207103482681 0.0051084283641875 -0.0068706050796199 0.0057035400525080 0.0060295773504246 0.0014970437047287 0.0031537036618822 0.0028446236348035 0.0028635261714654 0.0060455706813727 0.0020120905647033 0.0002250470804791 0.0055373024804843 0.0079549975292058 -0.0066384936505203 -0.0083440489427937 0.0041941877149169 0.0008258222242737 0.0058235134878397 0.0022948625010484 0.0067203512798357 0.0069785101253753 -0.0075725064240527 -0.0036443678024402 -0.0092730359921470 0.0084681676282466 -0.0063911393518468 0.0097651855498012 0.0006284877664815 -0.0003831435545691 0.0052379315252289 0.0025636184970581 0.0052660811205365 0.0012199212261611 -0.0055887763052103 0.0072153025804350 0.0063957342198178 -0.0001324103674955 0.0074223148242025 -0.0027131749096956 -0.0005052928079851 0.0069338480567172 0.0008237535335340 -0.0041753639801357 -0.0029375160221303 0.0030074639463985 0.0074432804166185 -0.0067535595545168 -0.0088430286356494 0.0074423826159933 0.0017241516851984 0.0063215831606212 0.0061571896228231 0.0044008833789842 -0.0012192168724532 -0.0029296721036284 0.0049359279101612 0.0078380438594180 -0.0045877894485714 -0.0084779711881356 0.0030299854478830 -0.0027332459121633 0.0064578855738579 -0.0053559625012835 0.0084374799388162 0.0041960570072848 -0.0055091741298193 0.0041768516602903 0.0024225232752161 -0.0039843357299993 -0.0068107488333538 -0.0011821012471269 -0.0053557718647105 -0.0017607543373395 0.0006456544640182 0.0028281891614718 -0.0001235044882766 -0.0034807449663139 -0.0056964600018543 0.0074148378993681 -0.0045096611518943 -0.0051223641252183 0.0005215657141483 0.0026202247119029 0.0040197197270472 0.0006644268091788 -0.0077053577906723 -0.0065179719862451 -0.0066862097568754 -0.0078082048972045 -0.0045428294456895 -0.0057684512219308 0.0058324366153096 0.0037772064967564 0.0026100201076112 -0.0055426967172724 0.0032895559286514 -0.0064077433054309 -0.0060448985464796 -0.0007199439569451 -0.0015728898737441 0.0042847652163619 -0.0029165770119425 -0.0024134470510543 -0.0046418533791563 -0.0054987190291184 -0.0051733984026525 -0.0021981272697596 -0.0028423060350784 -0.0091316960610097 -0.0034716584124142 0.0000464852187649 0.0050219333035397 0.0069044981410061 0.0028910111018781 0.0087032410759528 0.0044829527966555 0.0025920795434084 -0.0004778409033940 0.0039210418624411 0.0073643533961573 -0.0032446608187950 0.0004282794584827 0.0058076907942139 0.0027896178542287 0.0029128119219315 -0.0051206720533367 -0.0038091138230785 -0.0055130435586098 -0.0014249772606498 -0.0039807240586357 -0.0046459333966708 0.0050982666119882 -0.0010040093879172 0.0007573859052790 -0.0059197816517709 -0.0005985817641015 0.0053965066546815 -0.0040340177201018 -0.0049384735683590 0.0006452218701623 -0.0062180862719047 -0.0064060588212272 0.0038397447384525 -0.0064751479441286 -0.0002071206787542 0.0009762327511238 0.0006626762108407 -0.0047858337850895 -0.0060645832898159 -0.0053005252254147 -0.0001126018456144 -0.0001860960236374 0.0038086589228611 -0.0095952110254057 0.0071116813694722 -0.0057392177163911 0.0009823746022332 0.0088073433546969 -0.0002843761327771 0.0005772374365875 -0.0056835111432057 0.0007946557469396 0.0055008226808071 -0.0033423363302048 -0.0059105586155556 -0.0040219914569079 0.0039074899711847 -0.0016980218541584 0.0032823340719800 0.0011996738919758 0.0053238788771192 -0.0107647019302745 0.0041109990262762 -0.0051224045673377 -0.0036204612048229 0.0000873165436345 0.0034175264474987 -0.0066224725231410 0.0025634543042154 -0.0102287500881034 -0.0083461228822092 -0.0010389649163763 -0.0000559103731914 0.0032212144165497 0.0057300995241326 0.0026096356774851 0.0032259788551980 0.0046416764309841 0.0048371184215817 -0.0008696106708486 -0.0002509370662422 -0.0004179797419944 -0.0038610641127095 -0.0070569033031314 0.0040037280182425 -0.0036190594587222 -0.0019590038214997 -0.0006405797448400 0.0042290795672128 0.0055861883700674 0.0032258859129917 0.0038032978879905 0.0015229147915133 0.0039013149226253 0.0031810419453027 -0.0042542510055932 0.0034965829160526 0.0009841378717023 -0.0029141495572957 -0.0000663196667933 -0.0027898960183914 -0.0041200368482726 -0.0016350503492289 0.0024056442535079 0.0038723527676188 -0.0009456292553252 -0.0020315880308458 0.0159169705022121 -0.0364738743777348 -0.0040995688540785 -0.0121850046601823 0.0175469761274565 0.0227443506719358 -0.0343370583902909 0.0095128673924397 -0.0299719835197133 0.0087700099860417 0.0244298323666239 -0.0184509482308773 -0.0499608164293662 -0.0475985637530139 -0.0424211259503535 -0.0044352796975291 -0.0349318374632853 -0.0431524578696805 -0.0349008699742884 -0.0351453991509074 -0.0340256371424636 0.0183769988377308 -0.0015283960990415 -0.0104127772379274 0.0263576657410560 -0.0125007537764185 -0.0098702673638872 0.0170428470281261 0.0313770263444031 0.0085405614609789 0.0108225056263200 -0.0227996888036763 -0.0327420635666510 -0.0369875120913712 0.0008199872678196 -0.0024645882120111 0.0322240613226984 -0.0272646180261808 -0.0016408132710745 -0.0350853193587023 -0.0229630650754392 0.0325130139403116 -0.0375191597726261 -0.0259905725187821 -0.0266571195051571 0.0091945218598896 0.0064230541181783 0.0124081430479548 0.0047490820614739 0.0112266822666878 -0.0028198460700936 0.0146279935051425 -0.0131888576253026 0.0269383632132250 -0.0161112507605653 -0.0314682156366479 0.0007408963169782 0.0454613811141429 -0.0097834323611924 -0.0257247026177934 -0.0115910955673622 0.0388939182950561 -0.0449393168451733 0.0586934802702237 -0.0158906748645629 0.0115759148449969 0.0282172201728225 -0.0218892765416059 0.0351623388886914 -0.0117815089339235 0.0124291801286699 0.0224914171386718 0.0043676591718604 0.0008913952577960 0.0046135957669083 0.0149992027878532 -0.0055458491611615 0.0079255936368556 -0.0245262995944478 0.0106211928360877 0.0237623456554587 0.0279870199287085 -0.0148386020831230 -0.0172697427063984 -0.0182708722198702 -0.0207966934166650 -0.0457780914430863 0.0139794360761304 0.0228494866023314 0.0519149280521419 -0.0262311447877883 0.0065505186800849 0.0156467967093293 -0.0130177928848365 -0.0581119348202642 -0.0441430422918281 0.0183201456668158 0.0297446622124960 -0.0262598385010172 0.0288946466717222 0.0188509347236014 -0.0169072560447321 -0.0362854720616135 0.0146322027359447 0.0447142588743440 0.0579963251748411 0.0139493397343778 -0.0326488884707325 0.0013492652836109 -0.0215220328749253 -0.0174994442213347 0.0303426712912042 0.0232749677375344 -0.0186872275045054 0.0014903503652634 -0.0078386055267300 -0.0091473842687530 0.0446495630791412 -0.0231272717537100 0.0114956738006851 0.0084051131381958 -0.0061325102449765 -0.0015955897948197 -0.0086046542987880 0.0164977038910529 0.0272564162270692 0.0027220485557774 -0.0076277544865870 -0.0422291485662673 0.0074929918785006 0.0117557995452013 -0.0255995197421079 0.0226950980347133 0.0098276505963309 0.0189298353575401 0.0336451491497867 0.0071871966963756 0.0251130708625414 -0.0053296979602291 -0.0211261455552209 -0.0065480547198946 -0.0231657246913471 0.0144678638929593 0.0066254488398345 -0.0210629193901498 0.0001187348790868 -0.0348565892902456 0.0470688318531350 -0.0050948145852954 -0.0109553020015317 0.0143404359437311 -0.0379288559464300 0.0493778711447447 -0.0291404186343369 -0.0406610842100213 -0.0232401366742206 0.0025052729258300 -0.0215450952064549 -0.0034979573096189 0.0080379421239430 0.0210570951463786 0.0050285446424325 0.0356627782811673 -0.0226227382152876 -0.0072924687676426 -0.0134080330531487 0.0250494071816050 -0.0280618251712431 -0.0063077362983475 0.0542266210884649 -0.0057728456910039 0.0058347233074040 -0.0329943434507795 0.0009481198964048 0.0175073421931183 0.0011075548943945 0.0128003552077171 0.0172530669365542 0.0028270712874419 -0.0073197655010019 0.0065325539119495 0.0102330847811299 0.0316250699355970 -0.0132326526378513 0.0063559287831690 0.0002704174379470 -0.0297671870254970 0.0321302609210845 -0.0010610753373680 0.0248460628738167 0.0010683286375391 -0.0317637315584824 -0.0102276932594117 0.0236766938178466 0.0082156581328662 -0.0042775496187447 -0.0337493252904021 0.0104039317950610 -0.0237067755206034 0.0073282880263584 -0.0304535019485604 0.0220718452722369 -0.0407481125445402 -0.0215483829008083 0.0113413392208899 0.0220948876414093 0.0276907359359300 0.0070504585861977 0.0200161376402085 -0.0190092866734884 0.0074147660263645 -0.0151943023449653 0.0205498127191819 -0.0229405885963672 -0.0276836295046464 0.0347667949198185 -0.0257331136821225 -0.0004895697290320 -0.0143197680436105 -0.0019261609811832 -0.0141203862627550 0.0010983459166039 0.0086263356860601 -0.0033328224165965 0.0242139365623344 0.0168345084676186 -0.0273741583853091 -0.0163699750151604 -0.0247352311751076 0.0399563003962128 -0.0092853723578240 0.0141984337651177 -0.0171627936214318 -0.0163102236100701 -0.0038313332241603 -0.0292939143671814 -0.0085249426048065 -0.0002320424090803 -0.0045782570064068 -0.0125496002214235 0.0057158535420633 -0.0070419561307649 -0.0308931217394140 -0.0132896563092390 -0.0109515765240443 -0.0030931011462208 -0.0148586873280789 0.0060363208054935 -0.0167633201933275 -0.0095595920550261 -0.0015687728372787 -0.0072644283924694 -0.0159369288831008 -0.0014218016349833 0.0052738003576584 0.0004882597357720 -0.0209856977046705 -0.0007857806629907 0.0114157274387580 -0.0075895484274747 0.0089457064130086 -0.0160998236897494 0.0389851927334107 -0.0034360922283206 0.0167237656822904 -0.0076996098970469 0.0193971592439518 0.0044654115062306 0.0036305054274616 -0.0035202694001274 0.0051483121716796 0.0151952921625899 -0.0006548141509726 -0.0090635600374254 0.0016667677267235 -0.0120431427835556 -0.0301465185833574 0.0158242393363750 -0.0121570684840929 0.0252585888770824 0.0027738302254392 -0.0047395164085025 0.0158457843762883 -0.0008978400080890 0.0048181010278874 -0.0145540306876322 -0.0135945277276890 -0.0219853420731563 -0.0139570289456097 -0.0208849927812936 0.0024236792430137 0.0091403332624307 0.0086526842317952 -0.0010746696121296 -0.0032131541977686 0.0129235613801040 0.0113981624622099 0.0112963977525095 -0.0098639507360054 -0.0010219025223247 -0.0473039551763195 0.0200989373920609 0.0950649331150367 0.0062001438679475 0.0331636062518753 -0.0167467675246967 0.0075993550970750 0.0624936774285419 0.0502195084229586 0.0190160827897833 0.0024752656829975 0.0003198433694728 0.0741140894651270 0.0361945294882004 0.0409124840057995 0.0257626251617056 -0.0335188483761603 0.0195081718344616 -0.0162577822795682 0.0233234430752314 -0.0089308166707557 -0.0157223567177676 0.0379164382475509 0.0242125198859469 -0.0148643175919838 0.0601493076797479 -0.0003506436118247 0.0108903390905832 0.0002496282381757 -0.0184704574399215 0.0031107365870031 0.0522589404459672 0.0568747582519183 -0.0554133154995876 -0.0128557523412156 0.0005340224099437 0.0322196451181853 -0.0311901778525767 -0.0241530796592061 -0.0029862434059685 -0.0486927485785007 -0.0324798187740404 0.0192952311107422 0.0589244155284946 0.0435470070797674 -0.0200858365775210 -0.0170283124053722 0.0080800630486550 -0.0501446978665902 0.0448910542671604 0.0100283075469891 0.0612711283690492 -0.0277578542487667 -0.0200516902458416 -0.0177589131499464 0.0111522519202256 -0.0528992979051192 -0.0127797852092778 -0.0376190618817692 0.0215459163369130 0.0019982398181679 0.0317831629699003 -0.0330946019166477 -0.0544906941737637 -0.0066312246471183 0.0386433907922522 -0.0620599634446803 0.0210478928229157 0.0235016013142133 -0.0484877211865809 0.0136325723923682 0.0941603937317495 -0.0303236372249893 -0.0220883665654097 -0.0504912677681520 -0.0452838942561554 0.0288388263304237 0.0832907663792672 0.0006457514995218 0.0018304594810076 0.0319439825079009 -0.0111377979952482 -0.0129865992294804 -0.0184077220798754 0.0275525239108531 0.0252569535640147 0.0575035898277767 0.0707985892134092 0.0085498355994176 -0.0082011930766489 -0.0103064023896365 0.0255691853440731 0.0386456164238431 -0.0353882450650474 -0.0141037933701903 0.0382064629284188 -0.0413018191757684 0.0074952710680746 0.0502595131506294 -0.0537702567609261 -0.0130107611333329 0.0613407626520766 0.0263986702910607 0.0365773944722703 0.0479996982963501 -0.0250504436985415 0.0202998549606919 0.0456228892081243 -0.0098816829681613 0.0105450131547553 -0.0027768869733698 0.0052999886188437 0.0397243528366495 0.0389553468613518 0.0050277459337472 0.0044543944370179 -0.0100448479349350 -0.0309392265488689 0.0204385351561404 0.0043799561853461 -0.0367733354136225 -0.0476901803875560 0.0327295021567631 0.0222015974682482 0.0443407277177382 -0.0743984860766204 -0.0404296590738369 -0.0555121966118102 0.0575660634658252 -0.0332559720859067 0.0075666346760974 -0.0157735441682547 -0.0408916379148068 0.0459529315828961 0.0177052981195541 0.0568487892328038 0.0534794405588978 -0.0261164126875828 0.0015164993265532 0.0758247039756566 0.0064709853880361 -0.0022250824009339 -0.0212189805609942 -0.0494766564854041 0.0674287482802714 0.0281178593122630 0.0265950054673398 -0.0328515293682025 -0.0534702446396226 0.0199929719810339 -0.0238486122985664 -0.0329810569602223 -0.0356217374832282 -0.0621737623120019 0.0187980943176200 -0.0549806015067439 0.0200573760363276 -0.0841485421743112 0.0507257048266954 -0.0330414358599044 -0.0629255574840472 0.0199644430502658 -0.0221238973587119 0.0827073289433746 -0.0190669421992544 -0.0410328903819774 0.0414678531406982 0.0210819601070630 0.0121351949225589 0.0398456842281663 -0.0058876925918954 0.0277287342723050 0.0101569070187931 -0.0386678824858072 0.0341868154227274 -0.0131964506805378 -0.0314143905520428 0.0311452889486397 -0.0053335913031548 0.0516012157991958 0.0439304900741935 0.0011836487306925 -0.0088478517344834 0.0465504247221321 -0.0327014276921355 0.0049955006225097 0.0205523997009510 0.0449069880769271 -0.0134019723097757 0.0360057567552838 -0.0197700273557454 0.0888501828955998 0.0471436179715926 -0.0003365886384549 0.0199958082861899 -0.0094057790480310 0.0392478308238969 -0.0147958598033541 0.0146678184752826 0.0036234906895802 0.0243174677975854 0.0591465706572987 -0.0327143111411526 -0.0412429698179428 -0.0395808087074836 0.0167759502601141 0.0450934814677278 0.0133755221037697 -0.0756068245294009 0.0060579098793931 -0.0178999012239200 -0.0205527085523445 -0.0617949021419099 -0.0433139235087925 0.0341521562893259 -0.0706060245648933 0.0236733525345012 0.0244147271789137 0.0535950339684759 -0.0107581024867798 0.0084842892927782 0.0878971635752128 0.0179300343096172 -0.0555973769497278 -0.0707773999499206 -0.0204989088904507 -0.0559846070031774 0.0772926795366203 -0.0260615420812660 0.0281901599901723 -0.0088648119369626 0.0661845012992743 0.0209722306207756 0.0828728259169865 -0.0895987103325817 0.0036767415016500 0.0216600176593690 0.0213260596600350 0.0210109454916868 0.0302378496438502 0.0119251376538934 0.0108636913728277 -0.0963765799280107 -0.0013442470823434 -0.0207248657959465 0.0269695618064102 0.0342325581616518 0.0006308104447973 -0.0462895475008109 0.0222334089739408 0.0154884689288499 0.0167192006070041 0.0483640673841659 -0.0096041344887959 0.0251619792471904 -0.0114779355200244 -0.0426248815230592 0.0175584788362921 -0.0035925844836901 0.0196381955928844 -0.0196488765081454 0.0156725069049834 -0.0419312681156375 -0.0488800457413326 -0.0198206594590801 0.0219945978255289 -0.0258302486193256 0.0195819418940484 0.0213415473747184 0.0434444273959136 0.0163498715924724 0.0110201534938196 -0.0203489484056589 -0.0150757022025655 -0.0025424032145208 -0.0217408169862962 0.0080935853381139 -0.0046725331561453 0.0020913949467486 0.0093327373167277 0.0064720792260420 -0.0049374568327438 -0.0123386040497758 -0.0429947407206758 0.0054665266324530 0.0208833931208257 -0.0391133998148946 0.0324327675129235 -0.0028823703297648 -0.0240901063231171 -0.0340676179408985 -0.0188711879188013 -0.0319457982615554 -0.0250742004821267 0.0328051862779373 -0.0083349153893934 0.0357929377638217 0.0155520244320994 -0.0206653472189906 -0.0347487390509911 -0.0911666225316543 0.1521911243646070 -0.2266648432120321 0.1969063775899322 -0.0351583099230576 -0.0948142190925687 -0.0938652512860655 -0.0269454724247398 0.4412972621085513 0.2993955091614512 -0.0346123026367249 0.0100120070674679 0.4314813102072525 -0.2647944087814067 -0.2073923864688929 -0.0391170418390273 0.1215235501906668 -0.3904637149316197 0.3629349374096373 -0.0469829506667797 0.1647278562906692 -0.1595188768936649 -0.1083528960189948 0.0701233063364896 0.0741833957905528 -0.2736940903741388 0.0715951437345638 -0.2101829429355190 -0.0981539819015519 0.2509664413702545 -0.3176665841166084 -0.1827487982071721 0.0283617279212420 -0.0975481760245962 0.4278237908478756 -0.1077492679893294 0.1073644576673789 -0.0551972124633246 0.0422149306003105 0.3368679897489300 -0.0171848098522890 0.1579982975449468 0.1313846233187912 -0.0946327991960272 0.0679044744384881 -0.2659061637289577 0.0125042487216045 -0.4450031296305111 0.0195741396499448 -0.1774057228912494 -0.0850756707240700 0.6393693071722895 0.0092812864855903 0.4085270109458252 0.3570671965670886 0.5482895589203964 -0.2805846059919241 0.3799570890944439 -0.6665182903828655 -0.5868634355370315 -0.0739093162170604 0.1405158277008361 -0.5633056174337430 -0.1647358994591194 -0.0727827573104646 -0.1934080072200108 0.0006612541211662 0.2390884780162298 0.0887587279053778 0.1581327502689867 0.1023595645550357 0.4646415061975583 -0.2110577078911221 -0.0420759268624929 0.2454129279012419 -0.3375011836849926 0.1091319371930613 0.3435298955076900 0.2000680716231642 -0.2031815685923495 -0.1085610356990305 -0.2772342084800194 0.3856900030226810 0.0122986722327641 0.1654545106311239 -0.3331174931604479 0.3165269785631069 -0.7925376451337348 0.4173531602972186 -0.5147096653215470 0.2562547878040953 0.1134958617826910 -0.4170025736197508 -0.1130867144036285 -0.2043957977353972 -0.4077953724400391 -0.1694059465207005 0.2514397701796975 0.4141902005486106 -0.3568750606060535 0.0378595612525384 -0.2881710295927094 0.1795691396852489 0.1378990038788234 -0.5925911676996430 0.2574105354028186 -0.1663363969648448 -0.4087875137206729 0.3026007214555800 0.1768953033475631 -0.7029340302439816 0.0554976444493252 0.2871414317133084 -0.2072788582951934 -0.0228260169437061 -0.1055980135536129 -0.1644480755480201 0.0118117656876920 -0.3947474571677669 -0.2431085089825432 0.4923098846572952 0.0755422290661792 0.8839820894617944 -0.1718951723863135 -0.1730925127263887 0.6426728790571590 -0.1912125020498178 0.4654720295372974 -0.2190813560946713 -0.3606405284260024 -0.1222114149350926 -0.1179014795544918 -0.0925276579948566 0.1154360539732028 -0.1253863122877978 0.1031082787970148 -0.1138954484460049 0.1381187839843275 -0.1739868900621426 -0.2509501568731966 -0.0109273198041627 0.0163136213396118 -0.0914823557198816 0.1503357343454045 -0.2266476125630362 -0.1108249333681138 -0.3515096985813205 0.2766658525586315 -0.1219572416976805 -0.2907536701362593 0.3918125049994899 -0.1974148234570393 -0.0938134859103690 0.4782496356318476 0.4118667893837178 0.3151935911829745 1.0072175100031768 0.4669580819474320 0.4353019798436132 0.2513845321860287 0.2904167137286565 -0.4443736337494243 -0.2332434300195989 0.5138615829129358 -0.2554135643280138 -0.3362887719789820 -0.0591496833958544 -0.1386574323241050 -0.3834569537229321 0.8101402702612319 -0.2875037580704237 0.0318434415715460 0.0441463490140539 -0.0456024094436481 -0.4142933038200416 0.0190326378112701 0.0411488639084032 -0.0803838213906956 0.6519167513141665 -0.0393989506374015 -0.4342398839263601 0.2606757462958437 -0.3445200596446311 -0.0383200301518685 0.1103938122814853 -0.1793319534342304 -0.0181620997691553 -0.5390116215014248 0.3148176866250280 0.0219788132010223 -0.2651258716603608 -0.8012915574681909 0.4353261450909880 0.2528944148433387 -0.1801635051446091 0.1349241884718951 -0.0648983855326444 -0.2447519285614620 0.4119333554579968 0.1283512248713380 0.0190763758368239 -0.0468081185726589 0.2179460541304200 -0.2391250343726238 -0.0456610313876647 -0.0366365548359102 0.2033664187524086 -0.7228517300774061 0.2615319526737860 0.0506752299518548 0.0240089567224265 -0.5965951395221626 0.5649760767718156 -0.5878203625144881 0.0350632372931295 0.1793043110180242 0.6506005540319366 0.0045454708778965 0.0953604226230311 0.0473489732747309 -0.0210795349753193 0.3115251601436192 0.0239856456771966 -0.1862884774879361 0.0227835193413905 -0.2152012826731087 -0.1812705239055357 0.2988564270682389 -0.1337771064096719 0.0688407923155469 -0.3723490962728335 -0.0504044707481714 0.3107389930697234 0.2061006046586931 -0.0053976499753813 0.7231229481388065 0.4344579585084541 -0.0724181018278372 -0.1364422422104823 -0.2311062316017959 0.5725019585596501 -0.3642291959592360 0.3908367713493008 0.3056467050134888 0.4397369710835223 0.0072105232466379 0.3103027882609827 0.0916859922164401 0.0072694358196853 0.1624211551547438 -0.1920064322339961 0.0063717413730366 -0.0898473258719096 -0.1265676364203188 -0.2484483635036321 0.2124043416272676 -0.1932642562651183 -0.0579068170534904 -0.1193378495815854 0.2413098698932562 0.2177163144014193 -0.1200684335164908 0.0822090208873511 0.0231916738348262 0.0714515051167593 0.0479886160585343 0.0759405383965643 -0.3184068650659383 0.1665847275322953 0.1954040335282783 -0.2688844978131954 0.1683231133336698 -0.4197919261996295 0.4619526258609253 0.0664829441052964 0.4842473853189762 0.4578689607493898 0.1324662716886947 0.2235149509607004 0.0425079558640099 -0.0305330381160374 0.0088463105866538 -0.3147390258834442 0.0117861018297650 0.1061469462547841 0.0424450993608518 0.0096096929565212 -0.2206814117135331 -0.1078942461464172 -0.0412056896556202 0.1182191193036130 -0.0381803490615981 -0.1183651916191409 -0.0716846427068162 -0.1790819311569859 0.0166703794352291 -0.1554007689533996 0.0338183647767076 -0.0287842831983706 0.1442655360516677 -0.3306120009064085 -0.2572196562411513 -0.4364791601010123 0.2530205947488174 0.0890626554404061 -0.2171497010821194 -0.1664268949139430 -0.3290529442971756 -0.3053394430082886 0.3779598518096874 -0.0577956094243443 -0.0267894902175134 0.0673165328056657 -0.2066643590119118 0.3366227453760890 -0.1783076382254700 -0.0040648345782370 -0.3616087986039659 0.2846086899845270 -0.0968797056659434 -0.0608431060121313 -0.2255900537068585 -0.2186314937887466 0.1656835007332467 -0.1889808530297178 -0.3345042105395548 -0.2025002717405586 0.2028569298893798 0.3522817981850402 -0.1351520407238498 0.3533837705987138 -0.0068032700217658 -0.2611049647526762 0.5806904368925951 0.2415205288462264 0.0380391406427241 -0.3349780886450284 -0.0640632855278543 -0.0551941755745182 0.5784817367753002 0.0795627927960667 -0.2428123409696508 0.1150762898418161 -0.0469903387002924 -0.0104056737884890 -0.2435738113694049 -0.0549993596116395 0.1718595834687222 -0.4030617280323819 -0.0507675211516724 -0.0818732223097016 0.4949760834339506 0.1225190842359707 0.2963412987713265 0.0031373467458917 0.1113524494264293 0.0799209490464473 -0.0456656153489640 -0.2496569961228200 -0.1404874352400771 -0.3664387707344771 -0.0648365980969091 -0.0837860866642064 -0.1579098336855495 0.2093786007742870 0.0411134107945960 0.0189874958062947 0.2753102333311650 0.1225049807660738 0.1210763323089572 -0.1563638415028208 -0.2705563469617172 0.1852733364519868 -0.1723137471401553 -0.0678670185081907 -0.2455782612491679 -0.1494728459173630 -0.0268982845382172 0.0238336748017421 -0.2482428264669086 -0.1471080439397286 -0.5048989277162592 -0.1722121542363829 0.1482333616211156 0.0377630499662273 -0.1858289326140041 -0.1769058199916557 0.1331376693178332 0.1436447643312430 -0.4041676178503171 0.5406142980727839 0.1665714770913595 -0.1190245816312324 -0.3791982915308852 -0.5605300195307766 -0.2769966786176269 0.3712921817572518 0.0386461283808176 0.2885180864163056 -0.2381198778123339 0.5743110576445011 0.2033656863329913 -0.0178867356487171 0.2502030280068813 0.2625167472521788 0.5082643207622086 0.2674310908402880 -0.0993727058506963 -0.2087374170438765 0.0694711725664319 0.1431455612128117 0.0061999998061669 -0.1616926688343774 0.4964163066681080 0.3112966444256465 0.0385168135535447 -0.2476791319907090 -0.2094682073834488 0.1878164881403941 -0.3424979434894150 -0.1611734444636933 0.0377523446418150 0.2868594490432197 0.0967101043321948 -0.1234265214872488 0.1885379923079293 0.6495257809913626 -0.2866003324941505 -0.1236739383898165 0.2034636774832642 -0.0576198020859249 -0.3051367042908918 0.1837407734884578 -0.1331778895118766 -0.0062491980838874 -0.0484859811586436 0.0736540849696633 -0.0839139242350152 -0.2802778009463042 -0.0844551752342801 -0.2116058610255067 -0.0052253129543703 -0.2160682582574025 -0.0733468287567100 -0.1454379531228665 0.0317422222859513 -0.0371308307262597 -0.1766293538626367 -0.1795096577960784 0.2283084204043695 -0.0696544606459076 -0.3885842920749305 -0.0788456822605141 0.0323213013776705 -0.4036761396190767 0.1868441808015578 -0.0365031666006474 -0.2130766878221024 0.0671530284787023 0.1798027839343419 -0.2858946641951469 -0.2149071618960083 0.0982950244892092 0.1017545412280205 -0.0471384472249705 -0.1874569978535942 0.2081414402862490 -0.1486923164767625 0.0399436295414786 0.1110144519920939 0.1999302426433850 -0.2026195259698593 -0.1539395438822915 0.0807003492216707 0.0264430320275734 -0.2469801992469982 -0.0872968660195103 0.3752752925372702 -0.0458648608319193 0.1502947364097039 0.1266811827730271 0.4118283168815054 0.1050762195525740 -0.2531761121169671 -0.3380780312681908 -0.0427013751446031 0.1330420892361719 -0.0208481626447481 0.0260277406426230 -0.5070416292840517 0.2269250857672858 -0.3416119606995258 0.1240764625453546 -0.3964254820781575 0.0510698049010918 0.0663224446481510 0.1342760525842940 -0.0875051525602591 -0.1068343915408501 0.0808591259454365 0.2468430982086646 -0.0015291753366248 0.0753940767506912 0.0938006563798290 -0.0996735477203551 -0.0686791638173102 0.1254150395681923 0.0417327195834874 -0.1869531338630532 -0.1125292811643684 0.0355972704315794 0.2801262971614441 -0.1234232389811244 -0.1273711006149293 -0.3488079998836300 -0.1085971205937983 -0.4096991275718135 0.1469060557512276 -0.3014136426442517 0.3049606633395909 -0.0528782149279528 0.1669176309587093 -0.2138553876811671 -0.0694259285878333 -0.1673813147334078 -0.1358301497276330 0.2962387329938433 -0.2710343081009879 0.2296847078821788 -0.3000208410064205 0.4771071274679184 -0.1371647891859948 -0.0012310808672692 0.0672824122407276 -0.0862024066359650 0.0335305895806214 0.2506664605351445 -0.1614343541256494 -0.1667577455442261 0.2130964437095741 0.1140374465353534 -0.3685657589327442 0.2964964462551090 0.2304992857070429 0.3644372964269148 0.1187406513228541 0.0220658621829854 -0.2030471935695193 -0.2894765022154814 -0.2534096784662187 0.0384112800831965 -0.1001047252814491 -0.2760390715786307 0.0430736412084085 -0.0066161430016360 -0.0007923392701887 0.0878182097671903 0.2393497970964546 0.0372438326946158 0.0917612456159686 -0.0541527387133641 -0.0305131428361689 0.2794823733239001 -0.3878422520606502 -0.1007657346061877 0.0570666606947928 -0.1724193376966111 0.2113834306308991 0.0436788853513147 0.3856129219669120 0.1672554812986023 0.0507196356609047 0.0914444016215330 -0.0220048570246217 -0.1825828285846485 -0.4614870378366085 -0.1893208906529228 -0.0834399783369069 0.1889798141273342 0.0269770541302243 0.1134576701472184 0.0368356858954679 0.1464107539479593 -0.0652095927043815 0.8887750165147872 0.0178637712374819 0.1863430557589986 0.0225310427389611 -0.1882560297837784 0.2173502489234570 0.1916994359176630 -0.0919234453041524 0.0384195568252815 0.2084858774910115 -0.2336453185036900 -0.0280387653167382 0.1606237153911620 0.0066705059423125 -0.0884087170228430 -0.2121543811921835 -0.0902736740010683 -0.1505363997367452 0.0181224199285831 -0.1232246758084132 0.0926662087177083 0.0682324644703852 -0.1669031632563267 -0.1131182861575880 0.0856912181250646 0.1451943355603389 0.3737409285520491 -0.1409089687638790 0.1326181705122126 -0.0471013742666319 -0.0593441344906007 0.0509016303178527 0.1035521906933843 0.0445575711641525 -0.2380203244966048 0.2262586036560154 0.1493035977495881 0.1129768360930364 -0.0685502143265888 -0.2044290011326971 -0.1795390248834444 0.0285470729540070 -0.0037335282228709 -0.0296409989585745 0.0452201073990030 -0.0929295500868340 -0.0200544819533000 -0.2390173132547323 0.1480593261297386 -0.0183993900366316 -0.1721910077633250 0.0672707030140225 -0.2009922805498544 -0.0247639528929888 -0.1634932043500258 -0.1777179749506817 0.3447081176913268 -0.1847659625848426 0.0161981475444878 0.1554893175904997 0.2080748862524091 -0.1842007020812431 -0.2448291748467437 0.1421531369377082 0.3914439005752031 -0.0061924386052334 0.0945469979866289 0.0184431470266500 0.0938394398690840 0.1128339200715899 0.0143759515656441 0.1523629780335729 0.1972289644498085 -0.0391778763284384 0.1704698599699668 -0.0421817838976722 0.0865939644170805 -0.1200788204167059 -0.1802002778711857 0.1767143673192942 0.0623981295090958 -0.1695018651973035 -0.0027782047087015 -0.2837873539853089 0.2838081769486666 -0.1276869941272955 -0.2280400366753117 -0.1733055923157844 0.0566690916037053 0.1443189875340630 0.0271287915992587 0.0003569216527923 -0.0321144421708082 0.1369338713390533 -0.0661533029004502 0.0359543382658010 -0.0199840945082644 0.1486709966632331 0.3278754297355634 0.1407069409641933 -0.0048851682725738 -0.1663320955563938 0.0980145340760630 -0.1485005422619217 0.2877755548627843 -0.2851864746955892 0.2270340170295966 0.0529331546612501 0.0522037344513591 0.3071301623391136 0.0804930368376534 -0.0458639749474054 -0.1202525239007377 -0.1078478473571685 0.0524430692168938 0.1317719425826400 0.0925412826287388 -0.4328146149605402 0.1210804389525440 0.0420209294088246 -0.2362173947560198 -0.2736350923734344 -0.0353891983830566 -0.1159354044694932 -0.1127555147044505 0.1458593127522584 -0.1583348588336215 0.0627286390577076 -0.0231993202072163 0.0652612049139600 0.1555090858850958 -0.2222093079252256 -0.1035367658369498 0.1720633769172639 -0.0144482943227782 0.2214746577241510 0.0685617324272688 -0.1156392649949382 -0.1530274485476819 -0.1088316065285448 -0.0556890477338655 -0.0270422074495649 0.0856488325968517 0.0554532820509005 -0.1036834336768607 0.1226587785731529 0.1105080576571547 -0.0440747624407520 -0.0587236025013194 0.1013782221186475 -0.0309682756336973 0.2962993544183041 0.2401469771995066 -0.0781838242302805 0.0293657268785183 0.0693376713331778 0.0834109405702379 0.1358122526764076 0.1435762017122596 0.0113558165073045 0.0974099554706460 -0.2763146163221123 -0.1009021678024121 0.0584350818704079 0.1179642082658277 -0.0267845286618802 -0.0436497946082494 0.0083954909787929 -0.1319560972742828 -0.0531443600653759 0.0262165536487803 -0.0670674297644238 0.0285245518956032 0.0929273932739462 -0.0238036450859573 -0.0442407676827254 0.0120165293549646 -0.0906793675061913 0.1438299102127395 -0.0872775968525261 -0.1969356534588357 -0.0074465610875749 -0.0012795272707136 0.0007785049897971 -0.0760378702624167 -0.2876554541891749 0.1277985414209408 -0.1608024558824343 0.1331853256105213 0.1320787758410687 -0.2580524129347606 0.2239636327709270 0.0706704833168817 0.0663112597152497 -0.1272407723181092 0.0593797434357738 -0.0087409578998725 0.0649261408872827 -0.0403070664816235 0.2336184465250134 -0.1340630230183653 -0.1085411426279475 -0.0978591469171525 0.0834953549139278 0.0294598834905798 -0.1149787081818657 -0.1525244807984656 0.0434366390813415 0.1744885984284511 -0.0250301381140948 -0.0595460578044699 -0.0448781276205054 -0.0882845105707005 -0.1461276622458398 0.0781821464028151 0.1629490072329077 -0.0601862688539401 -0.0822210653100063 -0.1525864804710279 -0.1812543349282059 -0.0433191675621981 0.0168906405073393 -0.1100517207476624 -0.0809563457388243 -0.1780330539429978 0.0616648128677284 0.0072460981853468 -0.2637048890380277 0.0736990830282968 0.0806460070682180 0.0637375964801795 0.0648093548090317 -0.1234314932747201 0.1737221993621059 -0.0389834345567192 0.1871799960598336 0.0992294432510429 -0.1856711280761366 0.0284436489564505 -0.0817092246268063 -0.0508688982636048 -0.2010609896262439 -0.0009861289876557 0.0010288451876662 -0.0850790517142582 0.0209458464731589 -0.1023613469845186 0.0880129511311951 -0.0934332284753332 -0.0246386615291418 -0.1352467515933450 -0.1787465694275472 -0.0510159256766908 0.0619322857390326 -0.0455264036218983 -0.1551931379389079 -0.1315424664383632 0.1092475768512934 0.0182473085112912 -0.0574588370616590 -0.0749816542683721 0.0281430817994618 0.0799004988376467 -0.0676458099932045 0.0955512578009323 -0.0412387119258310 -0.0186078294469501 0.1224450654636811 0.0470709827518669 0.0770831025284940 -0.1007394353046448 -0.1160405581944818 -0.1297015138499343 -0.1232228021320146 0.0798242462456356 -0.0425379539029789 -0.0301629638023395 0.0304078103513776 -0.1439425488262183 0.0349345596308419 -0.2121516982676899 -0.0121942163840348 0.0380860754736325 0.1153982228344295 0.0983202510966882 0.1185478437270561 -0.0987845121968930 0.0984123437404771 0.0123735920222069 0.0517257582200664 -0.1365463581094928 -0.1346520826084205 0.1210012329729399 0.0769800861759581 -0.0506275600170903 0.0563876993208629 -0.0218688179404369 -0.1024382779828076 -0.0719857661084696 -0.0540032184211910 -0.0388152834948055 -0.0102453456213546 0.1276139445426310 0.0224767498156399 -0.2192007654875373 0.0581835134655586 -0.1494334317080306 0.1942642656233798 -0.0262209845748945 0.1004160210485667 -0.0889990953299179 0.0161809151263658 0.0803295770900079 -0.1136490263176695 0.0641479575285118 0.0074880417348509 -0.1180940670567068 -0.2608468014859724 -0.6826604526680725 -0.0760524341514520 0.3280776825624719 0.1305282725240185 -0.8652809740759465 -0.4305316538245270 0.2400044591793810 -0.5165772855028304 0.0957040985660624 0.2903388736923405 0.5052889794608050 -0.1326153088706385 -0.0358227277066035 0.3796559263247848 0.2436639252441275 -0.3239642621262944 0.1859553995027119 0.1559752012856114 0.5440494127513370 -0.1041189510934930 -0.2024835390253006 -0.1806636217060641 0.2110884622235131 0.1653401927093809 0.1180665789112552 0.1640978831458728 0.3070508994418157 -0.3320050979082312 0.0423021523454742 0.0512337774701228 0.0102066841389644 0.0567687334808600 0.0754087516038574 -0.1418018938372142 -0.2530530968642407 -0.2977386573227303 0.1225531412551501 0.1807235235474554 0.3257313443701992 -0.2572516197001747 0.3033554515863494 -0.0800668740144042 -0.3523691638233654 0.3925755661099503 -0.2999541576124782 0.2388163078165087 0.2023023559445302 -0.0728588507641693 -0.2467360385962898 0.1827351088345583 0.1943800579387714 -0.0104241080893097 -0.1333291387989230 0.3326526289280306 -0.2069870604772138 0.1640788927865405 -0.0192747385690784 -0.0451867312832860 0.2753437947392047 0.0317064555939882 -0.0490910856888310 -0.2580147215691562 0.3012857300759239 0.1606950444903403 -0.0929877800896926 -0.2804873268902768 0.0945365517835046 0.3679987437651546 -0.5956322761769810 -0.0249136909576174 0.2372744010286898 0.2245082840651048 0.4848689166415275 -0.3435351550993569 0.1303084350546499 -0.1400116710924736 -0.0207070364480537 0.1862304926245771 -0.0581992102886012 0.0946862120032407 0.0236994735748396 0.2354166043286376 0.0463082244591990 0.0206559939177081 0.2620235784298007 0.0066480275718324 -0.0424906101373612 -0.1412763029798076 -0.1546911920062643 0.0711766331001021 -0.0723758983487542 0.0305873670110806 -0.2323259258270943 -0.2785363759581849 -0.2854543862213217 0.2650619061175064 -0.0314782233170285 -0.0016840038231902 0.1224180091084642 -0.1195559845025042 0.0608285425370364 0.0089742442228841 0.3248514176025305 0.0759448432543782 0.1690655713182907 -0.0213604333682347 0.0194329531267513 -0.5306939116584157 -0.3962433685187199 -0.0901298325447272 0.2927330138280790 0.0212547991647412 0.1011052016760342 -0.2531892523004279 0.1948268454305697 -0.1931660549365290 0.3117860909519063 0.0060372874355939 -0.0546195617014606 0.2130696239309088 0.2246980227922398 0.0668964869822333 -0.0434927014097670 -0.1077696329877548 0.1482887494797441 -0.3652901110598606 0.0854098898555182 0.3615041377974837 -0.0544403253266308 -0.2129087203369577 0.2066316460320324 0.1352853233667358 -0.1814284302266150 0.3000163803583967 0.4251918441694909 0.0337027205973289 -0.0902060292442159 0.2938250632741005 0.0306433833622690 -0.0573735713473382 -0.0703002464140407 -0.2264288550586964 -0.0800545941769238 0.0170564005814400 0.2662827266013811 -0.1969323139447193 0.0200138277590864 0.0499812099970901 -0.0314930857795003 0.0112536427113084 0.1005169278119654 0.0859307091133366 -0.3090170543686239 -0.1947265566497938 -0.2792231413499789 0.2371290341415142 -0.1524949522983091 0.2069213533969081 0.0267059586866582 -0.0736516625435755 0.3423951795143184 -0.1719914692513912 -0.0932958436872076 -0.0727633202597551 0.2832204776591848 0.2832617756743480 -0.5543869651291006 0.4027660368440033 -0.1861288476984689 0.1997224851707454 -0.1275169000487236 0.2890968355731633 -0.0954202332211394 -0.3245884689045722 -0.1026875749740079 0.1642393898795037 -0.0320113478559539 0.2372362768270918 0.2454167987209553 0.0275760023924651 -0.3870134845333651 0.5252362369497704 -0.0010674532624467 -0.1117275213940819 0.0927596370259165 -0.1431860331984022 0.1219941181389505 -0.0967968134570271 -0.2927768592146833 -0.1113194752878491 0.1098986418480249 0.1626386140603636 0.0118518662676705 0.3209984741998868 -0.0278041439915825 -0.0425579368300542 0.4030475285468747 0.0998125195500038 0.3496071386744948 -0.1022430182582109 -0.3429459749593285 -0.0060222393680020 0.2055704729412078 0.3830655526392642 -0.0791205756865547 -0.0764446499038944 -0.1057520880388333 0.1784142289286276 -0.0328679656326526 0.0726792291622249 0.2576028241481460 -0.2299145653503668 -0.4994212697903931 0.1488085239156745 -0.2637971289219633 0.1235923910311885 -0.1310714344675819 -0.0202376958854647 -0.1419326450030465 0.2860526686897708 -0.0490373946174718 -0.0542388614291930 -0.2241586433886405 -0.0831506507773281 -0.1884865310755965 -0.0591427754603470 0.1746558058547314 -0.2234457117105373 0.3173401651121393 -0.1569753516752613 -0.1615732104302470 -0.0373875077521127 -0.0519400651140334 -0.0790309653652875 -0.1640157373927790 0.2768125343904430 0.3048780497934439 -0.4749985854692448 -0.1477382172979176 0.3113524345090163 0.0475778949604300 -0.0173212475935360 -0.1783908641818946 0.4251491563683982 -0.2869837707462087 0.1381199746419489 0.2273918421611965 -0.0739747765561058 -0.2507455740205622 0.1035989861317825 -0.2019865550697352 -0.0663218615018255 -0.3023038935455859 0.0137404206704716 -0.2879099119629069 0.0316797620359578 0.2062257846331848 0.0594887464159484 -0.1765653265465368 0.0222403841072511 -0.0977220428440729 -0.1094133834677240 -0.1456811297940157 -0.1683280043305711 -0.1357964392313022 0.3179480285541731 0.0600900147684345 -0.3497442451692717 -0.0506070916815938 -0.1656363671030359 0.2628856691750608 0.0850527243136672 0.2134148564276832 0.1982406885920784 0.1848064586869890 0.5482337614545862 0.3357292091392211 -0.1875143506011163 -0.1942109744147440 0.0916431650838894 0.5494919270006730 0.1781924497632133 -0.3733174653390782 -0.2019841993557341 -0.1940600279523480 0.1041463826250726 0.0522769834054765 -0.1864767010531553 -0.0393595184709184 -0.0664365304235209 0.0861203483459137 -0.2877888604586374 0.1258404252107073 -0.1092856430800171 0.2219088060350163 0.1890833296001841 0.0281768117992166 -0.1238176981956112 -0.1186903481558548 0.8002642363484411 -0.1990229738785857 -0.2046379392301481 0.5069189918165211 -0.6178382483598034 -0.2796302768987419 0.1342623990111156 -0.1877354816229967 0.1650094286951975 0.1582886578278047 -0.2132071803626488 -0.0859519420391975 0.5336276804366871 -0.1010279463882510 -0.1463358167372265 0.3274918450093898 0.0094657012245488 0.1400244553308896 -0.1740065011206912 -0.0432481767939952 0.3112363576360140 -0.1515900332808811 -0.6104470103032372 0.0389676067391606 -0.0100439251706436 -0.0259694034722027 -0.2402189760875019 -0.2235127348283142 0.4489018353902223 -0.2522253985912396 0.1490033332401964 -0.4279282764358152 -0.1067384226075650 0.7503506972150926 -0.1111569308183768 -0.2129105703912134 0.4063535095439103 0.4767704883036547 -0.1579350671917671 -0.1158226120515893 0.5044546651794624 -0.2267542003927433 0.0584222558293058 -0.4445665408087235 -0.1786784236758294 -0.0431298911296929 -0.6014947790613460 -0.0408809500541015 0.3624889376562149 -0.4888657952697546 0.1987569704034203 -0.4915300086911467 0.4360563057371994 -0.0575447737854861 0.3418226603418156 -0.2667824857086579 0.1537639806099869 0.1234957447523773 0.1977237649848002 0.0039249984956964 0.5613539525651917 -0.3679953264285137 -0.0997324944192654 -0.0962631319703994 -0.0977314541567052 0.3511025659484868 0.1785772909902060 -0.2897003082214265 -0.2300342734742230 0.1599658265221793 0.4316692091525569 -0.3428905302309219 -0.2249555507929915 -0.1696459418199084 -0.1632412832120289 -0.0660616547384210 -0.3305573672101143 -0.4082400187717488 -0.2105419718452091 0.1751907792923849 -0.5706484125118727 -0.1666131510388586 0.4433859300150154 0.4287199177544105 -0.1488220359311901 -0.0887345806233733 -0.0096585338537225 0.1332727778344012 0.0220297396034941 0.1320261373745644 -0.1114623220659297 0.3476737509788313 0.2315197076827223 0.3610499026743275 0.2366901913965134 -0.4059169126787092 0.6021971785147039 0.2864730926522863 0.0209447073289426 0.0694363878022844 -0.0777343936625165 0.2430953357802795 0.4850190828200597 -0.9722247133342488 0.1342979459850195 -0.4678299835308880 -0.6370253348026416 -0.3081038579551871 0.0711501816340416 0.2595519387409569 0.0460390585982305 -0.1176704853137566 0.4872565235584628 0.0079835244790122 -0.5489370951571056 -0.0790468164535411 -0.4897285798201483 -0.6925589157990130 0.0221375874866291 -0.1204603038368729 0.0245271880999744 -0.0716710272025257 -0.0922001042053919 -0.0846089335638235 0.0881459138406095 0.1044145208641882 -0.0157980990775385 -0.2563062478055614 -0.1332060909240488 0.1823349543009143 -0.2789679357129550 0.1022099914199305 -0.0878623056612489 -0.0301170252234382 0.0739775087825576 -0.4594780829707530 0.0799313542895070 -0.4492695699705406 0.2172461571257373 0.1263192887748532 0.3042535833296861 -0.1790177822756504 0.0479693969592281 -0.0022641810955528 -0.1067776215890569 -0.2953379393786306 0.2186655222163502 -0.0515433104805526 0.2164967131880580 0.0754468292775564 0.0127873196758550 0.4764108461751800 -0.5873377213129665 0.5157141568595135 -0.0835494774603622 1.0862714074978084 0.2082010575360580 0.1076391729743570 0.1172751893115774 0.2510140062160343 0.0706656665392184 0.1949271057034766 -0.0389482300798370 -0.2737436234502151 0.0468387238153835 -0.0602079883434703 -0.0551892852197470 0.1743008145263616 0.4518729873947384 0.1653002426383410 0.2363678219985652 -0.0451436588804739 0.2277044513427011 -0.3435840446740372 0.1632041289518651 -0.0467031092961886 -0.2777148210174055 0.5519023941868793 -0.0159854100419493 0.2523597769305596 0.2482319194154364 0.0959400300273653 0.4402836854454911 -0.2356608657829984 -0.1011274967001349 0.0027485930837875 0.1601883077789498 -0.1226678132474873 0.2619385178392730 0.4065057913182839 0.3458408826340035 -0.0277157506302851 -0.0042175342546259 -0.0460412611044806 0.0282592553458810 -0.0276132551496358 0.2908405561487958 -0.1813609960098397 -0.0071104604899397 0.2653425451828381 0.2809627642196538 -0.1340955444162300 -0.0491285935878290 0.3613692223039089 -0.2653956569727704 -0.3379404921476814 -0.4639637497519554 0.0076932059630899 0.4177575443442506 0.1862992507510567 0.0621642182850903 -0.0238001154232789 -0.5841231491261711 -0.5272387960663556 0.0186419481126250 0.0907858773215942 -0.1456298181463160 -0.2320708363851011 0.1342702699028450 0.0823446493638193 0.1665608052452364 -0.1383764349847833 0.0634505521688458 -0.1474394587060385 -0.3086940760869237 0.2532836200286329 -0.0788800957746108 -0.5600622340194163 -0.2937893604252462 -0.0056339746028146 -0.1191817735476902 0.2159954661391597 -0.2856455248677074 0.0812688623502036 0.0769239753113313 0.1505718464442505 0.3444380420874300 -0.0544164956162288 -0.3558035375002262 -0.1060164655877651 0.1677379744453623 -0.0955741037270315 0.2243931682393762 -0.2427345517142162 0.2650881917121968 0.2649044058423526 0.2076794792717560 0.3018255503820877 0.0230826274801806 -0.1059736293008409 0.1248566504331099 0.0304612605459916 0.1089778369662530 0.0215221992085261 0.1141989389252075 -0.0088439300311310 -0.0588593486885390 -0.0953623960742964 -0.1135548166657401 -0.0680667755902026 -0.2469061043575665 0.0849154702563677 -0.0687376716729152 0.2775716879028535 -0.1612577221842290 -0.0943675401175901 -0.1137589338260320 0.1990850221954267 0.0667353877260338 -0.1591573802250091 -0.1887219226909397 0.0426271027101526 -0.0348696551680118 -0.0136100661776207 -0.1216383934361824 0.4020375814581060 0.3521722743628373 0.2123625272973189 0.0795041017851472 -0.0206254062033338 0.0799033706739236 -0.0678760991399529 -0.3339264817684802 -0.6074130169707505 -0.2556263152624161 -0.0253263500472680 0.1793944797335611 0.3082155373931116 0.0067646504935218 -0.2851826772741466 -0.0698987838435001 -0.1530508067579794 0.0207222801416003 -0.0237743902391707 0.0860329455441595 -0.0546625415718472 0.0763268215537272 0.0208428409365803 0.0924637293921101 -0.1405649710129817 -0.0348996002778793 0.2553171348135452 -0.1368024281358534 0.1084055887850182 0.0014726864073601 -0.1212794725695662 -0.0445169712941358 -0.1065834343006504 0.0118885736258916 0.0226671267420727 0.0227087415796398 0.0377996183784164 -0.0340775192300233 0.0999842017385645 0.1966162005524726 -0.0336368428858369 -0.3347315774272278 0.1283873081954721 -0.0132421574394715 -0.0551142407945465 0.2626039208249270 0.0598188286045809 -0.0472810125506769 0.0348900066473490 -0.1048468047793374 -0.0687248538360300 -0.1164270490867158 -0.0263451014718912 0.1145329400624029 -0.0969488326824185 -0.3612586931170639 -0.1005313004094336 0.0080512307595071 -0.1042520892666120 0.1118796484231323 -0.0171918272716583 0.1747581415499237 -0.1450113295928399 -0.0901743770495481 -0.0505279085416270 -0.4466526682217702 -0.2138694311112222 0.1616078744143485 -0.0277754273436647 0.1635803185041382 -0.0072811084522227 0.0729501047589856 0.0888533736363295 0.0737814972315023 0.0160457867741401 -0.2579921872409983 -0.0439149530308529 0.1052531827210705 -0.0778313092572815 0.1162855732170978 0.2232969134704975 0.1330182473235975 0.0442344575584695 -0.0969346783584022 -0.1524405550655353 0.2892315702177523 0.2697711323418049 0.0961532984590719 -0.1443602664565913 -0.0245398449196098 0.0579534375507073 -0.0113257064062534 -0.0811581645803623 0.0187700043524916 -0.0676401286331898 -0.1400635418658606 0.0677903807967197 0.1833271644825576 -0.0341592406995326 -0.0773186546647735 -0.0342544869237529 -0.0772321568660531 0.2612390912739206 -0.1195271626107990 0.1132988664809653 0.0420562707059008 -0.0697968936370535 0.0875989249334804 0.0773310158837133 -0.0328122231953425 -0.1685124433567360 0.1030036123705668 -0.1563424058796963 -0.2830449988262378 -0.0487420762695991 0.0900804494097343 -0.0533678463771584 0.1659947708691043 0.2764290860787245 0.0780884724665864 -0.1695972518758624 0.3409125095618680 0.2810162020557480 0.1119243058348506 0.1192408944848825 -0.0823049056764169 -0.1084587749421769 -0.2027782064132703 -0.1642952784805829 0.0281976193726667 0.0207434564558537 0.0521630284674860 -0.0615786580838438 -0.0713040101483331 -0.0690110557173480 -0.0974339232655915 0.1954196222798308 0.1514692488504838 0.0595387609701915 0.1258764757976626 0.0610511822387686 -0.1615309884931442 -0.0798314295893163 0.0153350697902736 -0.1159142881520500 0.1867922933449877 0.2003177267004443 -0.1165829490418000 0.2849241311208219 0.3153142143310119 0.0219117594613336 -0.1481357355146632 -0.1001709219135319 0.2579356199972803 -0.0702753305721877 -0.1577340641343684 -0.0726717677016744 0.0421557039604625 0.1286652914485139 -0.1283635978865072 -0.1030858578602142 0.0359024432103277 -0.0156346639317396 0.2303737317939831 0.1321905044878081 -0.1153345163431773 0.0261578348308459 -0.1927275266540852 0.2451264376837646 0.1935517255605549 -0.0480084287263319 -0.1225942515839025 0.2517557315084644 0.1431632497534852 -0.1105825293775902 -0.1304539497357911 0.0021030646916044 -0.3482948561860996 0.3145783447173547 0.1903183378471690 -0.0271413332512217 0.1296023875178603 -0.0376397978819051 0.1102474969220224 -0.0309141912487408 -0.1513150917808822 0.0958195669493216 0.0688476178661560 -0.2348699209146743 0.2315717651878967 -0.0053826770611280 0.1173399800224712 0.0454981300344846 -0.1891188927749320 -0.0391960536417474 0.0482163374617501 -0.2737574386511503 0.3599896134501331 -0.5909428164712633 0.3106461925533388 0.1231981318470105 0.1284682681337847 -0.0378675241730153 -0.1451821766767383 0.0139324534466244 0.1084442887266274 0.1634551393096086 -0.0764161008628391 -0.2110079214979418 0.0929566737474904 -0.0642913835506107 -0.1509235360522722 -0.1556900207534601 -0.1360809292273719 -0.2026753815897192 0.0594706360767373 0.0809680683189253 0.2994120170062325 -0.1597402454404174 0.2919921214929888 0.0382522132732362 0.1125140709350778 0.0391826862459329 -0.0502603799024837 0.0004384427135922 0.0997098889207743 -0.0264759986048995 0.0688449684937218 0.0552920311077306 0.1115350120664545 -0.1728404213647803 0.2107662220142192 0.1858157791200362 0.1848496766045015 0.1827240426223797 0.2733569832677770 -0.0652915372665432 -0.0052489660036197 0.2842894240721339 0.0148665061946425 0.0920068704804067 0.1471240062784905 -0.1883052651703703 -0.0609662750859540 0.2101873151353553 -0.1157580234790273 0.1803589510967734 0.0839421173241982 0.0787643921638456 -0.2464121511489150 -0.2418980846324747 -0.1887123713647513 0.0389657544435680 0.0081601194753225 -0.0343479308290549 -0.0916036268078293 -0.0226774496547581 0.0439752742862971 0.0135853425963839 0.1542677535579608 0.0279356526226567 -0.0128050203754951 -0.3571045706626684 0.3106555391424724 -0.0950358518616177 -0.1439278874135765 -0.1381683420218996 0.0755731501756070 0.0512224724331966 0.1469445471546967 0.1326973213952125 -0.0233250759340999 -0.0081616276827255 0.0804841103600189 0.2141787685687281 0.0191429551134993 -0.1988212647948431 -0.0870820446448607 -0.1638982080823667 0.0813804372121288 -0.0321781486498781 0.0624196573883946 -0.0010186615779317 0.1502351621433510 0.0089203773943227 0.1352807602131981 -0.1452345821756229 -0.0631331670882288 0.0108924014698647 -0.3392375598914905 -0.0342705612806687 0.0352639447167087 -0.0566621834726407 0.0758462945933085 -0.0662259626249208 -0.0673443689192982 -0.2569815947830656 -0.0438602653976763 0.0333923246658394 0.1646887489745247 -0.0702108178147634 0.1574924743809283 -0.0434661448387927 0.0284767701251903 0.0947459710546566 -0.0724169126087687 0.0515629833545547 0.1381539521374713 0.1226664956735793 -0.0079823763101540 -0.1347182563301267 -0.1870969036428982 0.0264722498255273 -0.0297019482892425 -0.0086930164904727 -0.0283871746609517 0.0264700289824058 -0.0861137791887200 -0.1139290992884706 -0.0504040493226538 -0.0417738824446802 0.0586807051569111 0.0002442424267027 -0.0323484971057186 -0.2263148135279632 -0.3265006828387840 0.0515693373968327 0.1309377202024271 0.1876249381594897 -0.0363329540480867 -0.3287766267848034 0.4858825453656895 0.1754350838298550 0.0406616155988882 -0.1012940533992237 -0.2255660353410600 -0.1662745127035374 -0.0367509062772600 0.0716541468693538 -0.0128455468517759 0.3163835973295627 0.3570527830508122 0.1444086247397122 -0.1256949458347058 0.0946714481831926 -0.2392422027081671 -0.2741261572024135 -0.3278232620573193 -0.1024401220443760 0.0353619284006424 -0.0782280822915786 0.0816935254177135 0.1168736988292897 0.1260532489217923 0.1572655045388399 0.2635903762777558 0.3252453375512016 -0.2191746701466579 -0.2089890230962810 -0.2006218126365993 0.0045452831580574 -0.0869297722402648 0.2203366394896123 0.1053349952875096 0.0791353661856620 -0.1219955016663004 -0.2597721609864066 -0.2163296096177206 -0.4437086632145363 0.0294492969963654 -0.1161666375691917 -0.4035866501821301 0.1305096644115184 0.1185127682905777 -0.2117048236594108 -0.1412553322809033 0.0131042842234105 -0.0685112696757197 -0.0546665274159633 0.2016335346170053 0.1169714823781227 0.2221872451576924 0.2497564249577643 -0.0595072851354177 0.1584073921801123 -0.0366762153192779 -0.1354348791639497 0.4740473755673785 -0.1961477740309385 0.1848525715799406 -0.1612803415462179 -0.3533536927409182 -0.3175516884859561 0.1605675676929414 0.4176744133163703 -0.0743271238571501 0.0277699063622550 -0.0496099643387941 -0.0809599705248451 -0.0720750949731373 0.1755097127046667 0.0801594420543752 -0.0592822684391009 0.1006777526066246 -0.0690159490249622 -0.0713654821974501 0.1746837191984438 -0.0864125940364617 -0.3788557008235849 -0.1449838736434856 0.1063960646636728 0.0718458505715513 0.0362905419028695 -0.0998131484396539 -0.2296582555211390 -0.2217081554223728 0.0732483329595058 -0.1206910644995262 -0.4109057315749475 0.1104745900573296 0.1118477787232453 -0.0657981312082921 0.2801121048755615 0.0838947118867203 -0.0159684564731813 0.2612316326509967 -0.2287479400271650 0.0383114303781521 0.2376504409065789 0.0176151285160523 -0.2184494090687391 0.0656980021507803 0.2443307217361446 0.0916920689434709 -0.2241450908586403 0.0844314594773851 0.2595521501714267 0.1214443318811881 -0.0086266585368728 -0.1867268601217554 -0.2779432984494406 0.2265836661666693 0.0568803368585121 0.0472020336910149 -0.1677432388884537 -0.2232760514859532 0.0683004347479477 0.1456968745639631 0.2150691841398150 -0.0239853513340616 0.1204240006041068 -0.1305783277149197 0.2662863898896939 -0.1361165074953402 -0.2054164140157350 0.3545777682983220 -0.1414792175811042 0.1523899903751610 -0.0937926724179950 -0.1747391368333348 -0.1343522177181367 -0.0913138550896297 -0.1124537924387011 0.1055083586554721 0.1317422096455448 -0.1623580165897595 -0.0874159960218336 0.0381208795838874 -0.0773568509325094 0.1273451533002088 -0.1276332405952690 0.0757077380534700 -0.3202069249136199 0.0159694640120075 0.0027539633175388 0.0982404210897602 0.0992146896638102 -0.2886050351488075 0.0713575513136784 0.1429867428555238 0.0860619921452007 -0.1692681062968523 -0.0042355046809956 -0.0087972798060587 -0.0939775016342103 -0.0787725898977831 -0.1764150409240492 -0.2204710972668869 -0.0287557893132933 0.1930141523527607 -0.2347516211453697 -0.0208186477808442 -0.0448055306181007 0.1163142641896751 0.0512512207948051 -0.1043738432322299 -0.0665771948690448 -0.1465285175418473 0.1138631466369786 0.0369769867705240 -0.0821685852921987 0.1561293023832860 -0.0430053599762480 -0.1426042535831126 0.0334519871650846 -0.0133324786039349 0.0158593961121686 0.2490118788959581 -0.2423501417736139 0.2774479480763538 0.1936092699764951 -0.1699703491335917 -0.0435143572682254 0.1803702653682396 0.2302253083603087 -0.1420936041713792 0.0742668697797786 -0.3339980752980676 -0.4101854002267256 0.3102073492110193 0.1828504915392095 0.1290929644827197 0.1133394576031115 -0.2031569821297215 -0.1409340048461696 -0.1993300906520951 0.1731676080488608 0.2722375377984253 -0.0778692228148036 -0.0471137575201411 0.1360985464021417 0.1673287823629745 -0.2181538395851352 -0.0033930770229632 -0.0735263367448171 0.1153228151784454 0.3417625161840707 -0.0087885331200218 0.0412836636761386 -0.1590918451631847 -0.1424505962792190 0.1924646532407065 -0.1179991654940315 0.1085199993403312 0.1017749748118836 0.1578472588448681 -0.1378090725857568 0.0342078713824749 0.0831507836953528 -0.0159728547682410 0.1189081478979439 0.1223413574854225 -0.2232788038751350 0.3059257985722251 -0.0209483735247927 -0.2305713598942483 -0.0119284441432081 0.1464386245338735 0.1299398163925550 0.3323829152588970 -0.3317608582925334 0.0926674438647477 0.0116033454758147 0.0230993319618025 -0.2446877820281664 -0.2424859526020000 0.2347057563704800 -0.0406729688524909 -0.0761892040896703 -0.1320551286135201 -0.0109061298482336 -0.2398026761976069 0.1433059742413601 -0.0473975658505903 0.0250416240241768 0.0606584994645338 0.0385716047957661 0.0310819096963147 0.1868559866178472 0.0043643570225770 -0.0387910413437082 0.0773162222920755 -0.0375544197112930 -0.0532361908677926 0.0793090211594427 -0.0622301741254090 -0.1358623598815532 -0.0018584072750615 -0.0713944678260854 -0.0443304080106750 0.1895837491966878 -0.0661540990082312 0.2727462509929877 -0.1502376660701712 -0.0551074548064607 -0.1444986885014657 0.3769751794326908 -0.2025101646532795 0.1401922868598879 0.0646606354784533 -0.2187931940995987 -0.2277408393556938 -0.0790004116800189 0.2582111016355142 -0.0156552937158537 0.0331236191342826 -0.0768963103026089 -0.0985737441124320 0.0690850716038050 -0.2852478529519232 0.0229041334673235 -0.0112379416508718 0.2167392652172449 -0.0162041242304472 -0.1684879972427216 0.0814795950169391 0.0121811358269248 0.0519980440755929 0.0261683584040941 -0.2998629777472278 -0.1583381966540879 0.0608311642539226 0.0342749320168978 -0.2287917881351406 0.0070231604669232 -0.0428107884481095 0.0016010305984302 -0.0903747642766189 0.1615860702859760 0.0140503366941259 -0.0511378402875925 -0.0078992303679916 0.0473576027912675 -0.0647134461568393 -0.0524716061862367 -0.0805759808790403 -0.1876721445352054 0.0171003611780365 0.0514916809316051 -0.1000177152779940 0.0053834921342091 -0.1285037014433833 -0.0843519959107665 0.0259335033252591 0.1106785489773392 0.0960345486766436 0.0799976963694223 0.0631357805492782 -0.0276444717796227 0.0273146178798203 -0.0277520352052519 -0.0254579348574671 0.0853881084083182 -0.0239909983008933 -0.0237295621210891 -0.0022368352667035 -0.0898292613273743 -0.0717435581290958 0.0792958376058285 -0.1022739611308408 0.1100574098793533 0.0211866334957294 0.0783091793041150 -0.0443153859592461 -0.0125065612551029 -0.0147552325901662 -0.0725587445362912 -0.0466849650244947 -0.0680381767538937 -0.0356301513138818 -0.0414548645111455 0.1584954400765912 -0.0562493611676581 -0.0229280899696788 -0.1133487252238959 -0.1159823628323711 -0.0359555025698830 -0.0282070253607193 -0.0116576510732135 0.0155384649027951 -0.1127791006146635 0.0821792165639606 0.1647028335945636 0.0137596975476250 -0.0335203189212199 0.0241692367974304 -0.1285263587460695 -0.1130775417524677 0.0372416621764522 -0.0032401611605377 0.0067041054021881 -0.0406218413944663 -0.0231276843894531 0.0365355210415265 0.0923922642014118 -0.0835188123965458 0.0823648653471097 -0.0630495827716811 0.0528674072385025 0.0312161842722420 0.0190434324351038 -0.0854426091541431 -0.0406858989339627 0.0153136054070856 -0.0143364407153754 0.0134941660084004 0.1688733932900596 -0.0796004464918651 -0.0294749840816235 0.1048795991973715 0.0625119101989998 0.0954987565333580 0.0226197901889446 -0.0500465903833982 0.0366354216184253 -0.0277438545271210 -0.0797385247151354 -0.1267122426509622 0.0010219354178880 0.0404169709457625 0.0840238968515015 0.1024311968629899 -0.0223629984359500 -0.0724456701912743 -0.0599661770832633 0.0581160833704497 -0.0898313080818521 0.0834222704471315 -0.0548496390755294 0.0003960002584596 -0.0067718650570935 -0.0227871889221077 0.1830174720867772 0.0251313380419867 -0.0468018172520908 -0.0559367342346834 -0.0138246939773719 -0.0496210380607837 -0.1186282352391308 -0.0316397851416236 -0.0678252749393246 -0.0728163431422143 0.1098853758114159 0.0278456127809623 0.0391507932640154 -0.0572124040752273 0.0168072597830687 0.1074810184018144 -0.0560744176453741 -0.0359785920544018 0.0523779822170539 -0.0994029369033877 -0.0454884055334980 -0.0771299323858621 0.1876009283267977 0.0849456352290970 0.0170397207426078 -0.0248275216469672 -0.0272186856268915 -0.0083397862618257 0.0333190892921947 -0.0030110988351864 -0.0267978645159978 -0.0199605040345979 0.0423306197163963 -0.0575183945296848 -0.0838350885735483 -0.0417285144237018 0.0038067115313399 -0.1447495777475654 -0.0434858021391322 0.0263436845004486 -0.0006018574092903 0.0660281732551489 0.0720128574284410 -0.0177702538034370 0.0658728573027299 -0.0507975357801382 0.1023744165898681 0.0520006171823782 -0.0505550183580465 -0.1169623308804205 0.0602862073044932 -0.0129357361995860 0.0124998776002802 -0.0052654085320420 0.0037998228768863 -0.0981370311908338 -0.0238018082365445 0.1093437620108009 0.0591483781494205 -0.0145795701509786 0.0949311381437950 0.0106504974189600 0.0081796647736207 0.0271520783745090 -0.0053210098248443 0.0242728567083757 -0.1467403219159488 0.0504932153157376 -0.0495608791006608 0.0412130779808755 -0.0304911044201645 -0.0853611187365316 -0.0708264312348108 0.0845414307943929 0.0338940760857631 -0.0840899470011217 0.0068494562638895 -0.1140433410900073 -0.0012683423288810 0.0580460352026895 0.0886404440800317 -0.0233008387368897 -0.0333748164199790 0.0958838685285178 -0.0282301114032110 -0.0037504982020787 -0.1787182327359984 0.0587916497386354 0.0512566515522205 0.0459246255770483 -0.0669802172373040 0.1006156000356827 0.0237726735937385 0.0531433917431383 -0.1063692311477045 0.0545111634733268 -0.0421609757226805 -0.0120877177637274 0.0304053454630349 -0.0689361995867880 0.0368994792927185 -0.0593253241053108 0.0250012742448365 -0.0564939495086982 0.0264959047163984 0.0063944867435453 -0.0403953508031052 -0.0076236014247535 -0.0722489201939144 -0.0181560181822242 0.0096368584511197 0.0252754488903932 -0.0019571036214388 -0.0351945637985398 -0.0451330997819844 -0.0441118857832906 0.0484758573076572 0.0355178605712090 0.0342683320421226 0.0496125454971043 -0.0147135808239351 -0.0479869310867721 0.0898508974313033 0.0432156636873521 -0.0133948792545877 0.0368338525206943 0.0053460046928800 -0.1039067480900251 -0.0135889109626092 -0.0317054466643436 0.0397799506311660 0.1390887986306202 -0.0746540176314375 -0.0242217379502298 -0.0109943114932200 -0.0439096793980674 0.1266772659319469 0.0726510288703096 0.0644637226570646 -0.0311248269259820 0.0620491085273499 -0.0533102749622505 -0.1293198214125678 -0.0455059002838952 -0.0433135154777110 0.0462931739094025 0.0395868392568527 0.0829105406159088 0.1141414710890386 -0.0118208706266097 -0.1218406889238876 -0.0602893407859513 -0.0243760117343559 -0.0270495151819462 0.1763182696349222 -0.0150312891958691 -0.0422265782967913 -0.0015307892488101 -0.0216170581235371 0.0048640170694825 0.0096823010899991 0.0824803140778397 0.0022881469416219 -0.1049425822498566 0.1037531140803527 -0.0079010088166552 -0.0779984444362833 0.0299424502513948 0.0032873436602085 -0.0710961005928250 0.0694702303384036 0.0180610212981038 -0.0447264979109003 0.1551079197350811 0.0116763273590014 -0.0229109896478319 -0.0152136624635246 -0.0654701613063259 0.1990433755364436 0.0160861577050404 0.0014468493406811 -0.0685421023723397 -0.0121511408255641 0.0709644137646733 -0.0281170595962371 0.0038391298011789 0.0399000952399079 -0.0440288502346293 -0.1054123201917193 0.0131636615748333 -0.0533183846465030 -0.1695448948363273 -0.1404958627193549 -0.2412916816122854 -0.2222479652175919 -0.2299253216175144 -0.1465331389649611 -0.2030984551564856 -0.2126695073656708 -0.1629054173570975 -0.0923275322309036 0.1091148484145256 -0.0445278109891643 0.1167870615849916 0.1559892471864830 0.2456776009726353 -0.1771600875967428 0.1711248043908484 -0.1191676357138665 0.0007975927934111 -0.1147222677700874 -0.0468375868617493 0.2397953033878962 0.0024701014937929 -0.1275492997847074 -0.0811702623640776 0.1622986265518634 -0.0815236345961314 0.0161550503613727 -0.2515839207850138 -0.0356891152003136 -0.1103080131999178 -0.1004202498517709 0.0512625926048429 0.0108373153689508 -0.3059706649361341 0.0905144153926718 -0.3590821078353602 -0.1114753039771485 -0.0169912434225926 0.1686073882909735 0.3435282685028971 -0.0674181857107311 0.2877699482332230 -0.0480354702528168 -0.0360463929209126 -0.0420827042191623 -0.1016863196929233 0.0840014149412337 0.2289590201823927 -0.0225821171887024 0.1754844645243878 0.0003407202178526 0.2140296988989463 0.0906048853259983 0.1229025080874785 0.1033630888036450 -0.0719011711884029 0.0179780823369755 0.2339308864228871 0.0462576277090910 -0.2807078870469681 0.0471372602675404 -0.2356838150151796 0.0423012501663324 0.0927838465657942 -0.0705694383160523 -0.1008829409334410 0.0055167143641106 -0.0353007575826203 0.1550772561538307 0.1682349341864915 -0.0361186205799820 -0.0011142688150279 -0.1606224786069410 0.0935118989950227 -0.3471214637394183 0.0251401574507182 -0.0490724936410965 -0.1230891694267393 -0.1130591664035522 -0.0391698439045903 -0.1248173918726345 -0.0111122606619085 -0.0738301970342464 0.1013694360170797 0.0929499020409579 -0.0935370423789186 -0.0107351658591583 -0.1628197744532945 -0.0314594810019319 -0.0717573133198641 0.1212053926119791 -0.0129495585434274 0.0703934703603362 0.2613155300828343 -0.2064279233999241 -0.2176660979691931 -0.0004905929944633 0.1565566881133303 -0.0164623952685100 0.1306123640578997 0.2737017075218803 0.1161615897395297 -0.0819797873407714 -0.0606938786763189 -0.0291021107509729 -0.0861731250999367 -0.2638159794368109 -0.0066843861856848 -0.0169877707120169 0.0914045468333349 -0.0960805088617018 0.0621459072366307 -0.0270762005867250 -0.0637328750768975 -0.0251761481306732 0.0102400145888690 -0.0810939386294480 0.1332415955109165 0.2230155053457730 -0.0025786920541518 0.3125582324529601 -0.2520168145914555 -0.1808793113324161 -0.1300268778501400 0.0870273647653355 0.1242026819167755 -0.1188321997655835 0.0562865724040912 0.0586701169416659 0.0079851378500659 -0.0090096915049350 0.0025594669234997 0.1049751611592783 0.3122439424816053 0.0836846222727266 -0.1755424701861046 -0.0534164875107357 -0.1223739116631562 0.0099519513164066 -0.1013934473776952 -0.2138711198726726 0.0608391009422163 -0.1688237886130300 -0.2040879879209871 0.1320798644239321 0.0929206204179228 0.0065080490967936 0.2305557986811671 -0.1900649180640789 0.0926301979025351 -0.1450532961350889 -0.0058551185443465 -0.0122947967018888 0.0239151384260342 -0.1830137783103523 -0.2325831286961451 0.1271412503095870 -0.3718414399601110 0.4015854483447390 -0.3572838210934410 -0.1870642902290088 -0.0736123780522547 0.0329495654983424 -0.0572411180611021 0.0715138474086046 -0.1175094719214368 0.1172579426106058 0.0418530283797085 0.0264480946563567 0.3212258108296717 0.0126689121763566 -0.1052608030547849 -0.2625090146608534 0.0384634196627024 0.2766406096938807 0.1037092909103530 -0.1489455273121509 -0.3001934763069657 0.1128788910766240 0.0431476525073851 -0.2798662421672659 -0.0809705268829811 -0.0486068244988166 -0.0721469016814386 0.0086403695965321 -0.0693677224530121 -0.0669900117676661 0.1283009078588911 -0.2583448197008428 -0.0105161966977954 0.0815919097495626 -0.0023721675266956 0.2984817084960369 0.1797711371096926 -0.0797471512087527 0.0920508622606704 0.0117114580390586 0.0188184650400666 -0.0052545622170122 0.0351350851590444 0.0090040458630799 0.0957878468388300 -0.0023750748777745 0.0941101926175357 -0.1421786238245993 0.0417976416317242 0.0915095178171306 -0.2186217343679858 -0.0684379518764644 0.0372173362858373 0.0028975461609314 0.0859215280625590 -0.2577055233649873 -0.0728878855892046 0.1747639736022264 -0.0012270056207713 0.1371737010345051 0.0788785593053417 0.1677601968038580 -0.0882332688934034 0.1369401813571214 -0.0321033847698138 0.2132644531134227 0.0665187133202954 0.0196945938032889 -0.0376980680088324 -0.0324792438208617 -0.0604849735711057 0.0902341113730251 0.1585111173037870 0.0527568483763144 -0.0314884811237369 0.1265233956604988 0.2074011095641230 -0.2644174005941440 -0.0051637950409052 0.0099787459401951 0.0010711525704618 0.1003823675651425 -0.2131591554604598 -0.0718658320247937 0.2456311776237945 0.0152848651741333 -0.1149479590669028 -0.1682284772363476 0.1073948118950373 0.0037487948834316 0.0591121753462708 -0.0302855822226170 0.1028183312478990 0.1432784352009960 -0.0789124807540164 0.0951995045928747 -0.0320243003931868 0.0666958461297724 -0.0592886677557174 0.0970053748431013 -0.0276434706062784 0.0367808395684891 -0.0564811764678773 0.0799118635746761 0.0139737850310999 0.2600487520898211 0.1105752536828173 -0.0733733226955908 0.0678993044020292 0.0509990180793625 0.0321402318938908 -0.0123761521018101 -0.1894606885683184 0.0387339646899140 0.1479881841926083 0.0494592087513858 -0.0719681269442027 -0.0059786330549415 -0.1001232914530947 -0.1717245573663830 0.1107320401604216 0.0079230309429480 0.1203095452993801 0.1144397486645526 -0.0984697813215598 -0.0416571842033091 -0.2145089443279030 0.0185709500742318 0.0298456290665805 -0.0773780266350160 0.0784517263068546 0.2264669813982096 0.0201864203992350 -0.1373223854927688 -0.1118984292140813 0.0674774378070639 -0.0087542372037904 -0.0373670587409798 -0.0488331129607869 0.1454685263004150 0.0108508031470690 0.1000503646730321 0.0271790536216280 0.1914316808538771 0.1927303291430032 0.1892602457538875 -0.1783393703264197 0.0928224224852214 0.0390811036491178 -0.0370326711444354 -0.2475336882599072 0.0893208081849848 0.0193974483705033 0.1602601466164865 0.1684344208515548 0.1929236019040579 -0.0557029085221187 -0.0125771523584608 0.1403959971919540 -0.2571883050580299 -0.2039848307011898 0.2181589763863654 0.1415224705262647 -0.0130365386409301 0.1927000309245326 0.0174442995568645 -0.4863597620934026 -0.1120640176106748 -0.0918522875511824 0.0118656059787922 0.0694525668284660 0.2399721044337071 -0.0372766189331502 -0.0841045399834591 0.1488080127434620 -0.1121764687159198 -0.0797270139502675 -0.0009568511475670 0.0190721935435801 0.0254749494509216 -0.0740573460215377 0.0540770411805774 -0.0739240221092676 -0.0484712242672218 0.0796704968742706 0.0426779259731834 -0.0204592531828790 0.0905035049910958 -0.2571248004830369 -0.2837058886806008 0.0021313537219563 0.2445611992612955 -0.1088949955263081 0.2146588446429503 0.0377497408166881 -0.2268228154554137 0.0655756313596898 0.3862870287189266 0.2204274730557807 0.1277288567606202 0.1808121827966323 0.3188422967553856 -0.0841174015701272 -0.1646803563952753 -0.4263848875496971 -0.2304158683699066 0.1203193271372544 -0.1962538913169113 -0.2084888192842832 -0.0915089328872736 0.2722346381157018 -0.0058151535553710 -0.0600121222173179 0.1078306681127117 0.0325703614633377 0.0802067837962557 -0.1484133105692432 -0.2498110078377337 0.0420162501973894 -0.2331515791503527 0.1159261918243024 0.0441485870968192 0.0562702014502002 0.1932385577513478 0.1462324329923127 0.2294736534456403 0.2891445495808962 0.1459472564412521 -0.1244657314077597 0.0548850887899235 -0.0615340183271979 0.1710621017768920 0.0027024348739612 -0.0970235700923338 0.0706513328704186 -0.0535487830750687 0.1024887717709634 0.0304208064354475 -0.1307676777334690 0.1397757290604667 -0.0021939613956037 0.0771590459591705 -0.1409486235799962 0.2408697914238736 -0.0545137508829634 0.0064095382404953 0.2185640955677653 0.0369406350716765 -0.0180441388366034 0.1953303208966163 -0.0434907185024097 0.2296396127796050 -0.0503384358763229 -0.1504014174089035 0.0811389900012525 0.0718239800918872 -0.0805928552792139 0.0146394591829981 -0.0129210045033417 0.1311283584742426 -0.0128716078552001 -0.0668830825434102 -0.1213565397873193 0.1152262678870474 0.0261971282851811 0.1480875171001851 0.0431334107702555 0.2180866323534546 0.0782907843658245 -0.2456207530328343 0.0111151396240848 -0.0856661890110535 0.0577323353371813 0.1621140750706487 0.1386496827066411 0.2614447669708406 0.0022633025566470 -0.2212986138956546 -0.2193472653480767 -0.0900030097952131 0.0668235575370178 -0.1364275694216808 0.1069204492057951 0.1209436135445996 0.0209860810741446 0.0384851288439678 -0.0004664486965501 0.1842834801758482 0.0215014301100313 0.2585496439876110 -0.0498612210495496 -0.1600229515610133 0.1640688592550821 0.0551312126783047 0.1429204317211085 -0.0551962828544351 -0.2816186750246158 0.2234555377190740 -0.0115268270061630 -0.0720709347719002 -0.1717995861685280 0.0440727661598169 0.1416764456363282 0.0506986374564468 -0.0228497842942939 0.0821154575755529 0.0248124969633575 -0.3109268223375924 -0.1173295760514232 0.0244585595198032 0.0821041446113172 0.1343385905233695 0.0425089280791760 -0.0985432108716613 0.1373302727300522 -0.1809562836804578 0.1075392792493352 -0.2539129276764705 0.0946365610652016 -0.1010623084262152 -0.0651553565451825 -0.1119161559844392 0.1279567201029193 0.0068977628770503 0.0298643456024368 -0.1494063305336029 0.1989008304525848 -0.0422338464467129 0.2517886517910453 -0.0605955651844941 0.0934805819320042 0.2545599400371975 -0.3028494722133914 -0.0583822931364041 -0.1452098666094089 0.0856822055803828 0.0146668534652855 -0.0404335407365019 0.1949261444153434 -0.2707581195769445 0.3105199555555431 0.1088041688938597 -0.0142032961618680 0.1195405474719818 0.1148011513069897 0.0219305273536836 0.1003476175312678 -0.0277033706777275 0.1426521297022066 0.2277191010958557 0.1315757391999314 0.1947032881317278 0.1050870992387593 0.2722642210756772 -0.1268913736743507 0.1889166890678156 -0.1084442153044666 0.1061161108436880 0.1010820486738717 0.1724150916490394 0.1723624936491890 -0.0868680403242812 -0.0994466553047162 0.0627681206636147 0.0535869395630004 0.1924993574141615 -0.1478991907045223 0.1530519871893738 0.0474929694103440 -0.2059330025294905 -0.0843438511744647 -0.0430253493455179 -0.0027533176752691 -0.0278404645346348 -0.0847477343220986 0.0471358459322023 -0.0381611770576515 -0.0480110275688585 -0.0284863594541165 0.1188293874947870 0.2596112097763061 0.0880795248560218 0.0699396028874761 0.0247045842402660 -0.0323552387614278 0.1666272673054665 -0.0964045463036892 -0.0256321739279397 0.0095650558860334 0.0148120274142336 0.0816624905729697 -0.1526377918896008 0.1524879786927823 -0.1468215720179904 -0.1218301486834595 -0.0794046906991834 -0.2412518558953997 0.1030842712687917 -0.0346799831132482 -0.1030281979375753 0.1031584871611884 -0.0235004546174464 -0.0694797035319672 -0.1389242990264264 -0.0939372734812090 -0.0567844239399593 -0.1372420095522743 0.0163801266650909 -0.1058971027160248 0.1888072344522530 -0.0868633510587104 -0.1775119338608748 -0.1659296379269596 0.0870236506273644 0.0467196813593501 0.0710187591804476 -0.1393098826298640 -0.0930597770017294 -0.1162883730398023 0.0742605472072627 -0.0135575999931212 -0.2408246995706258 0.0714825270789417 0.1413323574090553 0.0169260788177301 -0.2070019521138724 -0.0474005141008614 -0.0267630734169718 0.1168258112722067 0.1204233803933790 -0.0901623023514927 0.0685421585727819 0.0357512055797963 -0.0154233775772119 0.1786923839744551 -0.0115489353321383 0.0190517745471459 0.0866474027929940 -0.0588000986128954 -0.3626317168538616 0.0908223166267759 0.0160881073315709 0.0675718842913766 -0.0958146771451997 -0.1484834095689235 0.0128965387896847 -0.1160513595326166 0.1752052070305252 0.1561211367307017 -0.0772084965605533 -0.1049560559620657 0.1580564438059830 0.0266875250159726 0.0543364919517905 -0.1163134480440916 0.0945343386838779 0.1304796431704529 -0.0699502017957948 0.0727965295453687 -0.0529679224355588 -0.0111192695037433 -0.0240182268369411 -0.0326070820359414 -0.1410042078602694 -0.0820036866852193 -0.0383408558567890 0.0498302404242444 -0.1591280348559418 0.1233199893758175 -0.0900463441065165 0.0213220082021360 -0.0171664132776603 -0.0171238160621056 -0.0123146554579932 -0.1062143427996806 0.0719468681077961 0.0339081957616449 0.1003086408284536 0.0017686625887544 -0.0512691499685291 0.1599169232725996 0.1682877673925787 -0.1010629479602228 0.1069017196597377 -0.0729561108084681 -0.0443272942873080 -0.0820136558680343 0.0446228878812753 -0.1022029002519640 -0.0055381736699718 -0.0437216409748811 0.0972870712323265 0.0609869562659913 0.0703616860483609 0.0281486445354240 0.1577878606042310 -0.0088818268285609 -0.0600679686711247 0.0088528669034890 0.1016674598707592 0.2237712874602326 -0.0715626335875660 0.0108625248733440 -0.1164840642272536 -0.1243910984435477 -0.0289812205157870 -0.0298820852985008 -0.0941373962984987 0.0791745285922762 -0.0099185405175923 -0.1481843361205568 0.1679609628711808 -0.1425964256399273 -0.0956194239908466 0.0057724625610662 0.0374724729011438 0.0212775690829527 -0.1126376268877494 -0.0209467850013439 0.0270977664235527 0.0212672632140804 0.0310607428924006 0.0836825756044835 -0.0359967095212551 0.1190109963785404 0.1003599777393405 -0.0628788771276455 -0.0098516758220159 -0.0606549590767423 -0.1527690311101977 -0.0537758920281696 0.0349455067833601 -0.0269825878091604 0.0334380827719128 -0.1226693363494101 -0.0059955699970025 0.0328012741775289 -0.0236781864981615 -0.1348821520957164 0.0659328392334724 -0.0005167243138798 0.0646813661042712 0.1083734055986726 0.0078850053993786 -0.0792118157014673 0.0613041922799478 0.0679600837144517 -0.1620320047538352 -0.0922520240688710 0.0385840067498895 0.0298234637093783 -0.1786457317765926 0.0476215321617082 -0.0615678093173459 -0.0215043629887440 -0.0607732961139668 0.0313985805685034 -0.0068915592354849 -0.0231321728056564 0.1441441574823776 -0.0181061367705245 0.1984888726484794 0.0240711650217482 0.0958531989926170 0.0637828675928047 -0.0123487946795970 -0.1101050622971771 0.0121669009481264 0.0135141459974547 0.0461221713009663 0.1346129830412854 -0.0756389046243395 -0.0468903410427954 0.0763449944628492 0.0027194975067060 0.0090411624130170 0.1536599860538483 -0.0413371988696955 0.1864384796478485 -0.0390214523850529 -0.0118044144410484 -0.1198770343129176 0.0610011948532496 0.0015925625895744 0.1422919712716907 0.1658906255229760 -0.0701503440333036 -0.0068521616143705 -0.0394963131824156 -0.0894526168497867 -0.1322868219186958 0.0141570430817356 0.0002603487071304 -0.1200945675853132 0.0215667105510149 0.0228428329948644 -0.0259562575675389 0.1239359245903281 -0.1223452236682183 -0.1463702291934083 0.0987072806371146 -0.0524395575945314 -0.0664949564083327 0.0142022977198220 0.1041110349192677 0.0722612636862379 0.0328521817999248 -0.0236541222098468 -0.0920461428431933 -0.0148139585275672 0.0384321728639407 -0.0782180953194945 -0.0915039532897848 -0.1060754529412525 -0.0608789007235525 0.1538632669520466 0.1080608499521559 -0.0721553679180932 0.1609073916922523 0.0009871495835763 -0.0289037528305481 -0.0487165582641323 0.1208002071899598 0.0808337463050768 -0.0882738083036750 0.1583993656331086 0.0929286889085677 -0.0998841815845789 -0.0452783556474371 0.0500793056375836 -0.0706521461295229 0.1379456789861061 -0.0818951197560421 -0.1800387155395476 -0.0927978191498505 0.0314267787938284 -0.1396922218706577 -0.3223505382220972 0.0824812633833167 -0.0416504602704195 0.3563208091920828 0.1510740949879799 0.0758020477256420 0.1218346642468166 0.0090066368512128 -0.1612335340711024 -0.0929094717791676 0.1642591197917928 0.0680290495289164 -0.1231211200827523 0.1020649661097588 -0.0288507999310595 -0.1397735695103631 -0.1935607649068830 0.1211206580507480 -0.0033948449065509 0.0507728505486871 0.0036415918929945 -0.0651641631378909 -0.0881404161977467 0.2127121965440543 0.0528527958522692 -0.0495588205262772 0.0870762872504618 -0.0101912302919138 0.1447106862684142 -0.0266194760545609 -0.1425215973300990 0.0072861989373769 0.1461309230946579 -0.0858301405562813 -0.0759214079221808 -0.1429715655990712 0.0023283720189153 0.1001212581597284 0.0675725883563075 -0.0939092745912310 0.0447651763263123 0.0379123682280529 0.0686237844442867 -0.0077178086961179 0.0806874093744421 -0.1237084900691881 0.0021543827651499 -0.0970466306586316 -0.1394443833946227 -0.0158975319733915 -0.0888454155877634 0.0604437261131321 0.0585669058779369 -0.0957165794940877 -0.0209231004785317 0.0123624713258873 0.0700187118489231 0.0933288001532352 0.0427113828956035 0.0702230817018864 0.1407869507844976 -0.0588839971023429 -0.0548167210430825 -0.0166375110549004 0.0112514431649728 0.0876877030393938 -0.1077096782084378 0.0838843326553524 0.0718901041102439 -0.0321718715389187 0.0274835703133689 -0.1146488968792404 0.0562599198763602 -0.0966933369653464 -0.0111169231532185 -0.0957713849842532 -0.1408988624634647 -0.0357145524130680 0.0957728688909689 -0.0218719492523916 -0.0108674117054841 0.0024155539920911 0.0724132588693509 -0.1061751509759167 0.0803644143837249 0.0263752798246656 0.0341725626954394 0.0051955928603544 -0.1403412645798431 0.0585299861424884 -0.0339792268471899 0.0169337483760509 -0.0068135240490875 0.1188822606843112 -0.0292915910486801 0.0463834881587298 -0.1372808290921567 0.0949188440557106 -0.0140287458480908 0.0909755954628285 -0.0326144932223992 0.0672621222675591 0.0487791367258846 -0.0323203088155441 0.0334960932924704 -0.1420079814796450 0.0321998978288296 -0.3844437220106308 0.2609420216647940 0.0025694631322027 -0.1799067138351156 0.0015910239523179 -0.3829284996301701 -0.0672073941826924 0.3566236400772405 -0.1478496020599599 0.1527450584386474 -0.4633827274943012 0.1087519605566308 -0.3098223339166628 -0.0162694070027988 0.1232018982375447 -0.3525854689984127 -0.4408842927631211 -0.1663157905122870 0.0316858165967906 -0.2488000043504739 0.3278388442694430 -0.1102535444870942 0.1058184680987658 -0.1272840820850825 0.1943998029876732 0.4106076418088933 -0.0344095716593466 0.0658309297054791 0.0172417021399032 0.1402641862620599 -0.1065203928721347 -0.3115410891078638 0.0631609768084140 0.2409050925189579 -0.0699692812947291 0.1110225002997167 0.0727772302716455 -0.2171741073982229 0.0791464156830932 0.0109965230952370 0.0508452692808127 0.0487958346327015 0.2439817162348353 0.2025101285086407 -0.0571344321510973 0.2231454951609814 0.0382900114567498 0.1035977469732381 -0.0515876534147213 -0.1879813218642533 0.0454688847551845 0.0107834657395859 -0.0940906121481437 -0.0230593609611851 0.2124510102245117 -0.0758052958327419 0.2056291510425703 0.0656626303376298 0.1131377448817087 0.1700458980983203 -0.1672277259928098 -0.3441327657571625 -0.4714323352113937 -0.1221748031020171 0.0786638935297441 -0.0732560380151017 -0.1714180943835667 0.1649515721709179 0.0467499602171830 0.2058842650594725 -0.1135624568713173 0.1807414403044148 0.0395445782594515 0.1792917504195214 -0.2373805353805784 -0.0011934050777107 -0.1649980871104727 -0.1572960625504095 0.0435740207033606 0.1251242591306375 0.2054914966934074 0.0179662141109423 0.0406423174574422 -0.4786213695228146 -0.4015577417280803 -0.1031060829955569 0.0419606305798691 0.3158464551998841 0.0504407904884553 0.2046001033892585 0.0335773233385523 0.1667419622568179 -0.1035003567343776 -0.0184909886863718 0.3419491232269417 -0.1369114089134502 -0.1073119170042609 -0.1221517749552626 -0.0256779239170707 0.0074045299652073 0.0865776132226141 0.1918973520611273 0.0929695093984273 0.3289923134882138 -0.0225518634398534 0.2000947570841398 0.1871849287401493 -0.0190451831208939 0.2283187851418712 0.1544170201471867 0.3174326805525515 0.0444677055359386 -0.1122146213816815 -0.0439267808946601 0.1692620964159966 -0.1538967554348274 -0.1119236561404355 -0.0988471865912978 -0.0227770591579874 0.2605157730553374 0.0568755677254373 0.0598409680507684 -0.4262048560690525 0.1419856659287853 0.1398098800123961 -0.3013430934138334 0.2239876280918022 -0.3089512449811209 0.0640656511134781 0.1370383958087374 -0.0127334723807938 0.1018463138667819 -0.1452019132058307 -0.2947747746071774 0.1513457155220856 0.1011147538492204 0.0699503779989387 -0.2887491730949884 0.2111326478466753 -0.3018951967751949 0.2614422183986271 0.0991512865014865 -0.2163108589330179 -0.1007481667959299 0.0049914119909718 0.0444352515203603 0.0768687283132399 -0.0080432917021934 -0.1301474691114515 -0.1952331741028047 -0.0746618001253456 -0.0807377886882598 -0.4056565891874137 0.4244438220299651 -0.2118217549793967 -0.3301432617888271 0.2542135650041374 -0.1589415917278921 -0.1805099277361826 -0.0986992110567395 0.0748024699326525 -0.0168716254669577 0.4725897406863255 -0.1168053833230828 -0.0044289626435274 -0.0557937720333294 0.0667831081856792 0.1783634279451368 -0.2041321588275768 -0.0133035058217690 -0.1359577752058697 0.0337777799349986 0.2500081882958773 -0.3655681999321405 -0.0326710009070108 -0.1451959834651122 0.2446799666396162 0.0035392110936446 0.1991229740137041 -0.0638463842981740 0.3490556213345165 -0.4107074639059878 0.1259966684409383 -0.0555797229217523 -0.0823578493962241 0.0653815677903676 0.2591065694861764 -0.1697489863726130 -0.2161590651663211 0.0518945719378394 0.0333620122160086 -0.1135445832783657 0.0235088341524071 -0.0339757754213231 0.1119460892478753 -0.3020701647528922 0.0425494504752302 0.3575173984732456 -0.0179895453587298 0.3761459199026186 0.0393301382853588 0.0651483448980314 -0.0470396355345140 0.2076175933066755 0.4741255019821145 -0.0311765500667101 -0.0227734631135488 0.3377592240548308 -0.1219134410305545 -0.2277588920659330 0.0777456057396466 -0.0443516930804902 -0.1599611724719765 0.0273579341197176 -0.0879531682154823 -0.0852503653677986 0.0573943686835664 -0.3925562456327847 0.0905846701991949 0.3705494793057355 -0.3609208317178663 0.5393731181489468 -0.2094956325007492 -0.1274951075258328 -0.3675442298369215 -0.2957870250650065 0.0584511183918354 0.1693399427328674 -0.2317574144457508 0.1816356743463452 0.0840637098402948 0.1442966304833882 -0.4191210296642658 -0.1820580156601348 -0.0367038757775098 0.1884118413657022 -0.0303851200535150 -0.2028752376398688 -0.2519914413560884 0.0178607157427368 -0.2289464941800385 0.0891154995184745 0.0061510589743692 -0.3481232509801253 -0.1447648022207873 -0.0919388448434543 0.0730488380612136 -0.0707364683075492 -0.0833408031745981 0.1002006742943662 -0.0949723702057504 -0.0980936147941432 -0.1727836242932506 0.1993663307811645 0.0788374401018757 -0.0356605314192246 0.0974555274219825 -0.0097648061105795 -0.0593093424059821 -0.2089054625805769 0.0032290248592364 0.1596664344707460 0.0139135713702521 0.0454363801528478 -0.1546876433867327 0.0944805256101401 0.1382264462608704 0.1782436718049506 0.1759815418689015 0.0706510768318802 0.0567212215679325 -0.0739911422120660 0.2217633268257185 -0.1497669599948077 -0.5911329634936299 0.4942254733848342 -0.2811687920951856 -0.0918368886048876 0.0004958314875091 0.1655958596406737 0.0207848337013829 -0.0222785394162699 -0.0900529681685117 -0.2587947628380298 -0.1256717314609116 0.0809833495512269 -0.1876898377080725 -0.0287640047367582 -0.0123342118230064 0.0101956630296730 -0.0862294085430955 0.0291405787205096 0.0161891270664236 0.0387828406707843 -0.0463383897448543 0.1284054776401938 0.2007869165831060 0.2263564472234219 -0.0633032275845524 0.0538836124936719 0.0178913210987804 0.0215781410369973 -0.0391551899057093 0.0810673283973245 -0.0616465925015481 -0.0414572943762161 0.0118338892294701 0.0600977160630718 -0.0403760415952685 -0.0182107950492886 0.0274426076391868 0.0575667586042943 0.0585965068333717 0.0562212034865107 0.0021600258686676 -0.0284419358010466 0.0676423110209545 0.0184878426654275 0.0230314592503879 0.0002966186013133 0.0182424663930848 -0.0086841737402664 0.0481271254526880 0.0154158948118212 -0.0459550304381053 -0.0040709010063212 0.0485792239262052 -0.0256265025871770 0.0251178060749328 0.0077735565724976 -0.0012284251198974 0.0327210080042318 -0.0151391388952885 -0.0162671735696662 -0.0341980490179127 0.0056363974863022 -0.0470062471261159 -0.0499773033644087 0.0128070471560022 -0.0196227735407684 0.0352887726541692 -0.0427655932022723 0.0355289339158193 0.0023125337943532 -0.0333433020811491 0.0097436708708059 -0.0311204855673552 0.0420944819410849 -0.0412331695335376 -0.0129009126022602 0.0311696089122586 0.0397717890216417 0.0495949113259061 -0.0232135122137330 0.0307079209933647 0.0808876253213419 0.0363451042617594 0.0578883072457080 -0.0104956353154077 -0.0062762911073338 -0.0326742340416649 -0.0045113030889313 0.0250400523190272 0.0086561125959564 0.0084583596685066 -0.0364479249144904 0.0351130762694333 -0.0183837662360130 -0.0065124959650930 -0.0077951410942151 -0.0182969852892232 -0.0063419842345993 0.0064635480151835 0.0247041325773881 0.0160902418185567 0.0332819452256658 -0.0098172381324652 -0.0368480319945392 0.0234001317237748 0.0133369854632064 0.0254219903773976 -0.0113594070115742 -0.0260299558944281 -0.0128612140606426 0.0060273740217598 0.0283539002318297 -0.0468146421333385 0.0186170094134134 -0.0020978446284645 0.0121928197706168 -0.0117942840387740 0.0012610308478492 0.0155435218603426 0.0473787363094284 0.0178872103956860 0.0055288509828080 -0.0136085291429127 0.0007094947874007 0.0261847561979187 0.0468315158063955 0.0495435903472140 0.0435346828950545 0.0014832032571186 -0.0545466356286752 -0.0053833196361150 0.0041562821975004 0.0178975839496149 0.0507667120436710 0.0038846858866658 0.0182172513806363 -0.0331767308059190 -0.0184686035207584 0.0086298091506790 -0.0077134723252306 0.0146274884752120 0.0228440397987837 -0.0545908996945451 0.0147976932546239 -0.0436446145786307 -0.0185976363901744 -0.0282350709218029 -0.0019163895181319 -0.0122012581990685 0.0253689793261598 -0.0270915677038147 0.0437637772290097 -0.0317151254841532 -0.0089140776760846 -0.0421248800599983 0.0000816303269919 0.0466055065484072 -0.0238238339384069 -0.0439226915997912 -0.0735162033561130 0.0329950608360974 -0.0126971560399132 0.0548764552390355 0.0680652216292957 0.0033170971160061 0.0633463159779002 -0.0338790050907521 0.0237115477572385 0.0653999140647076 0.0527918612043844 -0.0073035010804201 -0.0448728294189681 -0.0054867089964036 0.0160269868974497 0.0068511909015840 0.0232562017800982 -0.0403127379671276 -0.0121951582280132 -0.0516897973541795 -0.0038141670992555 0.0161558062968832 -0.0034630453480524 0.0258391524759947 -0.0335618474333557 0.0299686978714086 0.0069083310309755 -0.0335574514814557 -0.0195270126464631 0.0410424372260338 0.0212908766321969 -0.0086827784862997 -0.0248689614771022 0.0283507634370108 -0.0068638388876786 0.0037419252819521 -0.0220266742519955 0.0273775259942296 0.0239155073439944 -0.0051488187815418 0.0219881918234077 -0.0004831702902777 -0.0480710290626486 -0.0098431182051171 0.0091577627033544 0.0239082472755129 -0.0592314377035352 0.0048570351036359 -0.0378145472425954 -0.0367843465626592 0.0113910425412141 -0.0467106455971458 0.0138486998389760 -0.0187811794158821 -0.0292549562284971 -0.0172039171027108 -0.0194993500102704 0.0073158299011472 0.0238148290101545 0.0020734590624749 -0.0115837557579379 0.0710388960140159 -0.0129517042202185 0.0394650085186046 0.0444302456559128 -0.0330040288982848 0.0045683441119522 -0.0099925802802308 -0.0765557008855571 0.0166677978264693 0.0115252229196058 -0.0169027997791599 -0.0104259513517869 0.0565033001733106 0.0104234354737438 -0.0522393655952619 0.0066389156497343 0.0157510072487990 -0.0108435619316106 0.0238944849558073 -0.0326148563688347 0.0275996001275708 -0.0287679588154851 0.0089080329571296 0.0289937504519779 0.0342533343567189 0.0134081569677915 0.0485847649193417 -0.0538431402966661 0.0135649085035027 0.0178314903579268 -0.0030905775671391 0.0088115602110714 -0.0312840053665707 -0.0164691807392155 0.0063881599974434 -0.0079169102566801 -0.0370542245502714 0.0278844884200914 -0.0137514754476219 0.0241665960509694 -0.0207771631929508 -0.0345710321063534 0.0200968282139812 0.0360532409286581 -0.0430544125024641 0.0439507359505478 -0.0164129028881546 0.0058820954619752 -0.0181706048325238 0.0243430372811364 0.0378162652441087 0.0523935208521304 0.0051201582547282 0.0083120445422587 0.0388700210020253 -0.0461058711289504 0.0212458418778324 -0.0301176183601248 0.0197080626063050 -0.0456480257804049 0.0284009448729862 0.0414944919285698 -0.0556818558232997 -0.0413249744665188 0.0372278107917514 0.0328384062566090 -0.0390196335453918 0.0029469965315804 0.0286530969166796 0.0083230404186854 -0.0224631019431884 -0.0251347956253558 0.0421941382383269 -0.0591518682039452 -0.0135480965823903 0.0250945226701799 0.0337381937750775 0.0013601159487314 -0.0395771750107199 0.0381071094485414 -0.0562090586025178 0.0474247402827266 0.0403549874527161 0.0162059336595792 0.0316327262661003 -0.0078446309721479 0.0093201634774198 0.0178707117186826 -0.0193668300021159 0.0045299440644814 -0.0324413796525168 -0.0186475844242347 -0.0014496064364513 0.0403814008026223 -0.0437298982257324 -0.0408474432697826 -0.0378196357007704 0.0304192131055828 0.0560789846874879 -0.0482810882229198 -0.0070091152666645 -0.0079513934767050 -0.0452865749873809 -0.0129803835755605 -0.0298421967651022 0.1091639974916878 -0.0971569923784157 0.0822180722937439 0.0288451001549912 0.2195188030407906 -0.0255802096191692 -0.3353180091238553 0.0677650867317194 0.1589236476623678 0.1395237526778065 -0.3221937228125212 0.1616351844925876 0.1632703991855754 0.1439086090526877 0.1946203010891332 0.2232404888721194 0.1265520361868483 -0.3778563505992441 -0.1492726243299445 -0.1532802044983005 -0.2680735600819564 -0.0493133668264783 -0.0484229706640578 