solver_type L2R_L2LOSS_SVC_DUAL
nr_class 2
label 1 -1
nr_feature 76800
bias -1.0000000000000000
w
0.1099652430704695 -0.1220640149031356 -0.1098041336038376 0.1657353810807912 0.3671871094136634 -0.0935666480177363 -0.0495264934961227 -0.4367323894041817 0.2641947272298295 -0.0581678638361200 0.0090366932578627 0.3166692739485164 0.3131963338698321 0.1084322006548161 -0.1184166937169684 0.1424321726766645 0.0300959542659498 -0.0193273694484180 0.0316713970224603 0.0058304341810382 -0.0431698901952291 -0.1310326807428992 -0.1403483838733754 -0.0217960632570933 -0.1367754390231222 0.2438083231019725 -0.0860360390941602 0.1070057995635705 -0.1207213377539138 -0.2061384978777484 0.0321605061312159 0.1297221988164279 0.1135173246348993 0.1914544225535607 -0.0601678683505546 0.0718682355983189 -0.0258315737299525 -0.1419687323452989 -0.0639760783470939 -0.0258740205526763 -0.1306892000657385 0.0149950096800577 -0.0212997620249601 0.0978404377303851 -0.0031025827395088 -0.0692971865517751 -0.2373987549991907 -0.0467486256775532 0.0876143683683801 -0.0015446109846863 -0.1630707003936409 -0.1105832775189494 -0.1108012739112591 -0.0877961923129434 0.1468302606004515 0.0335443102886091 0.0774503834678771 -0.0110237451980331 -0.1177513090739359 0.1591046578328692 0.0149145279128640 -0.0910852656006676 -0.0284092677560938 -0.0165590718078559 0.0795654641918837 -0.0093248056875597 0.0571636605635121 0.0315348224846711 -0.0802540936987763 -0.0139032420567997 -0.1348594081896737 0.0165358217347478 0.0790344633343525 0.0464276601063119 0.0125217032801187 -0.0843339520861855 0.0005876949093868 -0.1890083797836485 0.0206672859190165 0.0557493573797568 -0.0369776204296224 -0.0711287682812125 -0.1235730291645347 -0.1558460502854898 -0.0376131688847307 0.1194554584322778 -0.0159463681579911 -0.0552088804285704 -0.0264153105636363 0.0043589932614224 -0.0358609879497917 0.0542068006316462 0.0819873010371460 -0.0420464853890177 0.0381793907047471 0.0202243274816890 -0.1271400188449549 -0.0099414993150891 0.0293740837193607 -0.1006594723802574 0.0792923826380566 0.0067352374795177 0.0678967310321313 0.0373209426806220 -0.0184574214144837 0.1265663693420045 0.1349740137580974 0.0317516332888197 0.0603697300362804 -0.0659731602413846 -0.2665284768627384 0.0199721483775282 0.0512144842824617 0.0092686810521415 -0.0427758654657311 -0.0786305906476994 -0.0287422945759368 -0.1177482639430084 -0.0789627811719548 0.1098374505939963 0.1037690412439638 0.0257058553702893 0.0352626205380962 -0.0368305055154298 -0.0186428591238385 0.0354020025816708 0.1267696762296998 -0.0135005800989145 0.0875386816526380 0.0152498951155027 -0.0718292622691462 -0.1626760249477349 0.1709328950125210 0.0745697196238604 -0.0125690275135545 0.0255752228821140 0.0857767868828509 -0.0472759353742958 0.0318586072041687 0.0990358880842973 0.0622168121452391 -0.0277211834596826 -0.0324118067528487 0.0598511080934397 0.0344516764378587 -0.0254699234055521 -0.0619183460431303 0.0074440096694728 -0.0277059155375841 0.0141822935130878 0.0143632031985981 0.0038694564521632 -0.0095602043969201 0.0243361030898307 0.0412541464882818 0.1022095351217133 -0.0106245809291158 -0.0036665590371974 -0.0793845289780640 -0.1100822799572396 0.0068780976668132 -0.1281125010698848 -0.0311295365631674 -0.0867900725952404 -0.1390614300530370 -0.0685717399453677 0.0616878983908373 0.2214727103187106 0.0436152739288062 -0.0432625084056957 0.0583421787091077 0.0526327283200722 0.1695522980716413 0.0524254175835546 -0.0468815901878820 0.0270611108973985 -0.0366176361596595 -0.1566794345323044 0.0530737685237521 -0.0344920078172141 0.0278386181541864 0.0043047358277512 0.0369653797586141 0.0689881681853001 0.1620893751215092 -0.0046422659186857 -0.1082874413945342 -0.1704219700520773 0.0199677294033753 0.0870463576662987 0.1173825357123682 0.0752613221761304 0.0646477450725450 0.0367484450176729 0.0803527171035574 -0.0052140405893001 0.0915173483991930 -0.0491456946080010 0.1218123101996076 -0.1390603050033092 0.2093677679295718 0.0189252052901909 0.0033973791840247 0.0227218201684710 0.1592690732873524 0.1563306622178340 0.0709561728459413 0.0619830474707890 0.0539533150529449 0.1015879948693455 0.0258687409006281 -0.0581300883531585 0.0110095452860309 -0.0788750537442024 0.0914415261671291 -0.0817323846829586 0.0451281431306935 -0.0063442687125440 -0.0021168830966897 -0.0163468397687795 -0.0959580035626462 0.0047948762513665 -0.0697654418006550 -0.0698283779771999 0.1655018863220451 -0.0484399642773024 -0.0059915331989565 -0.0218443363556224 -0.0161961283499668 -0.0150418961899199 0.0481311275813221 -0.0217896380563430 -0.0732775683064329 0.0381103419579907 -0.0003837091261010 -0.0287531735625002 0.0659011405578692 0.0034214259688257 0.0140234483852250 -0.0072522711282596 0.0530241449599330 -0.1036066385677050 -0.0392154481061428 -0.1140559639894462 -0.0318027213797610 0.0458126745543031 -0.0781327523842190 0.1406626463504080 -0.0041758683651975 -0.0329558216713875 -0.0693368432468878 0.0413894569355908 0.1126977683125480 0.1010387880719279 0.0311817010297011 -0.1485380246347713 -0.0987981699619734 -0.0100232102301156 0.0624157906241361 -0.0419295319725867 -0.0092843235448170 -0.0486722034667840 0.0244151118378294 0.0090886419212145 0.1485852697832753 0.0379317466059718 -0.0702401507761494 0.0589407323184784 -0.1216468659013518 -0.0033647595108903 0.0530712291287971 -0.1222748245886841 0.0496720273024300 -0.0017073862585180 -0.1000889307956499 0.0866495467031647 0.0477392439710790 -0.0199149216848137 -0.0237020418318701 0.0223309850047334 0.0008993612098920 -0.0627641767004273 -0.0117132067833944 0.0233247611493755 0.0230304161657846 0.0108269260227661 0.1223616210009575 0.0642009968042558 0.0168827141704879 -0.0173460529556858 0.0308407512648441 0.1002544058602054 -0.0830429702047021 -0.0615655427511886 -0.0404826832885782 0.0398344222237361 0.0926730605889460 0.0104144875063343 -0.0277825214022025 0.0511791566212567 -0.0005916444866447 0.0002351722095873 -0.0007866861105717 0.0000365003801598 0.0005922944430621 -0.0000819066115509 0.0012813039877946 0.0004773796678110 -0.0001684288261134 -0.0002188749394927 -0.0009486949387310 0.0002903811614890 0.0003758879405853 -0.0009492200745457 0.0002005012598674 0.0000961471963703 0.0019166296497454 -0.0003267947560178 -0.0007246866144612 0.0011530804802732 -0.0020432365719044 0.0011519955391312 0.0006718840080646 -0.0000229228681605 -0.0012187406174574 0.0015291643704381 -0.0009041945955669 0.0007720115307164 0.0001194531772237 0.0007050894861215 0.0002832115434784 0.0011053424641540 0.0005677699372940 -0.0009507306061834 0.0001146247889959 -0.0000942895610857 -0.0009390976294985 0.0001189136405025 -0.0005500562463482 -0.0000789361081712 -0.0002286779839737 0.0016575069284834 0.0011428803949124 0.0002847550619783 0.0016272397915002 -0.0007635413826155 -0.0013015043989681 -0.0011432960348412 0.0011290550417763 -0.0015966055761057 -0.0010726370043073 -0.0008493775878348 0.0007462941198111 0.0001059167135440 -0.0013200139679308 -0.0000368692963242 0.0002218816246867 0.0009880887193572 0.0014081336001240 0.0000653633242804 -0.0016757568959949 0.0008486939285129 -0.0008599727627437 -0.0001471495110926 -0.0008578944997462 0.0007834574654929 -0.0015519369545189 0.0015333528933110 -0.0014375460317116 -0.0016821794436913 -0.0006814431228790 -0.0007660969851108 0.0009624633829984 0.0011353749729127 0.0009949846143466 0.0000470322217845 0.0002886716955498 0.0010683741733850 -0.0001258467550807 -0.0006556185743742 0.0011775389088870 0.0010509584265556 -0.0000567619420291 0.0004993731875033 -0.0011761915772300 0.0009695377325184 0.0015851065484398 0.0003835888549082 0.0006625639338957 0.0005266738176441 0.0007338749610656 0.0009980256579619 0.0002466824823901 -0.0003412530026636 0.0006141227060017 0.0016303502713695 -0.0006708858051202 -0.0012569120838720 0.0003880614107083 -0.0005295496229888 0.0009875040625779 0.0004548357132892 0.0009925973859582 0.0014260697577946 -0.0010315573577876 -0.0002565781291263 -0.0016093648769098 0.0010573112302233 -0.0009428908870724 0.0015131812806199 0.0001020585471209 -0.0005181548605396 0.0005023414156126 0.0006088795885294 0.0008124094920463 -0.0001196748504960 -0.0009193856312092 0.0011264982692144 0.0005602257833124 -0.0002125579725877 0.0007087630887852 0.0000594900175639 0.0003173283576955 0.0014395524366177 0.0006385793885100 -0.0007980863983998 -0.0006866265772342 0.0006451250621167 0.0009334958783380 -0.0011613806647379 -0.0014472143354685 0.0012192057360901 -0.0003321893590408 0.0008345495690915 0.0008383822828939 0.0007081852233656 -0.0001563591762303 -0.0002765111390709 0.0008067863048228 0.0016554990601056 -0.0002713881805465 -0.0018757674598643 0.0003435267141137 -0.0005970321272903 0.0008897561415533 -0.0009066102257032 0.0010165951214329 0.0007547624874564 -0.0009543984296553 0.0010292934074589 0.0001459637020028 -0.0006884856440013 -0.0008940643446372 -0.0004996244779247 -0.0004137252216585 -0.0000126159605520 -0.0000435695532482 0.0010340001907894 -0.0000209052657772 0.0000645279367118 -0.0005212421284744 0.0010032733434965 -0.0006528972106067 -0.0004979171296743 -0.0002365775702140 0.0001139832201054 0.0002372448566914 0.0005784772419297 -0.0011704110588290 -0.0015361961757587 -0.0008311550725240 -0.0007504120744979 -0.0000022653789931 -0.0009966086762097 0.0006388423133942 0.0010208526686722 -0.0000539242106687 -0.0009364650995297 0.0002723266602546 -0.0008469357433287 -0.0006974571812152 -0.0003412880092172 0.0001278280112714 0.0006960696510659 -0.0001801761239029 -0.0005810829683601 -0.0001861332979266 -0.0006529758403320 -0.0003224351154686 -0.0003715357876825 -0.0004941013759199 -0.0010792543932431 -0.0003468091605446 -0.0005303593509945 0.0005293401738917 0.0007727491912333 0.0000377849040799 0.0012651177376176 0.0007371257305288 0.0002125476649568 -0.0000097633373194 0.0008647035290982 0.0014362223640188 -0.0006881797918579 -0.0001255201507776 0.0012302564961958 0.0002242570941604 0.0002808824261134 -0.0004473521725632 -0.0007993748424593 -0.0008597113332878 0.0004611754332335 -0.0005654566530044 -0.0001503902055740 0.0003790557497982 -0.0001421628059249 0.0004798079066288 -0.0006177487725381 -0.0001200707755800 0.0008341261737115 -0.0001625312225256 -0.0002434651749486 -0.0000241682387082 -0.0012226904125732 -0.0012792612443049 0.0008031534479932 -0.0007179250658068 0.0003205439042284 0.0002492267947220 0.0003987751192847 -0.0010560624614592 -0.0010135018143001 -0.0009624157373490 0.0000327756418721 -0.0005040203960733 0.0009609478414613 -0.0016888459900026 0.0011486010409729 -0.0009489483304293 0.0000173723628325 0.0019246531217827 -0.0001600071598785 0.0000068766844312 -0.0008767495830452 0.0000080708852178 0.0007010017411245 -0.0007240091104586 -0.0005547207922373 -0.0004826329901555 0.0004303351362046 0.0000238745282513 0.0000567868855538 -0.0001369187328083 0.0008254121425391 -0.0021764367083773 0.0006662248383644 -0.0004669206189896 -0.0003327102275440 -0.0000910907569243 0.0007624568336412 -0.0006322874151232 0.0004562503758808 -0.0019379536806818 -0.0009415179186678 -0.0005718981319699 0.0000394003097023 0.0007453584671809 0.0010596459475295 0.0005069366041229 0.0007849831517926 0.0005563976396584 0.0002899516870726 -0.0000270032902214 0.0000466723793487 0.0000078059153269 -0.0002962212523670 -0.0009159164406907 0.0005048168876473 -0.0001730825938043 -0.0002827134496672 -0.0001285531247813 0.0009230782418647 0.0007875426405902 0.0001836172561458 0.0005061757479794 0.0002847526825575 0.0003808997849811 0.0008003883855619 -0.0002516549850675 0.0006906549765530 0.0002287568097254 -0.0007481547211234 -0.0001779918418918 -0.0006257484951718 -0.0003794208757913 -0.0004002835172912 0.0004104620853925 0.0003456547100639 -0.0002061039392881 -0.0003909337260835 0.0006729078883585 -0.0043828304965611 -0.0018623733553992 -0.0062297484174955 0.0049718531543893 0.0008655378627391 -0.0139005381833113 0.0009717781325020 -0.0019406253003835 -0.0016518133966596 0.0126440161863763 -0.0095445163112618 -0.0147876439262618 -0.0053686885298570 -0.0113473197113313 -0.0014033976520356 -0.0109473385357802 -0.0096303245606137 -0.0101405351232077 -0.0061707087623546 -0.0130425821092448 0.0008005041990665 0.0034622029394180 -0.0010869860623598 0.0050252181308250 -0.0038777789425256 -0.0054577514538555 0.0027975734035045 0.0042943047698040 0.0032480591391361 -0.0011235497444589 -0.0086537974873035 -0.0112095037437200 -0.0079309669668041 -0.0006951006475324 -0.0043776283119429 0.0122723136389080 -0.0089934795260996 0.0033702940420468 -0.0062104922524275 -0.0026222131364461 0.0073099056106656 -0.0081345159520115 -0.0101916630732336 -0.0075892459231874 0.0018008831905637 -0.0006664334314922 0.0011326109198713 0.0029540795245433 0.0074077212116424 0.0016797047920806 -0.0002628159912398 0.0004925243586688 0.0064008484350626 -0.0032972088524827 -0.0077261572267046 -0.0000034492004130 0.0113873619805946 -0.0048220688304538 -0.0090853319292128 -0.0013492767402375 0.0062864596849603 -0.0121761592864851 0.0096549820787641 -0.0091089346111318 0.0010214105963968 0.0063803107986654 -0.0032136981185778 0.0051361773669705 -0.0035203000956959 0.0071075338898494 0.0024551782667573 0.0027307174308477 0.0029422941762851 0.0055506499899354 0.0011757457270186 0.0023768605695376 0.0060282199683803 -0.0057459792070455 -0.0005757024595409 0.0059186957952132 0.0068931776042449 0.0029602511142039 -0.0060547499151667 -0.0050306233643869 -0.0076453205221586 -0.0137247665654216 -0.0015247974520695 0.0061861375515591 0.0151142016299114 -0.0022341397106140 -0.0016959897456753 0.0051613549320645 -0.0039865640406801 -0.0166117578865683 -0.0138346772902610 0.0054515399355604 0.0090177914782160 -0.0115763508000450 0.0065604492277824 0.0008076978373347 -0.0049543580614954 -0.0115367203551522 0.0052358500806121 0.0128914744330364 0.0150061184789436 0.0085774396813132 -0.0093012163549495 0.0001919453500474 -0.0026317641444261 -0.0038811271672316 0.0050662236992696 0.0054064815138017 -0.0029246116789767 0.0007687967731271 -0.0013642013873817 -0.0009586260127930 0.0064847147532533 -0.0009256860479023 -0.0021471814156721 0.0017898210620435 -0.0028810701003094 0.0007433087974728 -0.0037895708129781 0.0062890391402618 0.0028078301973190 -0.0008532833740298 0.0047718094635092 -0.0112632498093620 0.0013427421756858 0.0021135078238343 -0.0033577607627520 0.0094193201152392 0.0008822716715399 0.0057409087768403 0.0112975808465622 0.0027935563380965 0.0061057582087461 -0.0049979116643909 -0.0077471908693823 0.0039587486109045 -0.0069032201985378 0.0020175321066780 0.0049004336928356 -0.0091887262398021 -0.0002381815223612 -0.0107994622625614 0.0120749760279861 -0.0042404441656385 -0.0016326132852404 0.0070656578809738 -0.0108914567879067 0.0155497796976483 -0.0089868906116414 -0.0110732574842669 -0.0057329546176373 0.0040287216050428 -0.0075675724358368 0.0045235744373844 0.0002698252668124 0.0040062737837035 0.0000493561335541 0.0080120281152849 -0.0016281965819348 -0.0023208894539721 -0.0057122705365792 0.0079449496311015 -0.0087572875205940 0.0017585466054487 0.0146835251591617 0.0000186843203143 0.0025635005081031 -0.0069050515517890 0.0010529472368035 0.0019416175909762 -0.0011190770447032 0.0023997421221071 -0.0010690418758462 -0.0003678006836675 -0.0008973525888857 0.0057028751935846 0.0028433805180498 0.0081833506639542 -0.0015721006085676 0.0022418726815396 0.0001178824892647 -0.0084458790522771 0.0093894148119861 -0.0011636980739805 0.0067326174840329 0.0012850344842526 -0.0066027162464502 -0.0069185409466010 0.0034687156819481 0.0009113452455927 0.0030592795618733 -0.0098588891192323 0.0031763604868747 -0.0034595826881968 0.0036002833026069 -0.0071927220277488 0.0040585093234406 -0.0089599915655290 -0.0051181372560140 0.0037940558627777 0.0043771810901857 0.0067976765205539 -0.0032844158099118 0.0049320442374939 -0.0061575804925058 0.0021246345063167 -0.0014642227104085 0.0046772724629366 -0.0058142156389574 -0.0071907937466276 0.0080577575891691 -0.0088710273511331 0.0020473762818075 -0.0041066371060634 -0.0030281122384430 -0.0042543661777623 -0.0018397359023212 0.0004384386346373 0.0011896148214176 0.0065373909163604 0.0022726807283213 -0.0044983442005848 0.0005930302614089 -0.0060954695670793 0.0113086568769411 -0.0014861334386901 0.0043106471414823 -0.0040300243177075 -0.0047256528710152 -0.0010389633285850 -0.0046100572024410 0.0020449317408075 0.0012760882645298 0.0019850016239502 -0.0024278681055254 0.0007877360091284 -0.0039332085948060 -0.0039392308463880 -0.0007482678099157 -0.0002328572705355 -0.0024543384225707 -0.0027036378664481 0.0005156067044553 -0.0020809588434757 -0.0032557847762145 0.0005091833181102 -0.0024899092018690 -0.0008283572620297 0.0018156513908483 -0.0007031196132190 -0.0012895729986570 -0.0049032452650457 0.0003012989024047 0.0032975206399226 -0.0011981718298762 0.0037222410666928 -0.0033013802291151 0.0108031450959137 -0.0027110182540012 0.0040616194442942 -0.0010754024553129 0.0036286844371286 0.0015425841121499 -0.0004794062565407 0.0026144123223331 0.0025501985380996 0.0021393799881198 0.0011731705626725 -0.0006047842685188 0.0020842227590624 -0.0046742311038919 -0.0063463598041279 0.0063522561402455 -0.0006330506127993 0.0065695071453660 0.0010896933833153 0.0001967310774410 0.0045004640546319 0.0000351822504819 0.0021987936460203 -0.0016519763414412 -0.0024123163428154 -0.0037958858600296 -0.0021556565162522 -0.0039288548814436 0.0004121086887512 0.0014201312898402 0.0020477085647070 -0.0028882167883573 -0.0011626442045122 0.0052219109759057 0.0018774309115460 0.0033712177409493 -0.0029513489901577 0.0007808569829705 -0.0301242112512238 0.0154058814617944 0.0217242395781911 -0.0063173756031500 0.0062203137404818 -0.0098252693639190 0.0056040026349144 0.0198467326810341 0.0102485880630541 0.0041512793197902 -0.0037048416727679 0.0051527641899661 0.0199520737921851 0.0185791201847503 0.0013462376840927 0.0062081421845551 -0.0108768680937559 0.0010667613737675 -0.0116341200125832 0.0185901153855644 -0.0096358195019348 0.0079193579337740 0.0297160487834527 0.0212600707402465 -0.0243257730020567 0.0268618615596299 0.0112494348346048 -0.0079164502185689 0.0111484139065089 -0.0172402648767812 -0.0026600663336575 0.0218421988015878 0.0043889958069463 -0.0353183681665799 -0.0140154340543475 -0.0055573753205714 0.0088709918552765 -0.0179563460662019 -0.0029017995239879 0.0017677471939293 -0.0242118383543944 -0.0184994983811953 0.0202681404139277 0.0104357844618727 0.0106919319707064 0.0039766054210182 -0.0231240621696990 0.0041338620203231 -0.0107832955447232 0.0278783487159860 0.0010097941927297 0.0265151583605416 -0.0042661877767619 -0.0092369063633431 0.0023787363693399 -0.0073847428837056 -0.0163820031789561 0.0039897647728797 -0.0037516812739563 0.0005770477728023 -0.0110538229305591 0.0098130137785189 -0.0174300924585220 -0.0078605115887725 -0.0217318698840363 0.0170054311903032 -0.0332689038437583 0.0192326380305571 -0.0148916291418443 -0.0105135429451786 0.0132793741106238 0.0256196849132039 -0.0052414592507061 0.0047963724993353 -0.0090742231777638 -0.0107048056691965 0.0158298994119564 0.0332335787315977 0.0046820131763153 -0.0029306001936876 0.0059137595240804 0.0085294598569051 0.0066820314909518 -0.0014171570189718 0.0111212656164468 0.0046396614884639 0.0274790213158943 0.0098089260156705 0.0097280746865437 -0.0145434469872986 -0.0039849615051836 0.0020836880277732 0.0089538689389190 -0.0012792334438522 -0.0040598227625267 0.0133291444330808 -0.0125560309823351 0.0001439985144128 0.0181160381661471 -0.0300735125486922 -0.0115113851407702 0.0225469701654528 0.0030587707891922 0.0111418095815122 0.0015054143964902 0.0047473692423943 -0.0036145655494403 0.0099995357211516 -0.0021305939263930 0.0116080925378177 -0.0052628248924873 0.0014701206990162 0.0114372587288899 0.0151708979222981 -0.0133540296408230 0.0022476399233292 -0.0099287713216192 0.0040920209782003 0.0112532666159232 -0.0006486509561934 -0.0165785644858043 -0.0200852228765156 0.0037113081954643 -0.0064713944263276 0.0034603164384905 -0.0303309413220773 0.0043079922488633 -0.0166476211541978 0.0238876552977714 -0.0183346115218646 0.0088865216989239 -0.0032199964232748 -0.0155534585909488 0.0029550075108545 -0.0017097956680041 0.0202051582391701 0.0112460612395409 -0.0170901796763698 -0.0011215332132096 0.0336906923702607 0.0144829530223249 -0.0064236495057913 -0.0051439528972157 -0.0011110686548039 0.0194273684008935 0.0090645127041598 0.0115962906134697 -0.0164684708649583 -0.0210574736991795 0.0189093413181798 0.0009959238165259 -0.0075991456895282 -0.0277603254107927 -0.0046759052841689 0.0194085413369268 -0.0104488921402094 0.0031458543141454 -0.0305572867034894 0.0249661652685923 -0.0160320319924628 -0.0138033426067616 0.0124044958757055 -0.0011391978273295 0.0239806877309067 0.0036463335921817 -0.0066047654945335 0.0079726178958478 0.0095098046457951 0.0124088156307746 0.0196632282475554 -0.0004512734657134 0.0030093444321101 0.0084024218919140 -0.0048573846354631 0.0134808310605229 -0.0057417039827026 0.0100165862916586 0.0108240546237290 -0.0118312897735928 0.0157582457280369 0.0260049265139451 0.0042223865198047 -0.0088299730420620 0.0206407492116938 -0.0102201346687098 0.0040707079383507 0.0026841487573510 0.0037727952920731 -0.0078982694534097 0.0014570897052411 -0.0054028698059138 0.0318023385715259 0.0044302161057274 0.0026202829550255 -0.0087730012478083 -0.0052244084792366 0.0209135116419281 0.0043754267304324 -0.0079244074756400 -0.0000050903405751 0.0066920149184671 0.0216819024899604 -0.0096923742280859 -0.0136406441871222 -0.0058747959610682 0.0004009978961668 0.0147701954152446 0.0077146350103358 -0.0098233887655602 0.0002006220593195 -0.0044309275182201 -0.0099915829312375 -0.0139253594347030 -0.0142832588615887 0.0060290590622805 -0.0090695642968451 0.0117163659087670 0.0233106075622803 0.0173030552539678 0.0180816491859682 -0.0018626220597951 0.0276387677897777 -0.0042235741594323 -0.0220971660539269 -0.0210424137391476 -0.0055991608005980 -0.0139973411797072 0.0218685195747196 -0.0064677360709302 0.0083557978202466 -0.0019603694569355 0.0156457187527038 0.0019801337742399 0.0168055972649303 -0.0158258785260753 0.0137710902784472 0.0108107641584447 0.0086482496602945 0.0129707793673406 0.0050972378898553 0.0032410772787922 0.0198945148042885 -0.0146102030339947 -0.0097494078999726 -0.0112264461251502 0.0002062996617769 0.0079255022483591 -0.0141582270068386 -0.0034265431504564 0.0055614456951130 0.0048021349341406 -0.0020116187904223 -0.0011804273611130 0.0005137374490779 0.0058030467073996 -0.0061370905335746 -0.0206837040065279 0.0040557577475527 0.0052392257816213 0.0159568507628088 -0.0063811053994541 -0.0074751568592793 -0.0302068601126773 -0.0078656573482469 -0.0129136756200860 0.0039671536352740 -0.0078578004237120 0.0046725473356063 0.0075618618276727 0.0234731701937298 0.0059889375095517 -0.0119487308045248 0.0010747796424619 -0.0046968416177302 0.0074222235695399 -0.0138247196432709 0.0032312125634485 -0.0107942686771349 -0.0008030058196158 0.0072977939979663 0.0054847133969000 -0.0018792358989325 -0.0059587760758244 -0.0072532183364626 -0.0004575351631620 0.0105283869172991 -0.0126520951454705 0.0046752476652503 -0.0066731501634093 -0.0184913081950518 -0.0080829032337769 -0.0000357319326173 -0.0160804823547589 -0.0120720523670925 0.0069776355415539 -0.0095644555518284 0.0113653801223239 0.0045429464375582 -0.0090853973804498 -0.0079825985813133 -0.0535096051151021 0.1404500520206964 -0.0907175332722957 0.0573297787700499 -0.0288091755476760 0.0722266106306446 -0.0079032551918293 -0.0197153655188246 0.2720779326165310 0.0989005967119936 0.0049830379898595 0.0580201568246186 0.2800041957807648 -0.2321536974768568 -0.1103518753089682 0.0366141853686281 0.0787422773918246 -0.1677483777920765 0.0812728001767613 -0.0051533378963877 0.1334066390079593 -0.1149801291039198 -0.0736369720041746 -0.0342630438033222 0.0430661028867037 -0.1047078119905895 0.0799824250985272 -0.0436553294551605 -0.0236625372776456 0.1548682847413642 -0.2201334407423700 -0.0619248554726233 0.0968782807493992 0.0520198756748878 0.2119687476800586 -0.0690166124589700 0.0297438341229574 -0.0108333246654699 0.0951868923044093 0.2135818148211384 -0.0633539925728918 -0.0150090708093224 0.0696613765832984 -0.1009573803780514 -0.1045305008472494 -0.1226383321478745 0.0105179206960936 -0.2259971079657396 -0.0057148590458689 -0.0806131988161745 -0.1180519859152146 0.3385534491916575 -0.0952363569410195 0.1581899503202673 0.2005774723270157 0.2822017481425305 -0.0759562058351494 0.2238487579556263 -0.2068196577297446 -0.2828843559327032 -0.0553763946768167 0.1077622304160785 -0.2610802459651066 -0.1833881087627739 -0.1577832383665184 -0.2094965354922101 0.0572504717843050 0.0939118681742162 0.0417373314081038 0.0653355003494643 0.0150226642895352 0.1574387766682812 -0.1712706379943420 -0.0539757139941960 0.0789962144314718 -0.2050175589451186 0.0269148659068589 0.1820911057606079 0.1110784023186289 -0.0750405905240577 -0.1152456042928209 -0.0810248531622819 0.1866349617657386 -0.0122317032213768 0.1983401048231093 -0.4050958397783238 0.1421590392010063 -0.4916928182175390 0.0885183482191590 -0.2652017716210223 0.1566500997085416 0.0196259422538010 -0.1866137383046418 -0.0818726231448264 -0.1168092547444624 -0.2348594052735734 -0.1541058251432478 0.2475860415260167 0.1704514376431356 -0.1363884472381321 0.1951028174200121 -0.2046991166204555 0.0840449970815852 0.1096310111641949 -0.2745596187182731 0.1474604301917478 -0.0470693101376430 -0.2163519457353102 0.1336888478570482 0.1926489118396616 -0.0965653280885604 -0.0187301196673354 0.1155752005855472 -0.0186106133950236 0.0839396434100440 -0.0332635679592510 -0.1458759201233068 -0.0154658513234173 -0.2067236649001315 -0.1130252056796946 0.2530460733392131 0.0088539575402446 0.3678446816310796 -0.1102560358798624 0.0559083700644447 0.2506312760067925 -0.1094264395019284 0.1391478617449077 -0.0874022392362919 -0.1260136687638644 -0.0834487145842485 0.0349871208623120 -0.0725520281787693 0.0254083370997940 -0.0992996827907483 0.0665189057647251 0.0622595745801115 0.0507890746727925 -0.1011557986677349 -0.1664829400087390 0.0180765009587816 0.0947951883410272 -0.1380250608719192 0.1003579516275995 -0.0443555586151275 -0.0404276617965834 -0.0855933000384516 0.1164980792196873 -0.1393461753011047 -0.2766433731147887 0.2239967780733773 -0.0449023032945266 -0.0123434151836240 0.2356243023213167 0.2133584043803016 0.2254971292176931 0.5369939434743429 0.2619771033997069 0.2607620759941347 0.1618818428295733 0.1919461319218456 -0.2549178695391305 -0.1053277335899478 0.2570438367005471 -0.1955780684317847 -0.0776615274075078 0.0738744674155771 -0.0718387252634496 -0.1426015989944949 0.3776925407257278 -0.1638460230545720 -0.0821806965568575 0.0095991172176432 -0.0071962753009841 -0.2728999649499455 -0.0339287227522072 0.0331490302624287 -0.0540908161125495 0.3194171421614760 -0.1452341494474177 -0.1729643052416925 0.0832183692563796 -0.2119110566371108 0.0799687980500902 0.0311228838335604 -0.1211354678370077 0.0035033094648701 -0.2848479498844441 0.0735604582538029 -0.1770471014248587 -0.1372934962285181 -0.3889842652801763 0.1253742816922902 0.0428979123146977 -0.1242896401057104 0.0913686652127288 0.0356528030124957 -0.1242350743838741 0.2258340707527797 0.0805069710469938 -0.0075559614514858 -0.0981059396917286 0.1575362023180269 -0.0752635229166821 0.0577049026990805 -0.0390650175588500 0.0101187379627895 -0.4502099366511423 0.2075488751115661 0.0309198286784352 -0.0998800912837179 -0.3536345829171184 0.1600604398592990 -0.2384580670149385 -0.0429895153258944 0.0972553882121674 0.3158672277008211 -0.0124141488873554 0.0653755819977528 -0.1072343871961119 0.0411908324904177 0.0352814379454267 0.0440085832328191 0.0187755308042016 -0.0325812972187031 -0.1285645398541115 -0.0545205738999700 -0.0047701054385005 -0.0712393312561985 -0.0365177391317215 -0.1868542149083710 -0.1373851279371263 0.1159069357261304 0.1315833325508088 0.0289769294680987 0.4102448138551760 0.2716514951736404 -0.1563689023222092 -0.0905742826694240 -0.1999450714784609 0.2535863573863108 -0.2391354928397282 0.1679338103686333 0.0377002450040407 0.1067627055946714 0.0838472169125798 0.0836763577482622 0.0441874067413211 -0.0060570855546135 0.0005048734095652 -0.0702043651198084 0.0044962597063315 -0.0534618269920473 -0.0511263987379201 -0.1210492255978499 0.0163642321968805 -0.0832052382994467 -0.0400984562155247 -0.0745123696650084 0.0798868601845413 0.1039510131712713 -0.1038557391010862 0.0145853768228193 0.0280832535863358 0.0629099085205502 -0.0031737722279820 0.0710019283600418 -0.1285434085692587 0.1218096775368385 0.0762628767938974 -0.1651423304685555 0.1146549746578737 -0.1851729913435768 0.1230710457645618 0.0306445286124815 0.1877642607870749 0.1617577136107534 0.0907211839376724 0.0896639521739375 0.0506612877415581 -0.0015844093740965 -0.0205113393548342 -0.1537123217669846 0.0062138099606755 -0.0002185620733466 0.0181298829534557 0.0216516369740643 -0.0843869411156521 0.0475537157803777 -0.0125367049667448 0.0094399451017026 0.0108612310178607 -0.0307520418666643 0.0059296114058189 -0.0317071686649450 -0.0027581071538299 -0.0305475143254409 -0.0008861397353686 -0.0077142710430721 0.0437111308292274 -0.0434380274382650 -0.0449929956684290 -0.1980390872042563 0.0017426560619389 -0.0317033605448951 -0.1304034779791397 -0.0824699886411282 -0.1420921502761364 -0.1714482553144655 0.0557640350924184 0.0262399356983933 0.0909002560382413 0.0794154304781333 -0.1734977733916896 0.0013395169264137 -0.0385071170614953 0.0702901204224389 -0.0704378298521307 0.1398891326324867 -0.0425091298517087 -0.0575864143056686 -0.1592164638439837 -0.0826974914266206 -0.0731452815510923 -0.0390622539065432 -0.2156550591965106 -0.0736671150068004 0.0766192245993044 0.1575876469287810 -0.0135455900805647 0.0738314905370016 -0.0292403895430589 -0.1478660282033187 0.1674905470559304 0.1154259906463364 -0.0194379211576668 -0.1427392100519633 -0.0838521180162701 -0.0567361531371672 0.1817460209125999 0.0150934407317036 -0.0979515675529825 0.0961031408266646 -0.0252453656347694 -0.0702306666834080 -0.0466449907976266 -0.0099309925902038 0.0697393850194007 -0.1055959003455174 0.0136348790707403 -0.0183390578114726 0.1897379729176600 0.0294800510550262 0.3059757038126061 -0.0150981735715715 0.0848369078298505 0.0442506337479962 0.0684326645515928 -0.0554817751815315 0.0431534442266006 -0.0651418826735248 -0.0609249943051686 -0.0168378521360464 0.0005799301707457 0.0925985247078627 0.0174515689344161 -0.0400059532174114 0.0674915915200892 -0.0059228841341121 0.0057925174542347 -0.1208414934319472 -0.0544680971551413 -0.0436677367901502 -0.0586669169370287 -0.0103568273401834 -0.1380458180481446 0.0049925255561537 0.0356617728488946 0.0526486311966466 -0.0882106951344284 -0.1449783809679737 -0.1802702522886950 -0.0373977567803134 -0.0222038152960874 0.0424226434064228 -0.1042792567666223 -0.0528833830287709 -0.0270150425610044 -0.0017829643934060 -0.1663547192594154 0.1336885601763122 0.0925239592828539 0.0516111646408640 -0.1462106633988482 -0.1890923871111294 -0.1463511886037912 0.0968463960561193 0.0149321746843623 0.1786052933562016 -0.1336719670281612 0.2632414968951762 0.0106006729576477 0.0030204984162864 0.1345299996749053 0.0552192820840804 0.1579679126111541 0.0711533367226480 0.0154737764643321 -0.0587264636420940 0.0327247245055294 0.0395566759038883 -0.0221289179782122 -0.0173971446928854 0.1740775827694424 0.0719250956864364 -0.0551624465496489 -0.1928628142587977 -0.0988355254393509 0.0477967924456353 -0.0981072505157028 0.0221029679558929 0.0162198946258906 0.0985912103947602 0.0288522094457243 0.0014002183808204 -0.0037678832053076 0.2002983310190022 -0.0690132895891263 -0.0180854619423928 0.0831860959379359 -0.0143188216288366 -0.1109426358475387 0.1566153444326849 -0.0167316770239617 -0.0734157617890623 0.0584184250005940 0.0636781531651992 -0.0650490195361711 -0.2017178492124694 -0.0403831908548291 -0.0723022751982567 -0.0466913358643800 -0.0971548425992487 0.0082907486128035 -0.0854344773898527 -0.0553254623001185 -0.0358348078499716 -0.0316532526555883 -0.0622894272609431 0.0787339913113804 -0.0977391926199886 -0.1893403042450134 -0.0194602198257653 0.0383848268374837 -0.1594028643791238 0.1340004569475704 0.0264701146374869 -0.0448786467955189 -0.0371986832869700 0.0438153597090981 -0.0910996630761182 -0.0630270650854437 0.1234342161336173 0.0514006291292341 -0.0731979056483904 -0.1101730013635257 0.1012543584305512 -0.0394858886248766 -0.0012108921580797 -0.0540088069251140 0.1026138615927943 0.0442815394470166 -0.0980396253084906 0.0791538249538957 -0.0744042143952819 -0.0419426923938285 -0.0711639183161298 0.1360062417987812 -0.0355537831673948 0.0579488395389346 0.1649927152287654 0.1745943449147369 0.0029489139595068 -0.0280619184548326 -0.1325583725895069 0.0418381021219639 0.0459110615972783 -0.0396646214178728 0.0814637809022936 -0.1963905809305673 0.0647816470527785 -0.2137745087438085 0.1553113768146991 -0.1611601459478730 0.0602945469729933 0.1313155179495591 0.1141754436977344 -0.0249662979185434 0.0600330144184075 0.0957140133769908 0.0910471012075729 -0.0675722151488309 0.0085531250254902 0.0516423994724293 -0.0791933447238650 -0.0874592460554840 0.0747107760551906 0.0103021815117451 -0.1536535589112632 -0.0551571680702102 -0.0095099798742131 0.1133841682423219 -0.0744302855574961 -0.1032532503605824 -0.1413511992612191 -0.0970273904475642 -0.1820256296949928 0.0551738243959545 -0.1147242831026857 0.0204109879786010 -0.0007605300200435 0.1262529312621601 -0.0555059275292742 -0.0052825543447267 0.0392912892183688 -0.0051446728722678 0.0990461272554122 -0.0329734061678916 0.0987489929731928 -0.0888599214480285 0.2197824262722002 -0.0157666768056244 -0.0128346119753562 -0.0299057932753929 -0.1010697783078098 0.0275778795300209 0.0592180869760856 -0.1074371490176261 -0.0696461163669852 0.0702188544855352 0.0701567940392986 -0.0887505667044745 0.0806907989283877 0.0655300037100816 0.1675772634626335 -0.0088795568906377 0.0658143608388318 -0.0502022098958337 -0.0508255062345887 -0.0841385392746752 0.1111188129424082 -0.0705672140932204 -0.0857320863609422 0.0248824385936598 -0.0231842665339041 -0.0340301623239003 0.0163073122987480 0.0924079550907941 -0.0358962277519979 0.0595921675121023 -0.0388594401207495 -0.0449843639052515 0.0782580367001150 -0.1189270813625407 -0.0247747177134287 -0.0392993499011915 -0.1377589611171625 0.0730657356747797 0.0989186733983067 0.0685818485273314 0.0852756043598627 0.0187590122791076 0.0431008552408344 0.0010447291817087 -0.0391745138538580 -0.1382523895899203 -0.0040875428461596 0.0226534588058331 0.0592233177806390 0.0030567867329003 0.0274711968326823 0.0090175546306294 0.0276333461816307 -0.0387527760657864 0.3274137583706096 -0.0197345325891010 0.0556351157118957 0.0219370331572792 -0.0594100667265751 0.1199612219145322 0.0749095770058032 0.0153356417995353 0.0234368792031160 0.0763480278751170 -0.1010899910290646 0.0103921199632881 0.0071976819259984 -0.0450562815259739 -0.0550220372061959 0.0091341641930420 -0.0171337439330954 -0.0575435461091913 0.0073989544950642 -0.0480951605947696 0.0289417266539390 0.0221870850930788 -0.0671672826783805 -0.0695407604264860 0.0301608078216610 0.0494438424399502 0.1038104675361367 -0.0404653873083633 0.0753600595432223 -0.0095602450747400 -0.0100391346670351 0.0244792790585470 0.0254135342830043 -0.0159029967684952 -0.0875352363190189 0.0764436209681968 0.0655330310703957 0.0771619743972070 0.0163492163554506 -0.0488975271740062 -0.0766629630478915 -0.0269964344326375 0.0219910926525605 -0.0012182466277134 0.0410750825948205 -0.0515980338711095 -0.0208608523232046 -0.0702322944633417 0.0466388331259986 -0.0169265610505465 -0.0488385062547402 0.0150410536151014 -0.0568447242231199 -0.0100871990774576 -0.0830404846302210 -0.0494881976831404 0.1834994037874778 -0.0056527123486138 0.0022913726735417 0.0828603918916228 0.0838237010868625 -0.0329045915885053 -0.0642058280740819 0.1110363748339217 0.1487762190065808 0.0186298837185837 0.0276176643931545 0.0310480061633370 0.0204805632973222 0.0537309454250354 0.0151628385159317 0.0699909999967847 0.0931195166605132 -0.0421024469589860 0.0536262470690099 0.0356566455674142 0.0493041325333296 -0.0734242568769203 -0.0643514529439511 0.0119928158554835 0.0259716692828210 -0.0482088512846356 -0.0374905160375650 -0.0723520271441673 0.0969423075773496 -0.0101131590122064 -0.0532373335409038 -0.0747124672141744 0.0014533356644294 0.0207333518308381 -0.0227176886354802 -0.0255854268895801 0.0205555806317463 0.0283989387270053 -0.0461492197380549 0.0037242553225937 -0.0259400038299315 0.0258983375664402 0.0940228902644658 0.0323090745213341 -0.0018883258712704 -0.0175149357661047 -0.0062866426865354 -0.0631101483058460 0.1164173002426703 -0.1011006819665594 0.0787159616201007 -0.0142009965928556 0.0058975097221702 0.1106595199263804 0.0212404667292977 -0.0078180626183702 -0.0374333568460708 -0.0388016494491871 0.0228126765360085 0.0335084912689785 0.0066518475832456 -0.1558820966450152 0.0313016944789437 -0.0246464853935678 -0.0988092489594626 -0.0992695789112634 -0.0115086679650057 -0.0295219435066494 0.0267748650912769 0.0597232735358036 -0.0534766206151567 0.0160908893128529 0.0127497129592157 0.0358870170930317 0.0331872348139862 -0.0813764264874486 -0.0214238044096858 0.0472053638204866 -0.0146603947932374 0.0676387682593682 0.0111567155186474 -0.0266253509638504 -0.0302970368675896 -0.0322806694191352 -0.0163224467370352 -0.0005609660582344 -0.0153516813474895 0.0083775086034192 -0.0465954317201432 0.0432451728255550 0.0266968085374490 -0.0187721312376545 -0.0049897456179141 0.0116213052094046 -0.0478680312552307 0.0885947722623284 0.0635085716931452 -0.0172095495975039 -0.0157263218211464 0.0387382853986163 0.0231545515097629 0.0200734407579934 0.0232672452117569 -0.0006063009094306 0.0228516690744050 -0.0661006381974437 -0.0050038064333897 0.0144603082871345 0.0206496573844726 -0.0297026444810427 0.0172974095139254 -0.0121520914686457 -0.0181598139533856 0.0032417433827668 0.0045864101943599 -0.0025139452710369 -0.0231748319675895 0.0369433765731262 -0.0075565409967601 -0.0041975618059962 0.0015460208465827 0.0106425392063890 0.0617981121493828 0.0094036430444578 -0.0569387700613949 -0.0032556261004174 -0.0087485957683685 -0.0023537047229429 -0.0071554076550448 -0.0814159063865004 0.0358334844950460 -0.0294554152033436 0.0630078406489662 0.0495962796890346 -0.1679629742802204 0.0968903501854392 0.0247999998113574 0.0009218268452835 -0.0225865237369148 0.0495312257583787 -0.0181018884732568 0.0416945909921909 -0.0621768663006174 0.0004350836040263 -0.0181970759305663 -0.0028944321483989 -0.0257424909867545 0.0095021167542955 0.0191899642427096 -0.0230156520657263 -0.0147131612758628 0.0635458260860662 0.0506283492555572 0.0013244228553030 -0.0299208863583923 0.0026474103459246 -0.0215769833242606 -0.0283917720635698 0.0384943548030119 0.0237857683465074 0.0189397277174436 -0.0363495788829564 -0.0541216806422451 -0.0313003533937853 0.0288432832992414 0.0243449473309839 -0.0535242894558035 0.0273791712157673 -0.0784762725280555 -0.0033826252739862 0.0031339982523738 -0.0292024439308227 0.0318019966274366 0.0251442608611111 0.0101520527901607 0.0398247939527730 0.0082820542285947 0.0325104908938702 0.0016606693791586 0.0299313062774282 0.0372015311774962 -0.0525676873325393 0.0761389022967098 -0.0511267006387474 0.0227683243831601 -0.0954719372896856 0.0168115090744589 0.0138807041086457 -0.0271386621689350 0.0145496710170198 -0.0190423680893583 0.0031214986076069 -0.0275833829974203 -0.0251750172454069 -0.0175658176310817 -0.0641793439989401 0.0064171995803824 0.0087963068469297 0.0175630479624992 -0.0505999926087016 -0.0358500050282568 0.0209339447937385 -0.0009810148105126 -0.0299596568152489 -0.0291480911910675 -0.0197885843051068 0.0751782034634145 -0.0504642969217790 0.0117814693889009 -0.0229154936565477 0.0209846312879051 0.0091796205223525 0.0162418216584160 -0.0048360131704082 -0.0052562693875125 -0.0320314286248308 -0.0351388791904011 -0.0045790579478086 0.0038435065122840 -0.0057465324269014 0.0025750608321251 0.0160755639492150 -0.0182346161868261 -0.0018875157162014 -0.0090787321517804 -0.0315486032649904 0.0370322100340870 0.0221978993069495 0.0035181911487121 0.0287631378482547 -0.0279912772398065 0.0433953374744589 -0.0363659443441931 0.0512360567180806 -0.0529521325368673 -0.0684973618402088 0.0666373573003725 0.0256465233104017 -0.0076706907271041 0.0344575924591545 0.0073003826063586 -0.0353097911280779 -0.0394054136284519 -0.0023131095556905 -0.0310047529625475 0.0038973912404572 0.0469842741478664 -0.0059344496031923 -0.0481932972219950 0.0307070471853781 -0.0364039230586030 0.0149109919091918 0.0056174195451466 0.0549251477558135 -0.0524473642641164 -0.0061005304942618 0.0093236635818701 -0.0287009798338567 0.0189984632597332 0.0124659001759222 0.0659696015719603 -0.1117210483479549 -0.3262026557508758 -0.0593690789609972 0.1034490773906409 -0.0322527383046778 -0.3215614995220598 -0.2616717422776405 0.1066157563036098 -0.2749955546363943 0.1019298474822012 0.1885614735752916 0.3163168421637690 0.0202810110806961 -0.0518086395968109 0.2243565470743451 0.1007088480494980 -0.1280600882335119 0.0789479364908676 0.1144182388073401 0.2259995622768504 0.0170412069148963 -0.1313157498596270 -0.0821738172462132 0.0908898689794309 0.0424616425439987 0.0563855101934757 0.0923678436330676 0.0955961255157896 -0.1263210866478796 -0.0693616042735477 -0.0330643173010938 0.0162491934656176 0.0318791161481232 0.0718079573612090 -0.0997766117049991 -0.1352456566859290 -0.1902270681048752 0.0072507520642384 0.0898187366293667 0.0481910115523804 -0.1214537967784041 0.1603708299310364 0.0261870393319899 -0.1028583866600047 0.1843025354983234 -0.2574165440332754 0.1227986358547627 0.0970648041896808 -0.0390005625151399 -0.1300773522378778 0.0731774251026236 0.0183161709595949 0.0629694688428577 -0.0176792970451438 0.0965705676098294 -0.1132646105673745 0.1637129270629803 0.0286968864924922 0.0820237320199347 0.1276019303153358 -0.0781003544128277 0.0405687621512115 -0.0219971963209594 0.1788518643807446 0.0314942605896576 -0.0349493843903873 -0.1787668099356568 -0.0863290977131939 0.1715325269281686 -0.3211077669210912 -0.0116047632560505 0.1445466424731321 0.1097258817485308 0.1919232768408882 -0.2345518420256346 0.0186155056396060 -0.1111803794203998 -0.0070641668707735 0.1653079407733312 -0.0896295917544373 0.0601103307677181 0.0434352482510029 0.0177008509400650 0.0295243721152331 0.0613727805720964 0.0461122291515839 -0.0233098882286903 -0.0204836393640095 -0.0606625978689697 -0.0719483872351490 -0.0075006434094399 0.0025530444597321 -0.0307935742419845 -0.0554051369775725 -0.1388796539657151 -0.0825778169847920 0.1020752757950404 0.0889472422673121 -0.0900743701885879 0.0947698105676684 0.0204292902140079 0.0034477481682282 0.0417571999425446 0.0788281934635291 0.0686253630610555 0.1489023936985697 -0.0028728356030452 -0.0969362372009151 -0.1834397848918040 -0.2132376195599143 -0.0873397894170948 0.1201621570043495 0.0447721171705165 0.0061982239135644 -0.1361477285844670 0.0085823405959605 -0.2186636607622953 0.0640066660533342 0.0540503974880819 0.0438966191726101 0.0633368432010213 0.0719671183280911 0.0374228310674885 0.0174510521980043 -0.0196854504719232 0.1542794555976240 -0.1699033255203755 0.0132561528076045 0.1282070366447403 0.0736687110149236 -0.0787916464996948 0.0927406370559223 0.0506248329337395 0.0137246864026783 0.0833314791426024 0.1704101172637603 -0.0724684979624288 0.0160832779927365 0.1280900715159822 0.0368256847647147 -0.0233877628812908 -0.0292625683896659 -0.0755822073072587 -0.0784833186786923 0.0050359644753354 0.0838609976621671 0.0301150019500251 0.0444448553525189 -0.0130449962641695 -0.0677698364926785 0.0933266641660858 -0.0011708023350586 0.0086593738040294 -0.0976889599994989 -0.0959917678032639 -0.0733431111423162 0.0886202264158250 -0.0668009874869987 0.0668823825886898 0.0160470018294468 -0.0790093004323438 0.0980825543548804 -0.1396003390933063 -0.0472202116396161 0.0069809189941298 0.1039582237900271 0.1360119171990294 -0.2000202693808326 0.1969954642241349 -0.0821974904712469 0.2250660348705584 0.0671567710103624 0.1283761589753940 -0.0149608349072186 -0.2303320302669322 -0.0089925544551621 0.0463837691219885 0.0315353355005402 0.0497583944631750 0.1395283805010516 -0.0372087040968276 -0.1808515747293650 0.3513067875456857 0.0516313577811388 -0.0432105705623941 0.0973817463145437 -0.1225092735179794 0.0262551265330642 0.0310109477641618 -0.0979912326769396 -0.0983254391384902 0.0232100145381218 0.0535605160184354 0.0183892981079276 0.1811486927706074 0.0554032826343039 -0.0767344245768696 0.2443089963665910 0.0009387902114348 0.2842787585826269 -0.0258941169950966 -0.1110276475008698 -0.0019798331008923 0.0236731606756055 0.1251482585374473 0.0419503228429268 -0.0184759124046743 -0.0173169601262037 0.0728632513663531 -0.0333116567448298 0.0145100731883641 0.1240688445892002 -0.0942603330796800 -0.0352715903297373 0.0448114225438933 -0.1519090646807935 0.0697664758540576 -0.0129166612747545 -0.1488385048188733 -0.1388829436520171 0.0653397817860463 -0.0414306550077203 -0.1288681940185251 0.0343955189174412 -0.0499919852187315 -0.0862931656706959 0.0020565741957082 0.1586219569786029 -0.0561079674684016 0.1552276911973399 -0.0584702504124869 -0.0766408150734691 -0.0605662974091036 0.0241599315025308 -0.0383399905449780 -0.0091905425071950 0.0711970903997694 0.1157470550103287 -0.1472582147499252 0.0137617829922775 0.1122775611035812 -0.0969864879385585 0.0050996413354891 0.0135298582616554 0.0726263982713716 -0.1459311682745487 0.0209736721838833 0.1043206198443835 0.0291503898056265 -0.0972608584857681 -0.0292142404635217 -0.0864655238636164 -0.0580655477114248 -0.0843656728563443 -0.0164508559142033 -0.1767952235562291 0.0384048112312580 0.1345478154568041 0.0475859828118614 -0.0666656821287196 0.0377820556735891 -0.0514981495007832 -0.0807612065958173 -0.0598102377998364 0.0062695976067927 -0.1249791129277760 0.1931033664748083 -0.0962756021538058 -0.2254689899263955 -0.0527164984067546 -0.1570920653082120 0.2469860390496972 0.0597715123319177 0.1098198656612234 0.2079844659054180 0.2130976173514063 0.2689717533961254 0.1167693373487267 -0.0718065555085031 -0.1300575090018264 -0.0334519428830144 0.2425149225992968 0.1547278928891466 -0.1895356030455592 -0.1419907931286810 -0.0475311869370692 0.0644620694266675 0.0789951255158210 -0.0594608889817517 -0.0345979910301275 -0.0565783380899557 0.1091686657035498 -0.1920756686416077 0.0239119956849683 -0.0519510476636410 0.1550809918057444 0.1094586439911077 0.0341438808396750 -0.0554862650567955 -0.1511538678078479 0.3276180141179845 -0.0720315299473224 -0.0785785668787097 0.2262071646450594 -0.1732668459632007 -0.0607282583119511 0.0861997833447888 -0.0070482431691126 0.0563249860463883 0.0133045868416006 0.0003986058436841 0.0266143887483224 0.2862996290290731 -0.1431631030473697 -0.0704220548601790 0.1247269004199132 0.0545773469350555 0.1621237904697411 -0.0265048887168217 0.0276848481317802 0.1535197706489012 -0.0085814773093696 -0.1714092175458680 0.0327767090008001 -0.0195195049518174 0.0171228591310140 -0.0924659001157862 -0.2070897470997365 0.3019198355419078 -0.1381493867424941 0.0577644393785688 -0.2036536768280227 0.0303797512761527 0.4252743088420590 -0.0747472890635739 -0.0405279209117632 0.2160161805456977 0.1642518469904521 -0.0507181125885660 -0.1084923833517067 0.2822287126917773 -0.1115664124817252 0.0009866733071088 -0.2742172281221433 -0.0407993666662504 -0.0281603533156006 -0.2922825039662476 -0.0373755665941668 0.0584833583328246 -0.2133571689646692 0.0394724580284175 -0.2665667356987801 0.1766567581903546 -0.0248011719901921 0.2029376862254406 -0.1149935247584122 0.0132567884555538 -0.0347551086304419 0.0407072366854225 -0.0903837520352208 0.2051335301755037 -0.2854268803167178 -0.1732657083073741 -0.1074931475101968 -0.0571694784828151 0.1904556791741596 -0.0019140874702025 -0.0100359244562605 -0.0192001406752564 0.0680721560072370 0.1761294145211290 -0.2060058037090847 -0.1072428522151798 -0.0288158180241840 -0.1255585850140226 0.0060100675895716 -0.1975359116865066 -0.1610408161832506 -0.1063501745290972 0.2278214994586799 -0.2446799438038613 -0.0963804979975263 0.2678288892090082 0.2532468315806551 -0.0984854464187961 -0.0794188080343846 0.0057771055252637 0.1144968274738438 -0.0479109622482126 0.0420023159945209 -0.1195458595336284 0.2253886985849810 0.1516910175141482 0.1643730683147780 -0.0202960465957627 -0.1850787971559001 0.3175857462622891 0.1071002118057627 0.0232151413936201 0.0345027305571198 -0.0127275448043258 0.0797203035139654 0.1935041945136674 -0.4684814093337624 0.0964634331208419 -0.1224091918704976 -0.2220167259149942 -0.2191690790219022 0.0424187421400027 0.1167646134948462 0.0813890260945821 -0.0512315512762883 0.1787282554792131 0.1394034580915760 -0.2522143442584864 -0.0604068182624197 -0.2393377316444098 -0.2932152368512472 0.0917473015068030 0.0651662201034266 -0.0846248993662434 -0.0870869169234074 -0.0989739863220642 -0.0080182330632028 0.0327017424456947 0.0151159118823073 -0.0456861585280865 -0.1429613125249376 0.0244829752573686 0.0286222454584018 -0.1425086139706402 -0.0033489196543184 -0.0197964050638047 -0.0314370336372386 0.1185565782582419 -0.1984214704217703 -0.0193656393015737 -0.1781409810671951 0.0612904955399534 0.0481507127523843 0.1904194410583334 -0.0583055895466357 0.0347387382658869 -0.0330648374017557 -0.0896275885933843 -0.1507538956833574 0.0715959182526893 -0.0249917468704381 0.0264471655573854 0.0914897219904636 0.0419565235180312 0.2177479976019460 -0.2400734229430822 0.2746774953289414 0.0307013550555138 0.5370245738971050 0.1712610948827699 0.0496598693464505 0.0609378194090036 0.0988888420327562 -0.0206062585820936 0.0924603853863655 -0.0185360176739394 -0.1413828843655412 0.0512098034579737 -0.0622120135825871 -0.0528509278727251 0.1060114173943566 0.2235506216128011 0.0066946650677059 0.1724622202998024 -0.0077004824907150 0.1502950486830372 -0.1828424684869279 0.0933196758317885 -0.0807562768015520 -0.0601348274109212 0.2075573281334130 -0.0366297482741669 0.0878861820132734 0.1052590011186152 -0.0752015704509793 0.1183518747374134 -0.0828146139779613 -0.0371578324890699 -0.1066606255692711 0.0736965567910420 -0.1040211795610220 -0.0251836147077217 0.1275717535956336 0.1047607011651980 -0.0048516555184250 -0.0356671586842569 -0.0985320053029766 -0.0094415345402626 0.0309539359923820 0.1115887045529517 -0.0860311842067149 -0.0309222262889462 0.1046705418865311 0.0576368466649869 -0.0295624624044592 0.0190008987938389 0.2328226972406895 -0.1769346932249457 -0.1801199486564543 -0.2706018155432811 0.0710006894668785 0.1154767909274660 -0.0204655690347015 -0.0399089125236189 0.0342049595915340 -0.3069937830131074 -0.1912874068578551 -0.0090381140484613 0.0953559056392393 -0.0077470283902251 -0.0822609654903722 0.0525691096014067 -0.0214848295983217 -0.0072211077061267 -0.0092137213269443 0.0103816144365782 -0.0777773673501401 -0.1343787324762734 0.0548519996116278 -0.0759275274653514 -0.1893209038122301 -0.1495766874655424 -0.0418996049871259 -0.1169117853429004 0.0899669433723179 -0.1051171280526124 0.0959710843980707 0.1335858024142945 0.0346299338078015 0.1023523881464820 -0.0673375808282485 -0.1603921117396689 0.0039983621424427 0.0821494405533100 -0.0193580010749348 0.0019081432674353 -0.1788677230471495 0.1406114937671058 0.0700518106284156 0.1070898499973190 0.2128738075341715 -0.0002609546952714 -0.0624960906296734 0.0261506778819955 -0.0226445788806485 0.0557204557870752 -0.0449211526516902 -0.0297604721925799 -0.0702740624500688 -0.0307394421928191 -0.0228128482271402 -0.0354163786882559 -0.0361721917187744 -0.0825586065943626 0.0984832294873895 -0.0284381988434464 0.1230099949804882 -0.0984938978159017 -0.0460818105953830 -0.0135424678419106 0.0695100489380102 0.0061464363233439 -0.0957975788766254 0.0179624625369444 -0.0257587807100722 -0.0413504231323971 0.0533763522051220 -0.0705602680091182 0.1311202830828992 0.1604049916395174 0.1059046766950646 0.0659386140841310 -0.0299160514603672 0.0206208212580846 -0.0555940972773518 -0.0955573315820060 -0.2864591307715961 -0.0947800549830054 -0.0072003234015475 0.0470318897646336 0.1687554626891715 -0.0240253898644416 -0.0346443637432626 0.0114473615287786 -0.0704007648402498 -0.0162917522670400 -0.0041251428202836 0.0268031533678666 -0.0227133005452252 0.0341712009521185 0.0014143257195233 0.0693860781605436 -0.0055882520025223 -0.0506032892472934 0.0271768426984211 -0.1252809749004764 0.0366099441704102 0.0490098290793194 -0.0479003834234963 -0.0111853700466624 -0.0495817978150957 -0.0157781549484506 0.0150336640353939 -0.0188323165317337 0.0044119826087375 -0.0789666151400501 0.0948323115665611 0.1027339602173224 -0.0001068154756836 -0.0999428309652216 0.0564173329883024 -0.0190422589128341 -0.0143917440571152 0.1572492229649302 0.0248425111662743 0.0072946491356590 -0.0067664518716301 -0.0483892337363238 -0.0291944646505559 0.0304035282609881 -0.0115173038429553 0.0332583805877882 -0.0452414189208058 -0.1379817301223435 -0.0248732096610688 0.0628671254584340 -0.0385887999569823 -0.0186861319975529 -0.0395762404361580 -0.0091477021082939 -0.0696573642029038 0.0271984684096969 -0.0342254595076094 -0.1752402922202214 -0.0741227526612484 0.0603206053286916 -0.0153375405995323 0.0576134695822148 0.0169580837384264 0.1101542747909422 0.0116167512189784 0.0381035682765518 0.0115824891996964 -0.0742521231410793 -0.0107691863370099 0.0382149432017650 -0.0238880987914908 0.0300663072980161 0.0741053179381161 0.0618922984646299 0.0005046794053165 0.0112255049286537 -0.0372706431573455 0.0718737342329199 0.0544709145923911 0.0171807295606050 -0.0157300876543320 0.0164155320689328 0.0256354452138976 0.0098964459247015 -0.0245997933734381 0.0219481023357570 -0.0596714136451592 -0.0281181032347612 0.0379323550240936 0.0379152893782557 -0.0278000726911608 -0.0780296983529062 -0.0501462965834494 -0.0153771268180885 0.0650351333212202 -0.0130024874860693 0.0563465403547552 -0.0126635829489021 -0.0112790527238752 -0.0047637593691848 0.0073630532787885 0.0124263432465294 -0.0678675333865265 0.0302735571603205 0.0105264294133226 -0.0729878036690562 -0.0150095042389306 -0.0025901539141472 -0.0416258125648353 0.1242961248655870 0.1158686344334731 0.0501452636070160 -0.0935333684285923 0.0512093025035399 0.0619254215118549 0.0626331325123578 0.0673181150774306 -0.0516723374805299 -0.0253244001284892 -0.1243751540635106 -0.1310883129376477 -0.0238053994403753 0.0167961443683989 0.0112940577148154 0.0055281720065300 -0.0540185436263585 -0.0246455669624775 -0.0399451392974299 0.0726853389972835 0.1235104690767191 -0.0035137459469786 -0.0068355355605751 0.0419801477957952 -0.0449771558310754 -0.0055528742749651 0.0196026153759675 -0.0388048879812103 0.0779859261664127 0.0460519086694313 -0.0795499933747489 0.0343695195894076 0.1234407793566056 0.0176683266354178 -0.0150173872559897 0.0130143955927434 0.0805785015320189 -0.0146605795022472 -0.0551767792804073 -0.0177697683248971 0.0181082408244616 0.1119908306431463 0.0329423953116533 -0.0049473948372832 0.0079581433676076 -0.0291849838011054 0.0022592425561061 0.0859642094306387 0.0031912696477447 0.0219594965865523 0.0109898621393042 0.1041617019194092 0.0532451549186013 -0.0619401250074010 -0.0339167006257363 0.0636819182891394 0.0370922341984043 0.0346715289392176 -0.0630370745978663 0.0010006329301275 -0.1552699404668343 0.1137599447236255 0.0448640382673927 0.0201036850707487 0.0338104795854081 -0.0095218438193704 0.0217265128626160 0.0029373392567627 -0.0515519711265878 -0.0267124331173901 0.0489945961107663 -0.0809380245590327 0.0593835101324375 0.0055691164001289 0.0010633125045412 0.0272992798914208 -0.0572328643589446 -0.0264222231902753 0.0338482961865149 -0.1355362608650865 0.1567292086415406 -0.2767532935884452 0.1413840401593988 0.0915837989670068 0.0991629653192869 -0.0575628737288996 0.0117798914093927 -0.0008070586945878 0.0437192923214620 0.0307784175322570 -0.0365082201524324 -0.0469779085028739 0.0103406926416480 -0.0316407726560502 -0.0054321309958747 -0.0955168464528704 -0.0878723572517910 -0.0920067283028578 0.0476794280180616 0.0634087583667117 0.1039971404209510 -0.1211337897917383 0.1003117164796083 0.0738530609083620 0.0182810055948468 -0.0174022083501547 -0.0352758069926678 0.0048254062511423 0.0053738187199448 -0.0482277998295657 -0.0277430066825408 0.0200880293881665 0.0364786462433783 -0.0127138687430029 0.0602679496919975 0.0706623497047443 0.0523360074939929 0.0505304522249662 0.0633986337954075 -0.0388017396808285 -0.0146670479458305 0.0676138776134287 0.0006599784827189 0.0027724091389904 0.0461778976944388 -0.0133573867372930 -0.0172692863588274 0.0559949352127861 -0.0342947463470336 0.0787171330702689 0.0376105809623933 0.0446035542313427 -0.0802951882813238 -0.0775008263686449 -0.0494035106200543 -0.0240091988332165 -0.0147455908225275 -0.0060923275145117 -0.0225800928482066 0.0347144327041193 0.0296348895848536 0.0014554791696729 0.0442626169502911 -0.0353921990557570 0.0058363567689306 -0.0744845792619998 0.0791996955753133 -0.0136899711920661 -0.0454509111310271 -0.0139036346504932 0.0237933197458628 0.0611095431231779 0.0704500009383717 0.0636323944064583 -0.0720047069180338 -0.0196301952019317 -0.0091486356948052 0.0089451016522365 0.0148562259171914 -0.0404047123181086 -0.0016744488393206 -0.0539244902094200 0.0366501748238884 -0.0329454618233012 0.0177898414181628 -0.0001971457267442 0.0377171100801221 -0.0401676261103935 0.0180873371441247 -0.0536811292619918 -0.0413075712997500 0.0055231404405395 -0.0866998835048852 -0.0137674902192477 0.0081817310776724 -0.0029674907919322 0.0243965736006028 -0.0107715417368788 -0.0318503043342245 -0.0564376182008269 -0.0028255408021778 -0.0024850234531558 0.0487622029981745 -0.0295465004039714 0.0753906228737531 0.0102416100051463 0.0121390818187885 0.0299854799387447 -0.0125942555391941 0.0015966320159399 0.0418333547424077 0.0468775821649691 0.0133657140756706 -0.0502178090864852 -0.0282567251863983 0.0131063337652857 -0.0082005225923923 -0.0041534218421733 -0.0008175384951005 -0.0183334324204189 -0.0328317808092515 -0.0091373588813696 0.0000994893265272 -0.0252183552970567 -0.0079440284416146 0.0109877213128810 -0.0370650854811355 -0.0953014888170163 -0.1782382536620118 -0.0368087778331587 0.1353907951137009 0.0574641990403904 -0.0400928419158729 -0.2163815333083082 0.1382476487281142 0.0376791615013323 -0.0496753596167837 -0.0327394805732424 -0.0479529150187169 -0.0978721188902085 -0.0480410945761853 0.0022770647935179 -0.0173525704215122 0.1130930003383123 0.1709370923102592 0.0573662458723037 -0.0384077123899074 -0.0170942846176198 -0.0786458394609048 -0.0897494679346492 -0.1060915052221148 -0.1303374818282353 0.0719972833554746 -0.1544878623963659 0.0457829052126409 0.0810918506049434 0.0715141736439068 0.0578674893839100 0.1497034522078983 0.0807114596897190 -0.1043091550044469 -0.0879395610295225 -0.1153317622134256 0.0464384593951780 -0.0794406876878694 0.1405255057182181 -0.0363616700297898 -0.0497842373679157 0.0157447827435878 -0.0764283521602924 -0.1611587305346846 -0.1730064285791250 0.0535255359834826 -0.0856597109547103 -0.1836619987760376 0.1060577965082138 0.0543058757841390 -0.0978378701170946 -0.0405593717243315 -0.0114783945883859 -0.0214733430401487 -0.0103869032880370 0.1438125250891676 0.0691051842070942 0.1056813885344751 0.1331894221873963 -0.0533012252682021 0.0340969551355808 -0.0345690191997505 -0.0435555168155759 0.2263168559838568 -0.0658936161737306 0.1418908036950620 -0.0791351980247626 -0.2024905756889566 -0.0898672182814173 0.0538966311004623 0.2262470795038812 0.0532364879749971 0.0142454004703712 -0.0459818252057608 -0.0541721104387745 -0.0712393482931739 0.1198464651152186 0.0792633538142230 -0.0426495555647890 0.0255969756883536 -0.0095701064913284 -0.0751085531905318 0.0712668220197419 -0.0923857239853848 -0.1651446303825660 -0.0172149951907515 0.0230535480027139 0.0819453504518982 -0.0103473324411810 -0.0894619141806016 -0.1094348426055436 -0.0722701696008364 0.0264609012435486 -0.0635866885151023 -0.1972600693998902 0.0517925951996297 0.0960883229604520 0.0036445737304197 0.0713769567273993 -0.0349482220684479 -0.0473787691604224 0.0898603211341706 -0.1074164646839056 -0.0184429755609678 0.0796791511829536 0.0044105189338128 -0.1526310314328776 0.0551807070166568 0.1398403088209159 -0.0713925324757643 -0.0410365951789272 0.0149461538988127 0.1531848506666718 -0.0000529476517041 -0.0708039390194700 -0.1592090951972518 -0.2046312934715987 0.1366232942903974 0.0249257374647199 -0.0352872822051147 -0.1015603901280416 -0.1196051750821316 0.0082222242978656 0.0468416716389574 0.1287752561929584 0.0281563716073919 0.0440051086661567 -0.0822855598542542 0.1321931691347396 -0.0940381830032061 -0.1007715641590570 0.1825959276621190 -0.0116586330394162 0.0782590112019697 -0.0530014011728837 -0.0616001801824777 -0.1055581301327944 -0.0625906101947468 0.0168675934030189 -0.0052549647324506 0.0714697748021075 -0.0568303877646211 0.0002939725376033 -0.0934767822747258 -0.0561690432309263 0.0861462408404765 -0.0827239828544597 -0.0082443991640769 -0.1068551750776088 0.0332172442400256 0.0150546121021983 0.0572538077084618 0.0285830889471157 -0.1099719222859471 0.0123026136442589 0.0823698947814058 0.0526676935540735 -0.0832917300792514 0.0672805648935089 0.0112837962653657 -0.0070270742996034 -0.0042786422635309 -0.0454273379235177 -0.0764542541547340 0.0087128593168403 0.0525040216517542 -0.1179526651128835 -0.0217643519462311 -0.0373807179900581 0.0340712988211674 -0.0161084961111835 -0.1033929698953045 -0.0833398459903398 -0.0131712049943355 -0.0813356175460138 0.0667201960110868 -0.0173788322913108 0.0849764098616237 -0.0253755302001843 -0.0445658501555990 -0.0035890226111514 0.0257954525134199 0.0167740220366022 0.1441096973705861 -0.1156070248021796 0.1347483015752557 0.0864048843501510 -0.0747513303119348 -0.0514727092080293 0.0667671127631063 0.1053769690080470 -0.0512715965527754 0.0371083377478300 -0.0987850332506889 -0.0971484654659887 0.1358540437791564 0.0751519941467950 -0.0463762118684790 0.0947722344136738 -0.0940198981194418 -0.1002196995025063 -0.0777332575468237 0.1053929940564116 0.1599660173230745 0.0096073192069635 -0.0117191714142649 0.0936915250611026 0.0626759315390070 0.0113265440858748 0.0014175328839878 0.0196893892788437 0.0893530392820173 0.0940807830615636 0.1180163994848344 0.0124517257598321 -0.0540164188042534 -0.1002622545000051 0.1364048509285359 -0.0268097114909099 0.0396773609490995 0.0558325636868836 0.0509729985347500 0.0002834711710600 0.0867901768876129 -0.0288220304735712 -0.0051464104186592 0.0236409906887089 0.0479183150328370 -0.0918115071283890 0.1106155747428251 0.0250839182448899 -0.1176045415873882 -0.0162719237673251 0.0908021533456403 0.0603550499657567 0.0755326993026360 -0.1015164582988234 -0.0391821696265319 -0.0233435643685108 -0.0047615124443692 -0.0752480449717995 -0.0901901854196665 0.0789332879412356 -0.0419664371689626 0.0017704758374173 -0.1198988681007853 0.0353672496924281 -0.1823977912885253 0.0837396728569408 -0.0234105641182940 0.0144001714235419 0.0108961651455151 -0.0056112227158912 -0.0131379876758775 0.1306836677072450 0.0037893763517630 0.0117253947580850 0.0707533834844523 -0.0149359081041705 0.0305286854373472 0.0319484794137654 -0.0521669528559536 -0.0762058240928192 0.0036975283403169 -0.0785909734021897 0.0374126700493412 0.0607259640440971 -0.0693101118250418 0.0875146404777643 -0.0507355557413423 -0.0357123535909289 -0.0767529538077554 0.1801803816033470 -0.0707798857284781 0.0022474896551048 0.0125169979126126 -0.0866515533758016 -0.1124421286393986 -0.0528129241755562 0.0648368593044077 0.0468249750158855 0.0317250437018696 -0.0157913398913025 -0.0373742003309860 0.0126111553438147 -0.1225655446283456 0.0463221018553105 0.0147451504533309 0.1187867030519042 0.0067463017809919 -0.0987454150594050 0.0618830057494347 0.0143214945162186 0.0649906516193151 0.0342620581683278 -0.1356776881863658 -0.0714901305489014 0.0345847864215363 0.0172968888668119 -0.1008307005079163 0.0144582940404207 -0.0243721408680443 0.0073113677696923 -0.0179690855466860 0.0782948527988042 -0.0347771027666686 -0.0242032360571168 -0.0018440985781535 0.0598115176410054 -0.0106606610690320 -0.0119900020070208 -0.0526232564658396 -0.0962282259863624 0.0119001907677338 0.0064276975190817 -0.0657307438173701 -0.0116180175206792 -0.0420782096458715 -0.0532389278909839 0.0041032269451446 0.0319594590391800 0.0271778795871781 0.0080624860665696 0.0566788470128768 -0.0037169409678117 0.0397415140920666 -0.0078585072670795 -0.0245238017891091 0.0161623181610819 -0.0036816356954194 -0.0089174941231701 -0.0388963116955881 -0.0350330508056549 -0.0481388813895480 0.0566026477458664 -0.0781547838926302 0.0678190396079648 -0.0369847778328336 0.0196995940255160 -0.0179141389036585 0.0034825841867256 -0.0000395382068136 -0.0272854881958263 -0.0235536353768892 0.0059765234956125 -0.0148768130207077 -0.0087627753082918 0.0754175661158564 -0.0024221019702218 -0.0092884078853142 -0.0169104494505277 -0.0175000551275061 -0.0034401132540426 0.0062036747707841 -0.0019613910104620 -0.0047698586825070 -0.0166608882728688 0.0383608001232822 0.0375077674605159 -0.0168460727684202 -0.0213345118296866 0.0100812672121319 -0.0478915537663245 -0.0132251673534897 -0.0006244696564086 -0.0076376938557779 -0.0038155962906043 -0.0345837599827488 -0.0041691897344526 0.0175894645746244 0.0581758506937613 0.0107435218457480 0.0192367940939199 -0.0053673576516447 0.0124566037095547 0.0211540503614587 0.0258760787109681 0.0042093548667845 -0.0275236750645306 -0.0017171267407202 -0.0179762971674377 0.0372986870666458 0.0499433564980271 -0.0245235213332007 -0.0431242584901317 0.0272588835356776 0.0081686192678710 0.0215951944178928 0.0021506285023783 0.0118450855278021 0.0089704729656555 -0.0254739089216990 0.0081458767105894 -0.0263912102191413 -0.0149854860183866 -0.0044610601829841 0.0126146316290994 0.0152434214150743 -0.0405812553530725 -0.0287980258851446 -0.0099799287572375 0.0089414434731725 -0.0205588003768612 0.0114900257701998 0.0140922791496029 -0.0228681325102848 -0.0084025887943812 -0.0359509921737521 0.0565427945580885 -0.0084056234581306 -0.0199510414706404 -0.0121471567141880 -0.0080379305357073 -0.0045045731367395 -0.0487859481837981 -0.0225693754617730 -0.0100759448153990 -0.0402315351391377 0.0783833357109190 0.0062943372611378 0.0223843147817549 -0.0183692115933318 -0.0031663123297035 0.0128362137245639 -0.0060228076822128 0.0220578652307570 0.0178250155464215 -0.0004801811902712 -0.0216131150900936 -0.0355048073998214 0.0655887085813845 0.0020444289260195 -0.0256518883514814 0.0124366382468117 -0.0033649347285113 -0.0109915380385067 -0.0086876290745446 -0.0140724343018089 0.0168555086225001 -0.0009826619970265 0.0296661497327135 -0.0386473542297834 -0.0267898117590546 -0.0354271358507028 -0.0078736423501187 -0.0266609866894029 -0.0166825686212320 -0.0150480127330125 -0.0139073476089494 0.0060600375651675 0.0467174806976324 -0.0061027958033918 0.0498668418968556 -0.0526286109484247 0.0647737556639071 0.0457705783344660 -0.0158078823495815 -0.0083823564389624 0.0023375366896145 0.0056166702366315 0.0057731070523189 -0.0006798752507913 0.0118205417313620 -0.0218848513529894 -0.0337967464767565 0.0315459589482809 -0.0159416175128753 -0.0160476433159469 0.0161347824810993 0.0377474612722302 -0.0275603441266250 0.0195452987472564 0.0024885039041267 -0.0174816235974260 -0.0581618248522170 0.0181881153435665 -0.0048089197316694 0.0131452394198792 -0.0055642639618549 -0.0299946621846569 -0.0361017239960164 0.0268218515062578 0.0295361142198106 0.0085982938194980 0.0009929481441317 -0.0332764073278788 0.0322766602309745 0.0071715684339293 0.0325061055663328 -0.0271325796023857 -0.0060127218053042 0.0091572596135578 -0.0060267585869478 -0.0108799982960548 -0.0532579926827957 0.0430509909766602 0.0001282557602557 0.0237358095134010 -0.0134134231264800 0.0351049739324077 0.0007835291704335 0.0024573929685722 -0.0504389006357401 0.0099798654044430 -0.0102825889530537 -0.0196747462439080 0.0349495918842573 -0.0201641292695629 0.0159183338869619 -0.0136197515740941 0.0026838079573047 -0.0139813564314822 0.0041904848036340 -0.0116128943581816 -0.0037724627955731 0.0269482527630091 -0.0123456754219049 0.0004904496288298 0.0179973689430419 0.0010080399649442 0.0073256656049984 -0.0301181430300122 -0.0357019627386182 -0.0133214673570829 0.0197067525899862 -0.0159839236594996 0.0065600887583975 -0.0005275849085204 -0.0169818028025370 -0.0035043605709847 0.0151088104849123 0.0094593685784084 0.0060924216204412 -0.0193031572638880 -0.0132908209711500 -0.0282433171624958 -0.0264818262605599 -0.0097252404773927 0.0196020066957808 0.0366490016781427 -0.0093077753607160 -0.0048369888482799 0.0052125180046134 -0.0139123748420484 0.0346603310149056 0.0303966558053318 0.0375403365605368 -0.0193679412267582 0.0196034814888441 0.0017167151969513 -0.0484671144123225 -0.0067668421121811 -0.0166794992418993 -0.0038713870270377 -0.0110710846335903 0.0205746948281983 0.0522621057331271 -0.0077973913746643 -0.0336294271999416 -0.0293894814232756 0.0145692837934280 -0.0059398178469489 0.0737269098891421 -0.0137529387396407 -0.0120865010469330 -0.0261039823680681 0.0088852024969165 -0.0273196941579161 0.0248717304514555 0.0056305754674304 0.0050756189941030 -0.0288339548490334 0.0383726626772238 -0.0006041727635305 -0.0540384935102653 0.0247623307017347 0.0042955488002635 -0.0113404723132022 0.0055633877661725 -0.0006208053317367 -0.0057161752225126 0.0707904138849592 0.0038023591642096 -0.0091701896888841 -0.0025828550695873 -0.0064685934944865 0.0484018576347099 0.0061627711477555 -0.0119303513636866 -0.0192364186211562 -0.0123006607691870 0.0310216693498345 -0.0144647861218723 0.0058349562140164 0.0249273297371162 -0.0098928190400403 -0.0389828726150556 -0.0043424954304996 -0.0169376362256465 -0.0268328589744627 -0.0415019605467678 -0.1438723756983294 -0.1154647290971208 -0.0512372863680606 -0.0327997566322522 -0.1064118610447724 -0.0533846944151755 -0.0306263779357230 0.0111670834413798 0.0136589221692381 -0.0032326099984387 0.0159131306655670 0.0806836906204392 0.0702533999157974 -0.0890508950414389 0.0613158975844783 -0.0264712085227602 0.0084405542051340 0.0052921757344477 -0.0375313672785897 0.0609505878332585 0.0066208298317310 -0.0478533665312648 -0.0529183274430095 0.0988225396859317 -0.0340173260294960 -0.0330860656038771 -0.1346138993962864 -0.0288708301537196 -0.0390827655522901 -0.0277201413486986 -0.0159017903440093 -0.0096181110620716 -0.0876745949530733 0.0023221482240555 -0.1253853206701625 -0.0623651383137817 0.0358806716221397 0.0850292562379666 0.1142442462070984 0.0148806596587144 0.0712422524211673 -0.0237965826787320 0.0585579819841043 0.0004943951571785 -0.0392688277594545 -0.0047595580234939 0.0783878209873920 0.0229146897822997 0.0707386437883553 -0.0302338496232047 0.1002532106271605 0.0469583639097517 0.0128821561796443 0.0494514492520248 -0.0698165967367537 -0.0204145621627298 0.0773901417675860 -0.0076777777845297 -0.0942052139925319 0.0379853422743024 -0.0885297168267070 0.0320929113004159 0.0294592767821938 -0.0196268689267031 -0.0166391770842719 0.0127967954777820 -0.0009676415479106 0.0292871883517715 0.0486662608683169 -0.0165003960213210 0.0116352148432281 -0.0416024347020897 0.0622981470625547 -0.1925975454087522 0.0146178506172154 0.0205485772432552 -0.0244495530712302 -0.0020377576021648 -0.0408100727932409 -0.0570817425492448 -0.0006414240078805 -0.0123272433674312 0.0756733183238824 0.0306836592679182 -0.0445216587122541 -0.0349930333147308 -0.0277063686354831 0.0081937770002599 -0.0720729602327369 0.0345493603470463 -0.0059039344332508 -0.0112824945107788 0.1318830181212408 -0.1023641488479203 -0.0509795962596345 -0.0045810846547168 0.0390728776532661 0.0098376159693870 0.0256890855489644 0.0791182114878924 0.0197032703309784 -0.0644626344876296 -0.0278773054862191 -0.0474486153569694 -0.0150536899562317 -0.0637851915950382 -0.0004016111439743 -0.0134050388539761 0.0735840413540981 -0.0300523767428347 0.0262441779982243 -0.0082573235224618 -0.0019094091557798 -0.0292402885322666 -0.0099837906723150 -0.0290738485369235 0.0615199429199928 0.0779248086408831 -0.0189615300679387 0.0709679229568926 -0.0648162658621353 -0.0367215196089946 -0.0331912827258082 -0.0076582546423332 0.0249238923696205 -0.0250230740951524 0.0061838850476537 0.0870955833492665 -0.0308878287541445 -0.0263650662581905 0.0391424101282246 0.0380892162969962 0.0742126160875790 0.0225832553120619 -0.0418131449698025 -0.0428666898872315 -0.0216008984066341 0.0028873311904868 0.0110793809725708 -0.0543398618965361 0.0335024785301616 -0.0350262416109439 -0.0639480955116674 0.1038492091292551 0.0722077751728821 0.0228030862095131 0.0710857753529360 -0.0562474352766318 0.0465736889510653 -0.0277843749207646 0.0221953119555874 -0.0333286444466192 0.0153618707085676 -0.1287428807897682 -0.0434045569854448 0.0686775151882180 -0.1609854464150754 0.1771312931899633 -0.1573113225133698 -0.1013452859135318 -0.0196989690621361 0.0880411121849592 0.0167477903562663 0.0305261150807326 -0.0553665097333493 0.0729686324258924 0.0298018975170030 -0.0065096625766900 0.1462680878567605 -0.0274908696598598 -0.0123888260798897 -0.1201578715387658 0.0294917654932448 0.0972243084976303 0.0463304385515838 -0.0381071295354294 -0.0796417010891715 0.0072907022990835 0.0558242686795108 -0.0822688956769362 -0.0473433020855684 0.0217995607679790 -0.0472435874867001 -0.0004718310127244 0.0232783196841913 -0.0304038325217347 0.0227335964028989 -0.0824848776550331 -0.0042840949730496 0.0497093354579569 0.0244557263564424 0.1606914875495913 0.0970733769793390 0.0045623929401876 0.0073423766366367 0.0619504381151303 -0.0270918390321989 0.0132858642262737 0.0450305291900809 0.0408762950556959 -0.0048588726746162 -0.0440645600797836 0.0463651186150588 -0.0083310960485187 0.0221752474690878 0.0375235001773432 -0.0924133810987044 -0.0513319556864324 -0.0039149464626930 -0.0113137426867012 -0.0083648564651960 -0.0991797964079101 -0.0258420102846111 0.0799402696183452 -0.0037856340585626 0.0374019362586977 0.0457648139001914 0.0162872628869338 -0.0605473811180393 0.0492438578523678 -0.0417987157098553 0.0156075947937786 0.0433096493915257 0.0510164305294737 -0.0294395715314543 0.0067762218623296 -0.0460630917398441 0.0344106706390191 0.0498949702077896 0.0026491196165498 -0.0159732847660659 0.0579278217859441 0.0684052073494653 -0.1021176510581000 0.0561790322698931 0.0274831965621898 -0.0037999437378673 0.0527667924495050 -0.1069143244727539 -0.0537378506083918 0.1177065801192152 -0.0500631823499501 -0.0655243610257182 -0.0873746711008529 0.0499254231270839 0.0077270419417537 0.0182531624657216 -0.0058758832449714 0.0551843806925323 0.0432191362901870 -0.0286171653094994 0.0221646713448941 0.0074862730594384 -0.0466146176316278 -0.0014326418204034 0.0204429113058151 0.0043788447450882 -0.0172948108109647 -0.0243152690698224 0.0384837557248225 0.0011197085993842 0.0683220776153414 0.0436104420006776 -0.0279650614726781 0.0084591489112486 0.0260415532636506 0.0236751751214686 -0.0047643387966578 -0.0426391766031364 0.0257355239471952 0.0590313336801282 0.0372207108587915 -0.0175961112057725 -0.0053678955039160 -0.0146001899987764 -0.0389590298403477 0.0061290752430750 0.0020115664305670 0.0344476129380442 0.0205972773487801 -0.0258611875681813 -0.0400027264030293 -0.0912419012115431 -0.0046672107982744 0.0232952779824048 -0.0007028262194676 0.0315194032573099 0.1072415502783374 0.0395666875328965 -0.0660326847329528 -0.0514509777468574 0.0320532398997858 0.0066861797105159 -0.0388946767456232 -0.0155422986239619 0.0467557044902480 0.0105392984619051 0.0474062143878839 0.0250435310650236 0.0659268700171206 -0.0086669141568174 0.0449467806313689 -0.0212836304662756 0.0530921327358826 0.0248629398778608 0.0036205723039209 -0.0463543942390291 0.0015840989536726 -0.0476620034840998 0.0844713255600729 0.0496783629621667 0.0726821670871299 -0.0407155605457659 0.0065415790261459 0.0681735551210110 -0.0749505866853093 -0.1031528076206063 0.0909860123483872 0.0493835378956889 0.0254126215539956 0.0487431320993491 -0.0320314148338862 -0.1429006822680314 -0.0458974788236899 -0.0334038380008549 -0.0093531073990885 0.0344573231859909 0.1138487327576672 -0.0191978212331444 -0.0116958704839718 0.0271603505643070 -0.0735063998096230 -0.0476108146221931 0.0160478507754642 0.0073002796406165 0.0068104382120647 -0.0137704964987501 0.0435300911828944 -0.0239818661081081 0.0226939658965488 0.0626369651911887 -0.0065573699957728 0.0096790194565641 0.0504140997666082 -0.1078772862287483 -0.0915023642023669 0.0651619704674201 0.0941513104628255 -0.0426912800463859 0.0630878334027966 -0.0483059153228631 -0.0654396782203388 -0.0183435746587570 0.1346805276714911 0.0471276399166032 0.0889541318888132 0.0555332153023738 0.0757246465460354 -0.0312313881946087 -0.0520241905189690 -0.1195398578344143 -0.1364716596610874 0.0615712885649556 -0.0713897556724430 -0.0818866323291103 0.0295459590202804 0.0424981845090242 0.0262268625722054 -0.0661295713533616 0.0775626663315221 0.0172192811912019 0.0381493064960063 -0.0066359982325037 -0.0823817976549790 -0.0183810453646632 -0.0866200741767106 0.0257348938548158 0.0296151889880809 0.0083004260349122 0.0679205876957456 0.0713970253333582 0.0622561512935817 0.0489140317605320 0.0141479393603880 0.0002547303578995 0.0341052707845604 -0.0324188261077562 0.0213562248076699 -0.0367151388132778 -0.0103203900165018 -0.0314214093556448 -0.0765972646509021 0.0444773614367881 0.0057587975325596 -0.1037007928084377 0.0578662679260153 -0.0087911067244924 0.0254405040229315 -0.0452619367243155 0.0401943443928166 -0.0158369327215032 0.0179381161310287 0.0501038091283416 0.0450493748734106 -0.0266964495048697 0.0452804676860984 -0.0357623102773363 0.0720258688722031 -0.0154083152317650 -0.0334518349667396 0.0358363427112622 0.0598363908956905 -0.0119753512976588 -0.0067573320850842 0.0153898771314003 0.0362825597895095 0.0005618272059298 -0.0398085279802489 -0.0583621542755534 0.0591804742120107 0.0089641720051523 0.0482903609115017 -0.0080718872036747 0.0795254198750701 0.0476153358656973 -0.0745437170757373 0.0211182045130465 0.0273076635254282 -0.0227453717398149 -0.0015975229191531 -0.0061549618540999 0.0576915950277350 0.0059707579357956 -0.0790055777484034 -0.0179355352135808 -0.0092470826751410 0.0287633858673538 -0.0292089847442813 0.0216538200554407 0.0617408252123711 -0.0138258570057143 0.0260235143817231 -0.0161548232302139 0.0311339353120777 -0.0017159339263501 0.0718489891391384 0.0229032874401377 -0.0480675264388875 -0.0081012961692059 0.0350297483451342 0.0339575223536767 -0.0285662250431636 -0.0136527043570148 0.0683747965343111 -0.0100240109512629 -0.0245537784718162 0.0023124118043544 -0.0024921177693059 0.0164078066750393 0.0382967157851905 -0.0060311852497077 0.0318276969363943 0.0507653040935124 -0.0279093452856366 0.0127903566987137 -0.0044516862084801 0.0486093821653299 0.0227241310529014 0.0151598671809415 -0.0124284212747754 0.0265753993855255 -0.0926051543237824 -0.0017346722988526 -0.1162212335077350 -0.0053788601757058 -0.0302828873837576 -0.0421700607061131 -0.0046207859637948 0.0337611547985270 -0.0186574490492143 -0.0211632537025777 -0.0786853203020596 0.0805746877945448 -0.0513069846290482 0.0783090556725354 0.0036236394725855 0.0482063138637949 0.0999239579066546 -0.1216572618577611 -0.0578089557390426 -0.0190838737613680 -0.0179976275157893 -0.0132729233812750 -0.0231805486370471 0.0916694837074487 -0.1280990484980750 0.0432159486995275 0.0316895681159881 0.0113626669566334 0.0770892303715084 0.0101169550977461 -0.0188210212013158 0.0324723055460016 -0.0636301285292690 0.0445527892220250 0.0624824850560427 0.0577119518073090 0.0801402365322363 0.0551031580828652 0.0666563876735773 -0.0106644413885175 0.0340293821717508 -0.0103423929084575 0.0128296503039928 0.0254664872938961 0.0406207133724194 0.0353138088185320 -0.0130020208599886 -0.0268525089313798 -0.0043937402849682 0.0092514771210225 0.1249040802203265 -0.0588910137493923 0.0417400072428598 0.0178492979454865 -0.0457621243712462 0.0040121813306885 -0.0651657236223644 -0.0104549104518459 -0.0469391270772729 0.0073998196253615 0.0850303490016191 -0.0200863168493202 -0.0440912581490778 -0.0350931796465249 0.0020220786692658 0.0550439744231717 0.0131618944318967 0.0377895454641886 0.0068610205058094 0.0377601162352555 0.0582015711689574 -0.0325191958179003 0.0341643147224002 0.0095384138518693 0.0096645799277746 0.0159672950586181 -0.0054216813175289 0.0176664071988631 -0.0486397487063166 -0.0196376476651578 -0.0285393931759351 -0.0479594999984483 -0.0020322186968377 0.0018574149950088 -0.0344681790096136 0.0370444269756026 0.0171177572618210 -0.0164726215046858 -0.0111168673009961 -0.0353252489151393 -0.0077515236282129 -0.0233287631309617 0.0110026276013727 -0.0394481323769167 0.0447127636407769 -0.0164326683812320 -0.0259922434028368 -0.0460822524573711 -0.0069534875641688 -0.0107086328096997 0.0180628456722835 0.0024679732103121 -0.0187114473673285 -0.0307633463448454 0.0001208318539926 -0.0094389372729888 -0.0219294130070627 0.0014753440268045 0.0149021060602448 0.0067099825163738 -0.0573151876117199 0.0020933989379431 0.0316877431576930 0.0227150901817893 -0.0015771968499495 -0.0220208378336617 0.0216561145122974 0.0306852503397824 -0.0116974905247571 0.0318463929821857 -0.0129998536149658 0.0001351757348639 0.0176457509831270 -0.0229985545183124 -0.0798715146422310 0.0285048919297386 0.0357933698073675 0.0230250320427275 -0.0318953776094312 -0.0409661050181477 0.0032568896528423 -0.0075176829651733 0.0543358109201941 0.0265608364687158 -0.0348368542548880 -0.0186595725126497 0.0379133607051443 0.0052197619832056 -0.0018791117602911 -0.0516548031417801 -0.0001312919932650 0.0317874467611397 -0.0096332604706751 0.0210058001613036 -0.0068088077287581 -0.0246557286610168 -0.0155710635587624 -0.0181569818934301 -0.0334954832213234 -0.0250629333495354 -0.0204938835219289 -0.0051797704656586 -0.0614484967568651 0.0068177745118831 0.0033407964004222 0.0022284944959537 0.0630022032625228 -0.0040941027676455 0.0004831922199415 -0.0296818897444514 0.0239406900943717 0.0062504116376158 0.0203175480455811 0.0027893345652275 -0.0228471454172864 0.0266622736538500 0.0134592927366130 -0.0114190037543063 0.0624353949019534 -0.0001419979423844 0.0096461992651113 0.0438687262046121 0.0153472155535474 -0.0416001197962838 -0.0371998825446301 0.0014936049218445 0.0503659793198979 0.0379477422875177 0.0281316885419751 0.0017478049034733 0.0104050526364572 0.0337237772915556 0.0111393725199149 0.0270892964307780 0.0458537020112919 0.0481974705266135 -0.0039933076847978 -0.0087785111199048 -0.0117716498313060 -0.0751584584886048 -0.0370830573819724 -0.0215363887367539 -0.0149566242778615 -0.0194456630238443 0.0017195885010381 -0.0057322968506948 0.0417104119262915 -0.0063732628412964 -0.0261471717012086 -0.0299942930590263 0.0055724400042410 0.0048092604746131 -0.0155887941477265 -0.0187445994250191 -0.0128312366881998 0.0131929351062616 0.0181626439099069 0.0179000487723252 -0.0038131380753567 0.0310524837535930 0.0821959707794455 0.0075816672696334 -0.0139968399523004 -0.0072289460703452 -0.0430035691722849 -0.0006842365295389 0.0500431781926698 0.0022846962463791 0.0134478667407384 -0.0264545469405210 0.0081100700891788 0.0323240721867116 -0.0069474766021474 -0.0281143592646511 0.0228127444572730 -0.0222356011444051 0.0328432377732001 0.0109655254974596 0.0082862432920795 -0.0263111407492440 0.0153460268019710 -0.0100499591657653 -0.0190173604053234 -0.0040825896338147 -0.0064989924304709 -0.0029691625658691 -0.0101097229155792 0.0269625803941938 -0.0116527973365399 0.0048406631954211 -0.0050290158505724 0.0393788180761910 0.0201826286724960 -0.0100776701240465 0.0286906974981983 0.0051669395218915 0.0204587875267792 0.0133891509237333 0.0193199655469346 0.0164429624107972 0.0141152678823179 -0.0365629770375087 0.0263639904500537 0.0132338184255231 0.0064434482585228 0.0418126778623738 -0.0134153376982787 -0.0049824245234201 0.0078668980648482 -0.0030584832146212 0.0105881007406948 0.0336303863076092 -0.0229753844284561 0.0530186416064180 0.0131163837641665 -0.0108601468135499 -0.0518359677045179 0.0185445530185156 -0.0221399776232776 0.0368569506472922 0.0257367980799716 -0.0128716718074855 -0.0055829280095986 -0.0067005768945602 -0.0205530655377899 -0.0215575713471679 -0.0174387939930055 -0.0063181891869321 -0.0391726610538126 0.0258663834418435 0.0123010889872772 -0.0253671106869400 0.0329909233642130 -0.0245376614224032 -0.0379036405087804 0.0011488465099666 -0.0055372014514881 -0.0044825150069136 0.0054703393607382 0.0384331161423696 0.0117653416426158 0.0247435760092204 -0.0182395757826891 -0.0160555842750945 -0.0034683971965430 0.0174140129968158 -0.0272217288186948 -0.0631123573670537 -0.0074036858232347 -0.0091363096934351 0.0549394950265434 0.0526775429549485 -0.0350797165076043 0.0462870455990541 0.0007174675079688 0.0039969842727365 0.0198583807193416 0.0320207156514664 0.0354980144336695 -0.0197260702823333 0.0315082764363384 0.0440522510199225 -0.0161273397148879 -0.0105780822691928 0.0093439764830440 0.0089728390192072 0.0555724180857176 -0.0227134142703890 -0.0193772462871454 -0.0012327711148793 -0.0006792538625342 -0.0196825629089052 -0.0759212035775351 0.0274790910382789 -0.0469041842630802 0.0674576947854374 0.0600905097671562 0.0228352893153562 0.0552099251370648 -0.0047724714472188 -0.0346944858555273 -0.0053171008523821 0.0277149411377242 0.0121816235705597 -0.0224812245083356 0.0258233818107481 -0.0145600781567372 -0.0225145282658018 -0.0194082862878654 0.0265659467329013 -0.0092964041492017 0.0364816430848570 -0.0000120860143085 -0.0315721297458054 0.0037762094940255 0.0533086183853185 -0.0018628613087260 0.0050454685989398 0.0520930981919930 -0.0005294480836685 0.0411186230357915 -0.0106256681098715 -0.0162254850590649 -0.0186394532184298 0.0357762871482624 -0.0043831506438659 -0.0291720569872406 -0.0298165294673416 0.0057987564013763 0.0182164734376245 0.0119319947936741 -0.0140022088109906 0.0247940254573172 0.0100464973811514 0.0045275339895538 0.0062239586992020 0.0329599850825563 -0.0235811183650242 -0.0234525518577990 0.0048699105433020 -0.0073133351579270 -0.0001353831917871 -0.0081944986493841 0.0112978482459424 0.0091066570046918 -0.0352831971682922 0.0038907605408042 0.0034486703390212 0.0132375060982997 0.0182979010281996 0.0098789254062123 0.0247925394761880 0.0223799631938474 -0.0164204468457478 -0.0135578144669698 -0.0011277489678687 0.0188052026459385 -0.0059093871794576 -0.0033361313692899 0.0073474311560641 0.0210530532792913 -0.0100120280863839 0.0014016563815898 -0.0126887977514538 0.0247025865275646 -0.0115646996446426 0.0111718495055556 -0.0159102335568837 -0.0021259118498833 0.0036802685026347 0.0187231049104145 -0.0371476306946800 0.0151063284051345 0.0266582200095100 0.0628853334591460 0.0012219066469731 0.0059853661208576 -0.0066635216365463 0.0492582782783565 0.0208547912671311 -0.0270367049824326 -0.0094365650476898 -0.0007696823753224 0.0019151529619286 -0.0091325422327786 0.0269897359084552 0.0100424128549506 0.0330207157195355 -0.0340539322311729 0.0193909640996097 -0.0295754219957848 0.0292594877812651 -0.0417929697812031 -0.0015381335282242 0.0031660713304876 0.0133345479024823 0.0171224986890866 -0.0149043743941115 0.0760885739186281 -0.1540742913652426 0.0893217640710883 0.0357650469169838 -0.0094731599152098 -0.0214952730793159 -0.2220309355961807 -0.0902476900672265 0.0753170014178865 -0.0385821767112253 0.0314742916848232 -0.1670022679867918 0.0953349699533420 -0.0640341059382655 -0.0233590294095977 0.0868168454224104 -0.1017111005827247 -0.2208092613813729 -0.0471238573078611 0.0490458665199894 -0.0798144040936256 0.1136469332242809 -0.0585586431010226 -0.0014500856580676 -0.0738671412932572 0.0617597409860359 0.2049618745694302 -0.0048734857797194 0.1229881393299524 -0.0654525613298960 0.0322636680452886 -0.0141824421903287 -0.0684248963634057 -0.0157393374157467 0.0949313548379880 -0.0080794007128620 0.0839729847306209 -0.0195741509043640 -0.0658179992838391 0.0460081623843515 0.1362934499019751 0.0495147843534294 0.0493500807064034 0.1055915607115883 0.1069473035896861 -0.0903101808732163 0.0862993533116973 0.0412437637294377 0.0883276131922291 -0.0126015652090547 -0.0729658766103731 0.0135281687150451 0.0150337188960308 -0.0257795402325382 0.0570964281816990 0.1257622783195081 0.0418737463063254 0.0733774168820720 0.0797088175444999 0.0573686103764739 0.0006507249993254 -0.0783212330609867 -0.1587880528170098 -0.0894476627355309 -0.0757029201422595 -0.0056264952128853 -0.0523700734448626 -0.0877435482568905 0.0412624522159515 0.0683351256855197 0.0843973364442895 -0.0590505813155531 0.0301086806984714 -0.0174174777371440 0.0091131207294531 -0.0792717401149517 0.0055389767001106 -0.0340522870876466 -0.0066869367625898 0.0158990586265749 0.0289019115452239 0.0455703913034115 0.0533541129638939 0.0294396091015867 -0.1686548059180399 -0.1228167266779605 -0.0382456218863189 -0.0391889820205250 0.1655153451211564 -0.0224346650758765 0.0484320462252201 -0.0163977189680897 0.0690626695881955 -0.0189549359711566 -0.0106519737277602 0.1197068620920167 -0.1009070593489835 -0.0368984067407706 -0.0714729907531648 -0.0548012216985924 0.0347659750009268 -0.0494768698623663 0.0228189638980079 -0.0275193530745670 0.1198357500262013 0.0045649979681316 0.0698290504859267 0.0379400574871403 0.0112150056926592 0.0601626979239136 0.0605361198079692 0.1050074951154704 0.0326515713260704 0.0047267237547966 -0.0079672561854274 -0.0210919261530013 0.0022228719790321 -0.0249507515837591 -0.0489169998516197 -0.0638344931786875 0.1491854979875216 0.0248168413403798 0.0095968945537753 -0.1806712796069551 0.0224327540997236 0.0127700162807214 -0.0959510904329788 0.0786069248615113 -0.1114841103859201 -0.0350475358725212 -0.0133453703341099 -0.0565075516740770 -0.0135837298889150 -0.0015246655222794 -0.1064121744324801 0.0641942920895740 0.0309414074023031 0.0195988173897608 -0.1279571880743880 0.0865554721226993 -0.1168310092224924 0.0828633806956537 0.0174981061126193 -0.0620817045323883 -0.0355650842807347 -0.0224242570510977 -0.0511821822402003 -0.0057015915679440 0.0529188962012487 -0.0077134179258319 0.0356556291060577 -0.0664873833564807 -0.0119397485039573 -0.1870663861734729 0.1342522502379306 -0.0740631836990642 -0.0669599302351305 0.0342727152404444 -0.0258515122678244 0.0123148071075795 -0.0869409755081966 0.0249445255254799 0.0408542636881699 0.1457184364204205 0.0000529307560190 0.0714946081983953 -0.0591252066939054 -0.0172216604596321 0.1057937463745380 -0.1715587692608265 0.0283720993602320 -0.0885975707125028 -0.0515785271623789 0.1386492350445883 -0.2363558778014495 0.0361462411646583 -0.0063219136539711 0.0988316901874519 -0.0508292422792858 0.1620183633925420 -0.0114477320602533 0.1870941526430390 -0.1347152851606419 0.0294875794632939 -0.0210152728484364 -0.0072444437120321 0.0671111917434009 0.0017319070225447 -0.0146118283852678 -0.1074080302537318 -0.0236002613569333 0.0305620279996932 0.0093601230948266 -0.0145589946385793 -0.0528477281390380 0.0699676461007780 -0.0604637443914402 0.0022449712504165 0.2340173806982065 -0.0165598027853045 0.1019414754334762 -0.0275064712666344 -0.0561728645536767 0.0290659997638229 0.0991303204697062 0.1173086857095880 -0.0474274730157339 0.0230200649181726 0.1078520634723126 -0.0298994369637407 -0.1119423497445927 0.0176048391607670 -0.0493368175132511 -0.0683164848695019 0.0309431651572537 -0.0328851238470611 -0.0321528569077853 0.0402384788932458 -0.1188671265150874 0.0070306434722138 0.0824765288804927 -0.1025294642340718 0.1138409207719817 -0.0302732512598816 -0.0034546585202195 -0.1967533550606022 -0.0769680110476014 0.0047678512564449 0.0661948628388570 -0.0233357261970584 0.0149347214367475 0.1098514301198952 0.0525574375576216 -0.1159289201631998 -0.0480905344970232 -0.0082954156905670 0.0644649622702851 0.0000757030800532 -0.0315695769748124 -0.0618348565688247 -0.0209716111678163 -0.1029305436741735 0.0455450192427825 -0.0544003244554968 -0.1297080951065318 -0.1338455311203280 -0.0367416921067171 0.0388435536865340 -0.0157310497210975 -0.1061708546405451 0.0761364971911865 -0.0301527998702979 -0.0017544488895434 -0.0079631635982139 0.0404842676553255 0.0155402648173294 0.0183154510447352 0.0484788105139638 0.0185495091723205 -0.0377432962011036 -0.0350080108905158 0.0075547319895784 0.0239695115230163 -0.0473625700459582 0.0227925463444936 -0.0927467056386596 0.0141855775374464 -0.0201251758607783 0.0184726098443836 0.0863120012825427 0.0062735996651252 0.0744917020649480 -0.0222525292899720 0.0427555639455819 -0.0804267373413688 -0.2001570661825732 0.1240735348774784 -0.1042202934035157 -0.0178828491683029 0.0136028995381337 0.0491231739258241 -0.0253100161169718 -0.0033389394970227 -0.0495709734929103 -0.1142202928897077 0.0028569627360364 0.0292178043347614 -0.0316902154630027 -0.0208454685288585 0.0120137062527357 0.0061482079334762 -0.0075642974910135 0.0163057537726137 0.0102995747842286 0.0240558725368899 0.0283335346081058 0.0745624051306258 0.0583936977308901 0.1063353305078763 0.0148809892354133 0.0246959602691034 -0.0009485658613744 0.0123387388181686 -0.0162834946917672 0.0193365355409773 -0.0226824950402249 -0.0159126272641535 0.0146614865037398 0.0202153788973950 -0.0178479500389048 -0.0049198556969383 0.0124351979875814 0.0179807286389883 0.0189383378932914 0.0110727340507861 0.0025417304946942 -0.0072789576710265 0.0199816229798144 0.0009782542452024 0.0057843314000136 -0.0034704224117705 0.0088156987676360 -0.0036514206946079 0.0105923093458832 0.0088871212640737 -0.0109868433199657 -0.0005365064819284 0.0141892813901961 -0.0009402464989936 0.0047381337422179 0.0037393166650897 -0.0003046216104222 0.0131911873408543 -0.0028630622794693 -0.0088739832512985 -0.0081651370146829 0.0030957815208888 -0.0182338508546610 -0.0096269257942405 0.0001950379998847 -0.0005080165360278 0.0037704778698574 -0.0073501841901511 0.0092293037956585 0.0010980736649986 -0.0135659204057156 0.0048711385584914 -0.0151055912462707 0.0086429781317756 -0.0086913876091645 -0.0073902962424897 0.0161660791684364 0.0192232249980763 0.0104792903030434 -0.0077131468658979 0.0000290973860859 0.0204763623897021 0.0123306080311704 0.0118497768553704 0.0012851625280311 0.0008892084736323 -0.0006989386332767 -0.0029199947367122 -0.0067848653669740 0.0087115928890424 0.0043590701649866 -0.0051030772939314 0.0156209043361045 -0.0021390966164163 -0.0033385781969114 -0.0066723613081858 -0.0041963892782132 0.0015602886553670 0.0065689429376044 0.0115208559478447 0.0026153482324876 0.0082551922337534 0.0019033823424794 -0.0106588128611160 0.0084059212653976 0.0007770250612291 0.0077530357414139 -0.0048801931179642 -0.0056847910016858 0.0032978844279932 0.0011456625954777 0.0019182412756848 -0.0096538248368426 0.0119599277370897 -0.0004406507066770 0.0054517231679517 -0.0019792796967531 -0.0018034234995186 0.0034208526027693 0.0123186268129196 0.0086062605666251 0.0028895074202491 -0.0007975791056985 -0.0010163523775005 0.0089946370002310 0.0102470183226395 0.0093035565847147 0.0113456034498638 -0.0019111216282132 -0.0204635210967051 -0.0046239405928950 0.0035997582180626 0.0027075070858821 0.0208936999374330 -0.0044219490676781 0.0052009833425742 -0.0108502792565347 0.0004431425659029 -0.0015924949444388 -0.0053582777193145 -0.0016418962123144 0.0035871245640871 -0.0137314101464819 0.0066181385762827 -0.0103070497089919 -0.0106166993495717 -0.0027205713975424 -0.0016609050053965 0.0026770420186011 0.0051482940841534 -0.0070418810458999 0.0122204984490369 -0.0133607372526278 0.0036626128954875 -0.0122879186444246 0.0044299076699529 0.0169463308877189 -0.0040702461809840 -0.0058957267088658 -0.0173806090197650 0.0050350749819384 -0.0016029578346627 0.0120587252782239 0.0187289630270891 0.0047791290119227 0.0156429412133095 -0.0118600227740681 0.0143234595329915 0.0193234466358844 0.0222667545066655 -0.0028929305496632 -0.0127033097993464 0.0032231487091332 0.0043704249295220 0.0051834570410451 0.0065683703479742 -0.0102239550350202 -0.0000612923481215 -0.0158675430044596 0.0014458183362592 0.0114431076413608 -0.0087221378532762 0.0094611843676412 -0.0153873136418141 0.0130182862736138 0.0059830444341873 -0.0058356446332160 -0.0064634087844746 0.0153829873243434 0.0059673487428420 0.0018073459122177 -0.0025056993990109 0.0065325864132244 -0.0059408441219492 0.0005023251373710 -0.0020528090696977 0.0096408348584111 0.0032152681430987 -0.0071387610814867 0.0121846280043619 -0.0047986088483598 -0.0180171282176897 -0.0049760071201452 0.0036757772858709 0.0099502196622884 -0.0187472916639786 0.0012823551620767 -0.0073211788481405 -0.0103391794642640 -0.0100458975154200 -0.0155456394998744 0.0050828718635717 -0.0069862659010686 -0.0099251545378143 0.0054348626657389 -0.0041148708057734 -0.0018129472083840 0.0145390058260173 0.0014312350732036 -0.0119460216215125 0.0249252733781691 0.0011899063657937 0.0096849876552565 0.0139900162937788 -0.0134167318425058 -0.0008294260305651 -0.0117545111020859 -0.0165507566637074 0.0029316128234567 0.0014111287085826 -0.0056972025227977 0.0039161359448168 0.0143349659691132 0.0097559440745201 -0.0102140070928984 -0.0053096542373669 0.0156022138822900 -0.0119380934986104 0.0065032073393832 -0.0086371123904344 0.0130150978917045 -0.0185281589029527 0.0095897613520622 0.0057885821066915 0.0083766833123816 0.0036740538102142 0.0115841383234000 -0.0133469598642578 0.0081138732171779 0.0018353116155614 -0.0002531562828987 -0.0012159795768862 -0.0032654647357970 -0.0001012903103807 0.0037346354901166 -0.0029199419018884 -0.0114333430645836 0.0048025144492106 -0.0082046486896589 0.0085252665145437 -0.0073156840977628 -0.0152652402154613 0.0086927843562974 0.0119433701210265 -0.0140157893620928 0.0082542895492891 -0.0110785693079677 0.0112171781400199 -0.0003676846582615 0.0067056692699073 0.0145013499697327 0.0089782071892613 0.0029982220277066 -0.0002493157195011 0.0056150406660770 -0.0096755861634235 0.0047431506044265 -0.0131161274437114 0.0056849170967439 -0.0165773244509041 0.0161463043718595 0.0191007332910000 -0.0253814884747350 -0.0184399004607214 0.0151957101141465 0.0155483233406640 -0.0097818963088117 0.0104614292942623 0.0024757830292546 -0.0023215429674045 0.0004351864159053 -0.0013102105134738 0.0193261311250516 -0.0189183750813803 -0.0032007154105601 0.0061064363092811 0.0154725124723610 -0.0041322748689577 -0.0050120563758332 0.0170673136269531 -0.0226709520204388 0.0174093474707342 0.0133670992820580 0.0059601744313264 0.0103631422352631 -0.0038657989163018 0.0068756199551819 -0.0037909862253294 0.0005574928898603 0.0059028008003678 -0.0011785033384658 -0.0110020904665495 0.0029687541726159 0.0130349753319408 -0.0192614398515984 -0.0179052152624754 -0.0123418896651790 0.0066612260663031 0.0227557480978969 -0.0201056843060536 -0.0067026793102824 0.0040041536905360 -0.0102437947033753 -0.0107851712036731 -0.0093981022447040 0.0817177620963017 -0.0293204583569997 0.0378909840894986 0.0311010550540610 0.1440195380708016 0.0462723923097884 -0.1229838911779305 -0.0092975495026066 0.0065204510323565 0.0838887837129128 -0.1673204947135192 0.0571014565487060 0.1195827396199489 0.0473904894126178 0.0507251498766839 0.1509347629916360 0.0392758427440244 -0.1604924303003236 -0.0079688659527427 -0.0506444803396807 -0.1119469786905006 -0.0915983238571238 -0.0104321184378060 -0.1750399579292702 