solver_type L2R_L2LOSS_SVC_DUAL
nr_class 2
label 1 -1
nr_feature 76800
bias -1.0000000000000000
w
0.2546583436506404 -0.3384108334128960 -0.2076463784231359 0.3949798777035092 0.8013974809751773 0.0181167711420824 -0.0343211453742639 -0.9445038889019167 0.4827983774268159 -0.1136902340086420 0.1068127112533484 0.5963201403388241 0.5917826561602624 0.1915970986296401 -0.0927495857512591 0.1954064485697964 0.1359494609870705 -0.1084970536371789 0.1043986020251061 -0.1039731257395597 -0.1170791546625187 -0.1743147884666942 -0.2835887406132875 -0.1678496169268495 -0.3354179632243274 0.5212948057624667 -0.1433401447090908 0.0717367481232228 -0.2858028667394814 -0.3386879067541911 -0.0453431128338177 0.2917192432967846 0.2844369504363922 0.3513600028297660 -0.0120336198057457 0.2291735995107407 -0.0016649936359684 -0.2114031219519209 -0.1201941752277896 -0.1828584330381255 -0.1454976659677686 0.1705788912548660 -0.0554106712833533 0.1760750956975001 -0.0016957868311823 -0.1661259825785309 -0.3455005957085676 -0.2158163196551319 0.2566151633754545 -0.0372289606859405 -0.2230425138772057 -0.2054952016886847 -0.1592229427327519 -0.2346515721822408 0.2584127282504029 0.0078819884012443 0.1908454104359453 -0.0015924092203294 -0.2526997702334837 0.3886972007748652 -0.0906433577973251 -0.1446296143160804 -0.0377914601622792 -0.0565888820258992 0.0463704777840569 0.0771354004345333 0.0915996287848159 0.0744303656378740 -0.0756242717267523 -0.0291177885688515 -0.1680909258424063 -0.0511589463177758 0.1180588146555773 0.1310427083130982 0.0103571147196187 -0.0722965593319871 0.0325764298343303 -0.2577447258622660 0.0196445039912846 0.0243549142307692 -0.0091169861653864 -0.1510524225651423 -0.2775643873258378 -0.2898734611358584 -0.0807719129578726 0.2516258176582106 -0.0446262559270873 -0.1227546464279494 -0.0561388967096720 0.1170089312088713 -0.0312609331123397 0.0480906023311802 0.1255024051874125 -0.0760665566001087 0.0145572861370451 0.0412813424125479 -0.2390547824812030 -0.0607257920240295 0.0154189391371860 -0.1175350154786959 0.0576192215081079 0.0404862875481189 0.0311739151265013 -0.0394161510745585 -0.0408417627189277 0.2903523780829523 0.1169408257130588 0.0663500710128174 0.0801583945213617 -0.0792786803142485 -0.4438262974428000 0.0009875948150999 0.0761537632794316 0.0742344480030931 -0.0279669346266390 -0.0308320614341890 -0.0703376722628935 -0.2354194377124194 -0.1850554374969895 0.2031248347836962 0.2320855460351738 0.0803958152054993 0.0543490265061978 -0.1228622973784898 -0.0460481622741346 0.0142693829620323 0.1514012945806452 0.0194085186232202 0.1268758970195779 -0.0116276524211857 -0.1221234215368293 -0.3355084979072678 0.3212656323591687 0.1324674978492196 -0.0511153595350240 0.0274542875000457 0.0174468040885626 -0.1779357635417364 0.0062149097338241 0.1643227795480627 0.0218540680270953 -0.0880849467307641 -0.0020797535039400 0.1513475792303580 -0.0588767733383575 0.0635340864226798 -0.0961764424918105 0.0078441655377998 -0.1198398712565016 0.1084279715646318 0.1404845606701921 -0.0212794167889769 0.0761060037781569 0.0552005790096218 0.0766444761853866 0.1536257238813067 -0.0565729098736355 -0.0399365000806406 -0.0399647507051948 -0.1526920267364132 0.0050910765393364 -0.1892888881381091 -0.0929230931753758 -0.0964062043142544 -0.2731546923007834 -0.0955838723838081 0.0715345696636366 0.3659000333181677 0.1508543556763960 -0.2137039480097647 0.1348977295760592 -0.0302829126188435 0.3648885702718443 0.0562469814102507 -0.1510422014522933 -0.0123100864843146 -0.0609170056133296 -0.2591955442233748 0.0173826922700796 -0.0778226985001465 -0.0503007080620261 -0.0846200248918094 0.0808918509181861 -0.0288020246929418 0.3026153068208772 0.0827995480828971 -0.2429971044907938 -0.3061449652329072 0.1245319532148490 0.1984061260306690 0.1187849437528602 0.2001383181266482 0.0403914480681429 0.1175722849432647 0.2127556407562578 -0.1763172726173720 0.1745074067588366 -0.1756988994890922 0.1927605335436814 -0.1331814467379336 0.3857479221103105 0.0248633854327512 0.0365178578576496 -0.0247174231836986 0.3804174817777657 0.2033623786699769 0.1478041593752568 0.0792507558676484 0.1540996349158902 0.1378498057661209 0.0623925711706163 -0.0877030436863111 -0.0757200319489915 -0.1251977075481682 0.1504339680210846 -0.0749868635126164 0.0458146975816350 -0.0045847421538123 0.0179750296872306 -0.0052250567006365 -0.1540997464598915 0.1378415739682551 -0.1659696374704794 -0.0339377991105716 0.2916620253701281 -0.0939856362682635 -0.0910789221918229 -0.1052254569104778 -0.0423355987937641 -0.0428924648898494 0.0613214595291562 -0.1043692672771646 -0.0628328832742345 0.0460764542362917 0.0188816216431614 -0.0465829295998603 0.0469243801780938 0.0511859631389784 0.1093176084553503 -0.1016472653469870 -0.0291300911037909 -0.1840476833894642 -0.0157596592475157 -0.1235040363671122 -0.0536234811603225 0.2221312718442579 -0.0341970324445546 0.1739097858790215 -0.0204464121072575 -0.1565850935712975 -0.0093209283607738 0.0367575005348395 0.2518001681478687 0.3645951488441385 -0.0956041033840933 -0.2629003180944163 -0.0690394505806784 -0.0739702886253644 0.0580556335815319 -0.0575450747301335 -0.1193652799165358 -0.0960349506226541 0.1277864482954255 -0.0247549685066223 0.2245678970299012 -0.0407917201502049 -0.1940878017652139 0.0798332797294186 -0.1197119873212556 0.0650886882408094 0.1767044775766667 -0.2163794070513502 0.0031798546256166 -0.0698221331659746 -0.1531995077580511 0.1065982783825265 -0.0384025651679995 -0.1466563706444161 -0.1119496640613826 -0.0092767443429129 0.0306833417611177 -0.1987003954335196 0.0725266847687425 0.0540250203206747 0.0344194296993774 0.0915013660813883 0.1139831312765942 0.2099909919758859 0.0982703341021845 0.0451078028988967 -0.0001916317759880 0.1319279724266663 -0.2099671718959461 -0.0911645986739781 -0.0675322466276925 0.0573885437872979 0.0939887279066614 -0.0052116313403773 -0.1090587014815511 0.0902568217971701 0.0002941549695793 -0.0010355241894496 -0.0036569508995319 0.0005776924676061 0.0030961958236715 0.0007694094882512 0.0055736528714948 0.0048988597342579 0.0000413279166122 -0.0013859839147802 -0.0033868143230486 0.0017406477655303 0.0008416287452131 -0.0032725638101428 0.0034249578095552 0.0019905391629959 0.0062685001989051 -0.0006250200232163 -0.0044479456444487 0.0037684141519185 -0.0082423006792452 0.0043831141583808 0.0012804232994275 0.0005688508858771 -0.0036827619759755 0.0042624860393552 -0.0053552769256033 0.0059614244040699 0.0016604451136831 0.0055415678811279 0.0026716785745103 0.0056871940529506 0.0031933387999604 -0.0027532711964482 -0.0003148058938350 -0.0031843770327610 -0.0029372397068803 0.0039536086610732 -0.0033891642683036 -0.0016053610209415 -0.0021922889291529 0.0067616740591255 0.0068070193998206 -0.0004677858978561 0.0059094254878484 -0.0045212508576159 -0.0047366939793424 -0.0059987800569229 0.0055458074842110 -0.0071494228718170 -0.0048573063658512 -0.0058665824534154 0.0021110342057801 -0.0022419208805111 -0.0062338867645088 0.0022908099719125 0.0010408456313523 0.0052102259168093 0.0049606840633710 -0.0009259266492294 -0.0059894001225351 0.0048382117074276 -0.0036379252843461 0.0004098744353989 -0.0019698193111669 0.0017647245242312 -0.0054610866250757 0.0069504381481860 -0.0035203124473837 -0.0050707145297731 -0.0055028562050937 -0.0054036186064501 0.0010647761255908 0.0053149205455865 0.0041674776790340 -0.0004133779721003 -0.0008402724674209 0.0038764841796751 -0.0005934848565401 -0.0043235359037418 0.0056198571385360 0.0035934366079026 -0.0005771854354024 0.0038871780926850 -0.0052882101841512 0.0044119247242579 0.0049547014003503 0.0012795860362756 0.0025662008583359 0.0023532559596338 0.0024597263325211 0.0048054599291370 0.0015057694402180 0.0000261362263914 0.0042281707094776 0.0063726357026925 -0.0050834780538843 -0.0066065917975842 0.0031526743820380 0.0003967831669708 0.0046550824502437 0.0018751516695846 0.0051440554893614 0.0055945406995650 -0.0057282565305587 -0.0026667878258116 -0.0072429846466057 0.0064502554677945 -0.0048911787550265 0.0077252436520550 0.0006709208152918 -0.0004155595754147 0.0039443902612368 0.0021181436825275 0.0040064894700680 0.0008318975384861 -0.0044320144026753 0.0055360408504403 0.0047347395246144 -0.0002632757304106 0.0056184450358183 -0.0019293377850550 -0.0001290657719788 0.0054939792744525 0.0009176944587880 -0.0034244034392353 -0.0023327437364704 0.0024757219722818 0.0056864277916629 -0.0053759908340829 -0.0069862883589577 0.0056916398858167 0.0011875568476779 0.0046983212849943 0.0046277339250140 0.0033520024278631 -0.0008270539990307 -0.0021764122464060 0.0037540424646412 0.0063420244518745 -0.0035395439460687 -0.0068043973773327 0.0024445993636136 -0.0022006841530439 0.0048347950686486 -0.0043778945624046 0.0064554647962244 0.0033689334247567 -0.0042085239494770 0.0035065752380462 0.0017208440834904 -0.0030690783858111 -0.0051594460076056 -0.0011037356541786 -0.0040269688875891 -0.0011836995734781 0.0004361816532469 0.0024663326618341 0.0001005968805955 -0.0025050671523315 -0.0042301906686997 0.0056210732977571 -0.0033253945787281 -0.0037524279149071 0.0003443394963346 0.0019799653144812 0.0029133835589931 0.0006375295317914 -0.0061912222881411 -0.0053306929811210 -0.0050225917417217 -0.0059164635029257 -0.0032789066635948 -0.0044307649114838 0.0044473307429502 0.0030519808266207 0.0018706766979616 -0.0044375095064825 0.0025090284302058 -0.0047730342789554 -0.0045120851887173 -0.0006900174183730 -0.0011321475206441 0.0034730436224012 -0.0022256117172684 -0.0019935333345858 -0.0033407739186382 -0.0041856012144594 -0.0038623063260123 -0.0016050518915771 -0.0022466155970775 -0.0069549033152211 -0.0027556538939338 -0.0001413878487693 0.0038748579156685 0.0052616599152223 0.0021410955436515 0.0066118502625471 0.0036278735519854 0.0018386996254153 -0.0004603206466673 0.0031425434914614 0.0058362893568661 -0.0026189716919459 0.0002492739674196 0.0046048257715091 0.0022617221480983 0.0022042580412355 -0.0038314339792076 -0.0031509365662878 -0.0042220891754683 -0.0008548671707210 -0.0030787804680511 -0.0034229657343478 0.0037734761765207 -0.0009064438047699 0.0007118634356916 -0.0044583826190124 -0.0004630909631404 0.0041308911788835 -0.0029257546019406 -0.0036203194736657 0.0004164865305991 -0.0049513821921338 -0.0051225314570079 0.0031241500889371 -0.0049480514581729 0.0000502360983627 0.0006858477696643 0.0007010708271320 -0.0038426214753230 -0.0047893826511064 -0.0042830593419931 -0.0000428018545065 -0.0003064606378602 0.0031335119669017 -0.0076196431285177 0.0056757031290029 -0.0045685521208583 0.0006331357421908 0.0070599785323353 -0.0004015205311068 0.0005985408593549 -0.0044574608265300 0.0006957770492514 0.0041089367675039 -0.0027421286794329 -0.0044921186172653 -0.0029848805060298 0.0029173719805843 -0.0012224410109823 0.0023756962020692 0.0008072045583403 0.0042478731242675 -0.0086563607964259 0.0031724619259263 -0.0038253822597244 -0.0027043759203046 -0.0000168936615120 0.0027152313680669 -0.0049269867404427 0.0021204263456652 -0.0081391322852214 -0.0063185868034216 -0.0009829426922229 -0.0001546474208542 0.0025868934974292 0.0045028224953412 0.0021415538091793 0.0026423292992809 0.0036946365746074 0.0035778346888426 -0.0006109355356761 -0.0001236042457313 -0.0002710704094069 -0.0028362914545694 -0.0053651463129314 0.0030361571184987 -0.0026241272158667 -0.0014387867504060 -0.0004027355390514 0.0034416720768578 0.0042602617719054 0.0024238235058119 0.0028938161103173 0.0013086933652222 0.0029920621895750 0.0026040264407377 -0.0031966593753735 0.0028096276429984 0.0008909380494879 -0.0023694773840100 -0.0001681149961884 -0.0023133983531146 -0.0030919362670918 -0.0013910910406534 0.0018596146832926 0.0029227234557742 -0.0007841349674545 -0.0017001120792861 0.0109749807083522 -0.0255767824043618 -0.0025101398145817 -0.0123886861929137 0.0158757150086196 0.0167040323966283 -0.0319060938563352 0.0074854857462399 -0.0216322997936525 0.0057086714346179 0.0256241593962179 -0.0193311352849366 -0.0431643886195884 -0.0351560945658695 -0.0343621031882478 -0.0036566987791556 -0.0304192850109279 -0.0340856855351595 -0.0294785650849114 -0.0283553136269192 -0.0319692097882075 0.0127517560205674 -0.0001329942448463 -0.0075133918603671 0.0195773465201334 -0.0117340494144772 -0.0119821801022104 0.0114503738304359 0.0230456210619679 0.0064882389105768 0.0062076851357947 -0.0201586086743929 -0.0289898303789944 -0.0301776349180861 0.0003697746853051 -0.0039623088974751 0.0300224346115091 -0.0263231782906760 0.0003751878244196 -0.0266155360043233 -0.0163147507614000 0.0253372107184546 -0.0279129784708072 -0.0240225724297623 -0.0221814225937479 0.0080593518877563 0.0033974222088302 0.0076184059530916 0.0064682825413579 0.0125793727679665 -0.0013855418460859 0.0097610791446186 -0.0084436048120273 0.0251026044101456 -0.0129088909184950 -0.0275287345263351 0.0012125262782104 0.0376197199848357 -0.0089240745154938 -0.0225521782563630 -0.0094798028644388 0.0300179460469367 -0.0374025203197880 0.0459461871026657 -0.0150470943776097 0.0091417983227766 0.0238920144951800 -0.0171064814178297 0.0261898127502155 -0.0122249640933842 0.0124316437852877 0.0155096399060504 0.0062379156958756 0.0032078113512593 0.0078424757127775 0.0109799841247752 0.0003254010607078 0.0096789102820924 -0.0220515343901560 0.0063303455565976 0.0185683494418833 0.0215120441377827 -0.0060894523984223 -0.0152473984604299 -0.0171325175432954 -0.0190999988817320 -0.0395664084761987 0.0084631224177907 0.0170815400741421 0.0435967586919371 -0.0210456360193471 0.0027497149290827 0.0164602140012243 -0.0110828675333236 -0.0500591746111342 -0.0387003387227739 0.0190097834911516 0.0231543278171525 -0.0277717058783623 0.0231588538474696 0.0109291690187541 -0.0151762539897099 -0.0344071390793228 0.0130594074280992 0.0373889830215346 0.0498806198299790 0.0151882779020355 -0.0244922752483064 0.0014753231960996 -0.0164155789904238 -0.0152252675377039 0.0233306090866105 0.0196668490916511 -0.0138213011160927 -0.0018564967579362 -0.0073340532882972 -0.0061697886345681 0.0341440735885502 -0.0148432642959033 0.0057838218422127 0.0051776838142006 -0.0053361014911203 0.0006485655103128 -0.0080415283884164 0.0158749987670764 0.0196314940563158 0.0000442608702382 -0.0022049417768624 -0.0358817342380966 0.0050732246958374 0.0064252561300669 -0.0177281817692599 0.0207676500327486 0.0095876323036244 0.0170232731290130 0.0299322180282109 0.0076957550491541 0.0202172662949960 -0.0068633515534339 -0.0173166277816639 -0.0024212941428739 -0.0206899550480830 0.0093745976190342 0.0064764012236888 -0.0191184210693114 0.0001813163337105 -0.0312660831812216 0.0377330139655952 -0.0083163429442484 -0.0082659401680045 0.0143025873993218 -0.0310832965735572 0.0412543117149179 -0.0242879307187446 -0.0333458533573915 -0.0167794112912204 0.0039475116999630 -0.0158948224698822 -0.0033737631658983 0.0101212926061790 0.0175427394466626 0.0031733282272984 0.0289964107746950 -0.0153543607683373 -0.0084004767495920 -0.0102348033766613 0.0220844159801294 -0.0275985265875066 -0.0001737112581151 0.0443098023982494 -0.0014316039241695 0.0079668024447343 -0.0261590655512440 0.0005502943899705 0.0135892927967342 0.0001561307360374 0.0094018581424761 0.0130983493339791 0.0008928713565654 -0.0068365282456844 0.0092315959542235 0.0066946378855326 0.0248693129786814 -0.0109751866370057 0.0057869618976946 0.0006252467585971 -0.0252516582310566 0.0269895153817994 -0.0033266862194564 0.0219560570949582 -0.0005146400926429 -0.0253231195246883 -0.0107511724717594 0.0177821057524763 0.0066005507782275 -0.0031088395129819 -0.0297418679191455 0.0082006806577798 -0.0201505168681766 0.0045170537340921 -0.0273312933593636 0.0173435725771054 -0.0326717686329978 -0.0179153301222729 0.0074022328000358 0.0184234793247494 0.0223058463036109 0.0015613842638135 0.0160389549915527 -0.0133353867478015 0.0064346474314846 -0.0120343697690044 0.0152774468476576 -0.0179926076216919 -0.0197610232757198 0.0273737836527091 -0.0214826779667655 0.0012160337579813 -0.0094240998371526 -0.0033552562280036 -0.0124485333949831 0.0002153367116438 0.0047642994306519 0.0002221144325117 0.0198786207975499 0.0127057122075161 -0.0196981744454786 -0.0112088087921904 -0.0197152805279972 0.0342720886587507 -0.0070752949192110 0.0115510860381354 -0.0157644514745216 -0.0155332778778909 -0.0040629458277658 -0.0226664969559684 -0.0038197020670584 -0.0018375786940854 0.0006996842503845 -0.0103422373467383 0.0062340042679556 -0.0086666933670543 -0.0229303680907311 -0.0104196502995706 -0.0087887078827142 -0.0033340413097576 -0.0113765343769833 0.0037097347964647 -0.0127804544976849 -0.0096096127239545 0.0005687056212107 -0.0067006044692756 -0.0102552285676255 0.0014437690377449 0.0008280671595877 -0.0006266616130659 -0.0184540194984743 0.0013988890530137 0.0075361173111112 -0.0076985599413198 0.0085825562449966 -0.0137847722076066 0.0323074224451514 -0.0052905123358466 0.0139779530566918 -0.0051808112002570 0.0150748667551219 0.0040460356783720 0.0031007875644544 0.0004021000342490 0.0049150403505793 0.0135251773107198 -0.0010583230520693 -0.0049038504784571 0.0027486148052682 -0.0111336618780856 -0.0233045042713432 0.0143257039366135 -0.0082650521568836 0.0202225743579789 0.0020187060953269 -0.0021205756469242 0.0149217766693659 -0.0000960305663644 0.0039740830688431 -0.0115455893240970 -0.0090298902020983 -0.0177607895782401 -0.0121107782571750 -0.0164113787179943 0.0018467845864434 0.0079045267203561 0.0083019642941252 -0.0015409458248414 -0.0030638698122537 0.0121809796352377 0.0089273209639397 0.0098436798820524 -0.0086671164496749 -0.0010408243251260 -0.0451967975536578 0.0247934875514747 0.0757135798592333 0.0025253103847166 0.0280391047381615 -0.0147252453695237 0.0120153818145797 0.0549437437260832 0.0384049863696443 0.0124064722875714 -0.0009764590608440 0.0045010697705589 0.0632775120203446 0.0332182464208019 0.0339784330153265 0.0269394956593286 -0.0280694373122317 0.0136203466572668 -0.0244881188497311 0.0264414627711922 -0.0144573908090778 -0.0026287747618422 0.0407748638519878 0.0324790166100172 -0.0235903167925017 0.0540279610159070 0.0101366476639813 0.0019597201268871 0.0116791207230610 -0.0221819980645320 -0.0046894563434499 0.0465364288453150 0.0462339607411371 -0.0523447532223393 -0.0158546897259090 0.0035045661358999 0.0340396734013894 -0.0298973101909786 -0.0175602634727738 -0.0001677750016849 -0.0500487485248520 -0.0301906859378919 0.0260185522917246 0.0465856196988662 0.0382647140418495 -0.0127147123800885 -0.0207416115792425 0.0088966277306757 -0.0359940972846210 0.0483444501151143 0.0004694163917739 0.0558889848269980 -0.0215364405948735 -0.0240838084666408 -0.0070820777722841 0.0043822679619420 -0.0352360403347143 -0.0045281555001436 -0.0272170349809437 0.0168113627716665 -0.0094774306561490 0.0308946939342863 -0.0329578777686876 -0.0417428838821223 -0.0169705189138319 0.0377475163511864 -0.0586901880704290 0.0177568819038232 0.0044704677457333 -0.0382497523403203 0.0118257541057466 0.0775399294454452 -0.0223430688086558 -0.0107697039593179 -0.0397739279850226 -0.0284915535809730 0.0260464148779917 0.0744202059806294 0.0054877016356573 -0.0045382269949353 0.0172024325739482 -0.0050844213054248 -0.0099469573781228 -0.0137431963616360 0.0295340465548911 0.0211441580767894 0.0535627653291103 0.0546712098224413 0.0036441164105425 -0.0120562760509771 -0.0110548011040556 0.0202359148015911 0.0385921087495813 -0.0290676297326760 -0.0098534026914076 0.0315198391577356 -0.0380255987922010 0.0100385796606491 0.0396251669730059 -0.0545166860796437 -0.0172208196357781 0.0584119105136152 0.0190584566354146 0.0273670875702469 0.0370690368648652 -0.0203082229756894 0.0124916943075707 0.0342295953107402 -0.0138402978074237 0.0160783593081605 -0.0122377036167432 0.0026461247398858 0.0346228261120512 0.0353205022591683 -0.0069508268502864 0.0116293053018946 -0.0070513707229498 -0.0133466420372097 0.0179056720777651 0.0088904163435345 -0.0330611566288495 -0.0430087558552274 0.0279921780022993 0.0184442915432450 0.0290810148004358 -0.0655615566206208 -0.0327171909753000 -0.0505566223418857 0.0515853329695833 -0.0282566633898133 0.0116756475637869 -0.0109713868311383 -0.0438429032601507 0.0398006175129969 0.0137005780799085 0.0506062332226756 0.0377726746327037 -0.0286303488764596 0.0026407762052636 0.0745629136491444 0.0134886945361273 -0.0020308984301289 -0.0171676732152602 -0.0340683145895476 0.0612864768182689 0.0274853183057290 0.0250412506762917 -0.0354500845708574 -0.0481315953013564 0.0241492771326610 -0.0117644498385168 -0.0244127647677367 -0.0397333968156495 -0.0439890938317328 0.0236178345831271 -0.0506953835772818 0.0131892970396245 -0.0719521288577008 0.0435497081765975 -0.0311113004625547 -0.0509023699893178 0.0259621319331728 -0.0185438162906194 0.0676468512614474 -0.0079566443767370 -0.0335370818858702 0.0342112235668792 0.0219131441388556 0.0136896870846576 0.0388001810043209 -0.0036600710850260 0.0206823729186883 0.0138285679031788 -0.0287468125242648 0.0307255921054637 -0.0091284174597195 -0.0136385296872647 0.0275208746578339 -0.0127952471652983 0.0440360339854597 0.0450548032526408 0.0067277153355671 -0.0112695580884339 0.0448818023269544 -0.0298235279458524 0.0036438031279696 0.0121214787467044 0.0323322068433861 -0.0124139802732670 0.0314354030189717 -0.0204346258345066 0.0777214978745888 0.0335002515254162 0.0077146813171391 0.0041611247130338 -0.0129419859031706 0.0433139003356494 -0.0050487231392146 0.0045302513066949 0.0011347735415209 0.0215019633302088 0.0548556315409660 -0.0304448594228776 -0.0364334152515672 -0.0237656571596386 0.0140100737597474 0.0381218728870902 0.0141730504256804 -0.0605943952743470 0.0053339611202885 -0.0094815466056039 -0.0172954965685807 -0.0480755374090805 -0.0353774539554377 0.0288063628043944 -0.0528502942724025 0.0182981936786227 0.0317053765393743 0.0435053938297986 0.0043036570894486 0.0055548455890230 0.0676018000414925 0.0138070046869766 -0.0489936879975921 -0.0565859927643868 -0.0159452058147835 -0.0431951633718576 0.0639406597844015 -0.0207742421713260 0.0204310617390126 -0.0061929464395527 0.0561019196461111 0.0183878801573072 0.0659424027426669 -0.0706228457755892 0.0105276156539282 0.0183783860536931 0.0194645091741062 0.0228580792040563 0.0193324679779116 0.0040372480335081 0.0207363119499208 -0.0718378255574506 -0.0022850039407730 -0.0216812409665609 0.0225526893391762 0.0273764619004723 -0.0014323254375215 -0.0324677111042328 0.0133869933525695 0.0044768901370715 0.0117354239666768 0.0250302449991667 -0.0031384024135314 0.0206796705123248 -0.0070743287482098 -0.0437899159377844 0.0153677987997096 -0.0030867572150120 0.0223882830588996 -0.0163179263170555 0.0093790604042125 -0.0403427582501359 -0.0396988038020629 -0.0227382718730816 0.0130825739068529 -0.0241537118956523 0.0178760101073336 0.0186647659160697 0.0407514713224023 0.0152014096231826 0.0038139843469347 -0.0145838021803522 -0.0127710430009622 0.0055155554817916 -0.0206174175439315 0.0080723542320249 -0.0085637429440859 -0.0013981567310636 0.0108476257474366 0.0104613837450472 -0.0033612047900269 -0.0132198787582055 -0.0313700021951541 0.0034049115426012 0.0205014759262764 -0.0344297699114393 0.0231817998882699 -0.0077728072671336 -0.0250202229530249 -0.0258390248190819 -0.0102417414447099 -0.0321720077271738 -0.0266005847991959 0.0248043938815373 -0.0172504300750589 0.0326851644250973 0.0155465791493793 -0.0190826677128789 -0.0266385556605388 -0.0732862701588362 0.1694755575890296 -0.2302044726078437 0.1608631105248545 -0.0445667115874696 -0.0343865756152321 -0.0880401764910354 -0.0179719390663097 0.4237085806028056 0.2355429763875452 -0.0100873552515907 0.0269090920050949 0.4099868833470606 -0.2614602828732271 -0.1906698086912441 -0.0044087501426306 0.1105769146804972 -0.3480720494533783 0.2765256805232249 -0.0528744340646999 0.1793352886214491 -0.1703318420125267 -0.1179508317680387 0.0277630818280158 0.0570185424714094 -0.2174417187303767 0.0940065719536697 -0.1812179593547934 -0.0909853713722085 0.2526525205311237 -0.3061729042528104 -0.1679530818849268 0.0361828637877539 -0.0434336164150429 0.3644925200944998 -0.0887169100648421 0.0833480200645496 -0.0499467048439026 0.0842692004484734 0.2992231317103777 -0.0213015006487119 0.1227272471969061 0.1036095257491398 -0.1019182751742095 0.0035258476810617 -0.2499017992530751 0.0121832925091279 -0.4208760495675822 0.0297894508506212 -0.1728485947135816 -0.0991830624176256 0.6053030038776271 -0.0236191293277448 0.3738432385161823 0.3349098276510398 0.4986073340727469 -0.2531761640101651 0.3517352952176434 -0.5429741418465454 -0.5216176095286698 -0.0866521966936181 0.1066890374921837 -0.4837008042553292 -0.1869022933132621 -0.0844128220108045 -0.2059727553796231 -0.0186094190652876 0.2191852395328069 0.0821041189968491 0.1515585422917859 0.0660193621318505 0.3827182009241404 -0.2288565198687731 -0.0538299433922827 0.1955058698157425 -0.3202727432514861 0.1012361424294034 0.3298683240527928 0.1973725249665192 -0.1706203159995153 -0.1040482411674631 -0.2285601234275680 0.3296700474333720 -0.0148471395474870 0.1360217497912468 -0.3663075005483776 0.2873709129432998 -0.7262412160129161 0.3273450413940990 -0.4464937814535869 0.2296055535047172 0.0993111871449456 -0.3691895448012816 -0.1022359117094841 -0.1907530230115981 -0.3651335481128214 -0.1612563419300718 0.2788232674816913 0.3610004175150744 -0.3121853150076910 0.0867018399117805 -0.2691556320501963 0.1363561789683403 0.1340939387643298 -0.4786417105519097 0.2216415624760629 -0.1343273756138465 -0.3811386742326298 0.2573042951604700 0.1576285116024088 -0.5262785262849777 0.0396672965916225 0.2763501306640905 -0.1678029859891743 0.0607715846476454 -0.0929081626859949 -0.1894281349290807 -0.0262955472574779 -0.3514745200188177 -0.2305513523592181 0.4369462394973764 0.0612281057970634 0.7798452210021505 -0.1703337111062277 -0.1172643753914059 0.5424931782497470 -0.1497964264820384 0.3778316690213918 -0.1505533291067682 -0.2883795930756835 -0.1015779376642754 -0.0903275536416023 -0.0793351224973351 0.0965517755622372 -0.1172450939409412 0.0886454880977426 -0.0274055570867484 0.1229734914567944 -0.1507243312917683 -0.2524993048265548 0.0200811693174791 0.0402185237791277 -0.1211283432996654 0.1255663266107062 -0.1670309399569978 -0.1192120737082260 -0.2769192854297753 0.2642491961770155 -0.1382603975397654 -0.2807810286593297 0.3754484467191517 -0.1470037395521961 -0.0986939506574104 0.4416450113828217 0.3584554679278617 0.3027203173847611 0.8884700665871601 0.4504947925147290 0.4160847074804694 0.2578408985901703 0.2657175559001710 -0.4437061231437762 -0.1766883769834779 0.4441169730862672 -0.2138980262197221 -0.2540305892237885 -0.0176621936107505 -0.1255882549605521 -0.3280394795213991 0.6863272283320571 -0.2347307545907841 0.0101706697729966 0.0501418796485767 -0.0075478051810716 -0.3970052164973003 -0.0063467041783361 0.0268783596335488 -0.0804113397199456 0.5741776400889212 -0.0420652137101812 -0.4009411095732895 0.1886335675709788 -0.3455605302145281 -0.0387886717685695 0.0843560335950257 -0.1826107768341506 -0.0233472837653982 -0.4846352193690193 0.2361479247420122 -0.0455734063998736 -0.2456068978524246 -0.6969898938611193 0.3453893655682342 0.1764289777205015 -0.1544383408908042 0.1544418731649529 -0.0377761182115537 -0.2603912372920207 0.3760362842852665 0.1194691178289184 -0.0022267068086780 -0.0971342555097073 0.2306779630555273 -0.1948464617212218 -0.0040270830124022 -0.0075104728386448 0.1420776471899463 -0.6756198792777373 0.2587505025315797 0.0549543230163688 -0.0481127332820651 -0.5499587888248750 0.4526039566701337 -0.5239875600354480 -0.0080210765683535 0.1814775177298836 0.5533566545149989 -0.0061026776753137 0.0861666370922604 0.0028010735513216 -0.0142689179147835 0.2428018228204749 0.0404159703808010 -0.1369188619486363 -0.0008317751582117 -0.1667818673777837 -0.1375564000296762 0.2263231971964442 -0.1137262749926598 0.0341354534294402 -0.3217146972100746 -0.0837600062779444 0.2265529108991428 0.1983856168554832 -0.0033515903552931 0.6604427464636373 0.4247327292395376 -0.1280980605816766 -0.1428653550058551 -0.2402643900978274 0.5031122816291566 -0.3433902598028370 0.3409308920874760 0.2360244812615453 0.3326006553232869 0.0329175754322614 0.2441057566076866 0.0675533873004490 -0.0094611931502277 0.1629428136504025 -0.1513036359406330 0.0239759579344365 -0.0890699817194002 -0.0922223101845788 -0.2042510402113822 0.1563149735133129 -0.1765929838722131 -0.0542323761802865 -0.1007801781751369 0.2048783338195447 0.1959761226983895 -0.1052127448756069 0.0762720477243010 0.0204432433609025 0.0705607028268340 0.0270667629322227 0.0909507397270882 -0.2643303936501822 0.1761918056117627 0.1481844684975669 -0.2662935580979147 0.1662598713737871 -0.3722305687269193 0.3863562845725353 0.0572553770202629 0.3819764420125297 0.3958844189572646 0.1189126775816503 0.1929801778710903 0.0189102988793162 -0.0274265246691260 0.0030543848811067 -0.2783470731675438 0.0241580769506472 0.0833062129713824 0.0430705552867335 0.0115063552196973 -0.1681415890394316 -0.0965486198385147 -0.0430149871638298 0.0989205266631786 -0.0101141566116907 -0.0926096861596172 -0.0481726510337488 -0.1458922293991288 0.0041545918313897 -0.1102412787108897 0.0292948100575571 -0.0114183483002625 0.1197620221397279 -0.2271798236019247 -0.2056414890266326 -0.3910090718563862 0.1788078070997761 0.0640847411214534 -0.2300913959192286 -0.1430576962048613 -0.2875731254319565 -0.2727287277803880 0.2734891063108073 -0.0140000525526362 0.0153457501504829 0.0837351311605817 -0.2036443636995893 0.2488013234458713 -0.1448160535853656 0.0178874040651069 -0.3014547697413048 0.2595612017544621 -0.0997464241277300 -0.0744684599322938 -0.2061682944454913 -0.1795818991232317 0.0824802549060735 -0.1324844562004612 -0.3085330102913148 -0.1735406807722168 0.1806337140477313 0.3192581126139231 -0.1029798168452765 0.2676115150214045 0.0009096483562756 -0.2718512498903399 0.4579221087035070 0.1730817254336277 0.0024415244240018 -0.2818465477098928 -0.0582296587189269 -0.0466335436635742 0.4860312342827879 0.0608225921532473 -0.2349216065778288 0.1416510193893463 -0.0319390208468083 -0.0182350763829933 -0.2080519176382689 -0.0536488146440177 0.1164685563376232 -0.2772546815981859 -0.0360411662891274 -0.0748012721026678 0.4458474452083515 0.0726339645995210 0.3216970409582188 0.0177253576606549 0.0941045142882270 0.0632325255519492 -0.0279344567478288 -0.2069865598718002 -0.0913701090608443 -0.3012714842973334 -0.0555683103293533 -0.0548641104420947 -0.1205390798430305 0.1960625206583464 0.0116101233097256 0.0018007200017646 0.2213688791173168 0.0449360136215353 0.1072066186058571 -0.1622042902984567 -0.2061904127868693 0.1517001709498028 -0.1255127641531833 -0.0298251182077259 -0.2424143112497435 -0.1010858865298101 0.0066103699305865 0.0236176537029050 -0.2159763625470146 -0.2062652026794619 -0.4243084894970053 -0.1405079150900315 0.0938388661485149 0.0600685947100792 -0.1718869182059864 -0.1592176810102219 0.0568090235298689 0.0687391145329874 -0.3178425216242071 0.4432811971044795 0.1545297982657932 -0.0734145222202986 -0.3500086924203196 -0.4798655568481332 -0.2402164161159388 0.2807968800229161 0.0610761693234799 0.2946636895401384 -0.2356773431470159 0.5195241135827756 0.1479638536387080 -0.0089791894001105 0.2568207978381692 0.1840577401561986 0.4403224471048016 0.2000953563116949 -0.0753545544810816 -0.1692461540524994 0.0405142162803356 0.1504320203515697 -0.0044537616184809 -0.0883029072352554 0.4237942530569460 0.2721505290218540 0.0147690309567893 -0.2315344293640073 -0.2040120129591401 0.1668197525793713 -0.2739864290605758 -0.1266434923549409 0.0048841960244035 0.2374772886439012 0.0437268290982875 -0.0965412347284794 0.1391649660406071 0.5367990193134431 -0.2492868593172495 -0.0765411611045757 0.1617707252414627 -0.0782653937181618 -0.2464380004373555 0.1710680354339450 -0.1119193571599516 -0.0575639309463621 -0.0080764860801145 0.0930342434905835 -0.0790456975595543 -0.3258072422943805 -0.1009510634114980 -0.1816215494900695 -0.0167503207248515 -0.1845526304419881 -0.0438331323954703 -0.1444327099120909 -0.0243686702497108 -0.0608765973628398 -0.0986415354716440 -0.1296372066608400 0.1886949244675344 -0.0952034182986039 -0.3674641509289775 -0.0425094673434238 0.0518983837462434 -0.3455930866094792 0.2033208432275040 0.0013319664433290 -0.1396863948936232 0.0310123284761013 0.1615937763112020 -0.2658117009137762 -0.1825557069972910 0.1117249295793402 0.1360375603269527 -0.0725675674720361 -0.1621104691087243 0.1848301493053700 -0.1325539290017905 0.0432101447065198 0.0663596137218549 0.1849038083656890 -0.1044430112225876 -0.1401394814720714 0.0894000221251000 -0.0088320962390601 -0.1980770018595608 -0.0987783678171600 0.3106147274577822 -0.0570570559230415 0.1230867332443143 0.1621175246057656 0.3617052226420329 0.0654807012116251 -0.1596511166039584 -0.2857793109732440 -0.0171209970813213 0.1111562197480468 -0.0237595754119380 0.0606183702028881 -0.4240898203053810 0.1737549337261600 -0.3315602285983415 0.1687202391819220 -0.3538690017524153 0.0859000500131248 0.0999012968309483 0.1461557582428603 -0.0588790159072130 -0.0481290016848182 0.1282645847916030 0.2291254790580038 -0.0178042461183244 0.0395308645795326 0.1045490463718916 -0.1080515378501295 -0.0763129842368317 0.1055912716767775 0.0260119159254061 -0.1876832081598303 -0.1110773469229027 0.0212381718213821 0.2390373267764054 -0.1218115807856216 -0.1517600586736068 -0.3279686693087437 -0.1305351222095964 -0.3816038302430066 0.0923423936374681 -0.2641185087759688 0.2522790160902502 -0.0144364614667750 0.1677457010801189 -0.1518396302483643 -0.0460539462985819 -0.0908026647960854 -0.0833266405795130 0.2422764424701841 -0.1969653934438277 0.1912988556394737 -0.2442626746210588 0.3826161968287274 -0.1191034419924416 -0.0096457625623648 0.0498274154798236 -0.1156043338081692 0.0412005158889361 0.1948841875244909 -0.1602648300846315 -0.1622719524086815 0.1599959965167264 0.1106005995322833 -0.2886641482019726 0.2316982007944051 0.2204789308302510 0.3128375547022004 0.0815915178787319 0.0353090800631619 -0.1628797303253101 -0.2178835677282081 -0.1823367973765841 0.0682521550253923 -0.1053873527608041 -0.2272993736097796 0.0362037328445414 -0.0168362936246799 -0.0087501239402792 0.0649194643643153 0.1997729416252936 -0.0043881393406522 0.0822452966508505 -0.0463600649872096 0.0079183531470775 0.2328940185714043 -0.3108700170751763 -0.0772281361096095 0.0290777748465423 -0.2015119039768757 0.1681595081602407 0.0756808651513899 0.2958823960417222 0.1227131339767504 0.0420128723431318 0.0682940153574843 -0.0060784783531544 -0.1508878902624952 -0.3711717874017633 -0.1440749471977274 -0.0451277375662965 0.1660175577819926 -0.0019158696172203 0.0974767101791499 0.0483644051662169 0.1110383423454716 -0.0738065690412480 0.7390392922657451 -0.0044314043094120 0.1462002128468177 0.0622596329958971 -0.1561024675567660 0.1812247670855407 0.1743686745925672 -0.0504355371580650 0.0176841273220203 0.1772791536738418 -0.2100650993654218 -0.0311823580890867 0.1241786532643019 -0.0203943236548094 -0.0808939418774278 -0.1341551825448469 -0.0761012177715742 -0.1503362115241341 0.0001615600808482 -0.1065214393295313 0.0715975482881075 0.0457361183340915 -0.1601918709436319 -0.1050374384696971 0.0881928037995104 0.1201730958855319 0.2955515290057557 -0.0984292265898792 0.1339263040666041 -0.0555873120709981 -0.0380847890650677 0.0587694799748198 0.0677158688121059 0.0230556656627785 -0.2184619158017960 0.2081860997564649 0.1467056966530401 0.1218892030589086 -0.0464682407933486 -0.1423948309513106 -0.1871052274136676 0.0186477706342355 -0.0040180346408804 0.0037032161394285 0.0410240380702800 -0.0818287801561634 -0.0285470779019037 -0.1818276538485921 0.1267532022371116 0.0096897135593770 -0.1324015923062098 0.0747864551617576 -0.1744423083151094 -0.0025670155564677 -0.1799488056820160 -0.1455708587094358 0.3196409384702950 -0.1251049439974774 0.0045228214747290 0.1368678034941817 0.1818062812938878 -0.1358525389388382 -0.2075648396409633 0.1601416575526254 0.3312461899017499 0.0093073507860228 0.0731608591945428 0.0404598767783297 0.1112178012811806 0.0886849809108868 0.0151696707681352 0.1228615636648277 0.1654066988659237 -0.0428457011083065 0.1402198819958058 0.0014101552752916 0.0705453703846067 -0.1009913428265896 -0.1535691467756288 0.1276068428293041 0.0468732951389062 -0.1405828370988893 -0.0192428055950855 -0.2201943146292459 0.2570520743922973 -0.0961779871055815 -0.1775404742660426 -0.1568640542941870 0.0556470848452979 0.1080498267141505 0.0075700398223163 -0.0216376509489820 -0.0052913876030633 0.1016906497984645 -0.0901464206902170 0.0341065116688294 -0.0360793835610389 0.1025443060849457 0.2419236897245786 0.1030327260052463 -0.0178257533235862 -0.1233840850114115 0.0575854996523424 -0.1356028090247840 0.2463985832628634 -0.2424432988946162 0.2061867368905348 0.0269779676720311 0.0401076787378223 0.2745492042993883 0.0582888662818488 -0.0376810429640351 -0.0964840295853638 -0.0794359687460828 0.0543076886339016 0.1098366496499851 0.0632114966835645 -0.3819076009927325 0.1097828254709416 0.0186686411706538 -0.1927835552003658 -0.2360379728935781 -0.0296860556977743 -0.1017321424521143 -0.0619439469256801 0.1220332293904136 -0.1420341749256837 0.0480157185592656 -0.0154637505364182 0.0617648394236733 0.1179759416302468 -0.2061444510948708 -0.0841814956096509 0.1461356656775078 -0.0097265169738088 0.1713048043943481 0.0532971012683983 -0.1156841653130019 -0.1136393380163291 -0.0908161211643440 -0.0395737783716410 -0.0274187758104586 0.0618397671986299 0.0275841902778615 -0.0939020276501887 0.0968881313651787 0.0763527713339461 -0.0473395864782325 -0.0423589122680039 0.0713950695667455 -0.0351917847838832 0.2524146163252586 0.1878677471123481 -0.0572021866528648 0.0186198548722649 0.0773480194264693 0.0777528812655124 0.1089147940644491 0.1115090760706210 0.0012130491387554 0.0805633146636254 -0.2276931445602436 -0.0784407569326937 0.0442030303872581 0.0833503970767222 -0.0355630199588745 -0.0293715233203748 -0.0040019098771239 -0.0916107463634620 -0.0431686787252172 0.0152829873003229 -0.0458617432858789 0.0101552197212757 0.0729570057355739 -0.0128365280049684 -0.0316919695606538 -0.0047900848438255 -0.0490539134250460 0.1147892282123807 -0.0429608788444392 -0.1738457689843706 -0.0067116725165340 -0.0006779543588364 -0.0251645416385658 -0.0552509080039055 -0.2429060482378032 0.0857252779235369 -0.1228174511123944 0.1306835590448386 0.1152836130346422 -0.2408770572878051 0.2020263430978478 0.0573197645028371 0.0353171708842059 -0.1050955650496752 0.0693072674766187 -0.0128561749126969 0.0628169529018175 -0.0565062834238321 0.1509043075628063 -0.1111057911164238 -0.0832563492093989 -0.0850994979142334 0.0669120028160321 0.0463699515299081 -0.0710489663665373 -0.1007524338731809 0.0644956589707928 0.1500094699763204 -0.0158163056246353 -0.0738706317342634 -0.0314035098900597 -0.0692574212426994 -0.1286834576482768 0.0584749482080064 0.1144347969051817 -0.0393917441954934 -0.0917132842609625 -0.1292070330043234 -0.1418857847450207 -0.0110277072489918 0.0058864151671528 -0.1057658010991481 -0.0413157337451906 -0.1682151491394574 0.0497460297287984 0.0097083798987141 -0.1893874919136309 0.0631140901779797 0.0734725306990755 0.0351579716543681 0.0672526219880592 -0.0782602720111865 0.1306594603497163 -0.0142136119580104 0.1519204210133179 0.0743538000032171 -0.1504833131306405 0.0409793136299832 -0.0805320781770456 -0.0170567772364436 -0.1746224425969246 0.0124991169841009 0.0194607734239787 -0.0789655934475125 0.0129951711960497 -0.0877768033869539 0.0534088524393187 -0.0764031400149396 -0.0408362025605451 -0.1033391677276696 -0.1600850358036327 -0.0427601475991464 0.0410110815571323 -0.0042370656302956 -0.1247669417024566 -0.1092329521246098 0.0984232081869962 0.0170534862180571 -0.0522665722463389 -0.0629215839736199 0.0145090011790917 0.1082917110759647 -0.0740559703710854 0.0699862241617254 -0.0483554147005786 -0.0023257960905353 0.0840530962445415 0.0353358518436053 0.0475624727878640 -0.0742239980995916 -0.0918063419940986 -0.1025361072746360 -0.0907480066296791 0.0661739564311913 -0.0271931559775937 -0.0165775978404136 0.0338463328548024 -0.1203989047736605 0.0138273180530195 -0.1475998542769122 -0.0359806788391854 0.0644201817763623 0.0950565621536660 0.0599463853497819 0.0967609736216404 -0.0859543506784627 0.0901136712096355 -0.0226070017264913 0.0534400517497166 -0.1109201080881098 -0.1126404409185114 0.1224905744878439 0.0570171017012604 -0.0394542259276004 0.0562174501236472 -0.0126093046418078 -0.0751193872364115 -0.0776826430929549 -0.0313469169559771 -0.0400335714524810 -0.0217752035525273 0.1178934628686039 0.0065918714538706 -0.1733961245334014 0.0603604061033775 -0.1199408031385332 0.1501894333145947 -0.0068190594352579 0.0969590939539741 -0.0876850344698877 0.0063848460593600 0.0597550581523369 -0.0955950841043345 0.0435415197866147 0.0181259875487051 -0.0557588250711599 -0.2230993381796350 -0.6284145787734888 -0.0922030823789299 0.2499186567463544 0.0491752764787611 -0.7521183325284694 -0.3867154040994651 0.2001682055524125 -0.4631280809059296 0.1358775757923947 0.2781810404912903 0.4904848616617247 -0.0925238722247938 -0.0531070511410868 0.3204782855104671 0.1881701888453801 -0.2760734936426581 0.1705283920644640 0.1542005025701439 0.4635411740432724 -0.0651740775586320 -0.1968742661736344 -0.1472342438951358 0.1566072185568734 0.0998175204077898 0.0912627544037028 0.1542243906611477 0.2615528158848731 -0.2807886547366237 0.0069960251030363 0.0426037264860373 0.0039801477011590 0.0731209523205359 0.0804822942209039 -0.1379750083823517 -0.2273633148536509 -0.2632550132736944 0.0930127692496220 0.1552942012902443 0.2325456029531927 -0.2065008493077923 0.2723565215780120 -0.0597902768615783 -0.3111539257050446 0.3565168540493846 -0.3197862607617042 0.1888463036495701 0.1731365955734385 -0.0925788009659951 -0.2327469273489127 0.1894294473722085 0.1729264287144068 0.0288293709515532 -0.1070728649489692 0.2663660922559202 -0.1587286857981781 0.1567799645274626 0.0196384579170645 -0.0036234929325734 0.2486889696673844 -0.0012638690580318 -0.0165473376727708 -0.2113002729089666 0.3026825014255041 0.0978447821657544 -0.1157449075535798 -0.2791423185122860 0.0317946756931153 0.3017632718226164 -0.5674979250355056 -0.0297035796158353 0.2206852116413272 0.1878090319397189 0.4036514353208632 -0.3402894737987416 0.1064446568522850 -0.1349962073848737 -0.0043554357315315 0.1912420009007278 -0.0719906560152990 0.0881892034351358 0.0107279906144344 0.1908205758308469 0.0600559969136183 0.0513496323318093 0.1995082357840270 -0.0134977119309312 -0.0500499762446459 -0.1257631119092081 -0.1465782702914138 0.0436063527444563 -0.0515667677501034 0.0132383874967561 -0.1764933597857415 -0.2312597033277668 -0.2040516097585608 0.2111247746841874 0.0296479138193720 -0.0500975750499131 0.1217433553412024 -0.0772630724385771 0.0452461903295547 0.0247844065008480 0.2652082568552611 0.0496821572365583 0.1684161958522253 -0.0572052405569191 -0.0217375681723901 -0.4380799475273643 -0.3374062660496854 -0.0873074118640859 0.2493614519922537 0.0380343264527906 0.0608989674807491 -0.2187440862139362 0.1419653809550850 -0.2269653127168484 0.2547162280313610 0.0472087863564168 -0.0174341652598138 0.1856374887442120 0.1640297238840815 0.0432147601881489 -0.0198540008804507 -0.1007547528862887 0.1612587143737704 -0.3210306645302746 0.0742884255709274 0.3066436448344095 0.0061793150272591 -0.1916305684635088 0.1782717702123170 0.1057864131659090 -0.1254162602549873 0.2516263979173826 0.3918378114620018 0.0016454431809994 -0.0778601937179901 0.2427717965714263 0.0383582264345594 -0.0539663475324056 -0.0624394635268712 -0.1966841887341166 -0.1063604922094120 0.0539159836392034 0.2515046589563822 -0.1276821695610622 0.0071660729726605 0.0347550974469045 -0.0572598438783221 0.0354034798989152 0.0838888056441369 0.0721504680780020 -0.2710601413703638 -0.1851566429819870 -0.2154497105767138 0.2196766127124376 -0.1338120006530984 0.1789655895366606 -0.0000082358577111 -0.0904166506482292 0.2683631730053793 -0.1782665107115590 -0.0826383499943857 -0.0371236536592544 0.2315387771313743 0.2462201213387135 -0.4567798079717719 0.3650141398804231 -0.1459421956801939 0.2438069352346204 -0.0204538541518380 0.2605926469668527 -0.0697901162549780 -0.3354964130010704 -0.0764757444453189 0.1269415854916957 -0.0057371229794160 0.1763676812875408 0.2368252007659039 0.0089288344739902 -0.3465379817211133 0.4998421304341210 0.0185136615718689 -0.0598879651674039 0.1038802326709772 -0.1374065249910007 0.0909479145583880 -0.0671004675938556 -0.2251618938972546 -0.1266725277610491 0.0912237143825385 0.1361210392931372 0.0259129644425665 0.2831899989474244 0.0038197401475245 -0.0522601061805837 0.3995943664997946 0.0648468281512240 0.3445248697438287 -0.1062994857664150 -0.2770764711036856 -0.0084421250382031 0.1583446576565880 0.3107926925763311 -0.0535209873655311 -0.0407868440429693 -0.0973296793135560 0.1383173376826976 -0.0528143024382051 0.0720395714877821 0.2196583327083014 -0.1857029515644745 -0.3718066095684568 0.1407813537483512 -0.2409591350023715 0.1198098135531407 -0.0935049396612465 -0.0524975681099932 -0.1518841096754663 0.2187990878597581 -0.0501061403292952 -0.0921256446899350 -0.1136901357218505 -0.0530818766792081 -0.1372794096398746 -0.0604377637439710 0.1894234679975138 -0.1986919386006305 0.2596078665426764 -0.1281587778657160 -0.1739037490537380 -0.0559628044915127 -0.0085225909195350 -0.0518872717689741 -0.1157514231856011 0.2322141601228782 0.3005626990643227 -0.4042398977766401 -0.0827059875540679 0.2410279686955929 -0.0079058534429171 0.0089083368814429 -0.1351469546769253 0.3627596864887083 -0.2533643499937688 0.0816367349261984 0.1713413222188445 -0.0267448709296257 -0.2163100727022957 0.1032838463547371 -0.1644907513301668 -0.0813491395199421 -0.2770533978089309 0.0082863340376966 -0.2573013034204872 0.0155235460125569 0.2210827017279481 0.0781058832311039 -0.1671258353461686 0.0415653969412356 -0.0751709463557380 -0.1222299018332390 -0.1487370333607254 -0.1088219424586061 -0.1474204122017435 0.2820938250815139 0.0223398423134472 -0.3071640484318331 -0.0636931662818978 -0.1626876152359939 0.2708181467251355 0.0873533063605066 0.1592748643307615 0.2190142730431657 0.2003313536861311 0.4721904901685601 0.2654866014262020 -0.1731229434456181 -0.1774405911006895 0.0274649912922577 0.4732603600433196 0.2032433687845146 -0.3276943890603329 -0.1883488913973644 -0.1710081471860010 0.0986266268639329 0.0328250721842316 -0.1642977433173627 -0.0308716175478090 -0.0652216276931376 0.1102155918010451 -0.2685471857505872 0.0964925482391380 -0.1042382045132436 0.2120936540919784 0.1710171513550750 0.0254198358007152 -0.0953095492785823 -0.1435776422481849 0.6902264558791553 -0.1789001692959568 -0.1606670100175281 0.4451152287917212 -0.4840010534576058 -0.2302000212430595 0.1042484078930191 -0.1353536872406468 0.1242997769844984 0.0955812369950996 -0.1361667339253003 -0.0577453680576331 0.4650636116274012 -0.1329143743748191 -0.1064493011338930 0.2636510647467861 0.0528810385800381 0.1421900588509031 -0.1650989505192214 -0.0211475463254358 0.2659395207474055 -0.1132006369151457 -0.4704933173124422 0.0195110126818225 -0.0387747257282028 -0.0069671263423017 -0.2037604249559668 -0.2295393629769852 0.4256511315177290 -0.2337423156594471 0.1434077495838718 -0.3800960130517633 -0.1037800474576544 0.6774205712073035 -0.1066577078893460 -0.1694552357615202 0.3665689971918062 0.3939579196778718 -0.1336614294081191 -0.1013494362612792 0.4367400863967999 -0.2203417338049664 0.0570784009760347 -0.4236143017852684 -0.1241324966429545 -0.0541235147123340 -0.5168591991406282 -0.0394720005201950 0.2962031317628985 -0.4263768497335855 0.1580944013441417 -0.4503025968093865 0.3906009218898582 -0.0654945393942227 0.3034109003818202 -0.2530340307771006 0.1221496222992303 0.0933056896480092 0.1549341831411532 -0.0512295818032615 0.4593154802577573 -0.3551667802078910 -0.1525025145613481 -0.0806742347547093 -0.0977745440447848 0.3287421624808406 0.0959051069369586 -0.2017658020717621 -0.1750314762857881 0.1331134989165877 0.3446316826832264 -0.2982715173474971 -0.1806029371470513 -0.1301162008358292 -0.1641781234382264 -0.0284619167076129 -0.2868779847899624 -0.3480375723819910 -0.1910956878754602 0.2319920408167209 -0.4895838350669581 -0.1414983016197404 0.4126802309216101 0.3902225071177509 -0.1340874833018162 -0.0904161802863134 -0.0073042075498477 0.1405078298976334 -0.0134606076088034 0.0931610679328855 -0.1302203566845676 0.3230026248416999 0.2192917988446861 0.3113444123361826 0.1629932972312913 -0.3549308839529322 0.5355309438159229 0.2292481538542866 0.0241710733974923 0.0507444417292971 -0.0605042049772860 0.2133593920691919 0.4292882135101020 -0.8743596989136682 0.1371803996689138 -0.3788885538166506 -0.5120025836998670 -0.3129694425569504 0.0579798318504059 0.2306346430641532 0.0500324762842401 -0.0904875738671236 0.4207607366868134 0.0788440797583981 -0.4771591713829527 -0.0838480403383357 -0.4269595936418450 -0.5726320605797669 0.0496154619811666 -0.0743612234230492 -0.0229365213679352 -0.0784597144793534 -0.0906155739692154 -0.0637019289663905 0.0576439576662231 0.0773793628018392 -0.0391331539642790 -0.2521370969114111 -0.0740032718321015 0.1383067603349291 -0.2486124385321561 0.0651692104417295 -0.0694253071127915 -0.0307003980444401 0.1056342593997057 -0.3997602864955755 0.0438773182646159 -0.3858502380165454 0.1920243908782760 0.1037135295699778 0.2741899655479919 -0.1371559793801597 0.0463791909291776 -0.0074561390643206 -0.1116343006190304 -0.2367297983234869 0.1775583573873489 -0.0727129457454832 0.1592972454950382 0.0978662611529054 0.0353093514465337 0.4204475728633132 -0.5246983387772737 0.4985244376270767 -0.0354665554603335 0.9688127814368166 0.2193090792476892 0.0851105132203512 0.0648328572199352 0.2278234653767004 0.0760451449548751 0.1740904035612118 -0.0522709181963898 -0.2500306327195695 0.0561388708556944 -0.0744727951983530 -0.0571870956914131 0.1808887454290955 0.4190544521177704 0.1460906107400372 0.2340631818426244 -0.0221241672145031 0.2076920741290215 -0.3028496383841763 0.1276423100666875 -0.0659098849738701 -0.2131405889885192 0.4572559003904416 -0.0015577467017457 0.2101624620677410 0.2283556849886695 0.0628568810224348 0.3451134927459265 -0.1812806029863201 -0.1069638177207661 -0.0409864943806526 0.1212281363679303 -0.1170612731462501 0.1854008226149273 0.3387782901951826 0.2544779837473778 -0.0246878987998771 -0.0139668959298752 -0.0952344957203592 0.0005307203186803 -0.0128191151032969 0.2689472651550757 -0.1428792584192028 0.0034895594827597 0.2472546855229954 0.2223702671473609 -0.0921821148180523 -0.0455721754672666 0.3371490433722475 -0.2715587504240170 -0.2913204556410763 -0.4300098130083016 0.0200405082865876 0.3404800219196654 0.1027230108477834 0.0254401846150888 -0.0003300660018007 -0.5273040917272018 -0.4748128991299661 0.0132476156104854 0.1051196736835171 -0.0569018963939085 -0.1995710005962664 0.1270460069462458 0.0769190934953061 0.1321358081462460 -0.0732244038056570 0.0261081053017168 -0.1597145011026722 -0.2647646922151107 0.1855355048042301 -0.0801705276949296 -0.4657629547846317 -0.2536082464354646 -0.0182061510861747 -0.1100716025431537 0.1935562325103437 -0.2568954360366168 0.0933644874441373 0.0845778497513490 0.1313827390794630 0.2886972766525137 -0.0501419915972378 -0.2905685210559258 -0.0569265384466939 0.1600975269058652 -0.0735179796724505 0.1377506632097654 -0.2455353693738624 0.2188955421094092 0.2047411616575264 0.1838485440151711 0.2906676457880411 0.0183400070870128 -0.0977555620961464 0.0952738776114380 -0.0029293393135628 0.1103431549048765 0.0132108738046671 0.0680277200281771 -0.0323300619122019 -0.0681638911584621 -0.0836450682127069 -0.0754621804596621 -0.0602021306556340 -0.1990632578453818 0.0890306552067628 -0.0734862145485157 0.2453245368054170 -0.1487073108535694 -0.1045965122454285 -0.0946717000746567 0.1598933041344379 0.0537344188447800 -0.1465586804180400 -0.1287727952910134 0.0124226221662819 -0.0350100014897529 -0.0143684499690594 -0.1155780832018295 0.3535161624712778 0.3026670034216583 0.1842167371616901 0.0824791826589441 -0.0229991399733470 0.0775400395715070 -0.0650161870821074 -0.2794502625265590 -0.5577230240995801 -0.2185143406234896 -0.0305573180636563 0.1442899051901654 0.2862293727781715 -0.0098892482216451 -0.2047706409180846 -0.0430979220156296 -0.1398943854198642 0.0017558746626040 -0.0240142454438704 0.0862836208745384 -0.0369916995003592 0.0571006640227520 0.0148474322878240 0.0899270561239932 -0.0913569846920579 -0.0567366727290455 0.1920963381899403 -0.1476664772172247 0.0914359385008427 0.0299283605494143 -0.1056133215747547 -0.0330871177271333 -0.1015494582213642 -0.0032490127576308 0.0252245892705947 0.0017914903192583 0.0077896686864797 -0.0550991665182447 0.1022607882811184 0.1707593801466838 -0.0262275767956513 -0.2649259754842188 0.1102059724675584 -0.0180190456862783 -0.0321076565744346 0.2618713227050410 0.0487791711231776 -0.0133058721580227 0.0152224284641197 -0.1018755107378933 -0.0599383654268649 -0.0758084329062167 -0.0320931424202431 0.0935669208029478 -0.0808157862783631 -0.3056480890376502 -0.0798127601938550 0.0176849087421779 -0.0906550504131550 0.0553971670236983 -0.0353966395099789 0.1304562800466652 -0.1334331515748777 -0.0498203502387620 -0.0415970054795054 -0.4019853468089603 -0.1665534702308486 0.1552804034029678 -0.0330257052009678 0.1400378607266168 0.0038796610297360 0.1059784469756485 0.0726115412391495 0.0773432803172717 0.0182518881486451 -0.1966330523533132 -0.0196619317122970 0.0988788159019780 -0.0754938651145931 0.1019772244642579 0.1878406390177832 0.1059631495402145 0.0359121884820013 -0.0721471680654449 -0.1065808330979131 0.2354048756270121 0.2153242160939741 0.0663860263569213 -0.1021106690961921 0.0061288059074762 0.0545020610997396 0.0004640293688363 -0.0582232195467365 0.0206295723823261 -0.0806370035074077 -0.1174749049323289 0.0413477734206568 0.1349417207642471 -0.0466013749646243 -0.0872125594845543 -0.0353994774471690 -0.0531316498308236 0.2154475486336787 -0.0778506420375276 0.1126514096272143 0.0290489125166662 -0.0483335137968203 0.0470371646855747 0.0599343461151124 -0.0134692126591415 -0.1687509420177526 0.0745872455434728 -0.1025135186855617 -0.2426618282958747 -0.0525097759644631 0.0482568202915129 -0.0724821856313245 0.1756262909258842 0.2483414106454521 0.0786062878580357 -0.1538478342021313 0.2456756486431857 0.2260230033720276 0.1092852497055734 0.1087493668140706 -0.0864081943096046 -0.0771791158619967 -0.1843862352858802 -0.1809993355923428 0.0048919580347033 0.0353211649533219 0.0524128357426702 -0.0378238748571599 -0.0761642195573726 -0.0705446089167202 -0.1000579455025787 0.1761619564762265 0.1560403380920192 0.0303408177075375 0.0706691921613791 0.0722399313771658 -0.1371086081738109 -0.0462161105971669 0.0278030088963071 -0.0955297738621129 0.1574590173724369 0.1406745694624825 -0.1184281987568418 0.2011171834284428 0.2750891914035808 0.0160536986031278 -0.1027199173701905 -0.0494491933808499 0.2076030908287063 -0.0445735868528113 -0.1400723944195304 -0.0485841223211835 0.0508027622511119 0.1392305374562561 -0.0584944334208312 -0.0661768886442644 0.0356493774924739 -0.0306572216753767 0.1449598288674745 0.1359925265752245 -0.0747153322023341 0.0239220921705934 -0.1315741759414394 0.2182280833614316 0.1526820672882553 -0.0414591459964883 -0.1063735873474909 0.1973130733074914 0.1293656180559903 -0.0725632416976662 -0.1189720307779973 0.0032467921632951 -0.3154755082813427 0.2789828107868991 0.1537933436107222 -0.0050481388504404 0.1193382885824070 -0.0188207860011079 0.0858776141932346 -0.0182011759682497 -0.1291115368698614 0.0556934905820459 0.0550224937130301 -0.1951882317400236 0.1806296360891367 -0.0077278312117692 0.0760837004661055 0.0225099215019925 -0.1488603163425251 -0.0491036638783790 0.0359792473041664 -0.2466355860443660 0.3241577095076003 -0.5253061434138505 0.2975751389217113 0.1226179174170676 0.1207978716799958 -0.0283840471168625 -0.0991731473105435 0.0039894343617352 0.0972891747517400 0.1297697338350329 -0.0663070158412322 -0.1696887710816133 0.0821151894851502 -0.0502927598399118 -0.0940654055121022 -0.1516879720869938 -0.1353282295378350 -0.1776010652090078 0.0666008002029966 0.0708160824660538 0.2479504894981735 -0.1664515321750521 0.2461065284366674 0.0497551952700703 0.1041695654680423 0.0115389846980989 -0.0410436791498125 0.0031328559270128 0.0733085935329604 -0.0464531446672880 0.0177751836015508 0.0350794620088193 0.1001112319723215 -0.1154340089716417 0.1652988655250494 0.1455889820328315 0.1528503111364575 0.1445213887932641 0.2207892918494331 -0.0796297782256031 0.0049781851235140 0.2259696893004190 -0.0036749467885371 0.0554219359586285 0.1174616829167524 -0.1327107629548999 -0.0377703827320166 0.1658580437217270 -0.0783004423691347 0.1608814328158837 0.0735906122718393 0.0774546668864789 -0.1975056451674426 -0.2034590879755487 -0.1640257045909655 0.0065552650475978 -0.0151431646295258 -0.0327304587243461 -0.0687309137445171 -0.0043142766433776 0.0427491680103685 0.0080739954558461 0.1262091531372753 -0.0071345408200899 -0.0190112225156724 -0.2972998951978543 0.2599918463604834 -0.0647876584639772 -0.1221254849876071 -0.0995692854351827 0.0726420610327931 0.0772381642810521 0.1411885582007100 0.1363885739519177 -0.0485177853785584 -0.0191548336304669 0.0388451132585000 0.1551957316332510 0.0236088379114199 -0.1593518326293450 -0.0575155292236733 -0.1484030860193633 0.0726234459231159 -0.0321717331861633 0.0590836714843023 0.0182033530095368 0.1357035340560558 -0.0196189197778507 0.1034750081671298 -0.1251324933258200 -0.0718936161250423 0.0048476775164352 -0.2704099619425410 -0.0425440501246979 0.0357363842667310 -0.0441565403648767 0.0622674779949728 -0.0588473046332561 -0.0737487652763363 -0.2153752266614730 -0.0452088809752478 0.0326678239490408 0.1373372292280933 -0.0610847779892536 0.1424576859561951 -0.0337397193216224 0.0226868006494283 0.0745019194328684 -0.0569239484550121 0.0343879709175659 0.1241945543805824 0.1146761011281041 0.0057288513465834 -0.1196499091021535 -0.1234513156974062 0.0281209466044404 -0.0275480824065848 -0.0049890207997316 -0.0170407538962239 0.0036207914979732 -0.0749973092962886 -0.0767195270859199 -0.0311884815046107 -0.0541896680503148 0.0307211354575450 0.0035119335021030 -0.0482853360840501 -0.2040065475174601 -0.3056164558981175 0.0280566119521982 0.1477692131960959 0.1833815926617931 -0.0384875140974111 -0.3128215813596131 0.4137809908772412 0.1343459535158177 0.0135459630119036 -0.0818673461233772 -0.1782070685696182 -0.1597020918024657 -0.0669083416349578 0.0514156911364621 -0.0085534590877232 0.2661517468554972 0.2979265330188601 0.1162184245605671 -0.1090814739188808 0.0648853530117327 -0.2079611132514347 -0.2163855127477005 -0.2444087396829372 -0.1332115819758178 0.0696214401930336 -0.1105288038855422 0.0898548141384231 0.1272657479722773 0.1044007141190701 0.1390320353812011 0.2429529958549971 0.2471454053731945 -0.1919219089893270 -0.1794814799466655 -0.1945761914113669 0.0226140777470697 -0.0672308187038191 0.2017132839580507 0.0670851111049402 0.0503262797115611 -0.0871824988394740 -0.2078667733824922 -0.1905690279627496 -0.3862963621991505 0.0557758066144991 -0.1048106964288304 -0.3561104350321141 0.1488316739877787 0.1178367954500996 -0.2035139950259252 -0.1173537794135290 0.0015257532570838 -0.0469240737244516 -0.0541544225116030 0.2017031977566790 0.0825069171901483 0.2000326060219154 0.2091131814365263 -0.0544635146856315 0.1305975735862829 -0.0328899774029234 -0.1401050839651458 0.4017021673599711 -0.1465658607101974 0.1840527880520171 -0.1345311682246405 -0.3229698790446023 -0.2624275693256828 0.1359292552415022 0.3617527981692965 -0.0121810459318279 0.0199595551850406 -0.0586932937741739 -0.0617453974473281 -0.0647872263952769 0.1689709679680810 0.0993643526836783 -0.0542516857512696 0.0930522229686751 -0.0588828039279311 -0.0475762672563330 0.1468193155952674 -0.0970637842144037 -0.3353267102736662 -0.1221941557394886 0.0804257388063209 0.0969847639006474 -0.0057088199590924 -0.1082220100557620 -0.1969783563239951 -0.1645650640060190 0.0691912204074354 -0.1178862764773871 -0.3723509622375631 0.1096677234086923 0.0994838077696543 -0.0339659015322334 0.2228416993730107 0.0660105301902485 -0.0258378159961787 0.2338628372746124 -0.1778272792379587 0.0133671116075422 0.1955228430043990 0.0255972338295908 -0.2066218457569387 0.0708357774824513 0.2196386691852134 0.0622006797399410 -0.1721596608637496 0.0694388214441664 0.2376357654415829 0.1016055762121729 -0.0313663933188198 -0.1997362042557582 -0.2848724352658230 0.2045879399523542 0.0645628860894128 0.0169453756695622 -0.1653905232979228 -0.1986481350160656 0.0447485067145138 0.1368716351915981 0.2081259713886497 -0.0169577368984449 0.1233872176810825 -0.1215608218728979 0.2619934554622551 -0.1292194465884693 -0.1700338932556341 0.3089130699228277 -0.1096629992039924 0.1486032686916081 -0.0640445021493329 -0.1392697866328209 -0.1258779616791886 -0.0728888734239276 -0.1011029746697243 0.0777003849414296 0.1287725636639649 -0.1244103268961120 -0.0538314728389269 -0.0115079272479763 -0.0828194263653622 0.1206775391099912 -0.1048927617884124 0.0437355101722084 -0.2640983008866039 0.0281534026664983 -0.0050099479423163 0.1073826572446232 0.0668899740645052 -0.2414275560024797 0.0603192364056415 0.1380765178138234 0.0844946503633809 -0.1356803206751909 0.0141526005709112 0.0035918227188678 -0.0826144810580121 -0.0673656187487142 -0.1434105372349138 -0.1752763714244567 -0.0195757674991236 0.1670254604366510 -0.2099223039445068 -0.0141909132299736 -0.0606633530244919 0.0731679324401740 0.0429032382299803 -0.1137231890867824 -0.0720663395443706 -0.1020808799185281 0.0541912029666707 0.0631951001568120 -0.0809682314934769 0.1244170902806110 -0.0188868817252032 -0.1399973834196651 0.0227249680280058 -0.0053216378510425 0.0335536177094367 0.2485026263813958 -0.2154794870020002 0.2427662062448190 0.1741112726772774 -0.1410457972434489 -0.0642362766733490 0.1611194285775997 0.1902565297311961 -0.1288550269107674 0.0716312203993360 -0.2786170749247283 -0.3291610698845914 0.2741460916628904 0.1768605002402628 0.0805644173611309 0.1034751803083711 -0.1775730633881352 -0.1506890035399445 -0.1735410700583789 0.1358055087195084 0.2379721038328260 -0.0565943654882322 -0.0468441239151647 0.1370350209376991 0.1473527200289620 -0.1386844012444755 -0.0151535566792917 -0.0499490717288598 0.1158920122856194 0.2592340194817374 0.0322931908664990 0.0528121079330560 -0.1322852644009204 -0.1417734849914681 0.2030933855471122 -0.1129097456971039 0.0815404383172744 0.0983300657006898 0.1173057613233271 -0.0975603398059009 0.0496926123872008 0.0337036555626523 -0.0325034754334117 0.0900361129960445 0.1032713478133100 -0.1801833106024298 0.2552071270051882 -0.0164120145561160 -0.1935362591052229 -0.0112609657719325 0.1251981619367825 0.1101535219640137 0.2614142202252460 -0.2771887994181486 0.0381150726474032 -0.0034299518011011 0.0024800513501048 -0.2194571882836209 -0.1955157451825143 0.2129396863091896 -0.0373354674632121 -0.0554393707609079 -0.1566533677244845 0.0009631752708277 -0.2376595240425133 0.1493794858998132 -0.0398051124624947 0.0317227275152501 0.0564275067092531 0.0146641361689705 -0.0036802688000386 0.1786296164899521 0.0048326305366925 -0.0433245182390565 0.0744754499144439 -0.0436790408059758 -0.0392025892161361 0.0438577183872676 -0.0671618078922551 -0.1460228297708931 -0.0040341586586696 -0.0776340867350015 -0.0086008895935065 0.1445377021897160 -0.0653262229034771 0.2258851728432052 -0.1286397944196993 -0.0721019908543385 -0.1227867358285823 0.3569914582950458 -0.2022587585104673 0.0964472347488293 0.0335458819390461 -0.1839846903352730 -0.2142843218302514 -0.0686498639799587 0.1972939366251779 -0.0044841984406926 0.0190148567657040 -0.0514409788422888 -0.0859484939885078 0.0556214276423584 -0.2398051962394533 0.0191393119355581 0.0203667806743109 0.1915962461588355 -0.0022434067980974 -0.1469721611382050 0.0849839715705414 0.0022363708412407 0.0465865173608662 0.0201453048906119 -0.2492173985430850 -0.1230778497497418 0.0530498939745743 0.0296943132493764 -0.2089795182492109 0.0155150048561791 -0.0487881203951295 -0.0061520465026398 -0.0775686977585861 0.1459316423897623 0.0072023023959056 -0.0403387608024044 -0.0066835305448155 0.0484198135049496 -0.0555388275852862 -0.0355773166257925 -0.0845090784396367 -0.1674901337008610 0.0124936451582132 0.0375011784869701 -0.0902641018035228 0.0054795794719228 -0.1064001686938917 -0.0912564432494941 0.0261876258740091 0.0804573803997440 0.0861813783789897 0.0565475809612303 0.0602152487637109 -0.0181503270340519 0.0362827597262402 -0.0057880756475170 -0.0267887941531184 0.0628079608627903 -0.0288076078392546 -0.0265076562968086 -0.0114510376041720 -0.0836569606945318 -0.0762039468519872 0.0743979770273204 -0.0972118685042171 0.0976597329396073 -0.0065970913688095 0.0639258991080466 -0.0466916277159964 -0.0102330571201768 0.0038413481128917 -0.0619292858554398 -0.0447187213622077 -0.0489005236349471 -0.0325060603077417 -0.0335677068635839 0.1525167212955146 -0.0397626424851625 -0.0203760054675567 -0.0931622882699542 -0.0916004877543789 -0.0212576567992513 -0.0199037900403317 -0.0037559959190987 0.0008926350941699 -0.0797738295924580 0.0816320357508811 0.1210074709833782 0.0010053312944174 -0.0261768541947191 0.0262730588452972 -0.1074101336064825 -0.0724502256956570 0.0249351844293183 -0.0003252785350813 0.0072119427935486 -0.0535351027560986 -0.0156962892745248 0.0357658851686542 0.0858465631732761 -0.0425179392372828 0.0700329317265743 -0.0382639787262452 0.0342091362118566 0.0322058807482039 0.0285501484614990 -0.0523000605292066 -0.0330227943067531 0.0189994640750932 -0.0187822127156256 0.0208407553057557 0.1338764211878321 -0.0793666692953487 -0.0499005243214229 0.0763956486402845 0.0548776757835559 0.0772462821153945 0.0158465863287151 -0.0384729403680045 0.0319199881690593 -0.0440967390287802 -0.0461691776250798 -0.1058915601021330 -0.0015852596721639 0.0388781071564187 0.0549920207630649 0.0775814103814295 -0.0361702279263261 -0.0616690203270915 -0.0416721568477932 0.0430076376929048 -0.0747917559616035 0.0628660248245223 -0.0147640552690267 -0.0113821628361619 -0.0137364376261905 -0.0349983489257076 0.1480725600257105 0.0280624279077538 -0.0355290967743927 -0.0468527194080427 -0.0085638886202877 -0.0398953168173936 -0.0993184991613383 -0.0263633849406486 -0.0476960222018107 -0.0646968264496658 0.1143178068925423 0.0350610102949039 0.0338343933177883 -0.0573353435131958 0.0162277616550867 0.0825721938565647 -0.0364694737819084 -0.0186766771591514 0.0392485643215162 -0.0736046933403065 -0.0439358142032840 -0.0651289522241459 0.1686320827042654 0.0637357360748270 0.0004827523324388 -0.0057061794796598 -0.0183914011198685 -0.0098720810894534 0.0211999451240893 -0.0162312327382580 -0.0040950585469604 -0.0061808643236055 0.0469854380972019 -0.0680225282460005 -0.0594476423532623 -0.0525833408384622 -0.0094840946202753 -0.1264743786537151 -0.0390978550299803 0.0005395593758790 -0.0082697746018132 0.0498575144694218 0.0708365012603710 -0.0110322340963415 0.0696387636082439 -0.0541895616171314 0.0956545966144062 0.0620078856624894 -0.0485178273259172 -0.0924699769146970 0.0378921834696451 -0.0157898792283093 -0.0029404787556641 0.0003209402220456 0.0073896642514199 -0.0888499086045245 -0.0185790044454452 0.0947995110341285 0.0225850356801581 -0.0096591838737372 0.0804497696144109 0.0241539913194445 -0.0131673380406801 0.0224282425847424 -0.0010377607557038 0.0165759296537049 -0.1279003163562437 0.0405806398141710 -0.0380569809327906 0.0330017904612859 -0.0159013232915718 -0.0834798762076853 -0.0702448783690254 0.0752171054236487 0.0493367696082985 -0.0492943339382532 0.0013793759878644 -0.0848604387029343 0.0135810700105016 0.0382754962767275 0.0857091884936839 -0.0293486955621684 -0.0284619648931334 0.0681426551263217 -0.0351883819755332 -0.0020511603654808 -0.1442330538496367 0.0624353040634948 0.0382217003663290 0.0303750868017690 -0.0497052993419198 0.0960518178291458 0.0224132052511728 0.0400393713996212 -0.1028528145480565 0.0411893982955820 -0.0377241811705998 -0.0187796716763484 0.0359065922999385 -0.0569201400392025 0.0362440372641439 -0.0491394422610444 0.0157348683712787 -0.0411457395273407 0.0270055830749964 0.0080701017155984 -0.0171846225546259 0.0119418312765110 -0.0543782504028630 -0.0005357157979444 0.0063357871187570 0.0112981746588279 0.0022466965132686 -0.0481759737997731 -0.0536081194577938 -0.0429807530789210 0.0399392622685368 0.0192897917116151 0.0236258144302952 0.0351661394697984 -0.0116277494519678 -0.0290817614367273 0.0743782791026840 0.0430268080505349 0.0016713589536254 0.0139340620510533 -0.0132878277463381 -0.0810163881951978 -0.0228439624691736 -0.0261982313423148 0.0345861189483654 0.1105265431162547 -0.0496914065446958 -0.0166750662551701 -0.0022727900908336 -0.0344604162913201 0.0973268832326710 0.0614897675493200 0.0715902165793844 -0.0397188822316410 0.0565652185721335 -0.0347102328030665 -0.1120255757474936 -0.0265300208180767 -0.0327597116284660 0.0306458723951212 0.0209717574695252 0.0613051275618339 0.1044039954383774 -0.0198154436020505 -0.0974451265069406 -0.0497325294645836 -0.0188364778567070 -0.0201223595828617 0.1612593840964922 -0.0208398153864917 -0.0337480245321128 -0.0116078567186082 -0.0167969172160287 0.0017041507730116 0.0117587423662628 0.0624209493964992 0.0021764994383940 -0.0824937116183495 0.0871191878388917 -0.0106998376364111 -0.0698988897721335 0.0279846899512528 0.0079457311974516 -0.0612253767690124 0.0497704981681808 0.0140476822800201 -0.0384608024637979 0.1348811090802763 0.0055839626532032 -0.0168445492345068 -0.0145910503670522 -0.0482257478779434 0.1624243583189662 0.0101688378068791 -0.0043882218428023 -0.0517965692736124 -0.0038282746713242 0.0675105968701521 -0.0301519836055125 -0.0162322306441704 0.0355987310477062 -0.0303684471803036 -0.1021170601209106 0.0028558752937887 -0.0387209194756187 -0.1341572208783298 -0.1127059305677687 -0.2233699702710535 -0.2088366194082730 -0.1756554130520162 -0.1358952859364763 -0.1912216338386394 -0.1794252436684703 -0.1294993576076867 -0.0590378055839154 0.0875246121805152 -0.0364095485560050 0.0783391351385188 0.1414196007188408 0.2134564241117346 -0.1435802045949344 0.1513828440285587 -0.1040840556405356 0.0121417034909883 -0.0841037211855637 -0.0677239243172338 0.1973370157117567 0.0026711063028270 -0.1151888630824766 -0.0729451977273204 0.1460678725216536 -0.0809133457400611 -0.0006678682434674 -0.2484683171107365 -0.0362813686445755 -0.0925198711050637 -0.0855315524980993 0.0279647611767125 0.0119174733607593 -0.2509952434292559 0.0617785800870559 -0.2904801577038698 -0.0996058653902431 -0.0068184124587156 0.1627686034761058 0.2806993876364707 -0.0444088375678950 0.2336255110175867 -0.0469559621996167 0.0028869461074068 -0.0145810210560377 -0.0779982124397252 0.0579953684610193 0.2076096011703222 -0.0080254531076550 0.1629725657244870 -0.0036812773449060 0.1934903020966914 0.0668100449318015 0.0808004785686839 0.0832425734436997 -0.0656898077196839 0.0082891824318450 0.2014594659552443 0.0349599984014632 -0.2274890548882318 0.0617292696717486 -0.1901985388415832 0.0416393691152680 0.0800700388269786 -0.0381902039309324 -0.0807881196336099 0.0131158970575759 -0.0349603832228989 0.1178571001883689 0.1309514522621848 -0.0327157621881705 0.0053447655435642 -0.1214814325803734 0.0827853654819181 -0.3402821718991434 0.0442384322261575 -0.0138833585002227 -0.0800060763497110 -0.0763244839971072 -0.0501358378275121 -0.1257848969478305 0.0072580218746757 -0.0418487114513116 0.0935051126639349 0.0650386493758409 -0.0814365569331492 -0.0155466934324302 -0.1369787121311902 -0.0030453019951384 -0.0964730151931017 0.0756684751111507 -0.0126500795133792 0.0552243746708335 0.2442938129672859 -0.1881722420845216 -0.1651981732233921 -0.0035495125825635 0.1081446404252452 -0.0034494294372148 0.0988527466199775 0.2221516515115581 0.0906305653815730 -0.0917081490950421 -0.0540082121390487 -0.0484350490693611 -0.0693055347346353 -0.2107076637428590 -0.0013917666772661 -0.0144562709700428 0.1033976732560663 -0.0797461155945637 0.0609567170143960 -0.0122216513563558 -0.0480608673088571 -0.0213654458177822 0.0011161582687839 -0.0805897545932153 0.1100326974268539 0.2104170344103636 -0.0221740598098605 0.2551629840420134 -0.2113820499927222 -0.1402901644557109 -0.1051127598737580 0.0460143153989952 0.0964668600579844 -0.1147427154456860 0.0489809624675427 0.0714010894231527 0.0062382965748474 -0.0252833884616225 0.0283559188053813 0.0950226475213499 0.2389636958293027 0.0690344209219927 -0.1401726259598143 -0.0519329168554645 -0.0958575929590259 -0.0011729256932833 -0.0647048174117932 -0.1905118108274161 0.0635731996402069 -0.1374402801540474 -0.1603902648998521 0.1268600635371296 0.1010293669885788 0.0177505202250097 0.1993467785271729 -0.1433740335229914 0.0867051932531085 -0.1137513512304631 0.0191965769867433 -0.0221116334587037 0.0410313605801723 -0.1715846403708263 -0.1723787222348649 0.1222634377405990 -0.3215828240633193 0.3423039304560285 -0.3249952460273154 -0.1606726650770173 -0.0663625852157998 0.0635551004472011 -0.0310753888036198 0.0634777885521168 -0.1062894227262900 0.1121859643441300 0.0343572896072221 0.0164112170864350 0.2810435978077114 -0.0081381490578171 -0.0807109352871348 -0.2180048302102933 0.0406519219858666 0.2268054884681816 0.0861961687437248 -0.1277387712304372 -0.2488586375717578 0.0608411197327791 0.0533534021581195 -0.2323514983487223 -0.0787236515466618 -0.0204957083535554 -0.0669475904078439 0.0114872406689558 -0.0332003992584597 -0.0606279549875115 0.1030822498558834 -0.2177326486883409 -0.0065005196493761 0.0823315806062087 0.0151223788759425 0.2735654220632884 0.1486273198616101 -0.0544526461163481 0.0667369151777417 0.0349706569745187 0.0156501680244070 0.0026350927304607 0.0604211310657497 0.0270498933235487 0.0664097741965304 -0.0286478434274389 0.0859720860625145 -0.1105098481681624 0.0420144345363217 0.0854821423771401 -0.2019335168868230 -0.0725821514960981 0.0328749485648439 0.0020409782497420 0.0610789776924496 -0.2057852946659624 -0.0777262651789369 0.1710732769983432 -0.0102762012583428 0.0977721114754836 0.0903628251208022 0.1288345134948604 -0.0710581614647278 0.1115306496902045 -0.0384982448225240 0.1614276950046219 0.0758988961202729 0.0401529122077979 -0.0386077879276290 -0.0134421421397208 -0.0606886102027206 0.0819620419206462 0.1433190103309314 0.0297703233780238 -0.0311470570910992 0.1075939063871176 0.1571113813410795 -0.2129205361351533 0.0171546739254546 0.0193218424289066 0.0084398584944068 0.0692464388657089 -0.1873827854879001 -0.0600703418422475 0.2238972626096830 -0.0248025721579180 -0.1119503856901142 -0.1647756400146947 0.1220668629752155 0.0053483444198319 0.0519307383764773 -0.0248798913914285 0.0932109689348136 0.1197735538748477 -0.0668470698190900 0.0901030689191971 -0.0068963182131162 0.0179796211850757 -0.0432891735714471 0.0792295749329350 -0.0078586648636391 0.0081403461755121 -0.0480384902904954 0.0806680619843305 0.0119876849010993 0.2110870689735548 0.0827911818611711 -0.0675999297793101 0.0619786474040149 0.0441120578797179 0.0348071930167347 -0.0174903987914340 -0.1564349296084506 0.0374668050475434 0.1398341549064689 0.0539285258864662 -0.0587760512182152 -0.0069210654558754 -0.0801154372255331 -0.1491365886112519 0.0775510682135692 0.0067492454254425 0.1020876587428089 0.0906847613119928 -0.0828131715921939 -0.0596211501658375 -0.1771024660711032 0.0113917789813345 0.0413602507340911 -0.0527977143634390 0.0661778398141737 0.1915309749113329 0.0169214484122643 -0.1216423349958700 -0.0968366629266395 0.0602359618184382 -0.0115304584357666 -0.0379019508153568 -0.0471462360228634 0.1170947978207268 0.0117642775560050 0.0837689883958724 0.0225747196485303 0.1509042292607898 0.1325387253344440 0.1564021090782771 -0.1176956442323834 0.0781772023964906 0.0503895236661580 -0.0373953611751021 -0.1778506112801782 0.0680552177665362 -0.0102437827411338 0.1325415465548534 0.1552637216147254 0.1631821751352446 -0.0640581892172698 -0.0025071969798568 0.1175515813911010 -0.1917610215902776 -0.1686325684213822 0.1764156031646540 0.1119584111449759 0.0150509288454874 0.1408019114015838 -0.0010632422052725 -0.3926169131841007 -0.0998867935199979 -0.0858653599251364 -0.0109474822539948 0.0450921919734918 0.2090079990316849 -0.0313413997585484 -0.0306638205109058 0.1157281480118704 -0.1191701456654778 -0.0679082167527958 0.0008283361604753 0.0158901986129805 0.0327128684854942 -0.0619498454229821 0.0458502012401517 -0.0671492526803324 -0.0167293163432044 0.0708556620085889 0.0251287424292695 -0.0078445050943610 0.0795449475223194 -0.2283511881726901 -0.2363734217186076 0.0155446230791796 0.2121690149914409 -0.1157097276913257 0.1833339006824886 0.0087808483386816 -0.1827402317863140 0.0361566796161909 0.3242027320944124 0.1619641213124146 0.1347972532079156 0.1453102854194486 0.2460841921428070 -0.0632452768350236 -0.1384027356192097 -0.3411054444476708 -0.2298419659364701 0.1195124135622004 -0.1660791580528923 -0.1768167706539321 -0.0471758044182738 0.2129371966719451 -0.0138913066476185 -0.0765554853808539 0.1277467271704107 0.0518366762678519 0.0694629992076004 -0.0977126587531785 -0.2239361403977218 0.0167575781048823 -0.1847723565133530 0.1103307081445400 0.0498775886718327 0.0299979438644102 0.1621285374130327 0.1112742595510435 0.1703722634177895 0.2175857785171720 0.1065272906121299 -0.1018388796701009 0.0263462713210151 -0.0396431411027465 0.1232108808350241 -0.0166742295772264 -0.0827081739541042 0.0359901571405439 -0.0606293265807333 0.0824142997970776 0.0073275268628882 -0.1331219820365273 0.1372317882180106 0.0032814201709481 0.0620589067256110 -0.1369509360531883 0.1829927200137730 -0.0416799220828832 0.0223174991412893 0.1707266947690299 0.0379973938936330 0.0003086266612949 0.1608980983536628 -0.0601286664481701 0.1810166550539322 -0.0246013742384555 -0.1182394658422723 0.0680722079065669 0.0670740892258095 -0.0733590674125702 -0.0002103618515302 -0.0022153126598372 0.1077586789887363 -0.0098387888585310 -0.0643596896679557 -0.1253896816001430 0.0974044596645380 0.0187017994998121 0.1186880465193248 0.0052328014384630 0.1815085909269303 0.0613310840767777 -0.2112316671547985 0.0163513305623484 -0.0495018276183477 0.0167549966859593 0.1081016232518973 0.0918374975096820 0.2007173561844642 -0.0128097638485459 -0.1784312121341136 -0.1716606084656604 -0.0699340507748877 0.0634260257252779 -0.1125252869294723 0.0791895599921288 0.1166517550902555 -0.0065809964147952 0.0336658024242193 -0.0022429409429007 0.1606599738544747 0.0189112382916102 0.1954869636807212 -0.0430505733517427 -0.1111413990565913 0.0992704662099143 0.0599712397479246 0.1195809075626238 -0.0561475649107151 -0.1936072987966270 0.1801507304061371 -0.0017922120253867 -0.0500424195399401 -0.1168246337765545 0.0439158269817264 0.1170785879231621 0.0381326810931056 -0.0342545813001269 0.0659837194390545 0.0483062261955135 -0.2244537743969629 -0.0738721021664427 0.0217299591310758 0.0582011116596372 0.0942052204994820 0.0396635100580089 -0.0609487556427870 0.0932600581637624 -0.1629010633999462 0.0656268064214882 -0.2351220399750056 0.0941597897575631 -0.0763477771983996 -0.0664024412980632 -0.0913204476507299 0.1097823600997792 0.0063672833521399 0.0263523612201088 -0.1133411814220737 0.1572875708270798 -0.0551846468280296 0.2136606822289317 -0.0105418402536337 0.0685605803752799 0.2107675774806022 -0.2515358150917706 -0.0764770338774447 -0.0928255827628990 0.0238040614174481 -0.0027940775071426 -0.0156247432367237 0.1763758096845112 -0.2299449406761428 0.2346679005933670 0.0841161883742953 -0.0056852627953549 0.1158788599054354 0.0723464790640347 0.0175788890513325 0.0699298248762221 -0.0288036619595083 0.1047311645351466 0.1738936088848146 0.0982447687273637 0.1777092883460327 0.1008583131820691 0.2164334752178714 -0.0885497241557561 0.1510945361675267 -0.0839184514000796 0.0537096422019218 0.0832335696058930 0.1399502261060240 0.1407716052385506 -0.0426094663970522 -0.0910868712572710 0.0612391651634556 0.0371729914109099 0.1904310238519643 -0.1259061119608097 0.1203727412043834 0.0448024119404664 -0.1411975878973424 -0.0398764141782971 -0.0670106220859805 0.0024050496929568 -0.0239334798268565 -0.0472779861425291 0.0747358599425374 -0.0182570144365809 -0.0498169992868653 -0.0516345145675670 0.1034035118027287 0.1954663989984805 0.0713791052801854 0.0706681337232408 0.0437596490095734 -0.0227445385830454 0.1325835297747173 -0.0865806845835569 -0.0039244892384640 0.0159291244794399 0.0171469485749101 0.0423876705372206 -0.1109224952565455 0.1060957489339960 -0.1198390525521230 -0.0777920861591767 -0.0680268256173012 -0.1880071546382960 0.0571734487928090 -0.0207891047806974 -0.0905107667310532 0.0920518943652253 0.0047104519552271 -0.0475007861462868 -0.0955241282485257 -0.0865821856599573 -0.0337612113673703 -0.1032797234262560 0.0161644310627249 -0.0893128878941753 0.1450275063428124 -0.0489838673539916 -0.1203329375547445 -0.1290828204854786 0.0636308768846159 0.0249983088133134 0.0526037120350491 -0.0793498312491681 -0.0777557734708271 -0.1098581368358663 0.0479125099073675 -0.0313786937510102 -0.1702699959217755 0.0547754178701636 0.0989386122284989 0.0279308183112341 -0.1557432287993550 -0.0394228351133296 0.0057538110005774 0.1043795274171315 0.0756892985602951 -0.0807598878003780 0.0514317295723749 0.0437897326067322 -0.0085233302795846 0.1395965571705617 -0.0226324180547951 0.0172520469983474 0.0611643823843305 -0.0391593282454093 -0.2739090347575646 0.0774155649980139 0.0204444896559328 0.0578970344791251 -0.0801147047129702 -0.1333334542403192 0.0216409248032537 -0.0932939413863628 0.1470035322703482 0.1126845802820594 -0.0583809537173782 -0.0740710652111907 0.1182618124068075 0.0205774474795325 0.0327328745741716 -0.1150829877191871 0.0647176296149798 0.1059280972023144 -0.0512184315615134 0.0598775070350200 -0.0512099358301286 -0.0118601015167587 -0.0241512563216470 -0.0314256423581887 -0.1123000039666154 -0.0657402289225910 -0.0480720465660394 0.0420103220696762 -0.1467563837799723 0.0900988028002362 -0.0557495259975712 0.0213622861671996 0.0250561801357468 -0.0042097493223055 -0.0117464522580219 -0.1119854862753539 0.0386534334051918 0.0370614820701203 0.0858948299774360 0.0169412041403236 -0.0536239622646654 0.1205671011051373 0.1220047114441820 -0.0682409404943863 0.1022076535698737 -0.0569063907266935 -0.0191506069616495 -0.0304057443505649 0.0425293513344932 -0.0739989485919661 -0.0246909800109546 -0.0341570285308671 0.0896949209120664 0.0745245277514640 0.0565344396851902 0.0084656308189427 0.1179211892421533 0.0153256771412395 -0.0382174421987499 0.0271935476780160 0.0865719718870445 0.1844430166439515 -0.0658048565132019 0.0097613501512317 -0.0843739802024837 -0.1204178459229648 -0.0419522478942605 -0.0291990338767259 -0.0764441357158738 0.0426142610769944 0.0018133715277741 -0.0942864666614156 0.1514886712483320 -0.1044909409019045 -0.0883871794031115 -0.0106383254393284 0.0226965582808722 0.0166469565579914 -0.0815718869934583 -0.0254045564954415 -0.0033493865316260 0.0219171689403312 0.0241196350061999 0.0593174373482896 -0.0259352886349621 0.0927995389775945 0.1067314141998856 -0.0210432043878739 -0.0162391464434297 -0.0316852797305704 -0.1207707392470011 -0.0392901564565992 0.0509512862476031 -0.0148601567110649 0.0307531550732800 -0.0977328640295382 0.0102094469440293 0.0310826844032848 -0.0204576128468384 -0.1014041848474619 0.0568544218674393 -0.0177309775177150 0.0620344890761599 0.0892493993571333 0.0148222368696887 -0.0656727866045335 0.0381312279549959 0.0404078259589472 -0.1149115488833574 -0.0539867835306404 0.0245815595698144 0.0204765628417321 -0.1148056013904771 0.0567979355931241 -0.0393402567459481 -0.0227427091646388 -0.0496620902525743 0.0416444157624590 0.0068978041239488 -0.0284832584369610 0.1072953113772753 -0.0246951272205090 0.1509368572299875 0.0360814752935500 0.0719569431134952 0.0534851793344051 0.0125391060154356 -0.0942122520804463 0.0331030786434419 0.0209224947348268 0.0343121312258094 0.1305661565186557 -0.0614702608622944 -0.0273265954348177 0.0566769938658671 -0.0008531589088929 0.0047901896563783 0.1145229104568820 -0.0450046147723201 0.1523541059508052 -0.0139526852651743 -0.0095072687813742 -0.0918143831703168 0.0333294029303018 -0.0015135938243686 0.1192213705660544 0.1167227031358470 -0.0491062212729765 -0.0139270636602211 -0.0184289466531396 -0.0842328480525034 -0.0952114727224446 -0.0042471908939466 -0.0056909738471327 -0.1074152108947317 0.0395353446043834 0.0248312844749057 -0.0305767384684450 0.0931282149384716 -0.0932073941925729 -0.1132362702003633 0.0614839525442512 -0.0328105089893771 -0.0366688238527534 0.0096987230171718 0.0813906873592311 0.0693055568711132 0.0286613287706750 -0.0239142059720184 -0.0782076276156728 -0.0269584157175503 0.0372490481121388 -0.0708331382553874 -0.1029380359444740 -0.0818107426828478 -0.0567800563274837 0.1367633680206070 0.0975374945137998 -0.0662129078605522 0.1280729959545304 0.0015033603391060 -0.0124960921970098 -0.0115706865358520 0.0954059149529009 0.0824352447841635 -0.0762435423993292 0.1326927268149604 0.0833109331951986 -0.0803716804225615 -0.0347072394818018 0.0370426313948804 -0.0353969892561146 0.1277515358500824 -0.0471525867833418 -0.1202666261944274 -0.0723234324074767 0.0186433092315941 -0.1033684419543883 -0.2560458223425257 0.0683082429922575 -0.0632603355002041 0.2679356858115287 0.1486518148780167 0.0645796781592038 0.1123695998732633 0.0034690072560614 -0.1359070473177793 -0.0538630319706433 0.1266034378353650 0.0310632722235713 -0.1043132630798209 0.0920020019801952 -0.0256240072116316 -0.1028813099327111 -0.1515197510189890 0.0877690432202902 -0.0202030828266385 0.0625685396662148 0.0006531291707935 -0.0657698204324575 -0.0558653249176121 0.1731787256998996 0.0349958150732219 -0.0260136230225864 0.0822390390084746 -0.0114731186347164 0.1074190547204769 -0.0222025219537343 -0.1013750666389182 -0.0083140054760411 0.1143011369540481 -0.0629159574804844 -0.0683660932108499 -0.1196082646203065 0.0027333825225036 0.0765390742908628 0.0368479995611239 -0.0628806041497844 0.0453389920869772 0.0411515318703585 0.0476378979955593 -0.0021399414470481 0.0736465896432111 -0.0931129752945010 -0.0038018752376628 -0.0552879022559721 -0.0858977714364446 -0.0033848191204270 -0.0636007819869216 0.0396677926666373 0.0476644135580870 -0.0777027498775973 -0.0111551910165451 0.0114531238833581 0.0688839206661706 0.0826006186560630 0.0247095598677036 0.0643156534886463 0.1121787140909040 -0.0640893798245604 -0.0207196636283450 0.0009498057631992 0.0206189789354473 0.0527108480362911 -0.0700977558317592 0.0642995474507654 0.0570001885589277 -0.0297818057894462 0.0139608055979525 -0.0944570327749242 0.0463079406459150 -0.0869801215188402 -0.0164961160212347 -0.0709521970384225 -0.0924349419750280 -0.0195858436795624 0.0855880691481175 -0.0221827239339912 0.0032332414012664 0.0056606436962126 0.0793589452187133 -0.0670055321044045 0.0500846349265354 0.0123976744308450 0.0534850768573458 0.0220634502365845 -0.1078530140911447 0.0463126238264397 -0.0268562865491785 0.0077091994225386 -0.0077383350964896 0.0883709039214942 -0.0177859937248209 0.0524280935624269 -0.1074370664577449 0.0784242228842855 -0.0297796487589764 0.0674251436289220 -0.0434872636138634 0.0340050006963146 0.0413944650496817 -0.0117920673366792 0.0380152344062265 -0.0959870081912164 0.0408870529111172 -0.3258620742936864 0.2249684524302829 0.0147314092090426 -0.1282227603937182 -0.0207996433280891 -0.3580815891818080 -0.0832518657293571 0.2806321304199552 -0.1466540516062078 0.1310726205219910 -0.3923402471705883 0.1175699208029382 -0.2740568341914436 -0.0166266436389240 0.1402162650466914 -0.2922717497132539 -0.3941256270692546 -0.1159452890990990 0.0510867763774128 -0.2048843338509350 0.2749576094666993 -0.0965878774283840 0.0654080674695324 -0.1312910859845718 0.1663548442136503 0.3774625306042612 -0.0227734859528322 0.0902352580893488 -0.0304943870145098 0.0968819170199486 -0.0822305414067497 -0.2734409111395426 0.0216647354097419 0.1985247957163100 -0.0526569171521905 0.1108093090161208 0.0359970818739825 -0.1875060515363479 0.0710387039119700 0.0566728561991712 0.0678203902386675 0.0708061091714901 0.1946899583286993 0.1833809122900997 -0.0827972468157244 0.1858471615888656 0.0466647928075569 0.1156357915888196 -0.0500571813561132 -0.1788945433023533 0.0083569126939533 0.0052651409400855 -0.0890489960013955 0.0299232051244041 0.2260032324028585 -0.0388646843483001 0.1763829496614764 0.0937168815979657 0.1054067922830071 0.1163536660994449 -0.1614631908523436 -0.3171877052033711 -0.3468363412194468 -0.1233452240955243 0.0534246983075512 -0.0427704418155820 -0.1602218225723912 0.1330736777081793 0.0549365166147015 0.1889323437936273 -0.1014649196305735 0.1580438569167808 0.0177351014322699 0.1204654577848667 -0.2264452707959956 0.0038728864909684 -0.1099792006322415 -0.1373908354118323 0.0473221719796487 0.0929923222929124 0.1377926658482995 0.0347878755246292 0.0624001540694799 -0.4289375326693825 -0.3388656478848922 -0.0808532717435114 0.0072584848975947 0.2960215318862423 0.0081297006528002 0.1553622867275949 0.0129311689393744 0.1384948479140915 -0.0693831990676608 -0.0189644651520883 0.2628104187735763 -0.1235373206816533 -0.0898420791623038 -0.1199971493849885 -0.0582102284168293 0.0377827927878960 0.0513549861407760 0.1387544760281799 0.0329447259741928 0.2939610895719948 0.0032266372391288 0.1821865347712601 0.1548851818692638 -0.0102603745145740 0.1936550224418765 0.1313541277602812 0.2787425730728302 0.0574196399716281 -0.0949942406529709 -0.0187448232547221 0.1161004916975034 -0.0868885843469668 -0.0951707015778436 -0.0921363283482921 -0.0603074205871407 0.2333246069206916 0.0645947829195743 0.0443652193932559 -0.3865219585878955 0.1196325251596467 0.0906899012704545 -0.2423014433685191 0.1859892136163951 -0.2687437857600981 0.0289032731808798 0.0916542145697548 -0.0426808132757219 0.0507095259106208 -0.1224421263140127 -0.2586495625035248 0.1249444279296869 0.0742879272477766 0.0627685472284994 -0.2565591694356679 0.1819565789808660 -0.2602493045736390 0.2125284176451336 0.0762011180699085 -0.1592561343409385 -0.0558743089706916 -0.0130822661025821 -0.0093764360361938 0.0401583315016863 0.0013072318830906 -0.0768082471164337 -0.1227967129062603 -0.0632535776086876 -0.0503217221805009 -0.3530090196284946 0.3511770194241493 -0.1557863167127497 -0.2221437676202609 0.1714155116218824 -0.1173346111154643 -0.1277563968634765 -0.1335380029495860 0.0707808360719516 0.0181397928861133 0.3801747436915908 -0.0833018184481275 0.0191247379805854 -0.0622285781996162 0.0446746815576187 0.1565641387841386 -0.2253328340772892 -0.0021317796722617 -0.1302550437857670 0.0087850624241345 0.2228800965450032 -0.3498927944080449 -0.0226081214320645 -0.0894039456392307 0.2094171480437547 -0.0074026065267023 0.2194028968023386 -0.0396375848567164 0.3303625621318599 -0.3279478160275011 0.1022727211572816 -0.0349529558580461 -0.0436346589869716 0.0740428649551001 0.1734148818547177 -0.1310031190219641 -0.2040142827194490 0.0239786168420320 0.0349274030481180 -0.0841715275113317 -0.0126640622156331 -0.0548262103697195 0.0980032387818040 -0.2274844463724420 0.0391505381041148 0.3535813640719763 -0.0277193705749571 0.3104890245006270 0.0188319280857254 -0.0004619923374582 -0.0244702649588115 0.1917132705369742 0.3826508722509190 -0.0519478070168330 -0.0213232859752740 0.2755143076408290 -0.1122627432355016 -0.1918848206084666 0.0566164432960101 -0.0717275520639182 -0.1530140074753778 0.0363738718412441 -0.0785502563049113 -0.0705726937429813 0.0449401798995580 -0.3278489046131670 0.0855191566299623 0.2942897589717461 -0.2929516440542294 0.4408116067545597 -0.1446579504649184 -0.1046421957877579 -0.3445798423679213 -0.2509026673445764 0.0438621629778567 0.1528597755364611 -0.1608864716931345 0.1379844013364775 0.0969549228123091 0.1166205945204505 -0.3254065030113473 -0.1427721809348493 -0.0078199419294399 0.1607023121818397 -0.0071969442646559 -0.1585752033965281 -0.2091365575093439 -0.0205201345910808 -0.2091301422571875 0.0702644673303381 -0.0265730544808008 -0.3017759814624597 -0.1639996307860254 -0.0655185835119454 0.0816482677734737 -0.0572233201779857 -0.1164069566994917 0.0918948539286662 -0.0895293596754145 -0.0580029446539496 -0.1301159227304947 0.1630762952015105 0.0737402548728934 -0.0154095106856502 0.0938009773422335 0.0049559148496036 -0.0366258635123487 -0.1834822697608466 0.0360847428783260 0.1233251527853682 -0.0202972111216763 0.0373268059681222 -0.1581706444265983 0.0889945204347715 0.0950153625563431 0.1351261566156539 0.1691372187236531 0.0456749093579503 0.0571826345184571 -0.0551717972268306 0.1758173143956183 -0.1385670092553527 -0.5131483414830013 0.3949615438240677 -0.2508401516306679 -0.0741885850111748 0.0153876171200769 0.1387275490200822 0.0128339988209676 -0.0126798746930961 -0.0733428588729696 -0.2104969719458797 -0.0972682370866702 0.0557503984954317 -0.1481623371591956 -0.0149204920019017 -0.0372380242952290 0.0120541425756761 -0.0680126811451794 0.0356847951959513 0.0072889145588085 0.0603461427832298 -0.0165208581988426 0.1203172772903256 0.1769440885304456 0.1968993198019502 -0.0277204735595473 0.0472971482492908 0.0129714675361398 0.0185136732772867 -0.0367688199861390 0.0655180838626506 -0.0532380526494268 -0.0338980957706148 0.0170630581813868 0.0503931914675424 -0.0356495743599903 -0.0123207617814500 0.0285983326937234 0.0464349239797385 0.0490018789839350 0.0452678679536927 0.0017399902729588 -0.0227150062628110 0.0569310066818082 0.0116567720893596 0.0162506895873133 0.0000852476513020 0.0135278318309097 -0.0076101356274029 0.0371010574731355 0.0154418741651809 -0.0387831198406570 -0.0008566741728707 0.0406162066134159 -0.0194635149296585 0.0200709559373966 0.0066229401633276 0.0011639616282361 0.0304016129338112 -0.0120142885689092 -0.0177165663517501 -0.0295265775109522 0.0072978611315853 -0.0361455508623849 -0.0386860702419465 0.0103116680364900 -0.0153553878004572 0.0297701500564819 -0.0322986861041804 0.0268259925818409 0.0026324123326150 -0.0283213031619979 0.0089514675734028 -0.0275662371950214 0.0329408567497953 -0.0360881581868306 -0.0144023438924116 0.0296283243191103 0.0340894407098410 0.0386882539159158 -0.0175262410053478 0.0178353810111719 0.0654045185965067 0.0309152947063395 0.0444583615275088 -0.0087459851837866 -0.0043307691026925 -0.0251471171376324 -0.0046939085374389 0.0149736546627667 0.0085159916812547 0.0049739405035104 -0.0270630508812861 0.0337740548962305 -0.0150629327157305 -0.0060786023313646 -0.0083396118486858 -0.0173700885772182 -0.0044206214800586 0.0054607905770468 0.0235229039824708 0.0163338497212633 0.0255469927638718 -0.0048714455157631 -0.0301391953118734 0.0225875654432333 0.0071904194827457 0.0236390363081069 -0.0148502347552525 -0.0195597409824976 -0.0052121559066283 0.0054902828363856 0.0208255211042553 -0.0348402867681894 0.0206937106591073 -0.0004968295443822 0.0132507486931257 -0.0089048538558804 -0.0017547087114140 0.0105714423814505 0.0352563023867192 0.0160395551725269 0.0004370393960975 -0.0059159843308794 0.0025461899594780 0.0222893737895810 0.0317297876373198 0.0392371023508626 0.0358236399387312 -0.0020457711550880 -0.0450300859820328 -0.0085491218787053 0.0040046626946073 0.0129580877145184 0.0408662169337134 0.0038802087961740 0.0107221799771995 -0.0311017680800143 -0.0140237819425137 0.0038837195765217 -0.0041365064542416 0.0134750854266138 0.0178414901693747 -0.0428914532355124 0.0176627454518075 -0.0381708974846235 -0.0188542545090599 -0.0172297779853065 0.0002143078456478 -0.0057640211534946 0.0218659747836839 -0.0266143686486178 0.0363754720123161 -0.0284776576166161 -0.0026909739110614 -0.0338710415936315 -0.0016221299067858 0.0408187928353117 -0.0189636219482771 -0.0353438064456232 -0.0574705578489516 0.0219706706202795 -0.0103047381920280 0.0412372369960081 0.0529381804346383 0.0087814949980183 0.0512501234740554 -0.0309168243103448 0.0216651919347423 0.0536447347243713 0.0475033605315036 -0.0071059418042402 -0.0364628192655913 -0.0017921826980080 0.0135394281902548 0.0084527429345248 0.0177449684765808 -0.0323137371024198 -0.0076500301704994 -0.0443122902894034 -0.0017252143553936 0.0132807690032667 -0.0079812912828356 0.0191723628990149 -0.0271542598244052 0.0275054293418377 0.0064189864539825 -0.0299502773877346 -0.0152896881620348 0.0382125384540782 0.0193596221976205 -0.0031257964774065 -0.0205877099403850 0.0261390091424715 -0.0084127339882673 0.0008363658679010 -0.0181145234189168 0.0234746966523814 0.0199750762897737 -0.0073984428439559 0.0215239029702218 -0.0002414153634765 -0.0412391325267681 -0.0099816513423092 0.0098357017422436 0.0230183357529140 -0.0525681485153569 0.0020477120957798 -0.0287298836781108 -0.0268210643120020 0.0012813094983756 -0.0404039287488279 0.0173464879464594 -0.0165287954992326 -0.0256022949957607 -0.0118444943090870 -0.0117377637354524 0.0071393714934820 0.0216408431506360 -0.0009963748512787 -0.0123899815623740 0.0615818141409627 -0.0082352775240863 0.0353286970122177 0.0379426253269736 -0.0309917782301851 0.0015373416915947 -0.0132877091808956 -0.0583532637228957 0.0166664757764260 0.0091535269282740 -0.0121098313058591 -0.0079374964227520 0.0426779659069264 0.0107251381156084 -0.0392298963920939 0.0006103887264130 0.0185052435443392 -0.0160879284147688 0.0204477341095963 -0.0247093294481455 0.0241052345431474 -0.0286711667482364 0.0102740020001323 0.0262219255300257 0.0272729988778559 0.0084243582533498 0.0375310146150320 -0.0409021324129433 0.0127184163203826 0.0152086651957962 -0.0037970678759301 0.0042387909303949 -0.0240130397970183 -0.0110154631505008 0.0070478418479723 -0.0052307691349403 -0.0292157609386400 0.0243292468140020 -0.0132450186373634 0.0201220802218907 -0.0176651231333754 -0.0344471715914012 0.0151978477107193 0.0268299994916949 -0.0346398404932864 0.0354481298823184 -0.0164424409974269 0.0056484994223155 -0.0129868044122669 0.0201965102958467 0.0333397330876703 0.0414992425559791 0.0058410531114306 0.0047814491930086 0.0311895920715744 -0.0383687369494830 0.0216532796661317 -0.0287592189437535 0.0162714518076441 -0.0385857708854747 0.0261291905147607 0.0390637160361458 -0.0508132953757267 -0.0382816735492490 0.0326614966090479 0.0313528484379673 -0.0270480477004808 0.0080388294481759 0.0208111877008911 0.0035563492976011 -0.0168409119541152 -0.0205743666582911 0.0374622005324826 -0.0491885685376584 -0.0088580771334618 0.0170536749093808 0.0318987618288656 -0.0041858376039564 -0.0285136832235996 0.0372416882931941 -0.0500079617164970 0.0394128182390220 0.0342267320915212 0.0147228239178510 0.0286010463691418 -0.0060769076620813 0.0067138511190585 0.0108102001068889 -0.0110521778611461 0.0095019165555280 -0.0255541297354653 -0.0171746210953264 -0.0035075362030577 0.0359529433841218 -0.0410839678635998 -0.0368579109256793 -0.0304285766207436 0.0224975769939486 0.0497969073252360 -0.0432930365037803 -0.0108354716017945 -0.0015970546628217 -0.0375959449172125 -0.0139346998106795 -0.0242426025402192 0.1140732680193140 -0.0759674717730257 0.0931838387030913 0.0494652144990592 0.2188174652241410 0.0035086441240224 -0.2959419641218439 0.0576301715191719 0.1146868843034989 0.1381737182065713 -0.2932681031551304 0.1410902078977635 0.1645836275603691 0.1196068822097974 0.1494455933957679 0.2413935101353711 0.0993512584976327 -0.3387845210886903 -0.1059504792238653 -0.1428944426054424 -0.2251879809136821 -0.0583862424920054 