solver_type L2R_L2LOSS_SVC_DUAL
nr_class 2
label 1 -1
nr_feature 76800
bias -1.0000000000000000
w
0.2210252017315119 -0.3021234048917076 -0.1942735407367041 0.3612585479943886 0.7259082678931116 -0.0031033667742541 -0.0355154273835944 -0.8545243788117352 0.4518284882066125 -0.1181716993920088 0.0970259970934621 0.5391446143202224 0.5286653024368491 0.1676627954035120 -0.1039211055714611 0.1833962930100998 0.1138550940325888 -0.0908862196231756 0.0897825037707223 -0.0863523205758576 -0.1036830429653172 -0.1729557986876373 -0.2390003136952825 -0.1195789461422866 -0.2911742559291627 0.4718334003525386 -0.1218581815825674 0.0770989846596082 -0.2568582776344293 -0.3155583636788641 -0.0164194048391336 0.2750354565166953 0.2542187169294418 0.3232684335949501 -0.0180381351502007 0.2062012368363367 -0.0067147206161997 -0.1919531449394865 -0.1083908688065482 -0.1517091999454259 -0.1650016285312871 0.1458040552565867 -0.0524040157001892 0.1608199137195164 -0.0152537177332900 -0.1500335384082061 -0.3444976951377767 -0.1965305928542455 0.2219391031653260 -0.0133053196810519 -0.2266594463435868 -0.2032878208857763 -0.1469491261846008 -0.2153107761828327 0.2377825625642885 0.0182867812366327 0.1896311498217746 -0.0151277199759655 -0.2204919677713775 0.3512037830159412 -0.0564830758019494 -0.1384164282916209 -0.0308670832856074 -0.0520831114524009 0.0569759400693928 0.0648239406527306 0.0733519630971868 0.0587215816466673 -0.0801976416003868 -0.0290865275548148 -0.1657353199104865 -0.0337542044304805 0.0959045836760355 0.1088645311525201 0.0089972757669288 -0.0612819985537670 0.0248520491794867 -0.2465529615485402 0.0111638692466501 0.0267988831819665 -0.0154362370950615 -0.1242451807052798 -0.2370104247733165 -0.2621891153641568 -0.0690371513022758 0.2248726655933202 -0.0155953151926033 -0.1088743279304413 -0.0516885272505569 0.0835990784197333 -0.0460024471812575 0.0474576039578945 0.1141164456736800 -0.0658257093021260 0.0093662855874176 0.0449980655791688 -0.2154809273835686 -0.0453812316222002 0.0063658849729320 -0.1157620967551400 0.0645786919072998 0.0214610765404957 0.0540513601418509 -0.0186869019910566 -0.0334969995052882 0.2589718246142275 0.1346025432584446 0.0667776720267759 0.0794981247430029 -0.0788947106324329 -0.4122834533836905 0.0087472694940530 0.0752598144641455 0.0599137561462454 -0.0319959490528562 -0.0378574220828465 -0.0707180386736638 -0.2121872630610127 -0.1604447098008444 0.1893755790752888 0.2047752634390509 0.0646602046366580 0.0564951569113685 -0.1028985828830407 -0.0389911023483920 0.0276178757597041 0.1574193202973135 0.0092233602847490 0.1201020436110830 -0.0092157651264016 -0.1176099784138034 -0.3050657851383490 0.2835099971131385 0.1265891855783762 -0.0408691237738755 0.0290179910723681 0.0507180518338573 -0.1473631365423756 0.0107352818501477 0.1475541603878404 0.0210004064589884 -0.0818945269610885 -0.0138135205330516 0.1282447710919657 -0.0337840496820217 0.0534182438200905 -0.0973703871038689 -0.0042694653059029 -0.1040437954568986 0.0873427716852143 0.1134415143523817 -0.0225137577156438 0.0598971398340046 0.0525380913426468 0.0693531974755724 0.1499793026914530 -0.0379609320161181 -0.0298005469850662 -0.0636436296747119 -0.1412051228875366 0.0073444489029179 -0.1831663482732380 -0.0770027539848175 -0.0800271628730006 -0.2383605982845889 -0.0908974401447592 0.0790576177498525 0.3403574750993115 0.1200139956491001 -0.1769535322332985 0.1127782165439072 -0.0030204074781231 0.3161160708005705 0.0580763110748377 -0.1346601064107013 -0.0041652820228733 -0.0618384338952009 -0.2321434885928260 0.0227538050156590 -0.0738669573225295 -0.0244726107123945 -0.0621100303592778 0.0751699582634621 -0.0054040414763252 0.2767007882214596 0.0640881381983395 -0.2240315372564470 -0.2832507111006843 0.1097674716709434 0.1694856051984977 0.1229167477476946 0.1725462410874704 0.0500634855991867 0.0972898154566214 0.1916340242185131 -0.1355389045823603 0.1518257181133587 -0.1509887294776600 0.1742101202496105 -0.1446184043844100 0.3348463346294988 0.0286587837049846 0.0224193791867743 -0.0171720401944343 0.3361131406658238 0.2005094034288910 0.1317122108730865 0.0931115975315785 0.1268458146401704 0.1413049055061598 0.0597101973122560 -0.0779339112602978 -0.0557856703863043 -0.1070495651636747 0.1455213976441194 -0.0734252047410884 0.0514104853412088 -0.0110251086212445 0.0058548327742007 -0.0113631183561684 -0.1411967994585814 0.0880965177632828 -0.1318544403039141 -0.0513418695554695 0.2714203375455243 -0.0885698182052313 -0.0560115833800378 -0.0895506791356452 -0.0349154413046245 -0.0476780914437023 0.0597659078147951 -0.0757974691065708 -0.0642851638323411 0.0461984044057151 0.0155314343684608 -0.0331209102261655 0.0466585066123014 0.0465894233657533 0.0895413224428813 -0.0789160478596106 0.0014769742008596 -0.1796932016481682 -0.0243511367745777 -0.1452717314284656 -0.0491566172643690 0.1956532519250352 -0.0343780761258378 0.1789587679361070 -0.0154091644478465 -0.1429347653034640 -0.0260667693302347 0.0626025967602592 0.2236744787251383 0.3084482129317185 -0.0533323963460790 -0.2491093161040772 -0.0861983782769295 -0.0550669221236478 0.0690365446479981 -0.0413901326721264 -0.0953422230593320 -0.0871821299608996 0.1099178273232335 -0.0288114478211245 0.2176338080277231 -0.0282202243599399 -0.1770599282543813 0.0780106756524293 -0.1143964259128380 0.0600144320723275 0.1646653561804555 -0.1911885304416326 0.0028193374185829 -0.0542018589273243 -0.1513574381321548 0.1064321155757875 -0.0284659925701442 -0.1132847000116388 -0.1014729320103988 -0.0050001417564506 0.0288106117861994 -0.1713708184761564 0.0620660270022645 0.0459251242496523 0.0374344929107570 0.0711715380194724 0.1234391528950119 0.1931763944758941 0.0780623416973307 0.0276220785025449 0.0067812068740581 0.1316819975716040 -0.1792914780179389 -0.0922694545197159 -0.0652867276826639 0.0570625283872535 0.0817136745914151 -0.0098011167824429 -0.0880266491043999 0.0817767985070248 -0.0000635291807857 -0.0004777310755495 -0.0027765705889924 0.0003569587793142 0.0024641617699768 0.0003319551517068 0.0047299345576287 0.0037488917561032 -0.0000197870190790 -0.0009640370417513 -0.0028744387468558 0.0013182049082464 0.0005866874635393 -0.0028641929549483 0.0024591022028611 0.0016065284811214 0.0055394330501276 -0.0006077217478438 -0.0036907369406249 0.0032610786027375 -0.0070155643070345 0.0037555626508164 0.0013232516966237 0.0006039391640423 -0.0032910931033902 0.0038356502149019 -0.0044173871723271 0.0046560093519533 0.0010227859445666 0.0042535080117798 0.0020673184532978 0.0047315612796287 0.0025037738820530 -0.0024151407248743 0.0000118266127853 -0.0023513694407475 -0.0027204570276302 0.0029024770233857 -0.0028853410928795 -0.0010952504678352 -0.0017006769148368 0.0056749869592696 0.0054766776014789 -0.0002776855023480 0.0049987940521274 -0.0037861503091113 -0.0039414129793545 -0.0050130728433765 0.0047172150496348 -0.0058701779222488 -0.0041809558390495 -0.0046613054753790 0.0019766249919677 -0.0015511832956199 -0.0052867695667570 0.0016332369811910 0.0008916498243379 0.0041386262830750 0.0042200532844010 -0.0006152317476565 -0.0051397625678952 0.0037978177906793 -0.0031415642669095 0.0000978151987802 -0.0018398392928609 0.0017418618394427 -0.0047087400101014 0.0056464632671836 -0.0032819461821704 -0.0045013791561787 -0.0043388731592005 -0.0042876666201985 0.0012543689612815 0.0045060202714379 0.0036158450008615 -0.0003006206723561 -0.0004199428231177 0.0033195059922080 -0.0003827868306754 -0.0036345224224545 0.0046838192858055 0.0031083383040007 -0.0003550564812654 0.0030776061278182 -0.0042730798360090 0.0035827162503378 0.0043608668817142 0.0011164241518553 0.0021810716423092 0.0020610866249857 0.0022365148251236 0.0040301726779630 0.0011221282246542 -0.0001178628223486 0.0033766795966899 0.0054193207080526 -0.0040235455038588 -0.0055211741604055 0.0024565347094628 0.0000186144395331 0.0039339360735143 0.0015808496949606 0.0041105703400343 0.0047370030485201 -0.0044929780675126 -0.0019251277826997 -0.0059422223190526 0.0051208207801397 -0.0039092986622256 0.0064338452635126 0.0007229905797858 -0.0005097850732788 0.0030924516858443 0.0018392498590809 0.0031689780682866 0.0005481796605641 -0.0037178628692731 0.0044245377548537 0.0036085158214822 -0.0004401832763426 0.0043930356177869 -0.0013728703690145 0.0001527155403606 0.0045764535547154 0.0010326060112301 -0.0029872071573362 -0.0019602296563406 0.0021809989340049 0.0045263286882552 -0.0045320865368378 -0.0058165073881846 0.0045475588078287 0.0007621791867019 0.0036009806169919 0.0036009865626994 0.0026675808996325 -0.0005351690620030 -0.0016319760078995 0.0029694847992929 0.0054397173720296 -0.0028101422209572 -0.0057908014280133 0.0020635054908188 -0.0018559511388474 0.0037337555509764 -0.0037716186676608 0.0051446406660689 0.0028240727839243 -0.0033523228265497 0.0031190459488038 0.0011799270295840 -0.0024258451884823 -0.0040279992537348 -0.0010834770640689 -0.0031170163290875 -0.0007225075878362 0.0002428994751714 0.0023290806694701 0.0002628485909929 -0.0017646683230284 -0.0032257463222302 0.0044224065914746 -0.0025279287243088 -0.0027983787809782 0.0001732625776801 0.0015027200685432 0.0020738416532827 0.0006850783176683 -0.0052251388623978 -0.0046387042418633 -0.0038983870836391 -0.0046530814148973 -0.0023378662913607 -0.0035679219002648 0.0035383813777548 0.0026384881221196 0.0013086601610567 -0.0037647788232601 0.0019836033008549 -0.0036484650591367 -0.0034538121341570 -0.0006754639990403 -0.0007856004454441 0.0029855311855573 -0.0017400393639130 -0.0017264791065468 -0.0023511533304123 -0.0033170519166166 -0.0029315919894745 -0.0012216982793694 -0.0018218712243411 -0.0054998329435305 -0.0022741468426814 -0.0003614586166364 0.0031129823703031 0.0041552792191292 0.0015802439641348 0.0052041528557651 0.0030843114239528 0.0012921598309998 -0.0004414508049657 0.0026720888245869 0.0048895012781711 -0.0021943431313374 0.0000613834400161 0.0038655416123963 0.0018929147368693 0.0016764391245113 -0.0029741340048389 -0.0027160067315712 -0.0033564203477585 -0.0003686875509794 -0.0025070400768592 -0.0025245092271254 0.0028737503813899 -0.0008367574599326 0.0007605239739511 -0.0034838991367098 -0.0003396180595034 0.0032973931533425 -0.0021459856144706 -0.0027106412465506 0.0002649335210441 -0.0041671276623302 -0.0043224449070735 0.0026782456678795 -0.0039360190828546 0.0003181666476986 0.0005080233057882 0.0007472062729875 -0.0032722143289777 -0.0040064606272659 -0.0036757108950009 0.0000422135279728 -0.0004603326456168 0.0027408768557210 -0.0064094528282640 0.0047752801851205 -0.0038539780249410 0.0003563495301159 0.0060080822349531 -0.0004837112996895 0.0006090937563711 -0.0036812509664775 0.0006250929067438 0.0031577041190191 -0.0023569557313955 -0.0035326212396369 -0.0022450854062154 0.0022536250654338 -0.0008609532421233 0.0017135621199446 0.0004988705566826 0.0035859527767822 -0.0073789187137839 0.0025611938799573 -0.0029536239060607 -0.0020391875742106 -0.0001409172914695 0.0022878922158618 -0.0037661450591822 0.0018477195613398 -0.0068481968200546 -0.0049443877060405 -0.0010092998419171 -0.0002207613970549 0.0022088385321963 0.0037127384098284 0.0018392469935015 0.0022862127203294 0.0030616326050828 0.0027107400887181 -0.0003998057989687 0.0000123270021047 -0.0001407640931152 -0.0021066932449035 -0.0042303775899412 0.0023933127120083 -0.0019020184330565 -0.0010793633424064 -0.0002392053464674 0.0029496927797909 0.0033729300715929 0.0018352840330786 0.0022636553654516 0.0011696586188107 0.0023911095703765 0.0022948529400715 -0.0024332901907706 0.0024114753375679 0.0008353132496296 -0.0020688348280302 -0.0002401454748609 -0.0020206726902265 -0.0023873962633493 -0.0012358902106336 0.0015117058101485 0.0022802963347101 -0.0006561191311020 -0.0014855677334489 0.0079024804413782 -0.0190383450333441 -0.0022254016781903 -0.0118591179249044 0.0135096208711131 0.0125916170227306 -0.0293023446650596 0.0058314372974772 -0.0163666735890275 0.0033614541129962 0.0249329741981170 -0.0185448069790356 -0.0379857234683459 -0.0273467712020153 -0.0299816939344644 -0.0027937252010602 -0.0271735128272550 -0.0293785276365083 -0.0255671367989795 -0.0239623187504488 -0.0298460721247672 0.0090556853230970 0.0016278812258859 -0.0056251195438728 0.0161731266770378 -0.0106674337242242 -0.0119844547736157 0.0079091306682986 0.0179584778057328 0.0058288721757196 0.0039428291438761 -0.0183713403005414 -0.0262212444473384 -0.0261367594401847 -0.0003649793710045 -0.0051316984407829 0.0274355332568209 -0.0241778058795359 0.0019913692772931 -0.0217997675834379 -0.0127155644496753 0.0210944168989780 -0.0232000503751647 -0.0219814650282187 -0.0192994487194746 0.0073920340708726 0.0018939091007121 0.0053423025505980 0.0063417688870181 0.0136459550192400 -0.0003430656553336 0.0062660173390859 -0.0049056522075602 0.0220403726387225 -0.0107609746534984 -0.0237633585885513 0.0015440280256616 0.0320683169839119 -0.0083328317935430 -0.0206298062510048 -0.0084111596770088 0.0250129633263805 -0.0323542149580081 0.0368457722827346 -0.0153660319006594 0.0063572663412378 0.0208362785139419 -0.0131095820697037 0.0204426106815278 -0.0107583975492315 0.0122705476383281 0.0122019053411183 0.0057547932355506 0.0040783533907851 0.0089387524573887 0.0090545864111825 0.0015720240643815 0.0102687167870675 -0.0189270813711935 0.0032412361558098 0.0156260492121010 0.0174407474164378 -0.0021609272103426 -0.0139587239468118 -0.0152581574299522 -0.0171067858234583 -0.0354296818808062 0.0048136212798340 0.0148530578964977 0.0385933206532129 -0.0171878994542208 0.0006945327820572 0.0149096493363112 -0.0095256581342706 -0.0442130584585302 -0.0341578261331570 0.0167367901655788 0.0203597218565709 -0.0270706409531768 0.0191578239808280 0.0075347346904550 -0.0127170301972487 -0.0313867176724898 0.0122920586933009 0.0327703904429433 0.0432300209421359 0.0156707201697890 -0.0208719140100093 0.0015892081194887 -0.0126460001087393 -0.0129133517577148 0.0194335185351585 0.0173168960651873 -0.0105170498214773 -0.0017163417908887 -0.0062283246975246 -0.0045293620897544 0.0270363640816747 -0.0106168001726108 0.0019926343021238 0.0036708291708055 -0.0050861798592527 0.0011086603741392 -0.0076368620126887 0.0153724410204845 0.0151444061838931 -0.0007086839560378 0.0014495936769298 -0.0309239405178752 0.0039784944436257 0.0046763999038823 -0.0138990156409243 0.0194603603860304 0.0075989755157848 0.0151613888188897 0.0274716720903492 0.0069965438009763 0.0169371334289990 -0.0080023367104850 -0.0159546739962891 0.0003737487492695 -0.0186844220700304 0.0069903019429328 0.0074961189127222 -0.0182593036593958 0.0007251023968049 -0.0286068792103388 0.0327081750696618 -0.0079476292013424 -0.0063997616437845 0.0140920806233768 -0.0269001666198077 0.0370759747762175 -0.0211213230096040 -0.0294980548267277 -0.0145139728271112 0.0047560952260233 -0.0143004783612566 -0.0012866147811261 0.0086916854270967 0.0144199269077894 0.0021378139296561 0.0247222994365791 -0.0115206081614135 -0.0081455438509040 -0.0095662901344807 0.0200476996840141 -0.0245074687844799 0.0011139467140115 0.0382437653853209 -0.0002614646878522 0.0072831552836692 -0.0221069168994400 0.0009923957097729 0.0108700379985174 -0.0001740444214590 0.0069850464161127 0.0089777252252984 0.0005574800190622 -0.0059006699440053 0.0099322485657820 0.0054128965167147 0.0215629081028289 -0.0090594680161134 0.0052484770064355 0.0004853539717709 -0.0226528298873396 0.0240547564292493 -0.0034329876118577 0.0192704920636736 -0.0006484236486767 -0.0213160187771838 -0.0112569008263032 0.0140041139959322 0.0050991282321806 -0.0011288646762089 -0.0259978900378328 0.0069827984111915 -0.0171483554714408 0.0038278987377495 -0.0238944789119900 0.0138884525917275 -0.0272313708487017 -0.0152294863101504 0.0067998105125276 0.0160531816449049 0.0195029696932657 -0.0012435268547862 0.0137241652903664 -0.0115753013631520 0.0057104323093477 -0.0094833901897127 0.0128511571676661 -0.0151686353926139 -0.0172096146791863 0.0230172471868225 -0.0201083017612078 0.0023890501681636 -0.0079904254520656 -0.0041244080398913 -0.0115039657931592 -0.0001830382882175 0.0034865557652550 0.0010817447719838 0.0172077844006987 0.0099790910544417 -0.0152529143314206 -0.0068378275067152 -0.0168557859406171 0.0299255089223149 -0.0058408095354255 0.0101451364232725 -0.0140824486343613 -0.0133643377569283 -0.0033600282611502 -0.0186495429433290 -0.0003515803147423 -0.0011510457810096 0.0028317858483085 -0.0095610634933483 0.0048992243684051 -0.0083506921967466 -0.0188621348518286 -0.0084793801171390 -0.0065365242882367 -0.0039012418492480 -0.0093234814097881 0.0022346465939851 -0.0099277727336201 -0.0086144774074456 0.0001913719210533 -0.0061997379635605 -0.0069409304841902 0.0025046905817957 -0.0011326682480604 -0.0016309128045988 -0.0155792936113886 0.0022493980396146 0.0061321130658436 -0.0062901957877488 0.0080775594893752 -0.0113681768318908 0.0284714998422660 -0.0053982250895887 0.0121206477662449 -0.0041688875962574 0.0123732797040931 0.0035207061480637 0.0018449780542175 0.0019165781398945 0.0048800894339141 0.0110989893558580 -0.0005350076783432 -0.0036551851107007 0.0029272512266651 -0.0101157515287794 -0.0194083180921003 0.0136478546435651 -0.0059902916057000 0.0174268707607416 0.0019913888192827 -0.0010566890675803 0.0134857453099762 0.0001373586416885 0.0038520276265154 -0.0088892962720480 -0.0073379034927866 -0.0142161910337333 -0.0100411258704176 -0.0137600388775781 0.0013260528060334 0.0061902252743905 0.0068600856260899 -0.0023550972118440 -0.0026048075587752 0.0113477823519252 0.0070296735366965 0.0087205538524070 -0.0075080112352046 -0.0003637514326079 -0.0422479004803675 0.0266932281665891 0.0639398645707318 0.0009280112909293 0.0239684806747589 -0.0124010103398533 0.0110597317211853 0.0477404944754829 0.0320609701508350 0.0106550026876690 -0.0008242368224645 0.0082978726838856 0.0559805391453824 0.0329739924459813 0.0279099408324138 0.0246224322530616 -0.0248871166282845 0.0073243966107946 -0.0244012955133325 0.0275387568530437 -0.0132894777597107 0.0015668523255376 0.0414355610155698 0.0345684351330608 -0.0267156852237104 0.0471831544627192 0.0123005923332676 -0.0029932899915579 0.0141688071505818 -0.0204920006225522 -0.0063479496849807 0.0402478426226428 0.0343559527149167 -0.0483041761255029 -0.0169259566943614 0.0023778689274883 0.0310282523638851 -0.0273851048623305 -0.0141685877363920 0.0015704315626803 -0.0460583694153036 -0.0294960428371458 0.0281070257306224 0.0381980795266734 0.0312552879296979 -0.0103202739471075 -0.0210945156731944 0.0089047902830758 -0.0274168489212173 0.0469477494527876 0.0009400545622015 0.0503093448961269 -0.0172477333174512 -0.0228339385048071 -0.0013909325936946 0.0027372063604607 -0.0291823618730418 -0.0017791957480889 -0.0233314663107698 0.0135177466480780 -0.0123678426797549 0.0278989543415844 -0.0308120182357623 -0.0348550673209674 -0.0200784318118338 0.0365302450169470 -0.0539461616442093 0.0167870581981234 -0.0032665717369544 -0.0318359563712202 0.0119183044387015 0.0664568542274452 -0.0186039900384345 -0.0063352516829010 -0.0336799613540885 -0.0215343237319398 0.0244466133591008 0.0672574807055274 0.0074903443683782 -0.0067587395936105 0.0105290342612606 -0.0044128170724208 -0.0077594740773512 -0.0107990237578657 0.0263397925196773 0.0177882978702429 0.0498760897955678 0.0438162123666921 0.0010857848782690 -0.0137797815980334 -0.0129066133207894 0.0178754497366201 0.0350361832371304 -0.0224448205839119 -0.0098976821488208 0.0290090608758548 -0.0324076726401390 0.0092794269890647 0.0319160433013487 -0.0532840656682818 -0.0152383881195944 0.0553519905652862 0.0142755504112939 0.0221488264744159 0.0295712502476338 -0.0161759054982913 0.0094351995636695 0.0291633109831713 -0.0119711535403863 0.0189917185551095 -0.0146072442796230 0.0023436360669747 0.0324833689765629 0.0327219224651398 -0.0135866769347236 0.0125188723285788 -0.0058861699642026 -0.0058713005404122 0.0184069101343156 0.0081040041108233 -0.0307156061567659 -0.0414758611069129 0.0227411958953134 0.0124756922751151 0.0190566934781323 -0.0599221073565002 -0.0243807927635332 -0.0438288130778616 0.0441604241950410 -0.0274014263300256 0.0137073323687643 -0.0104957022529043 -0.0413237957929211 0.0334241704429850 0.0109029258426510 0.0439233100267001 0.0300759448786823 -0.0295224928030416 0.0028339974727483 0.0704180946808016 0.0165163233759507 -0.0030986373891754 -0.0157462216951529 -0.0241188006013038 0.0548448612308754 0.0225939137080226 0.0207789712988414 -0.0334577259329628 -0.0431031775551885 0.0244144086589139 -0.0061673583493367 -0.0184993562687985 -0.0377283902106309 -0.0322276302434725 0.0228831831989694 -0.0430243034585581 0.0105240500722220 -0.0618240358336283 0.0388103011299902 -0.0262473992785475 -0.0430587055556847 0.0265012730939657 -0.0154664275375686 0.0606461701209271 -0.0014956612195240 -0.0274134571080226 0.0254427576092934 0.0217256270215066 0.0167769937180585 0.0344477725157294 -0.0025101889587834 0.0148107803472288 0.0152379724994742 -0.0255483320583592 0.0277952950521902 -0.0069419462915898 -0.0050686060681851 0.0242074210185628 -0.0146464246132413 0.0369317294551947 0.0435639172065799 0.0084520714472887 -0.0127494282070144 0.0421356372248099 -0.0290779673476365 0.0018791435308669 0.0087683136415847 0.0236440616911358 -0.0106907636106447 0.0248470324475343 -0.0191291007176517 0.0688391471347875 0.0252301197552176 0.0102827185677775 -0.0021642945439993 -0.0131516808325202 0.0429928952403158 -0.0024269548912602 -0.0004306337078530 0.0005663862202145 0.0209913058929745 0.0508057778964832 -0.0262757070583131 -0.0329405785536161 -0.0151516316611609 0.0112000746068138 0.0325625474153123 0.0152534741561396 -0.0486407112912417 0.0042140940772002 -0.0068571092627103 -0.0158119341272239 -0.0367399295337998 -0.0279840687357699 0.0191111723812830 -0.0398405606677273 0.0152590884756813 0.0325997935023619 0.0358563434728269 0.0094647458716021 0.0053841488707307 0.0566998697228173 0.0102354544909071 -0.0436219376275390 -0.0461373947920860 -0.0106548045717033 -0.0370126568326515 0.0558790576128870 -0.0181141688435064 0.0179114511866925 -0.0030793144555636 0.0488191767591531 0.0156044322091947 0.0573661580251752 -0.0585415492335374 0.0123371498044018 0.0172179458230876 0.0163589581832621 0.0219837463187839 0.0149598378739606 0.0040826281312981 0.0238485430609072 -0.0558087563737485 -0.0043516302884701 -0.0199619876636010 0.0165455286363581 0.0227559393563216 -0.0064433636158774 -0.0228177475533500 0.0123102696347471 0.0049280706321244 0.0060385164254485 0.0153346109136859 -0.0012591152651318 0.0157039048495137 -0.0076890695323602 -0.0388890671222468 0.0106843877226800 -0.0002765800952754 0.0231153430859879 -0.0146943876784485 0.0053893572198937 -0.0386690935152941 -0.0322506533997283 -0.0215092554373313 0.0074522094423507 -0.0215831095016753 0.0144549433852050 0.0163716292105838 0.0379070962788919 0.0136558474616345 0.0011658693927969 -0.0108492044317363 -0.0122782224723621 0.0076571391181044 -0.0209946485951220 0.0064279372758311 -0.0119223391892000 -0.0017825101919003 0.0107214057581586 0.0117990144189227 -0.0015994174639714 -0.0127904833511595 -0.0247954435732585 0.0024820242694149 0.0184659969669662 -0.0294215595506625 0.0187766809812703 -0.0097602362542996 -0.0250440513812837 -0.0203328636513117 -0.0054790638783007 -0.0308405799554961 -0.0254383485325477 0.0195903060688437 -0.0189689753240849 0.0293373783396955 0.0127390403819277 -0.0181769409648948 -0.0248750478809297 -0.0687876446212805 0.1673294822015333 -0.2206446480913529 0.1409426492261463 -0.0526056120977082 -0.0004835797539819 -0.0771272023492484 -0.0119642164456401 0.4141980325439725 0.2015753938395558 0.0052837328004365 0.0353319224996057 0.3894891698370814 -0.2625627402540828 -0.1756703612174559 0.0092345387888564 0.1119502284376669 -0.3170884658195123 0.2355699636045367 -0.0507630795474987 0.1868576290650923 -0.1662269707061188 -0.1224640961473231 -0.0014399753634855 0.0609064442184904 -0.1931579097584153 0.0980342090497646 -0.1656880290595195 -0.0828823755619544 0.2465762349551676 -0.3012044270799878 -0.1528217107284232 0.0531799260800922 -0.0206153590933657 0.3211474124351661 -0.0832326934900972 0.0760239059220430 -0.0467476774262626 0.1052521584189186 0.2723713116715505 -0.0286977280268744 0.0943780756444735 0.0949095163564067 -0.0939463841861957 -0.0389611830863432 -0.2329183100187208 0.0189010108331489 -0.3922863279123511 0.0239550912326805 -0.1561142416815061 -0.0950231332403553 0.5643604277715599 -0.0391891892550386 0.3459986631038614 0.3205413951752677 0.4646707600386306 -0.2182658359281867 0.3402596028588691 -0.4799627992918253 -0.4835785695470672 -0.0870287892405060 0.0989839758115715 -0.4348080373700157 -0.2008663906781093 -0.0972585329201858 -0.2153454573107013 -0.0194520635262660 0.2010242912583072 0.0762863768901804 0.1346092088804367 0.0469355235797543 0.3427600619263382 -0.2273831922221815 -0.0568459302404664 0.1716469673685038 -0.3062245712682288 0.0957349876370704 0.3210773766036349 0.1873946777203404 -0.1466118225122905 -0.0966352769628717 -0.1964258702024341 0.2978061950242643 -0.0210439006390368 0.1309708722081400 -0.3912107880776057 0.2695632520943878 -0.6850507897747825 0.2738459089752626 -0.4145521240800257 0.2188022375462501 0.0842922687996280 -0.3290438507840583 -0.0926801510985961 -0.1751544686817741 -0.3325440455960147 -0.1648708971642726 0.2878552976421274 0.3321787892174680 -0.2897506756294907 0.1236208056833050 -0.2590528592191403 0.1168411290046466 0.1299877605826630 -0.4295472609979951 0.2161653019218903 -0.1169520740091942 -0.3521305622192653 0.2271176377203443 0.1761724229278849 -0.4213377088398124 0.0257771756150908 0.2589894606231222 -0.1366711045635189 0.0857874273537518 -0.0853082761765642 -0.2002660084093414 -0.0305944693285708 -0.3246846777068255 -0.2162148961059763 0.3953296923667371 0.0556693712004078 0.7090268525306481 -0.1698496439489935 -0.0738226884519214 0.4827103552161097 -0.1232299251412218 0.3291615870037558 -0.1202909064268424 -0.2538568058554574 -0.0946416037331613 -0.0693595379987284 -0.0698186396906176 0.0752809739674511 -0.1164729485399890 0.0841314870564456 0.0087425941143004 0.1142202761707307 -0.1456835289350575 -0.2476294805628328 0.0247879846017270 0.0654874322086340 -0.1355358822365060 0.1178491675583532 -0.1351575422487784 -0.1107899730605547 -0.2437130747790470 0.2308149815070940 -0.1470363968685110 -0.2920379134130371 0.3577286321163977 -0.1088603900342261 -0.0752153234882513 0.4142051133469567 0.3226657616001069 0.3038983683846581 0.8305667527852643 0.4279504968937838 0.4018778709642071 0.2589404343068872 0.2594459045060198 -0.4203574891102492 -0.1471813686137757 0.4158851222846147 -0.2071126074704886 -0.2161237605676017 0.0034869078223814 -0.1117738352598426 -0.2965117857648286 0.6229599119595939 -0.2184509290162406 -0.0180470434395880 0.0558445268144954 0.0052129326570588 -0.3807319666225230 -0.0288262174353568 0.0256229669839212 -0.0759495895762853 0.5220098318489264 -0.0577996376850592 -0.3696955323817647 0.1549979057695032 -0.3386493923031013 -0.0217305205274648 0.0691057105500764 -0.1731423875397107 -0.0136981067280505 -0.4478787950712593 0.1950547428409908 -0.0811583485309798 -0.2225958421972919 -0.6401928211443462 0.2972684606580578 0.1365322696264310 -0.1527039540912651 0.1504089400022554 -0.0266687919245222 -0.2445926909981914 0.3489702430343425 0.1051439955427561 -0.0104367509597208 -0.1163692507791623 0.2297598973992809 -0.1655121972462616 0.0332132517732580 -0.0148981399391935 0.1117926889185844 -0.6515268918594971 0.2487355715705655 0.0580319292622862 -0.0760773807197478 -0.5119685744321875 0.3863799509755884 -0.4749810382023923 -0.0310006672364857 0.1798384675180198 0.5069673344786281 -0.0111656854501840 0.0860344585152212 -0.0313075559970835 -0.0018931967788358 0.1981014360994680 0.0488378328518969 -0.0955699638951212 -0.0140903249650844 -0.1591872459333073 -0.1105302694324666 0.1783029262763181 -0.0983503657049623 0.0161431782969263 -0.2965695570646231 -0.1073627848340623 0.1922357126768408 0.1778149136728835 -0.0067647719918358 0.6296111894134894 0.4075221481292877 -0.1456241681773767 -0.1451746413144517 -0.2466987645701935 0.4642748010631843 -0.3253031074979248 0.2981143215668242 0.1972245217319154 0.2756804149210310 0.0497670465331542 0.2120501259851545 0.0670803363117388 -0.0163129610116947 0.1393923806779663 -0.1285595940321146 0.0214178871763148 -0.0895108725521779 -0.0813893520613769 -0.1736051337068836 0.1229856173148171 -0.1569399969903200 -0.0563760592915598 -0.0980335174333859 0.1702357153005652 0.1842651479307810 -0.1000512530709177 0.0663255827619015 0.0222735711457884 0.0743917648920243 0.0090376193335525 0.0928401253154609 -0.2319004287795667 0.1794163541863765 0.1309751574516522 -0.2590127322983911 0.1603835102328059 -0.3387034693816804 0.3340347273865074 0.0481193296039355 0.3311955155112723 0.3513297612708242 0.1170904171410340 0.1729059025229238 0.0190050000662952 -0.0274727035860701 -0.0044194790089485 -0.2542740345927471 0.0186714089702375 0.0662488433131874 0.0454921306375225 0.0132551528242191 -0.1417945140435039 -0.0671285535152861 -0.0339804777391843 0.0740531380534402 -0.0055671065117763 -0.0839937963767385 -0.0339100460295919 -0.1302585947749875 -0.0004581661190808 -0.0886952035242881 0.0273556140102567 -0.0038289305580337 0.1047654006473259 -0.1717257103975797 -0.1809251098299126 -0.3602032682533927 0.1373067974790514 0.0503410498915628 -0.2180812413796147 -0.1293084330154447 -0.2580645354421018 -0.2539761029673044 0.2055282272132239 -0.0039415226800495 0.0369382608056958 0.0870299464890882 -0.2001857403530172 0.1998106002969812 -0.1271990163930679 0.0322751134210083 -0.2552835504148567 0.2392895771958675 -0.1128791416516501 -0.0778758708142492 -0.1985577263777464 -0.1540470953314202 0.0468684947523371 -0.1048733252778477 -0.2992807499682023 -0.1591489523955515 0.1630439891052429 0.2945880834361477 -0.0745806746118751 0.2153333713429029 0.0065203823686812 -0.2628846515857196 0.3830283417955714 0.1360386977891000 -0.0185627766783113 -0.2587227432235608 -0.0613956508585536 -0.0457229160417711 0.4185264553057794 0.0581463758396161 -0.2214266748126072 0.1414673606328836 -0.0292289055384797 -0.0298773217587119 -0.1735437156086193 -0.0405593969218237 0.1067172617310597 -0.2307357674843266 -0.0256543214844978 -0.0687899823462190 0.4066878736389157 0.0508658214037557 0.3424474917403756 0.0223673949335993 0.0990571374559041 0.0632240841618266 -0.0097453399406581 -0.1739096193493009 -0.0528534859681291 -0.2523089684075311 -0.0420779712185509 -0.0396481659777981 -0.0887137870924311 0.1745145884869571 0.0025418672670438 -0.0075602408783668 0.1797747746740764 0.0136654538256507 0.0856646470024571 -0.1595503913236781 -0.1747181311806126 0.1078120767113736 -0.1131038255450491 -0.0170987070193366 -0.2324915176341792 -0.0718078167567684 0.0183739882538170 0.0325742958742624 -0.1957656053236266 -0.2206368288430211 -0.3825035346081579 -0.1235884687314800 0.0651982807764176 0.0747451186453918 -0.1629011630233770 -0.1395837871934306 0.0177944459443918 0.0432104441427961 -0.2902067701245966 0.3827835702582527 0.1476477195019074 -0.0456566098862998 -0.3219059779195733 -0.4206481299270100 -0.2314903540154419 0.2227161128959455 0.0662914141567386 0.2817425256345204 -0.2232337221592614 0.4855582784150673 0.1152672382460243 -0.0009313553946173 0.2446708353680560 0.1438480849717078 0.3938768152303372 0.1713719810351442 -0.0572740117951726 -0.1469764372144322 0.0262420192732998 0.1394303739118128 -0.0119254662493103 -0.0566201067979488 0.3671497940277801 0.2289134216193296 -0.0049553146591112 -0.2328050986049836 -0.1935951422759465 0.1522540323268145 -0.2360247095721742 -0.0931463079753898 -0.0086955254408656 0.2103492292367072 0.0112849615443443 -0.0715750035684627 0.0993611776567126 0.4655655491591952 -0.2135665732629116 -0.0531099607126749 0.1418990749400828 -0.0771009773523678 -0.2233090043350948 0.1626611565741829 -0.0983271781626283 -0.0830504136855080 0.0118594460135604 0.0946044739990477 -0.0779675432584438 -0.3290539648425525 -0.1077810308702120 -0.1580226206972127 -0.0214867594835343 -0.1651664977876208 -0.0247027470173929 -0.1316129185746477 -0.0472309710295420 -0.0692728485477779 -0.0668167526804737 -0.1065782141366654 0.1622285695629925 -0.1032155459026688 -0.3465740541624587 -0.0208245328669488 0.0559346361828498 -0.3086931238066176 0.2063456925623922 0.0068141362920856 -0.1162797172961596 0.0080483307583758 0.1328801477400191 -0.2449934373033039 -0.1589383882611605 0.1256302921334964 0.1354190951449528 -0.0793320715569543 -0.1513545005811114 0.1610487108368781 -0.1092438439444387 0.0347342288787752 0.0412406819643810 0.1803237005566459 -0.0602570214953885 -0.1303098290432810 0.0986258414674351 -0.0344401785860717 -0.1663856502969849 -0.0997393552627375 0.2753963101206465 -0.0572647212806525 0.1015912826514612 0.1743528733486292 0.3252021287606317 0.0399147533432552 -0.1174305409800100 -0.2619067958772066 0.0050365750222798 0.1071307066678168 -0.0379989328413034 0.0720501988807276 -0.3781171377091960 0.1508985772557876 -0.3070575070007864 0.1827528320014773 -0.3271415205666083 0.1009975743581369 0.1229232553198730 0.1434757634715825 -0.0571183106342484 -0.0266729416057486 0.1520158816312279 0.2062546329856614 -0.0186644929531115 0.0275614098711104 0.1033484918243373 -0.1067672085403197 -0.0817325023136633 0.0958616597035106 0.0283145380025434 -0.1818648281411508 -0.1005831645186984 0.0152947070701384 0.2200303657234940 -0.1119802909370313 -0.1469132623865010 -0.3004921970793412 -0.1413001942137341 -0.3379026078454081 0.0753880130673816 -0.2311624966729558 0.2182892822908531 -0.0007346620278520 0.1659760355984139 -0.1160501755622304 -0.0306965153388124 -0.0419709862547206 -0.0565508009471405 0.2124608160131312 -0.1530426186942848 0.1708859880551706 -0.2039805139474735 0.3321942633393537 -0.1039792195993980 -0.0078335737706541 0.0398614464367575 -0.1253990583153208 0.0441463479214903 0.1739189862226066 -0.1614878657627392 -0.1584974840960729 0.1468047834020797 0.1164701643848199 -0.2360307621777575 0.2019648713058826 0.1981828849197365 0.2765582322184282 0.0731030010871225 0.0390676531659284 -0.1348228995951186 -0.1741146826642574 -0.1566628487492709 0.0866638059530854 -0.1073739114237888 -0.1870189077554225 0.0398020723206824 -0.0314701391644305 -0.0140893794008632 0.0511518027889276 0.1736192503719596 -0.0150961386715650 0.0769044906070269 -0.0568335909187872 0.0097763082279356 0.1976718837747694 -0.2580667437459034 -0.0581816965555910 0.0192652047984899 -0.2033184031569301 0.1475486942505863 0.0834618236108968 0.2413420483536026 0.1154242472297348 0.0339318376465585 0.0635950275998112 -0.0060324565856654 -0.1274889321692106 -0.3291024937302174 -0.1144686937539840 -0.0245311297613134 0.1403967377226641 -0.0100028880047007 0.0841899213679258 0.0453390769487205 0.0839092137961206 -0.0766450553949152 0.6532804655787477 -0.0079039518482612 0.1221338521257315 0.0641362814282203 -0.1404558961963186 0.1570437738128249 0.1540300229845132 -0.0295931751580121 0.0105275255762472 0.1536246284340426 -0.1908239872531092 -0.0339433440369511 0.0991454236562134 -0.0297484509538494 -0.0704326314918752 -0.0917329528362417 -0.0629121484099918 -0.1415543012498947 -0.0005508405617972 -0.0982287756995307 0.0624966062201062 0.0364573740679634 -0.1404020113870165 -0.1057392143132486 0.0793973266637053 0.0988452154197434 0.2594297931993141 -0.0781143046548076 0.1295214699883648 -0.0509939858667453 -0.0332971293575255 0.0548361082183442 0.0527910861243573 0.0101423643234305 -0.1977519691753710 0.1819294468221706 0.1312987035365425 0.1175696168985753 -0.0272064429176363 -0.1129289973760585 -0.1778124941309991 0.0059341520151019 0.0026485381004314 0.0090606668519874 0.0408180713096669 -0.0806090075053370 -0.0289800736404759 -0.1581957447342302 0.1074121517030084 0.0101679157341004 -0.1109840819264016 0.0709233391564721 -0.1522886984888884 0.0006697019366082 -0.1766130884837396 -0.1289698299340319 0.2991464759236064 -0.0917151433927771 0.0085011388955423 0.1248554029913549 0.1635697909461307 -0.1168970545441797 -0.1783888677892982 0.1588748688669984 0.2901638862759085 0.0166743492781763 0.0611541004698167 0.0464313182625495 0.0974115718041206 0.0772382420291120 0.0117494814692967 0.1081185648118541 0.1477715800227588 -0.0495607332134076 0.1210967701068566 0.0174620432026557 0.0660426084817224 -0.0905666361116568 -0.1365754991429880 0.0947157524194338 0.0398137003350560 -0.1232601768217363 -0.0315190301683051 -0.1820544285598433 0.2338436796097716 -0.0709934567192453 -0.1448898468404879 -0.1506335244747128 0.0399738281703938 0.0855930391357518 -0.0032472512548174 -0.0301427040141600 0.0083016273466204 0.0838670443312017 -0.0913819069148168 0.0257473614033582 -0.0489021835166148 0.0814418959777654 0.2078567328287846 0.0843683254409240 -0.0124882155411966 -0.0956299648293419 0.0398809087412029 -0.1275747514755941 0.2243229579401442 -0.2140844328404253 0.1811909648598644 0.0156479181599859 0.0327546707378656 0.2421168200068426 0.0497387936943083 -0.0290990145851553 -0.0878449619049882 -0.0655912973376708 0.0454643940622280 0.0946091057351916 0.0511014195577421 -0.3421077301241672 0.1010321022228722 0.0049563682350661 -0.1734419519929878 -0.2133566765972134 -0.0289116826584673 -0.0908859627197054 -0.0347322396626572 0.1067497969506205 -0.1308307191051437 0.0425873016228262 -0.0133411237272811 0.0566793847637387 0.0946729488167659 -0.1890863121735520 -0.0741236043396018 0.1291437521635738 -0.0036967938290563 0.1458398062508156 0.0398671370568885 -0.1072099187319727 -0.0917641212676858 -0.0768660657884475 -0.0292031061141892 -0.0217843113533584 0.0441198268929572 0.0143290290741882 -0.0872498845598848 0.0817384075340360 0.0588305741598706 -0.0455946665399869 -0.0382342555546922 0.0565846687043667 -0.0408841461738572 0.2183455303782937 0.1619266157208364 -0.0467505616780568 0.0116122849906106 0.0737439342833793 0.0681774894764424 0.0868076148351299 0.0887929851864576 -0.0030344472913694 0.0730375161106409 -0.1958108510664559 -0.0609659668099114 0.0327479128151740 0.0664451646872965 -0.0357072408799479 -0.0174374837948470 -0.0054754168800692 -0.0707565255897197 -0.0304508952142200 0.0082389898342152 -0.0303857242663319 -0.0006453343470474 0.0658293865407262 -0.0074153037427048 -0.0290023139246191 -0.0087052264960192 -0.0345573456890018 0.0979865629945231 -0.0294055442249695 -0.1531430457701634 -0.0051784538770571 -0.0083367417748783 -0.0316492904183796 -0.0379449693217083 -0.2110192250460583 0.0712342000171394 -0.0962332071451538 0.1244273420010709 0.1033858522037527 -0.2363494435570932 0.1796347540153211 0.0506622890215966 0.0240892496420001 -0.0841783372121429 0.0711884498519180 -0.0078768002196628 0.0607565199124514 -0.0640743661198487 0.1058080394070522 -0.0924208491582923 -0.0615768132970621 -0.0754201072570520 0.0495969755448393 0.0474255725416091 -0.0542547886343106 -0.0722307310392389 0.0730669385324515 0.1318410710454911 -0.0105727341467057 -0.0702343524532233 -0.0250664355261371 -0.0599449040585319 -0.1107978270674707 0.0525554030467947 0.0969005419582208 -0.0218931940077883 -0.0851821822381012 -0.1118567224083764 -0.1213938389243794 0.0064314487343508 0.0117887923424649 -0.1003977540243939 -0.0149058579139396 -0.1566033267894626 0.0332702689072230 0.0074169103077735 -0.1441987891560876 0.0566007627205742 0.0608037514239443 0.0204435741014175 0.0608280012385439 -0.0449837433113532 0.1109478035052694 0.0009497079443412 0.1233085912960935 0.0677168237997299 -0.1316453154615555 0.0580160499185906 -0.0768516237947482 -0.0012980524966880 -0.1583642721546503 0.0218836949073901 0.0216281110508902 -0.0710540017942928 0.0099151503222363 -0.0745257413990598 0.0363397873471670 -0.0620439446850453 -0.0410032456327402 -0.0785531148917965 -0.1431589671722167 -0.0320470189680849 0.0297433188458822 0.0041371301272730 -0.1066347232620108 -0.0981524281602729 0.0834728146790613 0.0165998564600939 -0.0534632400308357 -0.0593980300594329 0.0046268232425676 0.1151707346285972 -0.0760162321820720 0.0529578224754513 -0.0463301871319768 0.0014123288960352 0.0634998263993702 0.0255794368011844 0.0298173287422315 -0.0601987057982435 -0.0758077875345086 -0.0901644701637968 -0.0667646564471139 0.0591122185003671 -0.0216143680389611 -0.0018062207693974 0.0311185380405861 -0.0941923613834699 -0.0018181447479235 -0.1114609884991105 -0.0436209364167484 0.0721773246484857 0.0797287959842943 0.0401146759352018 0.0839005959345406 -0.0743175960925955 0.0843454668987623 -0.0388782409581203 0.0495731320542811 -0.0956457459770420 -0.1033810663651713 0.1159249391566413 0.0455923064762833 -0.0288840830014211 0.0488468006075526 -0.0102662285303096 -0.0714258734179127 -0.0684576613898275 -0.0224816430912648 -0.0365333364966231 -0.0201575725170534 0.1059382781180947 0.0038637555372633 -0.1449889781962380 0.0570974207343697 -0.0999471825562652 0.1179084205519313 -0.0041117849746442 0.0933393660955801 -0.0830234095494641 0.0037368641986056 0.0469903636428346 -0.0833426540799720 0.0409454318643239 0.0229190674036177 -0.0285357735659814 -0.2102837368786227 -0.5796368607193620 -0.0951913537715762 0.2165103473735912 0.0254197673467345 -0.6859880818610686 -0.3554757884959119 0.1821062080861129 -0.4439185149910778 0.1312096794913754 0.2666143116180828 0.4570165106065717 -0.0622844025647445 -0.0579658511385564 0.2918306339586615 0.1609675678667170 -0.2417774781047026 0.1598091772136566 0.1441422739717565 0.4207221140524046 -0.0455197337071062 -0.1924920063708048 -0.1227012844660781 0.1417010374726209 0.0789085608600662 0.0899564703223437 0.1496347609431863 0.2350202172986874 -0.2505327155091640 -0.0095118294787198 0.0346804524963361 0.0022915417082715 0.0614594757649661 0.0825107651283636 -0.1336331369920066 -0.2136681732409352 -0.2485243312055652 0.0748306311122233 0.1435312323725219 0.1844463776149412 -0.1868426953567436 0.2484617393109729 -0.0447784316183650 -0.2826358040059069 0.3370287099414778 -0.3244243610423439 0.1737448935707874 0.1592131958416768 -0.0940372247905148 -0.2227633582236510 0.1821710464206395 0.1452484189831351 0.0456132419856837 -0.0904113054385319 0.2308410464003691 -0.1409449646720703 0.1724695843773568 0.0334188245846143 0.0224568737545122 0.2336109662829536 -0.0221640403788774 0.0012149370587482 -0.1717897352808357 0.2937104001080071 0.0720035298100141 -0.1206080600512667 -0.2609443763500830 -0.0054523003033169 0.2673986330379561 -0.5383039328896027 -0.0292050711497936 0.2005433671163611 0.1626108419828882 0.3567633709004474 -0.3353506277420789 0.0856089111828884 -0.1348686553709487 0.0030413377330390 0.1932550499023360 -0.0806568033212251 0.0922933429730499 0.0151275397051530 0.1567740753501140 0.0626145467843400 0.0554860291748586 0.1650123086225103 -0.0326242672156225 -0.0474868783235880 -0.1197313968851025 -0.1417031641986570 0.0256244201479803 -0.0415063375608550 0.0093300137431902 -0.1527441111546454 -0.2066089339095931 -0.1708379550247057 0.1843590666278755 0.0570001778383917 -0.0611595914748436 0.1058831996876952 -0.0555803739960598 0.0395701870880207 0.0373705889955030 0.2317993703261384 0.0415080257197040 0.1703874275482206 -0.0564694667242958 -0.0390998939454923 -0.4004074285957236 -0.3117822810055112 -0.0878757897415357 0.2190959709376687 0.0392126608751184 0.0399064448038564 -0.2004648688930770 0.1093697478445757 -0.2360684907696160 0.2180924908917669 0.0620756556317145 -0.0064186175871485 0.1606985265480862 0.1372207079411465 0.0290173923242086 -0.0015570652436382 -0.0891781508785879 0.1701725356160777 -0.2937817828377444 0.0621708647191166 0.2708215895723924 0.0223349537864212 -0.1784657825005267 0.1585963200836485 0.0913936298581826 -0.0887571989893950 0.2182831253560909 0.3680097538429398 -0.0185484877993580 -0.0629742953981392 0.2047937423572647 0.0407191075329065 -0.0527168086376652 -0.0621314070460016 -0.1715260196757278 -0.1135119052462292 0.0520483634520967 0.2257950411252637 -0.0818421453887389 0.0120576187976713 0.0237597251417310 -0.0705748534723008 0.0559426731836539 0.0691461032795250 0.0565773926882387 -0.2422152885888608 -0.1684422325629222 -0.1768749811699288 0.1995649345488556 -0.1194700565341460 0.1615956575737063 -0.0038043311023343 -0.1038216874744068 0.2265093154555597 -0.1747456641877386 -0.0698619941981398 -0.0139121245238662 0.1926092486307325 0.2221754853272634 -0.4039231343195807 0.3302611925838061 -0.1298421149009872 0.2528131145639462 0.0209070338707434 0.2444086666017700 -0.0516718451535039 -0.3355341120054224 -0.0702197886438012 0.1103567759569840 0.0099906458666639 0.1523608156211639 0.2277751536503712 -0.0036769679072755 -0.3109443503070207 0.4780706234589639 0.0336515561593815 -0.0429931505107792 0.1026494651905925 -0.1304627681204420 0.0794282162856157 -0.0423680172301385 -0.2016594650641280 -0.1395272918364785 0.0739131488503487 0.1188948586287164 0.0299112700548496 0.2659009732854768 0.0207338490232636 -0.0531916067303844 0.3833024132702109 0.0402379373995190 0.3448098250531546 -0.0993376975004001 -0.2338062133758658 -0.0068689242435121 0.1237167084572931 0.2659734936011932 -0.0325414555685324 -0.0255593003731506 -0.0856108299283218 0.1265334828865778 -0.0460521050663120 0.0654209945403269 0.1998365701182618 -0.1673131574332004 -0.2967149720923295 0.1371281854335497 -0.2342571188998209 0.1036060848391601 -0.0717406987253659 -0.0843688981987362 -0.1617519802026625 0.1839971053656562 -0.0500682547282900 -0.1140133918299247 -0.0627461369644002 -0.0484134585362562 -0.1284332228123974 -0.0521408460807323 0.1988143336243401 -0.1756742964502981 0.2368068146046080 -0.1135919397637708 -0.1648851415054823 -0.0618089256329180 0.0096504930541699 -0.0402847897913408 -0.0927699538234198 0.2089880350949416 0.2837262581141715 -0.3530222234108478 -0.0547069271942447 0.2042348012707141 -0.0396572824834214 0.0124502242123082 -0.0977338387533511 0.3126332417684412 -0.2204706454464334 0.0519662879781242 0.1383243618241607 -0.0105560895499204 -0.1846909615405873 0.0995141920943962 -0.1450419605738599 -0.0786960717502115 -0.2542316029594829 0.0039668413178563 -0.2319087137924422 0.0168230059149748 0.2175175470901182 0.0789953879050029 -0.1506656824301896 0.0442231025862667 -0.0623346218246456 -0.1169762399069853 -0.1344491073274852 -0.0802026114571481 -0.1426547467670978 0.2599413678509613 -0.0072082291136012 -0.2918740074036976 -0.0743105320379259 -0.1637526831766208 0.2827040988342225 0.0782689592458624 0.1395529049240694 0.2261466735983290 0.2053328573344105 0.4342929685666138 0.2392151219398471 -0.1661941540481446 -0.1694943321552449 0.0144116739355550 0.4354788853514730 0.2113327852663841 -0.3028100313496311 -0.1921541009001686 -0.1482776193220894 0.1003212736130504 0.0467543484214452 -0.1337748439739921 -0.0363444196901454 -0.0705137532911550 0.1249395538113208 -0.2587561018990355 0.0744430600400816 -0.0936718501064860 0.2020719049395789 0.1538960695808059 0.0282401672410112 -0.0806588561706257 -0.1514719439100382 0.6201278222109414 -0.1598104621901811 -0.1532341541116635 0.4029362147795675 -0.4108533072789647 -0.2008204479865254 0.0967791731295346 -0.1086026550661274 0.0952223247192394 0.0737868815377683 -0.0894308634826767 -0.0434201778695584 0.4270948141522614 -0.1458544984092308 -0.0952544956471360 0.2298271632370028 0.0634702760607889 0.1392082665367683 -0.1466953216491163 -0.0073416751428245 0.2357926704987848 -0.0978969774467725 -0.3974789370733073 0.0191958111864169 -0.0522315692790329 0.0006371193182482 -0.1792457690365267 -0.2299248622771366 0.4082382116092536 -0.2210074991331597 0.1277886619320978 -0.3543636301339382 -0.0839846551911710 0.6391675693073466 -0.0946725104041830 -0.1405559287120282 0.3392556929065551 0.3499422542644318 -0.1250383563528620 -0.1012724145503537 0.4072226255007843 -0.2016852251406263 0.0506664458839034 -0.4077838165506305 -0.0962009721967036 -0.0528801645442595 -0.4651481432534319 -0.0399780646045493 0.2450158612258270 -0.3855767750944207 0.1342859287256629 -0.4235400457571844 0.3538466477086121 -0.0596600161868477 0.2854683975673375 -0.2387222551082452 0.0931093329703285 0.0686753043239026 0.1262741078957253 -0.0720594487079411 0.3996244798345461 -0.3491126974455762 -0.1678236071963203 -0.0764378977106795 -0.0924038250225828 0.3047729739888944 0.0607657352164999 -0.1501821933008322 -0.1392764727328132 0.1189749379034523 0.3047524953344358 -0.2842037976735537 -0.1563268133604931 -0.1101120471447013 -0.1676090529775196 -0.0093030287857582 -0.2708758018510535 -0.3107222457381165 -0.1753443470282486 0.2579298477406916 -0.4395302819198759 -0.1318275772399088 0.3919475894669927 0.3643169132122083 -0.1320708404363158 -0.0989642520929056 0.0012414125082207 0.1394151122651890 -0.0319812513294226 0.0790420229244375 -0.1336742692624719 0.3084496455925778 0.2127132218298089 0.2753409649080101 0.1181255491116359 -0.3208298240153883 0.5079143919767016 0.2108093609196060 0.0273856836600312 0.0363384697853663 -0.0557927722362183 0.1805792281830905 0.3798888942086932 -0.8042125946154804 0.1422635086791812 -0.3251769018627000 -0.4444275372276386 -0.3079448910032080 0.0533399159958330 0.2066346230651401 0.0567739974083098 -0.0803529383676803 0.3733371058919335 0.1129338912942283 -0.4212780742554739 -0.0964662339274994 -0.3802354438488997 -0.5095144932094987 0.0586599129506748 -0.0360946378770158 -0.0494123717035796 -0.0843526777411695 -0.0926717488804898 -0.0559104297914794 0.0374714202499649 0.0686982281209984 -0.0435803031550924 -0.2467490356381291 -0.0422080593324445 0.1177435012600665 -0.2335566057592555 0.0437613294784411 -0.0565515886221322 -0.0366819252307408 0.1192646664348552 -0.3578156525666987 0.0253792098426207 -0.3372555809518982 0.1748632283728244 0.1004672122684549 0.2480501259443458 -0.1187743806505377 0.0422544963904130 -0.0084942691084481 -0.1055815930807914 -0.2199874513315392 0.1446275390785449 -0.0718146798546891 0.1438189744274851 0.1055934565164773 0.0346393549256643 0.3861035038448747 -0.4883513894998660 0.4763986940457353 -0.0135026116069265 0.8932080319700538 0.2207085147301359 0.0858609360100297 0.0599325329482649 0.2066250952821190 0.0711497314360052 0.1572500746913099 -0.0483726121420421 -0.2221797706372194 0.0576698559554232 -0.0790151420000077 -0.0610452116300679 0.1771668346129865 0.3799763905047036 0.1227048985017268 0.2277316265452344 -0.0132669033294384 0.1995078226676131 -0.2790615309645773 0.1158025556434130 -0.0721664118022982 -0.1810554992774155 0.3989410691113724 -0.0037691636424550 0.1878225165371179 0.2000802184295015 0.0347660224545534 0.2848431365789353 -0.1687257224371463 -0.0942628136585940 -0.0619567979816343 0.1004435472539777 -0.1085744251740781 0.1419279301064544 0.2951462703584197 0.2088495178996282 -0.0224032692576041 -0.0218453024995202 -0.1157003251793349 -0.0053419365512140 -0.0004183307952016 0.2526455985836339 -0.1274249539664064 -0.0026022928787506 0.2213533871344675 0.1827143828597150 -0.0684446062199628 -0.0298697512487636 0.3164240790291987 -0.2644008284686808 -0.2732652156527866 -0.4137019326694296 0.0345779703001906 0.3011620163877784 0.0620188310939782 0.0069161010373568 0.0140140570151670 -0.4906338531860514 -0.4317202027499668 -0.0015588575249419 0.1081889606066637 -0.0284392705479153 -0.1713145125148386 0.1209750088704782 0.0602223231185645 0.1004500609481786 -0.0484551737533269 0.0083202892602268 -0.1570852043092733 -0.2424444803948828 0.1468511900557709 -0.0799221081639905 -0.4005406604744987 -0.2337484197467279 -0.0227796698775412 -0.1140718954237685 0.1724517171265386 -0.2312618978546417 0.1006459424818273 0.1025865423167274 0.1182665165032130 0.2560731014727966 -0.0554530892318545 -0.2595814039982690 -0.0353251757124412 0.1535494629825501 -0.0567138645524254 0.0978210241739830 -0.2416709580070617 0.2013041203759854 0.1791322443758124 0.1694747142689447 0.2861374315007771 0.0126281884356634 -0.0866425419707023 0.0801513558471272 -0.0159762797432723 0.1100552747368398 0.0133798561744916 0.0415566790578744 -0.0504635399861987 -0.0649626935895764 -0.0774882680727320 -0.0571841679638744 -0.0526906682539736 -0.1733211003655625 0.0848753704024197 -0.0659180329533819 0.2234752271571108 -0.1391254257417974 -0.0984268148693444 -0.0824702499839085 0.1371623157869364 0.0465547820182740 -0.1393812878167087 -0.0965354497294689 0.0020411171941356 -0.0390197410748010 -0.0066062424119361 -0.1078758280147521 0.3103119238598276 0.2696237540847550 0.1692945309469536 0.0842418029299695 -0.0265869789869182 0.0646914003558491 -0.0697205653699896 -0.2449042508158561 -0.5177281588917644 -0.1882343620492900 -0.0263236923557922 0.1201402859024955 0.2717554936313272 -0.0179729069244163 -0.1566541494859651 -0.0268382433048789 -0.1279872604673572 -0.0018440488542315 -0.0264061686370471 0.0716918316496813 -0.0328363473892899 0.0486012691520629 0.0120394598971000 0.0894708767288194 -0.0644383533260306 -0.0611032420714676 0.1573556418899426 -0.1511742059097517 0.0813281872287891 0.0413007097098002 -0.0988055119562225 -0.0273020015835258 -0.0921155500281227 -0.0083089533467621 0.0261530176758233 -0.0045134239837319 -0.0054441286176795 -0.0679735607928978 0.1069724405339184 0.1610620980790252 -0.0189499857842425 -0.2298434676091614 0.1065727456397175 -0.0179097817187683 -0.0288792175435100 0.2549845647403377 0.0485604849146972 0.0016108233789959 0.0048538572959032 -0.0990600984398017 -0.0520999918065162 -0.0482795370938340 -0.0347712887560932 0.0783351626928760 -0.0742916330948916 -0.2746836188706153 -0.0631992736038328 0.0308497167711593 -0.0884677940611271 0.0287812469399730 -0.0434250516908692 0.0990680081308264 -0.1284480588825977 -0.0270184210214862 -0.0399542995587993 -0.3659095661775249 -0.1416887287195910 0.1467394385039483 -0.0320684087706680 0.1233179359189480 0.0064045461508859 0.1183436759572242 0.0569872882424297 0.0745730880363269 0.0185059237585972 -0.1722684081958474 -0.0160040626420824 0.0936809231505282 -0.0707711111541724 0.0920369883087929 0.1716579491826972 0.0971791363131483 0.0231711761476590 -0.0525764118904546 -0.0855399501048971 0.1979883854711651 0.1825030464141496 0.0489082170085427 -0.0816028993896794 0.0184165959514522 0.0503760241885904 0.0054367241341625 -0.0482288636853215 0.0210399602481145 -0.0850643431563048 -0.0990402611270473 0.0344370621890317 0.1093650931094186 -0.0516017245043227 -0.0931818436722733 -0.0398875413938747 -0.0374614069086989 0.1851992702134126 -0.0586728810802016 0.1053481824038062 0.0139355572987604 -0.0385912840841407 0.0274017454186823 0.0499173505758240 -0.0048929684216005 -0.1569676174507989 0.0647868062276940 -0.0721055415677972 -0.2106419024078714 -0.0435817924410914 0.0354161924628306 -0.0760471358622052 0.1729143783228725 0.2256096607486751 0.0770774294315760 -0.1444707086074718 0.1990631560541349 0.1926798384463643 0.1010120820160790 0.1019979408866375 -0.0800750608999533 -0.0673668188816968 -0.1713004657552489 -0.1836595517989766 -0.0059373120841481 0.0340036861209893 0.0445537506016411 -0.0255487773603222 -0.0814838898097801 -0.0658962652289466 -0.0902551158759453 0.1552194037836916 0.1605900033124109 0.0162029682471679 0.0473513594929426 0.0751965793081846 -0.1211286109095699 -0.0301091427248558 0.0290426093367847 -0.0824676399449326 0.1398061056549899 0.1112255212809551 -0.1154517998357298 0.1569107800254697 0.2478159792862524 0.0130653982977636 -0.0776603713684574 -0.0277747463847031 0.1789482050207001 -0.0402898962494452 -0.1271953556563548 -0.0395408491087596 0.0477591227574363 0.1452827430429655 -0.0268209527765789 -0.0493780513022922 0.0342474957973798 -0.0327363497376452 0.0968783738881422 0.1394577681856413 -0.0507088054450247 0.0239627190433895 -0.0915690099413154 0.2005657917062670 0.1289702848212475 -0.0445641697583481 -0.0916653947906577 0.1660729605189532 0.1172010860970567 -0.0462682664116351 -0.1083743160162353 0.0019642757774744 -0.2913255883273759 0.2501668645741383 0.1287322605547001 0.0018132348945965 0.1014458897696922 -0.0101720213460295 0.0704523315448198 -0.0123706759679403 -0.1143281269296777 0.0340598909129561 0.0601822772737966 -0.1765338901293190 0.1580415451176248 -0.0085460245470387 0.0520615582293462 0.0224539699912947 -0.1338011940409636 -0.0508745709823130 0.0358612099624374 -0.2308349317241565 0.2998462112865252 -0.4874182951790593 0.2794667153934418 0.1237764817167399 0.1139999317195150 -0.0326117397202801 -0.0724636961556019 -0.0019001277896058 0.0858105682707861 0.1042115882292066 -0.0633725771931070 -0.1472555594693596 0.0641309732552091 -0.0456204832402045 -0.0684559783944249 -0.1482824215293680 -0.1311592202553425 -0.1581780657454463 0.0714686774496724 0.0689167353110169 0.2215766174080352 -0.1672878415197890 0.2174764534992895 0.0581811345101253 0.0838267863651223 0.0011330028293666 -0.0401934001670906 0.0036081529883257 0.0612435572754290 -0.0508475336399127 -0.0074420280448496 0.0283163979453564 0.0882310094596261 -0.0868120193144803 0.1431837877733938 0.1232477980999986 0.1320542420143211 0.1270775434062897 0.1915202755129304 -0.0795839667284023 0.0096018655622736 0.1920526738923990 -0.0085389002507422 0.0402087257556152 0.1050081011355984 -0.1038902267575287 -0.0327657386837253 0.1389357200275960 -0.0652669060798063 0.1477094576326569 0.0671758879166029 0.0721015038876587 -0.1726275819115368 -0.1806154438895914 -0.1480503017496136 -0.0055034829469824 -0.0195567909299543 -0.0299759729305019 -0.0549768260490346 0.0101151089479097 0.0433290665135048 0.0067224327272755 0.1108358314009156 -0.0226456259009732 -0.0124516913655801 -0.2514995188784931 0.2288948779673962 -0.0523608036691628 -0.1090007399295747 -0.0780933358030536 0.0670837211003232 0.0834452359685547 0.1320668909573621 0.1275760881001536 -0.0587923787184214 -0.0159939680465783 0.0181958681626853 0.1173584104275997 0.0213672348729711 -0.1338604357389264 -0.0362108887337005 -0.1319443497007699 0.0647962311822453 -0.0328320850574602 0.0551873984158704 0.0160606464554819 0.1186255033523801 -0.0279244055498353 0.0840207011392879 -0.1086585732146615 -0.0715341871006305 0.0013352595236483 -0.2301480576982476 -0.0427110083851301 0.0310590498470437 -0.0374831767416359 0.0539427949512822 -0.0487477866223250 -0.0725479122754559 -0.1863564783736649 -0.0389912959533374 0.0289884803425320 0.1193945199376620 -0.0591854539522869 0.1340594905858065 -0.0241434486014519 0.0206736194718599 0.0638234303814681 -0.0467239129595847 0.0288915536119979 0.1142728493049645 0.1071305066715471 0.0087712477843645 -0.1097273372968534 -0.0913522106108891 0.0304433172921693 -0.0234236944570232 -0.0041952175926252 -0.0148814831842450 -0.0018034102861210 -0.0723000219443043 -0.0591704863965781 -0.0212394391150666 -0.0539376081886899 0.0167155048504636 0.0068091307929979 -0.0564190487548296 -0.1844044454906242 -0.2855668291907914 0.0049430786629591 0.1600700342710155 0.1689510870891921 -0.0335315804376676 -0.2970365482603946 0.3618748212936297 0.1071875746910542 -0.0061759335244883 -0.0727102534665441 -0.1449909042217869 -0.1510718543998611 -0.0774802714917846 0.0359627214799793 -0.0080096659210013 0.2378487872083188 0.2706839691061936 0.0967094081575210 -0.0966043558777812 0.0460857478816139 -0.1875754699277114 -0.1928464710408038 -0.2018974246398861 -0.1380888477635559 0.0808232202988410 -0.1235278694568905 0.0855292336366117 0.1324446627401981 0.0989993963569008 0.1272147140264715 0.2330890268573003 0.2052065472477068 -0.1741408302714377 -0.1618846227175666 -0.1790969261136372 0.0252388685085768 -0.0655072776846792 0.1878578587956755 0.0296968198973100 0.0295562456888972 -0.0690573451962908 -0.1852246403400649 -0.1749580359708802 -0.3479244892788795 0.0635823396077194 -0.1012443646261854 -0.3255284013204916 0.1506448155529152 0.1111253642903544 -0.1878754242026221 -0.1036203958785111 -0.0061509631828782 -0.0416569355678152 -0.0527018638398484 0.2053459814628636 0.0780461935115800 0.1792710508383020 0.1940629861338102 -0.0537343044563165 0.1080537756558413 -0.0371127153681611 -0.1252675187188791 0.3615350983530221 -0.1298510066922742 0.1786989572657296 -0.1117137419477279 -0.3006763123350431 -0.2249211375306528 0.1260030908229066 0.3394567460862690 0.0210740380169654 0.0238868553311507 -0.0593844002585437 -0.0518943474988763 -0.0633156622845922 0.1642569531106629 0.1022928193431541 -0.0497429085957839 0.0818255415371869 -0.0435985980280045 -0.0532138465804687 0.1324401135802130 -0.1040442092252953 -0.3113505302065581 -0.0997206039038113 0.0667167758074750 0.1084126823599167 -0.0212612800257382 -0.1103923198815014 -0.1777848334252036 -0.1364865153479146 0.0604381014384618 -0.1100334098394325 -0.3414033953727206 0.1076470845739761 0.0950577888003545 -0.0205399625974847 0.1986620508859192 0.0469121926410604 -0.0296377665816586 0.2023500440480303 -0.1528818557454262 -0.0026698294631773 0.1726710402882784 0.0234998241576791 -0.1971488529771503 0.0650362078735606 0.1992448109530675 0.0326342090039448 -0.1439672379993998 0.0601805897076901 0.2148585678908711 0.0800273486206256 -0.0549922888183410 -0.2066236671286376 -0.2799434972688380 0.1959257011053410 0.0645613810767226 -0.0043008869213106 -0.1561763029799765 -0.1816146378655356 0.0328402261612597 0.1189316832280271 0.1947640240917812 -0.0150723506974672 0.1158246821782634 -0.1205512728723342 0.2493125184288185 -0.1235018071939755 -0.1558602938032193 0.2891910814053540 -0.0814761511706700 0.1401338965793351 -0.0538836436973303 -0.1287610813606720 -0.1221762636980745 -0.0732448243546342 -0.0775743609710791 0.0616763590205125 0.1207243666751411 -0.1064419860890645 -0.0376266891149580 -0.0391949496080414 -0.0864207446530663 0.1225542090642340 -0.1012276189485441 0.0323997238095096 -0.2301180276823662 0.0335592112509702 -0.0051658088371676 0.1005631090777661 0.0593379135201137 -0.2127918436359959 0.0462728923251003 0.1317600407513372 0.0808148867469772 -0.1247622667546624 0.0287839880527331 0.0073696275847050 -0.0712404856865231 -0.0576675681411165 -0.1308929901849222 -0.1514466894065505 -0.0058121913343671 0.1479379957410401 -0.1973249193073009 -0.0106566033282674 -0.0599924215271018 0.0559592116286378 0.0310282405169840 -0.1211887657598989 -0.0824067098032168 -0.0792941433277452 0.0074306583326896 0.0690482417054527 -0.0679057532878938 0.1041877683124255 -0.0037846497355358 -0.1276452401291227 0.0157076165656217 -0.0020179275183902 0.0331629877487288 0.2426784910985166 -0.1944286237724078 0.2200465993354903 0.1571774672234367 -0.1306537352738135 -0.0741291127514945 0.1354273281284140 0.1724387694605204 -0.1132870896495034 0.0573938217110108 -0.2457087110088736 -0.2808611294706925 0.2580368789057484 0.1625886596539028 0.0428711057077221 0.1024578291326557 -0.1661111989870143 -0.1527299226191989 -0.1583208699955821 0.1185406953969331 0.2289523603890683 -0.0388691352150391 -0.0478920559519545 0.1329754892921740 0.1303588459176511 -0.0920975792071737 -0.0178127319903342 -0.0303002152048782 0.1188484057526778 0.2127933690871608 0.0643001344379147 0.0420328296990622 -0.1128611308837282 -0.1481304497528565 0.1953614949752192 -0.1066225697440389 0.0729834919030994 0.0881731056165935 0.0931157853469230 -0.0713980684333637 0.0648055909785640 0.0169617396113286 -0.0310288173380940 0.0736313001429756 0.0936443525541802 -0.1605944769135811 0.2236004830785289 -0.0072143452612289 -0.1769229967053856 -0.0191238217166124 0.1124700765655570 0.1045320157971850 0.2163332556209209 -0.2512002607697092 0.0096641326617972 -0.0206401002362478 -0.0055852912670162 -0.1928530363305181 -0.1686841885588266 0.1823308538826293 -0.0351040750078912 -0.0388726655357936 -0.1671141842994772 0.0088695570261653 -0.2317077237775416 0.1427913791469865 -0.0370024379699667 0.0326737661654421 0.0550190199617452 0.0050953113850988 -0.0190548645386728 0.1662960303077169 0.0049984513570710 -0.0404191548094954 0.0690739339808260 -0.0399182058849505 -0.0220368987996707 0.0327774302615787 -0.0653887906508034 -0.1340543315438701 -0.0064142287637603 -0.0837563354029720 0.0103951057174209 0.1240057491543037 -0.0692098780599721 0.1921435377277086 -0.1157208111190518 -0.0750712301415823 -0.1056432450984386 0.3334020017202117 -0.1866370526486278 0.0745761830017832 0.0163066985307856 -0.1628501674579858 -0.2070434653920157 -0.0632509387906879 0.1682691684975919 0.0108299962769970 0.0159382644972617 -0.0391493514181656 -0.0771555107908195 0.0480000845215134 -0.2160784690581936 0.0277918625106440 0.0285647411895038 0.1807727148335526 0.0013126601893744 -0.1329981136375742 0.0803301231451463 0.0025837036830735 0.0428485408127961 0.0223179462972132 -0.2218534692118267 -0.1111932832605630 0.0495563408693745 0.0275465611360515 -0.1920977883850495 0.0202750200099203 -0.0489840794678849 -0.0072755140437863 -0.0634093176736037 0.1327485738392744 -0.0035375311461736 -0.0390088330636833 -0.0033314418754040 0.0516601014961227 -0.0483743883517411 -0.0311800305034161 -0.0837277892360959 -0.1558012935634890 0.0109909572802215 0.0265660264807035 -0.0881535808070292 0.0029272695708082 -0.0942250758859389 -0.0924329487247814 0.0246628366612378 0.0679640055256563 0.0784925620671313 0.0425080574843719 0.0630307979376864 -0.0136877344310391 0.0428134575190848 0.0011668143617836 -0.0265001909923534 0.0513315490086008 -0.0257747494181841 -0.0255401516541477 -0.0199009864963406 -0.0789118633558891 -0.0764681477265428 0.0730951448727299 -0.0991595953552047 0.0914008628563736 -0.0181050092558412 0.0540782764170112 -0.0430301591235377 -0.0088353413088730 0.0100636227960151 -0.0553657449909886 -0.0403597061930186 -0.0345363041586235 -0.0312515610749358 -0.0303944030825860 0.1410342645523403 -0.0306876491749115 -0.0157372083329362 -0.0755647615738002 -0.0768643638071958 -0.0178902123214743 -0.0138711290939167 -0.0018583645096732 -0.0045502772090734 -0.0617433624027065 0.0777971935005257 0.0973930532868608 -0.0062135416749631 -0.0241581458165752 0.0240878796384028 -0.0975931364472875 -0.0571097616336724 0.0172686362588244 -0.0011533488710244 0.0053922287960895 -0.0544374799413844 -0.0134813867345119 0.0303098334909761 0.0840843447599097 -0.0238764257012927 0.0611135874210440 -0.0269569536805729 0.0276925916388543 0.0339357124324430 0.0316775627184807 -0.0330168851208645 -0.0323980870671503 0.0129061755060185 -0.0210867424404288 0.0306699867241479 0.1142110375582593 -0.0696455847109069 -0.0552908744332474 0.0637371679192239 0.0513751715309448 0.0658788918678397 0.0132760179087774 -0.0262948447632297 0.0282156176224356 -0.0480483077825086 -0.0287972588397219 -0.0879640759121267 -0.0052217507626098 0.0339012939322894 0.0402410128775907 0.0658910357019563 -0.0438047384742213 -0.0547310972729699 -0.0315442389737987 0.0341789096118235 -0.0645141222804260 0.0483977119594983 0.0007405353395985 -0.0206645026161517 -0.0146088654651464 -0.0389112936656652 0.1295354792957247 0.0242111708035450 -0.0332009574946878 -0.0390313595285524 -0.0089046416776694 -0.0330211460931163 -0.0926906995218034 -0.0246825555131161 -0.0355773862687716 -0.0631222392323521 0.1149910823963584 0.0364627703294911 0.0351703474296185 -0.0538019820833574 0.0142136139296127 0.0664921563885914 -0.0267158417376010 -0.0052925620315668 0.0351355523855194 -0.0557809264035881 -0.0437137821808835 -0.0594425079502786 0.1509156127272319 0.0495184609293569 -0.0080785452923400 0.0044777146716112 -0.0115362790854909 -0.0124155077085230 0.0168701902647855 -0.0211509138779302 0.0067636372473561 -0.0025625468657926 0.0481332465010538 -0.0688771189025564 -0.0476817182544281 -0.0552122036003483 -0.0126234111413271 -0.1078746876825653 -0.0344732386001784 -0.0094690265270672 -0.0102223237676692 0.0413511643483947 0.0687891485497009 -0.0089112611481882 0.0703679420785625 -0.0589551932183369 0.0922770953362849 0.0636737716301741 -0.0448018012806733 -0.0737776058471208 0.0253456822352448 -0.0140972927508612 -0.0034334422966543 0.0023103260191726 0.0126932547469209 -0.0761058666383795 -0.0238973032583633 0.0824580328611808 0.0046067045118921 -0.0128870082673797 0.0675499923721420 0.0332600638488236 -0.0235438145998391 0.0212657171220382 0.0015007028771549 0.0074624536497545 -0.1161386531432007 0.0407581781965506 -0.0273204734686191 0.0304481357015284 -0.0122083198010593 -0.0778785600393454 -0.0658467336891186 0.0648693166582786 0.0525384870019357 -0.0316671507652146 -0.0018186886190772 -0.0715526133679502 0.0232937459071921 0.0291788919065864 0.0775233290088810 -0.0309013249258921 -0.0242029395869002 0.0533402827287577 -0.0336367513187673 -0.0026020036355719 -0.1230631993990659 0.0655853145938545 0.0307883401933657 0.0260518319225641 -0.0393831268842299 0.0860009180898209 0.0181564143548988 0.0304425609585484 -0.0953984500994250 0.0351476884675590 -0.0327630332802490 -0.0257216769030235 0.0376884958191909 -0.0493327967342730 0.0334747625774469 -0.0414694210241128 0.0121664880411063 -0.0327538246255318 0.0213773966370708 0.0022416018591245 -0.0090710638320951 0.0185143949761809 -0.0446312765802344 0.0025515421974537 0.0106594855486556 0.0064084507403218 0.0048328391564517 -0.0489996275983046 -0.0552959928849324 -0.0384079161409029 0.0354780010485271 0.0075951934919602 0.0199105599380820 0.0260786495270841 -0.0090673195320084 -0.0173655426171876 0.0615085650474043 0.0409058561560373 0.0063307262136172 -0.0017212730565942 -0.0179524812106210 -0.0664878820509442 -0.0288037388211366 -0.0218038114696570 0.0347949896791533 0.0945877838989408 -0.0389521330772423 -0.0111041769567735 0.0001006227440116 -0.0283406001717519 0.0831831342728164 0.0537896788439624 0.0696416244460030 -0.0400753430529939 0.0498789963930445 -0.0241042337604046 -0.0997548375429270 -0.0192807439381383 -0.0290305555417364 0.0185595011301772 0.0093754375101046 0.0489134877894244 0.0966794568861315 -0.0211486713194117 -0.0838494021814577 -0.0440208893852627 -0.0114288324196167 -0.0160809666791528 0.1485434394564217 -0.0231271981701046 -0.0243810611757985 -0.0195200371287085 -0.0086448729734587 -0.0102519291571777 0.0194553108585358 0.0501137662291340 0.0019889684811839 -0.0699599869244144 0.0765978439237947 -0.0117531462535816 -0.0708801555542257 0.0285222762231242 0.0067461932326082 -0.0540845557564675 0.0355860685500209 0.0087896352677509 -0.0312311638646698 0.1253885402803656 0.0059696462198191 -0.0128401882955813 -0.0097060490432923 -0.0402396173836885 0.1368099576393374 0.0072224793811469 -0.0087840110537621 -0.0454228626367880 -0.0048111159877499 0.0636670009636972 -0.0285450794635045 -0.0170510103340091 0.0338880314011237 -0.0252137670693399 -0.0932167364502447 -0.0002301009606133 -0.0314355469812439 -0.1115159401549326 -0.1004236310500787 -0.2100975133609363 -0.1941092775088972 -0.1441195629313461 -0.1232721824341677 -0.1764258334667036 -0.1571727540560833 -0.1135455172687597 -0.0428678359391196 0.0725141181478906 -0.0323277492015145 0.0568561598458490 0.1289000169544726 0.1884477615487926 -0.1303514289474279 0.1356056263067032 -0.0915698123035521 0.0119611365943474 -0.0616905121515217 -0.0789505782061499 0.1719324375545812 -0.0005778589440446 -0.1049338150759470 -0.0740049958171533 0.1485219037399148 -0.0801588181820939 -0.0207929798399888 -0.2318739067086237 -0.0328699661406250 -0.0826512614251982 -0.0753420530429970 0.0108944162168606 0.0107166599529981 -0.2179623738511319 0.0472077115875052 -0.2529459968707095 -0.0939422860412353 -0.0035799026542620 0.1554603042107771 0.2488678699095973 -0.0317200697664711 0.2019549324923560 -0.0435702487220248 0.0195409600444210 -0.0056718003473903 -0.0624613318819826 0.0409095440305344 0.1902974723785048 -0.0039371414678566 0.1480750816693749 -0.0072955904245691 0.1794458043146951 0.0599338061598890 0.0644568734467292 0.0743604717116993 -0.0650637437904038 -0.0014353660211322 0.1769943679392999 0.0215239428056389 -0.2047504858957050 0.0618713050017961 -0.1643159306003872 0.0437624522528459 0.0706400363556213 -0.0317687177581062 -0.0710079526356914 0.0137814221551817 -0.0245658102929403 0.0973540457954348 0.1087331058702459 -0.0335343751480183 0.0035998320534236 -0.1035021345700345 0.0717768268155807 -0.3223967039492236 0.0443183373755786 -0.0048556393369378 -0.0613036252806058 -0.0523112021206492 -0.0484740011580834 -0.1212572139339929 0.0088489447027126 -0.0296736998811418 0.0934602282862277 0.0584841436552275 -0.0723526561710918 -0.0188216518637683 -0.1108184936686555 0.0123140894062679 -0.1000566484642703 0.0578226589412832 -0.0137060672519989 0.0353346644761479 0.2280200851390248 -0.1738320715557441 -0.1432948866611933 -0.0011564542102029 0.0876611265709249 -0.0015028209663792 0.0874322741356219 0.1948585745054527 0.0715917190940591 -0.0909916134910810 -0.0477416369779529 -0.0506858089893923 -0.0579970443823336 -0.1771024741740720 -0.0007865100621288 -0.0220586576767108 0.1033966689627336 -0.0691977137470602 0.0606725452294376 -0.0106378864319854 -0.0339067119361451 -0.0236317202793525 0.0005700489930520 -0.0764423293190727 0.1010450499838139 0.1900467059878368 -0.0277365391924213 0.2149953802025815 -0.1814386880476836 -0.1177780977369427 -0.0945045540298164 0.0305262272321658 0.0842420539172089 -0.1008944552171417 0.0450461574767348 0.0737774238621877 -0.0029236401184848 -0.0319541949827738 0.0340365334497903 0.0819623067770042 0.2039179976154593 0.0586186688645719 -0.1146124892237644 -0.0505587542502688 -0.0736765899617892 -0.0036652549087172 -0.0443736126379498 -0.1676859449629197 0.0624146791640460 -0.1131609731647592 -0.1357807684462869 0.1265464380313888 0.0959700570256219 0.0265022468879670 0.1767915354768567 -0.1259249922773178 0.0808624510465210 -0.0966169981149406 0.0262948020042320 -0.0292961012973733 0.0462979772837304 -0.1660010266832854 -0.1429196117298322 0.1133518249932658 -0.2911230462178991 0.3142881328595071 -0.2984007751652247 -0.1496331448928536 -0.0565363866170932 0.0815238329044660 -0.0200074988816262 0.0589889720779510 -0.1009970916228774 0.1049708375534914 0.0328001227359506 0.0064502303055072 0.2549149134788413 -0.0206141823357699 -0.0647779200519673 -0.1914672980186757 0.0401234202126823 0.1993913964251161 0.0770001362114589 -0.1117041164026562 -0.2170068535127041 0.0432366807181658 0.0580880002270475 -0.2070862872743383 -0.0755320164043871 -0.0035271706087318 -0.0604037153191909 0.0112143137029331 -0.0138234214730082 -0.0549681059993790 0.0841050189447226 -0.1930204095287802 -0.0024341133625976 0.0804153044459259 0.0180368990860922 0.2560535694841627 0.1333172169091991 -0.0384847147071130 0.0510803618448897 0.0408893120672054 0.0073930616000893 0.0074737175678836 0.0665451817746730 0.0350684988869121 0.0440140492466539 -0.0349545665809926 0.0835559717765612 -0.0922348924042571 0.0388481624161529 0.0779752488100935 -0.1835889284942039 -0.0703627076042805 0.0289169192296805 -0.0003917149274389 0.0406335903231562 -0.1850314830835263 -0.0767127837235842 0.1604667683675248 -0.0146850825574111 0.0797208983147631 0.0882110150078696 0.1046428855836399 -0.0666772154133723 0.1020961592160176 -0.0451135306033657 0.1250751704792469 0.0786952730780200 0.0464988212989207 -0.0359661526801926 -0.0067822682835658 -0.0598328234879482 0.0781534526780889 0.1223905573103152 0.0195964744441414 -0.0315509532866279 0.0999442915684942 0.1377021895177079 -0.1887647823072625 0.0367984536827868 0.0166185165600554 0.0074543076813134 0.0676163242887651 -0.1767480976277585 -0.0626152433260023 0.2080971811212472 -0.0396924492896918 -0.1035086492527926 -0.1541660577228156 0.1174341519899414 0.0069754410189023 0.0442039721750448 -0.0199783594287857 0.0886753458648138 0.1023860853386954 -0.0551500284301248 0.0840232836794985 -0.0001619605817957 -0.0115364154090459 -0.0391083764221314 0.0640481455945372 -0.0010802424235615 -0.0054849869832619 -0.0414537372672357 0.0781672182012274 0.0064649107560459 0.1814542476225114 0.0715363887918658 -0.0641580206956111 0.0581238341989005 0.0380906882218354 0.0345217043454300 -0.0157259617652738 -0.1337497335481635 0.0380423277833984 0.1237585671001501 0.0532466043814005 -0.0508283174641799 -0.0078714608785435 -0.0678865590468547 -0.1315926070971012 0.0602778306669165 0.0069386246753414 0.0901866427935325 0.0779126577885267 -0.0746193200543168 -0.0645704467692245 -0.1609303299444326 0.0083998646323124 0.0392701922714955 -0.0410136962519579 0.0586746068269054 0.1777377710711053 0.0208008663403386 -0.1119461629326267 -0.0899867665988292 0.0532522780480036 -0.0097648974640308 -0.0398117961524882 -0.0419583139751396 0.1002563439408594 0.0110661077798328 0.0767792389597910 0.0204245737268575 0.1306634627725303 0.0948474899742434 0.1334358399364958 -0.0876719150047538 0.0660959081223502 0.0523773166817712 -0.0306610448267816 -0.1400257142089709 0.0510926208992017 -0.0251140866486968 0.1143669582733012 0.1366208656726185 0.1488446133892880 -0.0665556167182281 0.0028409376276765 0.1077368579726994 -0.1604785841573433 -0.1483257446868596 0.1562804364474480 0.1036508780848218 0.0240962231676949 0.1129895858916023 -0.0089290043142095 -0.3363189787255770 -0.0883335092731466 -0.0760858639640872 -0.0179548010903017 0.0371204773289494 0.1920019470866773 -0.0292076253595240 -0.0201098377651447 0.0949583941907390 -0.1151554211817836 -0.0605036244914717 0.0045391056832951 0.0152085563862010 0.0301951664389694 -0.0522408502828592 0.0452849312580226 -0.0576190510881212 -0.0011771470921671 0.0748924530531002 0.0136996502316927 -0.0010802020203599 0.0727836576902579 -0.2079678882434520 -0.2059873369074711 0.0264415552597549 0.1950465640902487 -0.1116692159940582 0.1619306920005515 -0.0054785315005219 -0.1618757296361995 0.0172952475256605 0.2876384642551504 0.1351823734174824 0.1301814235042680 0.1306666811988157 0.2017153244602954 -0.0525653127919109 -0.1226236251283219 -0.2936312930573098 -0.2241670755151897 0.1149167272329856 -0.1554155633830332 -0.1546784057889699 -0.0256594987753020 0.1687839010305003 -0.0112752604048365 -0.0798815446325001 0.1280521990372402 0.0504906593181131 0.0679979063937985 -0.0658675123429513 -0.2002898072187284 0.0013016351795122 -0.1580844742996196 0.0956514956394451 0.0492318214479137 0.0240961400789847 0.1476864819003602 0.0991114686776449 0.1421294892884741 0.1783057162333560 0.0815528459104109 -0.0771585339494466 0.0202156087220034 -0.0364352512541863 0.0975117733477213 -0.0157448746285339 -0.0612964788110139 0.0155241126600597 -0.0735804859318288 0.0757424937898018 0.0072519965386656 -0.1321920987267820 0.1254107306433032 0.0028429162190559 0.0516470981374765 -0.1214805872139134 0.1433284129508730 -0.0380636252097968 0.0248038263072902 0.1445862921450964 0.0430553480968304 -0.0005808073141386 0.1400347221323180 -0.0639602372048390 0.1485098934155551 -0.0191198370616996 -0.0941272522585387 0.0568049462345912 0.0661731178838916 -0.0630508547545702 -0.0055353168193425 0.0003774229553536 0.0877766129563535 -0.0097954959610656 -0.0617208385779720 -0.1202380657869666 0.0912093511173616 0.0116487781337756 0.1044949953216096 -0.0003282852611610 0.1598906354180898 0.0583353490124609 -0.1838818504319143 0.0173851209061722 -0.0302435373502006 -0.0046279710377162 0.0812173492300069 0.0667188183952631 0.1681545610478735 -0.0134917939073328 -0.1606391383533739 -0.1444813501709764 -0.0558946973855385 0.0622755187238996 -0.0912910048867536 0.0676433444226345 0.1072333113289652 -0.0213436061041860 0.0340349453925680 -0.0072087808883924 0.1421623505050019 0.0194965186251701 0.1625314573493699 -0.0351378217657141 -0.0904579337589578 0.0672393370054738 0.0621794325696317 0.0975155080105197 -0.0498906140848529 -0.1421392916567273 0.1611785993178097 -0.0052007678130984 -0.0423918986092092 -0.0796841155019165 0.0407221784891342 0.0988451458932963 0.0320718570000702 -0.0371812472474028 0.0585076600368722 0.0548342492899768 -0.1753768193090664 -0.0484327701393115 0.0197585217172344 0.0546117807047865 0.0767801400823016 0.0360419807398585 -0.0397954863207289 0.0774941809650149 -0.1546812531248689 0.0483669062271710 -0.2189046344142858 0.0790445719507379 -0.0616995874754900 -0.0660469419386234 -0.0681634503844332 0.0927950812177303 0.0050644149162122 0.0201477818806058 -0.1014386958524962 0.1481529410867140 -0.0600849476556791 0.1895735407606393 0.0055374670143895 0.0561944624684224 0.1920066300734478 -0.2250379727738109 -0.0872247371803973 -0.0665172426735616 0.0006860173297056 -0.0052821445316474 -0.0118512912060844 0.1584393406656631 -0.2156403368620022 0.1955552525304844 0.0694525063982909 -0.0009981373224539 0.1140823879722392 0.0456540161411131 0.0145162377267920 0.0598018853643656 -0.0402449653236532 0.0844022140518452 0.1436679930456232 0.0817109114286795 0.1598975836546830 0.0900974121150703 0.1803944779957606 -0.0667386933647027 0.1321696964421087 -0.0668553793134765 0.0318141477396805 0.0748000473923511 0.1196223227143687 0.1179596368756703 -0.0225633683733254 -0.0805291032782457 0.0479357002645216 0.0310561402207010 0.1767901240893961 -0.1116274917405280 0.0965516877480730 0.0427287223356547 -0.1147668457398311 -0.0213969928191608 -0.0752815266375733 0.0049386190402358 -0.0312153124694629 -0.0259445390459711 0.0845944008168967 -0.0148380754187392 -0.0492229910676483 -0.0594934789008216 0.0801710550191816 0.1562087474064060 0.0579982862300656 0.0624461300506587 0.0427445088817561 -0.0118803190336362 0.1190977272512939 -0.0731839799435910 0.0064704045367435 0.0165043519250440 0.0101501100837053 0.0352869178447910 -0.0876188314375951 0.0805310679512236 -0.1077718735416983 -0.0599878345432259 -0.0622130445598607 -0.1585011409988229 0.0330138504523683 -0.0165116349051580 -0.0861187073238651 0.0825192773374458 0.0133580773882880 -0.0417485304859427 -0.0687550571526508 -0.0827991530887971 -0.0331856839773814 -0.0823112104542109 0.0201303627705367 -0.0801627604866215 0.1155545788498901 -0.0361404692439056 -0.0913541397648432 -0.1057436635520696 0.0481836464466623 0.0132933951331865 0.0455583786004548 -0.0463954878389648 -0.0657346134107313 -0.0991613826205344 0.0323792056799259 -0.0319288974905015 -0.1349244678436455 0.0440685330075540 0.0735534803571697 0.0293936119708685 -0.1265537134623125 -0.0292835960300276 0.0203399575617646 0.0858355476831784 0.0539248654332707 -0.0699364548249890 0.0415393637636402 0.0462196453506658 -0.0039596624227832 0.1160722594976782 -0.0253885734793100 0.0169524886021055 0.0505395071982139 -0.0314061581387725 -0.2260354733003053 0.0671581467742937 0.0266677863373020 0.0545180768246993 -0.0731683047238203 -0.1178046226668639 0.0171928406793401 -0.0728567338499134 0.1275451038742498 0.0895286558324179 -0.0516206920145194 -0.0547861742312638 0.1007798166913885 0.0144153720120321 0.0231632195409614 -0.1077597126217385 0.0465005879063457 0.0883672653404127 -0.0379349402517358 0.0463464396979680 -0.0435148921960489 -0.0147862843752053 -0.0237468361115067 -0.0292912385477422 -0.0934193748272914 -0.0564401026918104 -0.0427187442578681 0.0298393638860646 -0.1311734664620005 0.0700470745265946 -0.0338296219578920 0.0202180294149845 0.0482421093934122 -0.0027368692498317 -0.0057614377014232 -0.0993389162773047 0.0281817343433121 0.0382577181000139 0.0742195422816406 0.0185985684023087 -0.0530812710332588 0.0981274115712166 0.0952105877494134 -0.0514511805145592 0.0938588245162943 -0.0416846495759944 -0.0089543108411419 -0.0027837241661917 0.0390249932137377 -0.0637909789943244 -0.0325847813815734 -0.0235947480241366 0.0778639103286799 0.0727715022832317 0.0520116911304734 0.0061259261709117 0.0912136246700944 0.0219787798316115 -0.0235857691012565 0.0345046467889932 0.0743021420743347 0.1507070655109192 -0.0530996655551970 0.0042363339656413 -0.0635774232944048 -0.1156157173790066 -0.0507062849348906 -0.0333906178791728 -0.0634480686687398 0.0196034621076705 0.0060458865126525 -0.0652750798076420 0.1309429281239399 -0.0769379369318130 -0.0739880058524571 -0.0182760986707970 0.0163211657429073 0.0171380315809461 -0.0675811974709796 -0.0238619764359659 -0.0127990009379416 0.0200763967196309 0.0273630558185725 0.0489281794003607 -0.0198952250911595 0.0863072353637121 0.1096682293832540 -0.0065846412198000 -0.0207948135297041 -0.0211109798991642 -0.1017401672993170 -0.0292560034049832 0.0536239561293098 -0.0119545549083387 0.0302608424661500 -0.0788023827295428 0.0139145697476731 0.0291272355663111 -0.0212630195483709 -0.0833613846378339 0.0488595252308063 -0.0228018907413810 0.0576769377174782 0.0739133983327155 0.0116184503310844 -0.0571847434810682 0.0296284944159515 0.0243787919427206 -0.0824817014934018 -0.0349489781991441 0.0128172835725234 0.0130456979429202 -0.0886469132888592 0.0551872538781534 -0.0294715757466175 -0.0187611775197738 -0.0412572836127431 0.0445808584571236 0.0101733646148469 -0.0285126631077441 0.0869988329532543 -0.0191913406450074 0.1191483897250126 0.0323055563892256 0.0574754631247685 0.0459215166772420 0.0250579985117896 -0.0875653123430263 0.0395237397693815 0.0224043098622536 0.0264551800340730 0.1128737097642645 -0.0552672094411073 -0.0222105367788906 0.0428302703762107 -0.0068357069247106 0.0031910067411122 0.0938668594868857 -0.0441259630762683 0.1348657619810167 -0.0054013901489718 -0.0091954885555229 -0.0869471652965950 0.0287064260165499 -0.0078025675775822 0.1019510347963402 0.0926566462662635 -0.0382824258427888 -0.0146748518591993 -0.0108652558921906 -0.0706204482435658 -0.0775407187924663 -0.0108072628069604 -0.0064874228316244 -0.0980536021292015 0.0428420578788236 0.0263954383506072 -0.0340602588169036 0.0801948800454840 -0.0814655642242633 -0.0987774794514118 0.0431221205957800 -0.0224914554396738 -0.0237887119262379 0.0073968016043834 0.0721995462488281 0.0609925985723420 0.0282855357527589 -0.0232488826556706 -0.0697141062640846 -0.0276583357746396 0.0313477917044081 -0.0641777446770066 -0.1047156988271212 -0.0680184195203515 -0.0474746845462898 0.1257118782116991 0.0921877079856933 -0.0611512480482799 0.1134266981095634 0.0025325015926348 -0.0071358986457776 0.0019312110388574 0.0838530146287797 0.0784420051115094 -0.0646879222615242 0.1167294812339752 0.0772461965035972 -0.0665068743567200 -0.0258820468828281 0.0355796307977226 -0.0185533626966190 0.1171516449948354 -0.0360754106193391 -0.0921568150079640 -0.0576088736441281 0.0141602667093699 -0.0824821943097027 -0.2212255489778673 0.0603513966554657 -0.0696414301505359 0.2184744926373627 0.1395357633123096 0.0538772015717746 0.1005182885991646 0.0014843376007504 -0.1180483244280499 -0.0345535328703334 0.1015310746951135 0.0199415819650372 -0.0841907540917581 0.0822273996087947 -0.0253002060981445 -0.0849945748639761 -0.1216340342302860 0.0702978717429606 -0.0279279206537799 0.0625237366843105 -0.0047552649089040 -0.0616694241911834 -0.0402308689514809 0.1463416802975117 0.0264701170132173 -0.0141922914926509 0.0777014510977226 -0.0118871575937168 0.0869601270802509 -0.0214248463689190 -0.0820873750821785 -0.0124052647794776 0.0958333067483540 -0.0490330741229995 -0.0612874959053135 -0.0993437814724896 0.0037711715538664 0.0662390792852211 0.0239552959474592 -0.0506332721471987 0.0427664428129296 0.0403520313763278 0.0365645382247201 0.0007389491756849 0.0680203522402791 -0.0778131817889961 -0.0135742483842427 -0.0381966709208470 -0.0623071274997696 -0.0014968711984399 -0.0506414573296413 0.0306666243822042 0.0358625775610568 -0.0680718723699403 -0.0057186089837420 0.0106912118317308 0.0630187573025889 0.0706264140522722 0.0171372263570704 0.0587392868192017 0.0873253145528779 -0.0575233432906317 -0.0118119524076904 0.0063790629987286 0.0225869100370125 0.0347619327985761 -0.0521702493679741 0.0553663829376874 0.0490037479696512 -0.0249638583546834 0.0095283330068599 -0.0790628566823587 0.0436557329817205 -0.0738643031811459 -0.0147019544834331 -0.0587687323776767 -0.0667937013864262 -0.0119707215431463 0.0745781695076081 -0.0227232046098385 0.0094279471627442 0.0108661561856951 0.0801617175604185 -0.0457297898019215 0.0330497759162950 0.0036867188151068 0.0601317133950140 0.0264668663719166 -0.0881486034120561 0.0345414212065558 -0.0202906921018339 0.0022749993815481 -0.0072990688291345 0.0709406204341526 -0.0070912866528878 0.0506740703441828 -0.0905650953425112 0.0693547277582236 -0.0326869530904523 0.0562172584349506 -0.0476428002094676 0.0208573104885003 0.0356645297652405 -0.0009078813016288 0.0323523641306785 -0.0728274487665909 0.0536665487455624 -0.2902295374497078 0.1946527514449647 0.0257297040590256 -0.0897652909546389 -0.0256445237669985 -0.3448105880792363 -0.0869357266331218 0.2289291491491292 -0.1366210969790364 0.1170462955466282 -0.3432708244148085 0.1182288879175333 -0.2331880945250914 -0.0232323428133083 0.1429367030718541 -0.2580130386280289 -0.3665440620805834 -0.0891923634568801 0.0543878358708516 -0.1756582445501726 0.2402690844263065 -0.0910655032850690 0.0439853078682752 -0.1256673909592497 0.1419048690940747 0.3470380881186678 -0.0165460551879639 0.1082706473083642 -0.0478953691181269 0.0722751761389696 -0.0700897338627927 -0.2400577630008521 0.0051147493262975 0.1744520392738617 -0.0461269243021644 0.1050892219249772 0.0124627572662429 -0.1670479280693607 0.0689700478754609 0.0871222131993356 0.0773358385348233 0.0717465330676964 0.1645246359816505 0.1729566154228261 -0.0849337715129525 0.1601297789074153 0.0432239113113383 0.1206027683451859 -0.0409340515474790 -0.1631468223796663 -0.0009960133066020 0.0072484511033536 -0.0743325931517084 0.0522881887627522 0.2142361137917973 -0.0120540912609435 0.1600963216693514 0.1038334289707318 0.0961672147253814 0.0906345277843883 -0.1539543737706917 -0.2864048383890394 -0.2838038229800293 -0.1228922894097301 0.0359098401113321 -0.0375716277948822 -0.1531994194546538 0.1126095195692976 0.0656474254382619 0.1632932932911685 -0.0928813762274438 0.1312397337520646 0.0100932752986321 0.0922373700728051 -0.2007032195347420 0.0028574596435323 -0.0930531025347286 -0.1147422927854410 0.0480732598545340 0.0786520708614734 0.1050681965305523 0.0376227215846582 0.0593810659929246 -0.3817706740634204 -0.2969770027013521 -0.0697091835683274 -0.0102781206293775 0.2791366855178654 -0.0022950288566945 0.1332564839213514 -0.0001139145550952 0.1266322305691579 -0.0494652192729120 -0.0223781626589633 0.2290351422840030 -0.1219172542967053 -0.0776591486876445 -0.1133438381723485 -0.0642422909999349 0.0438903727825328 0.0284395708211027 0.1034872584557588 0.0054940918083195 0.2651802376526353 0.0042877765639320 0.1633709619526644 0.1245094459863907 -0.0082947604259378 0.1690195560155450 0.1197248822845255 0.2508416727089047 0.0564849322583680 -0.0779996117183939 -0.0161027747023188 0.0782505320618788 -0.0591852034884779 -0.0816596797903233 -0.0863504860412342 -0.0683732746010950 0.2240468327964947 0.0599453970176827 0.0424054879867665 -0.3489188936562949 0.1038606225043347 0.0676267763292072 -0.2111806285896086 0.1667494793245346 -0.2306589183436528 0.0167012644641043 0.0678426220029048 -0.0496372228377273 0.0246170542451595 -0.0964970744840433 -0.2262177657633570 0.1099911879648697 0.0664001566775946 0.0431174119905274 -0.2348313267443176 0.1655335474354713 -0.2278325380394401 0.1899560087782904 0.0610611124401059 -0.1330259335019193 -0.0437676728779857 -0.0238833946621917 -0.0376539621576224 0.0226435119615086 0.0168386492365156 -0.0493374893144565 -0.0796059561147684 -0.0643043094642057 -0.0395875270145336 -0.3201997623203968 0.3102814629698812 -0.1404427738745464 -0.1661616412894462 0.1330189895234568 -0.1028379160955405 -0.0967572922216448 -0.1456766830570280 0.0558727715599683 0.0340980589350999 0.3372877041922274 -0.0701973657117999 0.0350673314070398 -0.0693763988816720 0.0323170821941093 0.1446305301198733 -0.2311472486713166 0.0037931740663467 -0.1263382001872216 -0.0051893812327814 0.2144291671189602 -0.3396915121159490 -0.0081776135804435 -0.0683632640093352 0.1916976224978214 -0.0210161078788499 0.2219899649149421 -0.0365425592574820 0.3082075455994908 -0.2858665876052082 0.0846063543587534 -0.0322859883984867 -0.0327359104965660 0.0761946424190617 0.1264287158788081 -0.0981752013111104 -0.1896503655400552 0.0025822701505622 0.0334436136638145 -0.0610099433963852 -0.0180910975010733 -0.0611672216038231 0.0940951036001129 -0.1912116133470306 0.0346425225173068 0.3405824981328032 -0.0214127745473514 0.2590033643084114 0.0025505659800010 -0.0258180725224335 -0.0093376257372692 0.1773194499005899 0.3275238553938415 -0.0612848907915637 -0.0116305205602344 0.2378288607457429 -0.1011911974778387 -0.1749747345123387 0.0468648578610722 -0.0744140929294335 -0.1439889215481312 0.0381719303413564 -0.0734282612597705 -0.0595989911212101 0.0379130214267193 -0.2834756618981027 0.0701155423589772 0.2447485908847274 -0.2468722776558890 0.3717720090681746 -0.1057610386460874 -0.0857309514960520 -0.3254099001105032 -0.2084460905657431 0.0313145366883504 0.1410901381043806 -0.1270241085512634 0.1162082593757534 0.1173658354237547 0.1038280558124738 -0.2709408180880012 -0.1152112749714194 0.0009842213732941 0.1459032840487569 -0.0038971878382627 -0.1309697484078818 -0.1818815857997068 -0.0238135117821166 -0.1940953609785240 0.0664930359938292 -0.0446829714931412 -0.2695360814713135 -0.1718593379911391 -0.0564929484628691 0.0786754863078920 -0.0514031527283728 -0.1335419786374308 0.0898951267203122 -0.0712510356382289 -0.0441636905442287 -0.0990561325318025 0.1311706068041537 0.0599321402223332 -0.0042565850673103 0.0858178590469039 0.0059430668816502 -0.0320036278273119 -0.1568597079315196 0.0374316398261571 0.1022457894894201 -0.0357618766196763 0.0314734624182155 -0.1577426492939556 0.0759023786320830 0.0627386501178631 0.1085969507358162 0.1545109201239356 0.0370980008065386 0.0627524549007659 -0.0467848203360560 0.1567395801065370 -0.1307310325406078 -0.4525552190906681 0.3301476591156807 -0.2173421656088637 -0.0640111954699068 0.0128992592186221 0.1255360145728381 0.0067706370256103 -0.0150086841759312 -0.0661150239217330 -0.1877651674006328 -0.0728288821868803 0.0474222782629004 -0.1250012154875875 -0.0133788981192295 -0.0324873433513339 0.0102442414544174 -0.0533472965793281 0.0375190609436196 0.0005078098771885 0.0634120070820876 -0.0048922097833877 0.1113993460489942 0.1472145127321063 0.1837016329592508 -0.0090594931018100 0.0441480974772109 0.0080122542764178 0.0174326103868051 -0.0338004186102769 0.0555086192217339 -0.0492079543259553 -0.0292842843087925 0.0198255106553032 0.0437710969363005 -0.0329110681638390 -0.0097086793681942 0.0289033886783052 0.0420204686899435 0.0429925498008507 0.0375714869835386 0.0019084289344013 -0.0198900519151622 0.0506415882269203 0.0076234564358114 0.0138237619514263 -0.0026764461184101 0.0116964660931134 -0.0060145161396342 0.0301921801863341 0.0137207731607317 -0.0336671733227624 -0.0011958072365819 0.0363330960851365 -0.0148828326220271 0.0184784534298225 0.0058960327285323 0.0022153361696078 0.0275768198361846 -0.0093390175850817 -0.0182555311347813 -0.0266057900050602 0.0077622954735681 -0.0318849726503878 -0.0322726868353254 0.0064447401595627 -0.0122793672690306 0.0237725015101082 -0.0259557580176334 0.0234592183871403 0.0024551967352995 -0.0266372153814929 0.0082700627972995 -0.0269278101447108 0.0278029661528827 -0.0309517218920977 -0.0145615323913814 0.0276538320584607 0.0323774526301158 0.0318822016782100 -0.0149336868039405 0.0113104252425313 0.0557339329508335 0.0294838412644828 0.0364086335497930 -0.0064221523992806 -0.0030336828445333 -0.0193889336581619 -0.0068391888265314 0.0086246458570737 0.0083828732453736 0.0028752015170842 -0.0209177462438924 0.0325112949634786 -0.0114539568004877 -0.0059534824896122 -0.0104065180672139 -0.0156509569614668 -0.0026256303817017 0.0061865666867552 0.0223080171522944 0.0132658608090710 0.0215303358429852 -0.0021660964862643 -0.0261029592904326 0.0217019924917256 0.0039191438703286 0.0216753369737607 -0.0152455208769862 -0.0154627680390852 -0.0006878679208644 0.0055303082424121 0.0164286983857371 -0.0274738909816428 0.0204690227981795 -0.0012666225781208 0.0133726563248370 -0.0086391198591339 -0.0037481857981310 0.0082863716316310 0.0295196074875694 0.0165337067486616 0.0005007340709873 -0.0041667957092372 0.0034325709594034 0.0194775004149459 0.0241818112770917 0.0339890486699313 0.0314656023519119 -0.0024205678690134 -0.0412574373193536 -0.0104221734256809 0.0040917677409301 0.0103726772570223 0.0366791905235953 0.0014345876762014 0.0087928224490188 -0.0287459303736297 -0.0099085305782597 0.0018674805718433 -0.0046066862222715 0.0106902515934619 0.0153268051098718 -0.0368039773856334 0.0163006141181271 -0.0326464369717263 -0.0175633882931850 -0.0124677770219605 0.0017164594423755 -0.0033425351594667 0.0178877719115018 -0.0231671827745958 0.0303551491015659 -0.0265239399506357 -0.0009402038978166 -0.0281471910690112 -0.0007952650749936 0.0366402727189184 -0.0166353721068116 -0.0289695726715790 -0.0485530318931428 0.0155080005065408 -0.0079280947894067 0.0341409446967376 0.0446415714634233 0.0095612736072222 0.0438122995877666 -0.0296783612188376 0.0210638659947688 0.0468849346893834 0.0438943961683599 -0.0052192712440535 -0.0313204003138570 0.0002893197366128 0.0110858734157902 0.0085728677447430 0.0167790828383983 -0.0287908656498886 -0.0055365090497527 -0.0400775166616522 -0.0010351464634971 0.0132339569457435 -0.0100046161403870 0.0167839762822165 -0.0247209303046728 0.0270268422491527 0.0067478465771182 -0.0262426486678813 -0.0131446272673678 0.0353816367712889 0.0174992188655829 -0.0011463528768542 -0.0170734830393196 0.0227129512648098 -0.0090329722818961 0.0008365996514823 -0.0136522294818741 0.0202148567264626 0.0163567052721419 -0.0082002473840199 0.0224059157016936 -0.0024094080820539 -0.0380565339980271 -0.0110364903954040 0.0105601421257200 0.0216478231151010 -0.0470235390877543 0.0006185489548412 -0.0240536801467646 -0.0226216825291089 -0.0041757719065688 -0.0362318129588329 0.0162443460168984 -0.0141392266052217 -0.0241878202163722 -0.0086744659172844 -0.0093597740931691 0.0059159876619309 0.0220920866393571 -0.0014339514417860 -0.0135503995116959 0.0554595123304365 -0.0044343563209840 0.0298382665373153 0.0332711620117061 -0.0278435640730873 -0.0004524045837465 -0.0143103800778645 -0.0478187739994013 0.0157239458589417 0.0068947267856163 -0.0103571603394524 -0.0057180470379201 0.0356591110719710 0.0114445593384461 -0.0308882518771010 -0.0021051908418840 0.0198531074292854 -0.0182968026216129 0.0164257636408100 -0.0222803662519612 0.0224811307289001 -0.0290432585057047 0.0107387277699716 0.0223917002272569 0.0240987751686565 0.0072686095800543 0.0314508470759496 -0.0340780872754380 0.0126665214748614 0.0133246790255160 -0.0031100695576080 0.0013198164214512 -0.0193534494250488 -0.0081405786240253 0.0078144337416516 -0.0042894867282983 -0.0255823688084265 0.0211114447177004 -0.0136303379448065 0.0182444098033111 -0.0160693610534847 -0.0329766688435466 0.0141049386785711 0.0234594545427129 -0.0311437336868602 0.0299233602073410 -0.0151915608752781 0.0073725532884960 -0.0087935616937898 0.0186259291771034 0.0299445110520645 0.0339929696165557 0.0060012843177046 0.0040251811805216 0.0262898422797230 -0.0329844489910238 0.0204524311088830 -0.0274361986479185 0.0154610109024462 -0.0344501507664368 0.0244416031991914 0.0365837265692137 -0.0475549321133979 -0.0361103739886601 0.0304289988471724 0.0304663945547330 -0.0212682000265867 0.0103759610239681 0.0152214586679242 0.0004910818561454 -0.0129010155244130 -0.0166877468746662 0.0343460725496423 -0.0436580625573001 -0.0068152790146549 0.0145168370033485 0.0304139823982169 -0.0070040600994328 -0.0229368652004377 0.0351322490136985 -0.0460914479428185 0.0351263815527642 0.0312607080732094 0.0135047829474574 0.0270211972170123 -0.0063335940096081 0.0059017907592792 0.0070068458355780 -0.0081081798173708 0.0099419315472652 -0.0213023970405627 -0.0159041936996261 -0.0023422282198340 0.0324320289025444 -0.0390129771416414 -0.0341610136040086 -0.0265532438502166 0.0190466825606951 0.0461094857087555 -0.0400617005767277 -0.0129409010705024 0.0016313794390302 -0.0319337981302784 -0.0147884916706891 -0.0216939716181480 0.1195131500250079 -0.0682746704566731 0.0923965335625682 0.0571707376642247 0.2154969953940538 0.0182779134233095 -0.2627401449057641 0.0436080652427825 0.0859431769235979 0.1218738348131268 -0.2695758283354452 0.1218865554920716 0.1572001135377828 0.1102062736633895 0.1246458151800984 0.2321736765504581 0.0810035997722814 -0.3094153666456472 -0.0729565673776453 -0.1323958191003253 -0.1965045916275016 