solver_type L2R_L2LOSS_SVC_DUAL
nr_class 2
label 1 -1
nr_feature 76800
bias -1.0000000000000000
w
0.2747547903656142 -0.3478952663992168 -0.2075432335297456 0.4154190683439868 0.8467083183870598 0.0262295675544911 -0.0383924597540970 -1.0012098510775045 0.4998017319765297 -0.1028019799490515 0.1165567701387324 0.6372421537991987 0.6359451969523928 0.2064072908997459 -0.0788392948654497 0.2080886670286178 0.1567825246005362 -0.1289929667050966 0.1060594102345160 -0.1195405436225601 -0.1282422250147858 -0.1796866863699143 -0.3191749662118149 -0.2017824772116629 -0.3692096145772907 0.5539490070268390 -0.1646491463562917 0.0603275345592378 -0.3026413042887061 -0.3620452664808677 -0.0746262206679298 0.3022203003497523 0.3113795354403215 0.3711437662578142 -0.0064333709448681 0.2470436476302885 0.0028103585292789 -0.2258053274387427 -0.1205490315096608 -0.2044328913796869 -0.1284898131523228 0.1911136063005417 -0.0603916896946888 0.1799270454021417 0.0124671808562308 -0.1748546104009791 -0.3430598281635134 -0.2237599478605384 0.2737446614767128 -0.0636910558270765 -0.2166031921350764 -0.2033550533618048 -0.1660246321662167 -0.2463379187368269 0.2654533026530944 -0.0068621424203594 0.1804559046148854 0.0162494062855156 -0.2793895731607559 0.4226682234548256 -0.1206986958067012 -0.1547437487798086 -0.0506738211325975 -0.0580086844581344 0.0355082428509977 0.0880384424291845 0.1135035766294654 0.0875270082188198 -0.0667919023081103 -0.0302797025923130 -0.1634956831160552 -0.0731378274421542 0.1346612186367350 0.1396371256403786 0.0088496223084009 -0.0827805946393342 0.0398880203205495 -0.2654996277443888 0.0241274211163513 0.0207358401248107 0.0049412818556258 -0.1772074216686312 -0.3061408793974730 -0.3126784580670868 -0.0827521879659569 0.2693105766920195 -0.0609516172513002 -0.1383811759143993 -0.0547332274433300 0.1425251995240960 -0.0162533739721741 0.0525457616886838 0.1368325556894780 -0.0817249748748073 0.0174352336656006 0.0438948179156312 -0.2513800726106120 -0.0703118423896817 0.0231231713332632 -0.1090172414047342 0.0516582570813002 0.0605057851068921 0.0103525162827136 -0.0565494342824339 -0.0422641990890196 0.3084925652158552 0.1029997543544750 0.0648172820786448 0.0715761773196836 -0.0819949525554374 -0.4614398304744167 0.0008452752344108 0.0799427748301783 0.0833846001950840 -0.0239656683014925 -0.0264571829542182 -0.0641602641071337 -0.2540065350647830 -0.2072480351712423 0.2104847096136833 0.2495685227984372 0.0969609163476301 0.0478434029838016 -0.1402530230489821 -0.0479833094555074 0.0102839674870521 0.1391245758721613 0.0209240811466164 0.1335237504505682 -0.0079248162308826 -0.1292173974807524 -0.3551627396836949 0.3502166236555260 0.1404932551436003 -0.0614412149366178 0.0342712699334611 -0.0081856062723699 -0.1996981595328644 0.0010860271150020 0.1725685176831288 0.0295116843524247 -0.0893755952482465 0.0086971526787615 0.1781786067645768 -0.0817660589623893 0.0663738939941839 -0.0940265139870191 0.0239191250875425 -0.1356492001819719 0.1284259930990326 0.1532335324600002 -0.0195431952434224 0.0805433497833270 0.0576984550893755 0.0784526214055900 0.1567960177133296 -0.0607361740081511 -0.0530652466536667 -0.0197943042171571 -0.1675441381339536 0.0068105317801454 -0.1943302844966091 -0.1080835776277239 -0.1088095643124450 -0.3013606995788216 -0.0984910075677631 0.0615775952624176 0.3839911185317906 0.1752704379718070 -0.2413048489669536 0.1565305746342660 -0.0556985207642668 0.3988255729926903 0.0624169649658725 -0.1604667918763108 -0.0208796391474237 -0.0557709143882295 -0.2762912919367797 0.0166103998925823 -0.0720585047665959 -0.0724039657582287 -0.1048190441729026 0.0902563348320698 -0.0496426425708538 0.3193362531563386 0.0942372636974483 -0.2491775442966195 -0.3273924594650044 0.1374539876426430 0.2220229098842644 0.1160094180701898 0.2140574174690516 0.0332533509482341 0.1323264096293814 0.2292791279497364 -0.2051814697207549 0.1980235658811848 -0.2009292488990215 0.2098977840645678 -0.1157228475240266 0.4286077251219748 0.0196969127591617 0.0443295481951859 -0.0330662872501546 0.4099142556070274 0.2104712021062292 0.1643726943873918 0.0563807593241496 0.1722615735705412 0.1336011555803092 0.0671433225555944 -0.0913295048501499 -0.0839125683132292 -0.1429163348729296 0.1490790637354955 -0.0738449261484786 0.0423058131670444 -0.0053277947576673 0.0148597688292171 -0.0019755949337134 -0.1648299553697306 0.1890885089661329 -0.1996531828598251 -0.0150517522908727 0.3010697884235231 -0.0927502138851089 -0.1012480457004147 -0.1177096616711277 -0.0549765011205967 -0.0330545157016025 0.0597653995391873 -0.1339966202786622 -0.0622942502082363 0.0520218815197510 0.0172498306162809 -0.0604647820854407 0.0488558514573090 0.0520766007018274 0.1164899097786612 -0.1174247354808889 -0.0594744174577287 -0.1864223249522124 -0.0122955696594312 -0.1050557230983223 -0.0585823688743902 0.2321290815107358 -0.0388783492876647 0.1648702653967904 -0.0270900143334669 -0.1666954309717857 0.0052474658760414 0.0125199909302352 0.2749300206254006 0.4112331322676555 -0.1360837073544864 -0.2693479499682812 -0.0554202579389076 -0.0944564707846017 0.0523909719338516 -0.0626040652129938 -0.1366916544959599 -0.1141213671882922 0.1372887127987089 -0.0206057560102560 0.2286157279792722 -0.0642395765741172 -0.2113896819484520 0.0816246701892030 -0.1153807748133431 0.0711722128938314 0.1827977794986122 -0.2389900158925886 -0.0039867057675424 -0.0770458838338722 -0.1458805900533046 0.1054470330783683 -0.0517498426824556 -0.1694303102802894 -0.1203255864048962 -0.0192934323278879 0.0371328319647631 -0.2124667919669606 0.0751951337028419 0.0537608097642898 0.0273654491696807 0.1045765904130630 0.1085936567984012 0.2199841306506811 0.1133209567677211 0.0610370188296792 -0.0078340398243586 0.1276206695168740 -0.2345164897369489 -0.0900219413777876 -0.0705541833531854 0.0647764296928678 0.1041369080285340 -0.0033209265578330 -0.1271248350308523 0.1001906721312336 0.0005571074386153 -0.0014645492047110 -0.0043630766398114 0.0007257336968772 0.0035584196524652 0.0011864003291459 0.0061897130791382 0.0057805264723749 0.0001201106844592 -0.0017580674932300 -0.0037453885423117 0.0020819618814905 0.0010773677748664 -0.0034877361900745 0.0042080978954862 0.0022029505999810 0.0067553818966451 -0.0005658874940503 -0.0049518567886908 0.0041272929651417 -0.0090803882681664 0.0047798048506989 0.0011490702658966 0.0004747842358014 -0.0038799707338994 0.0045030683460824 -0.0060076574857659 0.0069634338127245 0.0021342016656671 0.0065295162684902 0.0031367135827735 0.0063525202537930 0.0036787577893479 -0.0029838130217482 -0.0005608953262942 -0.0037796923839694 -0.0030698835542489 0.0047311862185298 -0.0037514103715851 -0.0019816105970941 -0.0025909573778342 0.0075333838478546 0.0077729920539153 -0.0005811885216191 0.0065630030510962 -0.0050394345229852 -0.0053033990698559 -0.0066724774872095 0.0061310657852699 -0.0080978748832981 -0.0053466879529237 -0.0067974090374486 0.0021033358569336 -0.0027990122345528 -0.0068812355605883 0.0027888247559334 0.0011832487388006 0.0060227210448561 0.0054741992290686 -0.0011442868203234 -0.0065822294558447 0.0055878644251649 -0.0039110789288856 0.0006432193751863 -0.0019717682896298 0.0016924423676524 -0.0059550010333173 0.0079412393828005 -0.0036162730034012 -0.0054521868426443 -0.0063684559825095 -0.0062581451735607 0.0009205051022253 0.0058740704916183 0.0045273394333012 -0.0004835706213340 -0.0011397135928800 0.0042091069203782 -0.0007136220258928 -0.0047447285582888 0.0062810455287191 0.0038718987734594 -0.0007009679183181 0.0045056528236009 -0.0060712305730770 0.0050392008551612 0.0053704035535238 0.0013167374675595 0.0027875752093328 0.0025266290559837 0.0025467978589103 0.0053519891389729 0.0017522895396565 0.0001887724877838 0.0048909228499561 0.0070601479809996 -0.0058443837813943 -0.0073891507666232 0.0036965082367328 0.0006886709073290 0.0051590621119402 0.0020214567503970 0.0059316434333722 0.0061832419591134 -0.0066729366723668 -0.0031761051269241 -0.0081995321461442 0.0074708703368325 -0.0056418530683422 0.0086410653484938 0.0005692541500519 -0.0003698069050003 0.0046211192223884 0.0022718745115593 0.0046428163653741 0.0010645225437875 -0.0049533885197953 0.0063654200221142 0.0056283263363605 -0.0001570102095300 0.0065343333016861 -0.0023736963594726 -0.0004284220031379 0.0061331636202609 0.0007505954449551 -0.0037114133464260 -0.0026050444283823 0.0026789983095501 0.0065655694366538 -0.0059849529099854 -0.0078277242851186 0.0065704957410497 0.0014925626354389 0.0055634478129924 0.0054246826113033 0.0038838134995400 -0.0010618102371367 -0.0025658083746542 0.0043504854037039 0.0069507757642248 -0.0040311806432874 -0.0075219101561494 0.0026786147826644 -0.0024174660524810 0.0056807338740784 -0.0047468512338300 0.0074399378464620 0.0037064567516968 -0.0048627050256945 0.0037103023732068 0.0021054203694471 -0.0034997290652198 -0.0059914466463229 -0.0010607664240384 -0.0047109979190783 -0.0015190651868549 0.0005490622049664 0.0025416366175537 -0.0001012188689776 -0.0030284802489915 -0.0050068292182753 0.0065351181261936 -0.0039674690797846 -0.0044961239181950 0.0004367042059219 0.0022871647849856 0.0035011882999405 0.0006121925033422 -0.0068155352325504 -0.0057920334558400 -0.0058870093637208 -0.0068793801602451 -0.0039619397746254 -0.0050951525240240 0.0051480451458466 0.0033607547522354 0.0022693776744981 -0.0049174882554679 0.0028965074344616 -0.0056326308308860 -0.0053129873292169 -0.0006407704522120 -0.0013647118548211 0.0038011286320363 -0.0025620584431739 -0.0021361323384016 -0.0040376908222868 -0.0048465225958007 -0.0045373054160503 -0.0019388147543233 -0.0024949057833891 -0.0080453214851595 -0.0030611327330834 -0.0000003777306041 0.0044288915418941 0.0060822920148699 0.0025213632812850 0.0076661054674861 0.0039650184268349 0.0022636068750342 -0.0004211841738233 0.0034760774790432 0.0065250661917402 -0.0028586765478573 0.0003501944544009 0.0051463733256952 0.0024531513174257 0.0025440432456224 -0.0045107948153246 -0.0033631131344800 -0.0048581792102221 -0.0012085799452076 -0.0035192388921409 -0.0040614637473715 0.0044864608123330 -0.0008866117931421 0.0007022865422827 -0.0052170092896042 -0.0005125000160265 0.0047597207722435 -0.0035372985867281 -0.0043376125866927 0.0005689247636491 -0.0055072232281700 -0.0056742195502857 0.0034027559220149 -0.0057084349539221 -0.0001389449579411 0.0008672013533630 0.0005948061289768 -0.0042460420423629 -0.0053744477508177 -0.0047061974409196 -0.0000820529193871 -0.0001976816512564 0.0033835759867754 -0.0085035747711797 0.0062969196993597 -0.0050892582038230 0.0008440766782324 0.0078134606262297 -0.0002553947434138 0.0005131872728552 -0.0050284037799488 0.0006977192229857 0.0048381369698749 -0.0029560797876758 -0.0052044586843068 -0.0035217675388917 0.0034432862133201 -0.0014784269374966 0.0028686176862650 0.0010374331757450 0.0047201768692367 -0.0095471310751149 0.0036278950163512 -0.0045092434794404 -0.0031670687941944 0.0000531121814368 0.0030315397036974 -0.0058234451168526 0.0022739848446972 -0.0090635351341908 -0.0073434708320685 -0.0009456250925278 -0.0000534959562559 0.0028605350609070 0.0050658106085269 0.0023080704187008 0.0028612024805453 0.0040941948350497 0.0042513100647420 -0.0007484625047569 -0.0001982937174120 -0.0003555145043228 -0.0033835018238426 -0.0062168172269599 0.0035305931507287 -0.0031627373951535 -0.0017186895308789 -0.0005598585204857 0.0037430517007937 0.0049225442890633 0.0028199819373270 0.0033440585112848 0.0013455497705857 0.0034402696245438 0.0028387529731021 -0.0037273563412288 0.0031102078294674 0.0008718757495697 -0.0025983133753995 -0.0000650226461237 -0.0024716920590667 -0.0036214375183427 -0.0014496628088839 0.0021260029331828 0.0034063991906758 -0.0008258752495726 -0.0017974099136829 0.0131457841853308 -0.0309373204451581 -0.0031699734686348 -0.0126164163502413 0.0169974740985237 0.0197425420925088 -0.0333877466478257 0.0083315413105943 -0.0255325886656093 0.0072941127930400 0.0249548193988622 -0.0190563718840618 -0.0464376481830850 -0.0410160358065204 -0.0380784098900114 -0.0048072552988807 -0.0325990395324845 -0.0377151830444775 -0.0319387458213060 -0.0314582804166687 -0.0326854594994963 0.0154135631338856 -0.0011615197098253 -0.0089782143308637 0.0226362978806351 -0.0120789065018321 -0.0109585015749449 0.0142983227583671 0.0270960821629356 0.0072780525306800 0.0080809684948944 -0.0211424596333703 -0.0308833447222939 -0.0336266115368388 0.0005187175237882 -0.0035873621595840 0.0313952137281403 -0.0268542887137535 -0.0009342502746127 -0.0310067785300943 -0.0188068088790019 0.0281840916739197 -0.0319049111138419 -0.0247135912328640 -0.0244679246779282 0.0087494169551494 0.0047689882049150 0.0096526897097145 0.0057555760708791 0.0115814300806645 -0.0019928039212533 0.0120085778195923 -0.0111245462269943 0.0265833047191627 -0.0144672073210020 -0.0292486840753172 0.0006938456673813 0.0415451562202439 -0.0092303873400387 -0.0242457367332300 -0.0105285285369614 0.0336134442641731 -0.0402597338334631 0.0522814184635085 -0.0148009562470576 0.0101274128350278 0.0261646034705536 -0.0196715801959548 0.0304184232590664 -0.0126524567014383 0.0124937003886742 0.0183664128875131 0.0061884240757345 0.0022795347913951 0.0062625285029607 0.0131376383565566 -0.0015777620056944 0.0092812784908824 -0.0241126194257574 0.0087314108590041 0.0207309747703314 0.0247940540543118 -0.0096789174332104 -0.0162113244606842 -0.0176620878453416 -0.0192629164314385 -0.0422628558095726 0.0109541763562688 0.0193904544314888 0.0473971530670862 -0.0240661369249854 0.0048012967256112 0.0166422824875039 -0.0121661206064990 -0.0540649921907668 -0.0416397839255736 0.0196590108952750 0.0250447820525954 -0.0273724430476383 0.0261396583118095 0.0143389524405119 -0.0167439916705869 -0.0361355029133258 0.0133659631456532 0.0407959460048724 0.0540816377326478 0.0144265036522518 -0.0275776165872553 0.0020484754907377 -0.0194883302491731 -0.0166183418392776 0.0267013796704635 0.0216088423935758 -0.0158801538693326 -0.0010942923347059 -0.0082767075010454 -0.0075768928192462 0.0395285992922356 -0.0179415917755772 0.0082072311535002 0.0070826975993322 -0.0057528606153129 -0.0004960784602472 -0.0084632834235539 0.0165027279995465 0.0229997599376797 0.0009500543023281 -0.0047903259301887 -0.0396126659392075 0.0069069694701847 0.0081187694450383 -0.0210382793123695 0.0217964798198721 0.0110318027435491 0.0184470040596789 0.0317019334011504 0.0077050908112644 0.0222026748399003 -0.0061900113541714 -0.0189097324296096 -0.0038801119035045 -0.0215145437561788 0.0115272752649840 0.0061467889120278 -0.0197769086140227 0.0000632252934177 -0.0330597087473206 0.0415703566864365 -0.0077608416469809 -0.0101415401944800 0.0144802426733676 -0.0340983472605365 0.0444033327793851 -0.0268120197160180 -0.0360659836707226 -0.0190726884101806 0.0037178786249530 -0.0184611301766960 -0.0042517133517328 0.0097095202905582 0.0192712309600987 0.0044932251761961 0.0319401576331100 -0.0187885142571005 -0.0075396121551145 -0.0115969712626377 0.0236022756607247 -0.0286173663686489 -0.0023642835773294 0.0493572461087508 -0.0032807622816948 0.0071039916091957 -0.0297535411692051 0.0007143113009532 0.0152722886551607 0.0004557769498033 0.0111676554189209 0.0157859274391132 0.0016724244809957 -0.0067159265484101 0.0084351467885870 0.0078253088178460 0.0272760898289408 -0.0120254035789833 0.0061946531238594 0.0006056424158000 -0.0271200213848099 0.0295004673968826 -0.0027904510858669 0.0238344120739020 0.0001216171212980 -0.0278638011928342 -0.0100035021652288 0.0205727749000258 0.0076036890869423 -0.0044561932895344 -0.0317290566632716 0.0093533811168561 -0.0217480764999288 0.0056853199261527 -0.0290646756609543 0.0198000576092243 -0.0365615657734564 -0.0194087508022160 0.0088856038067506 0.0200727895816479 0.0244628108631726 0.0038395636198608 0.0178356769266332 -0.0150045998986608 0.0071393019131067 -0.0134662839603027 0.0173324053545306 -0.0203644680333508 -0.0223665417621790 0.0310809865616135 -0.0226102856737721 0.0006595340111447 -0.0110405063391895 -0.0031050338029823 -0.0126971141398385 0.0004524457449576 0.0065011577837338 -0.0009237842701699 0.0220165470196407 0.0147132004182000 -0.0229538676555403 -0.0143706290100695 -0.0219141252474002 0.0374827269333796 -0.0080756670271344 0.0124104186179866 -0.0160679632942300 -0.0162705084802596 -0.0042686530188186 -0.0257470518044252 -0.0063470184637042 -0.0015941232333506 -0.0015585288573537 -0.0108582696335706 0.0063759121450694 -0.0079710580999095 -0.0269964256065241 -0.0119220358493252 -0.0102608277389290 -0.0030066658564683 -0.0127043662261480 0.0049714108896988 -0.0150055349826858 -0.0094925379467662 0.0003525009856376 -0.0072337879556453 -0.0127281357979634 0.0002963478811618 0.0024684115053528 0.0002702153783720 -0.0204503184734027 0.0005454092503761 0.0091499645190035 -0.0084615679639021 0.0086679457612584 -0.0154428386804744 0.0350912791374339 -0.0043439667362717 0.0153216552403456 -0.0061704972585731 0.0174458670015626 0.0043009056602965 0.0034560656496928 -0.0010768798565127 0.0051367883332273 0.0150006217227190 -0.0006497664732740 -0.0062749802407193 0.0024761601041062 -0.0116627128105256 -0.0261577570755967 0.0150347876105743 -0.0100103225754174 0.0225830567129267 0.0022573179593623 -0.0032276645299200 0.0154269420286389 -0.0001634027678416 0.0046546099980037 -0.0129926335256652 -0.0109913795123471 -0.0201025211019801 -0.0129698550120034 -0.0186528496784756 0.0015617691458415 0.0086822355205231 0.0086496972472854 -0.0014108589753043 -0.0031209291475483 0.0128241415438277 0.0102884581922786 0.0105736454430318 -0.0094878472451468 -0.0011892813433780 -0.0469770430879027 0.0228825145992444 0.0840927359075408 0.0035853113042469 0.0311524425544298 -0.0170041863253161 0.0105307446428023 0.0584494521308876 0.0437822844246542 0.0157559870232409 0.0010316758601921 0.0034883588043621 0.0683215526180501 0.0349587465332750 0.0362187416539110 0.0260364682488078 -0.0307188090497811 0.0156136199332956 -0.0210015428882376 0.0259708301634452 -0.0133490664479586 -0.0073458698095890 0.0404578770984381 0.0307711799697199 -0.0202541671911803 0.0573536321157255 0.0069286044696918 0.0051314077166297 0.0081119865136638 -0.0223951796953329 -0.0017585630495130 0.0491814565410296 0.0515152109401430 -0.0553711509381101 -0.0148533857061415 0.0018865594520013 0.0337227370400123 -0.0317955431135809 -0.0208069294579416 -0.0007211111004045 -0.0517153848560115 -0.0318467509931279 0.0243458329947779 0.0523127105392470 0.0408920049318223 -0.0152582070687519 -0.0201934735821571 0.0083696474429395 -0.0415773984954486 0.0477537470547783 0.0031477129516197 0.0590669433389136 -0.0241476187662202 -0.0221149511412194 -0.0117054801862824 0.0073995466394409 -0.0423475336337360 -0.0074914380139568 -0.0314119169965961 0.0191338307330415 -0.0046727465931064 0.0306385030447703 -0.0336836988856039 -0.0477219964781191 -0.0142200461132441 0.0389479887777031 -0.0612478690416886 0.0198988287914794 0.0120376461452428 -0.0423548216627435 0.0130712125890461 0.0856537305763677 -0.0261377190563734 -0.0150393000863126 -0.0451542810714429 -0.0351605941505297 0.0273052604514448 0.0790547012372386 0.0037235077307188 -0.0016475349161934 0.0236743292957261 -0.0072818255844181 -0.0117751330500725 -0.0153252006841322 0.0297908424731215 0.0226000153462334 0.0555983936772891 0.0624691078169186 0.0050453592212330 -0.0105283345675473 -0.0114037970298570 0.0224934018382093 0.0396676046889323 -0.0321809751701492 -0.0123194471576785 0.0350679614811648 -0.0390930225230309 0.0096929850122168 0.0452758409141306 -0.0547811189185747 -0.0168369446923768 0.0600681656019967 0.0229435488392539 0.0305917736330630 0.0422717532708524 -0.0227426505189425 0.0157279307243497 0.0392477702000781 -0.0129780569208530 0.0127022679089028 -0.0087275396465249 0.0032421802383919 0.0370020225041894 0.0366880506907247 -0.0026014889544245 0.0087378628021871 -0.0088477527751010 -0.0203819075328373 0.0187811456245919 0.0078968368556384 -0.0349205890964138 -0.0440679827072389 0.0304518737387155 0.0213267801600974 0.0349390837099608 -0.0691821412250597 -0.0371018980197963 -0.0539631290927940 0.0554419071051896 -0.0303706034343993 0.0104969202132336 -0.0131997033715789 -0.0438796860953058 0.0428547902251485 0.0160053414443268 0.0541278932263161 0.0436072776044239 -0.0276583090614494 0.0022481376506608 0.0758364713895751 0.0113113103218066 -0.0027698765493669 -0.0192000367027377 -0.0397824927514443 0.0651995339836891 0.0279773205064320 0.0262353745530606 -0.0355470510346305 -0.0498489126476960 0.0239340849163635 -0.0174280177040393 -0.0284397979741818 -0.0392780847729847 -0.0528275719089201 0.0223512591468551 -0.0544529687226001 0.0155485378427005 -0.0796853182566812 0.0469335678970532 -0.0324550809312315 -0.0571563740552524 0.0237457759777027 -0.0200379983366380 0.0743947481367308 -0.0120206671523886 -0.0369461536443758 0.0380537044423890 0.0210248340856251 0.0137139531726793 0.0394762048409545 -0.0041131637000502 0.0247823054168739 0.0124692382400613 -0.0322669754874284 0.0340328327056483 -0.0113906052767435 -0.0204660526078813 0.0292525994059244 -0.0107825212993522 0.0476461088963282 0.0459842174565834 0.0048685289218894 -0.0101865598156009 0.0454975877005716 -0.0300361789822439 0.0044790394729414 0.0145606453506365 0.0368558083492375 -0.0139735818607005 0.0343584127969046 -0.0206715292569383 0.0834629819981642 0.0390814348207352 0.0042697231419947 0.0108372273926953 -0.0111128818912789 0.0427610567969501 -0.0080815786518738 0.0090076257589692 0.0029041481050852 0.0225865503460919 0.0572356778507356 -0.0326353025935340 -0.0376141781099491 -0.0298008075370846 0.0161181260941638 0.0414476829919338 0.0144069844949595 -0.0687560246326363 0.0054897785762591 -0.0137957632074928 -0.0187822662978534 -0.0548001253223498 -0.0392931475424022 0.0322565681699361 -0.0604567130920155 0.0209382363772056 0.0289706555761887 0.0484279997109512 -0.0003123827848170 0.0059855988715119 0.0766478622743761 0.0162524523932270 -0.0515878207782020 -0.0640130990353676 -0.0174755401879055 -0.0497302288687988 0.0711002154862863 -0.0230043196101739 0.0242784558473099 -0.0082424493989048 0.0617348173314204 0.0197860218442814 0.0731819662607868 -0.0790279065337648 0.0079102439029412 0.0199886387499222 0.0212083419031487 0.0223610860128466 0.0247460299032945 0.0064581857291310 0.0175502658460735 -0.0821467213436436 -0.0017145622283457 -0.0222088012763550 0.0247986130489437 0.0314815678534950 0.0003679054673177 -0.0390067669208966 0.0169944298911349 0.0081583975524254 0.0146727022900658 0.0340614160627128 -0.0054675895002675 0.0218165756867034 -0.0084611455616572 -0.0442249914887170 0.0162685972483471 -0.0037502390509255 0.0205126576089372 -0.0172262647818983 0.0123797685044798 -0.0407501020687967 -0.0438598714705531 -0.0216806620090964 0.0166389143043917 -0.0249834842977998 0.0192273228875932 0.0203116008401434 0.0426392100242955 0.0157573673832061 0.0060421980382791 -0.0168823140953843 -0.0132494829392951 0.0022732649402625 -0.0206831497855846 0.0084528023250491 -0.0069661910694532 -0.0002292785500401 0.0094192855407655 0.0091750655648551 -0.0039309234638861 -0.0121813364315829 -0.0362895195790642 0.0040959005286376 0.0220716397375708 -0.0366153475680429 0.0269248427797747 -0.0052901346587882 -0.0251122198926382 -0.0299809002914788 -0.0134580681119194 -0.0324926286358517 -0.0267304913212437 0.0283844036053010 -0.0144292108298112 0.0344851183363866 0.0167658598767618 -0.0191876398212963 -0.0300944312913301 -0.0775637704211743 0.1655395403450606 -0.2311397797211179 0.1765380292183504 -0.0397022088638213 -0.0627214219784513 -0.0927656806079541 -0.0210274122550822 0.4319379882057910 0.2631626800275965 -0.0235132218334709 0.0180152277741026 0.4224378087562864 -0.2619790352413557 -0.1991421882585182 -0.0200794707502930 0.1155274254863078 -0.3714524253847046 0.3150086166240316 -0.0466224957977345 0.1718355268073387 -0.1678763171002702 -0.1148199728405192 0.0529748258819165 0.0617757954070750 -0.2450142150419969 0.0847676614072577 -0.1920487915402118 -0.0936855862979259 0.2531188489405476 -0.3116314513981315 -0.1747700706578543 0.0277657124023491 -0.0641689251447741 0.3961987931175884 -0.0943670456689348 0.0887020987001128 -0.0540408159807298 0.0651906215791057 0.3122575683961863 -0.0189509942392035 0.1374967079047003 0.1123430484439536 -0.1043601968457534 0.0357086161065422 -0.2599899342777544 0.0089703272750724 -0.4353498377254094 0.0271105502710232 -0.1799057360139878 -0.0960058109050232 0.6279725916860186 -0.0119495030524213 0.3867481743692195 0.3456255786336021 0.5220122308926634 -0.2671595383844964 0.3681118296900073 -0.5928162056797261 -0.5497924226053118 -0.0806393178371555 0.1193442915932498 -0.5169977808663127 -0.1751017619230792 -0.0811053282905956 -0.2033302076399971 -0.0113739569828671 0.2316648350518511 0.0838935153465879 0.1602838781414504 0.0806876458827190 0.4201000920668696 -0.2204920530015569 -0.0509937223167072 0.2139187564706156 -0.3260869219831509 0.1052042089774547 0.3354925231305052 0.2038080286139092 -0.1819485019032182 -0.1076120979056900 -0.2523409297340259 0.3581028495758804 -0.0095795491024462 0.1365790076850958 -0.3513196031438686 0.3032958918916203 -0.7508730350498760 0.3698060210741637 -0.4734007298910350 0.2364112234455694 0.1093604799382994 -0.3951070726057129 -0.1113014176764462 -0.1986676083855977 -0.3876914266406925 -0.1611609174828345 0.2669405457649445 0.3805875524415054 -0.3277534689242173 0.0612288329149320 -0.2776291293757263 0.1539823874033491 0.1362909352277220 -0.5266917473096739 0.2291601352583960 -0.1491029169986229 -0.3964829125070276 0.2727543657009745 0.1539272248917123 -0.6039932886541686 0.0516675647081284 0.2818639667509650 -0.1877762030551958 0.0308865534178795 -0.0960195684767560 -0.1772570446218670 -0.0150624554915504 -0.3693106343403811 -0.2409734264237653 0.4654290263529401 0.0678609828838508 0.8251072076511154 -0.1758146480901532 -0.1491385752890976 0.5885901276126937 -0.1654845359862503 0.4160645429393959 -0.1813485613861656 -0.3191480912424328 -0.1142660452092182 -0.1073261384894455 -0.0899517391051237 0.1065860667506203 -0.1206602653588732 0.0923198771071383 -0.0616876006700833 0.1354120292740169 -0.1600581160778248 -0.2523350272373061 0.0088228470044812 0.0318133203589463 -0.1073791211424953 0.1383289462051640 -0.1923823906224717 -0.1143368226409979 -0.3018605437781787 0.2825881995055977 -0.1359253130461829 -0.2834545776950215 0.3845048011451575 -0.1750779799432830 -0.1066624521211667 0.4592223817723326 0.3857406249205979 0.3025603693240380 0.9417598118525105 0.4577676903778919 0.4178939689767264 0.2614408481973555 0.2775009030197119 -0.4449301863332455 -0.1988439696601642 0.4715946451160833 -0.2314552253523345 -0.2877273832376493 -0.0311782481403933 -0.1348152554077318 -0.3552083561885663 0.7385994045839702 -0.2591602974482898 0.0226966275208235 0.0453599148155361 -0.0139832624048152 -0.4059952775140470 0.0112969193257290 0.0337165350641132 -0.0842982538553408 0.6124304528328472 -0.0363209997578693 -0.4137923009313954 0.2164652792254289 -0.3437576830797655 -0.0398349390714645 0.0987813992463813 -0.1773063712406810 -0.0256319244796877 -0.5023105463218063 0.2652354770387866 -0.0162839997039010 -0.2526322471223373 -0.7370163319867492 0.3819777073994533 0.2114016904507149 -0.1623968664204653 0.1523648174192212 -0.0464882550594937 -0.2607366020310264 0.3984474865226543 0.1245791426513269 0.0061998086683913 -0.0801192733452692 0.2301194436007172 -0.2153750677675452 -0.0262409775744430 -0.0171864241102162 0.1690257120726097 -0.7002651335133177 0.2634877396782515 0.0526787652996810 -0.0182565544569244 -0.5765119970379892 0.5038497249621742 -0.5567062909014627 0.0119524144615508 0.1837719533095572 0.5969072291184376 -0.0019016328031346 0.0882842587337130 0.0225316133388622 -0.0175828281553844 0.2757674712424089 0.0323361234914659 -0.1592795590878721 0.0071012988601224 -0.1774151417751829 -0.1573366988032512 0.2622475918428041 -0.1176719495938593 0.0483974656419789 -0.3474760542929542 -0.0649038093355989 0.2616506488859385 0.2091235258732153 -0.0027176950507081 0.6847907516751385 0.4274650038913027 -0.1069451277835310 -0.1372273739508255 -0.2369125756394889 0.5308011712444396 -0.3564959949459085 0.3651924687568260 0.2651589956208429 0.3756121695791878 0.0246031123043609 0.2694679626047782 0.0759965136327890 0.0009787275241542 0.1702986629014210 -0.1693621160894910 0.0167073841971973 -0.0916254387431415 -0.1028344320541372 -0.2246026795806171 0.1826164617216282 -0.1893493181929898 -0.0515697153324670 -0.1054674195054926 0.2245228326444453 0.2077291783943516 -0.1114946545979002 0.0806811031205537 0.0201227402868816 0.0684084551205251 0.0360541494243879 0.0844230336993304 -0.2889014552303806 0.1687852505304425 0.1684613593568210 -0.2705138239619283 0.1679001409107903 -0.3954829194909661 0.4224659737630652 0.0640282577833064 0.4272874412477952 0.4261009673557064 0.1239186368786784 0.2048241882736020 0.0283508200560146 -0.0252485030069874 0.0061937705177440 -0.2911006207340339 0.0197172597420873 0.0966682006647574 0.0412361495466639 0.0064453709979419 -0.1889917526375753 -0.1075997963359612 -0.0462010593330815 0.1118427276645121 -0.0228518218424867 -0.1030081321971145 -0.0559306021865358 -0.1573535109937508 0.0097285637719803 -0.1284309186037836 0.0321583619990287 -0.0210758757338870 0.1298562841579313 -0.2709833539847281 -0.2245682583329018 -0.4128779203789003 0.2087744305715332 0.0765361229279308 -0.2291822721570204 -0.1507187495947080 -0.3080348625894825 -0.2887787435810754 0.3223312433746421 -0.0282695360218189 -0.0053645066236181 0.0786738677592520 -0.2033581521937573 0.2857631496795046 -0.1599197583822775 0.0067781849786764 -0.3326046203956480 0.2670921845976134 -0.0947759953781095 -0.0717609833939104 -0.2116175618327606 -0.1966079209611664 0.1195465027674487 -0.1574344982620727 -0.3210261496376544 -0.1827272050890615 0.1927334733241922 0.3358630317087030 -0.1176263611786759 0.3058317087685072 -0.0025100177001776 -0.2748037717174786 0.5081939214062059 0.2005453608684035 0.0196457494030405 -0.3067395921560053 -0.0606235783071972 -0.0482861592035297 0.5343139552514327 0.0662581661489092 -0.2409411351705324 0.1383752466263767 -0.0335895899559387 -0.0092309411262217 -0.2258299280494102 -0.0532633482102204 0.1352388070546351 -0.3290260983922747 -0.0345498121481046 -0.0755823387593860 0.4691570333803389 0.0909404945450248 0.3099068135733617 0.0105327111520465 0.0981001013829850 0.0659722258002782 -0.0384434707658726 -0.2324486574541901 -0.1188136876832929 -0.3362827757123327 -0.0598353256977879 -0.0702829968042895 -0.1439731110691475 0.2069439744486509 0.0229828102218550 0.0139920844326830 0.2482243346186009 0.0799515190659512 0.1160087852150055 -0.1630640088326623 -0.2346503650811670 0.1746892345092593 -0.1430064456539684 -0.0419037340613965 -0.2529733688365912 -0.1235208870387527 -0.0029156900623114 0.0189077945863163 -0.2327237217021089 -0.1869187616769027 -0.4532408196523606 -0.1491886401458350 0.1181774891247363 0.0441642871045748 -0.1795118759426694 -0.1731415873971841 0.0918834631724282 0.0984253402156794 -0.3470802487006409 0.4828193604356438 0.1561785235592316 -0.0930159382485331 -0.3643238776575868 -0.5229563370863498 -0.2516949512693902 0.3230365678819797 0.0539724717528451 0.2915669359972471 -0.2367221897265552 0.5465416981904764 0.1740682424987788 -0.0173348467245901 0.2593696381445226 0.2156458310835885 0.4694074915692339 0.2317006466521206 -0.0861937502625887 -0.1885645107501593 0.0554599995658326 0.1523963587175912 0.0000972850045668 -0.1188681560665189 0.4607558280879754 0.2944946018410576 0.0288888745971297 -0.2369398620298811 -0.2076081743227514 0.1795944418216101 -0.3016016678215662 -0.1514301779850721 0.0138180042826626 0.2617211494573224 0.0691316894079895 -0.1111255199280662 0.1665485709000361 0.5873866756484680 -0.2712834250099292 -0.0991706663365458 0.1788479611465315 -0.0722443982443610 -0.2710472111936511 0.1750155608751981 -0.1233210303350000 -0.0396206996402620 -0.0242149368982230 0.0857136201061958 -0.0836317512526977 -0.3117382792525440 -0.1000244908153629 -0.1977572001724588 -0.0210460626060148 -0.2029538627478026 -0.0564673864831144 -0.1483743074261422 -0.0026384898336277 -0.0495124522152013 -0.1273653808861507 -0.1495715431240150 0.2086738571820531 -0.0832722159610114 -0.3734363227405258 -0.0620740127152255 0.0459290266562402 -0.3714901389248117 0.1991982034156602 -0.0158776589271175 -0.1708553072594486 0.0485584377685577 0.1693250309311801 -0.2756968527547788 -0.1998004674778042 0.1082998822833574 0.1249017379088633 -0.0592748189741004 -0.1708738017910310 0.1964683686944820 -0.1444372201674230 0.0410457300042222 0.0902936102557453 0.1899593431724129 -0.1446899120815700 -0.1489096417841121 0.0821940751846215 0.0088916787870044 -0.2163436086115023 -0.0884367531003506 0.3387879572189864 -0.0630696376956010 0.1387364735997486 0.1487494341747411 0.3880214169895167 0.0844089445477996 -0.1972623740744875 -0.3020621290620280 -0.0345654733416681 0.1155824335128185 -0.0169397387260272 0.0450809488208356 -0.4564978419144806 0.1962152138294037 -0.3415925172618646 0.1508323594990153 -0.3747303339299118 0.0707249392595682 0.0797927841531216 0.1481783876140995 -0.0641526453133749 -0.0728659944436992 0.1114757118668127 0.2436407343204009 -0.0094385645243614 0.0530803946065723 0.1113503604917371 -0.1071660906264914 -0.0729448902435540 0.1130541150880414 0.0305744024173504 -0.1915837742058338 -0.1180614713190780 0.0265120080595252 0.2531720925999062 -0.1239337219601353 -0.1472353821087421 -0.3361703756478504 -0.1220505883442505 -0.3990680669545537 0.1143482362719667 -0.2887973912137561 0.2755120386450829 -0.0251218078003623 0.1687821737126015 -0.1805944162340231 -0.0608216526873323 -0.1259349452914334 -0.0985473104437037 0.2684481399904456 -0.2278240389547014 0.2047743044882863 -0.2675107618341473 0.4263702983981567 -0.1291811147225841 -0.0129403448167234 0.0584335292685326 -0.0980354156106975 0.0368318910154808 0.2196960923771604 -0.1653548656440123 -0.1660434341271235 0.1806721910606112 0.1110876270759500 -0.3281864168135721 0.2570077183851881 0.2273984478448481 0.3309133488567876 0.0867046756744173 0.0339471351819109 -0.1805747484544733 -0.2513977319347410 -0.2142044112998363 0.0530917214762739 -0.1045319680237815 -0.2523079449481457 0.0368093147331767 -0.0126114686770567 -0.0086933420025164 0.0797608872854487 0.2146822777194342 0.0178753109543596 0.0816207696343814 -0.0448198453610802 -0.0006755149812185 0.2599646395160106 -0.3507224885586106 -0.0916514708455394 0.0389949069150306 -0.1923575109474304 0.1837280921637924 0.0645420301492171 0.3373512995569281 0.1374460149007027 0.0490664739585572 0.0778260936116553 -0.0081085389170233 -0.1672378509541196 -0.4085536688703709 -0.1654392207150704 -0.0640020817039566 0.1782279873548376 0.0091405996940098 0.1030720867732649 0.0462286047966162 0.1350320769952258 -0.0662794943677373 0.8021275694310273 0.0045821568395597 0.1618764784561658 0.0526321311957225 -0.1704942929796509 0.1956523278196983 0.1825858475342830 -0.0688651672555832 0.0207379846957535 0.1927320465544868 -0.2226018830038662 -0.0290983023549791 0.1407420341616260 -0.0078033801000326 -0.0862178680968417 -0.1679972426704229 -0.0832482432238201 -0.1488469019831032 0.0071995131106910 -0.1151669178272532 0.0803049587571608 0.0558889890209899 -0.1673056477292303 -0.1101101846434722 0.0889846817607962 0.1347143643769134 0.3265370572630206 -0.1147637591930985 0.1319446772778331 -0.0508528458118523 -0.0474321566702174 0.0592639254607247 0.0811719740448527 0.0323579912711350 -0.2296278039097121 0.2211219418809561 0.1497568667263967 0.1205883447268378 -0.0581941980511197 -0.1700247182807997 -0.1823804386421550 0.0241540433840029 -0.0067225190504926 -0.0090468791066762 0.0418877810388601 -0.0845180915229353 -0.0271042924063567 -0.2060474505535424 0.1360863154153443 0.0011294813126280 -0.1498153755462118 0.0715927579027082 -0.1870239684980808 -0.0091304660092600 -0.1732169499013965 -0.1566387196696014 0.3348816127966736 -0.1511446977989784 0.0057003516458880 0.1437599530698181 0.1964571444875801 -0.1539526444570443 -0.2261997901460638 0.1564044298289885 0.3575276094642940 0.0047309665843370 0.0865097916786528 0.0302063023083932 0.1072254966998767 0.0957704834738333 0.0134960904488186 0.1357135538303840 0.1816638666387943 -0.0384044579908390 0.1549716594215568 -0.0131868105924486 0.0766907650656899 -0.1084848871721198 -0.1671083604981850 0.1505028321284433 0.0537238919799925 -0.1535463920746319 -0.0088759542089156 -0.2456731351743831 0.2722385873417017 -0.1093733771436961 -0.2039762829359593 -0.1592264588897108 0.0612991638814564 0.1250617372847566 0.0139483084344022 -0.0142457765421469 -0.0187099687487652 0.1195152792706453 -0.0820558035718591 0.0364236222451780 -0.0270901358377235 0.1206672641773249 0.2768183169854316 0.1171564632416779 -0.0170073285169289 -0.1449884733868732 0.0770203525881229 -0.1432482351574376 0.2622717910948125 -0.2636107261552134 0.2171790822524062 0.0399888040435297 0.0425993539412238 0.2947637928836676 0.0670216974847637 -0.0421165660552120 -0.1048948531374124 -0.0932462606351525 0.0586208755935981 0.1210128363297022 0.0753498154411698 -0.4079215001591779 0.1160198718733150 0.0269512451975451 -0.2120805288494722 -0.2516602033406210 -0.0292117376498162 -0.1089477152298723 -0.0855007639013780 0.1332191106683746 -0.1489475766200453 0.0541734439454620 -0.0173955762780759 0.0661532638848421 0.1355305820567998 -0.2136769363601051 -0.0927541783596253 0.1550409600814775 -0.0162638928156973 0.1957023640573034 0.0608175036419785 -0.1132048545824396 -0.1312954135344471 -0.0972259685162867 -0.0482418055229089 -0.0319840273802076 0.0724125599137532 0.0406138042028849 -0.0984635871130572 0.1105209919343570 0.0911005391365025 -0.0453952682270452 -0.0461614758355040 0.0835234138207617 -0.0307821947116860 0.2749943908555340 0.2082242599469272 -0.0676862825935414 0.0247406887164879 0.0808882498668937 0.0856893962485748 0.1244350900347636 0.1293053365032705 0.0074106811938793 0.0861548126598673 -0.2488864326526929 -0.0895742065425363 0.0529288003730215 0.0975629756020866 -0.0324027580157639 -0.0367283345326454 0.0009645438524329 -0.1085259463109867 -0.0518284697623851 0.0196348325091465 -0.0575840807262767 0.0201307930820317 0.0808483184189610 -0.0159128267692715 -0.0346850826291397 0.0032569874182313 -0.0684464130735708 0.1253764663923543 -0.0608118278678502 -0.1866136956246781 -0.0083141397549133 0.0012933561594882 -0.0120179321004421 -0.0679563485038671 -0.2663303232453815 0.1005223844643932 -0.1417160064925080 0.1307405474996071 0.1258284412645004 -0.2494310942955214 0.2176256210347454 0.0630970994327803 0.0463762989820438 -0.1201466154965888 0.0654908035509216 -0.0162718420515124 0.0670415164711480 -0.0523554634280310 0.1898348587052343 -0.1207141719112986 -0.0975838722143598 -0.0899738178911250 0.0760289069377754 0.0396470704407078 -0.0872702835132502 -0.1246752804710235 0.0557039909214972 0.1654416916961187 -0.0180487602809866 -0.0703902384250183 -0.0375047912688603 -0.0753048798025752 -0.1408760731248097 0.0679554829208679 0.1370112193111524 -0.0494743875052999 -0.0859751585601257 -0.1403001832032832 -0.1615631324104008 -0.0258720648271849 0.0069786850168872 -0.1071454038986965 -0.0608238669979484 -0.1720748882972787 0.0599695568946328 0.0099782398835379 -0.2256272495625145 0.0704076094617428 0.0801423993907780 0.0487061150578569 0.0709545378797081 -0.0995460191085054 0.1480504324002613 -0.0268833561363969 0.1735991522145719 0.0816820618574640 -0.1681956482174646 0.0347168824209584 -0.0787181852983323 -0.0325734632996214 -0.1853072153572875 0.0049915486916122 0.0125056172538213 -0.0815256422474674 0.0158569560658466 -0.0960178703879438 0.0670193118395502 -0.0865723355301855 -0.0366298675445536 -0.1173799781153585 -0.1681235741627785 -0.0484738544588603 0.0496266759965199 -0.0197768573286225 -0.1351215041664715 -0.1183805089118440 0.1072228170805244 0.0185956852054418 -0.0561407456024320 -0.0672058943764906 0.0225138099434078 0.0967243202561817 -0.0730050262415152 0.0806478074380248 -0.0480206126216724 -0.0082117283816715 0.0975601252472735 0.0413660409891410 0.0600512986838487 -0.0899581945857253 -0.1019326854301136 -0.1121339024719680 -0.1059382451279724 0.0712650115319474 -0.0358634845160057 -0.0240495245532836 0.0331222258819402 -0.1348118973340440 0.0249891496686940 -0.1759792884183177 -0.0234804681518044 0.0508776924824342 0.1060965989610831 0.0787356740941177 0.1089164641522221 -0.0936313500094642 0.0947489212853627 -0.0054324613901563 0.0531579906884271 -0.1255440725199874 -0.1212069426913768 0.1243476485118092 0.0652402416674057 -0.0450539695778960 0.0603131917301355 -0.0181681275332426 -0.0798985520566751 -0.0780484367365888 -0.0375948137948545 -0.0395794159589771 -0.0182110524454731 0.1243027592876811 0.0106193882372196 -0.1912647794223580 0.0627056918799961 -0.1352607636886228 0.1697904954025860 -0.0149747227517438 0.0956459325855635 -0.0895376454478474 0.0120020270265799 0.0704059163670191 -0.1051925750197215 0.0493776290611683 0.0126976421999215 -0.0821591045654249 -0.2372539521504927 -0.6607221577887553 -0.0828742259284593 0.2795412103511637 0.0779607837531937 -0.8034738165830057 -0.4109083452441359 0.2131362279392886 -0.4841557093182741 0.1278463891262328 0.2815050946483760 0.5013614839807713 -0.1127587819585249 -0.0507455328525011 0.3487592615623044 0.2117178256705490 -0.3003358129795498 0.1723990032167994 0.1563052339701321 0.4929660776462594 -0.0786439732911115 -0.2006317490503576 -0.1652611888007072 0.1733140367340699 0.1234928938264110 0.0945162890945916 0.1599283540366001 0.2884807003773705 -0.2997004318661745 0.0188570044234126 0.0431459348197013 0.0017080077268624 0.0738620525918848 0.0793153670287683 -0.1394865209196287 -0.2372807781364737 -0.2807746669855126 0.1064074789127512 0.1681331866149089 0.2707143204310958 -0.2267508149820261 0.2871568668624118 -0.0738635691235441 -0.3324433756849783 0.3709677080510611 -0.3135446426275266 0.2116866933058837 0.1882847558575841 -0.0864316427878051 -0.2370135077659362 0.1909107506901016 0.1848834048735279 0.0140163525585372 -0.1160051285946969 0.2961747431297310 -0.1780871716763961 0.1552146019972756 0.0036819487864696 -0.0211753472203773 0.2559265123697123 0.0163835637025003 -0.0342882503326342 -0.2374793466847125 0.3083281578655611 0.1260957773101253 -0.1021739990287531 -0.2854412050442449 0.0590061587631376 0.3310672410678307 -0.5859028636087482 -0.0276389543401801 0.2332421094767058 0.2098332802948346 0.4423553841903427 -0.3399526804203969 0.1178785548296950 -0.1351263755534884 -0.0122509830646027 0.1871714454429734 -0.0675547834806179 0.0879441414811588 0.0136352221134713 0.2134033580250123 0.0535985541232097 0.0419800573105081 0.2277774006552156 -0.0019198537491335 -0.0491062138810387 -0.1287232833833596 -0.1523824060602558 0.0562601595092520 -0.0649703352616397 0.0202540261747120 -0.1971503559155868 -0.2491566957806095 -0.2355970294827588 0.2315254970945766 0.0048855219135792 -0.0305701518554947 0.1276602303846721 -0.0936514539272812 0.0493051815970606 0.0127027418665435 0.2938865812536494 0.0584111250777223 0.1688602174754035 -0.0470225948297131 -0.0056335668420816 -0.4765989469588938 -0.3601672778323019 -0.0837274462476503 0.2688731604400264 0.0350106469506884 0.0783488968649550 -0.2355785596693145 0.1667417172824436 -0.2166375421324360 0.2774718731907961 0.0291728639172715 -0.0311618985924398 0.2060098442824929 0.1934446804200924 0.0559077697803354 -0.0314127990192267 -0.1038719314275745 0.1561266338377231 -0.3389379196848307 0.0769076385966924 0.3308082498075582 -0.0188446782055612 -0.1981326066275013 0.1932675044584774 0.1151309650378827 -0.1500227619448619 0.2715270344188115 0.4033508961477890 0.0172247461315998 -0.0881005541039575 0.2692701403240013 0.0324006052229796 -0.0510873426890653 -0.0625690508472448 -0.2107562113111812 -0.0931224264963464 0.0367430812850247 0.2630234691116326 -0.1625077886322489 0.0065916725496111 0.0446003292935247 -0.0456551926342721 0.0216543875804782 0.0918125962323588 0.0875393881636856 -0.2911134697029925 -0.1917339787961643 -0.2388401435846897 0.2310289989234095 -0.1427948489185440 0.1909753056695862 0.0084083181589620 -0.0856867958030545 0.2956413402869875 -0.1773632154760169 -0.0917002203733234 -0.0569187823132635 0.2600051025804204 0.2641132102178431 -0.4983273091250321 0.3825262984672766 -0.1613894587274634 0.2249021784153459 -0.0598726032491515 0.2734662126838396 -0.0774345649922278 -0.3358254822326603 -0.0890822792444018 0.1389286297098455 -0.0170913424037672 0.2021384805664888 0.2398966545498598 0.0139927613541602 -0.3620425704921620 0.5121034054926265 0.0117024220288519 -0.0815027325014250 0.1041272884081100 -0.1444424517659098 0.1044942687753045 -0.0752187899291304 -0.2538019700569812 -0.1205371149949353 0.1020152964450760 0.1503467688796609 0.0167888339822411 0.2982033956007010 -0.0069700258907980 -0.0518886643037482 0.4056292680018181 0.0827628529916023 0.3451758946396222 -0.1080479645661622 -0.3129557835742154 -0.0031414978024682 0.1809698202515672 0.3462803855177465 -0.0658803802685403 -0.0556002719901793 -0.1076114188753150 0.1548805953306305 -0.0513473192002438 0.0764539804373033 0.2379401286417827 -0.2046437750550928 -0.4260125208028102 0.1423515834566834 -0.2463347353290299 0.1235600072778304 -0.1098329325119498 -0.0383978314550927 -0.1430873773875358 0.2469787740427941 -0.0480402389068396 -0.0722542825239231 -0.1602794056557569 -0.0657560553030231 -0.1505813728086783 -0.0644356203602991 0.1835182332881734 -0.2141266018426449 0.2868479270128976 -0.1423219468697379 -0.1739022287016410 -0.0447886467554093 -0.0224157732243663 -0.0631543677755991 -0.1359997991126492 0.2514845998733816 0.3051470437113727 -0.4324356526431443 -0.1098935244474116 0.2695681180947941 0.0146328882302644 -0.0054843847406946 -0.1570015627737719 0.3976259519026536 -0.2702521159508627 0.1068136780650904 0.1923299153789814 -0.0523854378937207 -0.2333582326050313 0.1000846647739811 -0.1765073465580106 -0.0710652606874139 -0.2910591091839672 0.0092858884807502 -0.2687990153974750 0.0190427125312051 0.2196707814611074 0.0722824043929929 -0.1734872928457724 0.0341960333798091 -0.0916062054354774 -0.1207885408705189 -0.1445966139548011 -0.1363824653521397 -0.1434932773327826 0.3013314885671260 0.0435209420553502 -0.3267742966037449 -0.0566816601686412 -0.1640881852909583 0.2645840270696317 0.0930596716801783 0.1836762918832643 0.2158486217022072 0.1983589544374227 0.5051752868772560 0.2919303102466233 -0.1745455234069899 -0.1871264773856556 0.0454072408268380 0.5077867795961569 0.1882670342718780 -0.3500507598602385 -0.1901962283635479 -0.1820204040069496 0.1028401422876117 0.0324895713487404 -0.1794972387583137 -0.0317047187916743 -0.0620449116149591 0.0974581655671625 -0.2768507593181009 0.1110428862489422 -0.1060283873750164 0.2161460592284036 0.1832011572292645 0.0232960260093859 -0.1070294071688239 -0.1377196886412229 0.7407033269799571 -0.1888750723192938 -0.1783162795078179 0.4740130235428436 -0.5439574143773263 -0.2487285920717215 0.1142824892035523 -0.1584401283878935 0.1430900562473667 0.1219049654115141 -0.1662721174490669 -0.0715425680261037 0.4954398016673121 -0.1207589213291442 -0.1224852989706160 0.2921120469603414 0.0396853068734178 0.1442689519625143 -0.1726389557478298 -0.0349390805554824 0.2874661199792846 -0.1291042477788888 -0.5359274649007514 0.0259755869527048 -0.0287399993231284 -0.0163866173013974 -0.2197978842037186 -0.2223210133367015 0.4353254238758656 -0.2400223042859477 0.1450172055922447 -0.4004042466713568 -0.1105554234134486 0.7133071933241665 -0.1123679426290014 -0.1927413424455209 0.3868168303324256 0.4283653663295301 -0.1412595716718195 -0.1029457705074738 0.4649179041296239 -0.2261812732616132 0.0585944141695480 -0.4356271342551773 -0.1485519564653461 -0.0545506575705325 -0.5569136342628571 -0.0373156039765048 0.3306781773283806 -0.4576855310145927 0.1802997901030426 -0.4675201658274887 0.4123976073009964 -0.0649379918522888 0.3191812915227398 -0.2653471369461064 0.1360346628950082 0.1063432337038177 0.1744724523980001 -0.0297882086086239 0.5036217624999103 -0.3615681705790671 -0.1362957352433552 -0.0855534434588350 -0.0990205110396999 0.3417556395790436 0.1291387168672889 -0.2397379507701851 -0.1979558215051057 0.1406038914606015 0.3826228671509266 -0.3123223484817606 -0.2014732158052789 -0.1467956476940014 -0.1646433673502435 -0.0448962776894556 -0.3016585226062872 -0.3784592492502180 -0.2039462660061299 0.2070271851323030 -0.5278381587361076 -0.1501446673723939 0.4278441509618330 0.4135588915271975 -0.1358100656578995 -0.0894680619691074 -0.0114898981331009 0.1387976077533931 0.0014797711484237 0.1097265272183195 -0.1247444019258267 0.3362572313432957 0.2297708274936574 0.3341848896855759 0.1980037264106593 -0.3746730880779754 0.5637361196024683 0.2499604905968043 0.0213660224757105 0.0650710137032043 -0.0614567178868623 0.2285489757948309 0.4545468225890154 -0.9208915527243634 0.1343239250325337 -0.4217531342203092 -0.5671020786157717 -0.3082528342898997 0.0617503198507590 0.2400315415384599 0.0457446964230687 -0.0968390343502149 0.4503766529077873 0.0466682785309457 -0.5120485545140173 -0.0774527798876391 -0.4585674777236090 -0.6257918854997285 0.0358876059225762 -0.0958756319515027 0.0000612583086577 -0.0755721751643963 -0.0885892245859906 -0.0771726852095319 0.0714347459036342 0.0851196437237846 -0.0306534817124064 -0.2532001457991114 -0.1008423032292191 0.1582906336159006 -0.2624421831636235 0.0835491240439690 -0.0756300196397838 -0.0236852356365501 0.0919951890293900 -0.4297580990528079 0.0600448365298770 -0.4152475678933875 0.2061505846558097 0.1108980722456841 0.2908995150373942 -0.1549743877080438 0.0481678269559892 -0.0015983223396719 -0.1087077780350147 -0.2569600230143788 0.2012817636668681 -0.0684423559304780 0.1793236299803368 0.0913390164329605 0.0290409145151111 0.4439763600503961 -0.5515487895710078 0.5045609230064479 -0.0514322336013039 1.0231893131063379 0.2118297358765282 0.0942600435411777 0.0820747308614124 0.2344310168002801 0.0792358116665091 0.1860550080196430 -0.0505291848787359 -0.2649677397018143 0.0475146398521654 -0.0676077105543459 -0.0529228287660097 0.1815836924278977 0.4420733530071594 0.1536101923092240 0.2355953630775749 -0.0292474409860753 0.2181410961473572 -0.3225178998817043 0.1365104483298386 -0.0547837594443006 -0.2374447331994731 0.4999885751339198 -0.0047001422012065 0.2317849275623605 0.2413850029234161 0.0783752852366761 0.3913859471549681 -0.1998645864802378 -0.1034513163012812 -0.0234847218613417 0.1372069744134697 -0.1232289927625862 0.2189794674437545 0.3695334641005861 0.2938377923011956 -0.0239926801317377 -0.0086275563284066 -0.0754644173019829 0.0083146185232979 -0.0204176316144010 0.2815787188338205 -0.1599868302860113 0.0020196873183631 0.2562171411574485 0.2492817188563808 -0.1044480905295324 -0.0505215237535845 0.3507438024857616 -0.2694099457614806 -0.3075202422049231 -0.4434316942590252 0.0150283696409074 0.3775398376941753 0.1443431985028304 0.0419003798691825 -0.0077724274519991 -0.5544562371564401 -0.5007221625653004 0.0198450567685141 0.1030999746536845 -0.0896145262640828 -0.2135666662224710 0.1318639524617262 0.0817278984414165 0.1483459395264241 -0.1022919936017964 0.0414478078433379 -0.1601588664928356 -0.2886754476147029 0.2168673967019424 -0.0849889432941561 -0.5075848710618207 -0.2717266066971948 -0.0150549577835842 -0.1142238517054367 0.2098556028407499 -0.2779030359643467 0.0873851475013110 0.0765268417339856 0.1412817241023737 0.3143706624044268 -0.0511446267517202 -0.3186299577982887 -0.0776282811494864 0.1602479743877444 -0.0889584380421284 0.1745352556509120 -0.2488272000494827 0.2402448094414067 0.2291674913783996 0.1979304003810563 0.2951847127590291 0.0204121115739139 -0.1029021551710243 0.1050136708181438 0.0083094488657833 0.1097260131794351 0.0150311805020123 0.0856272356244723 -0.0203855797809148 -0.0663397641217348 -0.0860229048320130 -0.0909759438184745 -0.0644268294404013 -0.2183421447157008 0.0894600907525858 -0.0738828529416895 0.2587351200807292 -0.1536070956430210 -0.1055497810601799 -0.1042206009724739 0.1765978382449249 0.0586738444787517 -0.1504299097954460 -0.1537173160466920 0.0225053450104255 -0.0340277153410511 -0.0188695316484494 -0.1195837134363330 0.3739474135189430 0.3263295325347882 0.1982484164530137 0.0783305351573754 -0.0240064606501839 0.0831600286987957 -0.0621209928378839 -0.3081994344147260 -0.5840933217269692 -0.2390851930304906 -0.0294103846192518 0.1608347029638877 0.2958840481961185 -0.0035604870699126 -0.2440534894248983 -0.0546737720495120 -0.1490963224107764 0.0083470230442898 -0.0245197161383515 0.0904903625909684 -0.0418452363016891 0.0628668384116848 0.0144464638661729 0.0903530230499366 -0.1121363822923902 -0.0501164109427713 0.2202986379059748 -0.1436256498727383 0.0983448637778077 0.0195598043929611 -0.1081156723757651 -0.0375412861781139 -0.1053668209251081 0.0008918150361598 0.0257885860807048 0.0082239001722629 0.0176736291182230 -0.0446915303842377 0.0987049340087854 0.1820051038990538 -0.0304806542674599 -0.2935472049338759 0.1130786370274376 -0.0165515899969888 -0.0401445742718822 0.2653107018983515 0.0516006638491135 -0.0281928943235260 0.0250417566898411 -0.1023483915667102 -0.0665501060859842 -0.0951718415185863 -0.0296202877941019 0.1028958770629804 -0.0898464588667531 -0.3287907858902125 -0.0909970537941092 0.0099192687931793 -0.0953194742170201 0.0771232332889139 -0.0278028686942528 0.1535529119478745 -0.1351477913865981 -0.0687024028641690 -0.0445927608349938 -0.4257311064085356 -0.1881685287314378 0.1622627292713280 -0.0260297160460542 0.1528693170219028 0.0017514196576048 0.0905920652664569 0.0785298637243994 0.0783231824558216 0.0150562407439293 -0.2213389622161758 -0.0282254366449773 0.1009662891529063 -0.0805870170289196 0.1067838075891477 0.2021198601451106 0.1146120967147136 0.0428875425851491 -0.0865597984492535 -0.1246088358995813 0.2612379765752956 0.2365388932068676 0.0833771924443569 -0.1200886112509287 -0.0077292429094052 0.0586439000267991 -0.0040811632530325 -0.0677126393201186 0.0184576824847245 -0.0778648392536109 -0.1308027399414259 0.0512739380250642 0.1553592355835800 -0.0399571152201077 -0.0819215731878418 -0.0351268704266106 -0.0651457958986824 0.2355590864918942 -0.0964683416156911 0.1168381243866951 0.0362292487215172 -0.0571526017967108 0.0653177983410308 0.0641125143172728 -0.0229717189050766 -0.1704336626342900 0.0850957398208890 -0.1251135869109241 -0.2604188433133890 -0.0531901711992746 0.0631942484694504 -0.0648325830332821 0.1738991832109320 0.2618561036520711 0.0808796310777398 -0.1603119552206491 0.2852491074480639 0.2475909876122651 0.1130856041782004 0.1095874212043532 -0.0879568759548520 -0.0891016434317143 -0.1943624686639735 -0.1760842966985725 0.0157042820791502 0.0285104934407831 0.0538992073719177 -0.0449987822156740 -0.0718778476502768 -0.0691119329894924 -0.1046990825591416 0.1869725305089446 0.1530582170234927 0.0437568594468406 0.0919605433313655 0.0690031237575601 -0.1481595045736011 -0.0610382075775780 0.0248002529516906 -0.1053113940936675 0.1709048169212017 0.1656409406641311 -0.1145438717077047 0.2368007768976310 0.2945843189112466 0.0208601925250070 -0.1270876802616374 -0.0687482993136359 0.2297398484924565 -0.0544763243385592 -0.1482982212815273 -0.0590759412546961 0.0489958754797978 0.1347863057668688 -0.0891332411057885 -0.0823343226081849 0.0386747172432790 -0.0257006436505495 0.1846255094619705 0.1318788762320754 -0.0949732672210649 0.0221185451805461 -0.1590223046470612 0.2271713772905091 0.1701436415099695 -0.0412781483423239 -0.1117426038585433 0.2191863881218427 0.1345308069385862 -0.0920621595748193 -0.1244103429849837 0.0084073797441087 -0.3319448840724167 0.2973684171103177 0.1716180467668773 -0.0153184467658288 0.1280372297936646 -0.0263342844157832 0.0973405221203110 -0.0243870003191517 -0.1393305975084611 0.0735394074263435 0.0587147741106835 -0.2095867906576031 0.2004738798373787 -0.0096436770742968 0.0980097966503395 0.0291218641790560 -0.1649121460709667 -0.0449183941763633 0.0376742201480393 -0.2593007361012272 0.3387956770698788 -0.5507342863192355 0.3028318183744579 0.1197313846133464 0.1252181866610156 -0.0317841078140579 -0.1163495856369762 0.0097890490749299 0.1024651111480015 0.1474511464184576 -0.0718558756486778 -0.1884553984217124 0.0919363357805040 -0.0570722995146177 -0.1170123052449828 -0.1533607676416488 -0.1402983899373815 -0.1904104461291044 0.0627561548671561 0.0711274465670436 0.2685581054092992 -0.1639817114944950 0.2628476283184062 0.0472905365761494 0.1117631021118097 0.0196369031884195 -0.0436469505921153 0.0016810938350531 0.0844303306705921 -0.0379969701136079 0.0425276935999148 0.0453339809442771 0.1057199790575061 -0.1386762626933155 0.1813451117705369 0.1618189278191731 0.1666131812144470 0.1616503054646477 0.2449525346490393 -0.0775690410878120 -0.0008282189073538 0.2497354258368661 0.0020208161310920 0.0719623844899374 0.1280059065003394 -0.1528947929364320 -0.0431401186822740 0.1869413406375726 -0.0934510787378236 0.1707101772187550 0.0792840728613390 0.0788133546303711 -0.2194739194813894 -0.2207731601236488 -0.1762683637172463 0.0168597418709607 -0.0085802288169811 -0.0339674347177340 -0.0790760653649375 -0.0138796923600380 0.0436153059959618 0.0124742247028906 0.1384746688848125 0.0066032359058204 -0.0182442201333612 -0.3276263761479704 0.2810002168535502 -0.0769155519467200 -0.1303938050028601 -0.1151772820783425 0.0759840461125541 0.0716539273829186 0.1461714990176513 0.1378567740178773 -0.0398232929082901 -0.0183246175878198 0.0579335698298560 0.1810386806611965 0.0229970628197382 -0.1744874857067990 -0.0720787622663653 -0.1582296115430197 0.0791203437701487 -0.0311445428406887 0.0610695922829947 0.0157425062548778 0.1439460478462252 -0.0103852445379821 0.1179943304448253 -0.1365677918709972 -0.0675170758652909 0.0081341515004133 -0.3028358413103393 -0.0392339676825853 0.0379968541387484 -0.0492353142772480 0.0676062142130645 -0.0646306253651578 -0.0727038985142267 -0.2339252279824544 -0.0485193749443426 0.0329297951310670 0.1496531156058222 -0.0620657062168747 0.1501015737010273 -0.0388525344027930 0.0272954881408490 0.0824331929138035 -0.0645828572643569 0.0402466321240493 0.1306473097495465 0.1166920802275450 0.0030590280117824 -0.1274117517122151 -0.1496741210496579 0.0257028472603711 -0.0286899026193075 -0.0062240149962199 -0.0195189237618605 0.0108210306408072 -0.0790892426505728 -0.0943019398697064 -0.0405545542453443 -0.0490231453860043 0.0408119989195939 0.0012860025883195 -0.0415613284832035 -0.2135853684652587 -0.3169296194661675 0.0396913848391923 0.1414954120644904 0.1833043157077174 -0.0377406338601101 -0.3205735317057030 0.4501335687080791 0.1546174295322132 0.0217428469939200 -0.0901744690691222 -0.2023224261661096 -0.1652316845175270 -0.0562442748364435 0.0581201313757223 -0.0087149914129557 0.2891992077849675 0.3251097995458593 0.1324708270026428 -0.1146120036488903 0.0780281301455925 -0.2228054762366880 -0.2442573969044320 -0.2761533058572729 -0.1209470621067462 0.0525133674928216 -0.0965432962971681 0.0879215889602637 0.1217193731611108 0.1156237132246955 0.1476038448286665 0.2477080600979793 0.2816587069414919 -0.2043289840503674 -0.1940151847316232 -0.1988701371499648 0.0153379622203602 -0.0780344282200003 0.2099152771557262 0.0904015946036576 0.0607662349865382 -0.1020108289586273 -0.2281557339523166 -0.2041730162518919 -0.4132344446827880 0.0447178529802622 -0.1110053386923097 -0.3745999573160750 0.1415521613354097 0.1231210196063205 -0.2112529860314503 -0.1311358769710458 0.0070196269656823 -0.0559474034134790 -0.0520374094070100 0.1986815602694336 0.0974084029965827 0.2149043865297043 0.2238711427894063 -0.0596072427929876 0.1451926861931097 -0.0321225570886456 -0.1414334320574971 0.4345034130902060 -0.1638148372514893 0.1850112263314740 -0.1426992704224659 -0.3360738525843669 -0.2865738027982929 0.1461039534218338 0.3852895441567806 -0.0390990325808480 0.0209291633827878 -0.0566436857778771 -0.0737488362910925 -0.0681566677496957 0.1709051109328654 0.0901004681950208 -0.0600035121263627 0.0906053215628572 -0.0657289220642203 -0.0556105169427479 0.1567341108214854 -0.0965132492652657 -0.3511510748073629 -0.1297497728847068 0.0909253063322728 0.0840140185643263 0.0103046374720396 -0.1075088376230833 -0.2132586145393487 -0.1911514122129734 0.0710717646559529 -0.1268214900844765 -0.3881428300166224 0.1135136584723741 0.1041897888365215 -0.0447215995784520 0.2472982678882327 0.0733168862870693 -0.0240832162247767 0.2497606860794781 -0.2026933111995383 0.0244440719141104 0.2111289945908533 0.0220353178473465 -0.2134618698189652 0.0682863662438252 0.2312969456710495 0.0780712446533290 -0.1931094092521977 0.0735399222932382 0.2489690092400333 0.1127290777547884 -0.0176333540973747 -0.1911932046706177 -0.2801674420501941 0.2132301159201896 0.0611657723188351 0.0309409934482626 -0.1690631309172036 -0.2103918652668682 0.0543848451442698 0.1447510960876018 0.2112994659986134 -0.0184649334107618 0.1229836230934413 -0.1231176330317264 0.2621354490208110 -0.1351420984460826 -0.1828539804649550 0.3285052214964362 -0.1307966272636520 0.1502465732682268 -0.0749263059749080 -0.1537073170288149 -0.1320443259481817 -0.0828528375912702 -0.1114877730184264 0.0922803544033182 0.1313864667807317 -0.1433419062706618 -0.0643332221969463 0.0075109750622555 -0.0814943870888609 0.1208352702381944 -0.1155306977599096 0.0587120602452619 -0.2883495826449643 0.0230997386791984 -0.0034609103802242 0.1045897894278822 0.0782977353842677 -0.2620778134577352 0.0683306986360972 0.1374022656963523 0.0875442148859467 -0.1472310948496668 0.0071852257697379 -0.0014971176834825 -0.0863891724230018 -0.0719809908447486 -0.1575698925939129 -0.1961859112478447 -0.0235935106961356 0.1767089811885647 -0.2214744327588729 -0.0195778180971851 -0.0538636100271726 0.0889080245104431 0.0514260219119305 -0.1052955895115266 -0.0660190387734792 -0.1206688673076893 0.0861082429782660 0.0506437372881489 -0.0829726063936310 0.1415829557316506 -0.0307354076261826 -0.1464827652222247 0.0291082741950849 -0.0095167492650107 0.0309408604998761 0.2501970897479194 -0.2301526821141249 0.2598245191123291 0.1875851319770013 -0.1512019794079300 -0.0517770158314173 0.1771166174936515 0.2086323782142456 -0.1346485459960647 0.0759504168502669 -0.3023861501952465 -0.3609539670158520 0.2860137672775050 0.1792413924748428 0.1043670803920288 0.1090848025384593 -0.1863928945114010 -0.1450810227531263 -0.1846441415438223 0.1535897606490964 0.2513794482244880 -0.0685642465387097 -0.0458755226766367 0.1353789680288594 0.1585221239338718 -0.1724849527922552 -0.0086981587322996 -0.0617063919830153 0.1125062428472244 0.2916189619143590 0.0142197649899589 0.0530502584749127 -0.1443814492055115 -0.1409215909460579 0.2013016229077201 -0.1195563563260509 0.0955261946486159 0.1028115014363180 0.1382524061101018 -0.1187301528372713 0.0439165633063670 0.0527544078102677 -0.0287094305783271 0.1032486482753174 0.1145676037820547 -0.1970576977368873 0.2781345819577654 -0.0168859700813502 -0.2115746622699460 -0.0116682788376056 0.1378053028362698 0.1191552705285189 0.2934862109893436 -0.2991395686468923 0.0580161832814315 0.0064496304969203 0.0077812098924957 -0.2315179947184970 -0.2169182407306341 0.2251303719853328 -0.0404661427939153 -0.0620941939566586 -0.1466385360630967 -0.0072365599140556 -0.2403362436086650 0.1494785165722954 -0.0430527910220168 0.0276858186026280 0.0530996812200456 0.0252827895720941 0.0128676108758548 0.1889526740813156 0.0027908658145081 -0.0385081179527415 0.0790490061293346 -0.0434230913496853 -0.0433475556781873 0.0600499622305651 -0.0645074237473783 -0.1425755104171826 -0.0033833389319071 -0.0766337151428145 -0.0278422240130186 0.1620133607064952 -0.0632377905185727 0.2481339820117792 -0.1394554087021745 -0.0650828552738995 -0.1339228577895040 0.3674656996261226 -0.2060032189049270 0.1161254870364173 0.0465466943681537 -0.1969703273980266 -0.2214774300125527 -0.0742114146361597 0.2247989071867403 -0.0108531552921871 0.0253483207278253 -0.0652517744355390 -0.0898460558259780 0.0601180631382636 -0.2580759698983847 0.0171887494226354 0.0124992716862992 0.2021419003886894 -0.0055821661407648 -0.1558537439596630 0.0851237251216918 0.0063798619471253 0.0475103930714634 0.0231474662743791 -0.2702409598839467 -0.1359866854074889 0.0576931691116498 0.0342985118980996 -0.2158622738530179 0.0120699311503898 -0.0465920711749976 -0.0031116858520814 -0.0850177424670953 0.1550163233373443 0.0112008767460092 -0.0437371496460026 -0.0088933616582715 0.0492648289230419 -0.0598868716754980 -0.0408521440243445 -0.0825246873270421 -0.1751408218074944 0.0152604405582935 0.0448179311183952 -0.0948328427316174 0.0064276727429586 -0.1167835151698507 -0.0882725893700620 0.0262144327250093 0.0921711797536586 0.0905712044431391 0.0655899624238257 0.0605504932808835 -0.0220259745225626 0.0326943031618422 -0.0164099151886988 -0.0268463090714973 0.0719359143479999 -0.0278432286662312 -0.0246027794268405 -0.0081248091941246 -0.0877369732002221 -0.0733168618357465 0.0760350835451429 -0.0978465530414865 0.1041904810278329 0.0052109417365398 0.0712018227350602 -0.0459672136771253 -0.0123415083280570 -0.0051479607854958 -0.0703256858768173 -0.0472740061363181 -0.0591676507921323 -0.0341172619309333 -0.0371079436157833 0.1551886817674887 -0.0473268242482574 -0.0225896973450538 -0.1047639703562677 -0.1023927106380006 -0.0267966304107770 -0.0245653550669638 -0.0088932268740893 0.0061628927956624 -0.0945471410504643 0.0828164358705779 0.1412110518847416 0.0074839491134515 -0.0289151690863306 0.0262096911537796 -0.1153201130700601 -0.0897582482980061 0.0303030705356490 -0.0001135304261722 0.0073806817467064 -0.0483501180700645 -0.0180793690014096 0.0358677055434178 0.0877857264139389 -0.0611970590400150 0.0770881633190529 -0.0498402238303327 0.0408380434315347 0.0318313994943916 0.0246634838589965 -0.0672869632088127 -0.0360662520196461 0.0206096799500128 -0.0168911969009922 0.0147389047947536 0.1483973857559169 -0.0833655233937716 -0.0419551146915137 0.0894178978436739 0.0565759330981154 0.0850059597610568 0.0191018664328409 -0.0438322876727775 0.0342550960705204 -0.0381815127512870 -0.0604913347989992 -0.1158832864880756 0.0016999580910030 0.0396688154200596 0.0676129754351359 0.0864700367775612 -0.0313726482965591 -0.0674037975025290 -0.0495043250010087 0.0506687145780932 -0.0833793560231316 0.0723743494640230 -0.0326151402399069 -0.0043121439732513 -0.0107030062304403 -0.0304462382989374 0.1614779155027740 0.0282967274897181 -0.0365195383194204 -0.0521085610712539 -0.0109606749433665 -0.0449301054619959 -0.1072164779371525 -0.0313975509276532 -0.0574456348877395 -0.0675746024496783 0.1126992972592379 0.0320127120704539 0.0350974800174747 -0.0574048750448126 0.0157444040878182 0.0940682077657466 -0.0466402110240370 -0.0262893501167689 0.0428265012515381 -0.0865185698179914 -0.0428483059392367 -0.0698546664995914 0.1773617924965900 0.0732443875654895 0.0077877081615606 -0.0137683054723991 -0.0237962132477292 -0.0107297819975510 0.0268087987011513 -0.0101168709295318 -0.0144359270113583 -0.0104266058427589 0.0447105587361552 -0.0638734969814573 -0.0716682250840851 -0.0487976767784012 -0.0046931470623531 -0.1370878362291315 -0.0425017733122917 0.0111859618077523 -0.0064756511204023 0.0580856421109519 0.0728576093128203 -0.0143316245928346 0.0689115798807926 -0.0515685193441075 0.0991396739412099 0.0600546428276376 -0.0499467210409799 -0.1042811806060955 0.0471961111693428 -0.0145797546012048 0.0020416268976850 -0.0014391682584813 0.0040642281106788 -0.0957763025593677 -0.0195057769019360 0.1015695167810503 0.0395686869350454 -0.0107707704493108 0.0887722865197053 0.0185935165666119 -0.0040329188468494 0.0251619575712660 -0.0031683611312878 0.0203311251310601 -0.1359138271505775 0.0412726980567598 -0.0442052137491658 0.0356277879184428 -0.0222466439851448 -0.0847541608839371 -0.0719583106196510 0.0813789780606835 0.0411851749210098 -0.0649239748823107 0.0028015415372351 -0.0994395195365650 0.0063207656622200 0.0465382050477491 0.0894059704377498 -0.0268865048164087 -0.0298025077336683 0.0803425193866272 -0.0340548907300215 -0.0032126358638415 -0.1606200789506522 0.0592231299181075 0.0431174506241195 0.0373876344517701 -0.0562286092225201 0.0981112052961114 0.0231096729275788 0.0462095301017020 -0.1064832258625559 0.0464246436049821 -0.0410085558060249 -0.0139070412386019 0.0335199315916287 -0.0624881785017687 0.0374466373885000 -0.0544000909514436 0.0190137950955113 -0.0476682489860086 0.0281732852817306 0.0104292143647652 -0.0265252125332683 0.0031129298888461 -0.0630673225498430 -0.0072919073908414 0.0041493105637633 0.0170395581346309 0.0006168653421836 -0.0435203113559705 -0.0493745379986239 -0.0443770204079090 0.0436772392828141 0.0273286087576302 0.0272471439047391 0.0416882399871706 -0.0145302849907351 -0.0391287664005278 0.0827838842075186 0.0428813125612959 -0.0045571463672902 0.0253650391385387 -0.0054351776931406 -0.0934439502876247 -0.0178191464293468 -0.0310973693833543 0.0349323852672177 0.1235103674136897 -0.0614891778230721 -0.0215961820766144 -0.0066456301246300 -0.0390003366318861 0.1096096818980096 0.0673694916229212 0.0698121089906409 -0.0374114472424621 0.0586294229948731 -0.0443534875850694 -0.1185563355894665 -0.0351530228821030 -0.0368774749358949 0.0394024900034847 0.0302826992552426 0.0723121234051845 0.1092538480606003 -0.0180841588981053 -0.1078914875718123 -0.0546227441923617 -0.0228035447501897 -0.0237924321346559 0.1662716915959920 -0.0187308490556569 -0.0398299891871902 -0.0060872967298909 -0.0201892237187111 0.0070891615213819 0.0082160154771436 0.0712339131158136 0.0021931599248485 -0.0911519937740350 0.0936858526193800 -0.0098214838537239 -0.0721699751613295 0.0292229998695477 0.0076799910678358 -0.0655693402929561 0.0604697795851911 0.0173202777369211 -0.0428909552378761 0.1419527260976760 0.0070139598767276 -0.0206493378520355 -0.0158897758559140 -0.0552690481435122 0.1803935448193824 0.0124856004124475 -0.0021018745923273 -0.0574522750495607 -0.0048559301235615 0.0703110852143192 -0.0303879357722937 -0.0110567475216838 0.0374976374171047 -0.0364097043167112 -0.1042452133364476 0.0068093128325976 -0.0461462127849579 -0.1508793715628104 -0.1229547590361049 -0.2346086609813937 -0.2161929555490470 -0.2007152048119338 -0.1426969673512749 -0.1988846042830033 -0.1953278988233307 -0.1443735499255250 -0.0728643852602523 0.0956810114776695 -0.0405863679057635 0.0933344299264764 0.1490097398951936 0.2311128914198615 -0.1572544909069712 0.1610876772872312 -0.1116844041396926 0.0096459924234609 -0.1003911351464270 -0.0561900403513077 0.2162774912543256 0.0010835341704111 -0.1237258490200935 -0.0761800584836994 0.1512098449480767 -0.0847837698649372 0.0067866464360005 -0.2570523451290597 -0.0366340975369292 -0.1000916625565121 -0.0911638444954255 0.0437235808828818 0.0095547180993033 -0.2777236456790680 0.0729065504791235 -0.3188965370751555 -0.1043082013773765 -0.0107835306602602 0.1694371350680320 0.3070195555801926 -0.0541000401215167 0.2592176058101224 -0.0492971542791940 -0.0172555627794951 -0.0250878282595250 -0.0842609006798897 0.0681541356447125 0.2214431884454083 -0.0123756829715122 0.1722737834578710 -0.0018725609091881 0.2030168615310996 0.0780917097058084 0.0980974548162940 0.0897985009406063 -0.0665528660876234 0.0135687245983817 0.2161749826623843 0.0403255116181421 -0.2508037450955106 0.0548497602111112 -0.2104291488497492 0.0430122514441951 0.0834412773781744 -0.0492466620195039 -0.0910436430909423 0.0101953650152104 -0.0348513136056460 0.1325337202147262 0.1475241682243814 -0.0312157522007847 0.0058640550534343 -0.1379943947343578 0.0892211509177377 -0.3483071242350397 0.0387525759308474 -0.0257528391429060 -0.0973015823394819 -0.0932830033176244 -0.0477708512878526 -0.1298466110748457 0.0017290648500313 -0.0529627886447513 0.0947887399367400 0.0734905493686200 -0.0855844689534130 -0.0147237244514719 -0.1503347501941840 -0.0134761333838166 -0.0873002656854655 0.0934349406398455 -0.0145925886946926 0.0629664183171678 0.2541600288916889 -0.1976626599193549 -0.1865783839247677 -0.0043281263162774 0.1273202101820729 -0.0060262165415977 0.1113634660510750 0.2442786170814897 0.1013608929823622 -0.0881717420572512 -0.0567719821116993 -0.0417411645435883 -0.0756260139676862 -0.2345895356068678 -0.0049492170368161 -0.0159289176608213 0.0974914491214730 -0.0878478316398934 0.0638184420858077 -0.0149057044524967 -0.0542348537026484 -0.0224358435627506 0.0048491777238426 -0.0822721019053824 0.1187019838702466 0.2212931772552117 -0.0172392814936121 0.2836461910562403 -0.2340933432421189 -0.1621522922428286 -0.1142689905673145 0.0627188881330521 0.1071058318616094 -0.1199500120359155 0.0471736029991819 0.0656757382571093 0.0092669155428465 -0.0195760795764094 0.0203816009619662 0.1003095093167822 0.2699941371366800 0.0762627569096278 -0.1562380318924045 -0.0527749877210957 -0.1104222183135177 0.0034023395887944 -0.0817550293096819 -0.2032558471231689 0.0630490204430695 -0.1523505556259829 -0.1785145761570316 0.1287119265326302 0.0984874920080747 0.0148096012566085 0.2172073497029881 -0.1602813211663887 0.0924845864563634 -0.1286839450762145 0.0109874764690806 -0.0180090073493690 0.0374934612988999 -0.1761618303803614 -0.1997787672271154 0.1268422861077407 -0.3382814185845264 0.3651904706330726 -0.3401133964407438 -0.1690592497139933 -0.0707697339453545 0.0493714066424865 -0.0422331199129750 0.0668596169714894 -0.1109262485533451 0.1156820836029550 0.0380636591366376 0.0201684017962130 0.2998375590397323 0.0005265863669310 -0.0954926690060371 -0.2408793040182886 0.0390237331259913 0.2459565510488202 0.0928537402132331 -0.1384116185875540 -0.2726408786278509 0.0807256592655249 0.0476441626596696 -0.2505560635017258 -0.0814075063077441 -0.0334292086928161 -0.0709509520413188 0.0115924140513295 -0.0495295221322632 -0.0678273505320934 0.1155623319478950 -0.2374199428911721 -0.0063807100787722 0.0807902110255208 0.0088178096042660 0.2885969263460750 0.1627268422067773 -0.0647357621183219 0.0770902280726983 0.0287547107544221 0.0154639846239585 0.0009957085436308 0.0541565470889246 0.0209915552044992 0.0838886801779692 -0.0205050489671005 0.0895936858348204 -0.1258319451707917 0.0431096876621018 0.0894944734742440 -0.2132332262144765 -0.0705137796124053 0.0373707402289864 0.0056895543690660 0.0737023742711831 -0.2283944882275334 -0.0783258280828952 0.1697949059275366 -0.0071257199408846 0.1144504767822331 0.0878065469311516 0.1463718383658190 -0.0772826302618117 0.1205248975366833 -0.0362137080438123 0.1839221524242964 0.0723078064733191 0.0317084755539655 -0.0356722492873893 -0.0193707110089943 -0.0618757483728374 0.0867271072795859 0.1549940844944609 0.0397588224127944 -0.0320795442615068 0.1156019794592181 0.1767071870195679 -0.2334110014644198 0.0038355398624092 0.0178247005341492 0.0055749141481873 0.0786333493399644 -0.1982132984030219 -0.0619059686597445 0.2353564379023694 -0.0083728698694025 -0.1173482713955316 -0.1689052970499020 0.1193775879614297 0.0051295237421608 0.0565422386517410 -0.0282715174214952 0.0987896637156393 0.1342726844479225 -0.0755498735771953 0.0931516390879327 -0.0161142249038768 0.0426316763313461 -0.0512126948989893 0.0893349777913415 -0.0172334401578022 0.0181894762643265 -0.0522623175994641 0.0804707711847084 0.0148681191071215 0.2340315552872757 0.0943663088955831 -0.0716535194398902 0.0662226811632398 0.0478886289976775 0.0341924284833565 -0.0167973432756236 -0.1718626170836196 0.0374723877952568 0.1457435866222980 0.0529153038024836 -0.0652197262142731 -0.0052706170028978 -0.0889119128641530 -0.1596219298315536 0.0920977324670611 0.0059135555263130 0.1107031319845572 0.1024501396041919 -0.0878389002393923 -0.0525210508243369 -0.1927402202326422 0.0136690913838735 0.0380389107477510 -0.0637683072471093 0.0716956431778309 0.2047462713798410 0.0168931828011284 -0.1263829890019665 -0.1018604944656883 0.0641057806323582 -0.0116790120779598 -0.0384022090474371 -0.0488683041468379 0.1300160071403142 0.0129515828614111 0.0895028089269856 0.0224926015028788 0.1695675620143801 0.1586040851566897 0.1728398657323260 -0.1435185475832657 0.0858532432190143 0.0463656157995050 -0.0435926058124747 -0.2095350448395863 0.0789383065069607 0.0007317823310595 0.1471948671546029 0.1621933147312753 0.1781498802998828 -0.0573054566299618 -0.0069850595773112 0.1268376423721510 -0.2196086247959679 -0.1869821349179295 0.1937540732000153 0.1260251392165493 -0.0012116689326128 0.1636101566804343 0.0088823800147190 -0.4386419606927300 -0.1041853569098823 -0.0894216762492014 -0.0021932237696929 0.0539523497282440 0.2220154802989290 -0.0334671373139204 -0.0484293702933787 0.1344172233942744 -0.1228656848609360 -0.0747785211352672 -0.0016626054889202 0.0181510130096280 0.0293308773523989 -0.0691336002038466 0.0503939281142746 -0.0744613979114822 -0.0288390271939662 0.0743505698356744 0.0342057955986722 -0.0104743710444760 0.0867327994478497 -0.2434542609637553 -0.2588631870163673 0.0121006099846032 0.2240538270855549 -0.1119877234350542 0.1966583957493446 0.0190038971534604 -0.2013881598521768 0.0510788937143415 0.3486948728854600 0.1853591122996566 0.1304692840140316 0.1600860604905601 0.2779246698716002 -0.0728595077538527 -0.1487670444336074 -0.3783202483345067 -0.2296372614820320 0.1221843769401501 -0.1760026180628952 -0.1934309705279823 -0.0637619002296934 0.2407504111176297 -0.0117890212919664 -0.0727837630233372 0.1243121132110903 0.0457719789687802 0.0719070617883534 -0.1246880041154565 -0.2364987227411497 0.0303097808575814 -0.2087903156672288 0.1153017608897614 0.0484034992090930 0.0393060062787946 0.1751924032768880 0.1245337944305206 0.1932787897123641 0.2524325822917585 0.1279449407428503 -0.1175164927969592 0.0395016226720974 -0.0487707387663895 0.1416377059108518 -0.0141360584885823 -0.0913275693262231 0.0507706410840064 -0.0555473730023655 0.0904000959836173 0.0130091199519181 -0.1313915956695563 0.1408230364178312 0.0017740763709175 0.0676779638017702 -0.1437500214375247 0.2091731475167949 -0.0478550324161249 0.0186130983908330 0.1912486127401312 0.0387423749510133 -0.0053078598499472 0.1750867422783077 -0.0586998748021050 0.2060161555333831 -0.0334427943257798 -0.1403754239954023 0.0751679257897578 0.0716377316465631 -0.0766378751311472 0.0042289552550856 -0.0056590896950139 0.1214049131820701 -0.0090092891791854 -0.0639444611479964 -0.1279696363305192 0.1035306612378828 0.0205255194344726 0.1336700583252854 0.0200720527567616 0.1996909840969056 0.0685513481032526 -0.2267808231933230 0.0146583762947243 -0.0654490396335357 0.0370019250627764 0.1324880157698592 0.1135487593438152 0.2262355548932064 -0.0069431696485463 -0.1953485965161642 -0.1935044033179424 -0.0813399853152239 0.0670191354836625 -0.1268617037659438 0.0883501216486153 0.1205927102882599 0.0077157021508261 0.0338728171712417 -0.0029249224762670 0.1705287124578173 0.0177636267511022 0.2209314372933672 -0.0450273527567986 -0.1323668250107215 0.1236254801369921 0.0566386203597485 0.1329680422448564 -0.0586095459322813 -0.2314235769342280 0.1952117266511149 -0.0033985938355682 -0.0592327553081677 -0.1447423612798481 0.0428473533890580 0.1289340769255510 0.0441817101222937 -0.0328607663409409 0.0742354556908098 0.0407966837321681 -0.2679415723074288 -0.0938851063182309 0.0231059190941769 0.0682998685091356 0.1128148759869699 0.0424358348641177 -0.0749077585088474 0.1118627669292391 -0.1704718684131142 0.0803620555790746 -0.2400227648681802 0.0944588357789172 -0.0849918149171612 -0.0680049562165133 -0.1055653845888947 0.1185880803453057 0.0044119682788696 0.0282670975292212 -0.1255402277478948 0.1688998314376810 -0.0523328643913690 0.2300767321375912 -0.0301375262717129 0.0806167897172647 0.2289131724138910 -0.2733840126958436 -0.0688765119322866 -0.1180150709380226 0.0531058572393140 -0.0005213049057250 -0.0238619256601942 0.1879355662449335 -0.2470082997389870 0.2679936204229079 0.0970893646869238 -0.0083280264303656 0.1164982216464905 0.0922633080006845 0.0195153877329448 0.0807613640402625 -0.0253798867868367 0.1197608516688234 0.1950075240493525 0.1129659780929755 0.1850713551793639 0.1080451692961693 0.2368981142183198 -0.1062247342318497 0.1644111429027984 -0.0958013016967954 0.0755957036578194 0.0921636663373043 0.1564361540742029 0.1589381529835064 -0.0601366120028011 -0.0977273888977543 0.0634272345526008 0.0437939548673170 0.1981402613651415 -0.1322061612552709 0.1329874389963037 0.0461217854088164 -0.1669829110730406 -0.0569985936913558 -0.0555827922603606 -0.0021699346986394 -0.0258396953172907 -0.0651846385000494 0.0620185732431208 -0.0305365248997563 -0.0487318658706708 -0.0427672780344754 0.1118723360997121 0.2261227582414724 0.0775002831764587 0.0684011585587118 0.0369850812341458 -0.0270337213084332 0.1469033867764780 -0.0935170963223184 -0.0130086264660528 0.0138985701434631 0.0223432854620191 0.0559696464514746 -0.1319245914659482 0.1299679819916817 -0.1313904627990588 -0.0961317731164420 -0.0728758577273732 -0.2105527653406279 0.0770254583250461 -0.0270224377921995 -0.0922220792230119 0.1012500727017301 -0.0079948868501418 -0.0549112424899596 -0.1175457203748329 -0.0927835480736983 -0.0407801878974431 -0.1211328848461578 0.0132552868094735 -0.0971632362220633 0.1722964596864702 -0.0635879226959192 -0.1451741198247907 -0.1448549400237484 0.0740995203649620 0.0327411794844716 0.0592215663376846 -0.1094389341826596 -0.0851149901155220 -0.1154500774337506 0.0618878024686098 -0.0263193200423593 -0.2021385979929909 0.0654052789576535 0.1199617870294347 0.0248021898286226 -0.1773773220715358 -0.0433092845170168 -0.0078481070515399 0.1153074715887084 0.0948882824254638 -0.0869211775024744 0.0596874916122579 0.0400101609062102 -0.0099723762556027 0.1563622917954066 -0.0195207557864575 0.0177351745425099 0.0703821701114397 -0.0479263736708543 -0.3083915002110120 0.0835881281822752 0.0193879845389769 0.0603624935018596 -0.0874485260389074 -0.1417530210679205 0.0187816774470842 -0.1045386662322062 0.1604180064301576 0.1318040811460295 -0.0661946641844326 -0.0865590850854181 0.1356828989057081 0.0234023532722744 0.0404097868924226 -0.1161184030103834 0.0788841049314583 0.1160447842301619 -0.0629435799081427 0.0677012541692344 -0.0538166973565077 -0.0107582820965715 -0.0241670735882753 -0.0320438623499756 -0.1252828819285184 -0.0735980711902681 -0.0470550322147089 0.0467884442262550 -0.1535032156857024 0.1020025388146575 -0.0721692911724494 0.0191555277368643 0.0070511007435729 -0.0079532148560517 -0.0117753980859308 -0.1118338057384104 0.0517779174878718 0.0364384654710674 0.0915393866401191 0.0105162626093324 -0.0540706221487266 0.1372727755599013 0.1414465659222872 -0.0802223263572286 0.1051132125719255 -0.0654999462764376 -0.0295080687364635 -0.0510945132761810 0.0424409234939908 -0.0863612331887159 -0.0203611489014629 -0.0398886171585049 0.0939360821409504 0.0706977945615479 0.0633201770844288 0.0117485462454523 0.1378717721350511 0.0067754647864387 -0.0477192913929494 0.0203449753751148 0.0929474743987354 0.2021149874279037 -0.0699556083648512 0.0092964070945702 -0.0962507987518808 -0.1231106061507783 -0.0356341324705153 -0.0278472898044480 -0.0838728065881612 0.0604783182205642 -0.0028153833901071 -0.1184185558269316 0.1619493448385894 -0.1225115881650956 -0.0951055736587255 -0.0047818634486847 0.0281979998715323 0.0191666105169666 -0.0945332279726166 -0.0246694286329470 0.0086541537467486 0.0197140761372039 0.0247880785947069 0.0694069263395758 -0.0295538467487809 0.1015241855422705 0.1020415342616574 -0.0360932005075363 -0.0137379022273499 -0.0391557287910190 -0.1327034607127839 -0.0483710317890143 0.0442843110550211 -0.0172336569103858 0.0337533175904721 -0.1122166379194540 0.0041862621063024 0.0313951214902501 -0.0212248160197401 -0.1133266916816209 0.0624506787190427 -0.0106228081001927 0.0628270511138486 0.0993405393208721 0.0151733676207446 -0.0705417452754878 0.0472749333256519 0.0510512802496985 -0.1349546423690824 -0.0715143561415908 0.0309842861565390 0.0253423384279790 -0.1409165054426049 0.0529858600704861 -0.0471348402556578 -0.0243056727671490 -0.0561522781747328 0.0373544137390137 0.0034059589448705 -0.0284283047064861 0.1241639235894934 -0.0230287907138452 0.1717716667908476 0.0305820267451287 0.0849192342730884 0.0562498766103653 0.0022857061403786 -0.1013562349177845 0.0263005047011387 0.0175949088880080 0.0425590700285096 0.1330244521956943 -0.0679008847959969 -0.0337791517707878 0.0651066423631138 0.0005700134510175 0.0075588557012329 0.1312403788716131 -0.0453668766681425 0.1652000392058145 -0.0222232702767318 -0.0109694764507353 -0.1009667086648980 0.0431160001895469 0.0000421334440234 0.1297462640887281 0.1368717713711459 -0.0588913200281088 -0.0115371515869767 -0.0278011716951965 -0.0883189684662477 -0.1078055778266816 0.0030316114282165 -0.0012093415417281 -0.1141122193457208 0.0313236638378404 0.0231225222745819 -0.0271926625780707 0.1084916097324426 -0.1071774518294737 -0.1260622701093857 0.0777301349471442 -0.0446678365787365 -0.0489907470100371 0.0101145000926806 0.0908049442146340 0.0720611577376592 0.0306445093462347 -0.0228089971444488 -0.0814742409534463 -0.0192757241763637 0.0350565205246910 -0.0730087476205154 -0.0980222112814086 -0.0906710727347149 -0.0583792003239762 0.1441607499082700 0.1016613568308300 -0.0691434179318736 0.1396815958305856 0.0014127191772070 -0.0191195802358662 -0.0272572166476459 0.1075472526288680 0.0821798906012222 -0.0807708430027669 0.1451852239622134 0.0900458919375284 -0.0908896541754448 -0.0422969903211923 0.0405119662073626 -0.0480836144538641 0.1336084431743440 -0.0587294956424985 -0.1426596372117071 -0.0819728837008528 0.0254907799681743 -0.1183110648032794 -0.2849451187449140 0.0736596343667357 -0.0528294741797652 0.3080278640206803 0.1498054047126106 0.0703334174683242 0.1150616042196623 0.0080221564370286 -0.1475603926331812 -0.0707225343867644 0.1447230040142662 0.0452996213764431 -0.1150137232612541 0.0975694338035506 -0.0270936399328563 -0.1180674826405388 -0.1710624861066152 0.1000823457604258 -0.0125187925382408 0.0587238466473464 0.0019806792512025 -0.0676575383819927 -0.0701794046823538 0.1917547349486655 0.0427070564754987 -0.0356210565531783 0.0863299206078878 -0.0115373286743196 0.1209150419305360 -0.0191433108802909 -0.1165658012653033 -0.0012721309764634 0.1250537578405456 -0.0736460476908284 -0.0719658007579876 -0.1313262390308066 -0.0002547024086412 0.0870333096767529 0.0498395416063735 -0.0762868584867301 0.0436046994585951 0.0388355790939043 0.0583688036346054 -0.0022967311361245 0.0758282200732827 -0.1061672191604139 0.0008375015499840 -0.0711212351481802 -0.1074548912990655 -0.0081893770750544 -0.0758728157588309 0.0476106543104728 0.0544116983849999 -0.0856913455428701 -0.0164507130875667 0.0119269094928038 0.0678840591141795 0.0872889546554053 0.0298519198473538 0.0697707322424644 0.1270402893350699 -0.0639084914710477 -0.0343946571738395 -0.0065595648210878 0.0163709453350198 0.0683080121555371 -0.0856103786308169 0.0725289568553059 0.0621234309105285 -0.0327833405833397 0.0194840480949667 -0.1053191910562599 0.0496583726275220 -0.0947633318054755 -0.0163986904243910 -0.0834705831284093 -0.1147596985701769 -0.0268001134120361 0.0922018026164867 -0.0218495017250968 -0.0040073265569382 0.0007601670324246 0.0750341363073456 -0.0824843126819935 0.0643866192127366 0.0179358157167514 0.0436033206414303 0.0136797835539283 -0.1225015522864500 0.0529159144236359 -0.0299228173847759 0.0140000971600742 -0.0067346551344124 0.1029315896073527 -0.0229053457880791 0.0484579862475326 -0.1208748316904716 0.0851189518611000 -0.0234068588945766 0.0766548534189690 -0.0366979800737025 0.0495666925219209 0.0439382044994467 -0.0201359647792616 0.0370161062156407 -0.1144957972495253 0.0342004353295710 -0.3509621905244038 0.2463759722009100 0.0065558918889029 -0.1538724835510398 -0.0164105100683630 -0.3679121039894660 -0.0767875011347167 0.3192276323754952 -0.1470922068450081 0.1406550932101278 -0.4266462439886829 0.1142144126872597 -0.2945106005979181 -0.0136416404327332 0.1339011959956883 -0.3170580952301320 -0.4159893353367355 -0.1355329081776407 0.0438547723936734 -0.2241485405924166 0.2986976075090403 -0.1026522676722612 0.0825103341496019 -0.1327609981342680 0.1811390562873479 0.3940096456640727 -0.0273096977567881 0.0797635494766569 -0.0083507842239536 0.1138287038872970 -0.0942018054748589 -0.2934405674570850 0.0382003763032345 0.2152714380475488 -0.0577948091448431 0.1117431136129587 0.0560066789568266 -0.2047126029154184 0.0712086244091543 0.0357386579099328 0.0612792011913395 0.0617718012607152 0.2180124463558065 0.1911041788429322 -0.0755085746774648 0.2047649647054199 0.0482160199159794 0.1054356537766247 -0.0521655172484924 -0.1873612330190778 0.0229287743783881 0.0071810853213061 -0.0913169413142519 0.0070171692228595 0.2238549095995950 -0.0603793890274815 0.1872958095109949 0.0789828894345972 0.1162164442704901 0.1413043207037359 -0.1632518967805983 -0.3337954081495593 -0.3985243187145303 -0.1229664437186126 0.0635872487224696 -0.0524090012716672 -0.1642587026690161 0.1457246072403516 0.0500700897902549 0.2025100588290404 -0.1027463950494594 0.1691608092963870 0.0238933263758054 0.1435687436898797 -0.2359792558249154 0.0025956612798295 -0.1303249181118886 -0.1497571692239222 0.0452365553967498 0.1059070408719247 0.1638017496568141 0.0275608690794454 0.0601961139177062 -0.4545534691260514 -0.3700420520398131 -0.0884122286242180 0.0209064521135963 0.3082170107207262 0.0262252318254632 0.1762960413587783 0.0223162652029175 0.1501432611852188 -0.0865383064657352 -0.0207072872096142 0.2940181221009374 -0.1258562380890126 -0.0964853346160772 -0.1236439004281013 -0.0448130616309125 0.0259419213896034 0.0720990468126238 0.1649678973354358 0.0600538025798255 0.3111475535451023 -0.0075471589990740 0.1899535113996480 0.1689669215773804 -0.0118613425746315 0.2088026849545089 0.1427054356701188 0.2974274815355531 0.0525239592364872 -0.1050410676110910 -0.0276457571196729 0.1401280614390517 -0.1149002380857077 -0.0997949892782316 -0.0995534551932584 -0.0436234310081904 0.2456227825523288 0.0581560948009815 0.0485566222270486 -0.4058823770954074 0.1322607152447620 0.1154975733994529 -0.2676282120215440 0.2018553794962482 -0.2899466256139331 0.0426783032672984 0.1168035325545326 -0.0327183091383317 0.0746202167291121 -0.1354006345167333 -0.2746222080050897 0.1350178318583304 0.0889361082618906 0.0684216399446973 -0.2674585007409050 0.1923490339358796 -0.2811150282246417 0.2339161873479371 0.0892830836286017 -0.1850663177659980 -0.0707816087812622 -0.0029536555636565 0.0137717191960524 0.0540965988405000 -0.0010541108429385 -0.0967918163825729 -0.1553830896600693 -0.0683455501442143 -0.0640377600107332 -0.3779347376883531 0.3819340596975841 -0.1746291601263189 -0.2664482570621352 0.2073189132952234 -0.1292706914398644 -0.1528059944128842 -0.1185513451877461 0.0738553624091966 -0.0008623628639989 0.4181930305046068 -0.0968359762941662 0.0087364538518728 -0.0556942945087865 0.0520235188457676 0.1698825663532867 -0.2185755958474170 -0.0057019415996408 -0.1328412917926831 0.0144023363434909 0.2373613929333243 -0.3561097107608225 -0.0278171927392954 -0.1124546082713374 0.2260712869415830 0.0028548415925870 0.2090806279331001 -0.0526993493230291 0.3443018393946716 -0.3637330389729162 0.1175571143732244 -0.0443215268368875 -0.0586186033330110 0.0711085085483938 0.2131818208650077 -0.1508712663820217 -0.2138102025509670 0.0389034011489486 0.0350665976438293 -0.0991127875469904 -0.0016916335110016 -0.0477964941951069 0.1016278612607314 -0.2580258430878501 0.0428608042404889 0.3571547771788646 -0.0269654622889844 0.3421427314816240 0.0299926709748571 0.0255166531624634 -0.0339887317040596 0.1992219274928150 0.4232439353380040 -0.0434177408531978 -0.0228708640072250 0.3085973856256893 -0.1163036089416713 -0.2086501345962017 0.0644389521056901 -0.0673168062037414 -0.1577578970724106 0.0328328935127930 -0.0789417826545421 -0.0751354086717510 0.0496341260422041 -0.3546019503324169 0.0881333724281370 0.3316214426021896 -0.3263371923694062 0.4888851175689671 -0.1758862849536257 -0.1191417438455976 -0.3578311937462493 -0.2762879305324483 0.0508029810585021 0.1581504126187708 -0.1892259391094590 0.1574543884822843 0.0856199259260484 0.1291530149949734 -0.3685173085040520 -0.1617420133479508 -0.0175641720234708 0.1699102760844033 -0.0132458275089866 -0.1789196906852580 -0.2329054015676946 -0.0062932292146717 -0.2211383652433003 0.0811656124169813 -0.0139086313195715 -0.3262433436795908 -0.1583366963087034 -0.0778286438536339 0.0813418471061913 -0.0618434131945230 -0.1051973988774657 0.0959723195406433 -0.0970533854539776 -0.0751660779711276 -0.1549929853054546 0.1843702695465959 0.0808593275018787 -0.0224239808984347 0.0997839682456930 0.0036843463442968 -0.0456098351203853 -0.1951154089433087 0.0226920646081543 0.1355298343004030 -0.0064668005754922 0.0428231424128069 -0.1581119897647271 0.0914167133634412 0.1149296559658109 0.1539385576826283 0.1768304066148026 0.0543336640690814 0.0599684175399844 -0.0659452394296582 0.1909058392125531 -0.1435661007756880 -0.5501838282982606 0.4394071915576038 -0.2696861875842219 -0.0754314415689922 0.0096544744000238 0.1451813372197009 0.0147541205774538 -0.0158117246812306 -0.0773308865232011 -0.2302426276480006 -0.1112287116614070 0.0669035514606871 -0.1632977778681733 -0.0187882172924604 -0.0284422782898105 0.0105163347720926 -0.0770154102815983 0.0336232806562799 0.0126929191268988 0.0530170328387056 -0.0267531575373787 0.1252238933324029 0.1916590322547604 0.2070826207098676 -0.0412070793059676 0.0502947642129728 0.0150181733751101 0.0199914852230725 -0.0384930130112354 0.0729858791978466 -0.0576177219757828 -0.0377951640130531 0.0148425783674503 0.0549489166859785 -0.0379547727939162 -0.0143546093681126 0.0286294968532861 0.0515629560116491 0.0536218618374360 0.0503663318840044 0.0016271283898030 -0.0256970592383671 0.0615583839352395 0.0143497569274245 0.0185550386792614 0.0001332670328661 0.0159293023411196 -0.0080375977434075 0.0425969124991896 0.0160898804896130 -0.0420798143393946 -0.0016198408397024 0.0446985222574982 -0.0216806936245803 0.0217659321692052 0.0077154601961727 0.0002549144195204 0.0320672899261998 -0.0140780725642657 -0.0179269204219460 -0.0320446547638506 0.0064893299667413 -0.0411129572814402 -0.0442633230758760 0.0116746114985448 -0.0176273395698531 0.0326228398178510 -0.0370611117845711 0.0300178548783487 0.0025547625144764 -0.0306625484505884 0.0097307794201492 -0.0293904384136281 0.0372203873215338 -0.0390878367155089 -0.0144401087959220 0.0306252563540538 0.0366172166462020 0.0435299887139484 -0.0199957779959214 0.0227928949308817 0.0729828528236661 0.0336158566227058 0.0509604321229933 -0.0102987674414676 -0.0058967163440936 -0.0289896171711360 -0.0040670992621993 0.0190913844442128 0.0092137600093078 0.0065154652116377 -0.0317690674969488 0.0353996770442407 -0.0170508427224829 -0.0060633360581341 -0.0077515350993133 -0.0184812322052490 -0.0052912961304615 0.0061223966738855 0.0244825273576817 0.0167031675557456 0.0291619519580777 -0.0062635229972635 -0.0327553665636896 0.0243055755218051 0.0092576321957193 0.0248953174896288 -0.0141337996293671 -0.0221594475212642 -0.0084962409154108 0.0059502935378738 0.0241185131852137 -0.0396690233134289 0.0200612728936095 -0.0014654178579446 0.0126414527252510 -0.0100391490487402 -0.0013013373963157 0.0130705259195645 0.0401379333410484 0.0173218750079480 0.0026603908506027 -0.0080856866850510 0.0024873584341920 0.0247031666419538 0.0379182829795470 0.0442123979886782 0.0397636867751187 -0.0007965600316522 -0.0497773688749685 -0.0082117212063326 0.0043743871564086 0.0154083988049745 0.0451627274737339 0.0035231166886589 0.0140783279692411 -0.0327954664570750 -0.0162034863821115 0.0061197852260269 -0.0058771957675445 0.0143507679706579 0.0203413846508552 -0.0479140764262220 0.0168267201765343 -0.0413611985306983 -0.0189627634328452 -0.0222228176720645 -0.0001728944838427 -0.0088020052784716 0.0234595483974978 -0.0277516130313889 0.0406353891901104 -0.0303591060334799 -0.0051284351974931 -0.0381433519734504 -0.0008540221282608 0.0441670468805803 -0.0208138253442378 -0.0402090111906322 -0.0646789800461391 0.0266499518458895 -0.0116181266429389 0.0471830385478478 0.0598481482508293 0.0069769116981686 0.0572353115845863 -0.0327136254808829 0.0229017453599406 0.0593240529285486 0.0502754929510438 -0.0071463070079635 -0.0403063190487297 -0.0038946791644795 0.0145639603938083 0.0083947246673758 0.0203544065228302 -0.0360499523978734 -0.0100654737824327 -0.0485470055450901 -0.0028585677999437 0.0142220222160714 -0.0065092969624756 0.0219341402065045 -0.0294409430602722 0.0291583687683804 0.0070838089776596 -0.0317225152407788 -0.0166840262606904 0.0396101060308660 0.0211710343016662 -0.0057090645260962 -0.0228712092726122 0.0277630263081407 -0.0078856687401017 0.0017255254117700 -0.0206324553660203 0.0254780325401464 0.0220819355100459 -0.0065881634826330 0.0221149747955608 -0.0001069350036436 -0.0441696433330619 -0.0100101493497945 0.0094167093214704 0.0242132914842757 -0.0557793884067932 0.0027503011261951 -0.0322799771728919 -0.0310982900083898 0.0049380028531063 -0.0433414948434166 0.0161987081181388 -0.0184470018001922 -0.0267725632592207 -0.0138592321886587 -0.0147094623200287 0.0075598759050276 0.0228044937642818 0.0004077638124577 -0.0123651064869957 0.0663015899284099 -0.0101280418361937 0.0380253596329809 0.0416208854253792 -0.0317697361952674 0.0036154104713538 -0.0118123813737408 -0.0661816159139998 0.0168982963523686 0.0104867422328583 -0.0142494251654594 -0.0091108472492066 0.0485966899092086 0.0106824251870551 -0.0448706480511768 0.0030813798973661 0.0179881654710786 -0.0140312249939899 0.0229034027222156 -0.0278893410798581 0.0259221198043824 -0.0291612655243311 0.0103764297511891 0.0278791834048657 0.0302982915952575 0.0105717264551373 0.0422036589669381 -0.0470483721813079 0.0136583974901983 0.0158928266196400 -0.0036172794730372 0.0062881403211675 -0.0272475574311358 -0.0130282954152791 0.0070828443899484 -0.0066400029998445 -0.0323041646582676 0.0264047373394674 -0.0134994299585954 0.0216434267037663 -0.0188040821996590 -0.0353654780504910 0.0169082465761089 0.0304082047465920 -0.0382147370889444 0.0396138120796230 -0.0170523066497175 0.0053561618570049 -0.0157341288569317 0.0219337700175542 0.0361782460224219 0.0465284184694017 0.0056532763300984 0.0058553048807797 0.0345020956870298 -0.0420398631399537 0.0220074030853867 -0.0299095058162178 0.0175752210170710 -0.0420515994308659 0.0271536522718478 0.0406528740366413 -0.0535193678625245 -0.0397328184244599 0.0346297592880754 0.0322000096735343 -0.0318674662722571 0.0062286738036863 0.0245506688292640 0.0052720676844066 -0.0193038031619342 -0.0227519687528883 0.0400374557328055 -0.0537537411480916 -0.0105619333643267 0.0202163739113779 0.0330187299153199 -0.0019605766502863 -0.0333434949401332 0.0382054537458806 -0.0531158293719729 0.0427474307795149 0.0370278655621023 0.0152766395545531 0.0300976471085151 -0.0070918532606153 0.0080348926731139 0.0133145557900983 -0.0142120981917386 0.0084376590246627 -0.0287732047200140 -0.0185164652516470 -0.0029911070679930 0.0391780865716501 -0.0430320466825491 -0.0390205755080259 -0.0338143020348655 0.0253751286087966 0.0530036828242140 -0.0461152167743193 -0.0097182625706246 -0.0040663867819708 -0.0417688724828113 -0.0137551660179830 -0.0265909342342880 0.1102721051484315 -0.0854915507206513 0.0905168162061671 0.0416035620449326 0.2228708012672941 -0.0038371210798337 -0.3200311003051377 0.0642569212969484 0.1341279095359344 0.1410942658667252 -0.3049214665230305 0.1542381236623889 0.1659064948322397 0.1304391339684699 0.1658073047553892 0.2326034503913756 0.1133074060113386 -0.3553811672102403 -0.1272681337169775 -0.1525308402622220 -0.2441769913319235 -0.0583709799707095 -0.0484460465396245 