solver_type L2R_L2LOSS_SVC_DUAL
nr_class 2
label 1 -1
nr_feature 76800
bias -1.0000000000000000
w
0.3204375644771537 -0.3458523946131230 -0.2156171496219186 0.4439230753606269 0.9187115073137102 0.0308756249646526 -0.0440270856820902 -1.0560893235306044 0.5224099353423380 -0.0798547895422005 0.1195894293528439 0.6822577678858364 0.6979063639700359 0.2299743732799091 -0.0674015391155981 0.2280078554578580 0.1905308340527015 -0.1552841297784747 0.1077530186508331 -0.1401886138255266 -0.1443693117340032 -0.1823650425812333 -0.3633157415389260 -0.2451330924442331 -0.4064121353658010 0.5974136396514349 -0.1861894309301312 0.0513890468157119 -0.3225916160694025 -0.3779916785138914 -0.1179101175923599 0.2857851764575594 0.3467634832735708 0.3979593220174679 0.0001559936636220 0.2677776173221718 0.0002645840447731 -0.2456990771952156 -0.1103285940338525 -0.2442354815308174 -0.0983582234199116 0.2302737892283254 -0.0676116068828121 0.1874161730743893 0.0319090770828304 -0.1818774772362876 -0.3307067360355678 -0.2354848305220583 0.2868536147300219 -0.0905862473646463 -0.2052348719865753 -0.2048682572688920 -0.1760406345889590 -0.2539398345650252 0.2666283864760495 -0.0201999777328383 0.1651748599718458 0.0569538583071614 -0.3182377304384186 0.4727425749771454 -0.1410953113605017 -0.1811639199251658 -0.0542189740275389 -0.0521308489167734 0.0260702073458459 0.0951421330787087 0.1387672347800513 0.1007047032157906 -0.0553483936288585 -0.0365734323344578 -0.1529758839849235 -0.1104116455764746 0.1609496131469897 0.1535304638081456 0.0023963999438941 -0.0967132643391470 0.0447644669185281 -0.2773649914743925 0.0292104156284328 0.0168443725124253 0.0242566944411548 -0.2163727055298441 -0.3413754038206423 -0.3441868820790073 -0.0827599375070415 0.2841951855866140 -0.0816538655574083 -0.1595214533666963 -0.0399089802885571 0.1772827773506549 0.0173157631179827 0.0625775493527062 0.1481603465064597 -0.0679177503645321 0.0221955349338503 0.0397607512013113 -0.2686405894101406 -0.0872909645442889 0.0355733276967048 -0.1020589781601241 0.0440360976628165 0.0822677406513469 -0.0119102074319995 -0.0785576296481033 -0.0343952335683187 0.3352133888054665 0.0901169564408354 0.0602247831740570 0.0632602035345969 -0.0840660676385043 -0.4829620120143120 -0.0060534723851880 0.0903617849071224 0.0981960244802904 -0.0205061171184037 -0.0320436639024828 -0.0556681597507069 -0.2770973517281163 -0.2260291445965414 0.2150947247453095 0.2698131956615493 0.1163298627061817 0.0388214877039822 -0.1556248521673010 -0.0440100228383386 0.0005973835946392 0.1186332915834337 0.0283518178379982 0.1327101227271984 -0.0009963416865808 -0.1206334067843609 -0.3725312636253517 0.3915145454832293 0.1555300004139732 -0.0667527743093218 0.0301226981675110 -0.0402075079921606 -0.2320583556742605 0.0042505813403839 0.1870910309783161 0.0423564267400945 -0.0962575791621347 0.0241522981294881 0.2063356412535347 -0.1152249686806262 0.0874835413417485 -0.0804498307006861 0.0549098658841767 -0.1467962127590929 0.1493742863092837 0.1680188818197944 -0.0175995650650221 0.0833120774824269 0.0543278823737041 0.0859451312571244 0.1650831572568400 -0.0589842081265503 -0.0766407739881758 0.0153628773943707 -0.1920978327640350 0.0032892780260999 -0.2119762498811830 -0.1253254041829276 -0.1253946732673955 -0.3456460043657012 -0.1124755813323444 0.0495986300311468 0.4059021767844990 0.2134828288978552 -0.2852458476303122 0.1953765049498116 -0.0964518484699448 0.4371589001052421 0.0744246897616789 -0.1632947045874310 -0.0191476867817377 -0.0520928454229787 -0.2928329983954607 0.0193644165097779 -0.0675163433245731 -0.1047312267410910 -0.1358728860796759 0.1048217365109141 -0.0715054185084397 0.3301910593017920 0.1131766782929429 -0.2468321532089316 -0.3524872997507975 0.1666917147307748 0.2512129763617282 0.1059793360543648 0.2216854412107099 0.0269165968678654 0.1456557633672382 0.2463922957835504 -0.2298056991275787 0.2233242761865451 -0.2456728764977193 0.2404207671738364 -0.0801761424356228 0.4938518265203685 0.0004729968389367 0.0462513819802985 -0.0441093879247636 0.4584408321392998 0.2256346258266530 0.1818429751555236 0.0347171814115300 0.1839883869639749 0.1275498127738957 0.0747522709122164 -0.0965545115441391 -0.0925420511039929 -0.1578999067611165 0.1438268438453906 -0.0823584955954857 0.0429952487727652 0.0092701718754031 0.0072388131897544 0.0105751250300823 -0.1916058534466871 0.2696392895259020 -0.2362222820579572 0.0074390913778003 0.3129907622745519 -0.0762700458772918 -0.1101031620707622 -0.1283846761507523 -0.0801909151868747 -0.0215041515508161 0.0559331939639297 -0.1828440477191017 -0.0619318249868447 0.0763201210163179 0.0173287960088203 -0.0929859874134719 0.0666207688886856 0.0500088319319060 0.1143734895993066 -0.1404235434264359 -0.0979693919153087 -0.1893649326607241 -0.0103181747876478 -0.0691002200516477 -0.0726137521652438 0.2546328087592522 -0.0537765746776413 0.1556112727525492 -0.0374492386056650 -0.1869237140274647 0.0176649462001076 -0.0184530516584562 0.3190236409862874 0.4833041930802212 -0.1879570275486186 -0.2828230965429053 -0.0356547916391535 -0.1243332271356716 0.0521302929311726 -0.0674328281658825 -0.1522007849151667 -0.1381985519525452 0.1667799684754718 -0.0090847224393062 0.2354309975519505 -0.0846238600939221 -0.2304373710825074 0.0726103534184507 -0.1146993978366169 0.0791854006150502 0.1910731964646589 -0.2780044744099886 -0.0137717246023636 -0.1005742843438031 -0.1368641377009674 0.0917390451045633 -0.0798177960064948 -0.1973268043946483 -0.1256918267219823 -0.0426499478369342 0.0494875282547942 -0.2143827947067445 0.0820723688364311 0.0455809920825982 0.0216228829501092 0.1161177459977696 0.1015416012762806 0.2258122308282484 0.1248877910385969 0.0732178206548535 -0.0235017139043718 0.1191451662139755 -0.2609586674003435 -0.0830348489568804 -0.0808649013040823 0.0769717604826286 0.1241361531755058 -0.0126771747972621 -0.1464563786560751 0.1235812543920852 0.0006974958550909 -0.0017384406164996 -0.0050020790738799 0.0008604387376680 0.0040815477950426 0.0013704070262575 0.0070382088585751 0.0066407374807232 0.0001325532497752 -0.0020131302986691 -0.0042675472322759 0.0023862117372698 0.0012302335162329 -0.0039873915424694 0.0048422267151935 0.0025536700948902 0.0076578179478303 -0.0006618666430196 -0.0056712346345186 0.0046855101823773 -0.0103473184195694 0.0054569715003915 0.0013046491220947 0.0005452774191947 -0.0044180116001152 0.0051082482282875 -0.0068743978023324 0.0079796483007930 0.0025058656400951 0.0074990034317299 0.0035990795698453 0.0072601694051050 0.0042343346737148 -0.0033841763149049 -0.0006929683100230 -0.0043776258151528 -0.0034552609525310 0.0054700405912138 -0.0042649090208887 -0.0023072914412640 -0.0029622150656497 0.0085894982334879 0.0089052583912668 -0.0006977009994894 0.0074712771367215 -0.0057506113124792 -0.0060548978286690 -0.0076250330743628 0.0069786197298225 -0.0092430303992566 -0.0060680362396625 -0.0077733331052530 0.0024033467617834 -0.0032332479339301 -0.0078451737150245 0.0032290413690429 0.0013271694748032 0.0068956777518720 0.0062344246464934 -0.0013415157142365 -0.0074865078212766 0.0064232370210998 -0.0044786511855027 0.0007812102505794 -0.0022507047919710 0.0019143910629017 -0.0067830425981972 0.0090657940887583 -0.0040872357256827 -0.0061748461518942 -0.0073042968266831 -0.0071598361985476 0.0009759648202352 0.0066949726149187 0.0051524678248802 -0.0005673150547674 -0.0013620575544865 0.0048136684390523 -0.0008538116461309 -0.0054407057769653 0.0071702799409307 0.0044254940258234 -0.0008426237538126 0.0051565240443586 -0.0069299210056993 0.0057548320705005 0.0060818488676262 0.0015286437607602 0.0031961914569275 0.0028773923599752 0.0029006497453563 0.0061055472375069 0.0020427326581136 0.0002182795906953 0.0055858557266478 0.0080283926727430 -0.0067122489161057 -0.0084243701590141 0.0042321924600994 0.0008420833896461 0.0058810100846893 0.0023321096110560 0.0067826579452754 0.0070502508675488 -0.0076446626205314 -0.0036975312446338 -0.0093626181603993 0.0085458594838622 -0.0064498683942717 0.0098636730903966 0.0006436587179013 -0.0003757389556824 0.0052820994587674 0.0025970813073803 0.0053162772761188 0.0012313044897314 -0.0056408025745174 0.0072865824013057 0.0064522655419286 -0.0001208260683744 0.0074984681420240 -0.0027380156239103 -0.0004983273019493 0.0070062659582701 0.0008399702745501 -0.0042175363117861 -0.0029651496699780 0.0030343675146997 0.0075137320208176 -0.0068160242323802 -0.0089296780971323 0.0075098702992307 0.0017507099965340 0.0063778335730196 0.0062141600970047 0.0044391415070264 -0.0012317807454229 -0.0029661937378665 0.0049822435085467 0.0079164727325715 -0.0046448652312784 -0.0085590941220360 0.0030681528098502 -0.0027668530978290 0.0065189998042167 -0.0054194058343361 0.0085185105288503 0.0042494362976840 -0.0055608314124383 0.0042265574337312 0.0024575911029845 -0.0040356371530407 -0.0068836779604116 -0.0012012431502509 -0.0054106703339740 -0.0017875066586777 0.0006634992619635 0.0028509832582343 -0.0001125704092383 -0.0035288806150212 -0.0057506061400605 0.0074856086545936 -0.0045465152426807 -0.0051718143634572 0.0005377553296678 0.0026589424972680 0.0040767693916476 0.0006621288755714 -0.0077940855852127 -0.0065821902867132 -0.0067499064007026 -0.0078819255239407 -0.0046011158481190 -0.0058188292257388 0.0058854177749736 0.0038077439073898 0.0026458412174191 -0.0055957156755288 0.0033231804609037 -0.0064714250664666 -0.0061068357278931 -0.0007371668420826 -0.0015983771010943 0.0043276756250322 -0.0029526952507263 -0.0024459324253755 -0.0047066769979669 -0.0055494637465003 -0.0052340971637535 -0.0022099557824373 -0.0028846533299688 -0.0092212059419518 -0.0035159017439879 0.0000603259591393 0.0050740024578059 0.0069752090021836 0.0029318426109950 0.0087903997387540 0.0045360943149968 0.0026189741205500 -0.0004926631958908 0.0039573711899702 0.0074335586978683 -0.0032903421697208 0.0004464607766640 0.0058604607299437 0.0028327814076419 0.0029561013352886 -0.0051637346630673 -0.0038654292633659 -0.0055700022985962 -0.0014510008598905 -0.0040141963629334 -0.0047062153433881 0.0051438255130251 -0.0010269439225514 0.0007526664568921 -0.0059731654305440 -0.0006144503409857 0.0054474441782322 -0.0040732269117613 -0.0049838964608136 0.0006451795327668 -0.0062782363400133 -0.0064720425068575 0.0038846286590811 -0.0065373346573162 -0.0002201721952681 0.0009764770122545 0.0006791058838818 -0.0048314404802678 -0.0061175051508731 -0.0053515346316284 -0.0001213910612344 -0.0001799179849727 0.0038477484291322 -0.0096822798997496 0.0071854732373188 -0.0057918626566638 0.0009950654386710 0.0088883620674615 -0.0003010774517795 0.0005974100154327 -0.0057371417064174 0.0008108683005604 0.0055545458616702 -0.0033866408149312 -0.0059712579530003 -0.0040684578776431 0.0039419352406219 -0.0017218315927173 0.0033210647976031 0.0012164246196496 0.0053754351933026 -0.0108690571067761 0.0041497379590151 -0.0051677144554814 -0.0036670668199716 0.0000973317455149 0.0034480094627806 -0.0066861785924260 0.0025958039003351 -0.0103267476370834 -0.0084301727112600 -0.0010461750886682 -0.0000658330996489 0.0032503825820971 0.0057890092086902 0.0026449592904081 0.0032630349524461 0.0047003824904152 0.0048835131080808 -0.0008849464603064 -0.0002627006649565 -0.0004277825129044 -0.0039036958830121 -0.0071266159652520 0.0040410338048269 -0.0036604383911154 -0.0019771190999514 -0.0006411294321216 0.0042783699707845 0.0056418614230721 0.0032701706473314 0.0038472057444476 0.0015486694867374 0.0039391952093313 0.0032047944881302 -0.0043093716628290 0.0035251755646129 0.0010032858560406 -0.0029366341514932 -0.0000758022538717 -0.0028250225793959 -0.0041616590428300 -0.0016611188213613 0.0024263120746767 0.0039101912111529 -0.0009659837833628 -0.0020621391458667 0.0163247982546659 -0.0370306468016464 -0.0040917706497294 -0.0123420354463349 0.0178261278657722 0.0229735955264754 -0.0347734158888209 0.0096984312252664 -0.0302233863602400 0.0088972942460766 0.0247141460889644 -0.0185381834480918 -0.0505975913580740 -0.0481633772060437 -0.0429735423118802 -0.0047178855554006 -0.0354884435200257 -0.0437510538347356 -0.0353809840259377 -0.0354959692440667 -0.0344897045796895 0.0185505149632746 -0.0015550436116282 -0.0104969920394015 0.0265692121206422 -0.0124155470969451 -0.0097408444207691 0.0172728121868405 0.0318301560106098 0.0085556105572642 0.0109246504697964 -0.0229945894385035 -0.0333310839310876 -0.0371803115960248 0.0008350447706982 -0.0027109322900939 0.0324477997565777 -0.0272874993983516 -0.0018045726751015 -0.0353144042400988 -0.0231740517140041 0.0331033088784935 -0.0379360261005551 -0.0265750314090768 -0.0269834643770596 0.0093293088419720 0.0064558927648680 0.0124956953196912 0.0049415225636823 0.0111838228137942 -0.0026971792026697 0.0148816860120224 -0.0133831617763554 0.0272259235824904 -0.0163578160382034 -0.0315845609147965 0.0006393445238445 0.0459005265392626 -0.0101749876190636 -0.0260948190868408 -0.0118244983346084 0.0392280405818880 -0.0453676219279315 0.0593744711876895 -0.0157283860560417 0.0118249211323549 0.0285322739095185 -0.0223532411290775 0.0355885519244682 -0.0119459376298712 0.0127712319914017 0.0228369022580519 0.0044473146394169 0.0009217657949777 0.0046553905802980 0.0149880202880069 -0.0054985306411870 0.0079373215187546 -0.0249394078886922 0.0106058009507797 0.0240057222148105 0.0284662781410944 -0.0151146524098609 -0.0175330840577733 -0.0184119768278714 -0.0209030026024964 -0.0462364806020133 0.0139645105772489 0.0230675353024748 0.0525971923883175 -0.0266928021590924 0.0066455936571511 0.0158643903102176 -0.0131438419578049 -0.0588873329156909 -0.0446450924359771 0.0184804726358542 0.0299900975772886 -0.0264952346726666 0.0293884238505309 0.0192036995698834 -0.0170357489748411 -0.0365813408798958 0.0148685237602567 0.0452703412083842 0.0584659794140306 0.0139624724768391 -0.0330319670172698 0.0016218645041658 -0.0216821239391656 -0.0175938703509509 0.0306065806552103 0.0235124231113576 -0.0188810635020226 0.0013739514963129 -0.0079147169250650 -0.0092751553391856 0.0451833290196192 -0.0235575099765495 0.0117576454882538 0.0085882151574352 -0.0062497084181963 -0.0013765567807681 -0.0085533856580030 0.0167041900160047 0.0275754724912815 0.0026690991577802 -0.0079002654528486 -0.0426936343259698 0.0073400985485847 0.0120482688895449 -0.0259342222438932 0.0229801902239763 0.0097104613462325 0.0192312706650270 0.0340321766813174 0.0072756507035661 0.0252458753529320 -0.0053476485228106 -0.0213605966237554 -0.0065115685645305 -0.0235956422886992 0.0148527713816098 0.0066843231828006 -0.0212941892277135 -0.0000914761738121 -0.0350664857675729 0.0475354374519548 -0.0052254875894623 -0.0111959019733736 0.0143503202402958 -0.0385108764090512 0.0498188882419387 -0.0296079839969185 -0.0410395844687695 -0.0234825955431895 0.0025290893491100 -0.0217297710011648 -0.0034561823673636 0.0083131718626840 0.0211709008312379 0.0049614504957414 0.0360117150978208 -0.0227968893800925 -0.0073788641466156 -0.0135061663641367 0.0254559817133835 -0.0282521297287246 -0.0065144414448526 0.0547250528402071 -0.0061074204702643 0.0060440442041263 -0.0333600820114159 0.0008264971167639 0.0177348491759856 0.0010024540875851 0.0126647001401646 0.0173669274254715 0.0029458461900125 -0.0073115227110508 0.0066346367554649 0.0103279581005093 0.0320688553364013 -0.0136890197012464 0.0063427680553585 0.0001855395795829 -0.0300865563135763 0.0324706178440786 -0.0011063262748293 0.0249797990425865 0.0012304412933116 -0.0319772830987339 -0.0102804423085825 0.0241332147287098 0.0082443334144078 -0.0043153465566020 -0.0341832681435532 0.0104983765461468 -0.0238035117179162 0.0074186348846205 -0.0306402252709880 0.0224216316851813 -0.0410877457988160 -0.0217553480485193 0.0116181304023375 0.0223349787542633 0.0280410411183677 0.0073657232161794 0.0202295996526027 -0.0192642094833999 0.0074024182212259 -0.0153303529367157 0.0208020995734672 -0.0231651897764032 -0.0279977242019572 0.0351784207766980 -0.0260439674262849 -0.0003291702409223 -0.0146739492984348 -0.0017895663002356 -0.0142195303464094 0.0009987887472108 0.0087799407982210 -0.0035535098381638 0.0244313489833661 0.0170547346903786 -0.0276740543872076 -0.0165313072071976 -0.0249739984273546 0.0402384133495889 -0.0095784445257701 0.0142155875007064 -0.0174050189114734 -0.0163115850093410 -0.0037827402382865 -0.0297951798481023 -0.0088348270496514 -0.0001117180926490 -0.0046295650848801 -0.0125048689828638 0.0057143634688373 -0.0070337980447270 -0.0309646639205809 -0.0133139634568450 -0.0109493760854143 -0.0029381507108749 -0.0150186452412257 0.0062657911952269 -0.0169641052512078 -0.0095414804143832 -0.0015404730169233 -0.0073447660340570 -0.0160705688847008 -0.0015428303056021 0.0053853958799372 0.0005491984480121 -0.0211260313335366 -0.0007535856269213 0.0116964407828744 -0.0075678043380934 0.0089093041430199 -0.0162850025330215 0.0392790468616601 -0.0035540139900352 0.0170233008551959 -0.0076867113458605 0.0195837335904419 0.0045166893721387 0.0037010180026700 -0.0035145249458602 0.0052881116452974 0.0151861154902793 -0.0005838679061866 -0.0092786539412675 0.0015374268258131 -0.0121770715479505 -0.0305774172896843 0.0159923111695596 -0.0123271684400341 0.0255387047783029 0.0027967779982586 -0.0049066699354850 0.0160366469493767 -0.0008549077527295 0.0048645399194371 -0.0145518462156989 -0.0137373953888543 -0.0221866656168788 -0.0140190222676167 -0.0210278270982772 0.0024883758942663 0.0090990335491719 0.0088801402634784 -0.0011415659125416 -0.0032144367059019 0.0131004508059631 0.0115294754869778 0.0114465901591835 -0.0098757749191594 -0.0010572380963419 -0.0476217451360026 0.0201608565093156 0.0961997890665940 0.0060964888478240 0.0336175994726233 -0.0167243076982981 0.0072156368508298 0.0629890035897455 0.0511792695786825 0.0203891268266629 0.0024262663303876 0.0003490691231893 0.0745813192498078 0.0364306587731947 0.0413001224954566 0.0254429358294781 -0.0341689708501441 0.0200206974129222 -0.0156660112331070 0.0232500892744523 -0.0084188382484232 -0.0164485550454250 0.0375386741710876 0.0242901936568910 -0.0147350384053135 0.0604543659493273 -0.0005549381914701 0.0112380738691640 -0.0002885025008317 -0.0184975560950922 0.0037636761699749 0.0526295787107868 0.0573202180137059 -0.0554011321022689 -0.0126606184895358 -0.0006071569257786 0.0322782037960236 -0.0308570397094077 -0.0246215890893304 -0.0028034337610302 -0.0485357946531707 -0.0332368849692759 0.0185544886713337 0.0598599438610534 0.0436908173505466 -0.0208173710529803 -0.0166209534179871 0.0081787281779213 -0.0502781621338986 0.0447534031507113 0.0105507380509848 0.0616195565626877 -0.0283170295513013 -0.0204112867445173 -0.0188673078721287 0.0115662686777077 -0.0527498559016410 -0.0128818856671517 -0.0378986448115057 0.0220705695608771 0.0023527503421160 0.0314857921134716 -0.0324022331067839 -0.0560639230058348 -0.0056319368382860 0.0399176482644790 -0.0620957000805663 0.0211561885079226 0.0244523960782411 -0.0488210024060708 0.0131965552835969 0.0948334193102499 -0.0308777005061309 -0.0224884123603698 -0.0507403131669462 -0.0460537483135173 0.0284305260046201 0.0830217799704640 -0.0000561773144302 0.0013460036060877 0.0326075361037494 -0.0116962608898582 -0.0131762046854684 -0.0178428656713668 0.0262919751491614 0.0254086640520381 0.0574546500657442 0.0713543833663042 0.0093396350581999 -0.0079279985628840 -0.0101021519999502 0.0257591087729498 0.0386969067154673 -0.0355866400561364 -0.0153440807501283 0.0379954624014296 -0.0409907081442741 0.0072664721551841 0.0504872665291996 -0.0537876789567559 -0.0114927828309711 0.0619831746559502 0.0273027899454170 0.0373622646635961 0.0490424742568536 -0.0251802389428886 0.0208408380139387 0.0466500292570497 -0.0091954479300919 0.0099241704687498 -0.0022685990247714 0.0053606770455539 0.0400813663115612 0.0392193714790644 0.0058359417568075 0.0038331164376827 -0.0104176545792567 -0.0318562292512006 0.0204612805196962 0.0039712690595563 -0.0375014471555284 -0.0477798544357202 0.0333336899605884 0.0214186205623478 0.0448647026208493 -0.0756430379456975 -0.0403302608319549 -0.0553938438371877 0.0578620926685517 -0.0339198920384665 0.0082711709023015 -0.0169896034534407 -0.0400505432435336 0.0456145602867456 0.0181856093492167 0.0572075463329757 0.0535309157822798 -0.0254366770256200 0.0014467666129159 0.0759674543797133 0.0062240711395817 -0.0024947576667654 -0.0213203007869944 -0.0510019535265916 0.0679267761096812 0.0280391429684267 0.0274898666595846 -0.0333750869858167 -0.0532144277956685 0.0197894095932551 -0.0242957999260394 -0.0331968974000640 -0.0353831565031554 -0.0632303020726107 0.0189749791949580 -0.0557609232749062 0.0202288818454943 -0.0844917774652711 0.0509474529182434 -0.0330469887383677 -0.0628589772748105 0.0198464620088221 -0.0227213151631135 0.0831231886574336 -0.0202203269670319 -0.0412589555490655 0.0417942646336156 0.0211671834606661 0.0120649993845474 0.0403774449114442 -0.0064570899685138 0.0282429334791029 0.0098599457707970 -0.0394303561913500 0.0341891714799988 -0.0133383484068743 -0.0320575997563759 0.0310352522246257 -0.0041421424738074 0.0523632902626743 0.0438121409654572 0.0011209760396334 -0.0090742785342993 0.0467773654001293 -0.0331102370453942 0.0050683461554174 0.0206165422934259 0.0458708016278822 -0.0136517260559741 0.0357057998902999 -0.0193914459516352 0.0898026851633243 0.0480276976005459 -0.0007427179054734 0.0208468254003158 -0.0097654035475481 0.0391580696754358 -0.0156427876173510 0.0155637341266894 0.0037026416632241 0.0252928418352564 0.0600307541281066 -0.0325297238389453 -0.0410464720370878 -0.0394846445162846 0.0172135402216175 0.0455484158120744 0.0133164216843044 -0.0755156406387664 0.0060059267193591 -0.0185836619763170 -0.0204131693832536 -0.0628575467156057 -0.0438824177280170 0.0338525890106062 -0.0711294416310859 0.0242339708103915 0.0243328401768156 0.0544080949279657 -0.0115487651844699 0.0084198098219287 0.0893845747988227 0.0172762769884063 -0.0557685459239013 -0.0715626914576156 -0.0209143818933757 -0.0570447813573558 0.0779707833058521 -0.0261957629982328 0.0289558068695118 -0.0089674553604171 0.0662468204327901 0.0206648868013460 0.0845541028479211 -0.0902812974665632 0.0037430572079669 0.0217213500930151 0.0219349569883852 0.0208795206798651 0.0316240407325898 0.0126274127042915 0.0109841175300736 -0.0976506512030190 -0.0007382456505476 -0.0205023963979237 0.0273178879534900 0.0344941823123054 0.0006550363731132 -0.0467998728973383 0.0224839320141533 0.0160549734108724 0.0163934415951268 0.0488663875849452 -0.0094818026165316 0.0257772280140025 -0.0120942177277857 -0.0422000561845583 0.0178958203607616 -0.0035420862074259 0.0199925820848283 -0.0194540913450493 0.0171362740635546 -0.0421248790568020 -0.0495790778513747 -0.0192747396642126 0.0227694944341162 -0.0265243939714491 0.0190028013604090 0.0210459888567881 0.0441220902977725 0.0165276864675421 0.0117639197736901 -0.0209613533393451 -0.0153903776560390 -0.0030110004906734 -0.0220807932512877 0.0079170509241878 -0.0046562376550344 0.0019203251921881 0.0095595678265079 0.0063647097211272 -0.0051041178068369 -0.0127019408771976 -0.0436825980212254 0.0055756982437420 0.0202429066448302 -0.0390723928655427 0.0329772480638106 -0.0029235785331000 -0.0241389930277419 -0.0343603357848160 -0.0192688942346877 -0.0319051879002947 -0.0249208324547309 0.0325827498895228 -0.0076074106121325 0.0361548545909972 0.0151523784129080 -0.0213326194190361 -0.0350106383297136 -0.0909994417679523 0.1517215943413113 -0.2274680808911970 0.1966505678420544 -0.0338580037044983 -0.0981570321945688 -0.0935603902503970 -0.0278010231273204 0.4419529022857024 0.3015148404226992 -0.0347172987894723 0.0098175321572274 0.4316748009937948 -0.2688870018806065 -0.2108073730880949 -0.0413617522677847 0.1170410862274725 -0.3909845969577405 0.3677064016534987 -0.0471176609478942 0.1659660932995864 -0.1566358480944468 -0.1054390217740876 0.0752134755415840 0.0762910213631838 -0.2761529264564840 0.0698087069030256 -0.2060956588943845 -0.1001492637135616 0.2509870230658845 -0.3180441152963058 -0.1812536593174502 0.0301065477562302 -0.1009287574247978 0.4311380654577214 -0.1069450460485193 0.1106416739748242 -0.0581589952097704 0.0407395806197670 0.3352712189851969 -0.0160217334958221 0.1615352001255940 0.1330806223378067 -0.0956686669236325 0.0704355754313995 -0.2667144393008367 0.0121571819813660 -0.4441504619448168 0.0189208145800834 -0.1742207795643920 -0.0852498714203343 0.6411934458712877 0.0108423011813344 0.4079194798075735 0.3555441158474993 0.5486656394712000 -0.2830894975627788 0.3794126556403343 -0.6763116032093588 -0.5901343860642457 -0.0699724598810127 0.1413112289173246 -0.5657945394304017 -0.1651271885489768 -0.0723753863550790 -0.1931312641543841 0.0039301112017838 0.2374022825450374 0.0883258792194403 0.1625114776687689 0.1087086052022797 0.4629569204319144 -0.2087171121258361 -0.0428496327658857 0.2448140128008807 -0.3359830627685749 0.1136790428295400 0.3447846349475567 0.2011520404014792 -0.2098266423189969 -0.1116550616813041 -0.2791533296288024 0.3881214577120640 0.0176978727772541 0.1675609553779096 -0.3302300412820062 0.3158358136873505 -0.7978795689550459 0.4232845533826035 -0.5205222893875462 0.2570979667169416 0.1143869031650589 -0.4183842766652919 -0.1088359015183589 -0.2050789285288456 -0.4093355015381662 -0.1681115905860772 0.2521698083205868 0.4156237923762987 -0.3589823348949766 0.0352481927832703 -0.2867006434071987 0.1784147647870170 0.1391565801167556 -0.5984044997007537 0.2617271329819797 -0.1702055337006834 -0.4078127295063314 0.2987235744686146 0.1795610788932031 -0.7123002815684141 0.0542595542671977 0.2883172130954246 -0.2086755156334177 -0.0249698034442969 -0.1049094686434017 -0.1627995461685312 0.0122088926932768 -0.3963265783564986 -0.2437719460273137 0.4930401247402060 0.0758289806113280 0.8927853943441528 -0.1742717903086621 -0.1724752592364470 0.6501568896298446 -0.1942441896929328 0.4672836628638293 -0.2237482391249871 -0.3628135451258661 -0.1240192059689326 -0.1211196853601161 -0.0954072698951700 0.1146899086447913 -0.1286262003220380 0.1022796736019623 -0.1168014271306730 0.1337206983581415 -0.1779432452380885 -0.2508184712265233 -0.0112748424237978 0.0120637914356056 -0.0883788878460131 0.1510152737043698 -0.2297109395303767 -0.1128235770871193 -0.3566961822501336 0.2765609221082043 -0.1201664362560236 -0.2913017218708657 0.3933394108403606 -0.2001500441520445 -0.0887872900485767 0.4825367830151381 0.4118764939670159 0.3114138283197216 1.0142491569377041 0.4704854608030460 0.4347562117451501 0.2471960028468396 0.2850618364240204 -0.4444428855907601 -0.2383481772522994 0.5221992313364749 -0.2604205275769172 -0.3400064124484501 -0.0556813797402865 -0.1363284694590050 -0.3834525235324154 0.8130250239128010 -0.2892130122439514 0.0316736389174997 0.0416432585832089 -0.0480293825544314 -0.4155359268416878 0.0184612453683228 0.0401809049545845 -0.0831543789130704 0.6540604302520244 -0.0420711208395661 -0.4331537708672811 0.2648173960297617 -0.3465598155057539 -0.0407172540395415 0.1113337550849892 -0.1813196057521719 -0.0187047848642674 -0.5429960620976936 0.3218526334965049 0.0271753703126803 -0.2643048828287983 -0.8106956590687434 0.4387881592170700 0.2559005649413227 -0.1813042984872449 0.1347970453494558 -0.0680127083625565 -0.2446981353583242 0.4127787029428386 0.1290553607308309 0.0199446512231638 -0.0481971889444125 0.2165210886322520 -0.2400752880264535 -0.0467078624213702 -0.0392399136998697 0.2064559393030090 -0.7213094142292930 0.2609518806158870 0.0494932245519002 0.0267278049732053 -0.5983736143512930 0.5722430445659277 -0.5900704506530240 0.0387362934106078 0.1781390609342649 0.6592114725704804 0.0045932864013678 0.0953525334502432 0.0481936446653706 -0.0206706289389853 0.3154605207417193 0.0253812174154412 -0.1850144051893023 0.0215101301222815 -0.2186316303078476 -0.1821132034224092 0.3028202520141159 -0.1350216471854607 0.0704531933129043 -0.3772687819366501 -0.0512403849676397 0.3130028577743466 0.2042970116983951 -0.0059510770608195 0.7242469053563969 0.4283116840732369 -0.0687818685642310 -0.1397561957199937 -0.2330878600538125 0.5790530433476302 -0.3641808323946756 0.3963091880112714 0.3115631785081031 0.4465897608496899 0.0055937903903961 0.3134461557906651 0.0932483102724147 0.0081314257222198 0.1623019160495771 -0.1934372279693143 0.0068841529101991 -0.0906730492027560 -0.1297948251561646 -0.2543804289556090 0.2156084811963026 -0.1947417728106269 -0.0568351195390800 -0.1199422059791776 0.2410913589692327 0.2199320404084535 -0.1173769261251489 0.0825600869300808 0.0220393983769146 0.0773425931922152 0.0461645320513290 0.0739550650967536 -0.3200395406293132 0.1690766473723406 0.1956709291304209 -0.2706380158366726 0.1693871697581377 -0.4218056076606340 0.4658267092724895 0.0698194252163563 0.4914197383515743 0.4622855391083708 0.1331992102919357 0.2259231734948958 0.0442981748325467 -0.0272955212164074 0.0099806586798357 -0.3172998331267834 0.0091565086423821 0.1074120945659966 0.0432859983161023 0.0084353390692207 -0.2248220556854264 -0.1096751448887516 -0.0426018576069588 0.1186390414072379 -0.0398934704361009 -0.1188555102671185 -0.0704655759485900 -0.1824363535624137 0.0188539630351581 -0.1587168937302169 0.0354199448144694 -0.0284942696897886 0.1447486682928865 -0.3356558413654512 -0.2611600504597977 -0.4401221646525407 0.2591143463018132 0.0906388252268254 -0.2147936601542979 -0.1662193084453728 -0.3286920391269917 -0.3082646673149073 0.3820274894154371 -0.0585082305611893 -0.0282828335451038 0.0682319280667213 -0.2038775796713473 0.3443174924140168 -0.1800607838363355 -0.0045196609108198 -0.3634237597148118 0.2859702035402562 -0.0931327125679017 -0.0589843766061172 -0.2221172578108868 -0.2182067379104932 0.1661747992101082 -0.1906621450546459 -0.3325039136032915 -0.2079396023290801 0.2053954612275982 0.3535644033324005 -0.1337872920030824 0.3580183780376177 -0.0080933819333907 -0.2630097597743485 0.5890374782769030 0.2489228408104155 0.0422364839127046 -0.3356470206997206 -0.0680217316492901 -0.0588779976819602 0.5842895763543680 0.0808677883386594 -0.2416198311868981 0.1145800907635910 -0.0455855451382738 -0.0116025718624023 -0.2443805556819369 -0.0513920146330061 0.1763782739957502 -0.4116202184413292 -0.0551878657782466 -0.0833946677199491 0.4983571570251739 0.1271888128067623 0.2943341289975753 0.0029366621350050 0.1131398321582660 0.0821672864639482 -0.0462367602445345 -0.2501294129396662 -0.1428942503661066 -0.3656690978304148 -0.0652812154218583 -0.0831924841731647 -0.1616032998636548 0.2117816543964859 0.0391889182958390 0.0163432617456614 0.2747763697467487 0.1223600201884397 0.1165350952484168 -0.1596237462293544 -0.2784409722501072 0.1860132530623819 -0.1726263726978262 -0.0703203261340838 -0.2476419944137122 -0.1517144989179926 -0.0312776215845428 0.0255473368360255 -0.2458320864985112 -0.1436734145849199 -0.5049169196503859 -0.1737746369291245 0.1494560880842083 0.0352200249370345 -0.1808934533543198 -0.1790544901046048 0.1303338923630730 0.1501325080079281 -0.4058078197989617 0.5435612601879704 0.1628486664549753 -0.1180601001694319 -0.3808522570139805 -0.5615031084420871 -0.2748091976274052 0.3745764700988102 0.0332707945295135 0.2863537774254739 -0.2408940906722101 0.5813910478046274 0.2040057972252484 -0.0202827891649994 0.2507532420134581 0.2652017378791875 0.5127841578962986 0.2726574511550902 -0.1001407178279440 -0.2117203044323415 0.0671994976818162 0.1414809341140968 0.0051594025686765 -0.1625037422564445 0.5010880504101769 0.3106653714052486 0.0413191079250737 -0.2490408031944483 -0.2112802765910952 0.1927893490411421 -0.3467888954892430 -0.1649018898697107 0.0388532434628177 0.2885880997807769 0.1029912497549159 -0.1252901896506237 0.1942913183938111 0.6551468373199156 -0.2890516073172990 -0.1266692297177678 0.2044403477214884 -0.0552231734517996 -0.3059171751396677 0.1856423760636516 -0.1346292201216369 -0.0021805160412088 -0.0492670616727357 0.0725050935329524 -0.0827709860979521 -0.2725938007393297 -0.0830272072912236 -0.2133303298585715 -0.0012527662031303 -0.2175738941475415 -0.0736311948172141 -0.1435953433365321 0.0310051870618640 -0.0379650841207110 -0.1836310129988066 -0.1795721697868204 0.2292304724090093 -0.0690733360421229 -0.3916836327807973 -0.0839975714544607 0.0290632130936815 -0.4053135783150030 0.1864497397443880 -0.0362116887756420 -0.2176403378801489 0.0673021209967964 0.1776020801001481 -0.2826319319184701 -0.2157247025683732 0.1017598867388619 0.0969567412114049 -0.0454138592034252 -0.1911899929145149 0.2118509417244631 -0.1492130105639762 0.0433180434449701 0.1091114911756108 0.2033954381003782 -0.2116879995552609 -0.1497402365437730 0.0801493772279323 0.0253509283754861 -0.2500780905527176 -0.0888411720302906 0.3803449084166867 -0.0439773931864631 0.1485650815357134 0.1233035040379291 0.4182477454506767 0.1090609651476733 -0.2555068356392683 -0.3419187958098732 -0.0418767696913390 0.1354638369427625 -0.0224732236880862 0.0238173522766316 -0.5121317133359492 0.2290083776176325 -0.3390488291280261 0.1195670866076418 -0.3975189267523618 0.0500155362647560 0.0614997460477855 0.1401061329473974 -0.0890196744604338 -0.1103159092133440 0.0769598604685904 0.2479942557888900 -0.0018566663058901 0.0803718131053524 0.0949229991986973 -0.0970935551256543 -0.0689978069672746 0.1281927107125428 0.0393274300059711 -0.1849561449142680 -0.1138883349171237 0.0352750583404373 0.2799915128694473 -0.1217066727209285 -0.1251766158765378 -0.3508160565846994 -0.1026910089598008 -0.4095875073662039 0.1500362712543201 -0.3019423614652398 0.3062463529535902 -0.0561452786326748 0.1655839986744242 -0.2168162115042300 -0.0719069175749855 -0.1677744565995356 -0.1425006683911377 0.3001388567709726 -0.2745679436750315 0.2297984926377598 -0.3028380108650304 0.4798707626907191 -0.1408215597456732 -0.0041190791196446 0.0694886320339343 -0.0827370876178768 0.0323435763070552 0.2533547735970256 -0.1605880407107913 -0.1659359565750790 0.2128303283988306 0.1126279778446174 -0.3719829253916221 0.2994754521226640 0.2295048877065115 0.3697470345636165 0.1214158749535501 0.0223312871574821 -0.2003446773247773 -0.2934692270988269 -0.2523369855771254 0.0379989177109622 -0.0986425206470862 -0.2780148740704801 0.0437431096380775 -0.0083592818202081 -0.0020423388155953 0.0877533422031989 0.2414563334738307 0.0363167137181977 0.0961840910588332 -0.0541716901732280 -0.0360066725991001 0.2793524329831171 -0.3905779507311517 -0.1050400922967049 0.0564878801967223 -0.1686672288484821 0.2160106780393573 0.0394379402801047 0.3891660231711686 0.1733191277070680 0.0485045694890716 0.0914007402353985 -0.0211322086960767 -0.1848777646095749 -0.4672323518264064 -0.1927334514586519 -0.0858529272060930 0.1909417637197829 0.0304827819301542 0.1152243514540963 0.0350000555250824 0.1474714079607962 -0.0672251171231866 0.8953612273232239 0.0186852017292682 0.1884040877323705 0.0139713586069610 -0.1942177449715131 0.2195586137841850 0.1910257484942781 -0.0941437177761457 0.0388782834183257 0.2085896959631592 -0.2344807922047515 -0.0267687488810811 0.1617379566356456 0.0073266076520567 -0.0891710217179833 -0.2156567591936869 -0.0913341171081670 -0.1501447247888028 0.0202713324554617 -0.1256238962838847 0.0927338069382467 0.0680976519032246 -0.1660784013688802 -0.1130909452156913 0.0852976197525993 0.1439383006958024 0.3785795297185037 -0.1438455096513045 0.1292347755034899 -0.0458069714390617 -0.0590978587408829 0.0506420721579774 0.1023852420152270 0.0460380734172878 -0.2370232698511037 0.2261450617932254 0.1471140104765615 0.1146846254465831 -0.0734281846333260 -0.2069144114343558 -0.1809729206688826 0.0299692938105314 -0.0020714589762293 -0.0303119703462872 0.0450180283650379 -0.0915721264571884 -0.0194067233793056 -0.2416283604767815 0.1517042425712664 -0.0208170058567713 -0.1722980541947257 0.0692706972146965 -0.2061331329986364 -0.0251594657865069 -0.1613777588381400 -0.1797060218182393 0.3453705190051530 -0.1836170692721087 0.0177733456647243 0.1572965698345407 0.2097350400354331 -0.1881665502496720 -0.2469468727038716 0.1438330020649907 0.3936371616729373 -0.0045202083314603 0.0955456891424243 0.0176788965308064 0.0934063388488702 0.1141550972438824 0.0138998945226826 0.1502276686707210 0.1996824176697381 -0.0364015715955363 0.1702071311324005 -0.0410744902880282 0.0870511908379609 -0.1217644297216598 -0.1788888147028635 0.1764583846000127 0.0628409746882587 -0.1694555775511662 -0.0029563173411252 -0.2893963290424565 0.2853992446583666 -0.1290420791079997 -0.2312029358873364 -0.1742683310661472 0.0536185296736787 0.1467643295545142 0.0258178739465057 0.0033567136772869 -0.0341928009883366 0.1390363621941541 -0.0660843688962360 0.0357176665306431 -0.0213123844397421 0.1490966588958768 0.3305808947851870 0.1412519946362502 -0.0015482982561446 -0.1697112925676054 0.0992999022777263 -0.1478558745464264 0.2908982860807655 -0.2869148036213447 0.2248616002356448 0.0561510419934978 0.0528583407820269 0.3073592410043874 0.0818343754856378 -0.0459502302081512 -0.1203092481888517 -0.1071305535386467 0.0528303457635586 0.1337688131315652 0.0910371732885546 -0.4336543620390024 0.1205324864663747 0.0464108552892314 -0.2434345406429070 -0.2742815064984644 -0.0349917748623206 -0.1159789676776511 -0.1149106393806650 0.1452656064143161 -0.1590911061152095 0.0608881762124426 -0.0233763249674151 0.0657578009935152 0.1572294239252508 -0.2230048952260262 -0.1015158842132217 0.1738959426075798 -0.0153467383111445 0.2203652879307186 0.0680589146245653 -0.1153519235206663 -0.1527614985692530 -0.1110530450439719 -0.0546803953593339 -0.0255420669955348 0.0882708010833836 0.0585428737753172 -0.1054745897500081 0.1255024468828130 0.1147839738544089 -0.0479091580130730 -0.0579371344740060 0.1007698728709281 -0.0296050040523912 0.2980131396884812 0.2411149071273970 -0.0797697434997477 0.0281442193116037 0.0696878883040907 0.0826280880474948 0.1364918319379986 0.1451225979084505 0.0113381027595804 0.0982898951229131 -0.2779627287200728 -0.0999755228912784 0.0586780605241084 0.1213616642144888 -0.0234202793871326 -0.0456264553171476 0.0083632430497156 -0.1344792492077095 -0.0540658413273922 0.0266262746294974 -0.0694093012924043 0.0275752296970027 0.0943024730811929 -0.0242304542729586 -0.0446664001984514 0.0122802223631002 -0.0934672518689922 0.1442970409017570 -0.0903525830946751 -0.2017821409550481 -0.0077599362218735 -0.0032414285654686 0.0009790786558002 -0.0761403655615707 -0.2873698172085363 0.1319873519549445 -0.1606501521180444 0.1341665573741607 0.1327455475953947 -0.2577223827482941 0.2259358441734674 0.0697766411328175 0.0672462974970681 -0.1270048607088516 0.0590940060645772 -0.0094328252831098 0.0650777537059108 -0.0405769621942125 0.2366589512907424 -0.1343751008205107 -0.1101833362373399 -0.0978416429697842 0.0846822682954566 0.0282593215634738 -0.1182914285821127 -0.1565127507642614 0.0423345549918456 0.1745189925838293 -0.0253860043017084 -0.0572552606486018 -0.0477219865608692 -0.0888734136369612 -0.1490152904950068 0.0798552499143199 0.1667153570382865 -0.0609023864353530 -0.0821233559423802 -0.1548814600708220 -0.1793105162544625 -0.0448985941995042 0.0158233700755725 -0.1088950729359619 -0.0844349801436575 -0.1779600889020577 0.0663118964091952 0.0068345361976514 -0.2689106103824624 0.0761746884259215 0.0814191848970106 0.0651596186096255 0.0648083526212913 -0.1264269690428132 0.1737821044464039 -0.0416808662211461 0.1900050012349960 0.1008067119939018 -0.1885157530180664 0.0272452474793956 -0.0806003529542115 -0.0506521232207390 -0.2009145959933325 -0.0027045432851226 0.0021442636054916 -0.0820571741094210 0.0213797934337163 -0.1040898329603675 0.0879063642992853 -0.0952326502909483 -0.0242696783680650 -0.1357634331756818 -0.1822233534020472 -0.0505591899540225 0.0630786709406455 -0.0470206577521958 -0.1557096606451825 -0.1313040194275196 0.1103154944030953 0.0176991248885176 -0.0572245276912700 -0.0757017838392050 0.0284096766164349 0.0790631096959291 -0.0662250382033842 0.0957372183442730 -0.0380747437090140 -0.0200182249610912 0.1238334918732646 0.0475048247237192 0.0756470130762391 -0.1049291113098157 -0.1172125189117202 -0.1313060568161026 -0.1244233901256148 0.0798050808548853 -0.0458078364562000 -0.0296678214156809 0.0292822433408056 -0.1464888594633092 0.0351159214659676 -0.2165473973723385 -0.0101516981968158 0.0379324432296039 0.1146951995668105 0.1004596761578736 0.1216420175829503 -0.0968665309355616 0.0987647709917428 0.0142384931304441 0.0531692459585943 -0.1358531820865569 -0.1346268739482866 0.1215320616432754 0.0775166633593700 -0.0506638237005758 0.0547731381743351 -0.0212545091570245 -0.1060615805965976 -0.0691690801695364 -0.0563706945443992 -0.0373660709890104 -0.0086739581685991 0.1272310892663520 0.0258044578419275 -0.2220050374345540 0.0581043577353082 -0.1506342286874427 0.1964385169356113 -0.0292898625569989 0.1014471432397260 -0.0870043379461524 0.0173491141508816 0.0801711285273309 -0.1134479931655440 0.0651369963112699 0.0048345606811931 -0.1178771221567601 -0.2629783306351317 -0.6867014513312095 -0.0785261405626757 0.3275861432814362 0.1337193064248594 -0.8653027264073651 -0.4350847910898972 0.2403850727298577 -0.5247578129236695 0.0959406229438583 0.2935812002706895 0.5083470722292673 -0.1320820359458955 -0.0339379864273262 0.3857327797656092 0.2444867500027550 -0.3277893001329465 0.1868297772142525 0.1593020661406485 0.5411251266615763 -0.1055346142989200 -0.2062142851841635 -0.1858397038849804 0.2150530933380917 0.1627593506120499 0.1223423576426883 0.1633987756039765 0.3066115129971100 -0.3324256999985959 0.0429963742488192 0.0552486173034203 0.0095611392592911 0.0558798631202066 0.0743334740231518 -0.1433651213420860 -0.2535665236971351 -0.3052952923439781 0.1216969134827903 0.1818667865997914 0.3247741171669579 -0.2546720571288140 0.3070828377282664 -0.0826834818674080 -0.3529718911631589 0.3947005218682786 -0.3052448912015819 0.2431336769978908 0.2048417444934985 -0.0734198986098176 -0.2465900636217130 0.1836597499364010 0.1941874680100238 -0.0114172992383817 -0.1361458410446448 0.3348119707004250 -0.2095102093103193 0.1665884841053892 -0.0186037678772878 -0.0457723632343298 0.2749019750058941 0.0298153137709424 -0.0530436954420641 -0.2560418602133419 0.3034535374147379 0.1632428038960707 -0.0900672852883629 -0.2866844144823283 0.0893019796101498 0.3713552575930669 -0.5969836558122545 -0.0251299823211229 0.2356799364738107 0.2247097392092294 0.4881237703759873 -0.3410804278007389 0.1348082813806067 -0.1395176489124644 -0.0208998887258544 0.1869086141176844 -0.0536263338945434 0.0967710172473508 0.0264691222752333 0.2354839106969401 0.0475923698741097 0.0187485892371496 0.2658387553756756 0.0073335594223789 -0.0421753298733017 -0.1438670433146086 -0.1559595049560701 0.0746616914032547 -0.0697370667727216 0.0334449767971451 -0.2339605107675482 -0.2775782570319533 -0.2929453505428778 0.2702102576055172 -0.0369434889870360 0.0035497736311759 0.1207889805022019 -0.1246149852949051 0.0639497064691280 0.0039450168772369 0.3301885909460274 0.0773362935139366 0.1672657302109536 -0.0162618967529981 0.0210599858165701 -0.5385936895303398 -0.4001925958002983 -0.0877068335518602 0.2975162913352440 0.0206329919657022 0.1018614264130105 -0.2515234371417450 0.2001740903416284 -0.1916675520954861 0.3140068673981862 0.0029016680678198 -0.0605270752878829 0.2130571134509484 0.2279561085124898 0.0697841193128711 -0.0435018084899878 -0.1088458151873852 0.1450492040614015 -0.3673047093360597 0.0854737791238698 0.3645420126538019 -0.0568964418712112 -0.2148020144337872 0.2061437122248040 0.1354967549041350 -0.1801882318106670 0.3028772311330182 0.4257928930652968 0.0370745647240465 -0.0866611428465082 0.2925052914008237 0.0300751389695036 -0.0553718377648951 -0.0699499866193214 -0.2272874739488991 -0.0781252001918433 0.0148277324745813 0.2698670980228904 -0.2002619984208780 0.0227214174682842 0.0408214541192785 -0.0297585746753881 0.0121977696832486 0.0977987847118530 0.0853070970061756 -0.3063038268525521 -0.1984889992593256 -0.2802979466871331 0.2369148270582171 -0.1527386233271669 0.2050467648447054 0.0284598699428274 -0.0709127055449282 0.3468789273244597 -0.1702283534991851 -0.0923380124445893 -0.0756280866516003 0.2828262760312796 0.2854192154455265 -0.5569727510146759 0.4026177459644045 -0.1875431976751471 0.2011934192133517 -0.1371398792893476 0.2852053900120566 -0.0927558095856187 -0.3269966007179425 -0.0985775220093316 0.1642885563966724 -0.0307327516680701 0.2397848033892476 0.2396190221582984 0.0306709143072138 -0.3875948018253673 0.5272988343807116 -0.0052712381117083 -0.1174716603646117 0.0891551210754592 -0.1424413862296680 0.1224583129692626 -0.1028758071029244 -0.2980495636658483 -0.1106802845023647 0.1117547192105277 0.1665953129594221 0.0092714692938682 0.3201599547947671 -0.0253875047767588 -0.0409518510388555 0.4005754918023293 0.1047578106636119 0.3535972424420216 -0.1021982730995294 -0.3460823684987905 -0.0007327267225949 0.2095353395976284 0.3873763161326219 -0.0749962012192935 -0.0777887918459530 -0.1000821771701555 0.1815776940639037 -0.0289555412067838 0.0721699725881582 0.2648108710412899 -0.2322806367552703 -0.5089615022990319 0.1480806333200209 -0.2646466325883678 0.1198664057181288 -0.1341284416645198 -0.0181371447948277 -0.1432775923847895 0.2905816293696324 -0.0494573189468486 -0.0515481779019858 -0.2264540087033113 -0.0833750729663144 -0.1908783964776548 -0.0567342142173928 0.1739310994680791 -0.2231198413414430 0.3183405798408048 -0.1588154718393257 -0.1587576546891692 -0.0383875883379809 -0.0559313991516562 -0.0821730070075774 -0.1684518155005916 0.2785498010688656 0.3126588209416552 -0.4822914965163831 -0.1530236160334132 0.3134388998746121 0.0499126661468769 -0.0182607246607568 -0.1789829425891176 0.4292662670947252 -0.2869069411331230 0.1364980115043121 0.2264937220411308 -0.0741632329255939 -0.2510319205711167 0.1098961008689372 -0.2035746919513531 -0.0676792711604251 -0.2988026493496719 0.0173097273555257 -0.2888354211325209 0.0298114347461400 0.2000773324797875 0.0583921139260780 -0.1776215922933025 0.0177309438369050 -0.1027969570416368 -0.1058987375503884 -0.1472652277265395 -0.1746160375866510 -0.1315090972324670 0.3195424578165895 0.0617882759930759 -0.3499846764112365 -0.0478765083348394 -0.1659568110931885 0.2615026920825644 0.0844988079404801 0.2151312885868742 0.1970014719140690 0.1857987595888321 0.5456597616198782 0.3414176333309558 -0.1888243540084286 -0.1952525478734673 0.0939493458824749 0.5514948566733082 0.1779682646226719 -0.3757657047777962 -0.2045185745378318 -0.1951670225895601 0.1023781370430592 0.0536545128839978 -0.1869638369055496 -0.0410145917290520 -0.0640626735433780 0.0830571824243966 -0.2870482930274131 0.1278743198849588 -0.1076512094440339 0.2193369305018344 0.1898188055298139 0.0268067201780586 -0.1227736537209211 -0.1182067223563726 0.8055003392081480 -0.2009104300352731 -0.2071659277298022 0.5088294451108931 -0.6210958021093097 -0.2803936896645996 0.1355193859053638 -0.1931625406387244 0.1655747817752035 0.1636435178769828 -0.2156886523337397 -0.0871509159534092 0.5369610067742849 -0.1015399904089901 -0.1475953708545744 0.3287030208381434 0.0071483342615594 0.1398353940717615 -0.1756502030712902 -0.0463629373501573 0.3134905367805323 -0.1522958165709356 -0.6155482409553366 0.0427392843076263 -0.0102015066410589 -0.0249795324624893 -0.2425266864583133 -0.2251607895304822 0.4489883604822672 -0.2545218610134541 0.1492981215846606 -0.4304276470587060 -0.1046493340084179 0.7553382506597761 -0.1153400771598582 -0.2170889428496897 0.4090651906871526 0.4823299583318665 -0.1533652644663374 -0.1169250914195962 0.5054374809280944 -0.2256928156835636 0.0595410653501087 -0.4465169896620025 -0.1842621735889777 -0.0437253084942708 -0.6017114321644400 -0.0400167390337139 0.3656539066254857 -0.4921840006988444 0.1989064981644254 -0.4941055873696107 0.4378144085510730 -0.0567978448368750 0.3459012074175737 -0.2665807452157734 0.1531669754981003 0.1278465452118981 0.2018763276033972 0.0073875487530066 0.5707886585091841 -0.3720889017457755 -0.0972446959139337 -0.0992137834273055 -0.0974430044435985 0.3520723218762009 0.1822602438625171 -0.2943431910140842 -0.2356634542888647 0.1616284649333014 0.4308279294333946 -0.3438739856805776 -0.2285569471184910 -0.1703169386961935 -0.1599643050545544 -0.0670283265427758 -0.3368829209319272 -0.4103240768815387 -0.2084256128918244 0.1718817770488080 -0.5754676474945942 -0.1694389995849347 0.4457487349213124 0.4326938805329526 -0.1545139294226033 -0.0887787256213183 -0.0111123202071256 0.1336588985012316 0.0264250321356569 0.1342489437098466 -0.1108551193522948 0.3512685363985549 0.2289577213495245 0.3652461035450545 0.2389306876856706 -0.4062359782859329 0.6071179254750892 0.2936279879514774 0.0197266978103074 0.0711450509475449 -0.0815518576207385 0.2471238116819299 0.4847012361285712 -0.9728996696569709 0.1338570057545272 -0.4689122188283719 -0.6410640773950653 -0.3092805679838937 0.0676378909216400 0.2611901715018237 0.0431279243598077 -0.1165879959236961 0.4871395893519495 0.0073022541189172 -0.5539040198089670 -0.0788298201680436 -0.4907834496971018 -0.6997120995203140 0.0190723435641573 -0.1226674258617542 0.0299279831489608 -0.0693630102320898 -0.0929499876974515 -0.0863204857409208 0.0889569232018251 0.1063957097193313 -0.0156490069595805 -0.2546448494694530 -0.1340707872823757 0.1847021317932404 -0.2828030351190509 0.1015135057311434 -0.0886341020754660 -0.0282446336097071 0.0720589980548683 -0.4632205192460494 0.0840372943417513 -0.4561672722131285 0.2241232126947457 0.1296717035802803 0.3032091133290721 -0.1844274251646081 0.0477074134014045 -0.0019231046714171 -0.1088875486461938 -0.2982277065574540 0.2198931642272632 -0.0539346559627954 0.2212414638675737 0.0757480178756956 0.0112629036447548 0.4789043441879332 -0.5899528796772117 0.5176015372759049 -0.0832940240841289 1.0917060809912162 0.2058941041862894 0.1047460055124535 0.1237924377517314 0.2539307923285639 0.0715922663208660 0.1969739812378027 -0.0406154385474906 -0.2735000034253648 0.0465955382388503 -0.0589036859203084 -0.0507395978741635 0.1708972868463258 0.4522183845436843 0.1666989144109673 0.2341672349392389 -0.0464261567106118 0.2286740397208308 -0.3478220955971372 0.1655037828065977 -0.0469865637181792 -0.2773886464092435 0.5594679048106144 -0.0162542789111081 0.2584287637413900 0.2495053225058260 0.0976586995072813 0.4432405519576070 -0.2390004840667890 -0.1008393276375194 0.0063825801237783 0.1603339989781816 -0.1252871989069116 0.2637235510900655 0.4125392720129946 0.3508686299560269 -0.0293436696118935 -0.0047999763068035 -0.0416966381821651 0.0268517865179254 -0.0276859390543355 0.2946535451599619 -0.1835545621106687 -0.0046578065189330 0.2652675124481215 0.2863024904439726 -0.1355347111230928 -0.0487759088728202 0.3593085213268179 -0.2645234478407234 -0.3403059039286255 -0.4649904202141130 0.0087669081378243 0.4226048470151184 0.1887085708938704 0.0654438782044977 -0.0257057495811366 -0.5846722456350730 -0.5259723621237106 0.0166976366354687 0.0936157260076556 -0.1497403758780388 -0.2354807794469708 0.1329012350572039 0.0828149281134324 0.1664509828626113 -0.1394044939940429 0.0670715544839422 -0.1478974095049356 -0.3085950203200712 0.2566752029049994 -0.0783888411209719 -0.5629615161604130 -0.2958725828215220 -0.0081500121610188 -0.1191143507300833 0.2142783278105574 -0.2861668475855912 0.0825575038589472 0.0764403110077360 0.1519861090401879 0.3466001397691669 -0.0570123867269151 -0.3577799278465444 -0.1055955637907530 0.1720920089295607 -0.0962286882701816 0.2295362153206644 -0.2449299133326912 0.2677025066551483 0.2674034346802993 0.2086598617819002 0.3028654579460389 0.0240861749048293 -0.1036433977830132 0.1279689615194764 0.0341855724231771 0.1051041203248193 0.0218248560051268 0.1127019988801163 -0.0072761991621351 -0.0576322221440799 -0.0970231352077484 -0.1140664785091400 -0.0716047285150970 -0.2506910495119381 0.0835322483842187 -0.0696342231068666 0.2810870635667781 -0.1578279046483843 -0.0922561561791308 -0.1141808614011839 0.1999573864140208 0.0682900961925976 -0.1604505524653485 -0.1877526604693697 0.0440068475308209 -0.0337279655066700 -0.0107921523153070 -0.1236731411414768 0.4039143201563606 0.3552610048241139 0.2125982232364542 0.0807418626821411 -0.0209141795807359 0.0815060059604905 -0.0693023541352299 -0.3358662621821867 -0.6091176613739744 -0.2554331046565516 -0.0268816510596200 0.1812881454184646 0.3093617587969659 0.0081601811314974 -0.2894482794608516 -0.0693715973849052 -0.1553372977911605 0.0217036628610338 -0.0245032860737541 0.0841411468170279 -0.0545417653488792 0.0791968211652470 0.0221760412859718 0.0919415586981334 -0.1405993696377793 -0.0330241867476077 0.2551451627124380 -0.1369739035630826 0.1074066493432930 0.0002962512800853 -0.1224757573690929 -0.0444076404208233 -0.1062039498135143 0.0129484320175521 0.0208304334441608 0.0252227622219521 0.0373950835082549 -0.0341928311620691 0.1004265529625202 0.1995428821918441 -0.0346097712791569 -0.3391086981420720 0.1282499363911794 -0.0135024540812087 -0.0555549045254481 0.2627157913510679 0.0608211351473591 -0.0487274219765346 0.0363627599562638 -0.1059536235128674 -0.0679656548988502 -0.1183290233498085 -0.0268486817691100 0.1156417213644264 -0.0963483143488180 -0.3647921952447137 -0.1011645935458614 0.0067429453240725 -0.1044430787436330 0.1148515511724370 -0.0141730979857934 0.1772339233482071 -0.1464578705183183 -0.0944377339161049 -0.0536020110765509 -0.4482349276061929 -0.2134946468910286 0.1623777860214462 -0.0244606202148377 0.1642349232917326 -0.0066213492487119 0.0705984952903500 0.0871545046312494 0.0757270019925175 0.0149307681092630 -0.2612795981404251 -0.0455503400624315 0.1044480392888727 -0.0772815795352248 0.1140689321925689 0.2254463434356906 0.1353134154765646 0.0432662488857139 -0.0966801645441197 -0.1540920826116617 0.2918072748204525 0.2743342940668009 0.0962811629635119 -0.1476760035842019 -0.0255462105797030 0.0571452234957833 -0.0116357984410616 -0.0810480491711289 0.0172686863042320 -0.0673470541611371 -0.1397037538439646 0.0672037058126363 0.1857435732297019 -0.0319705345895957 -0.0783168166342383 -0.0343669146163628 -0.0760148765327345 0.2626446570870516 -0.1207435874399016 0.1129632244907493 0.0440772191538576 -0.0713372461630750 0.0891109738767526 0.0786298184082467 -0.0336069794912456 -0.1680204565062398 0.1050767093073921 -0.1571639581070561 -0.2833907277813166 -0.0493253155950705 0.0936224999041954 -0.0530743861655039 0.1666263586371385 0.2782800190157373 0.0785717255506905 -0.1707972847648914 0.3439315102536793 0.2826598502493841 0.1117030388663230 0.1165548319949086 -0.0824655019463068 -0.1106186364507305 -0.2038814872545736 -0.1621558923973548 0.0297916867684805 0.0194813366454301 0.0533251787186614 -0.0607656483398214 -0.0703983776476580 -0.0697999015682155 -0.0979637773127569 0.1954150846134850 0.1510359679050028 0.0598474502205746 0.1285900662351004 0.0602157578372422 -0.1632378698431053 -0.0812915825728689 0.0153862027934500 -0.1184219170446432 0.1892575552559006 0.2042056579098731 -0.1173094703442850 0.2862279017601090 0.3175090448437604 0.0241786717658897 -0.1476524837241415 -0.1033803806715865 0.2600748682234630 -0.0702493849471869 -0.1573230909279931 -0.0746719269737157 0.0417176849643992 0.1311347977286164 -0.1322579454285476 -0.1070453124451224 0.0379161689267413 -0.0146806303984486 0.2323779925049237 0.1309106000010712 -0.1189136061989477 0.0269149088218975 -0.1954377458454655 0.2469975341388757 0.1927060178153766 -0.0470579442595215 -0.1230262435984612 0.2549701979091258 0.1456990218566359 -0.1130274337156661 -0.1313116268808981 0.0021876018145083 -0.3512974088150755 0.3144298838625443 0.1913031396218833 -0.0268313199411530 0.1327790837235356 -0.0384524887864644 0.1108881677390289 -0.0317853198978865 -0.1539739781415600 0.0971119509338660 0.0710104588534792 -0.2348057323449252 0.2338647286620901 -0.0048877141792579 0.1192436789677258 0.0463970281876390 -0.1909773251586910 -0.0394347370253202 0.0472332386126384 -0.2741436944366378 0.3620177497282829 -0.5936946397808928 0.3115920839538242 0.1260018732125242 0.1299458812563957 -0.0394353290729956 -0.1472224170291731 0.0139000809940173 0.1081783241998322 0.1647292144555100 -0.0770895103096875 -0.2110974567324742 0.0956036112056315 -0.0655114618051351 -0.1517459275814966 -0.1556983086028217 -0.1368278333320249 -0.2013730890546756 0.0582686838007580 0.0814906577118060 0.3014220521605603 -0.1572278409249490 0.2937864774896184 0.0378841146294537 0.1127524053458662 0.0392594533194369 -0.0501260186649906 -0.0035228523340567 0.1010406889474726 -0.0258364388506065 0.0708424640635938 0.0565130044572832 0.1087295517439467 -0.1760217788033737 0.2130994297832766 0.1845746798771570 0.1870796224157367 0.1825205226346863 0.2775062056199536 -0.0639808839609798 -0.0012105816153134 0.2870752271551114 0.0151251976859789 0.0957892080453652 0.1485017212730951 -0.1893663154540415 -0.0595852464731317 0.2121204191264556 -0.1186490042734144 0.1817305301721438 0.0856375224166805 0.0778323856523105 -0.2457298629068320 -0.2458973282712920 -0.1903608026640605 0.0422917191769061 0.0093909590332285 -0.0317060822127454 -0.0920947329909780 -0.0242315589277468 0.0462599211055028 0.0138922293920615 0.1556068780735972 0.0279864036133896 -0.0112976881915296 -0.3602962143142025 0.3127106532956545 -0.0965731777915621 -0.1426777893015782 -0.1406486922485426 0.0757423755717393 0.0513733702632510 0.1466123929791406 0.1338043681585819 -0.0226643992529300 -0.0081991397109808 0.0876385962206413 0.2164674150844473 0.0168079005811487 -0.2007486170479558 -0.0891266553940920 -0.1659151304928140 0.0834703175224967 -0.0341148771621682 0.0618115347616619 -0.0007941891224102 0.1495716811097301 0.0071792727800994 0.1366635218167788 -0.1487249947730440 -0.0607565509564911 0.0107821771122567 -0.3403006515598505 -0.0331802286416050 0.0366091787027933 -0.0575897908795730 0.0773178748461816 -0.0670582936989476 -0.0657834774014470 -0.2591250535979212 -0.0416390852985894 0.0333935926983468 0.1650131792198355 -0.0698879212163582 0.1589398237729883 -0.0432208606916981 0.0303807113600464 0.0974206162380812 -0.0738303798265374 0.0513834638794252 0.1391190309980982 0.1214633556300490 -0.0066261193889462 -0.1352868564627653 -0.1867738288681431 0.0262278732315000 -0.0282050796082860 -0.0103283586761055 -0.0302725064095481 0.0280312773003358 -0.0888760125696476 -0.1128557299407604 -0.0508226040434391 -0.0416885218126990 0.0599696585069690 0.0000923046246234 -0.0310569049191463 -0.2308842855693709 -0.3269609567586789 0.0514198814734992 0.1304831858230508 0.1871079399666428 -0.0366064797446918 -0.3288315278921506 0.4909282039161988 0.1787391588649213 0.0406076312095145 -0.1025834824235096 -0.2278698113710714 -0.1674581695928659 -0.0370193182092894 0.0739782422181103 -0.0133819997397556 0.3191269195756487 0.3595321298304290 0.1458110179964045 -0.1282332033956389 0.0969255170180004 -0.2394166697862890 -0.2776955759182289 -0.3311048524592514 -0.1024714327772626 0.0337849711674209 -0.0751237332259812 0.0818973704477458 0.1151291754383027 0.1269391680346932 0.1566000864024967 0.2665915752867427 0.3304219628368160 -0.2219955273267744 -0.2104662799588959 -0.2017459939126427 0.0040455290259895 -0.0901995503476373 0.2218760334064552 0.1071200496626090 0.0794984008883417 -0.1224602715840776 -0.2616421481699273 -0.2190603624138568 -0.4458649791736680 0.0310757936140108 -0.1156019033386495 -0.4045756091180582 0.1283353123609015 0.1173108509037643 -0.2135372537639989 -0.1413119432598979 0.0132188141947766 -0.0711211507793714 -0.0537420172019409 0.1990328996335072 0.1203545633094946 0.2232397144976643 0.2531633554046645 -0.0591328245587183 0.1610849025569116 -0.0375733641239683 -0.1367037243686832 0.4790629484747624 -0.1974253665687900 0.1863502420822434 -0.1620579950905281 -0.3581419925178951 -0.3194836057264576 0.1657264631604212 0.4210742301106310 -0.0752483410004822 0.0268419255265349 -0.0491996893332652 -0.0802485320681294 -0.0733073197671810 0.1748310160499676 0.0789729138983742 -0.0610331584313791 0.0986096035936691 -0.0683573373679608 -0.0731862594007862 0.1765233051024583 -0.0849605185824905 -0.3814964962537749 -0.1443380947981770 0.1110413561880805 0.0730981301013348 0.0364039934328270 -0.0994448975519677 -0.2269449027475959 -0.2212986746780755 0.0725498631975493 -0.1229135307565438 -0.4137301111334434 0.1102184330552860 0.1128069999931667 -0.0670201850226753 0.2834658182294605 0.0840635229115744 -0.0144845049825136 0.2641047207182596 -0.2312627612451798 0.0366131568968418 0.2406471764236082 0.0170803611561346 -0.2186177579432874 0.0648316390630303 0.2478536973274680 0.0916122592084073 -0.2240040661550717 0.0837345289098648 0.2629320022632543 0.1218207157370993 -0.0061026889083953 -0.1865847134554247 -0.2791351404345299 0.2288171423089904 0.0549594938714940 0.0505990423854722 -0.1678063930878810 -0.2240551870179120 0.0683707829823449 0.1456572875662000 0.2174361914953149 -0.0235192659492072 0.1222288903180283 -0.1290772692617909 0.2667351873683741 -0.1339304665581418 -0.2079487900865227 0.3552959453551917 -0.1426813851576110 0.1519754606573279 -0.0950813284257764 -0.1770096079538837 -0.1342493999623922 -0.0931707819849674 -0.1122559330752211 0.1073454361849328 0.1332665422225243 -0.1617087951759540 -0.0889134589452766 0.0402561019782952 -0.0778717834110915 0.1270549628147926 -0.1256610571463335 0.0777839515628534 -0.3227938296932695 0.0171921982313674 0.0041473681110284 0.0968194541345032 0.0978490656381383 -0.2918966632099347 0.0721266030245716 0.1392002530421397 0.0843189974456244 -0.1709813908513020 -0.0066847887557896 -0.0069418998010998 -0.0932942441263378 -0.0791219776287888 -0.1781717999428536 -0.2242914858093304 -0.0286690598046749 0.1919225486027272 -0.2355746950071786 -0.0235857015206525 -0.0461728256346689 0.1183872631141939 0.0517941009957791 -0.1040996342082302 -0.0652080292753615 -0.1494346436606431 0.1156724862021851 0.0352879651078169 -0.0811370034448215 0.1565595035312273 -0.0434337988083184 -0.1429276439176400 0.0344596319226553 -0.0141460647277011 0.0116815677633119 0.2502215288177941 -0.2430612424663447 0.2816573845455648 0.1941873777931901 -0.1737468764235572 -0.0422403594007089 0.1831749863929017 0.2307057931532827 -0.1438578264511473 0.0752266265335251 -0.3352681647288767 -0.4155598722613005 0.3113498581957243 0.1841539763359031 0.1301240122243717 0.1136204131691275 -0.2048103265165728 -0.1419159378427245 -0.2010174180548942 0.1750075014325390 0.2747980063568467 -0.0784717891998714 -0.0504259564721836 0.1363791149404921 0.1679117164134247 -0.2201504309514549 -0.0026708041586967 -0.0736414100372366 0.1155114145456784 0.3464718654810225 -0.0112833597851725 0.0411653304272813 -0.1629212877135571 -0.1412831867131385 0.1932176657677596 -0.1170674868319699 0.1077472298142137 0.1040953808058749 0.1575230878092597 -0.1371703798480214 0.0353920930359475 0.0852550973361866 -0.0174154250275986 0.1175741377312665 0.1236782948244783 -0.2266050627148549 0.3054050855435230 -0.0188691468560759 -0.2316042832535857 -0.0149302990214928 0.1474482822373728 0.1322597471255404 0.3339868451057717 -0.3347885583508666 0.0966831229869678 0.0117364307416631 0.0258803538122337 -0.2483849403576025 -0.2460699982122733 0.2385743890655106 -0.0390155698260692 -0.0718954407434376 -0.1288120680220658 -0.0095565629122275 -0.2417537247228311 0.1421539609965530 -0.0460066793691331 0.0251698012471546 0.0618600496886224 0.0370551774626620 0.0310041611297961 0.1834402089971572 0.0052174138655183 -0.0387368949669473 0.0775316635841558 -0.0386298681193726 -0.0530873216695315 0.0800673011748143 -0.0635325642976738 -0.1347251389184774 0.0004878317563894 -0.0702475896221223 -0.0469537645078440 0.1908843270458908 -0.0644141855534601 0.2752030115716518 -0.1539250867018506 -0.0538097360806934 -0.1448557684126473 0.3778246486771963 -0.2037392631221420 0.1420191861765394 0.0651110840123970 -0.2211731935449692 -0.2282759005345754 -0.0767088817888170 0.2627216273416416 -0.0158227049312112 0.0344064099340584 -0.0769650485184762 -0.0977290940334182 0.0692627391461741 -0.2857038384827471 0.0223330840388859 -0.0149235158496633 0.2157682357705288 -0.0164125202972739 -0.1691669745066280 0.0819774358558782 0.0126409213113232 0.0523548959445822 0.0278344225005925 -0.3043857981452727 -0.1605527015210318 0.0608733672262531 0.0336049254457169 -0.2302506448550069 0.0057341885338251 -0.0425998283498540 0.0020607800736287 -0.0893703259313477 0.1621466556306985 0.0141402065674607 -0.0504543660386010 -0.0073595294954030 0.0468926689089830 -0.0649593994032452 -0.0532548081390446 -0.0808991622300507 -0.1896353691328156 0.0177813486282762 0.0513641932791103 -0.1000466842757930 0.0056969624853829 -0.1305762750532247 -0.0848605762371439 0.0270400773397388 0.1120117963323035 0.0961151041555321 0.0815415941579453 0.0632706488342909 -0.0267426841279201 0.0264499603798003 -0.0289264393343827 -0.0264836326918780 0.0863878672631045 -0.0234579563657730 -0.0237361354431380 -0.0022988048217131 -0.0901652584196211 -0.0724909678539480 0.0793293238296732 -0.1037409451744737 0.1099629529330193 0.0228896379065829 0.0794929104591953 -0.0443678732148744 -0.0125536440225967 -0.0172736083151692 -0.0717704748215983 -0.0468142658992677 -0.0691239586220507 -0.0351151088116868 -0.0420592293686790 0.1595156070723393 -0.0558094424917507 -0.0220990467719882 -0.1153568472780118 -0.1159731759032657 -0.0363027109606285 -0.0286713560598606 -0.0119471027910952 0.0168015169818101 -0.1150348366737863 0.0831662619153499 0.1666865546982995 0.0143644243173872 -0.0336429034593880 0.0233804259859892 -0.1307047992241006 -0.1146150016291082 0.0384845390537156 -0.0023406393442980 0.0053677712450152 -0.0401958244048860 -0.0225607500605044 0.0390127543909598 0.0905859780348128 -0.0851755468774383 0.0822010480861134 -0.0641138448061543 0.0532337932205056 0.0304642414150610 0.0185792684875385 -0.0882827662589714 -0.0409259976008051 0.0162629112870871 -0.0136818753602307 0.0140769875830962 0.1712923613704292 -0.0777567321933397 -0.0279152224908177 0.1074619523352652 0.0627996406335815 0.0973011775837626 0.0226692148238200 -0.0512611444026110 0.0365784793374227 -0.0263763350605489 -0.0813967174004617 -0.1279034516732540 0.0006630618783913 0.0396572400523282 0.0847021434255428 0.1044362589513802 -0.0210195970109880 -0.0718956581809314 -0.0589750048117118 0.0601453740898287 -0.0921841766283432 0.0843906418556234 -0.0573046838570788 0.0003916829844056 -0.0056577020644939 -0.0214469273487243 0.1838123910810568 0.0255760795674543 -0.0475747145551972 -0.0563222256486803 -0.0151549083222747 -0.0502905398140595 -0.1205064965544680 -0.0319979454451836 -0.0666265613335024 -0.0743973416894992 0.1087606646650487 0.0270691996267367 0.0385979647213988 -0.0573377259955787 0.0166609060241637 0.1104118785571652 -0.0572445930148869 -0.0374688618333348 0.0546438727817057 -0.1013073542113014 -0.0452589440426631 -0.0776961416449013 0.1881017399344045 0.0859041704735476 0.0161991947392209 -0.0261059338249905 -0.0273713399025981 -0.0096401989951310 0.0352029116090918 -0.0029205531607233 -0.0287413706576939 -0.0208867034468382 0.0417339762893917 -0.0570611010078960 -0.0852070164952074 -0.0416690243502576 0.0044117795390403 -0.1445655967611262 -0.0421925074806655 0.0267610032208527 -0.0000426312506476 0.0673758047890435 0.0719099327279235 -0.0184465251856697 0.0649391942412842 -0.0498510462881946 0.1035815633487675 0.0523506779938896 -0.0498335115202673 -0.1182816517494622 0.0621023340863215 -0.0132324736388423 0.0122857545655411 -0.0043497894188090 0.0035817425041856 -0.0987604958834585 -0.0231459026444526 0.1109439459930404 0.0609677941863174 -0.0142992688433046 0.0963836937650106 0.0102012354601842 0.0093005975909697 0.0265450993881649 -0.0050428380268310 0.0250723516322596 -0.1478013155431373 0.0508958228092067 -0.0491582754686542 0.0410090431741420 -0.0316519376989900 -0.0847765319142753 -0.0712864748503363 0.0852272304364340 0.0332342530556676 -0.0854440455746827 0.0067510866666729 -0.1161219696171174 -0.0018907009702053 0.0592163062621182 0.0894032543146542 -0.0231643381441548 -0.0339786887120415 0.0976530950481606 -0.0279444453703344 -0.0039750272724902 -0.1809799435448330 0.0595321334569804 0.0525980364759859 0.0463142268363610 -0.0678309263343150 0.1023758793380753 0.0235799450169829 0.0538573317169184 -0.1073239535865078 0.0558031880287444 -0.0443836102418108 -0.0114674517534721 0.0299585468386424 -0.0704516018063984 0.0378983904227939 -0.0599784129297521 0.0249554448045846 -0.0575136346743852 0.0263315897279896 0.0061093932720742 -0.0418424376550514 -0.0085906586844913 -0.0718747652956879 -0.0194882947758708 0.0098007112102617 0.0258981506614378 -0.0024003562590903 -0.0346577992412325 -0.0438513195017691 -0.0444576348032877 0.0485776404528890 0.0364404850570841 0.0357633455343131 0.0505720324670660 -0.0151391970502425 -0.0484102610570912 0.0893678076041256 0.0443925743379492 -0.0141381401416810 0.0370967812119422 0.0065162090108515 -0.1041335405409944 -0.0122220791449094 -0.0314673620944438 0.0404911100926026 0.1395271221996824 -0.0760887309728056 -0.0239718158668492 -0.0113847876942604 -0.0435026935343036 0.1292041381529887 0.0735806782514292 0.0630743052974398 -0.0301173892134817 0.0627536038255027 -0.0541630807363124 -0.1302258822407574 -0.0463423604522769 -0.0453049221450710 0.0480120974215065 0.0401075131295338 0.0842636515306136 0.1147009866549378 -0.0115701378518059 -0.1241903510195262 -0.0617828211587730 -0.0236269890715208 -0.0266946962045899 0.1761313413144558 -0.0140402621628290 -0.0436094862514194 0.0002482748038284 -0.0201143074948184 0.0056576343915926 0.0101755015101389 0.0829341979798696 0.0028565042481950 -0.1067613585757136 0.1052787880303269 -0.0073001604051171 -0.0787014054964967 0.0293292200833576 0.0041749079134768 -0.0719821192823266 0.0706298178664538 0.0180151000665309 -0.0456625357413775 0.1561516417980431 0.0123791301010215 -0.0238170703900262 -0.0153532341681493 -0.0665643929300207 0.2011230139021007 0.0175016085661038 0.0029452907172899 -0.0694057835839264 -0.0129953603369873 0.0704031832706018 -0.0276399869818654 0.0041642294861860 0.0402068104795646 -0.0449978491164996 -0.1049445260003107 0.0132697147053183 -0.0542006055638720 -0.1711222675287871 -0.1421162641331035 -0.2412088439957701 -0.2223358673013924 -0.2288067920783647 -0.1459213233448360 -0.2050315265814017 -0.2133559636661133 -0.1610482386756560 -0.0938787993003587 0.1077175819658139 -0.0436298858133045 0.1189851510590528 0.1579296712155805 0.2462218692478875 -0.1788286502484065 0.1727968733585685 -0.1182384582878470 0.0004728118415776 -0.1183115999834849 -0.0447728558770494 0.2406427331422173 0.0028488121628079 -0.1275752973367177 -0.0820827749252164 0.1614735897987040 -0.0804837337260921 0.0190481186264578 -0.2529674441003009 -0.0352382128430007 -0.1095825620196283 -0.0996043961733114 0.0551622951382884 0.0120464804531268 -0.3088618804044190 0.0922832740076098 -0.3620430734356565 -0.1120604993021652 -0.0164908815751448 0.1706079621753702 0.3460506591260694 -0.0688980502884906 0.2903301665190003 -0.0517449362329584 -0.0387808684296124 -0.0456721360228452 -0.1045755329811385 0.0852189869357424 0.2282299065605067 -0.0254058811137599 0.1764713502061442 -0.0001251612009567 0.2141658823112567 0.0923967373693264 0.1230909657866460 0.1028938172956144 -0.0725706567968440 0.0169833315300627 0.2364548670888893 0.0473509230869376 -0.2812192656675209 0.0461727456054446 -0.2346978396233886 0.0402537139003277 0.0912008827216582 -0.0737038166067619 -0.1009838775342400 0.0038131676189707 -0.0323557511712429 0.1555972717993774 0.1682112870445459 -0.0347503138435721 -0.0031097788910190 -0.1615858541973020 0.0948440529129177 -0.3436551156205699 0.0191162032786062 -0.0520217673177141 -0.1231697227214689 -0.1138972728911941 -0.0381695692799440 -0.1230206688542404 -0.0123550873890292 -0.0778055859363467 0.1021263075029272 0.0968772608460376 -0.0963570245001950 -0.0119386803531061 -0.1658451094531662 -0.0335362560524554 -0.0687319218843835 0.1229798122888041 -0.0118900566049242 0.0692707467372966 0.2607526787455701 -0.2075779828333455 -0.2208885480573487 -0.0019454557691036 0.1603645781174755 -0.0208253158394538 0.1328438580016329 0.2785899171447169 0.1161849547905362 -0.0805318983223044 -0.0593059052899354 -0.0303906293097554 -0.0888540414548296 -0.2651266036614181 -0.0080396110241716 -0.0169429788602440 0.0912315595261938 -0.0938010302572284 0.0608019866952507 -0.0290350394563514 -0.0667190403642246 -0.0233741627426063 0.0102046549272332 -0.0812190718745605 0.1350619995691269 0.2234350312619475 -0.0018116890366324 0.3153194703279200 -0.2565716629414341 -0.1832843440131063 -0.1292936048151485 0.0893520181271326 0.1244994051341235 -0.1178137373344392 0.0558060282592984 0.0577925771394316 0.0090359117256321 -0.0072910634487930 -0.0016964658515433 0.1063173624255215 0.3147829572363076 0.0854469750896967 -0.1772057537774563 -0.0547677104979302 -0.1256796823244337 0.0102168940818693 -0.1035106476769706 -0.2143719054044353 0.0599494165713029 -0.1688212968197424 -0.2069536981471892 0.1335469061325265 0.0935967063919755 0.0055422092944730 0.2340271622658804 -0.1903723812558923 0.0919278055497736 -0.1449416044629835 -0.0065076674243695 -0.0125016335056384 0.0241498860558544 -0.1839143370287058 -0.2361581810084040 0.1274350191776821 -0.3751993872473516 0.4052529734347784 -0.3595385387681595 -0.1890875993207161 -0.0755964943006318 0.0345611240507540 -0.0558771243402339 0.0710555811348249 -0.1187591950798652 0.1187418322384806 0.0417014544274642 0.0253606820332258 0.3223897614811441 0.0114471185450940 -0.1047407361380714 -0.2666473172478355 0.0397367401228272 0.2818746781072838 0.1053243195111191 -0.1514755386711432 -0.3005275257904744 0.1146336290314301 0.0437584567573624 -0.2828124842953759 -0.0823687044374967 -0.0498383312575368 -0.0717280702145192 0.0096973202475023 -0.0713870339718855 -0.0690793001275255 0.1311792869027024 -0.2610041457308505 -0.0110849123747599 0.0824889927983579 -0.0031380242015812 0.3007395664631698 0.1820252046052128 -0.0771297079822628 0.0947293602166135 0.0113318799093205 0.0184766925630443 -0.0030909469446135 0.0359163804955498 0.0082148754743757 0.0955249759996098 0.0005660330935542 0.0945340218087635 -0.1418076629797614 0.0447251950309716 0.0908432689353177 -0.2183595150303968 -0.0676299194725686 0.0381926722017601 0.0027232606626284 0.0874683374226300 -0.2596384567087815 -0.0733910763032497 0.1744827004059154 0.0006202268090226 0.1387896208424940 0.0797327793337362 0.1703088151193489 -0.0892127313758140 0.1382092521181037 -0.0298133866292491 0.2135173144243536 0.0672561443541441 0.0208172514059075 -0.0368447254412988 -0.0326833796069957 -0.0619556101819478 0.0910347587231820 0.1600069019190163 0.0538536887168473 -0.0317397094580884 0.1264207922731255 0.2100411064263280 -0.2652561861261676 -0.0048916478703696 0.0121668628587130 0.0007935358593507 0.1027695320653956 -0.2126910717520845 -0.0733614509329552 0.2452003098766392 0.0178097795439822 -0.1164431088934362 -0.1688558276736129 0.1072280322958909 0.0052675366914608 0.0591352690959292 -0.0302397953670083 0.1037057417458030 0.1437863468819325 -0.0848965425666371 0.0938722757691381 -0.0335754606151611 0.0692807757642008 -0.0591625973751594 0.0987892170953850 -0.0273934661622086 0.0376790796724802 -0.0574069141292478 0.0794969812998005 0.0137232545202306 0.2631354487718206 0.1130091888314870 -0.0717181213849374 0.0663841649288464 0.0519398561264214 0.0337917872837230 -0.0115139519073861 -0.1897810587796749 0.0405619350101057 0.1479652330077410 0.0502449108128811 -0.0727589081608621 -0.0066593953683282 -0.1031962899722560 -0.1740299515495446 0.1112872363334924 0.0083043300009513 0.1224176286564664 0.1142971771844488 -0.0978825539408538 -0.0402800343348811 -0.2162817939285192 0.0207329937686825 0.0296636672740501 -0.0793085058294695 0.0774815210191793 0.2282919592384265 0.0194829198788217 -0.1376238213308870 -0.1141017931970007 0.0679647695455900 -0.0099035176668308 -0.0372090693709394 -0.0495348693555864 0.1468815794118533 0.0108492800217519 0.1021875829944417 0.0285556947742021 0.1942677609730810 0.1920823877845027 0.1900546436853144 -0.1831779056029356 0.0956549459871585 0.0398765186401043 -0.0388491596428736 -0.2506704195586691 0.0896472928497832 0.0231625042556729 0.1591953395355374 0.1668809740636058 0.1962038530132042 -0.0546323331701100 -0.0146854937582144 0.1410230408936930 -0.2626172289816804 -0.2053182147592171 0.2191802633372482 0.1422602085673980 -0.0150673783415342 0.1941229740118046 0.0188087707009730 -0.4890268554721919 -0.1122463265494237 -0.0912778317538573 0.0125498992693885 0.0693896677176384 0.2420564893305154 -0.0384216088313261 -0.0858737562409070 0.1530390853315247 -0.1114511829508769 -0.0810933051697576 -0.0027687035027050 0.0204105757385727 0.0250041802502428 -0.0747717032888484 0.0531216303207039 -0.0756881740324847 -0.0513531270488687 0.0814629677237034 0.0469385833973112 -0.0201915576760774 0.0902575602637946 -0.2586377718823113 -0.2865181352665109 0.0025149804059511 0.2455124408669583 -0.1108896002151389 0.2149734575176111 0.0405695113718789 -0.2269453453679997 0.0692969585761973 0.3871218471379990 0.2219573277996004 0.1248770228519209 0.1815100052051886 0.3239210635872982 -0.0879003402410398 -0.1663343401935053 -0.4316588662543038 -0.2300093689964067 0.1179754202349977 -0.1959850883475908 -0.2107161752064845 -0.0932395201180614 0.2723014419374340 -0.0041195511449316 -0.0598579551609351 0.1085129032511662 0.0301400458679261 0.0811840402376836 -0.1497029013232895 -0.2524514177076395 0.0458787718836435 -0.2330183778338335 0.1133431776547923 0.0463945793774568 0.0572353306466387 0.1957939987397353 0.1484193093990725 0.2327073452437846 0.2936269775561414 0.1469186150689068 -0.1270634084168282 0.0564651080662181 -0.0615663402113892 0.1740039761433425 0.0047877277302564 -0.0986346068777150 0.0726987537952340 -0.0555671802526114 0.1023361326003736 0.0308239883940988 -0.1319240946044032 0.1388506494053115 -0.0015416454416716 0.0751857117902289 -0.1431945375408513 0.2444366534894177 -0.0523661551060735 0.0077548289544318 0.2199276012087997 0.0374221884264001 -0.0173423842085990 0.1984075301138503 -0.0442910830279330 0.2306177881671712 -0.0536234904564842 -0.1534215071981683 0.0819097080330673 0.0727672927590616 -0.0765893874851735 0.0148414007445957 -0.0121475381282900 0.1312053143209185 -0.0118245022089017 -0.0678777469423261 -0.1229876880435659 0.1150793533974973 0.0279918067709777 0.1497381020175999 0.0452050291146649 0.2216777625996768 0.0790227899874522 -0.2467756363930512 0.0129689973657217 -0.0879054503146030 0.0605928013549077 0.1652412990033183 0.1404609678816855 0.2664964499097663 0.0050559582470735 -0.2248783273233688 -0.2212639913099179 -0.0917370489683165 0.0659858608828792 -0.1396458030639453 0.1090830625623441 0.1217697615099907 0.0228040949453646 0.0367988245134670 0.0021418454265947 0.1836838877949073 0.0192286850081626 0.2617842157178421 -0.0494685321340478 -0.1630871379668583 0.1688450301206882 0.0560476165208317 0.1446795240396220 -0.0553775241584432 -0.2857628398312556 0.2259757502605408 -0.0083735574526634 -0.0693837923792694 -0.1773305418042379 0.0467004643097715 0.1434094059267293 0.0514203147703044 -0.0227661285644852 0.0798017319238479 0.0220136460332769 -0.3158772752772706 -0.1205407326686161 0.0257553721207507 0.0849904893219305 0.1347763171312084 0.0391479675070776 -0.0993328492311090 0.1381586391430566 -0.1803611650525314 0.1088285104018580 -0.2506723992623877 0.0937149039036700 -0.0994248382900899 -0.0636618133081339 -0.1109205376423710 0.1275503883067460 0.0053583948557764 0.0267825954032314 -0.1494359871626869 0.1992777493180160 -0.0388256929300012 0.2533850267592310 -0.0639696151567960 0.0943678948438505 0.2602083946152220 -0.3038588272872814 -0.0589381572734865 -0.1484072978170467 0.0912982075898008 0.0158293440729191 -0.0433914147796344 0.1944466981288015 -0.2729972910329054 0.3144575221718501 0.1094053458040387 -0.0138586461682840 0.1190290350047946 0.1149303659882396 0.0199249738252108 0.1030609910851619 -0.0272857869208281 0.1444501027979748 0.2310755477444681 0.1306970138640289 0.1958159523827798 0.1074275412530292 0.2746986527199310 -0.1286643317123290 0.1941501681484818 -0.1118108932293169 0.1119979304776256 0.1010514712445220 0.1738914530748346 0.1750240267364694 -0.0904467363574671 -0.0985021489500129 0.0615854806062945 0.0543570687623254 0.1904971274321463 -0.1486493534582498 0.1515799356131083 0.0491810858421621 -0.2068722882278757 -0.0892924580784697 -0.0425054894853217 -0.0047806031595107 -0.0271456100517901 -0.0841955481561370 0.0439697130721753 -0.0386282406015493 -0.0474977999624233 -0.0261647990952363 0.1174840769929785 0.2634891891570891 0.0881762776144450 0.0690473229495841 0.0268968824056964 -0.0324461925292030 0.1715671681177318 -0.0986809538588467 -0.0280883660746859 0.0099158393821311 0.0139612425001705 0.0827669408854121 -0.1545143037356339 0.1529535620912119 -0.1455911593360631 -0.1243379322601522 -0.0791198807828220 -0.2431591544109581 0.1023933194030642 -0.0353482166082936 -0.1036407606268332 0.1010013694487629 -0.0265161753189941 -0.0691348861846969 -0.1406286232009523 -0.0929386005555344 -0.0555705097426157 -0.1382010889444111 0.0172638946807251 -0.1068444309270235 0.1882125366515425 -0.0915181858718497 -0.1797944425598436 -0.1667636448473879 0.0884256243647091 0.0495640099386775 0.0703573232842263 -0.1415392453667262 -0.0932285363553922 -0.1161417001357514 0.0766994141913325 -0.0124423680710788 -0.2432537430711839 0.0731297494774112 0.1424451988958067 0.0178700655419549 -0.2076840965820098 -0.0478992365519469 -0.0273892786617775 0.1168133189217334 0.1238675300183764 -0.0918756340521798 0.0677091396844285 0.0381287570966810 -0.0137025318043741 0.1785037343365042 -0.0101255851449630 0.0188168620204581 0.0840686369785753 -0.0588127741017285 -0.3658747461816365 0.0921506592373980 0.0167031379293924 0.0672982492417281 -0.0951160456852604 -0.1489736839070000 0.0122087438785261 -0.1171003465910994 0.1737432477717512 0.1576734288336348 -0.0785796871591134 -0.1066122226075183 0.1620891541993287 0.0265514299230388 0.0555880914579359 -0.1169405848642991 0.0961230668207761 0.1326969356493740 -0.0712438336871644 0.0735119842911108 -0.0542184377021178 -0.0120754266752676 -0.0234872179879790 -0.0318382468495521 -0.1432188918356361 -0.0823893971954894 -0.0390849518305568 0.0488627283723085 -0.1602694378394151 0.1231573540033964 -0.0908008393694101 0.0210169854587693 -0.0186108237236884 -0.0177906079110954 -0.0115878974133602 -0.1066651947794596 0.0732059056366655 0.0319260945682920 0.1014578479088263 0.0019944431953496 -0.0507530919253910 0.1626680401829367 0.1687590638888478 -0.1026753783882765 0.1081483416678120 -0.0734903100753421 -0.0453349886221010 -0.0833485277445130 0.0450768447708007 -0.1025392005304889 -0.0041877170292524 -0.0438734515542904 0.0968673476621944 0.0619074568433627 0.0713514992750202 0.0279246087755782 0.1595422109280248 -0.0094270611869631 -0.0613539038109605 0.0085742616893369 0.1041923824883031 0.2235927544356842 -0.0715976429746900 0.0109705176555192 -0.1160815173416575 -0.1246845749803932 -0.0289838058807101 -0.0302941678653589 -0.0949134731015941 0.0805622627059361 -0.0111307097462232 -0.1495959967340576 0.1676110648324450 -0.1432171350062018 -0.0972637373505717 0.0050574355131690 0.0381983536176466 0.0211667665460747 -0.1133689672875842 -0.0208823303357413 0.0292265700045643 0.0201824908525882 0.0322403693482151 0.0840870179562171 -0.0364864296850425 0.1202446708772995 0.1005889074125003 -0.0645045651776193 -0.0098166618858695 -0.0615156112145181 -0.1562280551954841 -0.0525574653324768 0.0359452329004608 -0.0280452065008875 0.0336563996582818 -0.1257944455590883 -0.0062690445472297 0.0334387573952258 -0.0249247832832935 -0.1374673949300551 0.0675740853298216 0.0012739667840209 0.0633808662737614 0.1095840474849497 0.0061401276859674 -0.0777099783914386 0.0611353451533170 0.0704617858388755 -0.1633498985509734 -0.0946279250857956 0.0398598116683214 0.0307008195607505 -0.1814485152432440 0.0467595268690526 -0.0636486710310628 -0.0205690802826804 -0.0596006334923957 0.0324987046539430 -0.0071689942332726 -0.0215420005837049 0.1468963291307946 -0.0173442207752970 0.1999097040339422 0.0251125917206863 0.0966106031155018 0.0640022230598177 -0.0125312218208156 -0.1102368999149050 0.0118407622209449 0.0137339873217033 0.0471382618248373 0.1350406795184852 -0.0771399775230885 -0.0479365636431237 0.0761942275480814 0.0017813337123746 0.0081163078704856 0.1537188427530881 -0.0408424065083866 0.1885324716155730 -0.0411916943701629 -0.0103554620134412 -0.1198832605105426 0.0605690196620364 0.0023056662295037 0.1421347623915784 0.1692626503023940 -0.0719082936900200 -0.0056944098073869 -0.0402692637361658 -0.0897013463153024 -0.1336026580102571 0.0147841357159164 0.0016276630847042 -0.1178098498626492 0.0220381980859900 0.0210164025519926 -0.0259275316867129 0.1240507755524315 -0.1233268956768447 -0.1481911332035583 0.1004070086486887 -0.0552346258573366 -0.0680515946935313 0.0154608701099220 0.1056852384162369 0.0714153403269127 0.0345874213871333 -0.0233095885945942 -0.0936797132921743 -0.0145072507662979 0.0392417244069481 -0.0780136649986835 -0.0915877765234010 -0.1077731163944727 -0.0613126798825917 0.1557783692531652 0.1073301056034774 -0.0731882008979774 0.1635302947508052 -0.0000900534859105 -0.0297088199665159 -0.0509613515570357 0.1221683240973026 0.0800388511030400 -0.0895972635178302 0.1595495995172738 0.0947944554546819 -0.0986876104199208 -0.0463791769470208 0.0497437337517686 -0.0727910526315407 0.1401294164413998 -0.0823192493697580 -0.1830540901374864 -0.0926044098525296 0.0308724293009919 -0.1407080989360756 -0.3266799853222889 0.0845366791780120 -0.0396419327985242 0.3624864217689725 0.1512308056809565 0.0770857779930414 0.1219655280071426 0.0100803223267827 -0.1603611110428482 -0.0957132015139174 0.1656174747237792 0.0691444132864368 -0.1230852002056155 0.1020792287190537 -0.0299886448742448 -0.1396418515524685 -0.1944711298219118 0.1222620445196076 -0.0031665655478623 0.0496454602626118 0.0025241164353642 -0.0658694900094105 -0.0892012517858155 0.2140200995264287 0.0542789392825688 -0.0484718473045891 0.0869657642961308 -0.0083159581638771 0.1456894872241778 -0.0269523015737889 -0.1438953464777914 0.0092458092014669 0.1482884774014117 -0.0871421225732192 -0.0748413208700425 -0.1444964182590754 0.0024738449307519 0.1009430494596042 0.0681648597360996 -0.0959948476261006 0.0457999552454484 0.0406900893848426 0.0695284229875292 -0.0078242023093033 0.0798724686377377 -0.1251465031424871 0.0023942158456028 -0.0986149204886868 -0.1418883107381977 -0.0150670353152025 -0.0908538529840948 0.0616890950914617 0.0575213567638612 -0.0969124673211107 -0.0211733110475472 0.0121822093741921 0.0699606794721715 0.0956815100500806 0.0443185354235742 0.0683980850386669 0.1437075868104556 -0.0589635900067700 -0.0551536888161724 -0.0159253514392471 0.0110213441214557 0.0892962303409972 -0.1084487668864091 0.0865757375621422 0.0730077339745611 -0.0338471498788737 0.0298604487316228 -0.1166760419551922 0.0566103110370227 -0.0979469124158024 -0.0118573881169880 -0.0962516157800551 -0.1432152212562968 -0.0372863127545325 0.0970572903564347 -0.0212483362425866 -0.0100627784843157 0.0022079737013642 0.0723994323139575 -0.1075189908160917 0.0826822282369196 0.0258311609911119 0.0351145599089226 0.0038291561565442 -0.1419165922878131 0.0582334306951306 -0.0349254602711821 0.0178036676417149 -0.0069640791413268 0.1207808097318800 -0.0298922493743063 0.0464257969658244 -0.1390010964768679 0.0949901801947802 -0.0140266862884649 0.0924443976294674 -0.0322111678113008 0.0686367740087959 0.0498007307099806 -0.0331844551223693 0.0336578878668682 -0.1433078718928348 0.0339378930129730 -0.3856501011322144 0.2649617628081953 0.0005491446239726 -0.1785562337750092 0.0034715849173687 -0.3841156402882757 -0.0700893083891781 0.3573408744558562 -0.1463594614953561 0.1562972906727721 -0.4648029609254812 0.1083465768204268 -0.3094993985049796 -0.0147992162410994 0.1208409981781961 -0.3544618346060016 -0.4437876542410060 -0.1667458715446721 0.0307215352921279 -0.2506548964073382 0.3307187820722647 -0.1116566262184097 0.1080346421535371 -0.1247754460351426 0.1982465405974903 0.4095629167195232 -0.0367869638691318 0.0672622028405051 0.0159552418536505 0.1426132207505074 -0.1062736986512621 -0.3145736603617453 0.0648485443544557 0.2442008132035025 -0.0677467960049973 0.1123158491607630 0.0750571818070575 -0.2140307200453021 0.0781949988869817 0.0102559857469781 0.0512306440311572 0.0473687326078149 0.2457962042671331 0.2082441008645591 -0.0551828901597152 0.2223459280254866 0.0356785362302974 0.1075906336111053 -0.0515339181561006 -0.1858004562992704 0.0473308480879264 0.0106807503910587 -0.0923353254342036 -0.0248330224389629 0.2141384747639888 -0.0773550394345676 0.2064729948082801 0.0637449818906571 0.1153577241224695 0.1713932130315274 -0.1706947653679428 -0.3452312120211294 -0.4805635145973007 -0.1218869531459280 0.0818003244008857 -0.0762473978346992 -0.1742423871113913 0.1658362250801024 0.0476364530097158 0.2059730020772930 -0.1137104328996757 0.1796907764341227 0.0398682795278272 0.1847306200985280 -0.2410843023180874 0.0002325369487553 -0.1690887038925315 -0.1597174406962718 0.0430707395586324 0.1270156757690450 0.2093958113324720 0.0161275030087885 0.0366413433940352 -0.4832154016963161 -0.4061868467663798 -0.1002904555998929 0.0421086350892718 0.3122010518726321 0.0542790903121647 0.2090697806572245 0.0330558570340405 0.1688284376190449 -0.1053056369953620 -0.0189425878204924 0.3469982271301396 -0.1379728315941837 -0.1081051748660413 -0.1251532038849912 -0.0228271014263679 0.0073455378896107 0.0874634040742877 0.1913560246037650 0.0959040365353286 0.3289266202870252 -0.0229713428513602 0.2031612645137650 0.1931578959947704 -0.0222006300190274 0.2279015526704360 0.1561575914031994 0.3178791510302292 0.0439354986457514 -0.1114983805081760 -0.0458692487784460 0.1721957748376416 -0.1539058432946489 -0.1130949126661602 -0.0947948757237447 -0.0188698718993665 0.2589901141920863 0.0553282560472320 0.0609085885619338 -0.4276237004777677 0.1430745242732450 0.1367506576694437 -0.3004992230738419 0.2252649869881832 -0.3108881175538697 0.0652410332839486 0.1400734319201408 -0.0148413732562425 0.1052486006723805 -0.1441126560795414 -0.2982726358957158 0.1512772081534751 0.1058454380173341 0.0711860051593521 -0.2926691193802742 0.2109176668352930 -0.3028997360267630 0.2611929555046318 0.0999068118551586 -0.2195369499009448 -0.1001352666598056 0.0029543743607023 0.0446291047942997 0.0766882588521772 -0.0079522995474619 -0.1326515646341364 -0.1948889794259114 -0.0750469021455030 -0.0822346954937087 -0.4098421142251646 0.4279175172220764 -0.2155239522746122 -0.3351832174095339 0.2578884939444114 -0.1601387095715831 -0.1832821882011404 -0.0959377034361679 0.0761708177313625 -0.0181203031053132 0.4749329945757537 -0.1187938852945754 -0.0031037939614589 -0.0529263702941150 0.0674644009506929 0.1815571191844270 -0.2024362386142437 -0.0114745660152827 -0.1353165140787068 0.0344374108662942 0.2519583652312597 -0.3668386865769868 -0.0323800628334735 -0.1490452411591301 0.2459440672065317 0.0025958109091256 0.1987760005563250 -0.0652200606827782 0.3479601060593310 -0.4144216375208972 0.1244948996760458 -0.0566653871943380 -0.0803057102095014 0.0645054369386532 0.2641490688412141 -0.1707484990550687 -0.2141595986604056 0.0504165958575495 0.0331750022694419 -0.1136081884332501 0.0248929553471466 -0.0349902831065950 0.1118833657469361 -0.3076083675630013 0.0422119441007917 0.3591741829371013 -0.0178047543256662 0.3783838898303687 0.0398926066802152 0.0654529588373520 -0.0453561909756723 0.2067857182174407 0.4812554739800143 -0.0278895478259194 -0.0203866321064396 0.3413856847186666 -0.1215503433241648 -0.2301512972173334 0.0762705885248941 -0.0397319465746017 -0.1590957370994016 0.0272070038726216 -0.0909293116331847 -0.0884852806162141 0.0580454591105713 -0.3947012043283366 0.0902636521909604 0.3737628141812721 -0.3642460473549250 0.5438274250529536 -0.2121094955419402 -0.1287083785742604 -0.3682335756863540 -0.2999245348398666 0.0556319174104225 0.1695736650970585 -0.2351826305894678 0.1815293864825627 0.0867225757548345 0.1472508382720347 -0.4245557602533003 -0.1853114099807670 -0.0369037595545929 0.1912965688679363 -0.0293571017525427 -0.2051833887026553 -0.2543420967832453 0.0189466545735135 -0.2303880488522776 0.0879334066932566 0.0051775425904058 -0.3490833543785134 -0.1445593782054836 -0.0952728782825631 0.0720328508898463 -0.0715720607287761 -0.0866454243916505 0.1028118678014469 -0.0974205018930075 -0.0983917671655815 -0.1759203632986790 0.2003121875658854 0.0792197120699126 -0.0359838251789667 0.0992778771034723 -0.0120543704103841 -0.0604441777659518 -0.2103445738127714 0.0023549482644337 0.1604474848661003 0.0145894585955428 0.0460187790163191 -0.1571657119071397 0.0952547331341111 0.1397913524593975 0.1770597143243030 0.1755891003691785 0.0718039908182168 0.0565307733688007 -0.0735561770397299 0.2238807151134181 -0.1494508239008309 -0.5965332136341659 0.4967983535704389 -0.2808868233751479 -0.0903592633426986 -0.0023644076504752 0.1676782715475551 0.0240232792100523 -0.0207697282086333 -0.0898695624567975 -0.2599355658271586 -0.1259169755193349 0.0826390999323917 -0.1907868236564408 -0.0310733039710873 -0.0115707796223141 0.0112739962519230 -0.0895488584140398 0.0289177510178057 0.0191968424286877 0.0382207989218663 -0.0474915042718305 0.1252139739906139 0.2014997489206061 0.2259478174433063 -0.0628659419728865 0.0538501852838990 0.0169971491862566 0.0217916956237194 -0.0386233320532408 0.0814919296197170 -0.0618571250761360 -0.0421324936163809 0.0117787024172765 0.0605544994016978 -0.0405388960617858 -0.0178958775191374 0.0276048906242033 0.0577102995918155 0.0588060594856261 0.0568136645369098 0.0017288073284399 -0.0284193153615977 0.0680033076710732 0.0181189294900229 0.0225719095420480 0.0002057212005721 0.0183018993618241 -0.0087782076524819 0.0486080023578144 0.0158160278794580 -0.0459806207589633 -0.0043273757719118 0.0490765249711693 -0.0261125540373989 0.0250337612079591 0.0082007416086228 -0.0009963888772706 0.0324040515071215 -0.0157124601174165 -0.0160797554868172 -0.0346517799896885 0.0059793941802215 -0.0464140385721168 -0.0503412490060210 0.0134338435447625 -0.0205023701566017 0.0362151976255825 -0.0424865676182884 0.0353216187860582 0.0026696824403218 -0.0341193706304240 0.0100524413091328 -0.0315422826715339 0.0429480436274738 -0.0420219779716418 -0.0133479117231651 0.0316748597484730 0.0400222097605248 0.0505323586821308 -0.0236011683006563 0.0305385751023504 0.0808164964773887 0.0366964387993419 0.0580696082882571 -0.0105347761922404 -0.0061996644970791 -0.0336868252564903 -0.0050186479421972 0.0251327672670351 0.0082741589089063 0.0086986664971571 -0.0371609382042697 0.0352285836498279 -0.0184905906472082 -0.0072021193129326 -0.0078787299855130 -0.0184935461887820 -0.0060162058613535 0.0064878865979249 0.0245904078080842 0.0169077637176393 0.0335134634180696 -0.0096694718226225 -0.0367094391212599 0.0243071994346557 0.0132036321483200 0.0261906624580795 -0.0112982955532763 -0.0257636240446203 -0.0125110835527307 0.0060795571075614 0.0283901326434943 -0.0470805121096591 0.0188046230689817 -0.0020999841171228 0.0120684654157025 -0.0110456464617605 0.0013306405280868 0.0158259511644298 0.0471876734380539 0.0177816833383973 0.0057989146305550 -0.0138523084758252 0.0008468674867266 0.0261960448820012 0.0473741110977462 0.0496734676050595 0.0430735187971548 0.0013126089497577 -0.0542691117442363 -0.0048715837805898 0.0042567331683166 0.0177844346511673 0.0501815444300290 0.0039919162655109 0.0186662613868574 -0.0330117625250944 -0.0192170711607715 0.0085081579381524 -0.0078432671536808 0.0143204832542991 0.0227472088768742 -0.0542394648529659 0.0146875234698909 -0.0438197542801217 -0.0188347043754466 -0.0286782568789071 -0.0018835366213157 -0.0110699457228892 0.0261662283747548 -0.0277424861404066 0.0445094064243744 -0.0321091952755549 -0.0094079149008322 -0.0425330303819838 -0.0002455492374191 0.0473678976678225 -0.0241702474104366 -0.0437714252065520 -0.0738691151407150 0.0337571871492861 -0.0126685748378010 0.0554166531048864 0.0691169915399573 0.0031145473757458 0.0638954761447510 -0.0344497238077743 0.0237603084644795 0.0654887027973279 0.0530278094506077 -0.0078439695864685 -0.0451020580955193 -0.0051885336388328 0.0163541421755530 0.0068535864767397 0.0236372852710644 -0.0405501727624296 -0.0120162929241697 -0.0515059403431582 -0.0039715756995667 0.0158378971318281 -0.0026796996672756 0.0261921309623956 -0.0333971415684335 0.0301106075101912 0.0067807133230893 -0.0338672285385292 -0.0191917609833001 0.0409938061376205 0.0220937420315527 -0.0093119727669539 -0.0256500389459787 0.0283695117763074 -0.0070971411288687 0.0032217478505235 -0.0228398095427650 0.0278703125847191 0.0243217549029584 -0.0054336715315161 0.0219571915306130 -0.0002742728364865 -0.0480769679154057 -0.0104789839801491 0.0091005736138020 0.0238990518985441 -0.0587159869151886 0.0046623143017015 -0.0378208241884033 -0.0367970987361383 0.0111838177952155 -0.0469097641240281 0.0135027713972787 -0.0188649747852235 -0.0297511183620141 -0.0171513860191583 -0.0196545007861617 0.0068128337193379 0.0235881521150482 0.0023691475373977 -0.0119691535367182 0.0710732478665302 -0.0129814345082111 0.0391585805175369 0.0449916389056343 -0.0325294454607915 0.0050446305214280 -0.0099741243184513 -0.0767680143547756 0.0168638979391366 0.0112808469913646 -0.0160196792138321 -0.0102277228027380 0.0562336722608537 0.0100898608382275 -0.0524891231692310 0.0060409337005742 0.0156167537631260 -0.0105619954494894 0.0245690930158636 -0.0328279345106983 0.0275034006206955 -0.0292112868922104 0.0086155885155788 0.0293825543707514 0.0345840043604256 0.0133511062507774 0.0487369620155580 -0.0548707567753727 0.0139211337884611 0.0188130634659293 -0.0030970327677621 0.0092685249234230 -0.0311055907186558 -0.0163849121969609 0.0068679922505436 -0.0085411541590434 -0.0370513548707315 0.0284185560110539 -0.0132029487843246 0.0237986101568005 -0.0214464099308232 -0.0341871371604365 0.0200844057124907 0.0363567968335081 -0.0431615395765608 0.0438738780249509 -0.0164442969575504 0.0052289968482410 -0.0191131249150597 0.0248042092072903 0.0380616642996187 0.0528841845925654 0.0054666084861120 0.0081246197930418 0.0391308353630281 -0.0465304643868743 0.0214170978743384 -0.0299784213141908 0.0194633607320008 -0.0456268130517306 0.0283730748553017 0.0416406056922945 -0.0557966548700188 -0.0414802900423468 0.0372606526009063 0.0330534612762081 -0.0390395048655190 0.0027806551047120 0.0286478800571224 0.0080589722907439 -0.0227925483309915 -0.0256239607750134 0.0424590260291244 -0.0593647057632439 -0.0136245409655144 0.0251728344391133 0.0337629407468391 0.0013836988310690 -0.0398158182914952 0.0382142331451628 -0.0561321137466820 0.0478480740429930 0.0404841367394209 0.0163129797507235 0.0317561087923607 -0.0079355154098588 0.0095931314934130 0.0193639633267157 -0.0196815420215140 0.0043687846040354 -0.0327995331445846 -0.0183425316928787 -0.0023884147022811 0.0404414179365671 -0.0443969616807389 -0.0412056134806036 -0.0386349123070484 0.0309310737373040 0.0567323714533632 -0.0487769204061920 -0.0069834671462152 -0.0089003817927425 -0.0457930246291778 -0.0126672397721901 -0.0297954898449283 0.1055879069818620 -0.0966925749514711 0.0798263581466074 0.0304811194372908 0.2177204091063277 -0.0284710922940686 -0.3365171877086884 0.0657020239165153 0.1620722605333782 0.1393286450949011 -0.3211877379376288 0.1611035597802742 0.1622761928266580 0.1453369995111073 0.1962206750884111 0.2198934556874966 0.1258407659037299 -0.3791622062892770 -0.1531403975580958 -0.1572086129786201 -0.2725783705705681 -0.0532480582408973 -0.0484298363789095 