solver_type L2R_L2LOSS_SVC_DUAL
nr_class 2
label 1 -1
nr_feature 76800
bias -1.0000000000000000
w
0.0808381629130686 -0.0801280328596183 -0.0867424067523491 0.1084826684780611 0.2721499881698143 -0.0931834752175510 -0.0409779995743455 -0.3198067568953584 0.2006318518610808 -0.0512790334140364 -0.0093698955343724 0.2504379279229078 0.2481272543206408 0.0848524272447226 -0.1128975455877450 0.1324442925322306 0.0094901508712851 0.0024041882091533 0.0173172182449783 0.0209157189364684 -0.0286294663520936 -0.1143548885040033 -0.1190524988180998 -0.0091132657939601 -0.1003648534185013 0.1834249709735306 -0.0733641860373607 0.0998306449978256 -0.0842693557853866 -0.1598014847861136 0.0371121925069096 0.0854138233174137 0.0766455312449267 0.1418501913538666 -0.0603819520297519 0.0336206000861736 -0.0231624644092379 -0.1279212787234735 -0.0509494388069107 -0.0066024705068267 -0.1056970206657163 -0.0153534716612809 -0.0157532563305695 0.0795103380065260 -0.0010573542573073 -0.0448505498986559 -0.1817304212661191 -0.0029654685847212 0.0623988477822715 -0.0046808923580016 -0.1274596623201533 -0.0719567879787941 -0.0976563024973615 -0.0560647996537536 0.1095736855795531 0.0354482135907647 0.0534721882378985 -0.0030965587007647 -0.0849355957723810 0.1043208217270888 0.0163708270677828 -0.0820345092718791 -0.0239046352899468 -0.0070518708706998 0.0716960140249636 -0.0103410651996599 0.0510676464207773 0.0295206844730540 -0.0706867611239851 -0.0055162106917947 -0.1174548553175271 0.0304232392634318 0.0768314367749372 0.0382003281081102 0.0153696346946063 -0.0864228083572747 -0.0048399722902861 -0.1623092882489038 0.0177889044851551 0.0575523638201684 -0.0409139448993287 -0.0629943895623480 -0.0933923626865423 -0.1269570556601294 -0.0282037956999194 0.0945331707965345 -0.0248662010774084 -0.0477044531996282 -0.0169598894086625 -0.0074055087750037 -0.0293851023561028 0.0553048687225893 0.0671542341891311 -0.0339244526703609 0.0416353348871984 0.0103548540552559 -0.1002162104289049 -0.0106230078561155 0.0315677368476761 -0.0909644314255093 0.0640054042352999 0.0082561429067688 0.0593403822463233 0.0382710875967221 -0.0171949445477846 0.0978475946807488 0.1200120868105648 0.0239636202516417 0.0483509688213173 -0.0485517167045054 -0.2146709129873009 0.0164508896031581 0.0389028229962092 0.0013764554622931 -0.0415244031237658 -0.0743001761886360 -0.0198941200101808 -0.0877786779367541 -0.0570567790143468 0.0857170692767058 0.0741989834011934 0.0161919954807352 0.0283990001111932 -0.0187664260462195 -0.0165130475351015 0.0298712476130467 0.1068960797039235 -0.0162356692383577 0.0712375683653248 0.0209590396661889 -0.0576560252422872 -0.1263589102139510 0.1429499894747623 0.0555546585779281 -0.0122903329451330 0.0203087731271911 0.0835548964678935 -0.0329172502504861 0.0291120264402866 0.0837189969006950 0.0683133651478561 -0.0171500298230003 -0.0349709621865547 0.0437749412278540 0.0364088963496454 -0.0366595738505126 -0.0439409346503350 0.0225862210225816 -0.0047883810661101 -0.0050512519499419 -0.0015905427185464 0.0126744024860749 -0.0242704242365473 0.0104930474994179 0.0383119702198962 0.0842471752326331 -0.0059776819590331 -0.0086048501499592 -0.0655389074841263 -0.0989391101224153 0.0086494562344201 -0.1036523437668403 -0.0154474638853745 -0.0789272177845964 -0.1101274090276849 -0.0541618395618979 0.0474346027917247 0.1760657878298518 0.0322348503547380 -0.0271175235341948 0.0491384539694229 0.0437231855631248 0.1316672364413710 0.0408819653431548 -0.0221791530478767 0.0263613756025961 -0.0220401587420283 -0.1241618961104300 0.0520861496324719 -0.0214524818025849 0.0261015777886774 0.0179170012125726 0.0311181099536142 0.0684178290565986 0.1272352750529894 -0.0233276512432780 -0.0756089258376048 -0.1380895081157837 -0.0027197376296590 0.0725949970266413 0.0963533542855373 0.0516420439494601 0.0538106294732727 0.0250668074326867 0.0485140519421180 0.0157502906486277 0.0752690160008643 -0.0312828059423772 0.0973062060398959 -0.1163441803184067 0.1684862817622343 0.0163022325404715 0.0054805346699811 0.0236863775879300 0.1202885762976247 0.1241173620398487 0.0597637299630001 0.0463682992713724 0.0403447051739910 0.0825119432079396 0.0170087959234966 -0.0436841592607765 0.0167790092951176 -0.0681735564294095 0.0726551263588481 -0.0678796355863432 0.0427284992301476 -0.0022197292088019 0.0009220263239941 -0.0194350199781394 -0.0792311226369514 -0.0054836039057087 -0.0596314557208745 -0.0565967362845272 0.1380987276416161 -0.0353373863260787 -0.0061914881508309 -0.0049161798579964 -0.0160420631261655 -0.0017575068255310 0.0377570071576455 -0.0118388417892067 -0.0646582434580616 0.0255343062666625 -0.0070482633828019 -0.0262590415330547 0.0515948087528575 0.0023089757324539 0.0089447021909185 -0.0007825465068606 0.0440666767252560 -0.0749620051515937 -0.0346806303199760 -0.0917585842981449 -0.0182948759885870 0.0153260118861306 -0.0768360346527566 0.1152204466523405 0.0032319469155335 -0.0134633417769437 -0.0644966376522242 0.0250540593628590 0.0837887894846625 0.0567114494881917 0.0320172173234681 -0.1146065800308769 -0.0894310329173049 0.0032832170118822 0.0548207778753115 -0.0418940161908118 -0.0012561017669800 -0.0412765975163010 0.0140289953483715 0.0195195670922333 0.1147182806537478 0.0470055995632668 -0.0482625957774805 0.0475031368728470 -0.1142277603420086 -0.0138133679316826 0.0288819826551490 -0.1050348516441831 0.0495631622049735 0.0049253990085612 -0.0752790168540986 0.0754670082806299 0.0556701210514845 -0.0057864005020634 0.0000258488674056 0.0254291795691436 -0.0104411784076346 -0.0358981655390458 -0.0207896720291631 0.0250238644346803 0.0122432510835315 -0.0018446312304591 0.1128719333319456 0.0385027792745567 0.0184701415965268 -0.0248295467366453 0.0290541308690320 0.0837585462425165 -0.0631020360493247 -0.0491369424073167 -0.0337397122742801 0.0266982510033439 0.0872057033467042 0.0164716678779716 -0.0145366026532686 0.0405853415539475 -0.0005919689665586 0.0001791570851615 -0.0006201785227997 0.0000600246317696 0.0003683188576798 -0.0000349511723611 0.0006734759968736 0.0000298535311088 -0.0002380871944528 -0.0001685029431397 -0.0006598461177255 0.0001688898605332 0.0004192250397962 -0.0006652728632552 -0.0000611102246336 -0.0001302279852945 0.0012437717185832 -0.0003088724580045 -0.0002304433405077 0.0008133856625739 -0.0012205610177767 0.0007560869245643 0.0005542783930583 -0.0002096285494982 -0.0008946610621952 0.0011444170017705 -0.0003238269190348 0.0002043115507652 0.0001883398451096 0.0002661859165250 0.0000144563779226 0.0005226873711277 0.0003658451426867 -0.0006981728756862 -0.0000297086071539 0.0001707321574073 -0.0005115230575093 -0.0002191392122603 -0.0000614157296875 -0.0000512639638686 -0.0000036983667868 0.0010252165541718 0.0005179291020436 0.0003321640150453 0.0011168685667407 -0.0002274869167715 -0.0009594171746054 -0.0005166455569187 0.0004783335245010 -0.0009715862947005 -0.0004566643212509 -0.0002712689183506 0.0005280996994613 0.0003267981322232 -0.0006447466358967 -0.0002464417884674 0.0000654782785394 0.0005741427482332 0.0009978586267318 0.0000985616754125 -0.0011085786402072 0.0005303461733460 -0.0004742417487724 -0.0000444083532036 -0.0007412267192909 0.0005998861071998 -0.0010358694062752 0.0009264475295782 -0.0010911007752873 -0.0011562442578988 -0.0001261352701820 -0.0002204129486744 0.0008094680580271 0.0005589455991164 0.0004888123288270 0.0000763440764426 0.0003036183310840 0.0007674641422126 -0.0002101882560394 -0.0001313223306219 0.0006110614041339 0.0007696372798133 -0.0001342088836295 0.0001171567600706 -0.0007592698063686 0.0005879735260406 0.0010669602853508 0.0003192276182967 0.0004489897134861 0.0002265910102908 0.0004565816132021 0.0004917970519978 0.0002322878548650 -0.0004205665185347 0.0001570511100506 0.0009918978474829 -0.0001872651641650 -0.0005077325319211 0.0000773147500236 -0.0005290843383909 0.0004883564955906 0.0003445344463498 0.0005580196244199 0.0009212807649485 -0.0005908796643001 -0.0001743181873386 -0.0009914852038274 0.0004807404945937 -0.0005239031415521 0.0006843569513701 -0.0000852566379294 -0.0004544745236073 0.0001016774403707 0.0004237808589202 0.0005364752715288 -0.0002167080740081 -0.0004459508995904 0.0007232088079525 0.0001478277738205 -0.0000073936226475 0.0001877937670441 0.0002486494033750 0.0002923758800951 0.0010089920717590 0.0005398041771617 -0.0003622724899330 -0.0005022914936251 0.0003477438588238 0.0004112510620103 -0.0005584393096007 -0.0007187593229071 0.0007991424706656 -0.0004482974250860 0.0005452490741735 0.0005056524956692 0.0004656174377142 -0.0002059118231191 -0.0001781348069680 0.0005688036654588 0.0010229876523925 0.0001080403866708 -0.0012521422680337 0.0000515381543566 -0.0004505688744324 0.0005758769568727 -0.0004130273490905 0.0004161645782379 0.0004609510105409 -0.0006894257979505 0.0006772039338625 0.0001314677520415 -0.0005678189473567 -0.0005348226439651 -0.0003945148648711 -0.0000214341170443 -0.0000664324086068 0.0000075007587489 0.0007524784783002 -0.0001683651300391 0.0002476940865312 -0.0001930606199010 0.0005774128604785 -0.0004542113083480 -0.0002768339487252 -0.0002728673469420 -0.0000213881709157 0.0001657109691429 0.0005203834509457 -0.0004919986538981 -0.0009947304719041 -0.0004550742662800 -0.0001785309124592 0.0002377736433550 -0.0006614495507657 0.0001784528386909 0.0007542436014699 -0.0001913997917466 -0.0004417236990312 0.0000164286933663 -0.0005618914271190 -0.0003949951557420 -0.0003049331747823 0.0002076767024366 0.0002687870538073 0.0000296003194049 -0.0004456558024642 -0.0000581031773781 -0.0002527687649394 -0.0000016229540400 -0.0002838272182522 -0.0003874740110581 -0.0004512739701638 -0.0000487642742552 -0.0004733137474867 0.0001239798756014 0.0002995421860844 -0.0001377378480636 0.0008127028041333 0.0003478539677881 0.0001566491978698 0.0000647443058409 0.0005658825127051 0.0008904122417459 -0.0005326502648117 -0.0000293676133827 0.0008348718679154 -0.0000408063105669 0.0001834270049735 -0.0000489314334209 -0.0005478079180367 -0.0005563739111852 0.0004878342974914 -0.0002527386838396 0.0001121303205261 0.0000208110056964 -0.0000190104480057 0.0003465651821127 -0.0002001341490067 -0.0001703651996158 0.0004984128880357 0.0000854169671243 0.0000880591245705 -0.0000558429002160 -0.0007713918801094 -0.0008137017786863 0.0005026629820222 -0.0002277763453709 0.0001803885852409 0.0002275467035216 0.0003448530047514 -0.0006965899418687 -0.0004768887447346 -0.0004499920885682 -0.0000305999860692 -0.0004437006852863 0.0006727748758974 -0.0008786250871289 0.0005440443008273 -0.0004131461843595 0.0000681293157276 0.0012454081752227 -0.0000689816127187 -0.0001376081150038 -0.0004345408632106 -0.0001066750996020 0.0004494493632782 -0.0004834987318221 -0.0001408502458501 -0.0003350047219906 0.0001916080160961 0.0001030529052064 -0.0000985392130057 -0.0001631560482255 0.0003132223022717 -0.0012855460205945 0.0004121004043116 -0.0001021705472136 -0.0001800116461482 0.0000243749679864 0.0005258527802943 -0.0002540160049074 0.0002190501129858 -0.0011483408297607 -0.0004227823334883 -0.0004416927085229 0.0001277695068273 0.0005257902581510 0.0006980192541002 0.0003139735130033 0.0005500341505645 0.0001696025319518 -0.0000516743194257 -0.0000527188014016 -0.0000321430162042 -0.0000438417558446 -0.0001092620810964 -0.0004919149927590 0.0002387390036018 -0.0000006847358875 -0.0002121761717100 -0.0001505626874727 0.0006281513832104 0.0004495306396791 0.0000165611458178 0.0003145492124823 0.0001498501177882 0.0000511688103936 0.0004995764327522 0.0000055574109212 0.0003697450363743 0.0001011905740595 -0.0004978411085766 -0.0001678293106972 -0.0004148542119228 -0.0001145486259111 -0.0002902555493269 0.0002584509372381 0.0000573372684433 -0.0001821105632471 -0.0002300354184643 0.0001284710472485 -0.0023806973007524 -0.0013680183322568 -0.0046602576472093 0.0033216472854331 -0.0003990503101546 -0.0095747336089024 0.0003427305747987 -0.0003508806144701 -0.0015417070312875 0.0087411620304904 -0.0066795836423436 -0.0095891160758612 -0.0029235810288762 -0.0073957153597804 -0.0011866832089927 -0.0070449214411249 -0.0056617730776937 -0.0066051514376403 -0.0033587068011029 -0.0088874337464633 0.0001484657114921 0.0027930465543325 -0.0003671284411377 0.0027115927703109 -0.0022993976980239 -0.0038733844932722 0.0020123174588161 0.0025413959633330 0.0024048895859718 -0.0014277046183744 -0.0060414138312398 -0.0077573558647409 -0.0048265600679950 -0.0005567588183343 -0.0032449266966722 0.0084473059984812 -0.0058865424199825 0.0030841017096757 -0.0034950670870079 -0.0011474184572718 0.0049767686990522 -0.0055345226665995 -0.0072833226654610 -0.0052350781742163 0.0011087218807333 -0.0012350481161630 0.0007385114941875 0.0021755019385353 0.0045268712732806 0.0013197461065831 -0.0002677581654952 0.0004381534493608 0.0041849185066611 -0.0025105153223206 -0.0051781827361120 -0.0000728634476410 0.0069378738045482 -0.0035176612286740 -0.0059824929015796 -0.0005426949171656 0.0035948951151976 -0.0078918389736792 0.0058241535730453 -0.0065765127498954 0.0006039301999877 0.0041253813710320 -0.0014744172140259 0.0027980416175935 -0.0023150117266270 0.0051125255370173 0.0011783370710957 0.0022531288650922 0.0025751180351819 0.0037263237969068 0.0007688653100867 0.0018425268434624 0.0043109122976831 -0.0038816377573654 -0.0005464083047980 0.0035755958253888 0.0047328743310338 0.0026144661833289 -0.0040064547099378 -0.0030730895992225 -0.0051331502775911 -0.0090717499057460 -0.0013761967880402 0.0040666656424865 0.0097636818574190 -0.0003062912201967 -0.0017317409758875 0.0035180654599177 -0.0028740026640360 -0.0106171657503565 -0.0092142728457379 0.0031626643161783 0.0063235022065937 -0.0078357186844347 0.0042858746447612 0.0000103027277685 -0.0041620592499878 -0.0075688409105007 0.0034953386478948 0.0084379426050380 0.0097213009981223 0.0057521480307117 -0.0062212882613430 0.0001416650014448 -0.0014980284936683 -0.0025266365476096 0.0030216160510920 0.0036144780015641 -0.0017754096772097 0.0005836535852437 -0.0005141879300238 -0.0008867706185634 0.0037723758932186 -0.0001340702621773 -0.0019934111729181 0.0015823455346167 -0.0019372683187786 0.0000265303507798 -0.0031394251049400 0.0044512350361605 0.0012821051949556 -0.0007130819620710 0.0041172498997784 -0.0074414302161600 0.0010843871852922 0.0013378821035872 -0.0022695651214228 0.0067761837951033 0.0005177948836147 0.0037764453004115 0.0074228757674559 0.0019356483847249 0.0035772091518108 -0.0032955299369279 -0.0049337718842633 0.0027515637590962 -0.0038496896180072 0.0018369337566927 0.0030410287799932 -0.0063860827629204 -0.0005312410029271 -0.0066522932782369 0.0077062614435084 -0.0033110096360004 -0.0011513345267322 0.0048122949198272 -0.0071896297060394 0.0104712124356601 -0.0062499915420113 -0.0072113248194115 -0.0036069838213125 0.0025526084442062 -0.0056106397612688 0.0037099235868993 -0.0004367748594833 0.0026805875470427 -0.0000257765492109 0.0048834621484341 -0.0010587896988890 -0.0012073517742258 -0.0038882185314433 0.0053737426504071 -0.0053172049878474 0.0015054921565042 0.0097410632307076 -0.0003441214435499 0.0019109847977914 -0.0044753584647779 0.0002992082896979 0.0009147368440024 -0.0011585618093656 0.0010743545603872 -0.0014440129795364 -0.0005681687246997 0.0000000019956656 0.0043278232098922 0.0016646221049705 0.0052785197112210 -0.0005707790289959 0.0017371913148791 -0.0001278101542157 -0.0049435764133888 0.0062789278388827 -0.0009157300125987 0.0040424912019317 0.0010572959946413 -0.0038109530355654 -0.0048703702470498 0.0021948144067368 0.0003515052912859 0.0022196281205736 -0.0063964054729320 0.0024210667801442 -0.0012705162519617 0.0026287796641104 -0.0045237557185557 0.0025863433793977 -0.0059072194565261 -0.0034672148316734 0.0026131606663953 0.0026572195160507 0.0044377882911272 -0.0022758318924457 0.0032176340344716 -0.0043237871526521 0.0015022223822520 -0.0000421784814368 0.0027472061962116 -0.0033505485842582 -0.0052264705249547 0.0048589405288221 -0.0059617490167983 0.0014195712852672 -0.0030157717788559 -0.0027391579504408 -0.0027975595473489 -0.0018755910373958 0.0002987676479150 0.0010097763079870 0.0042399890060749 0.0012534549794651 -0.0028756237028046 0.0004925158823571 -0.0034035446102087 0.0074777356810530 -0.0007628280138587 0.0028514125077178 -0.0020759385343610 -0.0031396820076469 -0.0008215460791426 -0.0027925580404064 0.0016488318868225 0.0009704353868080 0.0009098924074834 -0.0010892384768125 0.0005633499785279 -0.0029404151143867 -0.0019215880246967 0.0001165672030051 -0.0000958903593377 -0.0020291113509295 -0.0016053191087417 0.0006218715419613 -0.0011631730259701 -0.0020309580447670 0.0007273530461305 -0.0016401191252537 -0.0003407155667564 0.0010209058469002 -0.0003922880772526 -0.0008540856036261 -0.0033086290620599 0.0002031040577773 0.0022445048608426 -0.0006402379611300 0.0021994730347028 -0.0021218638511067 0.0067635522178636 -0.0018045952015827 0.0026738758203664 -0.0004989949911828 0.0022892758913672 0.0011266949811556 -0.0001535452422548 0.0022124428249767 0.0014677831998275 0.0009012283467011 0.0013714349078941 -0.0001257726463987 0.0018898434518110 -0.0030865777449205 -0.0038579560047823 0.0041956386891584 0.0001042704085774 0.0045461116175544 0.0009485164840474 0.0000442774232088 0.0028895608339116 0.0000435200582314 0.0014947387031861 -0.0009173198571416 -0.0015595375850422 -0.0020878314795803 -0.0011817313201427 -0.0023226949656201 0.0003372406533502 0.0009157077100669 0.0014514678669095 -0.0022887957710974 -0.0008951280456718 0.0038465606936791 0.0010463606629488 0.0021835185170402 -0.0019221083458280 0.0006902330367879 -0.0252721570632270 0.0103754756387666 0.0129851254844363 -0.0063798060768591 0.0037007309516066 -0.0093433925278863 0.0047016424593340 0.0152651012009993 0.0069862846087100 0.0029249429951960 -0.0042256770191732 0.0031336992586195 0.0124979688372635 0.0139527454019579 -0.0032686459475430 0.0026414648723919 -0.0091341857996955 0.0006169229956205 -0.0074754200650760 0.0141171357932081 -0.0073278734260570 0.0074968326845812 0.0236016545756886 0.0150421170772805 -0.0182610180752990 0.0205794819426134 0.0088956625641073 -0.0072461872740239 0.0072932496876535 -0.0148302595806122 -0.0018379488575531 0.0154926273112665 0.0002034354642265 -0.0293682737674058 -0.0120398896781618 -0.0056972824612376 0.0041820797840129 -0.0147224029080048 -0.0008168239855113 0.0014577113147499 -0.0181189913119610 -0.0141483946593412 0.0156386821589307 0.0069764317797263 0.0057440576512574 0.0054887707658263 -0.0189191233097308 0.0034623213138269 -0.0084646638921356 0.0199928938604063 0.0010991815492384 0.0198260522153551 -0.0020431577952100 -0.0044267761233417 0.0008883192964888 -0.0076217492011721 -0.0131349241071006 0.0031102349748224 -0.0008452537176746 -0.0019554175012738 -0.0089375456000969 0.0056448031631319 -0.0132279408088040 -0.0032562754040522 -0.0180383552294933 0.0109170283554860 -0.0260882339006790 0.0160311389354793 -0.0131391505628552 -0.0069061523977064 0.0123580899037950 0.0175033939462379 -0.0022004524849003 0.0055009653047713 -0.0047828089822363 -0.0074293034504743 0.0134528732921024 0.0247492167423842 0.0023594457394636 -0.0018142097841421 0.0052733314820912 0.0096966195039312 0.0079563382823001 -0.0007604590231264 0.0061792078168944 0.0026350433877147 0.0204158767759530 0.0050284745133367 0.0104766061362852 -0.0127980639097110 -0.0021077678753789 -0.0007505510715686 0.0052466063733489 0.0011566566947366 -0.0022239228761339 0.0086207435418533 -0.0090761991831709 -0.0009854889128702 0.0145272422682576 -0.0222862470741514 -0.0090957628065409 0.0150605513204340 0.0019788170611206 0.0085724029163792 -0.0024648928172473 0.0076771727356275 -0.0053952741788223 0.0051885183011602 0.0009814414574085 0.0075655661420725 -0.0034830202777242 0.0015873940647305 0.0066524472972081 0.0100754791214535 -0.0100310065336289 -0.0003944884151793 -0.0104353050193366 0.0034088615566629 0.0082354470430092 -0.0012797695650004 -0.0127432617999645 -0.0150854834297964 0.0006414334549330 -0.0091544455232428 0.0009496244034906 -0.0227178924679393 0.0076068331279492 -0.0104558289624663 0.0186621027461008 -0.0135754899222449 0.0071920964139772 -0.0019022919920747 -0.0095764465895262 -0.0028086506722332 -0.0032135552347853 0.0139694063702278 0.0067556951735469 -0.0116605135552303 -0.0018153611258805 0.0231406878894320 0.0123566885799799 -0.0060321300942165 -0.0039983388198254 0.0011468942696583 0.0114148020754073 0.0071933816283371 0.0094233288729145 -0.0105730806735609 -0.0135170936981821 0.0139838137722891 0.0016983683968599 -0.0063359759236053 -0.0223630183247185 -0.0022646339987627 0.0158466371767545 -0.0047681592337818 0.0015754910941919 -0.0218716985920769 0.0210427470522901 -0.0119099002647041 -0.0094543411454537 0.0087425081417661 0.0006040805187861 0.0162255663191223 0.0027591446959818 -0.0030470646430610 0.0041486128698678 0.0057161288955603 0.0086567248597634 0.0161993621197378 -0.0010120157540620 0.0019062438928741 0.0053971100934203 -0.0010220034692720 0.0094613298065137 -0.0053527562088363 0.0092209814270551 0.0069606929096017 -0.0090380174153081 0.0118868557117032 0.0188231453488319 0.0019700319636583 -0.0069805342605863 0.0144793486162605 -0.0066408298986000 0.0039090240664809 0.0021878412398728 0.0022428680356772 -0.0068243759123853 -0.0006216195190157 -0.0040270506168545 0.0210387128864289 0.0012336490295677 0.0005336162342401 -0.0079895878948868 -0.0017272694067157 0.0136012418864798 0.0052170649728541 -0.0061493955595857 0.0000355917829286 0.0040154677632435 0.0143803956214325 -0.0058165303686028 -0.0094876510617864 -0.0043390493795793 -0.0003558614394362 0.0112606432970509 0.0046887332056750 -0.0044481333595243 -0.0021745329324991 -0.0035172629150761 -0.0076568462162287 -0.0099448259922690 -0.0114712564289960 0.0045339729122078 -0.0054846946497170 0.0100089318853843 0.0187275701859226 0.0133935388860182 0.0161157249750145 -0.0025688271670771 0.0216856696075037 -0.0045339165866571 -0.0164333091160810 -0.0159912263494336 -0.0056021392882632 -0.0093894210356528 0.0148721457064070 -0.0053188669554463 0.0059792754973796 -0.0029349742858047 0.0097492937365457 0.0015863188332418 0.0077410320654809 -0.0101084407163058 0.0109660199592183 0.0094818317304794 0.0054586260465716 0.0085432050677230 0.0044759501866543 0.0031798151334713 0.0145724224331634 -0.0097698431279325 -0.0084119110972567 -0.0095016029541390 0.0001104375468688 0.0062236661936034 -0.0116129489157174 -0.0029819848023217 0.0051379250198032 0.0038796528607723 -0.0023131700207017 -0.0015366018990448 -0.0005111742511700 0.0054090494351598 -0.0054774115261812 -0.0150032302818275 0.0025016437001925 0.0050828598102148 0.0113292240862000 -0.0047465206115092 -0.0070072097810204 -0.0244406102595014 -0.0036422453889707 -0.0101916985322525 0.0047899812974082 -0.0036335476474919 0.0038354154109770 0.0049931704379524 0.0181925736973605 0.0039542805976390 -0.0115718740988542 0.0032279604131917 -0.0025492358597413 0.0070051006552445 -0.0112120908654322 0.0024347306942421 -0.0076767071033059 0.0009131709034452 0.0054590674262105 0.0030136537463148 -0.0017557093936724 -0.0040160937830267 -0.0035264764912917 -0.0005106970172839 0.0088978044521991 -0.0084233396317762 0.0019408939536784 -0.0055985035227277 -0.0146067238262598 -0.0054973599731989 -0.0005782246618744 -0.0105629349214074 -0.0074746111244700 0.0053240715568467 -0.0061097442898732 0.0074139720039932 0.0026298892457374 -0.0068949656662228 -0.0044317945023973 -0.0549645508158538 0.1301886366108382 -0.0502731358894755 0.0362211665622016 -0.0224910963150627 0.0745204824798168 0.0147377662786636 -0.0223285167011038 0.2211028268259998 0.0847031795760839 -0.0047041521547929 0.0574046359003555 0.2293648337370030 -0.1978339113361408 -0.1061271796298482 0.0382183714346591 0.0516830127571186 -0.1369492382377304 0.0479519117283726 0.0142208422978155 0.1139261791955471 -0.0901610004018537 -0.0496947198494494 -0.0236748678797364 0.0319078510599657 -0.0767650421916503 0.0603599644125726 -0.0072926501075909 -0.0127483342431007 0.1199347940060067 -0.1825230743374963 -0.0383746393551711 0.0812861165118762 0.0505889090280966 0.1818334242648703 -0.0642915051638926 0.0160355081400369 -0.0057328802298858 0.0748574831605127 0.1844720667980792 -0.0592438848849240 -0.0255755197699567 0.0606734706272988 -0.0880286183701587 -0.0956463396624783 -0.1008912115003331 0.0087795576926757 -0.1848906246296426 -0.0035736041355418 -0.0718712152381247 -0.1180599438830492 0.2713750077691959 -0.1062288637234723 0.1074544702459626 0.1630407799140859 0.2128026090918466 -0.0403462901926856 0.1719471943382196 -0.1441937094990137 -0.2236146751825282 -0.0512207225410240 0.0979275634173353 -0.2085702412662025 -0.1504935984918082 -0.1548401746913641 -0.1859708185574580 0.0862381520066825 0.0516009544481030 0.0319655678438244 0.0478039437267689 0.0150139324196525 0.1183315533379002 -0.1494239823621098 -0.0575229784394785 0.0657226456604254 -0.1674578502171921 0.0095405405923628 0.1328698427693266 0.0984030334747667 -0.0675198315280913 -0.1062180176292803 -0.0501485080438477 0.1545695854383368 0.0090006237782381 0.2059336716881985 -0.3396307008440173 0.0966856764241587 -0.4169740200746579 0.0519082511611283 -0.2111190051959458 0.1185988336698924 0.0047514787443102 -0.1434099670769880 -0.0771090107515242 -0.1048073608876956 -0.2090678671492549 -0.1283466196910064 0.2144747856538706 0.1146034026236849 -0.0993262328892884 0.1731245731911657 -0.1727612053019701 0.0936770271786124 0.1095821492036262 -0.2153998133061263 0.1274116095350263 -0.0173607988421758 -0.1701901466780151 0.1169597005169658 0.1679579878580792 -0.0320340701758551 -0.0279750913441907 0.0762768227369758 0.0075809437387908 0.0723042403802905 -0.0111286889034231 -0.1101213338035844 -0.0102542631025087 -0.1672153791965615 -0.0791257813453254 0.2129892375701519 0.0087841467075493 0.2690451275273598 -0.0947303217929659 0.0540801742677174 0.1918853762163754 -0.1073650737579853 0.1022453558323838 -0.0874693469849590 -0.0998514009062381 -0.0800378829292498 0.0593117188887939 -0.0700162995785236 0.0293384412994324 -0.0806346983212221 0.0543990370718327 0.0587598149191702 0.0250290528383280 -0.0818145908242821 -0.1301550239536601 0.0209744767945922 0.0795500420401511 -0.1267604121076764 0.0809551245410369 -0.0412358962322110 -0.0381123144057809 -0.0555244746235534 0.0844879297252126 -0.1104788800463950 -0.2437278491944772 0.1854384227003521 -0.0348119643881137 -0.0028217161147125 0.1694722026792933 0.1868624147113497 0.1646188489529696 0.4362838808363251 0.1986726048050815 0.2019344773481910 0.1154325005577327 0.1472542055687437 -0.1939242341771042 -0.0977095470126259 0.2095940741412310 -0.1713866995707770 -0.0644840417040666 0.0839994286806820 -0.0645176975368749 -0.1092769804583877 0.3097440100671593 -0.1377402785852071 -0.0735907780498806 -0.0073733210135076 -0.0064827503263561 -0.2302469681906516 -0.0192607817499251 0.0246607616027204 -0.0416697973769188 0.2458960160839780 -0.1471580604085028 -0.1237186669711966 0.0639765036097283 -0.1514891123261443 0.0871956349367170 0.0308990865876382 -0.1059868219943959 0.0081657985840480 -0.2402616695085312 0.0535190190609885 -0.1692837421282636 -0.1184205625801167 -0.3139849940813287 0.0790751096168904 0.0278620408198552 -0.1035261635180071 0.0649940230443944 0.0399842224858988 -0.0826653054367979 0.1783322033025694 0.0752405192619138 -0.0133047017639029 -0.0722175195726151 0.1163087424220351 -0.0622484602958985 0.0473951633124110 -0.0307080353007792 -0.0078151389728739 -0.3564328272815046 0.1954210624870993 0.0248279784788406 -0.0983821914367767 -0.2928356530769998 0.1123431526481952 -0.1749496911698205 -0.0269299762192852 0.0609570930845933 0.2581580745440770 -0.0057101590005369 0.0512252208257383 -0.1010763474115658 0.0515072760549899 0.0026570696733381 0.0300781137960012 0.0305641282175251 -0.0200650075776696 -0.1046288461659135 -0.0419162045125263 -0.0353968548434546 -0.0582131150653313 -0.0486643078879026 -0.1457680778975627 -0.1377446591521839 0.0937319097311021 0.1271567338642199 0.0367441280934206 0.3277038258558324 0.2106404415755551 -0.1459112251027188 -0.0678165650871797 -0.1682682974220709 0.1909642216806593 -0.1894614225262494 0.1366739886309542 0.0167983050619984 0.0754695360121929 0.0819660685012024 0.0621863596308925 0.0398084704117121 -0.0067325473909404 -0.0147639821936602 -0.0498686047008695 0.0009196455925062 -0.0426688685152636 -0.0506456427447924 -0.1086101406432479 0.0048453693226658 -0.0677365672241250 -0.0307345632184679 -0.0589919022082370 0.0556138753914117 0.0795260292000541 -0.0949410282166751 0.0142364828235027 0.0264550357135655 0.0581418137663201 -0.0086171133045198 0.0595745419627750 -0.1029113086111347 0.0927563413990165 0.0576051709612439 -0.1281671551848277 0.0939819830862151 -0.1400261308014191 0.0733957961958460 0.0293215003352860 0.1588575486045479 0.1109684817823687 0.0766722378112406 0.0712118580377371 0.0555969673769299 0.0087463557739948 -0.0182901958388447 -0.1261690820796575 0.0077425564647854 -0.0065170198928851 0.0085305691836586 0.0180404204706483 -0.0721128942198824 0.0601812922697860 -0.0122920806225069 0.0029372807862656 0.0066673346518058 -0.0285497783866726 0.0179605982457903 -0.0125801038449269 0.0012868502201787 -0.0267010301034095 -0.0028649945771707 -0.0059359614457372 0.0319106261167740 -0.0352675224579725 -0.0099163147784836 -0.1512685792123060 -0.0173360655859447 -0.0477244465820027 -0.1014763641021489 -0.0655028384153553 -0.1013301005628297 -0.1436056685319264 0.0366931388771516 0.0311664284594475 0.0871490484742437 0.0694773691558081 -0.1566749056742253 -0.0306695575130202 -0.0188160396235266 0.0741511913101101 -0.0355725136585633 0.1157869230214935 -0.0122349255312970 -0.0359840673057383 -0.1349235702926819 -0.0775832485089711 -0.0931718062427922 -0.0172801394066525 -0.1803236530635905 -0.0567182307533144 0.0540523319039235 0.1212267452487264 -0.0046689227373499 0.0507038092432268 -0.0516249139996382 -0.1123293303050735 0.1219949349037740 0.1101943786181481 -0.0027974476045926 -0.0994974661386861 -0.0875142538409044 -0.0549798311448643 0.1309370541818086 -0.0067822807556408 -0.0703148823133402 0.0648494564821448 -0.0126689340617034 -0.0734799380295978 -0.0351116328365008 -0.0129942946699575 0.0582393022790966 -0.0807129576282065 0.0089939525639196 -0.0005989269544966 0.1296511352980950 0.0342641073325606 0.2505150212816646 -0.0280999101648785 0.0842152104089739 0.0346662155663838 0.0761740685381829 -0.0400460500062503 0.0473938403359236 -0.0289693402230654 -0.0690207614956260 -0.0104896147317663 0.0148134219375600 0.0759672336750924 0.0354438077816234 -0.0360947540021527 0.0534727190185903 0.0079388046868371 -0.0023740060303901 -0.0999485117513282 -0.0384817658010220 -0.0551852960639263 -0.0453076177100113 -0.0124042934456956 -0.1081953386247103 0.0116902436454564 0.0231831880224632 0.0350082569573822 -0.0684096625742325 -0.1015591174032732 -0.1359582125411471 -0.0164474086755159 -0.0217251838675490 0.0285392010433845 -0.0784580855045135 -0.0333251576178919 -0.0207128678052320 0.0035296946617202 -0.1255980690683256 0.0836490194789767 0.0613097601360435 0.0593810322231410 -0.1086381965213329 -0.1389741793845074 -0.1150619375425564 0.0809303235826223 -0.0073445815019580 0.1451078512111378 -0.0966268381320209 0.1907317765057660 -0.0081833795019659 0.0081316745888406 0.0847361550076383 0.0485762501956015 0.1014740199066967 0.0355839667118689 0.0162247682838228 -0.0287647075007298 0.0313581999987938 0.0049286100904982 -0.0165335794236730 -0.0061511089937445 0.1292188827846526 0.0419090766585830 -0.0617290285552021 -0.1586538511721936 -0.0802228509108459 0.0351597206266647 -0.0729129415157632 0.0396725623973033 0.0217464974500451 0.0695905934786775 0.0449424842029918 0.0075478776407518 -0.0184328979232612 0.1429014563872144 -0.0439492871236034 -0.0163097644494817 0.0787259864932268 0.0088615857567010 -0.0825662597163209 0.1426381170490190 0.0088089742832334 -0.0662784452510117 0.0474220734071531 0.0453212186796514 -0.0561912777596413 -0.1638493296510951 -0.0183305486964131 -0.0473004815065533 -0.0514828576633339 -0.0737576211761934 0.0066002943881858 -0.0674242455101558 -0.0407704986369469 -0.0131144869925165 -0.0264916126556980 -0.0555591233157250 0.0601801049020179 -0.0874152789568347 -0.1411074460404007 -0.0188688232083999 0.0329820128573819 -0.1241689843457089 0.1039427930560852 0.0256172699607395 -0.0252322614126759 -0.0239236918742740 0.0359955533724267 -0.0494930904290002 -0.0374607839803057 0.0975467898456009 0.0352855951839124 -0.0584015185489328 -0.0889547989926975 0.0707977986672676 -0.0432287641002796 -0.0102550917304153 -0.0489849939568140 0.0700228338662359 0.0509090728034815 -0.0840497884779916 0.0685582385425531 -0.0739174004228720 -0.0136937799388095 -0.0587165849893284 0.1094626182797779 -0.0290741278723248 0.0433856472401000 0.1370492704260696 0.1233721854106038 -0.0068912500349520 -0.0216301164083020 -0.1029210191413586 0.0302806250526984 0.0271944599342364 -0.0286971776512541 0.0671431869896935 -0.1428816774579169 0.0396373364696534 -0.1896728920751709 0.1330706433631164 -0.1205723199589028 0.0353981985694178 0.1111806155260563 0.0984680542320102 -0.0045946024673142 0.0666445867251728 0.0730890039672909 0.0566068904937383 -0.0727930172852108 -0.0024777217795640 0.0354264115206585 -0.0646057548240770 -0.0801029439230501 0.0670120027788472 -0.0081806821625767 -0.1401132645106222 -0.0417470619558250 -0.0123067206501073 0.0844769477619285 -0.0682192504269631 -0.0865733162691508 -0.1014108809991515 -0.0675011884282539 -0.1442729769805366 0.0597641191585020 -0.0785751443085945 -0.0137229829533180 -0.0063466521957297 0.1038970229425975 -0.0481448936804906 0.0016049414278780 0.0237462092533360 -0.0034058414812432 0.0850764149929293 -0.0206829185066893 0.0831909221131117 -0.0636032149429997 0.1798720298752845 0.0078018332839993 -0.0141312234210530 -0.0386556753950743 -0.0807894991081123 0.0091500057216923 0.0286718434036637 -0.0810378036088585 -0.0513593936122630 0.0584776809138675 0.0493623134665599 -0.0612234568929600 0.0482601013334492 0.0370477487460691 0.1393176337212409 -0.0214659268174819 0.0604663466383218 -0.0435149163258861 -0.0352843333581197 -0.0656943347315759 0.1060316065904075 -0.0495540185811901 -0.0693761869024495 0.0189930162885564 -0.0137856803237697 -0.0288302315562198 0.0188409332031765 0.0762918889979800 -0.0290009370475769 0.0412803981497468 -0.0328332585832663 -0.0467924101230775 0.0516209969772644 -0.0973792359162810 -0.0245877371855238 -0.0481903410490932 -0.1119660582165639 0.0644839860072879 0.0893552507518091 0.0375564375909355 0.0713526616624947 0.0147900470415722 0.0361828984417736 0.0026269034471160 -0.0196742947752582 -0.0889758192489923 0.0117398176418267 0.0261128000211360 0.0441477580543418 0.0107282022204339 0.0103138161743326 0.0011028925591589 0.0163744344123945 -0.0225451533219087 0.2492905331728521 -0.0225320580417179 0.0347940194817346 0.0125901148043438 -0.0463236671551546 0.1010376746450275 0.0627615225272381 0.0229048915156965 0.0273159016169888 0.0587025779149979 -0.0863881486133072 0.0178717755166142 -0.0076456859857829 -0.0386362489645398 -0.0474838224903754 0.0231194281041523 -0.0124783650768520 -0.0356794321038695 0.0117981561990805 -0.0356775553491445 0.0216388199528773 0.0198535560753872 -0.0423933794189459 -0.0506896919445391 0.0157300169516175 0.0382220752581580 0.0672840725319758 -0.0417682856594414 0.0542013251138160 -0.0036526012964709 -0.0048472220299720 0.0182590763351605 0.0199743799121663 -0.0129356418183250 -0.0588218414301709 0.0507751620427109 0.0461999137011428 0.0565948955155547 0.0131398489209803 -0.0318009272245179 -0.0512257051045335 -0.0218516853781086 0.0212071561491697 -0.0076814808533663 0.0325599549008070 -0.0392482914063977 -0.0137315811671561 -0.0496592168692944 0.0352109572444717 -0.0211675993971830 -0.0343858981765718 0.0034835218201283 -0.0418221082453848 -0.0066543532154570 -0.0586781062557499 -0.0259365328092598 0.1393857053323777 0.0087452402389531 0.0040147944662071 0.0683079759338748 0.0588911725673042 -0.0148993661736057 -0.0368342507580590 0.0863152847234152 0.1121751827322072 0.0208696713985172 0.0175943723590835 0.0205757579518054 0.0048608421566130 0.0480979621502960 0.0164227981635669 0.0535260409087139 0.0798335861221716 -0.0333802195352102 0.0378623732885753 0.0264843412897630 0.0353751461837007 -0.0590890391138067 -0.0438104024260162 0.0042052950050472 0.0221540033833424 -0.0267518142926865 -0.0351835176863640 -0.0522179640976686 0.0624736579022525 -0.0073523373182618 -0.0331090241066981 -0.0539196575982464 0.0030158370416313 0.0128751341227757 -0.0173430571997463 -0.0209498822311808 0.0141555207892245 0.0205867444804186 -0.0252579782691792 -0.0031687531484033 -0.0120475073816879 0.0159393329836742 0.0641218781300831 0.0227924054197659 -0.0037038927998605 -0.0089335737900322 -0.0057385703223033 -0.0407851658273300 0.0902507215706771 -0.0694605754944890 0.0557055211588612 -0.0153126709912914 0.0033846635137852 0.0755565606899459 0.0105225526528912 -0.0058805884506674 -0.0252803024121941 -0.0325351115280164 0.0161798823224102 0.0193513190946642 0.0012963968687552 -0.1108616288014752 0.0186094745610343 -0.0236971023803072 -0.0753717408292336 -0.0696586914235675 -0.0062283535491229 -0.0157960705035131 0.0270299720290419 0.0425061916693277 -0.0321212882678146 0.0067526371947847 0.0164607749983366 0.0274626428288505 0.0274572659378367 -0.0496799906233110 -0.0091635906910376 0.0311676074611448 -0.0181604213376184 0.0465417963134356 0.0085993090834673 -0.0070182936102547 -0.0246283683005991 -0.0203149312702164 -0.0111190967156093 0.0035879981161982 -0.0214941695358597 0.0097032272468237 -0.0341747596777133 0.0252295251524162 0.0184453344197046 -0.0148588381525557 0.0073253650965945 0.0076729529316957 -0.0386177178990890 0.0568512347245584 0.0462965749731942 -0.0064947490121118 -0.0142391392590830 0.0229103595468393 0.0082749573370871 0.0132807863055627 0.0109461305220690 -0.0040697419686474 0.0115496057885699 -0.0419663732748694 0.0007499039417376 0.0119606964067184 0.0150970831469868 -0.0181080513957671 0.0237651190148607 -0.0087638525527812 -0.0148236655760178 -0.0003907966417863 0.0054188428212572 0.0000643343276873 -0.0150923831837433 0.0200000235803557 -0.0130139139360555 0.0110490205196104 0.0023855141557289 0.0157533823984220 0.0469352368852684 0.0148312789284969 -0.0306503352798181 -0.0014272977593309 -0.0032485831044300 0.0069678692491140 -0.0023653701822803 -0.0518882373206378 0.0235769865026433 -0.0151885989447631 0.0452023754536840 0.0292596598559100 -0.1346000827411938 0.0694472529724672 0.0202056628785218 -0.0014419450248136 -0.0099511059590044 0.0400497487974416 -0.0144569354093989 0.0343111599760402 -0.0491011590827497 -0.0108273311442301 -0.0008725640344758 0.0001208736218222 -0.0130897578985889 0.0016975587107753 0.0054561566139646 -0.0181645781484454 -0.0122778817937073 0.0481512995723761 0.0311995979322835 0.0050361216625124 -0.0135931079672277 -0.0001353779550811 -0.0131919110406121 -0.0165127917830418 0.0341866988788957 0.0118830218192597 0.0146818824990857 -0.0236366610059864 -0.0337322549188702 -0.0150488105330077 0.0282493063410059 0.0157550158535315 -0.0387679209617539 0.0204803601609900 -0.0594378127389486 -0.0079480818964539 0.0023467037947927 -0.0151221707591998 0.0211264593026657 0.0236666414057177 0.0090716750944036 0.0243983391206849 0.0090631901960257 0.0241753884121740 -0.0044844136101396 0.0139221138819718 0.0283690141706521 -0.0309073992692725 0.0623464838267612 -0.0423730513974984 0.0212471300608758 -0.0733890560019928 0.0172370749551845 0.0075296356560926 -0.0174965495537410 0.0126595997165865 -0.0067365651717250 0.0023996167726768 -0.0213064223853751 -0.0202289768964510 -0.0083697005190097 -0.0404763073042598 0.0096504163012246 0.0068697127071256 0.0172999104921131 -0.0320766664871995 -0.0209389850193535 0.0104476810834521 -0.0041306304427714 -0.0199822784273671 -0.0204067175841855 -0.0202244305951984 0.0520693907767271 -0.0377688654313069 0.0078815750955306 -0.0152544304245118 0.0201910646204104 0.0031924528097740 0.0103455424078716 -0.0041279325318365 0.0014625219673203 -0.0236814466010906 -0.0223990871826178 0.0007686908239824 0.0020884864318894 -0.0063193096089131 0.0020675621656710 0.0077341817346702 -0.0071974000171129 0.0033982255587803 -0.0003941186059435 -0.0223905592071317 0.0268465473982112 0.0127469708855741 0.0001590841240701 0.0184240928100805 -0.0173699203614151 0.0293022881448659 -0.0321556750404692 0.0395351620233023 -0.0394445112554364 -0.0527296764208746 0.0526951089658183 0.0223133291919452 -0.0035583847437571 0.0262627711159090 0.0116761853868729 -0.0244621330950980 -0.0289543048432803 -0.0013838831202530 -0.0247917877864752 0.0069789486010602 0.0316048634135836 -0.0042627712541733 -0.0302818594700219 0.0222369735104801 -0.0224177626516125 0.0031280265328084 0.0022706481045545 0.0408295869265886 -0.0436905213030475 -0.0051864981939413 0.0069239072338524 -0.0155970301008866 0.0145990045794760 0.0086021327587440 0.0834003859179581 -0.0730341899159564 -0.2547258381371637 -0.0519132235438777 0.0759701651004620 -0.0418392451219783 -0.2120798400697522 -0.2156907382377522 0.0771101573885748 -0.2216225559331912 0.0918826964023002 0.1568913260346333 0.2672535003969733 0.0264212372048460 -0.0488735394759957 0.1984118477826793 0.0819834391109130 -0.1003687264353532 0.0548616632641144 0.1005745014883628 0.1558843592707783 0.0233295310677479 -0.1076397036495846 -0.0783306848620921 0.0713141127990480 0.0380010550735700 0.0434409179411792 0.0659398597368304 0.0555603412789431 -0.0873585858586626 -0.0794447649066555 -0.0491717430444089 0.0036001396541614 0.0190024503476290 0.0611196713235772 -0.0807384298380917 -0.1079629773517913 -0.1669304013538685 -0.0032847785302431 0.0802351672189428 0.0224745059481368 -0.1057373673106065 0.1267600041666044 0.0448008729032662 -0.0604512962544456 0.1354859865098299 -0.2119604471003013 0.1076129236723239 0.0757736993833435 -0.0286557763536830 -0.0956780074504599 0.0515477093593348 -0.0107885594112557 0.0488035489284034 -0.0036907564802715 0.0630268815771082 -0.1011612452625334 0.1421278102046253 0.0237820460880108 0.0726156005245032 0.0887748634479153 -0.0821628642758381 0.0409909470614802 0.0073402773556450 0.1270568360429670 0.0349808201566692 -0.0112296774841123 -0.1460587632723526 -0.0872727087480193 0.1464568418661882 -0.2535113807673934 -0.0067734492705392 0.1216976644477486 0.0948318681743724 0.1527885439919427 -0.1922174236412724 0.0121027584505423 -0.0981741109687746 -0.0081819402940293 0.1488000413123004 -0.0811830680748142 0.0414204502535083 0.0441093497611241 -0.0123247891646511 0.0221625112856578 0.0606096863898806 0.0210548366123492 -0.0170055148370363 -0.0106323904599064 -0.0344136505094431 -0.0559666483300867 -0.0085762917517164 0.0104960522903191 -0.0313294588534653 -0.0303986930241806 -0.1148495921844414 -0.0699956386174894 0.0783479134484801 0.0878638515408486 -0.0822647269178971 0.0854041509345782 0.0204181774553055 0.0037370665315467 0.0451958576197246 0.0633795469811995 0.0567207433680881 0.1212575378018498 0.0117936390651014 -0.0877161682308769 -0.1232615399217385 -0.1835164569948501 -0.0824100675796963 0.1074283175864780 0.0381604549107725 -0.0026125633062694 -0.1169080563190991 -0.0067923058584273 -0.1922870558433534 0.0239232952377299 0.0429979130626551 0.0444052051558350 0.0433001527466517 0.0532942248481906 0.0402841608243063 0.0130158320398330 -0.0037583052554427 0.1369061056818133 -0.1308335681862640 0.0088707274116209 0.0987531469948660 0.0654063986011015 -0.0563147043783655 0.0867364100169572 0.0487711682368978 0.0214208744482335 0.0537588910614765 0.1149665878118960 -0.0695088020635444 0.0261314223751759 0.1158051299179903 0.0349176079031475 -0.0262344681490094 -0.0208854126549179 -0.0444400604318787 -0.0592439571871764 -0.0137595025694676 0.0422134089086801 0.0382692274031053 0.0500677610688903 -0.0206414317189597 -0.0620536207014553 0.0866754211181807 -0.0137382097284821 0.0011974083900007 -0.0709384016139479 -0.0774148775198956 -0.0509236380363464 0.0538449589004787 -0.0498007969674211 0.0415543187507752 0.0177253191204425 -0.0632376011153901 0.0695267268959838 -0.1179498672933334 -0.0458606394727238 0.0008918521467186 0.0783020449301594 0.1006906127903430 -0.1436288718697964 0.1476312834185709 -0.0683843475195278 0.1888518340014595 0.0617623937573815 0.0923198970337850 -0.0145114686240276 -0.1873048829444431 0.0010827468647605 0.0307294590150209 0.0216518527457117 0.0218311967271483 0.1009156141083600 -0.0323996593416409 -0.1375974205150631 0.2816620084324402 0.0450098163823119 -0.0531445371159540 0.0842489115615345 -0.1171009939153221 0.0066396045024338 0.0342485324918558 -0.0717737008058387 -0.0791839530281881 0.0108637759068624 0.0358612175851167 0.0158483145960525 0.1503837411279138 0.0634997873897558 -0.0735162938961911 0.1880845980850576 0.0012458932350076 0.2398586129444593 -0.0106858565210055 -0.0854877947814207 -0.0038107425983228 0.0201924794684592 0.0933570619520702 0.0522411244634936 -0.0164073923860433 -0.0128805269043468 0.0673520822157772 -0.0295389438412966 0.0082986409638372 0.1017900268891944 -0.0713003690777653 0.0027440986685933 0.0175973858153925 -0.1247191406048692 0.0599136111460536 -0.0012820676372199 -0.1407514205979905 -0.1157403606935258 0.0539257854131173 -0.0383151101776350 -0.1208685163876255 0.0491779558034532 -0.0409239581102791 -0.0575350230862875 0.0139800338462701 0.1319686829661635 -0.0321278962881600 0.1336944447330578 -0.0412704229110608 -0.0563981662348643 -0.0476424258296923 0.0174906930632213 -0.0413706351000381 0.0040852293214034 0.0348869567373305 0.0694019994920310 -0.1062957784574298 0.0242021140314966 0.0853606557779496 -0.0939176140099911 -0.0066645467779543 0.0299436909569297 0.0309959208597662 -0.1252372225861898 0.0250163209041227 0.0862811982738651 0.0292650122308511 -0.0738267220933453 -0.0354398715281966 -0.0690667279988920 -0.0425141069636725 -0.0393030569199718 -0.0133347083177553 -0.1578787061274404 0.0466038967368800 0.1133601589619793 0.0409200611368549 -0.0529711001632121 0.0169325995505332 -0.0473999539277544 -0.0594230875083914 -0.0381337305983649 0.0089525547353636 -0.1135734929172041 0.1714105846108229 -0.0980338634953993 -0.1940978400159628 -0.0466687095001632 -0.1369621626153026 0.2065825251076830 0.0546892407823222 0.0979695824058187 0.1855002001526708 0.1961445774542138 0.2222972515819726 0.0875533068886939 -0.0436615171930353 -0.1088993308151115 -0.0359559545480700 0.1805233991921471 0.1225149937694000 -0.1490921156762937 -0.1157760700740848 -0.0187155028960090 0.0467833788871377 0.0637351133287801 -0.0441191208849221 -0.0246510226255605 -0.0514113270136484 0.0875839890329306 -0.1579924926089589 0.0053343033488558 -0.0350992903315365 0.1283903103415686 0.0851155888429352 0.0201979917365460 -0.0383392301885240 -0.1387513945005501 0.2473847888437926 -0.0505582216687871 -0.0499550337341022 0.1796900223652022 -0.1207864430388793 -0.0223914284488704 0.0860197066290875 0.0065441750641752 0.0530043609991834 0.0065071820401944 -0.0007702030878447 0.0309196945656600 0.2453617196950805 -0.1278400860361273 -0.0644941709772019 0.0942024916495890 0.0426834412851895 0.1582770161904993 0.0015589080219965 0.0338390265731978 0.1299235830880851 0.0085569830022896 -0.1151457667377854 0.0326528878320727 -0.0100672101537756 0.0191593977457956 -0.0719130014571566 -0.1793721339437764 0.2500301217850807 -0.1104896575276606 0.0413878361282207 -0.1632509989386740 0.0482022586330663 0.3484756511392467 -0.0676532273377569 -0.0210557456871523 0.1766938790144720 0.1255897300216950 -0.0293660923173957 -0.0971406555093317 0.2385525133238365 -0.0874508314829943 0.0005332258965131 -0.2173830732802200 -0.0316785866925881 -0.0207760149003176 -0.2427635685084731 -0.0278065555901629 0.0273085643993754 -0.1735473696973590 0.0190842469158284 -0.2170504847160135 0.1172533197718482 -0.0177139696597394 0.1743297061754784 -0.0805600932034971 -0.0068669976884867 -0.0419728895010301 0.0237424962237842 -0.0790521558977692 0.1508216969410641 -0.2354642237316390 -0.1503338454074284 -0.0957632307426543 -0.0402073157972612 0.1560735928751327 -0.0121636230287202 0.0094217196879810 -0.0054772976137980 0.0491541886281164 0.1362061152111237 -0.1744795997240323 -0.1033173541855566 -0.0120237804755926 -0.0990915783535902 -0.0000196367533192 -0.1684146055477885 -0.1183407415980412 -0.0789405881784284 0.1922453040316376 -0.1895474804560999 -0.0817134183532085 0.2204267820829845 0.2061112665833961 -0.0693629793429158 -0.0648568846982613 0.0009128985139592 0.1014297645705392 -0.0445435223025422 0.0310409997426398 -0.1022873831041880 0.1920014584505605 0.1307236572152972 0.1334476579742666 -0.0443143122127736 -0.1397277959615006 0.2493554743160629 0.0708832826049377 0.0117932910996722 0.0378339449294849 0.0040162774855465 0.0627042092762575 0.1525436924343856 -0.3512508155960576 0.0714725972572731 -0.0810178487127381 -0.1719166179030064 -0.1860271916976216 0.0353878540294146 0.0875545904061592 0.0816408489130758 -0.0444102209482811 0.1289895761793817 0.1196712337160471 -0.1958988430482681 -0.0412653695394232 -0.2044010299478168 -0.2256461905160450 0.0859124881946099 0.0675126255308054 -0.0704523222980851 -0.0746857613648672 -0.0887410593035896 -0.0004594471532710 0.0412286988176805 -0.0077644969063790 -0.0370526468715266 -0.1119287670126107 0.0322058648862211 0.0133850396871802 -0.1149435817361034 -0.0069684971772184 -0.0082723173868092 -0.0326474636295444 0.0927080147803695 -0.1498923648553304 -0.0195089754338692 -0.1357051019040731 0.0336141680181031 0.0288333395415902 0.1739064179166322 -0.0392573240709512 0.0231114678216369 -0.0418391036768074 -0.0801812048652468 -0.1334103243309502 0.0629556563978650 -0.0132131459416305 -0.0046777267421803 0.0834658195742865 0.0402973494858759 0.1726962008014458 -0.1770410640565901 0.2111089954294921 0.0286967557401149 0.4286430362018759 0.1436212445364220 0.0317616139688978 0.0533795416953183 0.0698864934523848 -0.0277936933296816 0.0671982883069584 -0.0178067310355101 -0.1171277494118911 0.0423191185488691 -0.0469810918072378 -0.0377143536551476 0.0774030005687374 0.1902298707411285 -0.0120991868721808 0.1416824691409065 -0.0040413490911573 0.1329780444813765 -0.1602778920293531 0.0781886970650646 -0.0726351632594270 -0.0372052201438821 0.1619159149169399 -0.0400013536720044 0.0619366630820423 0.0851525945910104 -0.0798790080674888 0.0788924090267979 -0.0632639626685663 -0.0293541107179068 -0.1008746819710776 0.0686210800609733 -0.1031796438910513 -0.0374372601747288 0.0876019121119695 0.0804797651373338 -0.0030469752030771 -0.0273513800711342 -0.0830867278779533 -0.0166207731473724 0.0282251294258371 0.0735416929156584 -0.0684515963913724 -0.0324555530943030 0.0644402475378364 0.0317515275829431 -0.0299824439842988 0.0286241813968831 0.1915802087821947 -0.1422940454378629 -0.1410590954383978 -0.2209357141792814 0.0650308787786431 0.0685884419831682 -0.0190186936490352 -0.0385882754495864 0.0327319976830810 -0.2352000700737716 -0.1285900281469820 -0.0073520632501900 0.0723801447882232 -0.0042016805039048 -0.0684491338545255 0.0273640622723139 -0.0295127853069432 -0.0227620661795024 -0.0074262113471702 0.0099426412070891 -0.0406335976110193 -0.1017740245753107 0.0477849917136845 -0.0625348705161055 -0.1433330274270161 -0.1210585602103197 -0.0391209790701016 -0.0945351317502430 0.0582253658726292 -0.0771380012437972 0.0812697601794778 0.1198398671743077 0.0157360747171485 0.0687680436256948 -0.0581076992400020 -0.1223726675012741 0.0162153893090908 0.0648931320051338 -0.0208962996060804 0.0038370947273613 -0.1445336318211186 0.1202958665376486 0.0446380876013600 0.0878833008653186 0.1740818115827092 0.0033405647918430 -0.0532598176252048 0.0186345463452306 -0.0109184560914557 0.0415467754010542 -0.0465852914215555 -0.0354445402066390 -0.0560117825215307 -0.0184750664508468 -0.0110174121322842 -0.0294863798289004 -0.0295212953516273 -0.0639372392660487 0.0914237470960214 -0.0228549334919933 0.0959852165242889 -0.0772434304119879 -0.0345163408266500 -0.0000867537214398 0.0564279589450463 0.0042714851142283 -0.0707371213769358 0.0320976403199809 -0.0247617091670130 -0.0324432008118742 0.0582842096127433 -0.0551332052302988 0.0936287130853287 0.1261500237130345 0.0896567827429825 0.0581813065402462 -0.0262972540098728 0.0156253894486472 -0.0480128518976601 -0.0591222435014782 -0.2103362198348319 -0.0768486424060271 -0.0009684147499194 0.0357525666731607 0.1357597433793221 -0.0201186218844799 -0.0171505868275766 0.0156813804308491 -0.0573908107710872 -0.0203546604663719 0.0049988263495382 0.0192307547480151 -0.0192548068878941 0.0282136581996458 -0.0011636617599968 0.0527581568035268 -0.0007413115096249 -0.0402708206693826 0.0090882450050418 -0.1060373148536308 0.0247049461762804 0.0441446716796531 -0.0339957086476241 -0.0040148949313673 -0.0350031081634528 -0.0117657237856228 0.0133212829605705 -0.0181517959531372 0.0039443382345167 -0.0645271450285340 0.0803357793434138 0.0831678699574198 0.0023011466591777 -0.0713124291628285 0.0393711782977235 -0.0164302498846233 -0.0098792622626464 0.1199508924744158 0.0195235778537992 0.0053179829615509 -0.0035058021525148 -0.0332801208483404 -0.0243120498400084 0.0333739143959016 -0.0062493941155657 0.0217870768865130 -0.0323977971174446 -0.1004897145513439 -0.0172810905795263 0.0553376094031419 -0.0238516997707635 -0.0221747880722833 -0.0350383962169221 -0.0203139678606680 -0.0454149178234503 0.0280648399474489 -0.0265538699947908 -0.1235895459624858 -0.0558262253042542 0.0404769988958568 -0.0124839876262789 0.0400805995507595 0.0177292362751641 0.0914867811671480 0.0056602342803681 0.0288118286224620 0.0077952932396237 -0.0503085255541337 -0.0076380613362881 0.0272954651778706 -0.0158910842942996 0.0190010300860737 0.0503240948435254 0.0467734397306421 -0.0018932433663536 0.0162525489016745 -0.0264908894600204 0.0452600070391484 0.0324389809993829 0.0144063856928895 -0.0070120943560863 0.0067388548061952 0.0187538682494371 0.0067661477431471 -0.0197762796017862 0.0175200636983358 -0.0472799019227387 -0.0142023201371872 0.0351510993468830 0.0281823979021651 -0.0216541116707667 -0.0619998716715416 -0.0402966320300595 -0.0131343365976353 0.0453879916782697 -0.0065160631464458 0.0397513716717373 -0.0128650857075031 -0.0069821968973284 -0.0070558817005213 -0.0006459330320459 0.0117772826154281 -0.0474241753574373 0.0213787995364144 0.0210923551571653 -0.0508911479869597 -0.0102901926196547 -0.0097496981363095 -0.0264774290863599 0.0994871008427683 0.0845722507847026 0.0368296472865503 -0.0732077090927856 0.0255696151582901 0.0374972196854786 0.0480598343690587 0.0541544579085330 -0.0404801876836934 -0.0143903724540498 -0.1026700179153654 -0.1028959985162014 -0.0236400525069287 0.0138067011143669 0.0043229158065623 0.0093611275744160 -0.0419120594654020 -0.0188337468655200 -0.0309941512982946 0.0549799639291169 0.1005904290334922 -0.0057569343692156 -0.0120283397477050 0.0301681736631987 -0.0286687922086852 -0.0015346051473879 0.0153873990682537 -0.0266953130204876 0.0563671330692500 0.0331346159341478 -0.0636721899901877 0.0145345600233698 0.0920607198723074 0.0169536490054633 -0.0072673324473082 0.0120623885694380 0.0570571975652388 -0.0083995414902177 -0.0397941636180222 -0.0102691007496254 0.0116759462447087 0.0893328070434137 0.0300576929674200 -0.0031784479895522 0.0028572329202820 -0.0263996332795196 -0.0031450327324127 0.0620765209970328 0.0017757444577286 0.0173892790082759 0.0183256804894706 0.0775792675028435 0.0367383114682433 -0.0581847839093161 -0.0226352614146596 0.0446907880270632 0.0183709826258212 0.0391347430450297 -0.0473316941140315 -0.0015224603768515 -0.1147167284769959 0.0758594270084685 0.0327715161740671 0.0176306941807292 0.0249362067410723 -0.0097780196129145 0.0112654228099435 0.0062965868038256 -0.0340622303357650 -0.0261665123398172 0.0372390676591840 -0.0585323131028044 0.0370998899366409 0.0077994084667975 -0.0016737510565789 0.0248988440064941 -0.0353526337554628 -0.0180910309189645 0.0300491593256545 -0.1055912134990558 0.1177408960991594 -0.2067301783912253 0.1036180402116204 0.0723390600204274 0.0818900363315073 -0.0510749752777492 0.0202197241959916 0.0002196802081934 0.0315401555753488 0.0238244223814590 -0.0245293288272451 -0.0228708569251773 0.0026214696264234 -0.0260725437527455 -0.0001640180982465 -0.0750970731544451 -0.0670171099317612 -0.0708548396042822 0.0362603508043962 0.0548408060328238 0.0718276305290178 -0.0930547732742391 0.0712315409212247 0.0608443517944634 0.0104577242307549 -0.0168283725558258 -0.0277736140234926 0.0049648596066315 -0.0023367468017352 -0.0402747234259243 -0.0242265379572150 0.0186737312205133 0.0270515382926334 -0.0025253581063436 0.0425295586573716 0.0550000216142958 0.0341224324678829 0.0348395991123748 0.0375499355846458 -0.0249217344139377 -0.0155150032835351 0.0452884089160348 0.0023672628750095 0.0010900687763589 0.0311593289333933 -0.0045358895252013 -0.0120632434922439 0.0409200600482414 -0.0237028139623657 0.0555791592113399 0.0271184503439923 0.0375150086687203 -0.0570588447304324 -0.0530656373096861 -0.0268230028850064 -0.0192055843330061 -0.0095103466605055 -0.0002613489392550 -0.0212350173753807 0.0315114059866289 0.0230272388361593 -0.0022607558297504 0.0254834775552582 -0.0285865833667736 0.0051937711723370 -0.0420872675905721 0.0509076381604999 -0.0073552894186712 -0.0312586966809018 -0.0072209466704942 0.0138777015370877 0.0473575228129968 0.0517699202305700 0.0480617881647743 -0.0623553385216479 -0.0149255775289732 -0.0127752352092484 -0.0016578546311996 0.0130753005054187 -0.0245446226660731 -0.0002089318912409 -0.0336613505479410 0.0264003375748383 -0.0284291668753042 0.0118410197913958 -0.0046602172307433 0.0240586979470807 -0.0347336193218336 0.0083601296653639 -0.0410517726227744 -0.0305403708832040 0.0025627662972268 -0.0551710624360780 -0.0089952810041232 0.0025705280985107 -0.0010241308933039 0.0159429379007883 -0.0068430983917235 -0.0195037335834739 -0.0303677316390324 -0.0002289038536183 -0.0045085645335535 0.0335786687510214 -0.0215156976510771 0.0545828307138796 0.0124644043739262 0.0085245286189648 0.0204770822676472 -0.0067214162373981 -0.0001023327757635 0.0268315832426048 0.0294555914940070 0.0114968411323467 -0.0349890745641895 -0.0187776961236640 0.0086931460611811 -0.0054164969030456 -0.0031859496390060 -0.0005475927312756 -0.0161410182893135 -0.0216559322182701 -0.0018417565839948 0.0020479503732945 -0.0201920590227598 -0.0089403426042662 0.0112611325098866 -0.0285594071857332 -0.0757517704786978 -0.1385876611622486 -0.0337343510345354 0.1054474243471987 0.0303477104509904 -0.0391234599918964 -0.1836525044926371 0.0735042766715426 0.0240440293346017 -0.0424885831733390 -0.0125168726553959 -0.0303842353441501 -0.0768059467215486 -0.0345312644035088 -0.0048236691700078 -0.0134789193004044 0.0811248203471742 0.1362813520179808 0.0439358160058365 -0.0280527596746285 -0.0248895379263970 -0.0543280587040117 -0.0533020761063719 -0.0896266182254065 -0.1199583080692699 0.0605622271860455 -0.1381662429240381 0.0290304730551429 0.0689338015506880 0.0606088560019095 0.0446638130172690 0.1183275923887541 0.0575833627929163 -0.0795215299785646 -0.0683023613192923 -0.0970810779950380 0.0437715845563077 -0.0679208158078915 0.1173894734733405 -0.0295449494839918 -0.0559039162854367 0.0208691164758671 -0.0509714227974373 -0.1460692963026525 -0.1217149755599750 0.0417487147842040 -0.0765751650753600 -0.1481305312441734 0.0820267427708036 0.0447540520115615 -0.0661953461591438 -0.0186516856190757 -0.0158884077976883 -0.0177803831287018 -0.0071263634416645 0.1119720263967694 0.0644419367116048 0.0835051157667092 0.1118973008500788 -0.0480990453164998 0.0197039615595180 -0.0350821498101058 -0.0230744334898924 0.1793769719117038 -0.0451801958083769 0.1179007207020973 -0.0742116918895734 -0.1679225550570961 -0.0640436738262287 0.0371809626504260 0.1829038425784110 0.0411174360415615 0.0100547718231285 -0.0408210762623771 -0.0482049421330034 -0.0698286987951082 0.1030858476981595 0.0764073846108499 -0.0407687755154109 0.0118172992192960 -0.0127793566427100 -0.0727545021289916 0.0561838084973793 -0.0720095158260405 -0.1144886255180459 0.0004657585787976 0.0099987266281089 0.0623060344248658 0.0044891272597646 -0.0684740231577622 -0.0838161414650575 -0.0661016355273201 0.0250215317212093 -0.0480200561943568 -0.1488406125663109 0.0345585559994028 0.0859677508301945 0.0127174956872612 0.0468848738530901 -0.0389146949678078 -0.0490138831849214 0.0705322007771240 -0.0900509601941223 -0.0188183764907430 0.0563980979432726 -0.0033493891884651 -0.1238251252806658 0.0507212504599399 0.1209547062705075 -0.0813224609740823 -0.0178249512851268 0.0076249341796631 0.1276499935648305 -0.0106575087062677 -0.0599410530650008 -0.1343271099297068 -0.1707587853841642 0.1151195519316631 0.0118028045686494 -0.0201191345928629 -0.0762814858566343 -0.0965201633168510 0.0079071032471153 0.0311863534852990 0.1056953931243991 0.0400092422367021 0.0232330015402487 -0.0674043341515967 0.0924436619168533 -0.0805104404665991 -0.0882291788576326 0.1441445165847494 -0.0069002940708363 0.0623233526654608 -0.0476146308206829 -0.0449456330575597 -0.0935187277277139 -0.0528432344538448 0.0240552389268864 -0.0151878559865733 0.0564823657692799 -0.0427474211743396 0.0034604321642485 -0.0886767290581607 -0.0373017359941696 0.0735052852229516 -0.0681162667919075 -0.0183158300394523 -0.0863823568333674 0.0219119535650034 0.0226081559163079 0.0431999532330532 0.0254884809615771 -0.0887730814587211 0.0054465295727170 0.0652874263185091 0.0435862144758196 -0.0656250948298253 0.0556096074028950 0.0100775683836840 0.0111302450116027 0.0068301471168198 -0.0212511504356331 -0.0606359450630066 -0.0034227182180360 0.0352929469049839 -0.0891965681540230 -0.0232630953510347 -0.0279861853821961 0.0211232005369223 -0.0213319685417744 -0.0803813543143663 -0.0665781610357647 -0.0076554816792367 -0.0745786565106122 0.0610160919906537 -0.0130451142434095 0.0755000083503228 -0.0269095551329415 -0.0245265574359557 -0.0015623063029542 0.0271465084176353 0.0044430121150180 0.1100378658829702 -0.0876906775799783 0.1082469034709954 0.0679588245406552 -0.0572397966294657 -0.0368390801040346 0.0595663828756883 0.0818488189446867 -0.0354809757888805 0.0465516293020931 -0.0706411750892029 -0.0625239159801100 0.0993038183274860 0.0576073642038980 -0.0499658458480285 0.0831404722892979 -0.0719123752290279 -0.0799189953190087 -0.0536720673016903 0.0924187753371834 0.1296880433045906 0.0192512680022209 0.0063449142434832 0.0759364357068873 0.0448501512083991 0.0151009085914676 -0.0019438606641692 0.0175333844821470 0.0758027204012652 0.0736977589860793 0.1135822265493221 0.0063139400624291 -0.0411670511099422 -0.0755767648266624 0.1195834476524152 -0.0060363702182008 0.0268838655014856 0.0471292065829041 0.0403849800088833 0.0122191787590554 0.0737919615922863 -0.0277723268863685 -0.0036085542301296 0.0284923524607593 0.0324034508324363 -0.0710812524450487 0.0942640487811712 0.0228389557453577 -0.1001785806117215 -0.0112849875088260 0.0815953928859611 0.0395952227458027 0.0470893819696839 -0.0732716944382162 -0.0320265294440015 -0.0219998447817824 -0.0056520055292225 -0.0506987198661503 -0.0704216219560024 0.0549731870326360 -0.0367429896981140 0.0090193534504486 -0.0938658101405582 0.0375796441097680 -0.1565920345327153 0.0713817156388630 -0.0069013182851904 0.0116502277900399 0.0036688568906500 -0.0071256322436869 -0.0068655817289823 0.1108644424747409 0.0033341520114381 0.0152552465662806 0.0671068182856977 -0.0093771122430333 0.0302908056756783 0.0262573382372267 -0.0392243308162024 -0.0569236005851082 0.0083339984631090 -0.0688628523781948 0.0318837474006194 0.0463327362088770 -0.0635246990774336 0.0646823612264895 -0.0328302815312885 -0.0236468433363568 -0.0601335547987910 0.1291185385037163 -0.0468939574658270 -0.0125122047356445 0.0174622888994230 -0.0700366142702334 -0.0745634451841097 -0.0444602858699533 0.0427855170931938 0.0382885090497321 0.0345971298181355 -0.0141225766086044 -0.0280235630331737 -0.0022521754885490 -0.0902986565596318 0.0440948881231012 0.0145371543763918 0.0935921354149131 0.0074953156294903 -0.0837265624519577 0.0600240842260280 0.0153655263080879 0.0663603012222720 0.0261067748457361 -0.1054657262757554 -0.0522072614059324 0.0343766211871281 0.0092511166361912 -0.0785025096735074 0.0096578391839636 -0.0165672400030892 0.0072029390703621 -0.0121174861000155 0.0608561231302285 -0.0319968606754126 -0.0192128059791932 -0.0018483688205741 0.0538279904924314 -0.0039602069363912 -0.0072888811176498 -0.0401875974971924 -0.0724480356056975 0.0113033028004629 0.0032035379626722 -0.0536234941564047 -0.0133022959236909 -0.0283271751577475 -0.0371651363665079 0.0027703691747689 0.0223228508773222 0.0158134259683559 0.0019761368767265 0.0435657177660357 0.0011771005466618 0.0336515290271255 -0.0086955428902772 -0.0206339685070010 0.0122944732273452 0.0018867851727175 -0.0066388474897941 -0.0355305776185201 -0.0219802380776011 -0.0352199608224962 0.0459985208895344 -0.0622996583543008 0.0552042196505774 -0.0338327794095826 0.0158358232417251 -0.0106924146765639 0.0027341645551347 -0.0005134846463212 -0.0170452121990840 -0.0165726375395231 0.0075754136643155 -0.0109001396261602 -0.0050727295841968 0.0533857771514877 0.0000731022363625 -0.0073918747176803 -0.0074601009087884 -0.0092974350233278 -0.0002169948579196 0.0088686844058153 -0.0007823777763921 -0.0010503270134216 -0.0107469518665769 0.0252444984252134 0.0245354101342808 -0.0144981997324644 -0.0172702957803430 0.0081486195488375 -0.0352368005081842 -0.0076748690778060 -0.0022631234143951 -0.0075928316267494 -0.0044791725478034 -0.0250274323323649 -0.0012177568752195 0.0126653351348956 0.0470191978290432 0.0091388287588011 0.0091996136844640 -0.0010274746230843 0.0079896348460106 0.0163611173238395 0.0203918099198484 0.0074756534891861 -0.0239550964574686 -0.0003876617764208 -0.0139628657287340 0.0303924900217423 0.0364474412655053 -0.0136235692508424 -0.0357352463911349 0.0185752028805577 -0.0019062916847165 0.0120330293788015 0.0007268212879541 0.0091463020184376 0.0059933951397458 -0.0188550187952676 0.0103449798373791 -0.0175595396589437 -0.0162055262849484 -0.0060691634534622 0.0082016661991788 0.0068493111456152 -0.0297374294613515 -0.0199045659281507 -0.0042920615067748 0.0034989751350483 -0.0109527581505820 0.0069423888625675 0.0131874152288364 -0.0190923814678179 -0.0044233271064344 -0.0284802262798979 0.0429812326949112 -0.0120399351630730 -0.0160880828194900 -0.0091308969115035 -0.0073463019666219 0.0010661921629256 -0.0360907118559071 -0.0174928682444152 -0.0067333458147732 -0.0321071722277673 0.0592162181006678 0.0013717223777572 0.0171301041452210 -0.0108787318842896 -0.0054941123086118 0.0071244780244163 -0.0008774410355213 0.0192938459497412 0.0136355628654722 0.0060549851145365 -0.0131866631809047 -0.0255661471916046 0.0422316977440738 -0.0046113854726283 -0.0243236572491426 0.0112762079210197 -0.0031454924548688 -0.0074448621873201 -0.0132626511002899 -0.0092395579796256 0.0143468045953630 -0.0010632859038277 0.0197989484096692 -0.0268791151988584 -0.0191557573915864 -0.0248815407367559 -0.0037271586496109 -0.0114730533320185 -0.0131898837379511 -0.0144058700525411 -0.0133350741043955 -0.0000254480391396 0.0363965196763300 -0.0033580131041896 0.0392414106639704 -0.0419515327363354 0.0518248395402619 0.0322046558049546 -0.0067854370386619 0.0018626979076147 0.0000235254152199 0.0054701300118006 0.0056783266307243 -0.0020445429705991 0.0105427660756528 -0.0106027997265617 -0.0307573169913961 0.0191039430025816 -0.0107408670038217 -0.0166050725090797 0.0084242388676665 0.0338890753038087 -0.0245185110997051 0.0146642788199623 0.0014426529897860 -0.0147695633056119 -0.0449222773188630 0.0146806120827848 -0.0057385076348486 0.0108817405394687 -0.0000704089597394 -0.0207533142252353 -0.0286911102972289 0.0190396777545033 0.0205470189823849 0.0087843404612210 0.0018499685821040 -0.0219440856912212 0.0274065579513464 0.0034117659940581 0.0199930357225075 -0.0199248451423113 -0.0027368875935792 0.0039170878274147 0.0005473850227722 -0.0072702901469360 -0.0392792049761648 0.0325663392666727 -0.0014102839320460 0.0204527761926650 -0.0064878873162566 0.0243625393261842 -0.0006985482583278 -0.0021868897911920 -0.0390226597917810 0.0078501129108170 -0.0068855189210524 -0.0133111674674682 0.0268555904249961 -0.0129913529428297 0.0118200064718998 -0.0072072116948730 0.0028220043737387 -0.0108049889095345 0.0009419049520117 -0.0099745753247093 -0.0040007631474695 0.0235814489925567 -0.0093028785808188 0.0014670078725332 0.0108329483101563 -0.0002225296700045 0.0049088742115128 -0.0236331401891368 -0.0277298391305269 -0.0085412707699716 0.0134482377929795 -0.0121566807418036 0.0028856564683215 -0.0042446855898657 -0.0162421765326324 -0.0023438396903522 0.0081052243714755 0.0030448582309036 0.0070957271619613 -0.0158963168429932 -0.0094066391463570 -0.0192351850591084 -0.0211055522215876 -0.0077422280893508 0.0113025385824651 0.0242966419724406 -0.0055853063775374 -0.0018009573520531 0.0030117625697706 -0.0094746794448393 0.0245660281410983 0.0205385780113530 0.0268183242721291 -0.0103855812744810 0.0151144756251585 0.0063228869016455 -0.0354757766931304 -0.0053283828265795 -0.0125501212177073 -0.0036112033498826 -0.0119265832234047 0.0138388449389940 0.0396550156571503 -0.0043446840419931 -0.0226912133034488 -0.0224688700308941 0.0158357080432372 -0.0030182881948665 0.0521579666252661 -0.0084209919009513 -0.0107581990184651 -0.0182969699495857 0.0115848091883116 -0.0251019683349373 0.0234189463772625 -0.0016375119257775 0.0032084706043477 -0.0184015139680161 0.0249341783243348 0.0018036609632870 -0.0426770178255350 0.0188358480455626 0.0034175150394496 -0.0021434559790688 0.0037060292316024 0.0004209484826967 -0.0022227694235225 0.0513738674954166 0.0048372865156744 -0.0083575898643991 -0.0019839808921475 -0.0022513498827818 0.0322078554853135 0.0052011364316293 -0.0080072676664204 -0.0141155818202404 -0.0116591155636429 0.0223114859109265 -0.0090617247236216 0.0091717523627120 0.0183274714584294 -0.0064642328822382 -0.0254822809345697 -0.0032211089215707 -0.0135275723878193 -0.0141888032760997 -0.0246504170954934 -0.1173718642098979 -0.0922831474427497 -0.0338598111666618 -0.0142298101664199 -0.0857105308938251 -0.0270897132515325 -0.0136102957799133 0.0103731709268202 0.0046044187391111 0.0015923443240490 0.0118953358706394 0.0639736624846277 0.0461887842719414 -0.0730012268552096 0.0424157956024374 -0.0113285430801449 0.0040535692336789 0.0112219231706874 -0.0154384538426136 0.0388763652459925 0.0032486324748077 -0.0315712884314637 -0.0406736715364876 0.0747697846073230 -0.0208318615953269 -0.0226011422679391 -0.1027757006015375 -0.0251470928256846 -0.0312748788437153 -0.0163128002956132 -0.0128676351231276 -0.0165577550560617 -0.0596086755626822 -0.0001189496448208 -0.0955472354527899 -0.0439179455625934 0.0384406641913371 0.0646831839617976 0.0796772612774416 0.0185836178597704 0.0435374778424940 -0.0185981774149269 0.0582753089034871 0.0003998111302630 -0.0351140705025334 -0.0076324302162114 0.0567455661751197 0.0267798564151569 0.0528085533227744 -0.0312040070047117 0.0761994482139324 0.0417694368271126 0.0070698120270695 0.0430949482936654 -0.0679642679510431 -0.0204484155486316 0.0522405282267973 -0.0051378872345526 -0.0660536449585436 0.0276708821487728 -0.0700045510940556 0.0231114260732720 0.0144933462182402 -0.0151392424581095 -0.0010761520737133 0.0109274093271469 -0.0024373036298255 0.0154610163568837 0.0391773157108460 -0.0164275689734325 0.0146103555116633 -0.0284144812151041 0.0517264673473994 -0.1484688280541686 0.0066280015896362 0.0224693155414367 -0.0224074896651829 0.0006374071632128 -0.0364706673427854 -0.0381608011436035 -0.0020697489973109 -0.0082872982774741 0.0591493192501401 0.0288155393340353 -0.0334957657332405 -0.0336881270766046 -0.0138104268244130 0.0028711429438636 -0.0536515382171006 0.0304659585587999 -0.0072570500508886 -0.0153297293124531 0.1025985749264718 -0.0796834611515199 -0.0295070715105126 -0.0076850084663055 0.0298418147616025 0.0070765835168990 0.0125578088355096 0.0498063087553604 0.0092458040188555 -0.0520595232873322 -0.0195886850487832 -0.0425753916729501 -0.0064791342386728 -0.0392005758506943 0.0027897072791155 -0.0108427704980120 0.0596746446447342 -0.0174390699141204 0.0148414960661434 -0.0068416928829641 0.0028309278901020 -0.0243098690462317 -0.0057006447950094 -0.0181136361890118 0.0467440257031195 0.0476582876707146 -0.0108264248762706 0.0420625298779739 -0.0422095225861253 -0.0189797252627119 -0.0189975656091628 -0.0074956734371361 0.0104910462811154 -0.0111486694732980 -0.0034263759051687 0.0748212054167090 -0.0345009176242459 -0.0200614911683577 0.0319126119922566 0.0247491234380266 0.0477762477447160 0.0127553401680296 -0.0302736947770869 -0.0326972265998956 -0.0101342442316488 0.0043105923058605 0.0225885591116373 -0.0302460474591696 0.0240716007772217 -0.0194071327559207 -0.0460943907144701 0.0869202594738417 0.0594166023933803 0.0153982072081363 0.0474130166106876 -0.0408006091694027 0.0391171322576890 -0.0156676221206055 0.0201867145883437 -0.0272816002431827 0.0036734217707214 -0.1103915083549531 -0.0263568030631530 0.0521755934262688 -0.1252623972756207 0.1333294703928221 -0.1154230851917233 -0.0821210307223452 -0.0147663541208104 0.0713688775628877 0.0244170027079466 0.0208021139758377 -0.0430929789855205 0.0586342917028666 0.0258745110013514 -0.0095483504865904 0.1114045958852640 -0.0255502184000786 -0.0078976439791036 -0.0970068776274665 0.0265338057630138 0.0696489163216867 0.0374419976229792 -0.0225078169723150 -0.0507541921596189 0.0034485500202521 0.0487882649981742 -0.0515421912204625 -0.0391358984436097 0.0183514458895149 -0.0413423957615781 -0.0022693201933106 0.0269478809172576 -0.0214833378208369 0.0097454150365372 -0.0578273104814995 -0.0075398868634089 0.0380536054614710 0.0232204545103823 0.1309153766506821 0.0800958717114023 0.0068327881795799 0.0018090914507693 0.0591263559648594 -0.0319060002958505 0.0112630931234503 0.0308623036144293 0.0341505226056608 -0.0092794378004791 -0.0385608365791594 0.0303138010695237 0.0055162098490178 0.0152357016191418 0.0288915934107046 -0.0638214311557338 -0.0398819712404524 -0.0093022871352791 -0.0109753148833884 -0.0076200015955658 -0.0777534218244577 -0.0150183537271243 0.0581798487406029 -0.0034019538055817 0.0297275395063336 0.0385021380711379 -0.0032449666220494 -0.0547312404469318 0.0356040525457217 -0.0349919662828338 -0.0007868315191714 0.0245048891056382 0.0442655425349163 -0.0263354469715084 0.0101538510003173 -0.0366973176148470 0.0205728093105234 0.0355739357934633 0.0000098221715168 -0.0085652964487632 0.0460168078501127 0.0515765073161191 -0.0775335992557213 0.0413049454648951 0.0278859664777199 -0.0019340364767867 0.0430705465159450 -0.0803541034474600 -0.0458775368487165 0.0890177794647677 -0.0392443251413494 -0.0494947403694405 -0.0621563219364252 0.0354151994317244 0.0079336192757832 0.0123940646023236 -0.0050597322732132 0.0442512318535297 0.0297597279380879 -0.0179368061971876 0.0095635523446424 0.0058237653608175 -0.0414891988241871 0.0074499143894946 0.0157068889806783 0.0034544767980678 -0.0133539551640924 -0.0240263653232746 0.0249448470840101 0.0020908498120543 0.0438772000188743 0.0329478770321396 -0.0193019791947770 0.0009811006546373 0.0182172387909972 0.0178742174402067 -0.0029180326737114 -0.0265821520173251 0.0188289034958770 0.0420333540333531 0.0272348194102589 -0.0125499519701511 -0.0033889364093867 -0.0070925467031162 -0.0183753247686470 -0.0009347310016572 0.0010961244555389 0.0205839131383390 0.0109064638362656 -0.0155053002185753 -0.0304326897466993 -0.0706313723557531 -0.0058426871838425 0.0171444194460356 0.0047300593103223 0.0252761711479608 0.0843940770499420 0.0374921606336557 -0.0512295374043983 -0.0365602045033098 0.0252403126966733 0.0102513751486630 -0.0330361381695235 -0.0102353083346066 0.0365859872596274 0.0092920278585401 0.0346850555883051 0.0221063133356410 0.0507187296091897 -0.0228802775912381 0.0285625814383311 -0.0147167393894091 0.0476336713895958 0.0161227557625212 0.0067544042537963 -0.0319571016711075 -0.0100689482254894 -0.0354038575605645 0.0712410117424255 0.0245544112711856 0.0526576192110771 -0.0274589192382278 0.0047413194634029 0.0522989661661425 -0.0588761670003258 -0.0875264126610523 0.0712291036701461 0.0326898008816375 0.0225621399741599 0.0341756020494174 -0.0297749865048063 -0.0959678131632031 -0.0371643259628508 -0.0196749102836561 -0.0024006745628978 0.0321643549839874 0.0918765103310244 -0.0137527559099784 -0.0096411441303542 0.0210585284487979 -0.0595004564534463 -0.0432086628091322 0.0164614806034381 0.0083656169662189 0.0031280200383942 -0.0022933080615557 0.0398982985595121 -0.0139244396735352 0.0212890261248303 0.0463646727565499 -0.0120450661264966 0.0069482060609287 0.0439906577949298 -0.0813852677336310 -0.0655819822658061 0.0575308742705365 0.0747101527757444 -0.0286601947823529 0.0451231936717021 -0.0486467122616118 -0.0448591507927264 -0.0183135757507737 0.0953840612913146 0.0379231024652789 0.0745550760027793 0.0351366604061252 0.0540112147007209 -0.0278682079951930 -0.0374243475264594 -0.0832927363786352 -0.1014073048726833 0.0457058459439620 -0.0523159504222250 -0.0616138745645383 0.0289155469959816 0.0260718742775111 0.0296387335253730 -0.0526162853387043 0.0573481172890626 0.0083877166433616 0.0347552222514485 0.0042465936926820 -0.0520990885063487 -0.0133337758145997 -0.0692385431277879 0.0127370359135964 0.0197559054612675 0.0028598970895968 0.0522575961788688 0.0566585468169223 0.0427725844133522 0.0221348784809766 0.0013434966133525 0.0068823438448372 0.0289054260516225 -0.0237262234244173 0.0141002221376676 -0.0394834353770546 -0.0045957949313118 -0.0379568764148597 -0.0613061824593213 0.0373760375860126 0.0034840814206721 -0.0898873264890925 0.0435482996324975 -0.0107345854217023 0.0225044073149296 -0.0293563094337322 0.0287581390318089 -0.0153590667960281 0.0225755581271920 0.0338469194417679 0.0448467318469581 -0.0322243062603253 0.0268598426047908 -0.0246883878070912 0.0584590432381639 -0.0110289683304631 -0.0222155492834911 0.0303831360001561 0.0504791964152551 -0.0065341238869842 -0.0000338922872620 0.0157572283762174 0.0286710604852168 0.0045957905818364 -0.0354557326345149 -0.0360964948523627 0.0498471015141847 0.0073018993481325 0.0311138190473964 -0.0052459743974984 0.0606216220065700 0.0391818516483785 -0.0539870921336190 0.0226106422691554 0.0297380677808114 -0.0170279662608181 -0.0117285577293161 -0.0138922310261305 0.0410098720320641 0.0075685357556199 -0.0603438402228271 -0.0002353529876048 -0.0023199020038027 0.0191357224518048 -0.0181137754462883 0.0126595294398190 0.0518824377010358 -0.0076123180165128 0.0172996991461735 -0.0134861933518173 0.0123507903395305 -0.0074358977738704 0.0504902453592469 0.0290446498053191 -0.0377410275290383 -0.0147536814647578 0.0246020733145858 0.0233621152370125 -0.0224180931848901 -0.0006845759090279 0.0478976291421506 -0.0080605684814387 -0.0258071965684764 0.0077282324251941 -0.0067801537594836 0.0091498104747642 0.0367936768518908 -0.0005229722304729 0.0228104970627937 0.0437574338105426 -0.0101241949160346 0.0134355131850105 -0.0076207971928179 0.0388034773132632 0.0150640471005799 0.0123878982178620 -0.0139696464033662 0.0163839256458543 -0.0660969007226779 -0.0104260224574603 -0.0885704514228934 -0.0172877518988289 -0.0233294797437277 -0.0337120379055630 0.0013253750592209 0.0175997792401169 -0.0200674391183537 -0.0301641123933112 -0.0657852249046137 0.0622308213923973 -0.0412975734659428 0.0540703897632830 -0.0032162550187848 0.0417738958568702 0.0762044244839501 -0.0930918553044553 -0.0425630778195576 -0.0133563617649007 -0.0138980177820333 -0.0108702148126393 -0.0208720837938025 0.0673239312768709 -0.0980077515317650 0.0257666778314468 0.0250335440049612 0.0117859171123118 0.0606239484844573 0.0089130747672874 -0.0238415731809771 0.0244616093394761 -0.0607179625991750 0.0385013795958392 0.0481707639591688 0.0450534019293378 0.0618720716446977 0.0468307312650946 0.0500789631590361 0.0001016622572401 0.0165580328878697 -0.0052762546827917 0.0087446912961256 0.0185588853284602 0.0226258742065111 0.0222177664123128 -0.0135486482404785 -0.0156780213004866 -0.0089703966102171 0.0083650323388711 0.0990124698274190 -0.0448025859480380 0.0342388278142796 0.0124528472090762 -0.0290450411778672 0.0066702003735565 -0.0541704347293769 -0.0133895564934564 -0.0438224132596203 0.0078803603232725 0.0721532546514537 -0.0179187652072243 -0.0381512568947198 -0.0177578250790920 -0.0096320647802663 0.0382728843222625 0.0079034600063822 0.0322460621421944 -0.0044141740253387 0.0379724401485209 0.0425678409694916 -0.0223537814370746 0.0311985810705182 0.0089179025885990 0.0095826317951527 0.0090002963626486 0.0015328816447117 0.0099617087821834 -0.0342970991824927 -0.0123570919268618 -0.0203210062148175 -0.0319891450665310 -0.0059294776886978 0.0039824016462747 -0.0204661186850732 0.0233696748285342 0.0106344798914424 -0.0098717711021564 -0.0067309388493898 -0.0202463951016506 -0.0007718093707966 -0.0147017321425414 0.0050185208858422 -0.0306898836042772 0.0319914068885448 -0.0111784539912938 -0.0145461629130503 -0.0351146731965885 -0.0133852786463940 -0.0076130377263805 0.0129190812591311 0.0019657035581000 -0.0127181047785613 -0.0190837607777568 -0.0007928911406511 -0.0027582193832425 -0.0070585630570713 -0.0019591150751869 0.0079292602112489 0.0052959504058484 -0.0420275360452690 0.0037780270205275 0.0276163614825552 0.0142216371700507 -0.0029895323714568 -0.0137783059429713 0.0157529848092121 0.0235640811444588 -0.0111250955260906 0.0189985373533662 -0.0112883621424745 0.0006510907763339 0.0107259922941847 -0.0223262694494439 -0.0536255805550618 0.0182836430879102 0.0305906534495913 0.0156959199134052 -0.0211182992702324 -0.0231048543540978 0.0051753600713316 -0.0002253487129745 0.0381504487961593 0.0146265387055115 -0.0254966588761456 -0.0136598351272784 0.0224486692345766 0.0024861329118953 -0.0027167368397631 -0.0396378361408617 -0.0024961006272624 0.0208490085792790 -0.0064226877214817 0.0174816315373229 -0.0018837503859454 -0.0213915948546663 -0.0126761362056795 -0.0129889409122986 -0.0222342824027317 -0.0167248546016621 -0.0136114755825286 -0.0083515340233198 -0.0409585534697603 -0.0007221796658328 0.0059963373856594 -0.0028301229004081 0.0513519887117918 -0.0058398037210036 -0.0005768086485922 -0.0180776722571696 0.0224904876808772 0.0002038517011985 0.0108637518367725 -0.0023808754561128 -0.0120258231125791 0.0171590963126641 0.0025225264694038 -0.0038905554848107 0.0521384894927439 0.0026900057149176 0.0090335371823752 0.0401773502758784 0.0117885095929063 -0.0343210815525573 -0.0293218424677156 0.0040459812903003 0.0413300941148008 0.0286493309658826 0.0215586544317936 0.0011455037291662 0.0016242557522496 0.0279348347479727 0.0112113934414615 0.0204929862324820 0.0402443928692996 0.0317601033574571 0.0033130638110319 -0.0088052297482324 -0.0056781906485575 -0.0582932744427458 -0.0269614645749828 -0.0154423042759165 -0.0066296819011888 -0.0193740291636762 -0.0013514140752203 0.0009890672225959 0.0251747344166674 0.0012339946807836 -0.0190200891209542 -0.0277476970034145 0.0051626284467407 0.0017302835390943 -0.0062806727299908 -0.0138590896489595 -0.0088098332765690 0.0087555890446819 0.0160363119764960 0.0100555385394655 -0.0021295694468767 0.0191920634840459 0.0651944325394122 0.0051440016735805 -0.0110085243179439 -0.0061975024007857 -0.0307001614905084 0.0028515072217638 0.0417719100067102 0.0021750481428007 0.0104368199634332 -0.0165565768467043 0.0052665765699653 0.0288056302348051 -0.0026007170278382 -0.0167521448165519 0.0153501603036877 -0.0213575462010338 0.0270859323816577 0.0043400108047903 0.0082638426120992 -0.0206810680483070 0.0119913667863684 -0.0128355980359810 -0.0154620764057441 -0.0026259622787291 -0.0057933834557683 -0.0033659314651020 -0.0006945327355626 0.0172115420080780 -0.0096151537266739 0.0067792242977973 0.0000000591880958 0.0330038020843366 0.0175613186789491 -0.0052214526136553 0.0186647914957509 0.0089447953509269 0.0079042392791637 0.0070227530093120 0.0138215113830850 0.0122416948661739 0.0030823244620019 -0.0250132022614402 0.0177002353220157 0.0110723733201573 0.0050191986854736 0.0282161508398346 -0.0088336755519885 -0.0019184903939824 0.0068971456823937 -0.0031482642863911 0.0102926148503556 0.0246415026366267 -0.0163288636301909 0.0361652662750199 0.0125376454373541 -0.0096910038979154 -0.0396620548977660 0.0143522007309503 -0.0209292147861696 0.0260995166348102 0.0147937112572089 -0.0082390544535519 -0.0034752286959139 -0.0041534981895093 -0.0114150503739451 -0.0130607516250286 -0.0101010406733379 -0.0031277422387837 -0.0261909554712219 0.0182261555591086 0.0098360948023218 -0.0183668988513067 0.0249587674780427 -0.0144385464212403 -0.0264700895735297 -0.0018925407704134 -0.0055179579493554 -0.0001570514043585 0.0030936782461912 0.0297645508069761 0.0064603619536918 0.0214298136160254 -0.0141830852136150 -0.0082128758268017 -0.0005916104007754 0.0144412044342928 -0.0160779841937178 -0.0454228232447098 0.0011734744130857 -0.0014678389623193 0.0373720944908355 0.0372813369207333 -0.0292513332459595 0.0316873625778436 0.0011891791175231 0.0027944085587627 0.0154846511004625 0.0208519365846490 0.0224809858447476 -0.0103374519880503 0.0150661483067304 0.0323218326385534 -0.0085793011194575 -0.0063234438055897 0.0046417777790293 0.0063809083037149 0.0377207554097876 -0.0192920172471639 -0.0094009532471459 0.0059560198718917 -0.0020098459645606 -0.0096876431943038 -0.0487653144768597 0.0208477317514181 -0.0340876604666900 0.0431747215706089 0.0392743378992405 0.0139181807361215 0.0403310420988687 -0.0053026955186718 -0.0203677696654915 -0.0011727853417194 0.0212323865443779 0.0111593625161902 -0.0132520844858020 0.0152517442150060 -0.0138804580488988 -0.0146569924105166 -0.0028787560683832 0.0213260725317664 -0.0039387895961345 0.0289474277528405 0.0035043562441001 -0.0226752674616005 0.0070745174894200 0.0337561764815880 -0.0041876710197235 0.0027674797740032 0.0424405043677560 0.0038964095506771 0.0302803897611527 -0.0074318742954640 -0.0098476163820921 -0.0155075939236921 0.0240494791103252 -0.0004085759855363 -0.0196510427524728 -0.0156182385285945 0.0049200577199029 0.0118999799377575 0.0093926499758416 -0.0082329093412050 0.0203559214781057 0.0022528195827488 0.0022507274600699 0.0037256497513124 0.0246249052779422 -0.0111332715076783 -0.0191555991298697 0.0077462213638427 -0.0022381557451866 -0.0000600337277915 -0.0025111577927722 0.0075946171975737 0.0080250960770243 -0.0257083859990239 0.0048558749756513 0.0016342772783673 0.0043913683655046 0.0084397414539263 0.0067869794243400 0.0142045442965130 0.0144115151251600 -0.0093742656481064 -0.0110099769840819 -0.0002153623208937 0.0132061444397718 -0.0064220110542333 0.0001890906556298 0.0010335377003900 0.0155928204049849 -0.0042037738268215 0.0024171713201924 -0.0026518320927709 0.0182161046038987 -0.0008995674923769 0.0151924562965000 -0.0079935324562715 0.0032700042261461 0.0050704035988679 0.0089356828309487 -0.0329728362394519 0.0116407099109381 0.0241210958065215 0.0497603779038235 0.0051774994834898 0.0036654369532003 -0.0053614600479960 0.0383162228833211 0.0166174604140689 -0.0178138382714964 -0.0115738182883874 0.0009272918161288 0.0026239016991175 -0.0068849240961980 0.0176141832371294 0.0099920185286185 0.0254438361526175 -0.0258789529161917 0.0085053103595681 -0.0227515408073940 0.0211266241592246 -0.0330659679803110 -0.0028436242088314 0.0021134475838223 0.0115135151477720 0.0147533476618641 -0.0062569077830194 0.0726664610436290 -0.1155368761016390 0.0698716391313281 0.0345131770859928 -0.0026422490978050 -0.0203598598658178 -0.1730342342145892 -0.0795973521381479 0.0462649483756329 -0.0192375048231288 0.0165569904582517 -0.1256799908675483 0.0728988465633520 -0.0276723313094663 -0.0234919582278314 0.0565255806738008 -0.0729233797118459 -0.1658270919998330 -0.0369941903062930 0.0402203084272321 -0.0594595256600048 0.0831232437318878 -0.0437675507940170 0.0006852112714017 -0.0516794600953884 0.0426264217962511 0.1585101713974120 -0.0040123351261355 0.1112617245044252 -0.0565029602513844 0.0256056584732055 0.0006406795156988 -0.0349465295233019 -0.0124013880077703 0.0877275992188009 -0.0044563412243755 0.0772788569248257 -0.0146033107578570 -0.0443798501875291 0.0294755385298374 0.1205149283184857 0.0446107654237279 0.0374908545423198 0.0871730704580254 0.0864531663092633 -0.0790666951230839 0.0653134699605250 0.0408236918637581 0.0727325588378159 -0.0032739277496936 -0.0470244071053351 0.0147349899254475 0.0101778242982246 -0.0099023508781267 0.0433131537029152 0.0962165009942751 0.0357298549030227 0.0591864118715570 0.0718965647922523 0.0446257273623197 -0.0123160539113579 -0.0570073706920927 -0.1202885902041969 -0.0568190814006155 -0.0630873774967863 -0.0077774857086621 -0.0503338358053655 -0.0680089687797591 0.0282061181333998 0.0559688021029176 0.0669576609855646 -0.0448941583834812 0.0116045265236437 -0.0215379228702487 -0.0002685878048687 -0.0495502364559496 0.0099461954359249 -0.0176298608019724 0.0085453293579062 0.0051060493849000 0.0169448000448035 0.0409036701389875 0.0520524077662184 0.0266577511175082 -0.1251037850505700 -0.0798572400768911 -0.0285504392173452 -0.0317617704749441 0.1269418612266227 -0.0217967248955597 0.0321082787532390 -0.0168631937251177 0.0493175624627580 -0.0143806157603221 -0.0066031207891686 0.0894982887365428 -0.0898830182406488 -0.0316979944716130 -0.0557833105452975 -0.0469730682727411 0.0275111361952368 -0.0586125299071136 0.0094921755497973 -0.0236647514668966 0.0836846646429431 0.0070497463327811 0.0458146435377897 0.0196648053610338 0.0133517054989286 0.0410125700381861 0.0395820329842834 0.0711342152015698 0.0217654078875379 0.0150954560850973 -0.0008367689513381 -0.0233559951027169 0.0078182312486988 -0.0178032737374820 -0.0352841349224278 -0.0480003764466472 0.1210028844941483 0.0200871746155178 0.0039485872068960 -0.1331978813341662 0.0119845956023574 0.0059197324059706 -0.0748173392212157 0.0537870764958148 -0.0918610872897975 -0.0426723403896500 -0.0241296901029336 -0.0473604998920521 -0.0213604236001603 0.0075680987503539 -0.0787221469944012 0.0569868704657441 0.0216330868909553 0.0160781541400247 -0.0981371433562323 0.0653801382260973 -0.0910040934018453 0.0596785027098165 0.0100028062431730 -0.0443215706423671 -0.0319838915047714 -0.0228951193380651 -0.0457103078879467 -0.0060421759849299 0.0446202052831388 -0.0045283820404719 0.0404968419058606 -0.0552599519328123 -0.0139330180723946 -0.1542532050220344 0.0875939423683289 -0.0535833804801413 -0.0523656075434926 0.0216518815522045 -0.0073418608319638 0.0270333365317381 -0.0679997233840944 0.0179396708295702 0.0362493441994460 0.0998815864765977 0.0109861699699786 0.0617843845945680 -0.0501931882040073 -0.0236745119081285 0.0846848024666572 -0.1426961797017224 0.0289041079847571 -0.0740101264436579 -0.0463538400158416 0.1102261976408703 -0.1908485580217462 0.0338376206768844 0.0050457441171316 0.0708684189874277 -0.0482191878074998 0.1305058284917713 0.0004536898482010 0.1492541109412477 -0.0988812626773325 0.0156863353643310 -0.0149162633769464 -0.0071763545424131 0.0499078335909511 -0.0130112377797250 -0.0037410221494385 -0.0812576848111092 -0.0190848747130225 0.0256719358564671 0.0183418816102667 -0.0074338579403738 -0.0394936244709546 0.0607821326525113 -0.0377112611759962 0.0002503729276504 0.1827944933399784 -0.0134997402504620 0.0719082677451953 -0.0257528207510871 -0.0463847687291274 0.0209439874756248 0.0795803555826643 0.0758396915156593 -0.0380054275746471 0.0229614759162339 0.0782215017558051 -0.0097291888659010 -0.0933117045647593 0.0119410462877674 -0.0401518489920351 -0.0482876334213964 0.0327675001332305 -0.0214263179883190 -0.0247050399816774 0.0372781907790456 -0.0813295539274777 -0.0030789926840058 0.0538131280396246 -0.0726932427166426 0.0664280181981967 -0.0183908546096325 0.0058829097031023 -0.1523610507369576 -0.0479630581907606 0.0025025087103873 0.0459297392012866 -0.0092928908690999 -0.0003417724400376 0.0893565918171886 0.0353086065493840 -0.0859299305416558 -0.0379752757069220 -0.0074013822879854 0.0425418240760498 -0.0029133598853173 -0.0131169788005539 -0.0345764711614039 -0.0132008182998095 -0.0777697045351994 0.0341894627569484 -0.0452648326808151 -0.0926370673425271 -0.1081593873113997 -0.0298232316601336 0.0270745386508995 -0.0057754574513528 -0.0877995540160440 0.0695948079641726 -0.0202588797021473 0.0024040721121702 -0.0017339695866068 0.0314677214592584 0.0041888489716548 0.0179896676025620 0.0277446071747875 0.0161358225259866 -0.0370008907716060 -0.0149063473899943 0.0042274872760756 0.0115776210163942 -0.0358885795248583 0.0187742091404158 -0.0653362979910463 0.0028205327093358 -0.0250362564180168 0.0099976846112865 0.0650095916399265 0.0029909203728749 0.0663658320519402 -0.0175418005899646 0.0185509832582745 -0.0616816944672003 -0.1373004551524303 0.0875227758418493 -0.0751532256919731 -0.0079724017139709 0.0161620197469610 0.0315748087839740 -0.0222726160192291 -0.0012177597178263 -0.0442708636989499 -0.0889643932872416 0.0127412064973802 0.0260863582588564 -0.0180425739586777 -0.0210228551593534 0.0181434045135281 0.0077612637806585 0.0019866742136363 0.0117233763072384 0.0170394117744397 0.0141383245808099 0.0309071974263073 0.0626456371065575 0.0398936538413996 0.0826735500220387 0.0125281641587041 0.0185720332017956 -0.0015075990544855 0.0095161690482156 -0.0118312579752664 0.0126593651416460 -0.0163383505372727 -0.0114101472127033 0.0107396201938191 0.0143611433272217 -0.0130138061986174 -0.0038323742197823 0.0087760711220120 0.0128655448851766 0.0129631137951042 0.0069699079366951 0.0020790343025299 -0.0058095659672192 0.0137485587424588 -0.0000444415506082 0.0044062722157172 -0.0029710291655646 0.0069158439853837 -0.0036391286715386 0.0075619157291451 0.0069402717744102 -0.0074617783785389 0.0000224591760421 0.0101318437201392 -0.0002296995417571 0.0029341740927282 0.0031938786348332 -0.0008882728164942 0.0092114827604637 -0.0023012999829595 -0.0061542061216681 -0.0051816880837096 0.0028352232226436 -0.0134596621223281 -0.0063357404499398 -0.0002605187317909 -0.0002201359119913 0.0019841823643292 -0.0047537096072453 0.0068051214717273 0.0014185862007257 -0.0100143335971402 0.0035396994593770 -0.0105633162763820 0.0056124248929151 -0.0054506183674154 -0.0049920380988374 0.0124170996869736 0.0141400132631881 0.0068948445394101 -0.0051518384656297 -0.0009000958783896 0.0144680958357007 0.0093842945898826 0.0079853878355826 0.0008591935085322 0.0005592434192110 0.0007898733650802 -0.0024336918406880 -0.0059643613932380 0.0070480134620075 0.0036349975190552 -0.0026721551283930 0.0113008455764953 -0.0015883210058965 -0.0019656712509060 -0.0051312518283319 -0.0031542846532928 0.0009704323232812 0.0053099621918084 0.0081105012465813 0.0009916703173931 0.0060645611899052 0.0015048998848777 -0.0082256743813024 0.0050967891441534 0.0004882008969182 0.0046170142637502 -0.0026893683133956 -0.0037911732666557 0.0033113692502395 0.0011245732866599 0.0006630956169959 -0.0067855402665713 0.0087631045625829 -0.0004551855971696 0.0033391757939613 -0.0011487838526971 -0.0018384452636333 0.0030262943849591 0.0088785701096915 0.0067177415828613 0.0026598315519155 -0.0005201058820364 -0.0010020643809372 0.0068730876507332 0.0075466685350170 0.0061553789089162 0.0083547414530824 -0.0013008481972410 -0.0153893273613104 -0.0030209820567427 0.0025875631524026 0.0018206332021410 0.0151322314414853 -0.0039699967392092 0.0039481789036798 -0.0077049433473662 0.0010462327571472 -0.0017089462206690 -0.0044977342444587 -0.0019109178989894 0.0023268646605930 -0.0097118658099518 0.0044253054684354 -0.0067564766276116 -0.0076126732035779 -0.0018837734954258 -0.0014682758221870 0.0022874592606697 0.0030811608126218 -0.0047324498429423 0.0083675947244970 -0.0097521245542034 0.0028197596111896 -0.0088209699539367 0.0038606396111539 0.0114497118010999 -0.0027400099842339 -0.0030526727916924 -0.0121748029757250 0.0028937436519589 -0.0009114830352785 0.0076812609288464 0.0132806580020438 0.0038601056131459 0.0098461002552958 -0.0082365962854348 0.0100172989457868 0.0138145931381792 0.0161499447437714 -0.0021257136327326 -0.0087408212365359 0.0028448801930459 0.0029311563195477 0.0040064530447073 0.0048356919496694 -0.0073504071309254 -0.0000820382582929 -0.0112400204456359 0.0006121216784271 0.0087129457602463 -0.0068509858726000 0.0069675385188979 -0.0112891460741332 0.0095791059699970 0.0052856460797579 -0.0035496126834967 -0.0051299543727399 0.0104969850092576 0.0036246480760343 0.0021264500506634 -0.0005796702257945 0.0037135371157754 -0.0043962398202218 0.0003722047479531 -0.0005882865981531 0.0062459417190896 0.0012131108944854 -0.0048627374139859 0.0089766843334511 -0.0041231510445889 -0.0127485765113362 -0.0039557006402538 0.0027655750278801 0.0066552132162875 -0.0132886194706626 0.0013940126472895 -0.0048412654206935 -0.0075451393073846 -0.0081665006436922 -0.0107593172610897 0.0027575507194286 -0.0054311310015939 -0.0076366565035369 0.0053259133512700 -0.0025365303816494 -0.0024550613050241 0.0113415433899282 0.0013919142652211 -0.0095235333128384 0.0180588778690369 0.0011827416839637 0.0066392672685154 0.0092332158022334 -0.0091819906648871 -0.0007204133528575 -0.0090249055930505 -0.0114118947044420 0.0016030731070906 0.0001186960462033 -0.0040961576931205 0.0036320689090387 0.0094895463001879 0.0078607176442780 -0.0058445856716139 -0.0040128368888169 0.0121996753201135 -0.0099843234402287 0.0044715599337627 -0.0060741886588017 0.0098128422387165 -0.0145339807479674 0.0073443340783881 0.0037213606364538 0.0057930885288300 0.0033408579532293 0.0085390956328328 -0.0093987948324717 0.0063511967982539 0.0011922797695226 0.0001571678509755 -0.0008015835294566 -0.0022269824732123 0.0003719850599417 0.0020170683092104 -0.0019366901921881 -0.0084940004592920 0.0028893212988576 -0.0059370753430089 0.0064444510897467 -0.0057691031114379 -0.0110290614407133 0.0066244671565461 0.0094689154226010 -0.0106917028491864 0.0052648062406138 -0.0083828595725601 0.0091290963051877 0.0002624704649122 0.0048426727351513 0.0096071909914396 0.0051349468245445 0.0022984083921073 -0.0000649179444339 0.0030509618977803 -0.0062304635277812 0.0029088702261674 -0.0098569668073638 0.0041556478453915 -0.0125708170378230 0.0124980013599582 0.0146000414331351 -0.0191838135996848 -0.0139702560352198 0.0116336761427027 0.0121501657489304 -0.0073913340898172 0.0083542760106837 0.0012507132873318 -0.0029252521674230 0.0009440611973039 -0.0007316105749903 0.0145713780182269 -0.0142614458320129 -0.0031018928030883 0.0049339711938176 0.0115883431644177 -0.0032695468611723 -0.0037642026956441 0.0125412071471972 -0.0173858298998388 0.0123777460356007 0.0097337608965597 0.0046524880403031 0.0079185158410842 -0.0019516775713045 0.0050169638969607 -0.0033949904480768 0.0007432358725128 0.0041207975683685 0.0004323100365899 -0.0082427926557350 0.0023601936597783 0.0086910607864709 -0.0136332114794333 -0.0133079748420717 -0.0087162383389632 0.0051547067478969 0.0166476752617041 -0.0145716809292710 -0.0050144981661259 0.0035924893497762 -0.0061715764035262 -0.0087269119691411 -0.0069559469640509 0.0507563625643612 -0.0152907208578311 0.0231146639109042 0.0206718807745703 0.1095855484684047 0.0409768579719328 -0.0852116650176651 -0.0085713293723954 -0.0062270283946311 0.0701695871100503 -0.1289814772351026 0.0303981244174963 0.1035700859662184 0.0347799494175556 0.0401678352164353 0.1225514853538113 0.0419503008150017 -0.1250660850443931 -0.0003808049306420 -0.0294574998718576 -0.0786777469998402 -0.0782431175429042 -0.0104939052390033 