solver_type L2R_L2LOSS_SVC_DUAL
nr_class 2
label 1 -1
nr_feature 76800
bias -1.0000000000000000
w
0.1822519895447149 -0.2514353731432058 -0.1706672833895063 0.3126422956644517 0.6275885109934406 -0.0416373159086083 -0.0435639654816884 -0.7475600675137684 0.4041210422416930 -0.0987937223597297 0.0772038367491035 0.4710661003586992 0.4661368817115280 0.1549122527195725 -0.1125333774420653 0.1716610888242404 0.0892945736807254 -0.0703039580519204 0.0712185970510859 -0.0588711632333876 -0.0818200057476005 -0.1629833822471053 -0.2002615403391168 -0.0822462885783736 -0.2455297739271226 0.4098507582800537 -0.1123537028021535 0.0852173465320494 -0.2178090294556324 -0.2905332244845448 0.0103467594105575 0.2428040054341855 0.2190825338081971 0.2938475295946513 -0.0317448725506468 0.1753969984292703 -0.0179855163560634 -0.1689385791902956 -0.0927117826113950 -0.1109099968583130 -0.1702723226003541 0.1172197273762896 -0.0461397184943892 0.1352509173749377 -0.0179368201978853 -0.1331604019610339 -0.3325625509020492 -0.1692602732387959 0.1757337336675336 0.0016347651675282 -0.2242259093030522 -0.1839457693210793 -0.1339129391057524 -0.1795324410120880 0.2153663603151364 0.0217457419250914 0.1604260045643756 -0.0216907286076725 -0.1936736285484078 0.2959439195647565 -0.0229452030502954 -0.1248966177340913 -0.0292180043944783 -0.0484244237261177 0.0664575405425463 0.0309706137015489 0.0663651165271145 0.0514477010910202 -0.0844051824772882 -0.0288678152133208 -0.1592577227962207 -0.0201990181797255 0.0838272455512551 0.0821034842063749 0.0001403518877100 -0.0605821674031533 0.0161038344460048 -0.2310115482795157 0.0131508497217987 0.0325004165213910 -0.0201108393958032 -0.1083672379822950 -0.2083580485391976 -0.2309278053167847 -0.0602226839367372 0.1933345260422434 -0.0092495694094212 -0.0892449515889297 -0.0445947575682173 0.0495428172052015 -0.0478291293324706 0.0475308457730946 0.1060032511311867 -0.0639672890568943 0.0115028758076771 0.0439142020465272 -0.1873778048323597 -0.0284348836598182 0.0162293589525257 -0.1158075962584896 0.0728497018424411 0.0135615867155415 0.0671351548858741 -0.0017016862203325 -0.0288417882640218 0.2237052078986313 0.1459321543562810 0.0608295752788384 0.0778250115271057 -0.0790164176010194 -0.3735981525068109 0.0175811937490518 0.0674506847163401 0.0433595114585504 -0.0380897221682771 -0.0500426990532826 -0.0636407114591763 -0.1869999249815018 -0.1380954509781848 0.1728290612356634 0.1754201695267583 0.0543683684663056 0.0462658673955215 -0.0918289864030416 -0.0325994680414284 0.0404825872473532 0.1520352955278582 -0.0011975810334663 0.1182400883246119 -0.0036348196359356 -0.1128446893843160 -0.2651600653157162 0.2481481261457316 0.1160391748137918 -0.0314152842399436 0.0348770805782719 0.0727466270892316 -0.1124197166385300 0.0219682361298387 0.1333873051717305 0.0322357157605904 -0.0686441173959616 -0.0225680779255011 0.1050917866089500 -0.0062774577302157 0.0312984779186160 -0.0960468236931217 -0.0101041425295482 -0.0837389817566077 0.0633247997958574 0.0745027508615408 -0.0185600481522426 0.0320957430881287 0.0482176518011814 0.0589997361102585 0.1451496001652918 -0.0258413793370924 -0.0135005280943486 -0.0823390748884901 -0.1319974421194046 0.0112583754612283 -0.1733163012750787 -0.0668711021441097 -0.0813957173763207 -0.2092853557454785 -0.0886108940217677 0.0853298287334059 0.3134481461469633 0.0875860003805071 -0.1276402663754061 0.0904549862836464 0.0276330113366534 0.2663455320778746 0.0587707087089911 -0.1087954937650847 0.0111309327167039 -0.0624070275898778 -0.2027048133739459 0.0251436081465542 -0.0743440638226348 0.0022641412528239 -0.0410526070016279 0.0600826264190998 0.0261383064550562 0.2372853474917139 0.0487217624778299 -0.1923688267051847 -0.2518697958337949 0.0884067935991869 0.1409445109417002 0.1238507130150423 0.1412521495512762 0.0617311643868741 0.0778884891969965 0.1564981438293526 -0.0898540097631522 0.1302363092374044 -0.1208306817978551 0.1623739764684961 -0.1495031236329955 0.2942464821807401 0.0288257509246251 0.0096175191852319 0.0018273017975183 0.2760348035457134 0.1955580844558252 0.1095663291829321 0.0907268482614633 0.0995943182280198 0.1334366023620621 0.0537250472693208 -0.0761920770885065 -0.0244873119612723 -0.0978803335680610 0.1363552634012558 -0.0764920259790970 0.0541476136142673 -0.0143009594003597 -0.0055535335617578 -0.0132386064688749 -0.1314080689502015 0.0526647244181291 -0.1090554311352835 -0.0672861158113437 0.2368573999454826 -0.0788858254735880 -0.0235527273977469 -0.0705278911059014 -0.0284437821504982 -0.0465967672208991 0.0592174661455810 -0.0575890562680488 -0.0720656108276937 0.0463992860183710 0.0098790934829596 -0.0286328638170678 0.0579064213540712 0.0367468726147651 0.0651952045202656 -0.0511235172656296 0.0343340557553329 -0.1740703381489777 -0.0387002677223599 -0.1506901606377613 -0.0467307309100031 0.1566178035401675 -0.0456515665881585 0.1805466997219968 -0.0159651472460206 -0.1112018632258273 -0.0467615209292110 0.0686495540587106 0.1909970405865385 0.2483479893495883 -0.0113948647481749 -0.2266760858049646 -0.0972900459073480 -0.0337957895260622 0.0762458628198127 -0.0369135369281229 -0.0691444773597819 -0.0743950522640469 0.0815935836674448 -0.0281960339621425 0.2032969688260922 -0.0069889651851324 -0.1509043986542319 0.0797102911936645 -0.1155589581389654 0.0423926531952447 0.1362560837652040 -0.1699689179850619 0.0136708361760642 -0.0352603278906987 -0.1435441024736435 0.1038949496576697 -0.0072438110133589 -0.0800367603032094 -0.0819817703813912 0.0015860036264240 0.0246589803182589 -0.1348312515411347 0.0396682650715966 0.0375144447969033 0.0413937111424491 0.0451592847046308 0.1304268832454828 0.1580733699516443 0.0536037640022373 0.0126785457294309 0.0205610447699416 0.1224344536618891 -0.1447682331401128 -0.0865114700589124 -0.0600865748238503 0.0561211684189434 0.0825346621338528 -0.0059475070349963 -0.0670047020183297 0.0721770614651034 -0.0003670610673664 0.0000123899228001 -0.0019078378029198 0.0001329434679493 0.0017602231361996 0.0000379584872578 0.0036809154500155 0.0025576738139194 -0.0000314174925578 -0.0006024083086642 -0.0022260461097315 0.0009034038410930 0.0003868252641374 -0.0022316179181629 0.0015457456258717 0.0010920808663096 0.0044880611677515 -0.0004781982430319 -0.0027364561543084 0.0025901615302557 -0.0054175537395330 0.0028957120900726 0.0011648709221274 0.0005141246252568 -0.0026307497015550 0.0031315822345908 -0.0032796805460541 0.0032699106880416 0.0004225659881666 0.0029187866878105 0.0014383357947428 0.0035587256942174 0.0017198315137193 -0.0019429244661984 0.0002808533690288 -0.0014632015769181 -0.0023211785282063 0.0018134972721352 -0.0022440642123290 -0.0005861708796163 -0.0012092526480594 0.0043307923910673 0.0039591166807478 -0.0000693966006584 0.0038622258183019 -0.0028803282135582 -0.0029790667398037 -0.0037748263117574 0.0036625095643294 -0.0043883721883887 -0.0033033056389963 -0.0033685203296450 0.0016147221922809 -0.0009153243786845 -0.0040606878223378 0.0009810983270534 0.0007347284830449 0.0029760453961950 0.0032622970963566 -0.0003002639076542 -0.0040319260978898 0.0026350700470344 -0.0024085052516710 -0.0001694949806006 -0.0015032730581442 0.0015057959299764 -0.0036860552593182 0.0041863489001184 -0.0027699415349902 -0.0036699522405165 -0.0030639415379544 -0.0030784203507060 0.0013242197012919 0.0034696603991073 0.0028514383284880 -0.0001751826321601 -0.0000270867782409 0.0025316132183489 -0.0001441818049600 -0.0027057548215727 0.0035362546374449 0.0023970934832282 -0.0000966137924482 0.0022004274900887 -0.0031580253195258 0.0026536819743549 0.0035316068070084 0.0008096221649754 0.0016336538527219 0.0016224517635519 0.0018117140652335 0.0030706974471305 0.0006882239175654 -0.0001674051599912 0.0024560506778471 0.0042153274581505 -0.0028234743199811 -0.0041992786695769 0.0017289729402492 -0.0002906438717709 0.0030244125878330 0.0011427229382645 0.0029771670964269 0.0036350472895871 -0.0031707700996269 -0.0011241241057327 -0.0044237357062259 0.0036846441787596 -0.0028340951496246 0.0048556192374204 0.0006440773448909 -0.0005753143874771 0.0022068465167503 0.0014171826838670 0.0022614875457613 0.0002942606818946 -0.0028466001410302 0.0031858430798120 0.0024714407930771 -0.0005791400466071 0.0030625221783412 -0.0008481455252225 0.0002821596935143 0.0034419378033444 0.0009725186214501 -0.0023702192215356 -0.0015036907488957 0.0017621753153453 0.0032575998274050 -0.0034922601723495 -0.0043979241998943 0.0033004776369061 0.0003368827911057 0.0024852589390091 0.0025226989875991 0.0019359887122699 -0.0002696377352462 -0.0010435974277800 0.0021228178171997 0.0042447169679993 -0.0019528634370631 -0.0044959776386681 0.0015443814494204 -0.0013932526133916 0.0025862701217089 -0.0029111914828577 0.0037039604315176 0.0020965409194533 -0.0024171891804738 0.0024890493590407 0.0006246973510992 -0.0016679337455079 -0.0027884202866747 -0.0009254508093145 -0.0021445814658036 -0.0002786106354056 0.0000284257081427 0.0020201150021964 0.0002975295061616 -0.0009966888000069 -0.0021955059653344 0.0031324269480767 -0.0017413699236479 -0.0018405611030256 -0.0000157457976510 0.0009528725847245 0.0011864428353218 0.0006903832156586 -0.0039527986788490 -0.0036786540058047 -0.0027134479628552 -0.0032989971784435 -0.0013714309285219 -0.0026246037813952 0.0025547521909422 0.0021089717837230 0.0007300490806315 -0.0029116550117969 0.0014051269979722 -0.0024771808254231 -0.0023397773357156 -0.0005494778843998 -0.0004146092157687 0.0023335540798284 -0.0011836580572269 -0.0013208884894568 -0.0013220592727446 -0.0023799771730288 -0.0019289032604372 -0.0008715254535453 -0.0012704895274334 -0.0039119062332124 -0.0016566272258883 -0.0005414518849186 0.0022443203584777 0.0029367112773459 0.0009661863085656 0.0036710330602583 0.0023446330560118 0.0007661806705565 -0.0003365748208163 0.0020791063311806 0.0037380335099089 -0.0016070109366760 -0.0001435126835788 0.0029705394946478 0.0013689025096357 0.0010649525775498 -0.0020972680542173 -0.0020460885491004 -0.0023891633168331 0.0000684583490662 -0.0018729630410378 -0.0015627824935320 0.0019650582263939 -0.0006435950986374 0.0007735762639835 -0.0024605056091248 -0.0001719515977918 0.0023830084793401 -0.0013762367316296 -0.0018052162919434 0.0001585885707868 -0.0031937216449360 -0.0033028724072167 0.0020589168129070 -0.0028257676549859 0.0005275026096164 0.0003715315097674 0.0006604800536453 -0.0025424029406615 -0.0030751660833118 -0.0028781113370250 0.0001322642747195 -0.0005589790331884 0.0021772911305956 -0.0049370638296991 0.0036359257748321 -0.0029739061271055 0.0001095807562706 0.0046791549060037 -0.0004291656269557 0.0004885493012146 -0.0027675760236643 0.0004735923223358 0.0021651976506671 -0.0017934788208737 -0.0024808696809002 -0.0014608084738652 0.0015726686188958 -0.0004833678521224 0.0010396714689674 0.0002073182021298 0.0027575401103635 -0.0057332432369756 0.0018754703027374 -0.0020582522352354 -0.0013098409005356 -0.0002556564272165 0.0017665354289086 -0.0025661415306870 0.0014336656234562 -0.0052513078223322 -0.0034596031599873 -0.0009394884554559 -0.0002013183690783 0.0017278914205233 0.0027631981011793 0.0013949517818023 0.0017785250180828 0.0022416564366642 0.0018248336426990 -0.0001777319941110 0.0001492892277181 -0.0000072425055138 -0.0013531302077044 -0.0029951936798747 0.0017047408847547 -0.0011699787460489 -0.0007215377350677 -0.0001263194853459 0.0022679707882821 0.0023977461927489 0.0011748616069049 0.0015575613129256 0.0009032863474828 0.0017240086345830 0.0018773044696202 -0.0015838833457299 0.0019105021964969 0.0006679274561103 -0.0016733326807681 -0.0002263961751353 -0.0015732635475326 -0.0016405493748950 -0.0009544403330197 0.0011253662080650 0.0015958547054981 -0.0004488463729978 -0.0011336819691539 0.0047343451483016 -0.0135394728750376 -0.0025824429942661 -0.0106188869128972 0.0106208267571326 0.0081080786828782 -0.0256742727640012 0.0042924034574192 -0.0106166593117167 0.0011091909367482 0.0224728767239802 -0.0165421762643099 -0.0313730079492194 -0.0186537023262379 -0.0245248076262007 -0.0020949504162054 -0.0229419604545493 -0.0231517310253626 -0.0205987603857108 -0.0180710829964889 -0.0255841912145937 0.0056555870472122 0.0035595884107719 -0.0035953457934793 0.0128864258847170 -0.0086620185875920 -0.0103659185463017 0.0051388917007657 0.0126062595739411 0.0053622161142814 0.0014401003059804 -0.0156771543547868 -0.0220007108757102 -0.0211548714203464 -0.0009266353161812 -0.0063391136554209 0.0236510026811816 -0.0203830385622394 0.0026670872034685 -0.0168607802499237 -0.0085877674098312 0.0162905403231714 -0.0181590970735802 -0.0186204129051174 -0.0156026359246570 0.0054704776892493 0.0013550534191021 0.0033156821189769 0.0054451990821802 0.0132151042725248 0.0009272789603731 0.0031099258223026 -0.0014060930484417 0.0172125208814840 -0.0077295718348440 -0.0186836355150182 0.0011054769028583 0.0259516762902644 -0.0071740146158437 -0.0176203079712835 -0.0059006422626214 0.0189423965021605 -0.0263525815396541 0.0270359895710197 -0.0151817037879032 0.0039640490651129 0.0162487198724479 -0.0095163536894667 0.0143156231113831 -0.0082541204591422 0.0112401788489664 0.0087337959702451 0.0046527833297649 0.0046289640242257 0.0091728930279816 0.0058817455038022 0.0024137227034621 0.0104124757394251 -0.0147954259939869 0.0010145193434587 0.0126824813679371 0.0134653744408623 0.0008804942426942 -0.0118471398569943 -0.0120073277224599 -0.0140973976026732 -0.0294166598016086 0.0016606513029495 0.0123140612374976 0.0320639992168336 -0.0123689417135891 -0.0005760733274465 0.0117880120579180 -0.0079970517751697 -0.0364197955316178 -0.0281074458655197 0.0128460919308012 0.0167265376568473 -0.0239521489259826 0.0152181593200252 0.0045307536865667 -0.0098241803893477 -0.0260557251399302 0.0108381093643869 0.0272165513313438 0.0341133460304402 0.0152124464592916 -0.0176615862674036 0.0018239614730185 -0.0084745769540993 -0.0101132304375441 0.0139059334109619 0.0138121730070312 -0.0080569597212166 -0.0005520265817715 -0.0043328122202394 -0.0026946770529904 0.0191018352771173 -0.0062705306649848 -0.0008346549223965 0.0024821726944331 -0.0045056652049886 0.0016469390971137 -0.0066591452353302 0.0133126358752397 0.0101152316218702 -0.0014461537063334 0.0041026889254913 -0.0249351286602281 0.0028929313990942 0.0038011836507374 -0.0096275609692121 0.0171706446856983 0.0049317045294135 0.0125665735581487 0.0233520649599053 0.0061519794122258 0.0135350891063284 -0.0082670052245702 -0.0142418764720222 0.0032392272701243 -0.0151398308726892 0.0045526909825662 0.0073653539855395 -0.0160189014302330 0.0011394139807314 -0.0241470257107957 0.0271256584002405 -0.0068740525910757 -0.0048514079503583 0.0127596366467524 -0.0220128188055927 0.0313217168210709 -0.0176726596820955 -0.0239561348886005 -0.0117853183034110 0.0059297998510136 -0.0128734348735379 0.0016568867353761 0.0056400396877388 0.0104938452988278 0.0008372510556378 0.0196178691976654 -0.0075521716874105 -0.0065894131612429 -0.0087947112927274 0.0167095989291086 -0.0200568542565521 0.0013446656429040 0.0312110180066117 0.0003734559320711 0.0063555688822183 -0.0173431885035862 0.0014541113752683 0.0076281724550405 -0.0001459277461708 0.0046536011642249 0.0044022408270534 0.0004058756381629 -0.0040530809558026 0.0093310362084153 0.0047747473145465 0.0177085528509353 -0.0067412212647222 0.0045458682240789 -0.0000088109311928 -0.0187955204614505 0.0202193898175741 -0.0024932595219491 0.0159822896576418 0.0002767641136500 -0.0165862487143583 -0.0106828378420453 0.0101079526211593 0.0033985723082406 0.0016054616124064 -0.0215147994220964 0.0060670554326164 -0.0130022438719057 0.0036913344935981 -0.0185351931166369 0.0105673958141345 -0.0206053595494339 -0.0123298291551126 0.0064827516881307 0.0125023210835216 0.0159896536369378 -0.0035206619851492 0.0115222632967203 -0.0103643523641216 0.0046254245716782 -0.0063964378730299 0.0102515250753064 -0.0127643966349611 -0.0144957393980443 0.0186470231797087 -0.0174072832808049 0.0031172033882561 -0.0067920308844671 -0.0045757148197142 -0.0094525245952040 -0.0007273506178396 0.0020740552071961 0.0015528504550328 0.0138483969892556 0.0069591674041561 -0.0109224226411534 -0.0026189799339394 -0.0139224380959319 0.0244524984943405 -0.0043809235363488 0.0083442686224005 -0.0108337316207183 -0.0103993438742065 -0.0029085993644543 -0.0134202677077370 0.0018134212668331 0.0004453072032161 0.0037675420742550 -0.0078417426225371 0.0027321468231494 -0.0075919819669346 -0.0140245188411454 -0.0057255458713595 -0.0035904465143650 -0.0039340858353287 -0.0069182810347609 0.0011187701202297 -0.0064365685439735 -0.0067915244046434 0.0000402018427953 -0.0046698413320998 -0.0037644791509278 0.0025788132840252 -0.0012422919103487 -0.0020022357903722 -0.0117110950770674 0.0018140339079167 0.0055457610689213 -0.0047034365951272 0.0072429244133534 -0.0085506013889437 0.0238485135449741 -0.0048804667551381 0.0097431186311998 -0.0031550574316568 0.0094564881105935 0.0030068588962517 0.0006789015068496 0.0026310481030895 0.0049296952566041 0.0079282898872065 0.0002092999878965 -0.0023929039608650 0.0023681559413496 -0.0086361259199120 -0.0153006029110277 0.0124299559125883 -0.0037869425762853 0.0136717632130414 0.0018131397763897 -0.0001555160262053 0.0108376704409548 0.0001896945005193 0.0036066486630009 -0.0057327723558153 -0.0057999177024556 -0.0101990822354609 -0.0073281701299806 -0.0107010084107012 0.0007523135167165 0.0039518865945768 0.0050548397858829 -0.0033435911245577 -0.0017790356933798 0.0099238358618071 0.0052619474834881 0.0070744544624330 -0.0061291909864441 0.0006044174355687 -0.0391183532581422 0.0258756148969933 0.0504234106927155 -0.0016486720036881 0.0175160269437045 -0.0103911562078530 0.0089348034045016 0.0378343059900305 0.0242637044433717 0.0073504110028533 -0.0007480765861199 0.0090841540022159 0.0449597730425651 0.0291045956659487 0.0196878230516059 0.0197851913070960 -0.0193648278195034 0.0042931616580906 -0.0215103123382465 0.0275348051444593 -0.0128898206172954 0.0041309469554200 0.0405885389339770 0.0348828585114662 -0.0297092411012464 0.0405735442258069 0.0144099523984590 -0.0065187254787453 0.0159162418175284 -0.0194382464063033 -0.0061859511930503 0.0353626325985359 0.0230252234527387 -0.0438290758069309 -0.0158696194835714 -0.0001507217181351 0.0260291353036771 -0.0240016219754826 -0.0103576458179591 0.0017178799305267 -0.0411372905170746 -0.0265908119509829 0.0270302359346523 0.0272981440545348 0.0253897412471397 -0.0074647422446655 -0.0231247799628205 0.0067260090710708 -0.0195763994744362 0.0445109620916476 0.0007300265766983 0.0431867872707706 -0.0124278479386048 -0.0210746686567836 0.0017860188607230 0.0003705721614703 -0.0237048548082868 0.0029121735502682 -0.0172074984916615 0.0094142359484437 -0.0140405394700201 0.0235927056292086 -0.0283599801899680 -0.0255289946849105 -0.0229228317894907 0.0327707046901193 -0.0484709116059997 0.0200584268265578 -0.0099028247533539 -0.0246801026062279 0.0108951719508353 0.0523950332732602 -0.0154637650117737 -0.0023976981299750 -0.0249579593579539 -0.0163930568905708 0.0218455666844787 0.0574332847836214 0.0080380082900450 -0.0068662582145775 0.0076768439551296 -0.0016799440476004 -0.0029887745215005 -0.0072599078015029 0.0232516412855909 0.0137455957474435 0.0445615586837316 0.0318078582993705 0.0020503396734666 -0.0141738797988962 -0.0117169287859574 0.0134291596601507 0.0264615499959680 -0.0142302127027443 -0.0087072440195312 0.0247702187694864 -0.0256497782919075 0.0075649819022822 0.0250221372318112 -0.0479868194134926 -0.0141163940966552 0.0462759367083656 0.0091654640761721 0.0171458792075477 0.0191305939143501 -0.0110053539943515 0.0056056571831686 0.0238435713965645 -0.0104608554245576 0.0191382381483144 -0.0117593043596931 0.0021770977092966 0.0270764810830474 0.0282359181197186 -0.0175985718113397 0.0106829803336467 -0.0045818312073986 0.0001275426913863 0.0184100273651745 0.0061594293598280 -0.0266122540818217 -0.0364901563040826 0.0175291000310006 0.0073115557912652 0.0130576995983096 -0.0512801210079414 -0.0161359460749526 -0.0353521626197328 0.0368450520767046 -0.0265883966900467 0.0131483571561436 -0.0083576952664398 -0.0348966625205832 0.0246513290450150 0.0076239828138775 0.0369078787636164 0.0232834715137196 -0.0291452633374590 0.0029429370009876 0.0619041267803644 0.0177157217432175 -0.0053500768632729 -0.0115384502216662 -0.0143707023422538 0.0460884474167467 0.0164908583359145 0.0168392545142872 -0.0308008525617292 -0.0375344071838391 0.0251771807603799 -0.0045402345633257 -0.0138234606717383 -0.0347782877310124 -0.0211040878776860 0.0236027290485752 -0.0335916651779152 0.0073189050462995 -0.0509554490726561 0.0320968970596466 -0.0209288456992330 -0.0314965459109128 0.0240628347955209 -0.0117794337257895 0.0501764748606425 0.0033590800941880 -0.0198329276231658 0.0183582710039043 0.0185725818300143 0.0186909486727967 0.0287171321186388 -0.0009529257836369 0.0100360752383038 0.0144001818620255 -0.0203826701265566 0.0231406488064940 -0.0058004593743789 0.0017331118496375 0.0210951057145269 -0.0144041077445407 0.0289064081399670 0.0415219151923122 0.0102509963703577 -0.0131111160837128 0.0363185570873806 -0.0231220548989452 0.0020759398534082 0.0052379102011142 0.0145121312628139 -0.0090215569397396 0.0150096063287897 -0.0142663527478520 0.0581118606969706 0.0189573660567420 0.0095230112154192 -0.0060543224058346 -0.0131690144894664 0.0392373938545965 -0.0006172518202000 -0.0054534741635170 0.0018714265507364 0.0184674488586615 0.0443743188152180 -0.0221321781386360 -0.0277746147096391 -0.0084785574593518 0.0072327644011386 0.0257410314364699 0.0147641321260320 -0.0350531728779621 0.0059729659879890 -0.0060780170787863 -0.0132668710892685 -0.0273518453945764 -0.0215614720453757 0.0113431823867508 -0.0269820206161799 0.0150146774198998 0.0306761911431114 0.0281522910934171 0.0135587520363888 0.0029464292874480 0.0459383963476928 0.0047221337044604 -0.0376291102651836 -0.0356331543930094 -0.0066951449074452 -0.0299124088178814 0.0441139642614075 -0.0137575354167822 0.0149814472046548 0.0004240112990734 0.0364313502950223 0.0099647124125092 0.0481032544865359 -0.0438205930991970 0.0144057847663524 0.0156568100704930 0.0150956297279530 0.0218595916444609 0.0098029713776805 0.0034451257115312 0.0249915136936441 -0.0400483199191820 -0.0080090286648319 -0.0176305671965522 0.0086949467313268 0.0169441208345762 -0.0121445988383315 -0.0130770278767850 0.0088610081563137 0.0050228440955678 0.0031468292727836 0.0066150240471853 0.0003170295811898 0.0108986033966573 -0.0073287391829882 -0.0339901129084407 0.0079868871448367 0.0027620046548065 0.0233616484649806 -0.0118856014757234 0.0003960349942142 -0.0360114117432008 -0.0241795746276611 -0.0185939492406854 0.0041271900958639 -0.0179426969405656 0.0103103243424952 0.0149117883269703 0.0342040476015867 0.0117697637292350 -0.0036194436123517 -0.0076142720835006 -0.0107339174247246 0.0081341164835959 -0.0196873403650275 0.0039053621942420 -0.0133080571523845 -0.0027513379577467 0.0113157943300177 0.0108059509702893 -0.0004646985573044 -0.0112256246657777 -0.0199290740973769 0.0012008603169038 0.0153222214111110 -0.0248978822637707 0.0147018680028857 -0.0090950605499302 -0.0240511690713044 -0.0152497670636989 -0.0010964710634428 -0.0280910110982154 -0.0222709023169484 0.0148666639881140 -0.0172149375483203 0.0233471077013007 0.0099436182168304 -0.0156629201879661 -0.0203909249641809 -0.0608341094081290 0.1603551783286843 -0.1954267073080408 0.1137148090172387 -0.0537625343508729 0.0305422658586311 -0.0586910310064319 -0.0060839678740133 0.3835794896501210 0.1666297435345021 0.0148913340419898 0.0469069683352417 0.3639447622642029 -0.2662514716054507 -0.1547742235976839 0.0266999842942721 0.1126895502792691 -0.2749395898356544 0.1874411298224873 -0.0438836033554073 0.1798476118065351 -0.1554184343196210 -0.1183087406128790 -0.0240721476106680 0.0614884154168229 -0.1746243453074855 0.0975130074596136 -0.1415188863386966 -0.0705827692521228 0.2271033703447858 -0.2858790529301438 -0.1265320148567837 0.0739151683385012 0.0065681048644900 0.2829152354961530 -0.0802051883317296 0.0603955146267926 -0.0361835361543741 0.1239645803092664 0.2529890530877535 -0.0434654690920252 0.0633037726843559 0.0872860941351691 -0.0967777439733249 -0.0751881877871823 -0.1963634094263037 0.0198209970528901 -0.3448832609450359 0.0132746250014950 -0.1263281482548107 -0.0981819616153502 0.5044936326317230 -0.0592435909171458 0.2953517940671741 0.2929951710436371 0.4209793874120237 -0.1813852150544415 0.3196236990771544 -0.3988038551562362 -0.4374863939010694 -0.0744080584417501 0.0972711849962358 -0.3882798966137705 -0.2114356857591704 -0.1143049443294543 -0.2270796850585767 -0.0074968687266148 0.1775038287399270 0.0691357183929582 0.1090463499889602 0.0346641906829379 0.2870395336312130 -0.2102090090207527 -0.0547672323151829 0.1385866402565145 -0.2876365825796581 0.0855752805896235 0.2934315731049819 0.1666298977264159 -0.1140828246774487 -0.1012396069340572 -0.1591472464942492 0.2673184194369487 -0.0274456233323430 0.1451823354535907 -0.4222172007458806 0.2417067606815054 -0.6346174108553642 0.2215845865077891 -0.3794548792941473 0.2061927366364077 0.0699497889462794 -0.2819055542982098 -0.0820025328696758 -0.1532499092611038 -0.2952362462484753 -0.1675417074223108 0.2858810339487333 0.3004374431644552 -0.2514401762627602 0.1590811317866072 -0.2431267007613304 0.1008989623983117 0.1212749610081301 -0.3835626043335613 0.2018601765379170 -0.1033210036607488 -0.3090052415506421 0.1896739334574357 0.2010825008575191 -0.3085141318601976 0.0069646628583636 0.2237980550285652 -0.0988988028681629 0.0961027582870348 -0.0778841082395386 -0.1975359395677879 -0.0202565994290093 -0.2918818395970191 -0.1849629306026950 0.3529140512782019 0.0378135953659257 0.6173487574818767 -0.1663951716327625 -0.0120593383925640 0.4207507913669743 -0.1056973728238845 0.2685079366206558 -0.0996023812852510 -0.2115008271226310 -0.0875036569208698 -0.0419828047013682 -0.0730474153504161 0.0516208550182351 -0.1153137570340018 0.0855063420115875 0.0365627117574785 0.1033955263270733 -0.1295974247401268 -0.2307497678607747 0.0283973179625243 0.0880126070996236 -0.1416397665534151 0.1212304675218865 -0.0981635784955789 -0.0896527666466239 -0.1961514835663536 0.1961334994599573 -0.1627498175327906 -0.3036612625140757 0.3243939272830291 -0.0793218689855989 -0.0472850478979332 0.3711421414118902 0.2822570465782228 0.3048343080311919 0.7570047624452777 0.3895540461819500 0.3785101637312906 0.2511834398336968 0.2562146284718461 -0.3945227294102870 -0.1247950308731958 0.3659031455036134 -0.2074318234065011 -0.1695335456589365 0.0278079173391085 -0.0989715767799023 -0.2506396735725993 0.5473255626745429 -0.2016820257651981 -0.0502996590745888 0.0522359128997122 0.0042508103513352 -0.3526251512722617 -0.0449004584985646 0.0274738154850328 -0.0740039224949339 0.4693611910493368 -0.0824944433886994 -0.3150765711929910 0.1229563004117995 -0.3202188229336303 0.0083324871167337 0.0471537171422170 -0.1618112980444804 -0.0054854371396407 -0.4079121358873692 0.1530760020686073 -0.1220486319562650 -0.1957527212994848 -0.5662381893227975 0.2483872434016413 0.1024902759883061 -0.1546764137272004 0.1404119453813350 -0.0042068553416448 -0.2163140366018374 0.3182971017857867 0.0922907595998538 -0.0065234284334246 -0.1314510502282486 0.2211333842949010 -0.1275703609974227 0.0541574081000788 -0.0329904074969069 0.0781520439763472 -0.6110947765355343 0.2340361990101350 0.0563641910048938 -0.0870550884250343 -0.4757838738721401 0.3209328256599124 -0.4122934933358430 -0.0554980518739723 0.1741452976351609 0.4521223480951260 -0.0111099293148875 0.0933921687549531 -0.0663127826302688 0.0097462373437880 0.1419761217150221 0.0537401238625290 -0.0482197931689404 -0.0284479424795699 -0.1535154892916540 -0.0929053632861596 0.1195733071383647 -0.0831448373749172 -0.0002458910687960 -0.2716496148836153 -0.1246604728303968 0.1644782786997207 0.1568283183390666 -0.0040051374722860 0.5845398120090686 0.3866694625788918 -0.1541451507877433 -0.1342050634086701 -0.2423987080923794 0.4121544384857186 -0.3093948011909056 0.2553529130369665 0.1390154381092894 0.2129194766452018 0.0628588440250725 0.1705457706839889 0.0650950495978182 -0.0201917286422301 0.0995131112641781 -0.1127725505960221 0.0159483242729084 -0.0810771764696784 -0.0645069673534586 -0.1480754741889591 0.0856797508467429 -0.1302684959255112 -0.0571104587751214 -0.0957264804754609 0.1395686206331433 0.1682577484809806 -0.0975058786065564 0.0503342529070661 0.0292438268425072 0.0763883701387625 -0.0009379472952278 0.0909873971672671 -0.1989607406548156 0.1734567543078539 0.1133504742898063 -0.2394750214299939 0.1514657979659154 -0.2989069764850613 0.2756491439285118 0.0326798721974241 0.2889444073853210 0.3008703062931897 0.1094318401589560 0.1437454188732703 0.0247924963938714 -0.0224869580760198 -0.0141649543049130 -0.2241215858266712 0.0114520823111433 0.0406735316411213 0.0424096790407927 0.0180142524963380 -0.1204164976281655 -0.0300980844287063 -0.0199282873020770 0.0459021134182090 0.0033132156308670 -0.0710474435329672 -0.0218187652512964 -0.1059936482223703 -0.0059131332880986 -0.0651600941371936 0.0182018395738827 -0.0051517393808023 0.0861991927200790 -0.1218941848583766 -0.1442409618132896 -0.3215594759229397 0.0863279079631913 0.0255585171204888 -0.2021482915420268 -0.1156615654962406 -0.2275016643363758 -0.2295233573112924 0.1352414578123351 0.0038044930427297 0.0664935488438699 0.0879391719119409 -0.2005611394502783 0.1348265155533861 -0.1037424542424694 0.0453004889719225 -0.1963140064169717 0.2104791719587548 -0.1123885059094361 -0.0756205652747380 -0.1988528793606009 -0.1255097704712724 0.0038619382967145 -0.0931896931764610 -0.2799013441939058 -0.1341911877499571 0.1440442609977667 0.2572343039439573 -0.0501031370768968 0.1629814181653385 0.0146643898401118 -0.2353916664365288 0.3025972720753510 0.1124212657837777 -0.0312876437757971 -0.2304658942290757 -0.0646936459717074 -0.0489871427918667 0.3438607997071312 0.0571909245615096 -0.1939252498397996 0.1411783555170266 -0.0314295517329844 -0.0439728066645860 -0.1245336926086147 -0.0266932028506425 0.1011677353292029 -0.1840308157617976 -0.0068376577576225 -0.0617314744770822 0.3553905437168842 0.0308895624667501 0.3563852664948153 0.0203088931881497 0.0901774414772247 0.0664932078737103 0.0139706749094393 -0.1280452775955379 -0.0096016748182495 -0.1934750693345958 -0.0325618328007926 -0.0325651088096513 -0.0624728875188132 0.1445995183766240 -0.0105666565989260 -0.0189525887084165 0.1437836377460441 -0.0061157119751275 0.0555086226219502 -0.1545815232587121 -0.1281298698331998 0.0617299651931719 -0.0955857960211234 -0.0028882503703492 -0.2177674704062382 -0.0442656963370976 0.0355190842980096 0.0491218490245050 -0.1659563338767394 -0.2253311445752351 -0.3196305499290440 -0.0966064281044984 0.0326339189251381 0.0783614494429985 -0.1506413349035856 -0.1093023515552643 -0.0077908400312045 0.0183667823010609 -0.2595782070867655 0.3095848697514649 0.1371238099133047 -0.0098513199035910 -0.2750213736139192 -0.3453176976794184 -0.2222828534410532 0.1664634274661501 0.0655878718904084 0.2607061033115491 -0.2015695719751915 0.4337749883688953 0.0787425485853750 0.0040477239513703 0.2296115864896185 0.1002825243555699 0.3239989394496579 0.1521961919012801 -0.0434022946422322 -0.1342296200426075 0.0230665033099140 0.1227374894460868 -0.0191955219837836 -0.0365710337080269 0.3071924597991351 0.1771717120751885 -0.0201734166675237 -0.2345126591131005 -0.1642387223271695 0.1229931455078659 -0.1947830497928512 -0.0611641491919962 -0.0095885847990225 0.1837974332614249 -0.0036743316349408 -0.0414710875802539 0.0604217051150228 0.3782141415298008 -0.1697729289958033 -0.0407837799432679 0.1122768861818168 -0.0651118198490213 -0.1984165488942124 0.1600464288735416 -0.0759503411024426 -0.0933399203385985 0.0382904478788698 0.0924218099344677 -0.0742962593440858 -0.3084336484489226 -0.1065515602600391 -0.1419210405866140 -0.0310758631086353 -0.1535415486936191 -0.0069642700748674 -0.1172638511601058 -0.0618308210085408 -0.0715827407637022 -0.0471176210608759 -0.0889211042261799 0.1352570136733337 -0.1060014832729731 -0.3130521721272201 -0.0117508708155196 0.0535328549711215 -0.2633303268850070 0.1943085890869180 0.0172613061250526 -0.0956812442479224 -0.0192493293611045 0.1000759300926720 -0.1997339098205002 -0.1263996166077809 0.1358348592128699 0.1197144524199520 -0.0793369798675919 -0.1406864405624452 0.1390609715736431 -0.0710014090014239 0.0188948748580511 0.0024597800128550 0.1705195698351013 -0.0112019632434299 -0.1288736421979171 0.1021100471995378 -0.0619116568973523 -0.1256038291914232 -0.0880661918972374 0.2352189178196004 -0.0549017452911408 0.0982789815450998 0.1848395139368481 0.2896048168674568 0.0282684114814027 -0.0742658189394143 -0.2333460043833005 0.0323103431804784 0.1000540672111529 -0.0457147836495249 0.0828859866075155 -0.3220541964434216 0.1257148213104448 -0.2735004033499705 0.1874788922222936 -0.2820046573370236 0.1041979026679517 0.1411454588511921 0.1390348279453092 -0.0557319563590858 0.0029730120904826 0.1502119272215763 0.1755564586201400 -0.0288117244730474 0.0176170672929723 0.0947366200373811 -0.1019505731525420 -0.0901841500515304 0.0875591231929021 0.0384586986081088 -0.1762412834618111 -0.0876453325975427 0.0047589370349068 0.1941232333508425 -0.0957730292666007 -0.1299783013352261 -0.2634037252050543 -0.1481271577279870 -0.2929028802520474 0.0605735464134681 -0.1997423663116008 0.1662668285585102 0.0064730391509178 0.1555864369515756 -0.0937529471577931 -0.0096757676072371 0.0054057218948940 -0.0306880029097603 0.1721544400239745 -0.1094847923899964 0.1448097810749481 -0.1684647180226180 0.2971546053974803 -0.0774780784212121 -0.0083539590505504 0.0304394201131116 -0.1193292361143219 0.0453837108762511 0.1397953984917733 -0.1531477736785887 -0.1368388964716799 0.1230104802367425 0.1139148983923258 -0.1871318504633279 0.1643401159822188 0.1565750458360330 0.2341788197304822 0.0535083389051587 0.0428121271123078 -0.1062676355291924 -0.1273443008133334 -0.1353714335081177 0.1008256730781918 -0.1044692479025293 -0.1491629548907568 0.0414679893171439 -0.0329749843558831 -0.0208114557157319 0.0384621347252161 0.1399658207708435 -0.0247655773766064 0.0777927955004947 -0.0547376094828301 -0.0007734513230983 0.1616643598922780 -0.2097657919915128 -0.0472039210093097 -0.0000917665101174 -0.1924114377580138 0.1214217240474597 0.0930330154443300 0.1771985153373005 0.1082023053099525 0.0240403661526387 0.0603929199317377 -0.0123005837946602 -0.1018803085418144 -0.2764060551449429 -0.0751295922702110 -0.0056608827698836 0.1111151222910764 -0.0119023617713410 0.0708982166882615 0.0376377509518954 0.0627255398446854 -0.0664676657077315 0.5536242369085158 -0.0092159879417586 0.1001725721652180 0.0565450017787983 -0.1106436556052326 0.1429618435279404 0.1281063876038614 -0.0115589661697922 0.0151004400930277 0.1281887040873153 -0.1652686946158315 -0.0287410478147037 0.0667806357206032 -0.0361116753145663 -0.0619970427578345 -0.0577811311879760 -0.0430641909331106 -0.1240562216947332 0.0008978810941391 -0.0846263915324636 0.0473688815465245 0.0292003552702313 -0.1178895927212275 -0.1053099540798089 0.0663619049929348 0.0791020379786233 0.2110684539845990 -0.0596363864838277 0.1173872846461351 -0.0323625304414393 -0.0283633186308787 0.0457847721994221 0.0357093304067239 -0.0038648750379094 -0.1661677449160072 0.1501678437907853 0.1110435472465586 0.1103795616324917 -0.0042109525433228 -0.0907079766524847 -0.1548327233324064 -0.0094753127098021 0.0151087991867005 0.0114185083303790 0.0465318569429811 -0.0697936635056556 -0.0290375956298282 -0.1323996170214019 0.0863416991514685 0.0049447592674682 -0.0876768921975812 0.0588557203887260 -0.1194257882450633 -0.0063986764465879 -0.1541558691314278 -0.1067224185196017 0.2703051785720740 -0.0545831902214741 0.0018357445979900 0.1129825909566579 0.1431650822017366 -0.0983291961954318 -0.1416859490948333 0.1501287548311238 0.2441153758171204 0.0203512717999200 0.0527614714329049 0.0471022748117358 0.0770011365964724 0.0661268229780516 0.0082486404972803 0.0963434267308650 0.1296067913292921 -0.0537486599135904 0.0989126509316929 0.0306051584645025 0.0654796349808543 -0.0906022483836229 -0.1179942187247842 0.0563219068524771 0.0337707079919152 -0.1032411439558653 -0.0419207623821734 -0.1409271013774464 0.1993453403488417 -0.0440984165406349 -0.1121455307884493 -0.1341820261549672 0.0231299533393199 0.0591423240943061 -0.0122802196952947 -0.0317145228915872 0.0180003359886661 0.0662299129270437 -0.0834830607609708 0.0233757853833619 -0.0518653234344345 0.0651584083067211 0.1730237278048581 0.0628107188640855 -0.0042881836139972 -0.0646137790865242 0.0196668740131291 -0.1125285580836651 0.1926002003415375 -0.1790356895699192 0.1452933329448962 0.0061694491073341 0.0198375947845517 0.2025283686576111 0.0397392121346044 -0.0228014267202007 -0.0733216741151511 -0.0545825475508410 0.0338855814923338 0.0746550025870666 0.0355851084773771 -0.2857537834246743 0.0783202577456332 -0.0100466246640926 -0.1543769273511171 -0.1811422631927591 -0.0273106783525655 -0.0714323106274886 -0.0050482888015184 0.0912518691953614 -0.1122958360853681 0.0384568608023582 -0.0108163126053727 0.0526565527883956 0.0677355996519937 -0.1591753065134087 -0.0617097071726442 0.1030163433485446 -0.0008235850789202 0.1184956677416756 0.0264523735113885 -0.0864150735200173 -0.0638491093641474 -0.0619339770843991 -0.0208543670106751 -0.0148755095655143 0.0210817668771463 0.0114858257306929 -0.0766971024778160 0.0745470459023598 0.0451032868649188 -0.0344580865782647 -0.0335236498692410 0.0381050837335237 -0.0489619516640159 0.1792296556315677 0.1291462818316545 -0.0396655360067396 0.0010442423200241 0.0690418020705969 0.0583139447469338 0.0594953710189537 0.0666489559796919 -0.0025782753279709 0.0562466020051990 -0.1531213081036984 -0.0386473342716661 0.0225664441927498 0.0482565594574458 -0.0376691683808170 -0.0070018809039757 -0.0102903032914026 -0.0469558575710660 -0.0146151340560624 0.0011441215673029 -0.0163063115778546 -0.0151378704373005 0.0619879045118820 -0.0006884832213487 -0.0297308198204384 -0.0047801290171172 -0.0222691375523718 0.0878003582691402 -0.0144563645382651 -0.1280718298866075 -0.0069189787656070 -0.0154278275218542 -0.0268908155550930 -0.0249586667473151 -0.1730407547288840 0.0591790658894881 -0.0724360856636677 0.1068543510587594 0.0919068350999040 -0.2246694978699300 0.1567537665059288 0.0433821636089961 0.0115829006021694 -0.0634823070162235 0.0650653326046705 -0.0075681911123013 0.0573022941202711 -0.0712032391095747 0.0600458513492165 -0.0716152721267954 -0.0393361224622362 -0.0610283363225543 0.0359387897925021 0.0497212525148218 -0.0377073181460019 -0.0448672782927323 0.0779288005503668 0.1043522270802237 -0.0067497385369705 -0.0702600664257891 -0.0121043293823901 -0.0494451163158407 -0.0854336349626559 0.0494585721407141 0.0745212942609306 0.0016401245294258 -0.0708077185953198 -0.0958261921394745 -0.0979761858635056 0.0184309181278420 0.0236675442053431 -0.0881312736716294 0.0098585562730782 -0.1364335032742569 0.0208645634051256 0.0083388016133748 -0.1014984855262858 0.0567441517972377 0.0458104604928675 0.0138697247412071 0.0587157622615823 -0.0113035556531821 0.0839731566404597 0.0109974619643644 0.0937030332528895 0.0642839444761372 -0.1109943642872895 0.0724620909310925 -0.0679534864415906 0.0162572217118843 -0.1386203040052626 0.0285216706301379 0.0203154653930608 -0.0571955244092886 0.0127789673916831 -0.0582660418290117 0.0227438140150630 -0.0510837848024779 -0.0402527976735591 -0.0535884048282410 -0.1171430119394819 -0.0187817195728455 0.0191940274019106 0.0081039758353251 -0.0884386164092170 -0.0804840599849087 0.0615788324098362 0.0140598296062584 -0.0517886234750009 -0.0555846486150810 -0.0056580163674556 0.1140748638779288 -0.0749679833431899 0.0362118442374574 -0.0410907763092990 0.0070121716938622 0.0434134785644958 0.0222993627080162 0.0105466934049549 -0.0447614756472655 -0.0591749200234258 -0.0758511203100629 -0.0430508647220234 0.0386780475338526 -0.0156333707198282 0.0049950151669324 0.0306278057418773 -0.0620622102921643 -0.0075481685939866 -0.0718970900928070 -0.0464628449554343 0.0685279100018158 0.0644295467863835 0.0240580738252133 0.0665340775925420 -0.0632598100304789 0.0767995094689200 -0.0448151675452488 0.0536573323650477 -0.0821166833727697 -0.0968958292223990 0.1009457914264697 0.0321256007533118 -0.0192357036750117 0.0444043003869307 -0.0084933274281547 -0.0626856766798725 -0.0576177250369456 -0.0142829325894624 -0.0367493787486565 -0.0130958212860540 0.0881784741989189 -0.0013613724503190 -0.1118068013875620 0.0494565824041617 -0.0765011897527238 0.0770593888606390 -0.0018534462062488 0.0872930717066391 -0.0748991799867376 0.0012566713637202 0.0294929754281534 -0.0687066877464365 0.0311332768988068 0.0184660971895917 0.0027425762890153 -0.1919539736409361 -0.5167159029001950 -0.0863856188557591 0.1823478339417337 0.0021846142451561 -0.5960136379782208 -0.3335773518765767 0.1650782763057430 -0.4058165416544744 0.1212450849358812 0.2461298199333907 0.4226124192935097 -0.0289524808777521 -0.0604689005271889 0.2673465440658400 0.1357366665167105 -0.2080747732917596 0.1427603197506177 0.1339487401491215 0.3694202813103879 -0.0201473827483203 -0.1825473212347861 -0.1070576349791116 0.1310170703076617 0.0609417141362119 0.0796521975486853 0.1389526316807664 0.1965779672897893 -0.2177105575674248 -0.0279382019155680 0.0171970333553725 0.0180616633420203 0.0530590322621988 0.0805253702810843 -0.1304520917637335 -0.1948828927517903 -0.2386212288761210 0.0455268253063587 0.1270277340248333 0.1372593533513734 -0.1683989754518385 0.2235281630469131 -0.0281710435752965 -0.2303402505565741 0.2965997537564934 -0.3139326474147495 0.1521690932318865 0.1460246553052280 -0.0742519230094987 -0.2024404398881131 0.1594265498143203 0.1105777605013728 0.0649202297083464 -0.0704264891282425 0.1861207361259640 -0.1310422438300568 0.1856423640436760 0.0395592802365639 0.0518746347525911 0.2168560382009791 -0.0406924075782928 0.0251419298999647 -0.1247365046077932 0.2744777682587174 0.0516501581770129 -0.1099544192915283 -0.2416207984311070 -0.0424909053873069 0.2326755882028825 -0.4793400203104924 -0.0309769551216420 0.1804964018544792 0.1412324748680470 0.3010537501891160 -0.3133970791393659 0.0585618788385456 -0.1333545310678588 0.0038197306262761 0.1893822996826220 -0.0800404438882729 0.0843137448587143 0.0212160049880389 0.1199391231882973 0.0556633888538190 0.0584458236988350 0.1274998673071944 -0.0423600174521163 -0.0408515891079598 -0.0995807496180283 -0.1204729198611964 0.0135880899267991 -0.0257741470154901 0.0013835906959209 -0.1251813864320388 -0.1794141335100218 -0.1325634336912004 0.1563059086871225 0.0795909492349501 -0.0685405558194295 0.0974716448016584 -0.0235155252656003 0.0192020550531965 0.0434454086009974 0.1801395678436931 0.0459388768897374 0.1703832175768264 -0.0476179458942818 -0.0606921749702738 -0.3502953424069317 -0.2841353313444440 -0.0893444819965896 0.1832193465999473 0.0462737488302765 0.0212857673596529 -0.1792603200088882 0.0749611145361950 -0.2424592669570456 0.1776941493384680 0.0716549521613966 0.0036547395437564 0.1299887586206708 0.1097112072015604 0.0241285181515714 0.0140216431807430 -0.0657107766198045 0.1730682388892903 -0.2598287498457858 0.0528715689349162 0.2322769746159715 0.0406170075814846 -0.1530238316494764 0.1331192228659068 0.0730053170490349 -0.0471928358296477 0.1735412845075179 0.3094730351179040 -0.0403805865896441 -0.0404343556943761 0.1765318478118713 0.0426423591509643 -0.0380412697352530 -0.0540097612495802 -0.1437161794006684 -0.1194913888061984 0.0399338305429445 0.1927397682201024 -0.0336864438924225 0.0212367159990329 0.0132684728688633 -0.0767945103459886 0.0779926691039474 0.0489578417657093 0.0409518691502956 -0.2043036617187165 -0.1465956495758536 -0.1424045858108233 0.1749510710611332 -0.1040656199863315 0.1403046152878180 -0.0004513393902016 -0.1055454481619829 0.1847395368902374 -0.1685919132869502 -0.0640826590937833 0.0065211237001270 0.1608201493509387 0.2004865719780587 -0.3458329413967712 0.2965535453363699 -0.1170493317290921 0.2608879687010723 0.0489038225309127 0.2159550083853654 -0.0383918074354403 -0.3136405626657763 -0.0564591389437693 0.0943977669175487 0.0214802178928272 0.1270363283772851 0.2179261596781395 -0.0180197607072225 -0.2811354672046835 0.4537431976203763 0.0411726786962104 -0.0371103190534208 0.1044715447980580 -0.1224064980049194 0.0657302322683149 -0.0123742136091972 -0.1686802374429296 -0.1359932938091115 0.0576504695645533 0.0991386491967714 0.0242579932146784 0.2419776818795225 0.0303885192856168 -0.0570076750953535 0.3501707106986692 0.0121334261110993 0.3343047243632180 -0.0820860060204668 -0.1918246108261821 -0.0088754266229140 0.0801842364352267 0.2179168832512933 -0.0135292489387789 -0.0178040533516601 -0.0676931124165725 0.1052887623711774 -0.0385253251146652 0.0522628903891842 0.1781069664290060 -0.1515558206763702 -0.2193579689015563 0.1218495848883931 -0.2194070980072101 0.0886873222214645 -0.0534334229487047 -0.1113041518891296 -0.1653476417969585 0.1407536362085100 -0.0490358287658753 -0.1191412601838612 -0.0294669196000760 -0.0521486160231402 -0.1247748782167737 -0.0419125325285698 0.1965980467228184 -0.1457257432425340 0.2142629921464473 -0.1039085935312912 -0.1471740480562923 -0.0699358592136398 0.0206478587563969 -0.0370169279886561 -0.0594428430617715 0.1752234733125944 0.2452302331459620 -0.2840434780301386 -0.0357494323417178 0.1742847706325764 -0.0573706439333127 0.0194761016204711 -0.0609824421962510 0.2395122126792502 -0.1978267825030243 0.0300224329971413 0.1200022092895747 0.0032125643804482 -0.1576986229468941 0.0595340865953733 -0.1220446939488265 -0.0764674991474260 -0.2200831759590494 -0.0063313246691940 -0.2141446451620383 0.0177394373049690 0.2040157505762580 0.0740682640526253 -0.1243108920323262 0.0526446296241653 -0.0491120326368902 -0.1092986916996514 -0.1117634540545604 -0.0450603407690218 -0.1390042550904111 0.2382167977368427 -0.0433356395669391 -0.2713001019154936 -0.0685452490011544 -0.1688315166991267 0.2858752728134590 0.0686213624477524 0.1241086095265029 0.2290144912009725 0.2112078194754804 0.3819233597332004 0.1990345821934812 -0.1404511946763390 -0.1641309621595201 -0.0032879907640893 0.3815174937345155 0.2078507749927666 -0.2763475953126927 -0.1846235812635665 -0.1203565141376519 0.0998366792232372 0.0696088065203913 -0.1078544702905884 -0.0402963147024808 -0.0674336095365767 0.1337297008346628 -0.2427624458206687 0.0523511486892469 -0.0811395609596578 0.1843992823497808 0.1400869843121618 0.0318531798293376 -0.0720135296296556 -0.1559245382543066 0.5370808093455897 -0.1325324579064628 -0.1364482680567708 0.3494206735644327 -0.3365672346474683 -0.1641983659672967 0.0874562282239104 -0.0741234147150662 0.0728137017879585 0.0506022020746685 -0.0505210409206807 -0.0228020491437751 0.3841754038906048 -0.1522710199053954 -0.0860737215679621 0.2006873800710384 0.0619114855275505 0.1445108285500725 -0.1153417976066496 0.0029879451443849 0.2101533182429073 -0.0729364243838658 -0.3259034223052270 0.0234485805149241 -0.0498905845649571 0.0120214530139937 -0.1504277229961500 -0.2297860115031213 0.3911372917721259 -0.2010412866030135 0.1092249445209661 -0.3134410410629608 -0.0509248389811995 0.5866239763393649 -0.0858298442036746 -0.1109199296292225 0.3048222539289741 0.2958775233244028 -0.1077352989018676 -0.1087558004629601 0.3740659496904776 -0.1764887110455721 0.0342558066886244 -0.3784174991067767 -0.0690226415767810 -0.0496106311983760 -0.4101693804841305 -0.0420671054084479 0.1794908796841398 -0.3373866857179419 0.1090150184573477 -0.3843352115978563 0.3119229960258268 -0.0496116253372679 0.2637936171337852 -0.2070064502505108 0.0654535358525452 0.0299750401403599 0.0963265409258462 -0.0872637087267239 0.3345609821084674 -0.3418834098040739 -0.1886286305916025 -0.0827157706415290 -0.0882552847682707 0.2754489289386962 0.0334982010955066 -0.0981632000721852 -0.0955583086358807 0.1069556277341876 0.2636631757638928 -0.2655144149996079 -0.1321382871212380 -0.0786740470346901 -0.1591888100238992 0.0018029684588041 -0.2481213851319171 -0.2718427464315222 -0.1665620775789930 0.2678375871173047 -0.3863415806649568 -0.1190540079380439 0.3623789887512128 0.3371705375902972 -0.1319652519175178 -0.1044724854072820 0.0082856590809132 0.1370852023739368 -0.0382252653859204 0.0676605393409451 -0.1322244424020128 0.2894080244354807 0.1993622771838738 0.2350752360123582 0.0736167243262054 -0.2798700608368780 0.4634156427373541 0.1934181397680692 0.0295575488192248 0.0253609284391821 -0.0419371487672030 0.1420310871650637 0.3121055364879767 -0.7168203261666537 0.1391646084012187 -0.2603237329776776 -0.3757689997789729 -0.2891747452773518 0.0481161193935635 0.1833495004107724 0.0612355136820821 -0.0712456053668840 0.3102428784486274 0.1365152319265240 -0.3625968618948501 -0.1029794277473651 -0.3301620339355608 -0.4454313271473157 0.0697682955232721 0.0054020503603916 -0.0688346436973278 -0.0925838865991320 -0.0994931940778168 -0.0463437832673601 0.0291232246850918 0.0593264759889056 -0.0467953957427378 -0.2226026657083676 -0.0182036509966195 0.0914132139606074 -0.2097185830095126 0.0224433727858652 -0.0460901361078192 -0.0323503802476194 0.1343224096464702 -0.3153849664709116 0.0041736794806718 -0.2881966569967082 0.1500217233667218 0.0883328202812811 0.2215600649707614 -0.1049035522472956 0.0412823295616467 -0.0115908293678236 -0.1013983649335535 -0.1982086434654997 0.1131941200974532 -0.0666466536273770 0.1190897104274200 0.1083646406066052 0.0334186829755181 0.3409913999399675 -0.4263522743775424 0.4316469849977775 0.0067946673226286 0.7929805921311268 0.2075626165432100 0.0829489225609929 0.0658097855153064 0.1726521440079268 0.0487545389482982 0.1445633932023351 -0.0344522037480043 -0.1879744919169953 0.0542370175720245 -0.0812252450673078 -0.0670217367130996 0.1689040561085813 0.3229816925342239 0.0859482303445322 0.2214117940826814 -0.0092501685162024 0.1820872351651418 -0.2405578624151892 0.1089965553745481 -0.0764157541484689 -0.1432906858907195 0.3304716026366020 -0.0141888728442918 0.1623912238912510 0.1691390722766227 -0.0068017287816420 0.2291137746935701 -0.1439174942855393 -0.0668301039362320 -0.0844174892318829 0.0809719339328204 -0.1020578223198298 0.0893460533791932 0.2440838920787897 0.1748352495904072 -0.0209714679859727 -0.0311250136284773 -0.1194425706604731 -0.0006116578382819 0.0166411783293389 0.2178802630440527 -0.1183899505988137 -0.0135920270426629 0.1974646753427974 0.1474654267378738 -0.0476008573495174 -0.0103455303319679 0.2970735098618885 -0.2479085747304199 -0.2463632880566926 -0.3858205346786717 0.0519937927680979 0.2518788417190790 0.0255433041511456 -0.0097574154952816 0.0253464800282229 -0.4505416475953282 -0.3683676954307466 -0.0139456132059466 0.1138846554789419 -0.0132234238470700 -0.1392221529719307 0.1123699645601007 0.0373817209378478 0.0645646840028252 -0.0272109779750269 0.0027136705941541 -0.1439259467602709 -0.2129856822328191 0.1144734843932008 -0.0829072760126225 -0.3283246034452383 -0.2102946224375389 -0.0270454735550024 -0.1271820477502527 0.1486582550605000 -0.1976389720907420 0.1012949168244559 0.1122158165998119 0.0980771741449259 0.2133478207762033 -0.0640716293295476 -0.2306147768190138 -0.0243517470248505 0.1341398410001480 -0.0419037244195030 0.0502024093746908 -0.2322866451438121 0.1814428263938807 0.1465362983562756 0.1485784816399715 0.2729125761656596 0.0085361251699696 -0.0760559229147502 0.0620123583628929 -0.0250956763664055 0.0981094444992506 -0.0007994985008232 0.0124806871794730 -0.0698774711619441 -0.0561419658526031 -0.0672180835970097 -0.0498717511996250 -0.0464148520587065 -0.1457524272668878 0.0893700534326269 -0.0536883675145664 0.1953062142164523 -0.1299852264189557 -0.0876323039018924 -0.0643526282957394 0.1127047550322838 0.0308307575519375 -0.1338222031641174 -0.0561985250803172 -0.0098753730702258 -0.0424660941380647 0.0146147964194800 -0.0987975224978299 0.2525242666237259 0.2341681883678059 0.1534852697319222 0.0801755226070518 -0.0297593797290463 0.0496245362844861 -0.0731727267297605 -0.1964265739053022 -0.4649971312693391 -0.1540766892195611 -0.0197105645381766 0.0934447256449875 0.2500613961726312 -0.0211103837334100 -0.1147960979918284 -0.0119380618094676 -0.1123307270670984 -0.0056643532681861 -0.0243368456505278 0.0559165180780068 -0.0286909403891419 0.0430725565104971 0.0068103411927469 0.0907527621777283 -0.0357506952672192 -0.0615609628821372 0.1136786895792991 -0.1529592568509801 0.0699395964741683 0.0504100452239664 -0.0862322729937009 -0.0245916893725393 -0.0815577414493161 -0.0145855908782937 0.0237274800336322 -0.0119676000263978 -0.0101853740665120 -0.0803634333567114 0.1091691243224676 0.1496221033458493 -0.0110330247335191 -0.1926564703031000 0.1005430812265763 -0.0197333124943516 -0.0266273766958528 0.2364464383234009 0.0446652801819352 0.0101137132012828 -0.0002920104141736 -0.0906987295293774 -0.0407042580715754 -0.0145005969113721 -0.0275412491089049 0.0664879787753284 -0.0731390243130099 -0.2331024256807098 -0.0501320485260623 0.0446978977069216 -0.0802905148915517 0.0030014843350163 -0.0485093917253031 0.0595039216800214 -0.1189239890497274 -0.0044752792489803 -0.0441510964193758 -0.3134358821454131 -0.1233783740339854 0.1242412094024944 -0.0267673310653753 0.1055469951748827 0.0124296935130647 0.1273778341142638 0.0406043267505478 0.0652945925030323 0.0178445358628520 -0.1400028514751205 -0.0151274483029210 0.0790809006126490 -0.0557968395579389 0.0737727987752060 0.1517075083343251 0.0922566743062433 0.0108891539932242 -0.0242963758333953 -0.0670432886023056 0.1586072690795255 0.1398447209164998 0.0350801804011369 -0.0544790009243975 0.0257465607074399 0.0469040989036932 0.0129126751122092 -0.0397956297568999 0.0272659575415122 -0.0851826670528118 -0.0751368690573313 0.0371941098674156 0.0817943238637674 -0.0515681242122367 -0.0955133967596910 -0.0460150881605329 -0.0266389215304204 0.1466685044103806 -0.0400244868560115 0.0954175311412288 0.0021735848949942 -0.0288678138883868 0.0105166711578328 0.0338583375880721 0.0014246656865440 -0.1319506003997024 0.0518998976745927 -0.0400145922620547 -0.1659323888347689 -0.0316306503266535 0.0202922782104547 -0.0737156496310677 0.1653884135666481 0.1964138621212859 0.0730831676503327 -0.1299742134048603 0.1470059651601186 0.1521811206304797 0.0948072588870210 0.0932067056344370 -0.0729699253966134 -0.0539325316825512 -0.1584534534005836 -0.1807070153718854 -0.0158274706292210 0.0303390531991956 0.0382694303278613 -0.0164259204063951 -0.0799899605912505 -0.0521149677892168 -0.0719512398439385 0.1286827426131621 0.1582169627945187 0.0052411778095578 0.0240622448080899 0.0699797146512218 -0.1021843193716966 -0.0154241832762125 0.0278170221418687 -0.0699048816520874 0.1208573005174573 0.0866874017881801 -0.1084747725995786 0.1145241033898888 0.2137631496579666 0.0113636568404662 -0.0525333762634337 -0.0090127446653007 0.1486566227377603 -0.0342203488817591 -0.1042029040969778 -0.0294710635811971 0.0399028959378132 0.1432276203522235 0.0054636587460827 -0.0302599184202039 0.0325936207838670 -0.0344959693946201 0.0515413877944719 0.1384384593268121 -0.0217381254496815 0.0237991218754348 -0.0502614762069660 0.1760657679976978 0.1046075372224872 -0.0503276336192240 -0.0765379767846509 0.1298682085605166 0.0994931893296957 -0.0197552636970590 -0.0993263870228037 0.0043210465510414 -0.2557921020641530 0.2129814204724201 0.0981671274342578 0.0112556304598904 0.0750042007670076 -0.0049134119939032 0.0564791862537212 -0.0124571835313093 -0.0961994193416463 0.0045599073480416 0.0675700956694428 -0.1458920665189355 0.1244495075792057 -0.0030599993568277 0.0278545528002508 0.0235735009436548 -0.1195489760375299 -0.0487980467243712 0.0377917894859920 -0.2065396509343525 0.2584714614878632 -0.4326590997053351 0.2467779681716792 0.1229566013066715 0.1094287418898980 -0.0434872428081264 -0.0414076152924702 -0.0032803818809238 0.0728056907201895 0.0759939899570670 -0.0595144567035633 -0.1213203545911638 0.0439555789334236 -0.0410968464212413 -0.0411527307304105 -0.1387089077294414 -0.1290060352875565 -0.1410668463001802 0.0714608087586841 0.0680551195965340 0.1917932586102030 -0.1612824002249294 0.1867518720718354 0.0710296679930853 0.0542225377916524 -0.0081277524341054 -0.0408086711974838 0.0029100951729860 0.0454461100494218 -0.0541257582257406 -0.0198734041548996 0.0241562823697767 0.0675679360593062 -0.0592041351856857 0.1170009193274937 0.1071463785983249 0.1076837257526083 0.1076228357622820 0.1568683546983141 -0.0729763232859944 0.0043254196426462 0.1526369918720537 -0.0071570113285065 0.0278937072493786 0.0893752567095546 -0.0714456338364007 -0.0282501258370420 0.1113074315724649 -0.0565416570097550 0.1282982734283301 0.0591195886049713 0.0639978645656845 -0.1422416559428282 -0.1488450735836633 -0.1250162176011224 -0.0157891694109840 -0.0215928105658652 -0.0221768943357241 -0.0412263370973761 0.0211745753225457 0.0393957946696941 0.0096297897689133 0.0962950632556992 -0.0299066928548545 -0.0033700401356448 -0.1918273151925297 0.1823161710461697 -0.0418840415398545 -0.0947099939066805 -0.0504727485655990 0.0556763300273474 0.0881257950569763 0.1160031867482557 0.1115884357616632 -0.0663976173144605 -0.0180124113456224 0.0040972193865068 0.0754052579073790 0.0204689718719353 -0.1009299368437194 -0.0192626283662043 -0.1101243550804134 0.0570382890704587 -0.0342742317953150 0.0420056328895631 0.0124423222067235 0.0915103557068402 -0.0371810033558753 0.0624695727645530 -0.0902741616652744 -0.0660179883610798 0.0041944268012261 -0.1834018567168914 -0.0321833314317904 0.0250053740644243 -0.0249946258670338 0.0482673815724657 -0.0333126138240846 -0.0652694016643131 -0.1452671000399154 -0.0257464191994364 0.0194393298883311 0.0986927245349908 -0.0526333853999962 0.1215596512733748 -0.0117569533326880 0.0217540688571643 0.0525431544913559 -0.0357201477352837 0.0179003777634533 0.0952049401669069 0.0938177116216414 0.0136978850112462 -0.0921532749670224 -0.0655228257989707 0.0257650752070302 -0.0169446317491358 -0.0040953263700691 -0.0101536364461394 -0.0096040152849853 -0.0627790510047654 -0.0407903448683026 -0.0129058017824357 -0.0441807035143197 0.0038801303362028 0.0085397657889970 -0.0585483247412177 -0.1579802697923785 -0.2601439070083004 -0.0112178237556731 0.1716617751218155 0.1371405347188560 -0.0348668866586074 -0.2768607095366212 0.3004644708601251 0.0821481450696982 -0.0266130575105060 -0.0672337484162200 -0.1123250202625385 -0.1380039337215954 -0.0773922884114273 0.0238270117648357 -0.0133846074901739 0.2039601208601811 0.2431257062194792 0.0830956651467853 -0.0789321185181357 0.0241010400052305 -0.1619969926997319 -0.1723962135986398 -0.1647950078514486 -0.1363067843795239 0.0893541662575871 -0.1360701386051791 0.0769097850556395 0.1176579168322227 0.0888579245447269 0.1028317753445155 0.2216129774698280 0.1634344648985964 -0.1552630273264051 -0.1392262421615840 -0.1599750430715957 0.0337470331563537 -0.0702866269363012 0.1810743825854453 -0.0011916658079517 0.0020598700507967 -0.0380672156952679 -0.1561749216015452 -0.1713208343419245 -0.3052989978412001 0.0614724322206229 -0.1006781890821876 -0.2851439797149615 0.1450973999838514 0.0930906921507728 -0.1670447238602301 -0.0872951964199824 -0.0094966456543578 -0.0353445530094462 -0.0456229538031659 0.1986272396000676 0.0692873907806504 0.1531485387977022 0.1816714113519585 -0.0568981684565247 0.0906191540359750 -0.0306626668722786 -0.1071983950144581 0.3255223414035104 -0.1167967321598112 0.1726874452896172 -0.0919779724390286 -0.2729238878288939 -0.1812022560472165 0.1071163805769992 0.3135004494948458 0.0501328353151662 0.0229400793029232 -0.0589871484209254 -0.0482648790380771 -0.0624266574704251 0.1536970881792163 0.0926551136586170 -0.0482807500212082 0.0714461426273936 -0.0259486847652662 -0.0628761101608418 0.1129000623573781 -0.1127619935738901 -0.2784292574018983 -0.0751255893217527 0.0564886156253745 0.1104312983274478 -0.0321134026388121 -0.1150448321080724 -0.1587603162329344 -0.1096943225637763 0.0504454157106870 -0.0983195482623779 -0.3105516648359899 0.0979657093175240 0.0968264746594348 -0.0149594695387650 0.1657081566423260 0.0179082788371410 -0.0342835843618174 0.1598583866965748 -0.1314377751870094 -0.0097416592483958 0.1441592969389356 0.0175225417639273 -0.1912438709341681 0.0601775015031830 0.1796003865938512 -0.0028218423186398 -0.1142708430454067 0.0462002736436573 0.1925303482183509 0.0522494259284864 -0.0708647688953592 -0.2003149507485648 -0.2685184599163126 0.1809374960912003 0.0573185674483114 -0.0275426603981592 -0.1470398145673458 -0.1649621453417110 0.0209656842965905 0.0972070565334060 0.1788402943577771 -0.0095732885675113 0.0992905223462061 -0.1148381214341103 0.2260489687952623 -0.1177313746345566 -0.1373752367403067 0.2658274474904220 -0.0566074249404823 0.1242618625130969 -0.0531790626206790 -0.1147368042664906 -0.1218911448969163 -0.0765945256295548 -0.0389079744771599 0.0406414735284769 0.1110334943679769 -0.0935838483280380 -0.0279814261198537 -0.0632450221309595 -0.0880942032916145 0.1184613929355745 -0.1014511947637145 0.0167673287256101 -0.1952385347426366 0.0398790523372469 -0.0017358808684523 0.0880402423872218 0.0483518010142198 -0.1823250590085153 0.0322986673389314 0.1185904526734854 0.0762408674089900 -0.1143332433388785 0.0547454120093580 0.0099641221301511 -0.0579337278892705 -0.0439382126524876 -0.1119755009522945 -0.1271178423703758 0.0067466149825352 0.1188931228567241 -0.1797263286673896 -0.0068324511856396 -0.0570273812082740 0.0474590255774716 0.0172140343726854 -0.1309013287938972 -0.0978873566531133 -0.0530881600242842 -0.0371904640696141 0.0689258371510668 -0.0473902579357733 0.0949603740279777 -0.0031771010444481 -0.1029546907503571 0.0071059494447700 0.0089880146102497 0.0300521697458976 0.2232817305473247 -0.1738988637971986 0.1970742845635796 0.1363921962708343 -0.1170514811270180 -0.0749493320788352 0.1053444754768344 0.1584605688046910 -0.0928539573139787 0.0411356432082282 -0.1993017413306400 -0.2209293954230733 0.2310152359320879 0.1369746118716170 0.0034294857859838 0.1014950543555816 -0.1521876274853046 -0.1489265887451537 -0.1377925613036231 0.1100333597302689 0.2190062478571433 -0.0246955636648551 -0.0454053334604935 0.1264394868209604 0.1117408210006389 -0.0479026975074612 -0.0098145952179732 -0.0075420615843875 0.1125164900926854 0.1705381810819917 0.0936705816408809 0.0327138191789443 -0.0904196114280855 -0.1474116992295996 0.1767388653242327 -0.0936670442979617 0.0690375508479250 0.0744738611751447 0.0761170864548218 -0.0468001374598323 0.0830767571760988 0.0032239115578278 -0.0216925877701021 0.0479388737447542 0.0829022376430128 -0.1430258193308795 0.1845941765571277 0.0077311474412354 -0.1619418542037504 -0.0255787956516902 0.1091332435527322 0.1036394470018213 0.1751233685185273 -0.2082410692422072 -0.0210775714851533 -0.0321973100351053 -0.0076976077378938 -0.1611571794724284 -0.1436394709827556 0.1539561148878103 -0.0418716169341423 -0.0229873731437698 -0.1649986361892536 0.0173870648396038 -0.2228573031379851 0.1264110241998052 -0.0363639301828277 0.0282992707448385 0.0480645760554069 0.0072142611010930 -0.0221686732900911 0.1536783128107794 0.0058154677909135 -0.0249769769206651 0.0680381501819922 -0.0360694095492986 -0.0021577950875354 0.0299851069592818 -0.0692518914880666 -0.1193480256951116 -0.0053587683980939 -0.0867113307253886 0.0233819430661300 0.1053271421880586 -0.0697338606490065 0.1564376299075377 -0.0992143894037477 -0.0728184993412985 -0.0952194840280585 0.2965746088117152 -0.1578327041548189 0.0528557375099069 0.0029793232029415 -0.1395724837350134 -0.1879951642624547 -0.0573166146706280 0.1379639269083594 0.0351438490282402 0.0194594542800409 -0.0278149939285013 -0.0661624941823344 0.0414139815836066 -0.1912001015394557 0.0316756823786911 0.0255644188920782 0.1683156171961878 0.0018409838249300 -0.1237201818983148 0.0767059118417218 0.0112371234047270 0.0445404949993048 0.0317492678366849 -0.1928255604605633 -0.1017750144030256 0.0449635165726629 0.0248684589196941 -0.1628091781998028 0.0238679444840702 -0.0443871112458726 -0.0023714813403315 -0.0445313340703385 0.1177796880690334 -0.0175882327695491 -0.0377857977589352 -0.0014478303316457 0.0563217126011662 -0.0373801782365171 -0.0243610638668412 -0.0754103836091827 -0.1428221805192930 0.0104736547121964 0.0183660317752488 -0.0838145158619786 -0.0007782220909347 -0.0816540909208876 -0.0866136425105356 0.0189504473380748 0.0584716103597901 0.0644026949249421 0.0291671496931000 0.0665360813729549 -0.0096654305007144 0.0458986847211489 0.0006662046853876 -0.0279053107066221 0.0364608425350533 -0.0187509865976306 -0.0188969207394884 -0.0279298058889652 -0.0728965625065634 -0.0735647185221126 0.0696625155208057 -0.0994238574504234 0.0849632944575573 -0.0269086096899179 0.0410060503601879 -0.0379952067751136 -0.0026245586699872 0.0069301013635124 -0.0481047051639292 -0.0372223529708740 -0.0187587588258739 -0.0265742123561977 -0.0242960645705317 0.1241877661324293 -0.0200066314132646 -0.0155313613283489 -0.0546108200111119 -0.0598430042107906 -0.0153967979048230 -0.0073317361044245 -0.0017506142104039 -0.0091936736552112 -0.0457178925416034 0.0711297171498970 0.0771946986212613 -0.0146284377778200 -0.0256560581707963 0.0189626439210728 -0.0836268720973536 -0.0398819549809088 0.0103894485848970 -0.0019264352104413 0.0017716166517523 -0.0523588772040912 -0.0124392026573288 0.0248165723239022 0.0753776048581049 -0.0061052548547465 0.0510315928524738 -0.0189913600299559 0.0240217986480962 0.0309346619812919 0.0321298102800163 -0.0180348082530752 -0.0316675220016403 0.0039175179804763 -0.0215730653342847 0.0380177616686860 0.0941257939136374 -0.0558833435947646 -0.0552001447172293 0.0529453413069502 0.0421612089993833 0.0534560375821652 0.0109037342032546 -0.0076363591594099 0.0217913378674706 -0.0449033459838013 -0.0130808150739439 -0.0673217603718512 -0.0080320298368230 0.0202367009911324 0.0296818984617416 0.0528194640863784 -0.0526968462872361 -0.0494354415992399 -0.0253784281397036 0.0288101903391770 -0.0515506307876278 0.0350597541563059 0.0110894691934401 -0.0251936055867422 -0.0154666376258389 -0.0387831058654773 0.1034205710500427 0.0132008812101938 -0.0294423877643544 -0.0277070065574735 -0.0100122270531289 -0.0273129873565133 -0.0833216324944624 -0.0243536458150269 -0.0252831013112766 -0.0570907746574769 0.1088297776644648 0.0295872449210950 0.0318164247572769 -0.0438523176585513 0.0102013738879260 0.0483706400731945 -0.0200044490880112 0.0069685402200591 0.0281783155324637 -0.0368918296216079 -0.0409538887724855 -0.0530187822528301 0.1271917343778000 0.0353909747176724 -0.0142418252248784 0.0073355375873158 -0.0073577744718094 -0.0136765645528242 0.0114069908330154 -0.0210375145937182 0.0138824513348702 -0.0002732492302572 0.0459094452132061 -0.0636554921492467 -0.0391100828087166 -0.0549964563400139 -0.0129584657139766 -0.0825195773851273 -0.0278025459836848 -0.0164107275679689 -0.0115713857521774 0.0323213393442603 0.0638532338644763 -0.0084513949304878 0.0679505738088512 -0.0620177740478533 0.0861399391783825 0.0648873038744987 -0.0376606325703565 -0.0527951912640301 0.0144421200739710 -0.0090189282741661 -0.0022281337902749 0.0034571415693919 0.0139177250080198 -0.0607144851447798 -0.0296453654829404 0.0700312391859358 -0.0093580946559981 -0.0124422788049506 0.0490832564784571 0.0380874084747179 -0.0291857646586598 0.0227072348087970 0.0027031751972364 -0.0031767580161299 -0.0986164876819258 0.0336166511075831 -0.0144806393455816 0.0251755263147051 -0.0123675803483232 -0.0662473268447380 -0.0563343441527353 0.0518118563188398 0.0509712723109212 -0.0115790080787823 -0.0032758881708022 -0.0615743005488293 0.0312719016777546 0.0224073856637598 0.0667319159256212 -0.0331863008681571 -0.0171694213536327 0.0412906142684113 -0.0296163586601588 -0.0080621725101099 -0.1005250605442642 0.0617073840808966 0.0184264714190553 0.0252611851125845 -0.0308208957919247 0.0695979330895055 0.0129526812051753 0.0215335334434571 -0.0821305375363790 0.0267580627639380 -0.0271373054045225 -0.0300561464063455 0.0403393976781005 -0.0410772547469258 0.0278223560752564 -0.0308433135174530 0.0085890035758913 -0.0245279189751080 0.0146419947637819 -0.0056032759032909 -0.0046036229486256 0.0243502876837483 -0.0319444559857578 0.0010812100809542 0.0176585975567126 0.0054307971021301 0.0072981303657694 -0.0450331041184099 -0.0504193868300753 -0.0296819475435997 0.0322350014448854 -0.0052448741333548 0.0172990040763046 0.0168691285248186 -0.0116179251719427 -0.0112266532853215 0.0450036613797458 0.0326850079201574 0.0075562524109291 -0.0121368261075951 -0.0191654990698327 -0.0542993274002417 -0.0318781760623508 -0.0183971540441603 0.0331024410533275 0.0758754492459536 -0.0286271312269719 -0.0082407397171874 0.0062924086847642 -0.0253347713398004 0.0679116152747118 0.0495426885753385 0.0617829979421968 -0.0372051061993139 0.0383418172310326 -0.0149025847065830 -0.0853294404150769 -0.0125311260522083 -0.0270246966843657 0.0073589271546107 0.0018560704569159 0.0370352708429562 0.0831520437999752 -0.0181323447742032 -0.0678998203371218 -0.0400929769891357 -0.0010967336870229 -0.0121341684812002 0.1298142070919728 -0.0248109931441066 -0.0164601377378677 -0.0302833714901282 -0.0030162791991201 -0.0205247202433160 0.0238427223624757 0.0355972601421160 0.0044679094543652 -0.0567092536354653 0.0698052652468732 -0.0101895831623642 -0.0691037739460096 0.0323827471633835 0.0050552204996772 -0.0431377501626734 0.0212218353853640 0.0048400956000173 -0.0206017002389396 0.1133751937085613 0.0049690463809043 -0.0119679166511317 -0.0055664548565788 -0.0291162763970326 0.1066092813901453 0.0054469523428541 -0.0137602379634649 -0.0370744180142109 -0.0072435296464258 0.0569017316108257 -0.0256190534980623 -0.0124692412182593 0.0350303104448079 -0.0197789710364784 -0.0776060736443822 -0.0026118406203768 -0.0272620049340912 -0.0805845231436515 -0.0866790644708181 -0.1929714962915618 -0.1732695270495098 -0.1143205514730733 -0.1009726635013945 -0.1563427360526720 -0.1271173119565267 -0.0910786148746875 -0.0183486775213857 0.0542001199038858 -0.0253873317470887 0.0390445344366170 0.1131091627126703 0.1532793803457553 -0.1192160613429104 0.1169625781274065 -0.0742538610155161 0.0124273155455409 -0.0355755162223428 -0.0793235986251641 0.1386042992399155 0.0026484032663700 -0.0883526363018218 -0.0741065760889599 0.1455001471205383 -0.0683947863981167 -0.0361935700250223 -0.2045976968962508 -0.0338019485266586 -0.0698879782673505 -0.0590370194961882 -0.0004728338651075 0.0068702874261192 -0.1774458631792396 0.0314420041540206 -0.2108067408133520 -0.0885639669292611 0.0079753989454694 0.1390929586766611 0.2118929863452966 -0.0153121336980026 0.1628603134724010 -0.0393390251716588 0.0301906046714680 -0.0017929050006870 -0.0551818860862920 0.0211254546581021 0.1568967240098942 0.0050141331161789 0.1246195783599568 -0.0128033313635558 0.1628227569542356 0.0554894947559561 0.0480878930772167 0.0624780892320018 -0.0662242566528662 -0.0107140212156226 0.1472303429762135 0.0075864671400589 -0.1768684200045758 0.0568996995784691 -0.1382599268880471 0.0457991145659614 0.0596044380298669 -0.0270909921132070 -0.0571263696628149 0.0124436310059832 -0.0156510470804495 0.0751008226992505 0.0860559413938134 -0.0296934679528289 0.0031911062614066 -0.0826650567573393 0.0658572828139172 -0.2933766378304313 0.0392736078993332 0.0037253138347977 -0.0421843630250888 -0.0317589356616546 -0.0470571245453520 -0.1036187798272813 0.0049056011617672 -0.0233830606297766 0.0946301091382826 0.0476153000116979 -0.0660187159786392 -0.0239010497482114 -0.0836229930744194 0.0209848579867364 -0.0984271437983043 0.0467077161530018 -0.0124400334364526 0.0153035812816516 0.2023869212243962 -0.1560540273427206 -0.1151756985856208 0.0003131140981687 0.0695480807002592 0.0052663715477137 0.0698790003031762 0.1583126062513406 0.0534417030198878 -0.0848417072600458 -0.0406687874436803 -0.0528468479401086 -0.0479105785125512 -0.1409735061018479 -0.0014762879326058 -0.0254734023793881 0.0985804493929797 -0.0582352112082501 0.0566220726795991 -0.0093636464737383 -0.0232899117468894 -0.0271506137525327 -0.0052912157989706 -0.0662598429100728 0.0920436505156054 0.1578080231288033 -0.0306874315761542 0.1666105486879224 -0.1444903963089459 -0.0911843712928691 -0.0809494368668961 0.0156990350199428 0.0683952095241606 -0.0785343832345781 0.0360325614088381 0.0832392787287325 -0.0118827989217978 -0.0359663776198406 0.0446321526338781 0.0661343117331287 0.1655602342177377 0.0475427740991697 -0.0862813924625930 -0.0517634722329005 -0.0531093249913587 -0.0055552862337107 -0.0228575634360179 -0.1329902794897671 0.0536351079843252 -0.0860744078043284 -0.1125373983467284 0.1281591072660325 0.0920128792936944 0.0294911044245076 0.1504136380125540 -0.1035871002359277 0.0738115010594478 -0.0705882830154827 0.0255413615604877 -0.0346720990397389 0.0440669944851400 -0.1605792562303489 -0.1082678826456640 0.1009377918664828 -0.2527305761748412 0.2752244054679531 -0.2605328655307538 -0.1349493517268458 -0.0411756229326912 0.0934334729946494 -0.0087139195511705 0.0531897279310792 -0.0887168696927893 0.0972394475543576 0.0346123409203346 -0.0007745540680732 0.2241793743297333 -0.0260800551282288 -0.0422453588828569 -0.1651605972816789 0.0365658534775534 0.1693075188317265 0.0683006130886127 -0.0894015289083839 -0.1734032445687721 0.0244866252780997 0.0587825995130384 -0.1727796646392048 -0.0674565921414156 0.0126905595147252 -0.0536223317464928 0.0121816358137274 0.0048816509047408 -0.0484986124923808 0.0603579405749606 -0.1572447638071664 0.0015275036575273 0.0785581108880135 0.0178176198941581 0.2308736785009654 0.1217826695640582 -0.0187369288437245 0.0354365271721518 0.0501570319359032 -0.0036682427550885 0.0096505974387558 0.0673899163579722 0.0424203193178680 0.0225867394887439 -0.0402122541956406 0.0783247290138066 -0.0711110473297274 0.0326856119545642 0.0641907364675299 -0.1634112045759073 -0.0677667132486152 0.0222047829890136 -0.0054978503709320 0.0162273407957542 -0.1624441425450900 -0.0649242820324544 0.1382354167431044 -0.0113964763717534 0.0668846907136707 0.0772201055424808 0.0765078783119278 -0.0653306475984194 0.0888715054597032 -0.0460161559048894 0.0857753942570254 0.0725445312413929 0.0525292792956686 -0.0346728892643727 -0.0031891049024661 -0.0573312361760590 0.0684888628800653 0.0977147185803231 0.0136289249524423 -0.0291501115149041 0.0878537344338238 0.1151647271059871 -0.1601395338148105 0.0559864792113646 0.0212488777215295 0.0043909058479818 0.0666256146362095 -0.1620015775137333 -0.0613753328484695 0.1858326925328421 -0.0540721622682995 -0.0933077669061983 -0.1431703747431798 0.1040655184948608 0.0103667583684922 0.0368459271951681 -0.0108134437690753 0.0806276910425523 0.0826769751329486 -0.0476400471031041 0.0687337226838574 0.0066979431987468 -0.0316906808806335 -0.0325163859823607 0.0457839748820240 0.0037663517166246 -0.0151871517969913 -0.0323827918450414 0.0688354384141877 -0.0023231027793846 0.1473709470934239 0.0639915976300928 -0.0560614488253316 0.0440111051479255 0.0359466650194916 0.0323549237786060 -0.0112302608355701 -0.1029444379908692 0.0371476751187980 0.1061185079970366 0.0491194440722738 -0.0415367775862288 -0.0078421664185907 -0.0491120917566370 -0.1045554058130753 0.0408798647380849 0.0053136305983391 0.0761530591530199 0.0612824505735340 -0.0627007413124344 -0.0620908451804622 -0.1405543508603521 0.0030081065321895 0.0354502982386620 -0.0273627505103422 0.0512969697144647 0.1612180157215534 0.0281725849735740 -0.1008669606799046 -0.0834715898401053 0.0472874653508684 -0.0043144770319043 -0.0425363423689156 -0.0337679650927508 0.0811258314604576 0.0102251454686282 0.0722445533863064 0.0230798535389705 0.1115390702805834 0.0574551289489773 0.1079808964457084 -0.0641847130439946 0.0611575797199631 0.0504277477730810 -0.0193551962516358 -0.1065811604336656 0.0381600519935093 -0.0435477167962450 0.1038665906905217 0.1130151853680628 0.1301346015195357 -0.0633909554511354 0.0035158275169429 0.0989116128877421 -0.1288957991600682 -0.1317504586936492 0.1394009366790533 0.0897854752690999 0.0273933657005332 0.0888752506405999 -0.0166308842500166 -0.2780853266607285 -0.0744392864994740 -0.0627776779138881 -0.0214304124811513 0.0356348976940992 0.1691445436825711 -0.0273699021927106 -0.0181743959567152 0.0664383252202527 -0.1071639969721133 -0.0557619730952358 0.0103037355806502 0.0128071283673112 0.0216423083452864 -0.0443081534889901 0.0449276869868243 -0.0487503282462828 0.0081048279919446 0.0799503032590596 0.0088477900188641 0.0014924510574790 0.0669714712623875 -0.1753208201395297 -0.1686284551269035 0.0422709921217226 0.1651884546191215 -0.0956568597797890 0.1286996279531705 -0.0265254520645766 -0.1342809937372268 -0.0033228907344316 0.2463423280660927 0.1014151242065822 0.1176310113454315 0.1155523284689874 0.1587002365507834 -0.0442073040706667 -0.1000706383191722 -0.2387316395500067 -0.2063700378354974 0.1039626530152030 -0.1317244705682424 -0.1282901327113204 -0.0038166375688673 0.1216335750786450 0.0017637989646270 -0.0807329723820514 0.1213980623747903 0.0418516771487060 0.0556246947726667 -0.0449576384689442 -0.1672891766255832 -0.0095698316785110 -0.1317752862367141 0.0735539885955117 0.0461619393660758 0.0181157620849398 0.1224929855283668 0.0952804166141425 0.1167121259323255 0.1401784652543459 0.0550231630977546 -0.0516837096905992 0.0293727749432987 -0.0356810674638146 0.0658675588832660 -0.0195990898918159 -0.0394574019241197 -0.0034701460643313 -0.0854453661805293 0.0663300906396322 0.0049020262264996 -0.1266983965665394 0.1041107075957189 -0.0003319828577329 0.0422854917373509 -0.0983351324387349 0.1021754587066781 -0.0331376036116954 0.0177248870491996 0.1162023082973157 0.0420773297211775 -0.0119958152633937 0.1123038528918669 -0.0592384726328032 0.1187241886376281 -0.0184116118406418 -0.0693270197249412 0.0483806362642602 0.0707871508485227 -0.0448120205455715 -0.0121207231574406 0.0065823764812822 0.0706579940356569 -0.0060644648171087 -0.0532493617013052 -0.1104735356444989 0.0814675562209342 0.0097250826456633 0.0869976894057849 -0.0037912357339841 0.1374093014362149 0.0566232245873509 -0.1482172304543670 0.0137682370876532 -0.0049599760991910 -0.0199647480202964 0.0480964740315827 0.0369389293508122 0.1341897409239987 -0.0074361519976200 -0.1385659550508731 -0.1023498861404945 -0.0368904352277332 0.0569903488644069 -0.0715122441056169 0.0535569672493789 0.0907232868350550 -0.0269634704359540 0.0365257755647989 -0.0125839624966455 0.1135243966514383 0.0161988482551003 0.1324287362287621 -0.0167412422384514 -0.0742244307361922 0.0363043027395305 0.0578393499925328 0.0714047238325298 -0.0428571549994679 -0.0897620575511399 0.1350982153016960 -0.0074943231991718 -0.0316548036668290 -0.0407922247861834 0.0288660522604773 0.0688146884325976 0.0291208960717705 -0.0326142707691928 0.0508747187817001 0.0572861837971488 -0.1212758172798996 -0.0218691277813207 0.0155029138454150 0.0586457963166998 0.0595999110473204 0.0271377988473093 -0.0202803427014164 0.0593682491372916 -0.1443963686606893 0.0282526295001622 -0.1943841114375294 0.0524947077804785 -0.0515618223872884 -0.0585214300963229 -0.0458003252142416 0.0724045851870764 -0.0029769327829533 0.0062300124135476 -0.0973209178984847 0.1331554098890773 -0.0651099631014710 0.1536542434829959 0.0132386632545897 0.0477306529790184 0.1677315554467745 -0.1950221468766470 -0.0862692401101997 -0.0473598838967733 -0.0138594049655014 -0.0117597225564063 -0.0151559166196389 0.1423175526384575 -0.1952271018654221 0.1405738681106532 0.0550176637444821 0.0059053372380507 0.1074804578773418 0.0296905976286780 0.0035714121163557 0.0510959525244217 -0.0524126718515761 0.0702674480561870 0.1146703027402962 0.0746362058913919 0.1336605143531658 0.0786784923589078 0.1395281000800779 -0.0434687572943019 0.1072551073873002 -0.0458193196361453 0.0208430861882335 0.0594669603795012 0.0950431014432535 0.0902542799891009 -0.0099017412846453 -0.0659022030565039 0.0327447518760101 0.0213944931204634 0.1632918119955475 -0.0924721782826707 0.0767991967967294 0.0357394349480678 -0.0916016663422687 -0.0118481860620871 -0.0789972790982496 0.0044298988038502 -0.0444260317085953 -0.0095849069078425 0.0898708841995526 -0.0166468807948719 -0.0485157963974045 -0.0653424813132152 0.0541857063067507 0.1200280415323376 0.0454207202399647 0.0537021765556543 0.0343157533506077 0.0059780617145983 0.1070099362983987 -0.0611456800395313 0.0192013672308495 0.0151874533310781 0.0094449141973554 0.0277755890070896 -0.0580188781777743 0.0551823830081595 -0.0920416969949476 -0.0459291644769969 -0.0505214683163055 -0.1215593836424957 0.0170236926229065 -0.0136409107472595 -0.0725025706728784 0.0713366141349880 0.0151792577956414 -0.0329805658593988 -0.0462600398966949 -0.0727019458111337 -0.0293589934097015 -0.0583399587544595 0.0212529243523931 -0.0668460256428124 0.0855131616452584 -0.0308733738171809 -0.0642769138535002 -0.0851256538494416 0.0325658648117726 0.0022197478578032 0.0391310505474321 -0.0174920719479118 -0.0494939423966782 -0.0798811859796377 0.0176145736071137 -0.0237688977794191 -0.0998191247146256 0.0275538159384615 0.0526486061313141 0.0221168790734287 -0.0997788240808193 -0.0189133423784341 0.0295491857423146 0.0628042564025484 0.0310758455261770 -0.0563392918152025 0.0343323676720842 0.0449530693746361 -0.0059824607765050 0.0878914781827828 -0.0205827573629333 0.0091260646547702 0.0389794033247645 -0.0285639801717499 -0.1739858207979635 0.0569265988878787 0.0348436642386153 0.0474211307997042 -0.0639881878989395 -0.0948705234369722 0.0092039574934033 -0.0489121616001046 0.1046509498489511 0.0685858554373490 -0.0480571524569714 -0.0358192702051650 0.0825496552781435 0.0102775850019100 0.0131130524523063 -0.0899342331723025 0.0256195341051823 0.0687506519605528 -0.0281874794993052 0.0332931913277884 -0.0299350353106563 -0.0163051586115710 -0.0226092247289934 -0.0304835748882342 -0.0739986612957522 -0.0500528911053533 -0.0385597536690586 0.0147577082580043 -0.1128906212268462 0.0478902730415952 -0.0176463858653621 0.0149100059720279 0.0635178381412186 -0.0008399596670688 -0.0009015062185343 -0.0782341599998433 0.0245084385972467 0.0327518876077824 0.0584547522365664 0.0177343813386846 -0.0459405991333590 0.0710043306682011 0.0654418364797931 -0.0357833371061291 0.0826381514863372 -0.0248655999090544 0.0004695231522898 0.0211799558542871 0.0268139968212199 -0.0569388241064885 -0.0400008722834670 -0.0155639514509271 0.0656686341548378 0.0654027336389693 0.0449445396323492 0.0049337693334452 0.0633373204820610 0.0281241834956834 -0.0081477960681133 0.0347118355277570 0.0623473139341124 0.1143446627412333 -0.0357188275635566 -0.0015798318227840 -0.0445377585972745 -0.1088233656188513 -0.0539848309059040 -0.0340846531553708 -0.0466260272100568 0.0003947918415075 0.0088323695842904 -0.0405253833868649 0.0991270595876173 -0.0463129329580268 -0.0579438265928824 -0.0249900577559850 0.0101557583772549 0.0158804946305473 -0.0515095098975895 -0.0227592249518236 -0.0163938492047896 0.0182782786696180 0.0254979255315899 0.0377109722854269 -0.0143645427735898 0.0719077646837887 0.1098756156086260 0.0033011700794221 -0.0230104819331045 -0.0119976918073663 -0.0829690274530686 -0.0189727772395618 0.0548193084314581 -0.0058149855661502 0.0239940751170638 -0.0623453011621115 0.0134021707606935 0.0286003153980783 -0.0185725358044100 -0.0616103943501481 0.0410149654604122 -0.0226868841179223 0.0481047429553844 0.0493156152271419 0.0097108164001414 -0.0462280999598833 0.0232538633503756 0.0107882236004163 -0.0518634877915302 -0.0184976456106763 0.0020083063078923 0.0076365092956338 -0.0628933658064600 0.0505926653877268 -0.0211119122299887 -0.0112543759761996 -0.0279902383532023 0.0433709791778665 0.0158052146541428 -0.0255887054685912 0.0659108292412185 -0.0117077808453389 0.0810292275342170 0.0293472949675680 0.0396088552532667 0.0340272316023326 0.0328310196636457 -0.0737745557744810 0.0422238523612781 0.0191100579376122 0.0189817082078698 0.0880785782166099 -0.0406265387432398 -0.0170542414930991 0.0294702108032398 -0.0096598459339705 0.0061302252212144 0.0678687605395974 -0.0405730309834281 0.1091592603111905 0.0014920367396630 -0.0102930552989802 -0.0795854897746159 0.0248575270749083 -0.0171277688977511 0.0779374838341928 0.0678412040876602 -0.0279154204110094 -0.0132770201946402 -0.0087915677418813 -0.0568038067297329 -0.0590097015594785 -0.0187007338295140 -0.0075305684130568 -0.0806356984537156 0.0407028926217628 0.0231671575247826 -0.0360207824217375 0.0648270915102359 -0.0626549055323599 -0.0794731086655310 0.0251530291163188 -0.0132502055254496 -0.0161140910152078 0.0061726162629029 0.0626078582035743 0.0426679706938100 0.0271989734346837 -0.0250086126118335 -0.0510895231766938 -0.0214640220230974 0.0254682895107588 -0.0553244268691047 -0.0993563683808631 -0.0494892754026178 -0.0359973883730269 0.1055294026332675 0.0846922685500290 -0.0513297797832485 0.0943185207019711 0.0030037557319523 0.0000990430468446 0.0129243099216432 0.0676860337236611 0.0701883955530299 -0.0505913467175978 0.0941367473325844 0.0692245516248047 -0.0483921594310137 -0.0187291398455729 0.0310183998178244 -0.0059413542182830 0.1012985361130379 -0.0310373089736340 -0.0647201341782805 -0.0395240432142668 0.0103071437309480 -0.0593297346171284 -0.1740943101696015 0.0476068312109256 -0.0697928721402659 0.1661164458482836 0.1186939144461274 0.0423462976485449 0.0878165243241068 -0.0002935168663318 -0.0948598825992631 -0.0200472461773221 0.0706573910579914 0.0137162767920909 -0.0632359538339302 0.0652475061536712 -0.0210959816143379 -0.0639846001761795 -0.0889374241038505 0.0519301631421248 -0.0278570337656831 0.0582956783647544 -0.0076233515642345 -0.0548111497823490 -0.0227113319616526 0.1132202336634411 0.0120826382831448 -0.0036428997365065 0.0737542996981609 -0.0093836149253500 0.0729844333974033 -0.0189116843700141 -0.0579481930948481 -0.0154552856203529 0.0737826687684065 -0.0335218329047285 -0.0555490798232688 -0.0756618927310735 0.0044238847936563 0.0510767515297266 0.0134870078835580 -0.0390375244806302 0.0358792272272190 0.0311370994611974 0.0214465350628766 0.0062114362068787 0.0610681755911379 -0.0582790365929642 -0.0188500211147375 -0.0204406257476984 -0.0400252331540301 0.0024213655709150 -0.0390897974637667 0.0257441062313377 0.0222751488866020 -0.0580119987773099 -0.0002595360269714 0.0100022160641305 0.0521450581777109 0.0554240703220708 0.0116708142711815 0.0561560209590307 0.0598395726956648 -0.0447656991038989 -0.0128389422938835 0.0090815353406743 0.0243937498179333 0.0183103575825359 -0.0330549957231950 0.0418042322577757 0.0386603600674288 -0.0208548230706538 0.0074035702239459 -0.0570272317911469 0.0408158246951404 -0.0548698015797920 -0.0086052776996160 -0.0465738265397198 -0.0426182329259992 -0.0059559282916121 0.0574713575719779 -0.0288090699478792 0.0125410473926149 0.0177020049933649 0.0811421006264048 -0.0252964377819614 0.0197677107922152 -0.0029375053055703 0.0648014322442737 0.0271573250071890 -0.0665872946486221 0.0170378170488732 -0.0123654690564793 0.0003584956285219 -0.0090104010655757 0.0541067398008553 0.0038954050976937 0.0469955080930740 -0.0695757816115702 0.0555699282037557 -0.0338910677150599 0.0482408757717110 -0.0500072985867348 0.0122180657718987 0.0230138835812429 0.0085324844889847 0.0252780091371579 -0.0496000947793068 0.0602264397279308 -0.2516906937589397 0.1604480660532231 0.0315371825785585 -0.0550368859467003 -0.0273164366192832 -0.3197162519538571 -0.0936729529332054 0.1729468187102657 -0.1088153712041140 0.0965384239185709 -0.2881909170409044 0.1103309381875979 -0.1824339534702042 -0.0271295365935391 0.1421682322144781 -0.2120443595529949 -0.3337223069692888 -0.0780936158345010 0.0599319987832798 -0.1405431221015307 0.2005294288831084 -0.0852223374045719 0.0253537060288375 -0.1108946375424599 0.1163693229197848 0.3093743883144492 -0.0115467560343446 0.1187597530727972 -0.0636588969959419 0.0573347059068475 -0.0498820334097007 -0.1896720451977982 -0.0009457171192537 0.1458875305973130 -0.0328809488807438 0.0999003362642932 -0.0038011854732290 -0.1404153576820757 0.0728904544195450 0.1198235585690899 0.0772336562392144 0.0675440866456707 0.1408464421168967 0.1579618895820326 -0.0893252398293269 0.1391970855936416 0.0400930919349711 0.1104878550687122 -0.0320027756568367 -0.1394840371521427 -0.0012896994722196 0.0124490235126349 -0.0576124177065869 0.0663201063233513 0.1958823883916073 0.0181119976160125 0.1350149864683437 0.1011494375728852 0.0847392756115271 0.0634370138106050 -0.1386325404544485 -0.2529027558539027 -0.2156958841386571 -0.1125310193201428 0.0169268189204730 -0.0416178828492056 -0.1383896516339613 0.0871222084255414 0.0765000127370484 0.1367044044668710 -0.0866033323458076 0.0968183623245987 0.0037536029804216 0.0609109329507574 -0.1657259748452431 0.0053010946968993 -0.0800322754843244 -0.0810881422086448 0.0444306191653994 0.0626937510010277 0.0717357844561526 0.0436126166869912 0.0483144472144772 -0.3206089715523590 -0.2498794322575643 -0.0620959544582590 -0.0336204345492561 0.2452407728969073 -0.0118708628256803 0.1088412202997099 -0.0044983310519208 0.1128070669953896 -0.0348738940955677 -0.0177660570797308 0.1991711109677115 -0.1163303867752865 -0.0653641005054459 -0.1021738290195602 -0.0644545313041240 0.0469561517552321 0.0024346792547164 0.0716566375509498 -0.0158029845217213 0.2254696917947952 0.0042015435156961 0.1354575091942618 0.0923614366262657 -0.0019526689940414 0.1343578629067550 0.1108173701243737 0.2134298493966704 0.0567049285095755 -0.0471051871659042 -0.0187748293457418 0.0298836493090635 -0.0365628775459076 -0.0580954237321462 -0.0803538119690972 -0.0688708863507879 0.2107998290803451 0.0462099254533510 0.0299393236748617 -0.3031867433182089 0.0723244807197917 0.0467890302069831 -0.1739490253119463 0.1460949566533516 -0.1919583291123660 -0.0033445382050113 0.0396782185062404 -0.0561887446181918 0.0113614252075405 -0.0636772232258476 -0.1884188291438604 0.0925833709718066 0.0590854713174493 0.0288045681312575 -0.2023962586362192 0.1416092691563624 -0.1892486828050554 0.1586704671942516 0.0469782221600965 -0.1115492646525381 -0.0384746393625435 -0.0236453197897973 -0.0595547215325643 0.0093799911391105 0.0373464305047942 -0.0262163129910199 -0.0358578661229607 -0.0717159937749289 -0.0283370240587947 -0.2870641795854983 0.2603592175447432 -0.1236381598166602 -0.1209342142892632 0.0992872648260848 -0.0824693552158318 -0.0630832761452024 -0.1397329932915782 0.0475966135842091 0.0411547618942155 0.2842973871530553 -0.0465004311985836 0.0560449316693106 -0.0682497645570961 0.0105189992027700 0.1384911660743436 -0.2257738502217213 0.0133566515855619 -0.1131291868026207 -0.0280849257441993 0.2009496811480798 -0.3219286256387880 0.0058038343668233 -0.0462545699130065 0.1649410145155251 -0.0349379214821819 0.2134847222177939 -0.0323951775703032 0.2816039971433734 -0.2369358008673975 0.0692528244083362 -0.0314682393467093 -0.0249583858541300 0.0838556739692455 0.0823331367093198 -0.0666950209704286 -0.1749179970327544 -0.0145262614870187 0.0329043816273465 -0.0345439507957526 -0.0195861537782887 -0.0662642903064714 0.0893129096043784 -0.1477665367727040 0.0273163352835519 0.3252751646202738 -0.0191730745476633 0.2057291071224094 -0.0115727155248569 -0.0462167023522638 0.0096378461232296 0.1535547846132632 0.2609594575269831 -0.0648973054488745 0.0049836554959031 0.1932375829024316 -0.0955076377654407 -0.1536691601352562 0.0413506251015085 -0.0745918734129181 -0.1210697888503771 0.0364507820596265 -0.0601776372902680 -0.0477024072748796 0.0348894033836437 -0.2372738842587716 0.0507422312690460 0.1903854751205186 -0.1967871367387075 0.2886699095016139 -0.0743731846424917 -0.0589429707253368 -0.2976172352379306 -0.1662981668676733 0.0167109149528727 0.1242364081299186 -0.0885972245108819 0.0861879572830144 0.1282415346488454 0.0918386867909154 -0.2160693104071285 -0.0893279250445859 -0.0000537274734772 0.1285812149390756 -0.0020072792982935 -0.0959634144012317 -0.1502674423881726 -0.0273713655082161 -0.1672790331234316 0.0656716210463804 -0.0592476049520337 -0.2297546841927857 -0.1766802912958633 -0.0516024596611459 0.0683946373505963 -0.0495845086280605 -0.1367486361026061 0.0866706074210941 -0.0520811231186854 -0.0286768969315919 -0.0605226741353131 0.0956022933749158 0.0460142453924316 0.0052860160689787 0.0823030556612746 0.0059334621983489 -0.0266430406116273 -0.1125455762529094 0.0292983838426707 0.0685829813942694 -0.0484803832607405 0.0321096908300978 -0.1513116003260243 0.0559892898047424 0.0285102675884012 0.0765227118327606 0.1365886781071458 0.0243795804404970 0.0706148898293177 -0.0388118246628428 0.1222975153007660 -0.1182784304151975 -0.3789920032458811 0.2561949738941725 -0.1775103631335797 -0.0462731420492383 0.0074898012217111 0.1060915023058211 -0.0053853825073185 -0.0145971959548220 -0.0541060526848467 -0.1741250933170611 -0.0439083331651173 0.0411748414414082 -0.0952750996324217 -0.0152049885104608 -0.0210955176244477 0.0057744005611160 -0.0383700103174375 0.0330336368559146 -0.0055940750977487 0.0593565227158445 0.0069210919358261 0.1000547662576590 0.1176286989646240 0.1643104941815005 0.0047583639829270 0.0402110765379744 0.0035840923082543 0.0170682364667315 -0.0295357840975873 0.0434458301070999 -0.0422294274961518 -0.0256827981641278 0.0210716830868206 0.0368266536326831 -0.0303279313806586 -0.0079579880502752 0.0252114355144856 0.0352969438624253 0.0356350318547481 0.0279974855940031 0.0020981418943724 -0.0145236723504297 0.0420012856146756 0.0049541750725397 0.0115128865470740 -0.0039588808247526 0.0112152443720140 -0.0045925375372793 0.0231374369133169 0.0121567632500408 -0.0266063293170778 -0.0009580534557785 0.0294061957614153 -0.0089789102598251 0.0143516286912494 0.0048267306926763 0.0017431296428677 0.0238680785827615 -0.0067087103336180 -0.0172257850742213 -0.0214798583073274 0.0058695620750725 -0.0288774254863283 -0.0237400573067680 0.0028513416592897 -0.0067217124559457 0.0159747521678939 -0.0196191704073964 0.0190004401847777 0.0012606192094170 -0.0227681152321714 0.0067393612998152 -0.0251417868661090 0.0221022871895078 -0.0239598609973389 -0.0139525467831222 0.0252918492110038 0.0297510174130048 0.0239151613057264 -0.0127592486284330 0.0058299627495726 0.0440692257411073 0.0244818608064507 0.0275957806659882 -0.0033054724447136 -0.0006641834532285 -0.0116987828813393 -0.0062536119803977 0.0009597073471639 0.0095179895789746 0.0034617814999614 -0.0136582024874978 0.0276594810850017 -0.0075116683964735 -0.0061408561421028 -0.0110198708763318 -0.0115746692862714 -0.0000619120264336 0.0066504654967356 0.0201310999671056 0.0089942344522303 0.0165751047318385 -0.0003354767366074 -0.0211897752298294 0.0190572432831869 0.0023079177768471 0.0185255104293276 -0.0137541001637960 -0.0124239535926744 0.0026189751899389 0.0051358234264996 0.0112264170474445 -0.0199513391026457 0.0198993841876867 -0.0012491018409250 0.0115449242960483 -0.0069109090194820 -0.0033063262035687 0.0056904804862147 0.0232385886958798 0.0148401804320296 0.0003334166928143 -0.0014627410483770 0.0017848144908044 0.0154159995361429 0.0190307376176304 0.0253677410490277 0.0242172164982019 -0.0018852951698624 -0.0353515612244802 -0.0097371307199948 0.0045636794483194 0.0069319311095856 0.0326887217728665 -0.0009641774910349 0.0070734359311991 -0.0238381130954814 -0.0054093622282288 -0.0001382555322996 -0.0046410502603472 0.0060091947377477 0.0107273836597043 -0.0290006174727050 0.0137481061620324 -0.0253364429955338 -0.0166013253518710 -0.0077901232483197 0.0009857801436195 -0.0002620410546436 0.0131644062695876 -0.0177528157110797 0.0249002744259526 -0.0237410464486874 0.0020673896660210 -0.0226998762604306 0.0014085262818580 0.0319227090544755 -0.0118904661752194 -0.0200396052012872 -0.0377193510281193 0.0109117978092163 -0.0047994621997222 0.0267222445195617 0.0352204664885596 0.0087137454462749 0.0348539207158351 -0.0245628574395801 0.0209575142947296 0.0382439466758634 0.0383225339110095 -0.0044830288399823 -0.0258036957856522 0.0024727514165549 0.0091910359875133 0.0081659191775890 0.0141752802743116 -0.0233239864432016 -0.0026985687926516 -0.0324560350248540 0.0009855831859793 0.0139592386689689 -0.0118988412510008 0.0150169888174758 -0.0231057347414470 0.0239258126458416 0.0072044455420872 -0.0201377191175172 -0.0105741573103256 0.0307493349364618 0.0140624852633417 0.0005347216884599 -0.0120318693116013 0.0176208384102019 -0.0085340939910848 0.0013135839286551 -0.0084981376498126 0.0178912735503211 0.0122183216124360 -0.0097743412323145 0.0210804479423833 -0.0044783159662531 -0.0329529747321804 -0.0098717960924449 0.0082978068867855 0.0185533433313299 -0.0388512096838631 0.0004774400868970 -0.0178289363632817 -0.0188746948094976 -0.0087024466319713 -0.0304882762798730 0.0134685942498137 -0.0116030112390020 -0.0207241682431262 -0.0038041575732619 -0.0075521636265713 0.0030319253089755 0.0217116194186565 -0.0005909334202988 -0.0145848520318506 0.0469665660730196 -0.0013970800018701 0.0225825027777110 0.0272276765280631 -0.0245731366848730 -0.0008567140238878 -0.0155063065595394 -0.0364028298338196 0.0117209265990734 0.0047405380304057 -0.0089045879287991 -0.0027010597897938 0.0289251361900796 0.0114657580388068 -0.0228962865700495 -0.0047846619154977 0.0202054853993332 -0.0178128910801132 0.0130474798106292 -0.0179878834171465 0.0200040859790494 -0.0273219003792184 0.0115312719901310 0.0168216930980660 0.0187961264468320 0.0055714373521785 0.0242264212284587 -0.0270552010648989 0.0126354490444220 0.0100390267506464 -0.0022644636229060 -0.0003386610741036 -0.0136385769464763 -0.0050577547580383 0.0065834250299349 -0.0036815327397005 -0.0208314950824384 0.0157723950586277 -0.0130126350328837 0.0155878480910872 -0.0128615359064154 -0.0288765755155088 0.0134450191663076 0.0203179044658696 -0.0260941703089209 0.0222383574227977 -0.0147606464030692 0.0101904571499479 -0.0041457015809472 0.0145710227092291 0.0259782598301960 0.0257416483102595 0.0052759368855943 0.0020513290595050 0.0189070186302580 -0.0248577777764732 0.0157383649023650 -0.0232760284306945 0.0123940305156676 -0.0281371868180250 0.0227672893346779 0.0316505705535553 -0.0416006939164299 -0.0320248298374854 0.0259268873519610 0.0265482159553045 -0.0168850861200533 0.0122298876263934 0.0101419781782928 -0.0007874044859983 -0.0077150475393283 -0.0103618696994178 0.0298443833163976 -0.0356171608604998 -0.0051240564794059 0.0108483473006594 0.0267925841878625 -0.0073807982649762 -0.0160189071731960 0.0304590339632135 -0.0391441611829831 0.0294245642129574 0.0259249493925902 0.0106937653307216 0.0223125293173532 -0.0069215206530268 0.0071056634967386 0.0012420885600919 -0.0048870408105286 0.0096170286779377 -0.0140621783808343 -0.0151112872392708 0.0008581640785609 0.0280763969934730 -0.0346609603201230 -0.0305553064547470 -0.0224011618895551 0.0143800022461511 0.0405755906006945 -0.0352755279909215 -0.0129156044386758 0.0038297538059338 -0.0254826834651271 -0.0145255132285299 -0.0185684597967968 0.1216803264471578 -0.0636975985961975 0.0818903447099907 0.0522751890493863 0.2111594667299334 0.0295615779408051 -0.2208864561796515 0.0187631440816174 0.0542644976205006 0.1095936095631556 -0.2433618510734938 0.1109299687372886 0.1439349750500195 0.0947799549463065 0.0966652569248467 0.2070723706241327 0.0564930775706988 -0.2613468752692975 -0.0519562583029763 -0.1086641543321054 -0.1700726899213864 -0.0907638819361899 -0.0261978942471765 