solver_type L2R_L2LOSS_SVC_DUAL
nr_class 2
label 1 -1
nr_feature 76800
bias -1.0000000000000000
w
0.3084810489078701 -0.3512550404586943 -0.2098451385367806 0.4406799060705412 0.9027904147444177 0.0303312345013493 -0.0419988271048655 -1.0482733803179545 0.5190359043934031 -0.0831461424543580 0.1179464166063444 0.6747724390145871 0.6843067343368536 0.2234063190038897 -0.0699383253991475 0.2237285792424744 0.1862665629795652 -0.1490608713862998 0.1049960571728692 -0.1325580759938062 -0.1449867570304526 -0.1834480922574695 -0.3536624062344207 -0.2323966406493862 -0.3986820624271534 0.5857520612456697 -0.1837608002779870 0.0508187163069144 -0.3182812110172471 -0.3713437577842781 -0.1099326240415177 0.2906528638962277 0.3344605276266762 0.3871619702868817 -0.0029456671628591 0.2629692227884548 0.0013075889342085 -0.2410925694084523 -0.1125588857332013 -0.2324097795277304 -0.1041169697486437 0.2177237151045960 -0.0672044813286904 0.1845423709526438 0.0257693114808337 -0.1785321500317188 -0.3306078770518325 -0.2350049815958810 0.2858997201488607 -0.0809463380958991 -0.2063538946645357 -0.1987689725557223 -0.1724198671105058 -0.2523248007766033 0.2671050532100996 -0.0155755023128640 0.1688183498036766 0.0496431920592407 -0.3081954496303794 0.4583211409343773 -0.1374121177057125 -0.1761969423826461 -0.0555090567518037 -0.0523220313312893 0.0254699454158695 0.0925084150418191 0.1325073512227891 0.0973870425985545 -0.0571767745621120 -0.0384691769772307 -0.1566960079539794 -0.1020523126748491 0.1538976775883595 0.1507847485101737 0.0050054735352476 -0.0921669503023307 0.0426887516132281 -0.2751717883148144 0.0289707255870933 0.0169965405720597 0.0199962280020182 -0.2042687800612394 -0.3308613686969761 -0.3370812056436445 -0.0822486204327449 0.2821930395010046 -0.0814940145428411 -0.1537627313937053 -0.0433104872054550 0.1702923598362920 0.0066674693574585 0.0601472472469770 0.1486488983246432 -0.0755165301164121 0.0177673512907394 0.0463903363026747 -0.2633652539064492 -0.0815159055535541 0.0311684478531668 -0.0996148701353925 0.0463381958870536 0.0762344062789223 -0.0077200083193812 -0.0733603733131513 -0.0320289678219644 0.3269557622182104 0.0909349317203077 0.0607504003736987 0.0667001932285658 -0.0866368857319409 -0.4819513508301400 -0.0050085074772835 0.0889590861116231 0.0956004599163949 -0.0214214527333305 -0.0276992290233784 -0.0571369119529256 -0.2716522511676902 -0.2209154682765572 0.2136510157989120 0.2644137812126450 0.1105754509232908 0.0416581732217945 -0.1488924708261692 -0.0471346807391159 0.0008994925581394 0.1270723359368464 0.0270903712463530 0.1335108752290295 -0.0031414223642735 -0.1260175173656851 -0.3733959192600438 0.3788330002778894 0.1531141568843195 -0.0674008218449463 0.0307592989148963 -0.0304133726443339 -0.2266383365095699 -0.0000445548143367 0.1795892558476715 0.0379312085561948 -0.0947730066149718 0.0196978508264209 0.1975018140746457 -0.1053320030203016 0.0821140429948320 -0.0840425484282545 0.0489830125789390 -0.1481505776931003 0.1471968299669263 0.1621419397008244 -0.0240686452022203 0.0872120733144920 0.0562299501912593 0.0810223124231529 0.1650076915006913 -0.0584427788326297 -0.0703634811374640 0.0012186435787686 -0.1893019530359138 0.0035041530965152 -0.2072810084197273 -0.1209769421902105 -0.1167711443543014 -0.3335611727443076 -0.1070805720436608 0.0501837786265093 0.4030505376534223 0.2041850850106104 -0.2721822383683064 0.1871574806802172 -0.0903934276492588 0.4336962493666047 0.0736746636158249 -0.1624274588515002 -0.0197600707757487 -0.0537007626535447 -0.2885860744401855 0.0191213479825690 -0.0668739588707301 -0.0961588068756590 -0.1292137445135288 0.1009070599012536 -0.0668194616643072 0.3344915859865241 0.1123489942220832 -0.2472967754327103 -0.3463287577413803 0.1606626087506648 0.2419180212221643 0.1112680106109806 0.2213525132146066 0.0283638902130528 0.1412051590193931 0.2441660546084306 -0.2270858113479854 0.2192854254060802 -0.2325650039146707 0.2377077982364957 -0.0868749983286247 0.4770703444202868 0.0038990628885695 0.0478884135419017 -0.0413578251213107 0.4460444353731801 0.2206195876357661 0.1768053503502409 0.0401846866321595 0.1812771167723639 0.1301804548021284 0.0742439634349275 -0.0955364202247775 -0.0912765277890872 -0.1565936279379811 0.1451741648755196 -0.0786067083733503 0.0447416461822598 0.0034259323030879 0.0068879722738062 0.0065364920398234 -0.1840591038632442 0.2522465717272455 -0.2298532710969102 0.0047108969670290 0.3135665781011722 -0.0815774590369538 -0.1083769425781770 -0.1253634608535684 -0.0745972390392215 -0.0260954890543264 0.0599945904441925 -0.1718598480359763 -0.0636137942222746 0.0744896213653596 0.0157040643289135 -0.0857749188000130 0.0633172797715446 0.0483622207194233 0.1137966573550086 -0.1348474414512758 -0.0872660839920014 -0.1935979595500888 -0.0095023516194800 -0.0809440151240356 -0.0684258541648620 0.2512557420368129 -0.0463035424869424 0.1562778716500158 -0.0342225897148111 -0.1861302903035689 0.0152152998645867 -0.0116076399131188 0.3104197646947322 0.4699640784707765 -0.1773494774116797 -0.2797180859952554 -0.0369960242288927 -0.1173385433735985 0.0515232975940223 -0.0672150704233925 -0.1513340661584330 -0.1357735611517291 0.1565328751493232 -0.0127563345581019 0.2334803068435720 -0.0841682242314001 -0.2275936946348265 0.0783710372155304 -0.1117060453912617 0.0772258690422486 0.1882286163830985 -0.2679288924390317 -0.0101288251463274 -0.0939288838323393 -0.1374666595155308 0.0949210886068535 -0.0723618844672220 -0.1920738922519571 -0.1257573370628694 -0.0374905223075917 0.0460597514820834 -0.2126829679861612 0.0805407949671207 0.0471293918285648 0.0189268006940429 0.1158214657683043 0.1023318943917262 0.2245176569779883 0.1201325222340566 0.0693029707364943 -0.0196545248619587 0.1183972768356156 -0.2554062135360377 -0.0854214137218274 -0.0799722797959514 0.0727275627179520 0.1206514740278534 -0.0118882354338875 -0.1422396854979506 0.1180758268385042 0.0006999368649768 -0.0017028155782678 -0.0048243038088381 0.0008469369804520 0.0039536370665306 0.0013019899993624 0.0067979133577858 0.0064244658611329 0.0001150965320731 -0.0019306580310188 -0.0041272859952869 0.0023000865658180 0.0011715792363428 -0.0038841339521427 0.0046754329207280 0.0025078719687491 0.0073988672064995 -0.0006672218178738 -0.0055092680477166 0.0045256873432573 -0.0100217090923757 0.0052974335558064 0.0012892338683249 0.0005524721243618 -0.0042985331733882 0.0049507433191183 -0.0066645430763227 0.0077165570850907 0.0024456914676765 0.0072535804039002 0.0034786499135010 0.0070338112094911 0.0041166302314764 -0.0032702166394422 -0.0006885858431263 -0.0042637630589704 -0.0033307542519183 0.0053158796251094 -0.0041236838766929 -0.0022491642569588 -0.0028528281687485 0.0083126967944140 0.0086270938459223 -0.0006968537358249 0.0072234840319639 -0.0055664744729303 -0.0058593911399509 -0.0073943243652613 0.0067493860896455 -0.0089362952079975 -0.0058601087829119 -0.0075073547345618 0.0023571742402070 -0.0031235921894248 -0.0076008685913479 0.0031341898623781 0.0012656685543666 0.0066658825370899 0.0060354961851159 -0.0013132971295099 -0.0072384412374767 0.0062345787785058 -0.0043644130458346 0.0007728890777525 -0.0022056496459393 0.0018740472040797 -0.0065711618352883 0.0087561262816761 -0.0039616738602323 -0.0059635563240335 -0.0070738573020068 -0.0069205454616363 0.0009162129322213 0.0064826898658936 0.0049898011030861 -0.0005563881035716 -0.0013419445452005 0.0046852438774880 -0.0008496483585697 -0.0052987441147019 0.0069442331531288 0.0043079641022926 -0.0008452242279963 0.0049858508780564 -0.0066890084025305 0.0055591834147949 0.0058708842602632 0.0015156713178888 0.0031179035237227 0.0027950218361024 0.0028264865510706 0.0059100345881062 0.0020002637832125 0.0001919560899503 0.0053932774781404 0.0077594392197567 -0.0065142712852893 -0.0081493237710865 0.0040889251159185 0.0008324503002101 0.0056920925814978 0.0022885366577248 0.0065560877245265 0.0068298759567958 -0.0073934869701993 -0.0036156656376820 -0.0090576231134652 0.0082586293184208 -0.0062332854465598 0.0095512749985651 0.0006422431199276 -0.0003396354055361 0.0050962077759237 0.0025311665508358 0.0051416408365030 0.0011903304016728 -0.0054528284489092 0.0070526031473930 0.0062307868508028 -0.0000892501662306 0.0072637612015639 -0.0026458789418789 -0.0004566382869319 0.0067897059955488 0.0008303535074813 -0.0040840920980484 -0.0028669583297796 0.0029309006569415 0.0072658412898968 -0.0065880172746156 -0.0086414108285860 0.0072557553805598 0.0017149560554827 0.0061597151728989 0.0060063331301580 0.0042853865540946 -0.0011933425573426 -0.0028872289614564 0.0048170034928215 0.0076644089023097 -0.0045209627090393 -0.0082786017391965 0.0029873205618114 -0.0026921970366970 0.0063039044378788 -0.0052680085836871 0.0082399822733578 0.0041386039419727 -0.0053763219217375 0.0041089756915042 0.0024025978888317 -0.0039316995756563 -0.0066747651341092 -0.0011787044984763 -0.0052412011257764 -0.0017502111224991 0.0006668263365910 0.0027483815358383 -0.0000828454452465 -0.0034451020728286 -0.0055613748050858 0.0072399102306708 -0.0043839876520182 -0.0050032643883105 0.0005441978939531 0.0026011289943434 0.0039831087437607 0.0006218299229976 -0.0075708923224479 -0.0063704589477336 -0.0065280984550584 -0.0076214898030217 -0.0044821730403564 -0.0056177844488388 0.0056864690746462 0.0036709137065730 0.0025824421917808 -0.0054122998038364 0.0032188911498337 -0.0062644372159807 -0.0059155078826410 -0.0007352157440401 -0.0015684239179126 0.0041899585349881 -0.0028735752402234 -0.0023859584459106 -0.0045962865603267 -0.0053635807474056 -0.0050866287971661 -0.0021177527560759 -0.0028226760027332 -0.0089235960775514 -0.0034243711329526 0.0000871356790961 0.0049163508014135 0.0067566020372767 0.0028640600579608 0.0085106653704752 0.0044094576451328 0.0025376421384125 -0.0004985443107420 0.0038251262511849 0.0071872400707534 -0.0032139611835479 0.0004620933439681 0.0056623848314163 0.0027753414422655 0.0028923573368767 -0.0049817578182257 -0.0037814472433384 -0.0053965050617437 -0.0014300714111993 -0.0038727225039357 -0.0045859964918672 0.0049683261296390 -0.0010219292699668 0.0007022854074086 -0.0057704103123624 -0.0006161060075433 0.0052674205271191 -0.0039410507701884 -0.0048166315858435 0.0006106780032452 -0.0060738900067131 -0.0062700156896530 0.0037748222935312 -0.0063235881518443 -0.0002367445567641 0.0009249279979150 0.0006785305273669 -0.0046727053707122 -0.0059060497728038 -0.0051767821193889 -0.0001339848186684 -0.0001569192411115 0.0037273381889554 -0.0093547836513113 0.0069623363069385 -0.0055971741588815 0.0009695275491595 0.0085900825691976 -0.0003212530015424 0.0006093119186851 -0.0055475099506607 0.0008027945590477 0.0053748535120753 -0.0033021368111898 -0.0057844754751707 -0.0039522804487462 0.0038064261415812 -0.0016816548831229 0.0032279660715234 0.0011878886961778 0.0052005944870445 -0.0105157680494596 0.0040124610017630 -0.0049904007645129 -0.0035725989577645 0.0001138684145940 0.0033302471480782 -0.0064677899218323 0.0025275421840826 -0.0099885891373807 -0.0081629059782546 -0.0010060211893182 -0.0000838490786697 0.0031403078685800 0.0056080640896017 0.0025805279949002 0.0031693980996014 0.0045770558802220 0.0047237103092571 -0.0008710197553117 -0.0002742107314586 -0.0004262342242013 -0.0037879866161637 -0.0068977683717445 0.0039064452480266 -0.0035549848984359 -0.0019109730371056 -0.0006081282902486 0.0041571237510814 0.0054617424245813 0.0031918355568115 0.0037372777287604 0.0015219476487435 0.0038112844233736 0.0030854020990885 -0.0041991205931399 0.0033991966121764 0.0009913181517484 -0.0028287929100746 -0.0000923316724981 -0.0027505603804421 -0.0040300014515258 -0.0016290803978586 0.0023417466531704 0.0037837365321634 -0.0009586230931200 -0.0020184378799688 0.0155172462369178 -0.0356449707707545 -0.0038408159984146 -0.0121085374916794 0.0172805097079353 0.0225003888143960 -0.0340338097775210 0.0091688631106783 -0.0292653637361972 0.0085084024474490 0.0242971702982525 -0.0184681444632105 -0.0492016157872842 -0.0468458705383378 -0.0416526599685744 -0.0045301248350185 -0.0344130663453159 -0.0422903606595614 -0.0345366762543467 -0.0348068166782758 -0.0338634613083950 0.0178645478867850 -0.0016868104661946 -0.0103236877533865 0.0259281844149141 -0.0125249882326529 -0.0100020406944428 0.0164234844795171 0.0308414845978823 0.0081112391701711 0.0104600052740914 -0.0223209339932775 -0.0323526598459841 -0.0366122985039560 0.0007447336992878 -0.0023828074693232 0.0321182034677651 -0.0271129321554375 -0.0013844053760585 -0.0346507506270633 -0.0222843017517427 0.0320840026012985 -0.0367024727558616 -0.0255673757998910 -0.0262803657011429 0.0091632236021658 0.0061283752274539 0.0120125782486974 0.0045287306428994 0.0113003892871659 -0.0025992451315881 0.0143061264157049 -0.0130231708003706 0.0268463039957544 -0.0157532608103904 -0.0311251061763405 0.0005987328117360 0.0447828470782768 -0.0097812284278891 -0.0254459988035087 -0.0115328515590036 0.0381302097632683 -0.0442079644263891 0.0578725315662843 -0.0156396844047412 0.0112797198313293 0.0278401598601738 -0.0215385408401947 0.0345361619695827 -0.0120394037194428 0.0123999227038487 0.0217761135639597 0.0048479118574032 0.0009173164856684 0.0046737210714500 0.0146984696251870 -0.0051898634684846 0.0081017937030793 -0.0245416397572492 0.0104426694389347 0.0233922976483355 0.0273761380733405 -0.0143365564574137 -0.0169551765793394 -0.0182125045927817 -0.0205329461409264 -0.0451381540403933 0.0136547076048832 0.0223435279920760 0.0512717440189007 -0.0260375527666822 0.0065367714965400 0.0157635206490877 -0.0129142208210076 -0.0573203812496079 -0.0433576896555303 0.0184263863306770 0.0287112967090819 -0.0262337613515497 0.0283255635376735 0.0184488305577176 -0.0170531984961867 -0.0363796371162366 0.0140533424969166 0.0441052549095992 0.0573502737297587 0.0138294195126314 -0.0315967114226733 0.0013296878986671 -0.0212243258728547 -0.0174363991225207 0.0296510451496948 0.0230166512686372 -0.0182091151609291 0.0009110673462650 -0.0080791215214067 -0.0089219719810564 0.0438248040484962 -0.0223359372728228 0.0111231346595335 0.0085599881319593 -0.0064391751252565 -0.0014317803453012 -0.0085169011674023 0.0166772866068514 0.0267281476908817 0.0025307894128098 -0.0073053313151391 -0.0419406481544186 0.0075101318563734 0.0111717879798819 -0.0248126096919238 0.0223696158166932 0.0102211533923443 0.0187197582934641 0.0332623992980514 0.0070188151458275 0.0245548074725939 -0.0057331604203596 -0.0209375783251524 -0.0062708457880133 -0.0229921183997230 0.0139150599490763 0.0063679829738964 -0.0207556193627815 0.0001616849106408 -0.0345864910576834 0.0461358366293849 -0.0055245972477866 -0.0107843307006372 0.0144734304787790 -0.0373682829459984 0.0483426918182988 -0.0287947501841222 -0.0400739719969066 -0.0226499383905254 0.0025878721175884 -0.0212193494911769 -0.0035889300434377 0.0080205817559611 0.0207517105872548 0.0048785002161798 0.0353068420665678 -0.0221813092069415 -0.0071918470341433 -0.0130146746300384 0.0247480476669745 -0.0278857075377223 -0.0055629103090376 0.0537185314741642 -0.0054994862241389 0.0060486454530296 -0.0326037105904199 0.0009824795948767 0.0171842528023933 0.0011038565797282 0.0127111683523871 0.0171694764233714 0.0027481092167032 -0.0068196799746875 0.0066313319196625 0.0095695097830180 0.0309096451505622 -0.0130076050177974 0.0062651871883168 0.0001776210546016 -0.0292073816276374 0.0315327023957132 -0.0013519401398092 0.0247693422791929 0.0006273342581673 -0.0311148997972863 -0.0099154827022203 0.0230314083855971 0.0082147312496095 -0.0043642060166805 -0.0332611796522919 0.0101678556139334 -0.0233297821525052 0.0069436113089603 -0.0303989761078857 0.0216315490396643 -0.0400578156668366 -0.0213662857816289 0.0110279405599461 0.0218011772724146 0.0271983122822327 0.0066633735618283 0.0194696453973135 -0.0183217874875206 0.0071715611721321 -0.0148861355943261 0.0201196692959555 -0.0224130226828389 -0.0268418964389031 0.0342691708976660 -0.0250523021741657 -0.0003803217512277 -0.0137262683602314 -0.0022100066215078 -0.0136835271430866 0.0011753874656995 0.0082705895211191 -0.0028758552605743 0.0238605934619961 0.0167918587618422 -0.0266643825877351 -0.0161315082520622 -0.0242803499719393 0.0395762938749089 -0.0088459554548275 0.0139911888780301 -0.0169936044583283 -0.0164637135954625 -0.0037216114774753 -0.0285729284361235 -0.0081771305769083 -0.0006237477199689 -0.0040968274623842 -0.0122041757224369 0.0058010327262700 -0.0070286069709004 -0.0303284943354989 -0.0130174402239188 -0.0110249491848999 -0.0031273012697706 -0.0145996312696080 0.0057541972941309 -0.0166842258507572 -0.0094754405541129 -0.0014022427567093 -0.0072412926368643 -0.0154679929449877 -0.0013209619994151 0.0047785788420868 0.0005081458445475 -0.0208784473426990 -0.0006994418901634 0.0112461490083594 -0.0079460143590189 0.0088640268568180 -0.0161573419516321 0.0382815220769369 -0.0033215508969890 0.0166812384492147 -0.0075948973102908 0.0191592926099419 0.0045082404650559 0.0037631001037437 -0.0032370279388231 0.0050281567242832 0.0151937304510468 -0.0005630731616866 -0.0086186036502561 0.0019195297726990 -0.0118465558486590 -0.0295809462674197 0.0156173434954995 -0.0118801900657149 0.0249269654469881 0.0025896112557265 -0.0045639138109886 0.0157274841136771 -0.0008525486022822 0.0050409543065029 -0.0143875160447100 -0.0132913318113003 -0.0216829508331806 -0.0136833625195617 -0.0206220476374936 0.0021783553342209 0.0090115586047079 0.0086723540182124 -0.0010755186960510 -0.0031854113519395 0.0128558397487586 0.0112878771369880 0.0111851202410568 -0.0097943833260257 -0.0010910013066119 -0.0476881593452979 0.0203869983671863 0.0933488579464529 0.0054333031345933 0.0332691845788707 -0.0173808680646313 0.0077221599347299 0.0620292204996353 0.0497568463216058 0.0182763113946725 0.0025267060754940 0.0009745706805463 0.0728006227508785 0.0354947156691958 0.0397341723015655 0.0253530974250029 -0.0329370497292127 0.0193259946729152 -0.0166143485745035 0.0237783858463265 -0.0105262341717044 -0.0142835269224826 0.0382513109959080 0.0260241788425994 -0.0159968818441531 0.0602560570830417 0.0009917729063145 0.0090290961468836 0.0020155500036498 -0.0202167673590956 0.0021856608724263 0.0518408155157224 0.0565905569963691 -0.0562196411828106 -0.0135116331379354 0.0002887676380853 0.0322887982636244 -0.0314816092133720 -0.0230999041070606 -0.0020214063731341 -0.0496448164781699 -0.0332581589772513 0.0203436390264862 0.0579573354464197 0.0441154914683977 -0.0189410877780374 -0.0180316151621708 0.0074290487267616 -0.0486035205170560 0.0456094443930115 0.0083111308712559 0.0612188963823062 -0.0271166657262647 -0.0205591590072432 -0.0170072049360548 0.0104147882457656 -0.0503343919181838 -0.0111493249182807 -0.0364921807535583 0.0211978015376597 0.0005930499368914 0.0313944129339317 -0.0334138888420460 -0.0529322766576999 -0.0087331359823335 0.0390005598547877 -0.0626555152930892 0.0214672249240234 0.0212364531812494 -0.0474535307172033 0.0136020543059462 0.0933283411716834 -0.0297362485647104 -0.0208658934304216 -0.0495796951870791 -0.0433552628715771 0.0289939353749682 0.0823652147605446 0.0009535483506295 0.0010110303449842 0.0309190306802958 -0.0101289312108953 -0.0130395590432755 -0.0175787544676461 0.0279989759256611 0.0249224303250240 0.0573831681331421 0.0692436094348383 0.0079699873894776 -0.0085327008192973 -0.0107726107949895 0.0250027028790386 0.0388244199306149 -0.0345412005268446 -0.0148164945018121 0.0382250919198537 -0.0403962236195936 0.0080931700284363 0.0490703743009894 -0.0538461163655011 -0.0137449022162850 0.0607837115576076 0.0269757540418868 0.0354900618271688 0.0476423270404335 -0.0247973989569511 0.0200466488774915 0.0446556091726053 -0.0099705516652099 0.0102873031868830 -0.0033874075871860 0.0050507906843974 0.0391667375520904 0.0386528360575540 0.0035839541825210 0.0051606323900467 -0.0101067545747674 -0.0289423598199277 0.0193263830637767 0.0053215454159115 -0.0374114030527690 -0.0468387237262194 0.0326673890253792 0.0220728463053643 0.0431393053579191 -0.0739198477860230 -0.0405160003755117 -0.0552984213257402 0.0579125288835562 -0.0334649574291385 0.0082400317243020 -0.0153750469219360 -0.0417013942101004 0.0454011803884295 0.0177816607884574 0.0572742515870472 0.0510321960924975 -0.0265975047741050 0.0016548069424196 0.0756761037520327 0.0077949108220069 -0.0024560617877166 -0.0209807274506642 -0.0479955063903672 0.0671216800065631 0.0282073513131717 0.0268817985372429 -0.0333161203362124 -0.0524552797519249 0.0208433538095196 -0.0231207516886889 -0.0329029896661887 -0.0365532835212306 -0.0615489110007538 0.0199444234125968 -0.0563932056856733 0.0188219332202225 -0.0845358659549938 0.0502262355185033 -0.0336805425497813 -0.0627227744181125 0.0207920433543361 -0.0221053776697219 0.0813233537267673 -0.0178318338344733 -0.0405327813999336 0.0405323503285270 0.0208940186872858 0.0120291414793280 0.0402863007046295 -0.0053459715005846 0.0272352019049296 0.0111620596151227 -0.0377144114803657 0.0355211252845194 -0.0128021071969845 -0.0293536560925212 0.0306105902689559 -0.0058645176858357 0.0511282397143766 0.0440128007356799 0.0020245561137124 -0.0096534065948206 0.0469985740380953 -0.0319801095369078 0.0045395630777003 0.0191510951160412 0.0437213639012113 -0.0135856554450424 0.0360697597935791 -0.0195552358754289 0.0882538418966466 0.0458919414403246 -0.0000324524007043 0.0175309196088270 -0.0098976000186902 0.0402422662196144 -0.0129074492390657 0.0138741168873863 0.0039665275829325 0.0243338193731215 0.0590551544896243 -0.0329480759855623 -0.0401576152330120 -0.0386026874331966 0.0166908198436715 0.0451520472502578 0.0136984086990231 -0.0741516350831596 0.0052342625155056 -0.0174201496497770 -0.0202267824630288 -0.0611102147951588 -0.0425590612983492 0.0339551163104679 -0.0687169194672958 0.0233604714784874 0.0259120552743832 0.0531213894134073 -0.0091590750692059 0.0073516494968327 0.0864428387542270 0.0175255283983197 -0.0547526781444495 -0.0700920307411941 -0.0197436768689078 -0.0555211993415575 0.0770239633778066 -0.0256794079439016 0.0286913091453207 -0.0091333237616537 0.0657577497701363 0.0209833464373256 0.0818010360407514 -0.0876037405312239 0.0045055564980188 0.0212606122799547 0.0217549666741607 0.0218101808481345 0.0297811904868777 0.0102081702471510 0.0126451612652885 -0.0936662040561336 -0.0012485383837168 -0.0216058579452121 0.0263514589240224 0.0334827798281788 0.0002483671044610 -0.0445594703413581 0.0214963193815694 0.0143579127439137 0.0173935022157395 0.0458321592959238 -0.0084135908196347 0.0253314219819085 -0.0105691667747275 -0.0439153123887307 0.0181425458381436 -0.0045221491851573 0.0201808789668755 -0.0182388602267196 0.0154730184056573 -0.0425183410486730 -0.0480932702788191 -0.0206719963563813 0.0216052323361522 -0.0257184925580508 0.0195375986817854 0.0208894082482246 0.0434597649792826 0.0164032789479200 0.0102525442149090 -0.0194093297485435 -0.0146344532345295 -0.0015141467281973 -0.0210211092961364 0.0084798432664391 -0.0049106120439025 0.0011537345650753 0.0097196994032052 0.0070660149701181 -0.0046470099962761 -0.0124653799164136 -0.0415146272280093 0.0052382853703059 0.0211216375412846 -0.0389229793731507 0.0312005008723595 -0.0034202770585633 -0.0243340515278455 -0.0333690748911605 -0.0176334562071225 -0.0321113411242354 -0.0254221070144353 0.0323685320665765 -0.0092481533967318 0.0355336589411889 0.0156994349158345 -0.0207547465277724 -0.0340309280058437 -0.0877263665858147 0.1536654743651662 -0.2266586417092953 0.1934472522178700 -0.0352603057105311 -0.0922518210371661 -0.0944464864492106 -0.0271455798456280 0.4400825628298992 0.2926480699899982 -0.0329237720907864 0.0103249809746766 0.4290117816544319 -0.2675320879081248 -0.2084170764699897 -0.0365215126216167 0.1184480256801791 -0.3862206495883569 0.3550293790264919 -0.0456083640250548 0.1683389009209988 -0.1617008090704695 -0.1115374583828790 0.0671032666123721 0.0722299081732204 -0.2701877948071513 0.0747215363239333 -0.2042690875974048 -0.1008154001468234 0.2518024141036717 -0.3185429908251286 -0.1802392803318073 0.0291746255790312 -0.0907191144747832 0.4237235208268111 -0.1026047419867945 0.1042662981824220 -0.0577254165225586 0.0468474732963058 0.3315323930816920 -0.0159565576025947 0.1561678938458689 0.1277753184463049 -0.0956545297926974 0.0636398317930111 -0.2662553713897448 0.0065822770929583 -0.4457936505528695 0.0185845858884156 -0.1805584941632048 -0.0862396873977158 0.6406430296359653 0.0054357507589686 0.4029581620137909 0.3575518558667876 0.5436958653040124 -0.2780772539880220 0.3762275640411822 -0.6538339651344494 -0.5803118727458515 -0.0732189283994641 0.1381992576086560 -0.5534012102947274 -0.1641685624040169 -0.0717828929092916 -0.1960205207632901 -0.0021264293803884 0.2406276273729155 0.0858724981890757 0.1597753818171850 0.0975657942838522 0.4558060295675075 -0.2103821321154981 -0.0456027259811443 0.2370775555972399 -0.3312510876150365 0.1104967611688127 0.3412374550770694 0.2020151715896683 -0.2001716080102178 -0.1083223888518637 -0.2745056060060409 0.3823841440819109 0.0108859720311311 0.1612725280644488 -0.3344428909668437 0.3137025180069976 -0.7831989944630737 0.4079507879120280 -0.5082990745685995 0.2502787854861149 0.1136917739337929 -0.4130474596430764 -0.1121101539043930 -0.2004647090781283 -0.4018189792738818 -0.1663715733318826 0.2533180497426008 0.4101319903337645 -0.3512725718800249 0.0393675174068503 -0.2826072721377487 0.1728623416996633 0.1354653553734214 -0.5822710496212404 0.2511615098716215 -0.1611827056607529 -0.4053582432993021 0.2960286888712362 0.1764324054253412 -0.6844614547571098 0.0549909170924959 0.2862018266277949 -0.2041472183574837 -0.0136345988141457 -0.1031037922150578 -0.1670577925148585 0.0068161943711428 -0.3928490363460423 -0.2411658203689274 0.4918002952395263 0.0705947828119537 0.8772464053960103 -0.1743489414380952 -0.1710817570365634 0.6286425325740415 -0.1862113802390972 0.4566457978194456 -0.2123469481726609 -0.3532050122287551 -0.1238587901474351 -0.1187271535567817 -0.0919446407979921 0.1150258517146521 -0.1296053572309994 0.0993369275662173 -0.1046143129413599 0.1379132449441768 -0.1717864581244036 -0.2521796678325710 -0.0069017428970172 0.0181623699670959 -0.0947413326463849 0.1480568987915605 -0.2204750074942641 -0.1131152390937790 -0.3415832185819193 0.2815598659874238 -0.1305002310113531 -0.2884022734598143 0.3891962130411909 -0.1915805749040636 -0.0960923040594761 0.4758983100502781 0.4095983372289196 0.3134856918482294 0.9995336020568828 0.4647267356260454 0.4299295742919662 0.2550570638763632 0.2810227992507906 -0.4428622686411211 -0.2282101137351034 0.5091437189347031 -0.2522757466985648 -0.3283700263274818 -0.0524108140874697 -0.1404277022326360 -0.3765988197041775 0.7965373325507036 -0.2820796269256440 0.0304241556160842 0.0447560410598599 -0.0362679448059851 -0.4134522860308471 0.0176897118184014 0.0417843112163724 -0.0808270799535920 0.6464204598708401 -0.0388041282522821 -0.4373840165824022 0.2541178218233691 -0.3462230453427537 -0.0393351972772832 0.1089520293661792 -0.1776645437774534 -0.0215584198430811 -0.5326367997935011 0.3062555656629581 0.0131124393743805 -0.2633347315463595 -0.7962102925332367 0.4275875487002537 0.2448647456030958 -0.1764006774639909 0.1381702430846211 -0.0623691690900777 -0.2482318925623543 0.4110667755057895 0.1287554075272333 0.0172595297251640 -0.0531272575384215 0.2216007943989548 -0.2342798295238541 -0.0421233384060648 -0.0349463747221358 0.1972292943618334 -0.7203137820889787 0.2637053080070867 0.0515020832744684 0.0212188513463256 -0.5928167310610126 0.5510696012237419 -0.5828868350308053 0.0337177372077531 0.1793969583928889 0.6434167860619456 0.0047959541250085 0.0936814667657629 0.0424781514651326 -0.0192904159252032 0.3052391348258996 0.0252872525008804 -0.1799787690109763 0.0203659929764204 -0.2051693200100289 -0.1727993461671416 0.2925876209058091 -0.1305232404763396 0.0641337922084474 -0.3699941384407819 -0.0527178702162360 0.2973206493271768 0.2086741342776429 -0.0059128314793173 0.7176493847972274 0.4310031127209467 -0.0779779558305949 -0.1406960432834477 -0.2334765571485517 0.5648989337500195 -0.3627639662443205 0.3873839313595190 0.3030092754340305 0.4278585526595302 0.0123021503791011 0.3023593021438279 0.0883032849813880 0.0048664863500452 0.1650727829128221 -0.1891066272921318 0.0065812891110575 -0.0918533437761243 -0.1242611004845335 -0.2432013911254847 0.2088130048036311 -0.1945472306910324 -0.0546441289232544 -0.1141181653597435 0.2397496527981701 0.2169672852107072 -0.1205546768579319 0.0843778118486214 0.0181250075396392 0.0752635928986798 0.0446782833478401 0.0759056974673437 -0.3155513942485860 0.1654296326143991 0.1911175361225242 -0.2698612659710038 0.1705406127975214 -0.4152087622856296 0.4571479571241819 0.0649538314591243 0.4756380024337640 0.4537051500622555 0.1294153867544794 0.2231232981782787 0.0408921268006337 -0.0274720592283977 0.0097572840580564 -0.3124464988895266 0.0133045500091909 0.1042385464673988 0.0402308516630584 0.0086198434664169 -0.2144991254393167 -0.1080962459652910 -0.0426750997518239 0.1185950247377740 -0.0355452128912038 -0.1147641243147436 -0.0667451511872264 -0.1772582852833809 0.0168769155618106 -0.1512427422459064 0.0331237707573824 -0.0291597056349365 0.1422858516801795 -0.3205762865248236 -0.2492262604422450 -0.4327904485538572 0.2449964760387645 0.0840171481075036 -0.2230931930002631 -0.1637250304451339 -0.3256878519844874 -0.3041309494827655 0.3706823855768645 -0.0504171449544640 -0.0214336987773101 0.0701829250589712 -0.2030375584205477 0.3318573863229408 -0.1755243412088838 -0.0047426908485835 -0.3563129796250399 0.2815410539021111 -0.0959918600902121 -0.0576187853782965 -0.2192817487095067 -0.2134254479956582 0.1577737419092291 -0.1867060713445810 -0.3326324460187777 -0.2016067396293644 0.2019234298076523 0.3460192619011780 -0.1347434135920529 0.3462940060302101 -0.0049588602210871 -0.2654496708978235 0.5714508688822767 0.2359614181713151 0.0362589830954806 -0.3291726874677673 -0.0661844336247611 -0.0532818513858730 0.5730415017534619 0.0740670494011490 -0.2417855367877107 0.1196408006170621 -0.0431227866465867 -0.0106489979091079 -0.2390853213073018 -0.0574733091451263 0.1650128522695518 -0.3906684190577466 -0.0474782071218142 -0.0809330717538322 0.4919599153151240 0.1157573795221050 0.2995723297178975 0.0034371923651492 0.1070715534013126 0.0834293591026415 -0.0444911149967826 -0.2481043386711529 -0.1390276653057396 -0.3630058068490794 -0.0635526667994914 -0.0823881154014625 -0.1609325734806719 0.2095724517943477 0.0339229790850533 0.0137970364086696 0.2720967386137311 0.1180894221299597 0.1189790056387599 -0.1580983874481968 -0.2670926519061970 0.1881517223212007 -0.1637525011173537 -0.0638095602461229 -0.2467200137886429 -0.1443206223745448 -0.0238794672372022 0.0203631744043129 -0.2430241352031389 -0.1557420143524730 -0.4943237710238120 -0.1677371370144098 0.1435189832940766 0.0406327139620250 -0.1845557348805309 -0.1775915961978138 0.1245483378885197 0.1393005888460668 -0.3909891699169009 0.5301820432712486 0.1645389059180976 -0.1130438476093711 -0.3783689376592604 -0.5572565662747201 -0.2725431433667351 0.3639364036691825 0.0394386651675413 0.2915867501209680 -0.2388957791377420 0.5704024095869830 0.1965067091168797 -0.0201215110261232 0.2529450305662697 0.2528963074911936 0.5026059348456369 0.2613218752173013 -0.0941290244342060 -0.2055004590477415 0.0680823645445987 0.1464216137479259 0.0028233328852932 -0.1543800981416068 0.4915956510854513 0.3097556948995196 0.0370734348279874 -0.2462930639520342 -0.2120267303856873 0.1873080481575951 -0.3355835912815763 -0.1624360278937999 0.0288430927157585 0.2841518404619631 0.0926666026940071 -0.1231986834794069 0.1860088186384892 0.6395530360275717 -0.2853533166309808 -0.1182357386812796 0.1983152558298827 -0.0576091149745624 -0.2998150616888417 0.1834167590360506 -0.1300288702514908 -0.0140528895549754 -0.0419048697296560 0.0750917312324773 -0.0843931132071621 -0.2825423976125414 -0.0879702860942728 -0.2112212989397486 -0.0079732728218079 -0.2143859688280082 -0.0709032291689094 -0.1463751580756959 0.0250888945300563 -0.0398046554019067 -0.1692245149686117 -0.1737494347150514 0.2266336856393117 -0.0700555236208701 -0.3866444552368090 -0.0776051386153656 0.0335351339027190 -0.3970835800665451 0.1906451215528486 -0.0355463542929340 -0.2022622968598941 0.0652238389127410 0.1770329015201527 -0.2812905372239176 -0.2108753751443184 0.1024579569608240 0.1085700598617861 -0.0484498763695847 -0.1832320280576096 0.2066784819665369 -0.1481529092310676 0.0399905221039961 0.1098284608656536 0.2010784888461376 -0.1960360310442997 -0.1539944514303187 0.0791784242016596 0.0224369660878451 -0.2411755980684996 -0.0894689166938899 0.3702360271270750 -0.0507504996933077 0.1463189603231600 0.1327322261339484 0.4080015882532828 0.0988838318405329 -0.2457344071330493 -0.3327061388491524 -0.0407657895426346 0.1308516120261379 -0.0185785613131148 0.0275605701181068 -0.5031006477411165 0.2232128403434025 -0.3426261609679763 0.1340062760406363 -0.3945072532414964 0.0554402384418928 0.0682653104776033 0.1384230592377864 -0.0822027677574301 -0.1007233084229615 0.0891750374562438 0.2435177333417012 -0.0022374702466872 0.0741599882669753 0.0997667407495011 -0.1015816800241680 -0.0681472257920670 0.1229201718491564 0.0369741411217909 -0.1892326926188136 -0.1184546710659583 0.0338692936901966 0.2728411200516523 -0.1303451269359475 -0.1289054449837295 -0.3471704823499335 -0.1106581756842189 -0.4100506511880267 0.1431751598681924 -0.2984836322224441 0.2998742081703001 -0.0499960312368735 0.1684152806257369 -0.2109126070915361 -0.0755505775314999 -0.1558816486493489 -0.1281591366743553 0.2917252739751658 -0.2635010053701870 0.2248744020791967 -0.2933370422221874 0.4698185868513853 -0.1382938257672408 -0.0058860328828766 0.0665791520281910 -0.0900344896114881 0.0330377285744556 0.2457060650807008 -0.1628964674572639 -0.1632581951200954 0.2050079140983692 0.1131912475841590 -0.3664088674313740 0.2882911992455161 0.2266719087483927 0.3587733192351255 0.1100244712448267 0.0249315495024420 -0.2002706697455536 -0.2827641846221383 -0.2470642416727433 0.0411707205978146 -0.1021726030065588 -0.2697747108614834 0.0445082780797663 -0.0101756433352855 -0.0050088678220097 0.0872159036105620 0.2343314559898428 0.0338018682499370 0.0886375319845170 -0.0541377023700693 -0.0254322734606561 0.2778583440136609 -0.3840089906894210 -0.1013851661607808 0.0543950132953393 -0.1750374779136292 0.2069134198757295 0.0488907309625888 0.3756843863629837 0.1635329868298066 0.0508277079759815 0.0896593991804591 -0.0193987142515970 -0.1805411797798516 -0.4540004866854297 -0.1841103032283626 -0.0810110889309990 0.1879552605150140 0.0244056493188105 0.1090016844218915 0.0390650708795900 0.1449793296671104 -0.0607939927772772 0.8746671704412492 0.0170715754876168 0.1823301347365681 0.0278052587007083 -0.1837550630153340 0.2171749334431542 0.1900918863880456 -0.0887533248490832 0.0350167477255295 0.2070447786560123 -0.2332649258632404 -0.0264236699972937 0.1572927674950313 0.0046422852617939 -0.0880922698396503 -0.2052305099805076 -0.0908237923890647 -0.1483194578714477 0.0181867039270051 -0.1234597055827452 0.0937073129411043 0.0644647135049783 -0.1659681379451596 -0.1148977879750168 0.0860235027290193 0.1437968307440214 0.3671157302827027 -0.1353746065243316 0.1304212797335959 -0.0470306241016467 -0.0568279779928101 0.0541534375360958 0.0982644038724228 0.0450982488140607 -0.2375581069072887 0.2256260296348393 0.1488807701063612 0.1157574836427728 -0.0662583509807381 -0.1996781568159473 -0.1800013329592088 0.0294281917589347 -0.0040706034288054 -0.0253331407783007 0.0430328774662684 -0.0893840147930526 -0.0211224597864928 -0.2328469231066014 0.1445537170843880 -0.0148905003382007 -0.1667972359921082 0.0684600421634928 -0.2006851420458952 -0.0192021891187829 -0.1660316541487517 -0.1742390811008015 0.3427573965472175 -0.1771965248911381 0.0158033720766790 0.1532430374285908 0.2059204156117101 -0.1786581791133698 -0.2442308238046327 0.1465417658422229 0.3863366216119706 -0.0023603201391528 0.0938724167444311 0.0186662150178932 0.0960799208911773 0.1086634445051463 0.0135481551854012 0.1492970841652187 0.1942015806381742 -0.0410009461504665 0.1672723306165638 -0.0354121065590207 0.0882788440080307 -0.1182161119269781 -0.1776367444757996 0.1689128543019038 0.0616799262089842 -0.1676644260442930 -0.0036100641016327 -0.2781602964272815 0.2810914867169026 -0.1244604200644520 -0.2265703290864543 -0.1721206447377011 0.0572925892414076 0.1406566308570678 0.0242571912175068 -0.0009040573669004 -0.0284078659199202 0.1348286101864994 -0.0692593131508213 0.0369500080177972 -0.0218138312308598 0.1452973064071596 0.3175678649088888 0.1359422732151582 -0.0065374685420063 -0.1635277973408945 0.0937579835404906 -0.1459287340326907 0.2817176508856254 -0.2827821494200283 0.2235208240727051 0.0515110050250561 0.0521501932585495 0.3044213668953455 0.0765274478794999 -0.0465172636404737 -0.1176082538827620 -0.1071829510592486 0.0550925104589095 0.1311641019957937 0.0879664282437137 -0.4283307715605382 0.1203593002528749 0.0398529244472776 -0.2319759602595305 -0.2689412194756153 -0.0311419430735017 -0.1154354453538994 -0.1098662567581647 0.1448743583123601 -0.1581805545430013 0.0631825771382057 -0.0213352047739540 0.0667937949965230 0.1528030646694112 -0.2212384296615725 -0.1013870393282366 0.1667636804172684 -0.0148364415629729 0.2158255119043496 0.0668230913254313 -0.1156296755577833 -0.1490844990720608 -0.1052536995205360 -0.0549473891926733 -0.0305073852216618 0.0840363304312386 0.0548234200569849 -0.1009052115266350 0.1237566106180866 0.1075202369163509 -0.0447451367856062 -0.0557218641679159 0.0981070171152408 -0.0290697493866516 0.2920456812277999 0.2339529282474255 -0.0763968405890187 0.0299135067444957 0.0738860621702251 0.0840247324463568 0.1350461354246423 0.1400288298128704 0.0108915883689300 0.0968963894005094 -0.2726991731557197 -0.1012272547582576 0.0562590068405441 0.1158618696328129 -0.0291220081388025 -0.0460704347712151 0.0062197201755129 -0.1264090240144227 -0.0548363061356172 0.0239889946859113 -0.0653506958598310 0.0304555677248898 0.0915592975137822 -0.0212408220374897 -0.0433962724865012 0.0105942749308660 -0.0847674146039332 0.1385165494941931 -0.0807200571064568 -0.1945217133872639 -0.0082349549722933 -0.0009133892199549 -0.0021436869717209 -0.0745213364035061 -0.2829177032525370 0.1206879595277104 -0.1563839181075616 0.1320903527998556 0.1308475923054206 -0.2550893214358389 0.2240855674778290 0.0688855481472963 0.0634768631836000 -0.1277594730104627 0.0600166336092302 -0.0102470341090157 0.0642939949417266 -0.0425395268711376 0.2250947111446128 -0.1310657336229101 -0.1050761989534530 -0.0955525161229779 0.0822950651009143 0.0319005791092683 -0.1113188799854572 -0.1490356343363789 0.0432011714662606 0.1725264272424645 -0.0239503957345064 -0.0622370695170535 -0.0436316349381598 -0.0861029539706289 -0.1451930240639331 0.0743876320943468 0.1575909836000022 -0.0578690031914198 -0.0826139681874021 -0.1506073410898168 -0.1798187851993507 -0.0414927664976159 0.0120411606376416 -0.1090050039512953 -0.0788073501304703 -0.1781354543456509 0.0630853573346938 0.0075618124737755 -0.2596384765319223 0.0729128821882803 0.0811880439740035 0.0610679850703379 0.0658670551450655 -0.1192711035000533 0.1689776810447126 -0.0383345951996260 0.1862528488966289 0.0974768126658673 -0.1816907073068693 0.0286853049602538 -0.0817254302310191 -0.0472291269053924 -0.1962711364274259 0.0005429409779713 0.0026460742513524 -0.0852831331058201 0.0205946388739876 -0.1025344056764626 0.0853148865869570 -0.0917016670364219 -0.0267370153623850 -0.1318024330004764 -0.1776751145591445 -0.0501578066602427 0.0613621647368931 -0.0406354819211745 -0.1508100222017985 -0.1305316188555267 0.1114569151422423 0.0190543362602593 -0.0584844822212944 -0.0730971005523026 0.0278915887711251 0.0814708032126928 -0.0697854446819640 0.0931776322576700 -0.0444415621564446 -0.0172149060456332 0.1183304829620212 0.0476588223289803 0.0721207950713088 -0.1003024408308331 -0.1126762754980729 -0.1272543189627605 -0.1221528899186313 0.0759497542498764 -0.0434506679628553 -0.0296508292354506 0.0299354708080492 -0.1424000728620627 0.0342092146357132 -0.2062960566051960 -0.0134540149142188 0.0385056467163347 0.1151482789128171 0.0973849009054395 0.1168317430609700 -0.0963395194738824 0.0992107452455478 0.0092592564977066 0.0472787377111930 -0.1350967641561811 -0.1325644342026518 0.1241469476642659 0.0757640934385073 -0.0493332391040267 0.0569659332395276 -0.0235509333918787 -0.0944176401104126 -0.0716476371830866 -0.0518155872518781 -0.0367979103262811 -0.0122972745464146 0.1268305362385443 0.0209158706214521 -0.2127547479473347 0.0594999549031372 -0.1469722701425110 0.1903256447921801 -0.0237327016801216 0.0982341265481888 -0.0890082439383652 0.0142546845435942 0.0781132123437247 -0.1119712015106050 0.0602888584836591 0.0086627262780598 -0.1103404575844172 -0.2553884160311645 -0.6817338211527811 -0.0763526428318917 0.3161388219865854 0.1182190626434440 -0.8515318759123547 -0.4301951755513335 0.2350555759201944 -0.5107427689352362 0.1029494750012733 0.2901949771750643 0.5046484990247524 -0.1327246335098191 -0.0381434407477622 0.3733768795179990 0.2350149419946411 -0.3184314216599578 0.1818449784194916 0.1556660254705096 0.5369505104460971 -0.0994197653140161 -0.2058458801938340 -0.1736547256323483 0.2008173958391450 0.1543290372585850 0.1178577901939269 0.1626752998201078 0.3040285824118872 -0.3246289164984981 0.0375639217196253 0.0522726029964283 0.0075328024196011 0.0608181458860927 0.0765271833099494 -0.1438779000079759 -0.2465342710490913 -0.2943921205518575 0.1197733412571625 0.1814506770497281 0.3121185749897075 -0.2525524078859185 0.3016554254429933 -0.0810898874729423 -0.3509596412974179 0.3896426359028212 -0.3032545126695803 0.2354891803773784 0.1988335308872261 -0.0782741014561055 -0.2459221949934493 0.1853392043914689 0.1890384571561195 -0.0051660227170968 -0.1314188862596382 0.3307323339113772 -0.2014138399070371 0.1645935700488195 -0.0170954121758765 -0.0412580927007149 0.2704039015894441 0.0258964471582388 -0.0539634470616613 -0.2592143433101675 0.3002902378631474 0.1495082429503139 -0.0905247464969363 -0.2839340595865971 0.0853013197529437 0.3610141179663354 -0.5942675846247035 -0.0272717017276888 0.2348394499173659 0.2187689562218413 0.4760806860646671 -0.3432791662422318 0.1295931806723334 -0.1386088596021562 -0.0180125357828845 0.1843556574932964 -0.0586578133038863 0.0962055743747201 0.0238885061445299 0.2333490973174709 0.0479370117668535 0.0250889976423317 0.2551013897914580 0.0095348205292319 -0.0444483066102897 -0.1379629636172062 -0.1576831196143174 0.0669156786408337 -0.0683836009394871 0.0257600159422526 -0.2256024829865628 -0.2721439997486796 -0.2751860691184191 0.2597773664934449 -0.0279720010341620 -0.0044392954009098 0.1244765575673642 -0.1119504585625470 0.0590819894988530 0.0040351348964775 0.3195963493716739 0.0755516572246116 0.1662120446087657 -0.0242614754243827 0.0171335092298735 -0.5230900161966037 -0.3892684163528188 -0.0874606274785836 0.2836707012428260 0.0233801536506341 0.0975529938261308 -0.2495174904061254 0.1913897350087926 -0.1965364800547962 0.3100716243858718 0.0146133826318214 -0.0520309857205756 0.2162092163011624 0.2192388001267842 0.0643208402908346 -0.0441862528055869 -0.1098951088411338 0.1470728569042216 -0.3604659845648028 0.0853074250000072 0.3585358264033586 -0.0493418658602343 -0.2102986913009540 0.2027266473707897 0.1284397487267321 -0.1767768694402567 0.2951478261137013 0.4228048564644364 0.0312548718772548 -0.0942897250161787 0.2879428430657872 0.0297814700158955 -0.0524645665029695 -0.0696281534521508 -0.2251499135291828 -0.0843233644098809 0.0175789451989229 0.2676435901073547 -0.1934597503690189 0.0203139753171599 0.0460443452428787 -0.0339714402070178 0.0123387058909987 0.0961583215236326 0.0867051484472796 -0.3071803292258011 -0.1947147545050248 -0.2742695569015537 0.2368089471632192 -0.1492925521527748 0.2028043610526864 0.0237874299002824 -0.0718750828480448 0.3356256688056732 -0.1736672499758232 -0.0948786393599699 -0.0728446004521528 0.2796853702317230 0.2785308306509895 -0.5455158156661613 0.3993700948953583 -0.1820272778599152 0.2082502824770746 -0.1184489986922810 0.2831208557569332 -0.0923256168493641 -0.3264294121555231 -0.0963816021730075 0.1597425089267689 -0.0321963117808350 0.2308949098335905 0.2421048133663986 0.0272142129618173 -0.3818545622121029 0.5246291579211678 0.0030545471006415 -0.1107762950333518 0.0957538866599130 -0.1433041994964888 0.1151576845605702 -0.0917095150749324 -0.2891686901147568 -0.1127480470430467 0.1079415673411188 0.1636168523609674 0.0115127010881108 0.3153605276822457 -0.0234161980407624 -0.0466440925007862 0.3998774993531251 0.0986785604149818 0.3513371655209638 -0.1023431914251376 -0.3372272538597223 -0.0033282742211929 0.2047902920856162 0.3761306976281334 -0.0760169614520578 -0.0727361238166392 -0.1034926998303322 0.1748173695472433 -0.0342048405880560 0.0743035249814055 0.2531112479883509 -0.2274908205073086 -0.4891650601083612 0.1498373325932990 -0.2555639855134051 0.1199231188884908 -0.1265094607089280 -0.0279149903899408 -0.1406225039086068 0.2782729287709831 -0.0530135968104208 -0.0574109241565699 -0.2096790015446326 -0.0825272588743854 -0.1798793885587607 -0.0623415317640031 0.1747086249490694 -0.2252787616496971 0.3114374304754555 -0.1518195133231963 -0.1615057396637523 -0.0401420301300839 -0.0492756548166116 -0.0776897264555714 -0.1644106402827362 0.2739141037218077 0.3059842328961178 -0.4670842241553011 -0.1402412053618575 0.3058023673637410 0.0393070815956450 -0.0154289149077408 -0.1740039997250739 0.4168888370663280 -0.2816088145807061 0.1314808639824450 0.2226719128591995 -0.0699569262220645 -0.2472940478757658 0.1027357149115253 -0.1976054233293937 -0.0645571202330188 -0.3008121016343019 0.0154866045335298 -0.2816243118667501 0.0308778436104423 0.2071865517706482 0.0595208386518518 -0.1785714014773717 0.0255790592579033 -0.0990943331096596 -0.1088618387116359 -0.1460182921848026 -0.1638632239274846 -0.1380939535260051 0.3142923607396340 0.0595782413527694 -0.3452163741499364 -0.0502056321928500 -0.1641608249973071 0.2651642550333472 0.0876057200091422 0.2084866984239205 0.2020203625113317 0.1890306831226327 0.5395482703860799 0.3271451110000088 -0.1866942579281755 -0.1939290574016811 0.0820244106431497 0.5393704201701562 0.1820196813893891 -0.3698852880310201 -0.1978376089221791 -0.1916720488100847 0.1048287270634253 0.0482892747070798 -0.1854386229600007 -0.0368269949313496 -0.0661673300502647 0.0898419595167254 -0.2853362247986527 0.1235235765137897 -0.1092034594997431 0.2199181528015098 0.1889098462718759 0.0256010495621524 -0.1211257679971367 -0.1226314531773305 0.7907306487840560 -0.1972804811687694 -0.1989158538121917 0.5019141678405478 -0.6036179302207638 -0.2743001765926841 0.1317763545040530 -0.1832190230516938 0.1604750191557402 0.1507388456070012 -0.2033282656647449 -0.0855140154184711 0.5282618115107868 -0.1042676356176152 -0.1429060088628157 0.3217881583090769 0.0134457117675692 0.1421353019248185 -0.1764711960680287 -0.0413560950250119 0.3093470975846434 -0.1477423796966887 -0.5968858750077817 0.0372978880381971 -0.0147622601865221 -0.0271134501345638 -0.2373094354969927 -0.2259687132755646 0.4461977214805444 -0.2495628759676519 0.1484911639753374 -0.4237730843333694 -0.1084141672730761 0.7456670420418755 -0.1110743857331924 -0.2123102135803321 0.4016049829222519 0.4668466871784038 -0.1523813774325158 -0.1113957345974617 0.4984230038819416 -0.2249506746702282 0.0598349780334874 -0.4422832077726261 -0.1745972140690993 -0.0466990150978573 -0.5918177850579796 -0.0409584414785303 0.3582744399391222 -0.4838522729902018 0.1977087085255807 -0.4867635388989509 0.4313948846816147 -0.0582547528945893 0.3377283564757271 -0.2677749287361956 0.1512629341519997 0.1195820347558838 0.1940426982978958 0.0003449689927605 0.5529751759828897 -0.3668482975218523 -0.1076224095625759 -0.0926226556405927 -0.0964921387590256 0.3506802911583702 0.1726082057268109 -0.2841185709328649 -0.2280852493488283 0.1554952773555781 0.4219305446026179 -0.3369830806235272 -0.2217926013195331 -0.1639912746277671 -0.1626434019571062 -0.0640419490484289 -0.3275457648155912 -0.4012500822196411 -0.2102916633905946 0.1802502799564590 -0.5629910150469011 -0.1692415129735067 0.4423865798133051 0.4256261631081496 -0.1489873905045968 -0.0927809134493227 -0.0074761081276689 0.1308871772485538 0.0168762306931040 0.1273938894993344 -0.1114730975682668 0.3485764147251340 0.2272531246493787 0.3553719406145806 0.2281722677281040 -0.4015995871675910 0.5944573761019720 0.2827407246156252 0.0190937658491449 0.0683996908418086 -0.0737720034912967 0.2413934191731081 0.4798546902715393 -0.9654227304365505 0.1343724574165893 -0.4595453033829252 -0.6251112390820093 -0.3079257462268550 0.0696054076764618 0.2559430969940900 0.0458233860798290 -0.1132281379458318 0.4796285954906145 0.0124744684404323 -0.5436036433731616 -0.0777748229104577 -0.4826324115516756 -0.6809730925606059 0.0248436330743955 -0.1158455568621503 0.0214583415234863 -0.0717204999116799 -0.0927710982347147 -0.0843538335767025 0.0882253620615944 0.1033607571887928 -0.0170655678163087 -0.2552102642597413 -0.1277941777138005 0.1759376102464743 -0.2742566240968877 0.1018254471707107 -0.0856499460344610 -0.0297880304784782 0.0768568800893285 -0.4570644753538923 0.0761702977985385 -0.4422859543604402 0.2189135287669533 0.1225930222432419 0.3022919307127590 -0.1781286859853144 0.0494354887073738 -0.0031352896019834 -0.1083310832673481 -0.2857182494607537 0.2173819562711113 -0.0586499417800097 0.2100819997999820 0.0776235768277537 0.0177619369245833 0.4674768142155068 -0.5814727122158944 0.5144863963163357 -0.0773001376017245 1.0760860232490577 0.2081839019334862 0.1029047020995980 0.1123544531111189 0.2499933862575583 0.0736857741655549 0.1925211036082687 -0.0410535561007019 -0.2742604133919478 0.0500015084314344 -0.0641493870403609 -0.0540841599906672 0.1763440188561232 0.4510692812839611 0.1610725095982804 0.2347698184581701 -0.0403978758146531 0.2278598176219813 -0.3391875048377408 0.1579917825983607 -0.0480308139964650 -0.2686637734545589 0.5451663753898727 -0.0117379381564636 0.2474462633625480 0.2486454805427903 0.0909843097067761 0.4362454887415842 -0.2317752729173226 -0.1019439038612696 -0.0028270648849431 0.1569171265427379 -0.1219940705592096 0.2521732133508522 0.4000065651242563 0.3371593443220853 -0.0255931501703226 -0.0048691725094067 -0.0523674189071575 0.0247964869465543 -0.0257037470933482 0.2923089412378744 -0.1823386709280660 -0.0048960910790403 0.2651437083257392 0.2779141779278294 -0.1284947152166611 -0.0510161945089962 0.3572194399076219 -0.2681318026113999 -0.3344369274101233 -0.4610380178818592 0.0104586191364065 0.4114960899967303 0.1794865840472088 0.0578079929560220 -0.0197262106846930 -0.5794131779729006 -0.5252241635062821 0.0172565793827965 0.0907294128113142 -0.1347448553191933 -0.2279109934272028 0.1346098826176148 0.0834308110389508 0.1652210655242518 -0.1310898867758314 0.0588127500384866 -0.1513308734134768 -0.3051354404908366 0.2478635200462992 -0.0799053448693462 -0.5507779677206918 -0.2903035126719138 -0.0099354673075067 -0.1179697371654222 0.2163869110813823 -0.2851656842979233 0.0844056787820843 0.0769975635741391 0.1470105236437400 0.3386454332006838 -0.0507971533385323 -0.3486595989375553 -0.1022291807057618 0.1672553062539299 -0.0993246289624083 0.2148065189601488 -0.2496932522014527 0.2624705316339064 0.2580281879730725 0.2051599358124950 0.3016535417430237 0.0238331040316680 -0.1045931732728353 0.1221346793431550 0.0268773768871996 0.1078445884865185 0.0209815066119230 0.1063003572358394 -0.0098713663186248 -0.0596573318949992 -0.0926863514359222 -0.1082725828749713 -0.0683587727810043 -0.2429505152537552 0.0856506405229615 -0.0719503478685727 0.2735572978961173 -0.1587052552599004 -0.0959738347332082 -0.1161939146715329 0.1938055408277305 0.0643955653993386 -0.1569865877762779 -0.1814699654659700 0.0383353774412021 -0.0335237352124146 -0.0128645773975290 -0.1217525755252738 0.3952235366341231 0.3493561228010543 0.2120142853307720 0.0790912837679917 -0.0223945997687135 0.0820411997757288 -0.0654556537096664 -0.3307110443396514 -0.6038521559304011 -0.2535526282710013 -0.0269071049779877 0.1758961787988733 0.3050436849733517 0.0054491729014921 -0.2795014748977573 -0.0672202300634214 -0.1536022305471011 0.0173331366267502 -0.0238700549799008 0.0871046771616490 -0.0513887238180964 0.0736356790473356 0.0217292840688628 0.0911716286935630 -0.1341727683926455 -0.0390699799272842 0.2478404288969381 -0.1376780426479042 0.1075600817350950 0.0040522223532647 -0.1186082561656650 -0.0436463075199369 -0.1050720879135720 0.0097986436601439 0.0236986113511080 0.0199035823327943 0.0316294343066606 -0.0375948989984357 0.1002719728790425 0.1956210611021993 -0.0351647797437657 -0.3281451294023732 0.1240930362549825 -0.0144722974295260 -0.0508881946282001 0.2638160771338874 0.0567130884799271 -0.0435273932349833 0.0333377570252396 -0.1049716756597547 -0.0703178714524893 -0.1147700263979311 -0.0280825775660753 0.1131166676126483 -0.0956460169272591 -0.3554857520794282 -0.0984030047868191 0.0076306546206282 -0.1032964180893253 0.1065560192612444 -0.0176981245400436 0.1718706768116932 -0.1420299668828934 -0.0859396777178007 -0.0499769964377405 -0.4422772141247866 -0.2090860477981029 0.1636586224516530 -0.0253599205033473 0.1612125755600339 -0.0059118899673296 0.0770284837985721 0.0862835787166092 0.0760795886328216 0.0143849231042526 -0.2514914644931008 -0.0389126312498091 0.1047133627073907 -0.0791123923143030 0.1114980047002951 0.2183163920195791 0.1311186026864383 0.0437320812511077 -0.0939461170545592 -0.1457734335248557 0.2855706751440159 0.2637567538425072 0.0948873497578140 -0.1409164468861506 -0.0220156157757469 0.0578708061474032 -0.0092183687655632 -0.0800238022559477 0.0183571031099506 -0.0681858644624131 -0.1407878170875596 0.0648883043068871 0.1773432744077052 -0.0339874539333109 -0.0791176059287240 -0.0342543045494173 -0.0750461847157785 0.2580982441118745 -0.1146198436214836 0.1144962581418802 0.0404373641963082 -0.0663906558088093 0.0822569225795532 0.0744105345822160 -0.0310006903675293 -0.1684319711848095 0.1013366129574438 -0.1497223719290252 -0.2780151251418358 -0.0496265008375692 0.0849070090124949 -0.0552670077572722 0.1669139646068238 0.2750842696144069 0.0799125999438565 -0.1654846364814571 0.3286225812059886 0.2770654200271955 0.1094315456763168 0.1144114281403406 -0.0803468464815962 -0.1057095617521092 -0.2009529056698895 -0.1671161113816992 0.0245418027556527 0.0225942073935825 0.0532898315611891 -0.0582255855469893 -0.0697739111582090 -0.0682830189350371 -0.0998832042204567 0.1951693780166097 0.1500208804578382 0.0589833590883546 0.1208059015593633 0.0630868779723159 -0.1600279398312606 -0.0768871696972682 0.0163165767718726 -0.1145109189460643 0.1834110895374238 0.1946013993189137 -0.1154999427005711 0.2756729251626599 0.3132911051445876 0.0198472153008004 -0.1443680147893040 -0.0927076523058760 0.2546664565193223 -0.0680012305237856 -0.1561732474131677 -0.0696382416513933 0.0449365841343958 0.1307745672073582 -0.1214347976271580 -0.0992660561608516 0.0370415700836712 -0.0154558125900931 0.2223772370452144 0.1308283955098917 -0.1128489976335322 0.0252404361064210 -0.1868053596520494 0.2411240707885142 0.1895833798770011 -0.0453820245287692 -0.1215027376461732 0.2453737700663895 0.1437256605466612 -0.1115487599175031 -0.1286443923926645 0.0067102830101463 -0.3454017127847070 0.3141161303120939 0.1880979131660983 -0.0242495896688623 0.1308809100401234 -0.0365195715157857 0.1078576073001227 -0.0308445774778777 -0.1485455976750080 0.0925719667706895 0.0670300828682128 -0.2293246722622534 0.2246799941022302 -0.0076493509440456 0.1144408893515286 0.0414897217177078 -0.1825530040006520 -0.0401419235053460 0.0441917828319899 -0.2711192158417731 0.3564513186786868 -0.5829246115457843 0.3085753508908252 0.1200816944489672 0.1281618496229022 -0.0361991312434500 -0.1404318703489167 0.0136159388018779 0.1057647162447612 0.1618493780222502 -0.0756682749426422 -0.2073912549425559 0.0934801517257019 -0.0607494405551500 -0.1435588421575611 -0.1566912842290455 -0.1386402735685035 -0.1988887073694744 0.0586116563105509 0.0779853829331567 0.2906515044892543 -0.1613648891256464 0.2841324098726354 0.0406682297573337 0.1140423960145312 0.0334365165048603 -0.0477020575099372 0.0002739092556076 0.0962926443805290 -0.0302101598194533 0.0649582757513016 0.0530123346391858 0.1117353250183900 -0.1665478516053131 0.2040663572855823 0.1799537491745816 0.1808892792514330 0.1791528130485388 0.2670105118810501 -0.0674774709154973 -0.0030365978107814 0.2779742661739384 0.0096491651888704 0.0878002859887849 0.1432187209397501 -0.1827324758571659 -0.0568671152669279 0.2085786401872367 -0.1110246339825333 0.1788469072640977 0.0827842240228620 0.0771457512420480 -0.2420969881578514 -0.2419701116266281 -0.1869146153500630 0.0352183798252517 0.0048552561497472 -0.0335796676906333 -0.0897356650865443 -0.0203229882266938 0.0457320279421205 0.0146721587876279 0.1517026095029155 0.0243699990335362 -0.0120882535345639 -0.3508710205415935 0.3032958616636744 -0.0923294217534597 -0.1410184409597081 -0.1332703252343776 0.0748958635055241 0.0540309593870155 0.1470623713732003 0.1329445493395876 -0.0253945488610227 -0.0092711402038460 0.0784657760523707 0.2102044555466368 0.0192244360026656 -0.1953419979468464 -0.0859265400283078 -0.1625931689404410 0.0843473224135148 -0.0305529487531422 0.0642773989165852 0.0028767617890946 0.1490195537976037 0.0041081974217660 0.1329667524301830 -0.1446280109487556 -0.0631945401820174 0.0121953964646646 -0.3323083700699621 -0.0342830287558927 0.0363712478776334 -0.0562647531143425 0.0739137181448171 -0.0685383405328828 -0.0675858831168925 -0.2516402578787912 -0.0460328340273502 0.0349096121903192 0.1626195718912629 -0.0680794940735736 0.1547739083064447 -0.0417978014194141 0.0290926499550827 0.0929199657425919 -0.0721362817848195 0.0486174318158345 0.1384190481124613 0.1204634554858890 -0.0045945063949001 -0.1346689859849685 -0.1791311283962933 0.0273605012988205 -0.0274534287043616 -0.0073869609999592 -0.0273093871517028 0.0234749188507310 -0.0844704641612466 -0.1104670719559653 -0.0484507205615260 -0.0424882351108915 0.0562742078795437 -0.0001668025448298 -0.0353648351491583 -0.2248637635794689 -0.3241880682977743 0.0501281003641711 0.1317960902109666 0.1872530980993095 -0.0367384863640420 -0.3297735521139646 0.4777969035863494 0.1727246288254765 0.0374543619271718 -0.0982145564199793 -0.2220547727663746 -0.1668382973794766 -0.0407517785434913 0.0702448933773200 -0.0125747710720413 0.3122460024806815 0.3519232339561360 0.1442376787444924 -0.1218192940583365 0.0924892768224854 -0.2367722330437963 -0.2711067745107940 -0.3177109987616564 -0.1060047986854371 0.0376759621148183 -0.0812832752944646 0.0835475358028563 0.1151974460540510 0.1219278288762092 0.1556643266590534 0.2597568140479782 0.3208168432925679 -0.2159867875041935 -0.2073922281846615 -0.1978037681662380 0.0063168744315040 -0.0852270144584373 0.2189472791697885 0.1017490425384180 0.0771136009111800 -0.1180127324588317 -0.2543965986400721 -0.2136191426905150 -0.4390123983165369 0.0333457046200285 -0.1152326250021171 -0.3976165907984175 0.1312033896264530 0.1200065231956443 -0.2110631294170060 -0.1386830864744241 0.0124371358052026 -0.0662823847541717 -0.0540952019072004 0.1976287693416086 0.1137151329926178 0.2234699461096717 0.2452228887159290 -0.0592486090997005 0.1557863876845647 -0.0388053975282654 -0.1366148888178638 0.4662235111806526 -0.1861839674598520 0.1865185361139427 -0.1584214674966962 -0.3491060427907548 -0.3138707548533214 0.1599742668793846 0.4110311108563737 -0.0691564292679111 0.0253953126401363 -0.0505171704477000 -0.0756743688495120 -0.0697548366832192 0.1720601485437190 0.0793391210506695 -0.0592890435043444 0.0980448486737700 -0.0682809847597812 -0.0669848373143556 0.1728602291152713 -0.0891162181493142 -0.3760228883118925 -0.1426425425435019 0.1044466283294849 0.0718041457693436 0.0314361556618822 -0.0995810173527750 -0.2251543446909397 -0.2186270842534111 0.0717331423320820 -0.1218589156998569 -0.4082251978407199 0.1109275249280622 0.1098552756904818 -0.0629964703320697 0.2747249877885821 0.0834172516643855 -0.0175376234800484 0.2618673983118086 -0.2242036952169187 0.0359075052467528 0.2331827229537181 0.0176385422139219 -0.2161284174123320 0.0675931152297329 0.2418814145100164 0.0908289151881079 -0.2172085606585180 0.0815384973900109 0.2591249614771255 0.1207008639567187 -0.0095047883355298 -0.1879206311511196 -0.2773073202561839 0.2253203498100106 0.0584732637744000 0.0455056693950651 -0.1672278557881345 -0.2191951211359777 0.0644767166771672 0.1447890557019547 0.2149869086669178 -0.0226155210509800 0.1216852950551880 -0.1280688589017805 0.2696622584972056 -0.1364819235273121 -0.1994612507364152 0.3492091805540309 -0.1396308763300015 0.1524092825925613 -0.0895834690851668 -0.1722128225284465 -0.1358664980041207 -0.0906539717539122 -0.1151835716541426 0.1022422086940908 0.1333161916739353 -0.1580410187861170 -0.0834629146577011 0.0318644012603407 -0.0791091822088601 0.1244781294415919 -0.1259193535573885 0.0715314385803024 -0.3158289918127306 0.0172962693703614 0.0035587312391105 0.1000373257823999 0.0948304132413635 -0.2855019559022718 0.0716030573680549 0.1415572780986198 0.0853784133482580 -0.1639713169860883 -0.0024627657398889 -0.0105889657269727 -0.0926296351925066 -0.0777662990521304 -0.1717218683877823 -0.2185072178660661 -0.0267655789654440 0.1899737585247119 -0.2343705073361622 -0.0189951199569908 -0.0483035821791744 0.1110236179663443 0.0518049028390597 -0.1047278199013040 -0.0664680316051401 -0.1409432922750503 0.1084228051312466 0.0393799799695302 -0.0803250236009710 0.1567799068614838 -0.0411512383579969 -0.1448760339598674 0.0338100357488030 -0.0137608064500969 0.0212189575176371 0.2493966496660359 -0.2416446110763131 0.2756532129810986 0.1926421002786617 -0.1687488992246466 -0.0447980664950514 0.1808548173900267 0.2269401212954300 -0.1413796209712760 0.0747926440929964 -0.3312088407640374 -0.4002326856730696 0.3066735322005582 0.1808159749341781 0.1233801250101079 0.1141328126556095 -0.1991057876822181 -0.1383042423600102 -0.1989785017337736 0.1692115845049028 0.2713713861453248 -0.0757390758399276 -0.0496012285323671 0.1323487931611579 0.1666823297240866 -0.2089482507957459 -0.0059702621635828 -0.0707356195788159 0.1129948637607484 0.3326433141196143 -0.0067124568207890 0.0483981865516988 -0.1583220919780270 -0.1408218044462132 0.1965989120430842 -0.1178303618150367 0.1031619287362749 0.1019597465284281 0.1529250394694122 -0.1348331679652792 0.0367064228531496 0.0787264555862564 -0.0163363136249505 0.1156828404678346 0.1238793044501388 -0.2183475373750892 0.3012759686541821 -0.0182789855366018 -0.2302271207563466 -0.0122288456783597 0.1488827323015227 0.1276669756905635 0.3244375652323790 -0.3285323401438644 0.0849497341338880 0.0095481839228567 0.0217185718078721 -0.2420797691417424 -0.2384371720493642 0.2352659475228342 -0.0415899694507367 -0.0762224549955096 -0.1338891523102203 -0.0122789021694960 -0.2407839771394333 0.1465528227563713 -0.0475406099477967 0.0257119317481320 0.0564672357831001 0.0366458889525489 0.0289991620003288 0.1863278676858778 0.0026139553113151 -0.0386792089846991 0.0784531283374253 -0.0391373252116107 -0.0493172145246390 0.0749621825406547 -0.0625052759323002 -0.1376510003033349 -0.0006760500839831 -0.0718449608714130 -0.0419656905439169 0.1856004821526224 -0.0641871961509318 0.2701685028657682 -0.1510503208864303 -0.0573773368509127 -0.1436191297117555 0.3768120274249719 -0.2032198505119620 0.1328229238317484 0.0621039542805801 -0.2164603571510870 -0.2277185824488339 -0.0758983822247112 0.2546192679550933 -0.0141254790084249 0.0320395482216713 -0.0749738447298560 -0.0964833495784646 0.0661071318635194 -0.2793257919899225 0.0215488174384405 -0.0093287449901621 0.2139289533988676 -0.0130774173137598 -0.1680232327031704 0.0825837678208351 0.0106714496790496 0.0514339662803327 0.0246632783711340 -0.2966983208394896 -0.1562378812175338 0.0584879064217818 0.0350987300821675 -0.2268104336786797 0.0078217516372647 -0.0435169512365039 0.0019269533075389 -0.0890682105854444 0.1617500526872259 0.0136125896843422 -0.0486035405843787 -0.0078170016923277 0.0489710270538025 -0.0632213651264693 -0.0510164542562534 -0.0815025938381784 -0.1860792923146024 0.0166277193533877 0.0509304650342229 -0.1000053558428662 0.0057334854260601 -0.1264543745147074 -0.0852967422175580 0.0262151896728154 0.1067008070550666 0.0945298175541358 0.0774189361511302 0.0623956567173204 -0.0243470880417369 0.0278957050417225 -0.0262355755709915 -0.0257533103074131 0.0822418195362288 -0.0246809225052075 -0.0243955993851404 -0.0050058062366317 -0.0907091169338710 -0.0723175807132338 0.0795123029982399 -0.1008848034558357 0.1095034096756212 0.0186160837763348 0.0771870169805640 -0.0448871836831274 -0.0117244613341578 -0.0135576946563563 -0.0733259567561986 -0.0470223596773938 -0.0660560304426687 -0.0360041111639472 -0.0389594508056824 0.1580932469674880 -0.0550893985814299 -0.0226940885215605 -0.1127274855337877 -0.1137388669840847 -0.0333359673091228 -0.0273750713376043 -0.0106018637374789 0.0153359164887570 -0.1098142940062346 0.0833637797313514 0.1609340396555065 0.0123801003796758 -0.0330363470511638 0.0242039386455107 -0.1270698877489825 -0.1081765838648811 0.0363328225575222 -0.0028578865678528 0.0054242812773223 -0.0416684067929058 -0.0219678059157200 0.0356050480836606 0.0909206512184723 -0.0791997654812933 0.0803347437296026 -0.0609004106637791 0.0507770314500106 0.0322165906929730 0.0195868034821204 -0.0828983611181565 -0.0395934584206243 0.0172543852632916 -0.0142895490967923 0.0141294844425313 0.1658918315086824 -0.0801219047547872 -0.0324065687474079 0.1021737547317122 0.0613689297800167 0.0944891567655824 0.0222480685277032 -0.0485746955972509 0.0370086978577882 -0.0283129808418091 -0.0770016566949645 -0.1247255904158626 0.0008904381961791 0.0397436205021128 0.0807118906453497 0.0990567728522351 -0.0240242519722208 -0.0715357236251536 -0.0571640695205958 0.0578341619977126 -0.0902336022137437 0.0815474032706877 -0.0515785120599590 -0.0005274403157671 -0.0075455435221969 -0.0226653736604673 0.1794227454496271 0.0271674843039378 -0.0444731136331190 -0.0555922233573627 -0.0136818247131371 -0.0474602232661905 -0.1169348714664537 -0.0321619753693614 -0.0664163718559573 -0.0722856089303158 0.1103040366149575 0.0271627258110919 0.0377929392700126 -0.0571995116307902 0.0154510277427481 0.1059334868359788 -0.0538664004816626 -0.0334951942893654 0.0505499917688755 -0.0980385225715916 -0.0449044626989174 -0.0752444304460060 0.1854363773579600 0.0823026634974768 0.0139902377211745 -0.0216096824969868 -0.0259986873395395 -0.0094668681515655 0.0328052065576044 -0.0047454699002003 -0.0250250762238910 -0.0182767466823980 0.0426975150399698 -0.0590387425237313 -0.0820998737007520 -0.0422182068124617 0.0025131196295901 -0.1429877593500319 -0.0429282556421524 0.0222509589862061 -0.0017676753450016 0.0652656802595377 0.0729442350972156 -0.0183847595827497 0.0665210280763399 -0.0509758724489808 0.1026802697927826 0.0548961227227656 -0.0501646186529326 -0.1144345203533774 0.0582775830326503 -0.0143948582475727 0.0097579592727726 -0.0044373131017749 0.0053686842251852 -0.0982216064837020 -0.0224969395627392 0.1084169799870753 0.0558264168408638 -0.0141845133405299 0.0943573960047227 0.0130154429313429 0.0058344820150502 0.0265446779982336 -0.0046799787027858 0.0234743266922256 -0.1458564676871434 0.0485877898276883 -0.0477371950366893 0.0402490059754820 -0.0291666976210895 -0.0852283879300071 -0.0720310473454002 0.0842534562490008 0.0348370720380508 -0.0808655483997511 0.0064018721673422 -0.1116679058823201 -0.0005838875165526 0.0561802412920529 0.0891159752806225 -0.0237947237658199 -0.0326665615456839 0.0925494063607284 -0.0294672633198790 -0.0022157988015892 -0.1760897932716712 0.0577419772958780 0.0495866116909318 0.0456653443617494 -0.0646485920346592 0.0998528900440931 0.0226766510686330 0.0511230133177072 -0.1073426788789930 0.0528459338970216 -0.0415701812872285 -0.0104896092702647 0.0307723187489002 -0.0690199920351857 0.0381738006299849 -0.0598543819791745 0.0224782257912657 -0.0549978499803582 0.0263578316143361 0.0089715204739598 -0.0375054564801842 -0.0056698753937739 -0.0709684539851804 -0.0156839825317951 0.0081241580760502 0.0244749954074462 -0.0008377471811153 -0.0366107902476872 -0.0457194561863433 -0.0444836283889459 0.0470146702325511 0.0345830532253719 0.0324697734518595 0.0479736566745414 -0.0143851491119014 -0.0477923316516033 0.0884098112105339 0.0433577936007540 -0.0106080863478373 0.0357621422509043 0.0034965206972692 -0.1028474297550854 -0.0142994826162160 -0.0305941184321150 0.0393854759101043 0.1356713031113369 -0.0727405785402267 -0.0225144835300203 -0.0089104020182101 -0.0421164613746750 0.1244943394173450 0.0717874035059834 0.0652585697954016 -0.0307992801480673 0.0621343199582588 -0.0523505924848573 -0.1278365448642433 -0.0443994408069868 -0.0424960792534947 0.0450099656293465 0.0401427741586920 0.0804579599027434 0.1133156340983030 -0.0129675433814877 -0.1202668586247661 -0.0609436246851890 -0.0245376711164762 -0.0268425156653634 0.1736814367881261 -0.0155183391668893 -0.0419142013748056 -0.0008713721916880 -0.0191030996435294 0.0053262110808081 0.0100420487947400 0.0796201308798173 0.0033690327831124 -0.1039322821382131 0.1019500547170936 -0.0074621836995045 -0.0772973638820967 0.0298742673832437 0.0047208506016577 -0.0703051210171106 0.0681135603546819 0.0174976791805676 -0.0452074919118430 0.1525292846737348 0.0107408099485896 -0.0242404524934278 -0.0156262969492835 -0.0637431890346949 0.1963860619884818 0.0159578982566645 0.0007469100635523 -0.0655782135920013 -0.0101676845530629 0.0703498209914114 -0.0286733955500258 0.0000737444791313 0.0401332126175000 -0.0430387590846404 -0.1053202218937286 0.0108575440445219 -0.0527729169068087 -0.1665871915884072 -0.1372198403779283 -0.2391044321137016 -0.2209515526073842 -0.2247524234869933 -0.1460982872794624 -0.2020251451107782 -0.2108665088347439 -0.1605149144408408 -0.0891938798402087 0.1063273979024432 -0.0437082355087410 0.1108694309330046 0.1547194870298263 0.2426451271299410 -0.1727915818258207 0.1703019845511954 -0.1193261392791407 0.0021023564157585 -0.1139132590669751 -0.0469746090257095 0.2343985326108503 0.0028623804527924 -0.1269321919733213 -0.0798701124679686 0.1584140966740969 -0.0842501204995976 0.0147658084771696 -0.2537264331093605 -0.0346884864896428 -0.1096069656637043 -0.0988633683753773 0.0501950653863761 0.0106934325634398 -0.3020500942954338 0.0872332049095605 -0.3504754548103602 -0.1118028985048441 -0.0149959318346665 0.1703253629267826 0.3375553083727360 -0.0663840715158480 0.2857964582635570 -0.0519386034755576 -0.0334462010970029 -0.0381886415343868 -0.0975155713744534 0.0799124153536460 0.2289879447647848 -0.0211388121960919 0.1769890900906529 0.0005794564465015 0.2135019489031158 0.0885478778986592 0.1192654638586767 0.1009236963667215 -0.0700128158029321 0.0166080348942958 0.2326618330675668 0.0481984860585707 -0.2749385392312305 0.0484851771728256 -0.2283530873947376 0.0416911605351078 0.0890145153817525 -0.0698234764457896 -0.1001464903846797 0.0067028690245185 -0.0348121757045004 0.1527131593599714 0.1627757764143050 -0.0343697408491820 0.0009193028755554 -0.1562898429734856 0.0923539034235964 -0.3455880194950698 0.0248878860826516 -0.0465252840181454 -0.1192426634096095 -0.1084039768676957 -0.0400661070500059 -0.1261505643788241 -0.0096613904097821 -0.0688163129383939 0.1000080276550926 0.0902504690307942 -0.0908939822210473 -0.0126137790027333 -0.1629309961124481 -0.0302006307768679 -0.0736131706543587 0.1133442613204257 -0.0137269175100467 0.0678530350505079 0.2588550240895574 -0.2044310655964734 -0.2112234339427109 -0.0018239094061602 0.1526720559588366 -0.0144828725752081 0.1249335860986558 0.2684138243622867 0.1105105887204657 -0.0825137905424997 -0.0587658345259787 -0.0320183892566865 -0.0830250277953011 -0.2591726469894912 -0.0071162583130332 -0.0187432131479154 0.0915587778452184 -0.0936843749826206 0.0614576045449798 -0.0245456514584127 -0.0627768107277565 -0.0234724137306577 0.0093572769428022 -0.0813575424661153 0.1314194731278062 0.2259030545915828 -0.0079349535243073 0.3086255244078792 -0.2502427991910265 -0.1789988502163878 -0.1292622129459667 0.0826414016011869 0.1205905657694053 -0.1199013711298088 0.0547919519541820 0.0592996539055432 0.0095837670401223 -0.0101383027122766 0.0048788118016962 0.1054292799617215 0.3046325564067571 0.0831988225236874 -0.1727139354509529 -0.0517407311358367 -0.1236723494946217 0.0095183969921277 -0.0979847600552327 -0.2133158071352615 0.0605638089519933 -0.1639648601917465 -0.2008181508621563 0.1305791831982437 0.0957830967293763 0.0059537023860153 0.2296650902644426 -0.1863148935032084 0.0936550986824472 -0.1413427554987848 -0.0033390435802579 -0.0127253154714652 0.0270993197666928 -0.1813227685708230 -0.2270644025168624 0.1267709188218455 -0.3681582031662918 0.3958624946452041 -0.3563152660729323 -0.1838861248262860 -0.0723850576359094 0.0360060599031922 -0.0551749218983427 0.0679475496556964 -0.1169280722631557 0.1172386237593403 0.0417209340421973 0.0250920803206126 0.3192596398739145 0.0093192395522210 -0.1066807476599739 -0.2598344920836021 0.0383816723576299 0.2728037125141008 0.1013016491774478 -0.1475174438981068 -0.2944243175708348 0.1064587567627540 0.0413429336169441 -0.2713132140334903 -0.0810178350230980 -0.0455233285497757 -0.0719455184471224 0.0089784050830536 -0.0673923365576374 -0.0681714335719565 0.1257777748086596 -0.2541770661201449 -0.0099171736288811 0.0815054756736683 -0.0004440946950363 0.2972880193553034 0.1762324390625132 -0.0770757672659029 0.0913100224517675 0.0163181482807254 0.0174053256979402 -0.0046899337530737 0.0388608785824589 0.0115182033097168 0.0961891088554369 -0.0046840148586112 0.0928777328805959 -0.1392304601367119 0.0413614614802843 0.0892554774458471 -0.2181496481942830 -0.0667355643078841 0.0385655821333959 0.0054186601515627 0.0874129093634937 -0.2523713454397056 -0.0736943699410978 0.1748589823911711 -0.0012559769708739 0.1334878382880430 0.0799414247780161 0.1628913905404109 -0.0861211927951343 0.1317203836521570 -0.0333027549814515 0.2060088246225288 0.0683125479331812 0.0216698879385357 -0.0364084272051323 -0.0315084591489195 -0.0619099049095819 0.0907105838964609 0.1590116852421237 0.0495567952766350 -0.0332705284014016 0.1265854664284293 0.2010896629786640 -0.2580899566504764 -0.0054596943539422 0.0106033590705375 0.0034268307036449 0.0970201440128809 -0.2096988383422257 -0.0712143748352079 0.2422497098748108 0.0108726060915371 -0.1170782057258556 -0.1680815579629942 0.1098445272942754 0.0045593578335115 0.0584389034854238 -0.0299135283489531 0.1016964425330267 0.1419752388356489 -0.0799386989552795 0.0960774398826891 -0.0298109582872886 0.0617892856652971 -0.0579153418165440 0.0976937577695843 -0.0264176677332487 0.0349951646650730 -0.0562180942974957 0.0806986053328190 0.0164538842989487 0.2573458375832957 0.1067644060971375 -0.0727326908018334 0.0685804813498150 0.0489380543726928 0.0337984306319451 -0.0138682504274699 -0.1862999087867753 0.0373095749055589 0.1490467308948899 0.0508330210532767 -0.0689815580030165 -0.0053812518703130 -0.0976010881850366 -0.1692756026038324 0.1064545242796574 0.0089125148037354 0.1191516653428759 0.1128224546110935 -0.0953094014545795 -0.0435415681687453 -0.2127340053666641 0.0181258969958791 0.0310746782868780 -0.0751670821218478 0.0765201254727004 0.2247482081459712 0.0191669560351612 -0.1361286529324634 -0.1109185533712164 0.0676606221489160 -0.0098587513841132 -0.0362324204812114 -0.0472535033157190 0.1432464697213873 0.0101178137381330 0.0983093426243583 0.0248638842803076 0.1882556551285773 0.1872636539925996 0.1857216609247590 -0.1727530675530438 0.0919907288869418 0.0411755845515218 -0.0382624893672433 -0.2426337383454928 0.0872800453129341 0.0156213589125053 0.1582175648742648 0.1691034554980476 0.1904388721549304 -0.0590419672741200 -0.0114078136555229 0.1366820324721116 -0.2512272250265604 -0.1998991482898316 0.2127142459744030 0.1387581620755691 -0.0109789563147857 0.1885766114181179 0.0173034062382821 -0.4805072128395051 -0.1112253531401849 -0.0912469300030055 0.0075435831910591 0.0662422741336183 0.2379073050793230 -0.0392929872184105 -0.0773961988380733 0.1472629492881354 -0.1146236893752329 -0.0783312182640865 -0.0005167046479179 0.0176473407744511 0.0257271543231837 -0.0737493153796821 0.0531221596244694 -0.0750010388346379 -0.0460083505392525 0.0793148175159117 0.0466814645498942 -0.0165799885424697 0.0909789695149107 -0.2572064728491064 -0.2788153513751213 0.0047360712634448 0.2413366402437559 -0.1088181762362520 0.2120069454317753 0.0342298934889791 -0.2256323429671623 0.0636110817463297 0.3808313232436094 0.2114778221114570 0.1273985088927743 0.1766610421954017 0.3113986773479721 -0.0821053820149327 -0.1617830353492964 -0.4188240247235566 -0.2320058914860779 0.1202486082373546 -0.1933546525084999 -0.2062263082763072 -0.0865589568706857 0.2645955506913489 -0.0073963558506988 -0.0608150595624180 0.1142894860767715 0.0372642676491789 0.0797879806847714 -0.1431765979546852 -0.2477255503554081 0.0403340674351699 -0.2275216413017692 0.1160606276238716 0.0450268685439676 0.0526626124897672 0.1891294964478084 0.1420874951202447 0.2231290427197197 0.2869729886463889 0.1455275581649070 -0.1260397684459803 0.0502766548392174 -0.0585869957337599 0.1681382912398430 -0.0012897342582052 -0.0969377189236903 0.0680025301704880 -0.0526105829054523 0.0998306110116235 0.0272868523115953 -0.1328883172656841 0.1406584668215917 -0.0023067841911789 0.0731878275508332 -0.1419025866671405 0.2366176376831059 -0.0498855244254614 0.0092700797445706 0.2129395355022631 0.0370179183029146 -0.0141440757698887 0.1905208686072863 -0.0472146800492783 0.2240993721034442 -0.0449371308751954 -0.1498353815841308 0.0795447172246962 0.0728379161538468 -0.0770896461938403 0.0140928187796475 -0.0128315145598793 0.1298519961906088 -0.0120186376331319 -0.0647623519764591 -0.1234788370907520 0.1152858696341371 0.0258855624486065 0.1461228641366135 0.0376578803498082 0.2152283543543578 0.0765541556725528 -0.2447876902090557 0.0131665409390307 -0.0835681076811199 0.0550551383808860 0.1567364754939110 0.1352639403450939 0.2568845239123402 0.0014560164136449 -0.2191495846317632 -0.2137973124603764 -0.0906617368238558 0.0673358156749655 -0.1351569504346214 0.1046846368826413 0.1206295778920327 0.0183796295826698 0.0364561676434110 -0.0013469976161374 0.1805173604699007 0.0188454665745076 0.2521473336746537 -0.0480230421568464 -0.1566044863922698 0.1569740818883058 0.0555462694750767 0.1421916208093273 -0.0567068050418154 -0.2719417629432890 0.2177517212292617 -0.0095955272903194 -0.0683326102472269 -0.1695425421718149 0.0431138645639549 0.1399084235119229 0.0493074771955718 -0.0249661148065670 0.0784010884044768 0.0293615557999869 -0.3060710599013694 -0.1150733741973197 0.0248882384629061 0.0794850935596147 0.1311868865332882 0.0427096579467399 -0.0925899049365390 0.1319445571431340 -0.1781347047518612 0.1020802008289649 -0.2481940901034707 0.0962407308365126 -0.0979274090702039 -0.0639642395706948 -0.1096877887919829 0.1278327916990798 0.0051652080460228 0.0282807617694957 -0.1444421515142058 0.1917751020228249 -0.0434209207069698 0.2476978491820516 -0.0540911872267785 0.0930693752791031 0.2523756085541516 -0.2974924498596592 -0.0592499274222569 -0.1420290998837166 0.0781426753023108 0.0120510331171959 -0.0381485635393657 0.1941116072662085 -0.2671457393661620 0.3020573804276978 0.1069035760518045 -0.0127745021728641 0.1194920434314497 0.1104243654647868 0.0225047692613077 0.0986660850973705 -0.0284314202373104 0.1400273302318048 0.2232336695768209 0.1299443322874408 0.1950265046311223 0.1057842214823328 0.2657416059821440 -0.1235979342020276 0.1850712494176691 -0.1067003895984630 0.1013576141314614 0.0982258207145883 0.1739183582655877 0.1740670340339349 -0.0826576678692043 -0.1002324343600314 0.0647717446289314 0.0510618573159179 0.1940580628907055 -0.1446129380636354 0.1473007055437766 0.0473294454442628 -0.1982110639479543 -0.0804765567246010 -0.0458117218080666 -0.0028267506234822 -0.0262265615835009 -0.0794304177642921 0.0480031317082008 -0.0377836276151589 -0.0453955542640948 -0.0305954421349606 0.1178017867662851 0.2530388098478398 0.0851752894024835 0.0694652755933394 0.0281033239838148 -0.0338552913626545 0.1626418295875541 -0.0960269581445053 -0.0255323965592727 0.0114231070009946 0.0172607511161369 0.0786642945992285 -0.1502602149238320 0.1505528056307016 -0.1426619082283595 -0.1153739955117372 -0.0772557503397818 -0.2350835829638722 0.0957707472292934 -0.0335331346205332 -0.1001962233388094 0.1046537321397522 -0.0224267947413671 -0.0666523428059776 -0.1346976316884027 -0.0922996876485702 -0.0531357762361510 -0.1359072004328654 0.0175630818930127 -0.1024156513369880 0.1868419026364130 -0.0819233485014970 -0.1717971992454558 -0.1619255672611184 0.0868588281760084 0.0433746904359935 0.0680270561727092 -0.1371899019460620 -0.0904868219539560 -0.1155856406013147 0.0731130637365146 -0.0157077621041420 -0.2333875666561260 0.0708562835756111 0.1369875410611414 0.0186194064508941 -0.2013658955937154 -0.0455464884375984 -0.0246829626153616 0.1177448185296523 0.1136337025871628 -0.0897986384616461 0.0659457638617520 0.0361591918484963 -0.0140563556681705 0.1761791010408219 -0.0133640101581693 0.0195953015850946 0.0827420780255779 -0.0580764011349065 -0.3530025401112882 0.0894160470699964 0.0168339831725755 0.0657559579115535 -0.0933456931661533 -0.1478343902170613 0.0132894319709705 -0.1137387383486130 0.1704544819134904 0.1518083346576561 -0.0748544041614905 -0.1018396620502043 0.1557008298365770 0.0258364752842099 0.0523780677290747 -0.1164407652059051 0.0923493541016734 0.1284953186124516 -0.0687642228401892 0.0720707484819244 -0.0549477428790253 -0.0116120737378689 -0.0226690031344317 -0.0318150903863689 -0.1399905522479510 -0.0812790166850410 -0.0396676095968065 0.0499247067114441 -0.1574678801607662 0.1172881804678547 -0.0876868082069484 0.0212415859330071 -0.0116097212881484 -0.0150216689099412 -0.0107351214239235 -0.1088760665919426 0.0675426987044984 0.0340954980543422 0.0997789406085163 0.0038900583889215 -0.0528289601415301 0.1554311371462057 0.1637811349981659 -0.0963802795663641 0.1065318617422693 -0.0717731759519208 -0.0438593275770454 -0.0771753182359552 0.0446343093098382 -0.0992711739354850 -0.0093270461537138 -0.0424301455010567 0.0958701525873561 0.0626113055192303 0.0684709116832975 0.0257458556322337 0.1559271225928558 -0.0054181436278495 -0.0576992825435672 0.0114473521425366 0.0999880846851896 0.2200397116056609 -0.0722364405592110 0.0105848188229417 -0.1116945786587055 -0.1249844828134993 -0.0305903248521654 -0.0290191321582129 -0.0926218976680485 0.0754116712123954 -0.0092063850597068 -0.1426762614783889 0.1680471157649148 -0.1398458845833775 -0.0979632631310914 0.0029551835950409 0.0366653397641860 0.0214132678882438 -0.1085859643652498 -0.0233548538360480 0.0229256768924386 0.0225950254632441 0.0307818139548841 0.0822951053079984 -0.0341389080301228 0.1144604514355466 0.0993879099496031 -0.0571663184998617 -0.0098803151945079 -0.0552575457537150 -0.1480618278550602 -0.0538500361008360 0.0361098444905958 -0.0230079855967149 0.0342616995975510 -0.1224540787154028 -0.0047840986122573 0.0329962477250171 -0.0224104629988353 -0.1318879812017474 0.0666125095404520 -0.0025394963615477 0.0650396689686278 0.1065915187634622 0.0088569812031253 -0.0762934398772143 0.0594062291839727 0.0647208847850370 -0.1563941569189430 -0.0875957969038693 0.0372420376643366 0.0290686625483469 -0.1724905499619303 0.0484757136346267 -0.0602361873674312 -0.0212261834581855 -0.0606695307667769 0.0312062728905867 -0.0051896298571977 -0.0243553608882468 0.1402587872016668 -0.0203528971715749 0.1946188826691923 0.0261853082318989 0.0950596299006970 0.0603609411333840 -0.0093007753382643 -0.1086366915702305 0.0142287509643362 0.0138936892534223 0.0449507816481566 0.1350129539839694 -0.0748333831219365 -0.0424530154070004 0.0723475603300847 0.0045253503126815 0.0083071640612992 0.1488037789320314 -0.0427828422121882 0.1819540056333024 -0.0353961874822233 -0.0116074241817998 -0.1146198298495822 0.0568694337116708 0.0020082781465124 0.1394431908473655 0.1595857462116046 -0.0681345294284749 -0.0075849426612434 -0.0362243964510965 -0.0891989420957218 -0.1278632445263313 0.0123942213497921 0.0018060100086520 -0.1203567056026792 0.0229967105288985 0.0232932664863300 -0.0263915370694299 0.1221040405547083 -0.1199287069623818 -0.1422373583017739 0.0939038891964352 -0.0517562742770268 -0.0637260490486299 0.0137728732718086 0.1022596929580576 0.0737116520324194 0.0345068262313185 -0.0227500541203220 -0.0900851719452512 -0.0146470972581977 0.0353525244388035 -0.0764509990803759 -0.0940104353023109 -0.1048372284047627 -0.0595979763827342 0.1503545306260270 0.1076351091063216 -0.0715595832781253 0.1559041563708308 -0.0004046361071013 -0.0257123829708645 -0.0451787594092596 0.1195720104759928 0.0805456795181958 -0.0874302739667045 0.1574363134365733 0.0927999603807185 -0.0981840178261053 -0.0465550792705043 0.0489946651651133 -0.0669420896627003 0.1383651593551513 -0.0751876240207273 -0.1745031733133217 -0.0908298949586802 0.0309541527214563 -0.1362816262760704 -0.3161315651688940 0.0797009605147795 -0.0444623881544193 0.3488662991061502 0.1523251260838376 0.0753664445545112 0.1203768335107761 0.0110647775144689 -0.1601165495774603 -0.0879948774230539 0.1600325812489486 0.0633514438855155 -0.1216609875466837 0.1023724993426091 -0.0273239163014629 -0.1348703928754494 -0.1892959179690923 0.1157334303550330 -0.0048526359266499 0.0535088565568069 0.0026650095883470 -0.0650522236059702 -0.0848700532971312 0.2074028373423689 0.0530543335066278 -0.0470813781783590 0.0861301966269636 -0.0102354418287689 0.1404688233655391 -0.0239589551346958 -0.1380561206366790 0.0072335120267358 0.1422772461251423 -0.0845026241460502 -0.0770410928560214 -0.1412527355844452 0.0015629608953705 0.0960213040125653 0.0646926937468593 -0.0908959770727072 0.0447488889509659 0.0391722569260934 0.0685024285833938 -0.0068150575988874 0.0798305774406842 -0.1217829990995984 0.0016940239687067 -0.0920907193836240 -0.1331759837162853 -0.0139064888220997 -0.0859821764418579 0.0589073092365698 0.0572832113515373 -0.0937454712853595 -0.0203059431973351 0.0119340535525607 0.0678944628761790 0.0935837819768312 0.0392181419167465 0.0704301602545178 0.1389285127409044 -0.0574549022178934 -0.0521254635156088 -0.0140456311293297 0.0125982194230066 0.0857956260302466 -0.1037647858877738 0.0817460160160337 0.0711743768352828 -0.0336051136902357 0.0266478414957611 -0.1137840763100878 0.0536601620670041 -0.0983509819839802 -0.0122500938278412 -0.0939215571305308 -0.1366667222640184 -0.0333206868570631 0.0964982980650467 -0.0216272046682655 -0.0100519894077915 0.0017251752602832 0.0720163977519331 -0.1019197614279936 0.0774057808703318 0.0245682144545442 0.0353441524954177 0.0071948211480313 -0.1389169908699654 0.0579944717424940 -0.0329084755165659 0.0171714534750079 -0.0078164468701311 0.1178695909444784 -0.0284393234649554 0.0449832568588662 -0.1341531797206722 0.0935730423545704 -0.0166142581067775 0.0877356149444015 -0.0330561073100467 0.0642470067566820 0.0476191886822233 -0.0298621674431527 0.0330145910249585 -0.1372351952191969 0.0327143126528002 -0.3768060625552945 0.2599942995399791 0.0026817492884442 -0.1755521876297186 -0.0011621775039504 -0.3814196111774045 -0.0684436848999636 0.3496823310229645 -0.1465786415687438 0.1540411681177918 -0.4531246694886479 0.1073962719469732 -0.3058251919524169 -0.0171524189139455 0.1228309155658959 -0.3449486932336830 -0.4360254709479160 -0.1608823597926307 0.0341606380100909 -0.2417949696748448 0.3223697717119633 -0.1066153446689435 0.1036151679439152 -0.1285661079483131 0.1910987014586001 0.4061695469389617 -0.0329086362641381 0.0699774582834465 0.0122347085905355 0.1367265806316089 -0.1042569534920381 -0.3094755347549758 0.0573421179378771 0.2354982455499014 -0.0694884448625546 0.1131009873529318 0.0723253136502120 -0.2153285765345792 0.0748444298215420 0.0142480020897953 0.0538138924159527 0.0533767729664743 0.2409922825209412 0.2000775179169756 -0.0604355406481266 0.2210909880828659 0.0414241507496694 0.1049213842907045 -0.0520437707720203 -0.1901470767409461 0.0427647383325301 0.0093607840671780 -0.0918339375149730 -0.0195282840757914 0.2145961244775639 -0.0725136489156448 0.2041630709742570 0.0674637989084215 0.1161732102492951 0.1648474426280682 -0.1669575103875462 -0.3428274554219545 -0.4578146755919055 -0.1257354236865242 0.0772314062685026 -0.0677726946383951 -0.1708112947633842 0.1621264457601011 0.0475062970516946 0.2052853712778414 -0.1100889546694474 0.1774910655716602 0.0379208008893545 0.1722759527288963 -0.2399814474121327 -0.0010988195420608 -0.1622659946402836 -0.1567460626186035 0.0447251209053794 0.1221966941201709 0.2004229046523711 0.0197714451549102 0.0425296995235180 -0.4705411845752624 -0.3957534491510082 -0.0992567566088608 0.0371341524074313 0.3134092172257530 0.0457722441093859 0.1982056390588944 0.0324261998714835 0.1632489964663297 -0.1000176539973745 -0.0188542296823145 0.3342037139975709 -0.1357242348950594 -0.1051755708349256 -0.1211062554729054 -0.0275988417532969 0.0104796305191024 0.0856902628281458 0.1876381066746437 0.0881770452231719 0.3250033248250560 -0.0189626140854016 0.1966300549519655 0.1865637948638115 -0.0175411131823120 0.2249635846089680 0.1543823040537781 0.3119755970820116 0.0462376711422555 -0.1133513297964670 -0.0406211337338024 0.1626569192034008 -0.1470426483544217 -0.1087155075537097 -0.0978170971488105 -0.0270458568214751 0.2574007464538779 0.0562211667137340 0.0564894132507651 -0.4219191749399414 0.1409941227116851 0.1349785526248419 -0.2933207835666500 0.2202319410587922 -0.3068348670870246 0.0610906569904023 0.1352246193181611 -0.0151512470184064 0.0992683650952265 -0.1427413890647784 -0.2901207672008401 0.1484620845976699 0.1030383502442224 0.0690339345678722 -0.2859959730412133 0.2066820443428077 -0.2977576453413534 0.2576802238818199 0.0997728125953893 -0.2110714318575767 -0.0951040766460804 0.0018826869679772 0.0394535241496532 0.0724486822093496 -0.0059172543309762 -0.1232780432070013 -0.1898636694222838 -0.0743172737810120 -0.0756669119221353 -0.4023350920009614 0.4197776012385374 -0.2064591913660508 -0.3188280875747555 0.2465978868131370 -0.1537759654677011 -0.1738141750281287 -0.1004765903683384 0.0756402824259315 -0.0126022409601921 0.4637972434759442 -0.1153960929538743 -0.0026420180072544 -0.0558756656324204 0.0646634252406156 0.1787164615809559 -0.2054024256549303 -0.0100286795120444 -0.1351605751124788 0.0294268007648995 0.2467361192491851 -0.3655395390370954 -0.0331852262694050 -0.1391665862883275 0.2438245526076152 0.0034514312267970 0.2004533004381564 -0.0627124592231420 0.3484622605806313 -0.4001038912985430 0.1244835678581271 -0.0548796023298395 -0.0785743955160481 0.0669091107758230 0.2529223205850539 -0.1652259236696852 -0.2191646849769726 0.0510572985716500 0.0329174660683366 -0.1105296705593795 0.0192360540271216 -0.0370018705052810 0.1095641749333809 -0.2954035902016453 0.0438956572719429 0.3562139566386437 -0.0195265440377183 0.3706148116792276 0.0378471158710782 0.0567087575768686 -0.0458072825272482 0.2041352640297599 0.4691513050137420 -0.0330835855611436 -0.0243217386129028 0.3328396130645420 -0.1222417958072550 -0.2249212679958412 0.0730471598709978 -0.0482812133142720 -0.1606268058915615 0.0276765282907342 -0.0867177126580883 -0.0853156854988864 0.0576037728037525 -0.3825526739219974 0.0919318603740568 0.3655774100905806 -0.3541223692293627 0.5321711699749353 -0.2048707809196625 -0.1270364669203982 -0.3688777859884358 -0.2955623458163709 0.0568632331575369 0.1672951081595028 -0.2263032063508214 0.1775530688737685 0.0856123495604838 0.1403586437417113 -0.4138165656238431 -0.1792191157596543 -0.0352783942671243 0.1844183574563038 -0.0247331682696565 -0.2015253084138406 -0.2512133054179152 0.0148693586371177 -0.2272902535352722 0.0868114556193403 0.0046460932979947 -0.3462659601569094 -0.1489795370254274 -0.0905825181503826 0.0756264884026432 -0.0690221501495196 -0.0895381171787707 0.1024377010946064 -0.0939593009263137 -0.0963583944011432 -0.1706489472916758 0.1988235573140099 0.0792072819822740 -0.0331516298882313 0.0989186427380527 -0.0079912864004647 -0.0574813155167595 -0.2069785731501987 0.0071180437703036 0.1544867061498378 0.0105162097143203 0.0444367601082710 -0.1567155792437946 0.0925612243446498 0.1336782065895739 0.1739132459023751 0.1765140331577197 0.0688756351613391 0.0590597315714788 -0.0711693470655560 0.2169690764533109 -0.1497275910795946 -0.5849855961999364 0.4842768307321729 -0.2791574487297744 -0.0857271744486423 0.0022323637798863 0.1616914115225029 0.0194322720013207 -0.0204038237574698 -0.0854975201500757 -0.2537537868664780 -0.1239608192955080 0.0782504658243485 -0.1839113919228641 -0.0272827234109017 -0.0167399362580396 0.0092182928888242 -0.0832648646329040 0.0301063928863487 0.0167488295805093 0.0405875902750732 -0.0422316366541368 0.1285735610197654 0.1987409530513927 0.2230379418093945 -0.0570997221668292 0.0534805259028954 0.0167190354823370 0.0214486749016455 -0.0392268694777193 0.0797993883285278 -0.0615021431929495 -0.0410613926622900 0.0128325278973156 0.0594158758096253 -0.0399952309967856 -0.0171284049941069 0.0281588956740309 0.0566700412663405 0.0576486714010579 0.0552416700851157 0.0018298516772668 -0.0282890059605648 0.0669411246900764 0.0171794865212522 0.0218511206823523 0.0002642004739958 0.0178101214534133 -0.0087473565993424 0.0471631782081635 0.0159354599684174 -0.0453371185174031 -0.0037557088727681 0.0482926345155543 -0.0249443171962467 0.0245377594094251 0.0082567942046440 -0.0005751738347761 0.0325166888762331 -0.0150218945383728 -0.0165739868626487 -0.0339320436755952 0.0060702820397803 -0.0457907395589950 -0.0488655873175909 0.0130062815896800 -0.0196380082187239 0.0353948860710525 -0.0414460806426507 0.0340552375444575 0.0025605696893587 -0.0333623174981133 0.0098138607776502 -0.0309260580083872 0.0416541179680078 -0.0411521814254456 -0.0136117064350683 0.0315108622828900 0.0396405302752950 0.0491870659973300 -0.0228419704963948 0.0288797928847437 0.0795162701572337 0.0362257522815524 0.0567451949777912 -0.0105219754106528 -0.0062390686889743 -0.0325592053455751 -0.0043879595667630 0.0235204703408217 0.0086860797659210 0.0078003920875319 -0.0358978278256523 0.0357904701063986 -0.0183854997025942 -0.0066747875260999 -0.0079150017134376 -0.0188032971596856 -0.0061164807709591 0.0063462424946564 0.0247603276847108 0.0165283532046847 0.0326401360134291 -0.0088578703418147 -0.0359362758087454 0.0242327315722245 0.0123331244812388 0.0255991832488350 -0.0123759425179490 -0.0248043489781312 -0.0117835999347966 0.0059183256069459 0.0273215415364096 -0.0455397658020407 0.0193005610481031 -0.0018736895762774 0.0121772934753814 -0.0117044781804899 0.0009173664254272 0.0153232377211048 0.0461148254288294 0.0179893832946503 0.0051606748707966 -0.0122763627589848 0.0014040231260231 0.0259030677086293 0.0446610220917991 0.0488428518015087 0.0431337929370012 0.0009674991482926 -0.0537003195445001 -0.0063379389064863 0.0046435569538086 0.0175193181930887 0.0497355930764608 0.0036759251589777 0.0177963083229124 -0.0334149377124424 -0.0182616420936178 0.0081242903729370 -0.0074204634401975 0.0145091636090683 0.0226117991400265 -0.0535715248996606 0.0150285535603662 -0.0435514221108660 -0.0189192955852994 -0.0274635512639227 -0.0014798128789368 -0.0111698443215000 0.0252026748564539 -0.0277259225489972 0.0436502630584176 -0.0318074027150517 -0.0084084407087666 -0.0414234934740716 -0.0000556505660247 0.0465070153824140 -0.0234684100008310 -0.0433298987377150 -0.0722254758522730 0.0317016901194573 -0.0125133801201529 0.0535846573992770 0.0668724285623828 0.0041575175112002 0.0625374279016842 -0.0341387472214614 0.0237514824299027 0.0646559747642159 0.0525636186442758 -0.0072283505574140 -0.0440791723574929 -0.0053522619621814 0.0157002277501381 0.0073080147250677 0.0231128457379712 -0.0399016094217451 -0.0118469499413503 -0.0513753630719898 -0.0038784306593948 0.0156979692936236 -0.0040320942220166 0.0253370242704210 -0.0328459838671957 0.0301776378862596 0.0073529288268989 -0.0332816855360850 -0.0189033615215044 0.0407739617492356 0.0218171280397893 -0.0081688581645346 -0.0249594563261880 0.0283775821167351 -0.0072095121084951 0.0029849967989335 -0.0221681569936974 0.0272168158675386 0.0237118495106917 -0.0056343975374625 0.0222523113978346 -0.0003482027513577 -0.0476480059139059 -0.0099314370238353 0.0094609680366462 0.0242513750915552 -0.0586580588838249 0.0041137247912244 -0.0368205991574010 -0.0357761786535152 0.0095964140870225 -0.0464126112126410 0.0144989919185784 -0.0191499428288985 -0.0287898850748335 -0.0159903869698922 -0.0187559846480742 0.0072481011916694 0.0237568875481634 0.0019435725288582 -0.0118940263891990 0.0704474268026181 -0.0122898685117322 0.0395125157686907 0.0446335911019373 -0.0330490953493889 0.0044880444203708 -0.0102735782850667 -0.0746643776448738 0.0170642339690237 0.0114333354766973 -0.0162776995174269 -0.0097731500291817 0.0547974615648367 0.0105779848780294 -0.0508951064502276 0.0053832832722554 0.0167896026316384 -0.0117878115752616 0.0239876892646786 -0.0321455287529972 0.0278399087738705 -0.0292819854276285 0.0094655461328746 0.0289488588190845 0.0336211674739419 0.0128031342787238 0.0473574812908044 -0.0529261937986295 0.0135742619342810 0.0178320346709744 -0.0035605424146178 0.0082308117670850 -0.0304326282531047 -0.0157873874030959 0.0072965266467546 -0.0080821795179326 -0.0361414611574570 0.0282503504637384 -0.0139711530760401 0.0235035634230184 -0.0209937221436028 -0.0349271141893468 0.0193978706848027 0.0349590843502445 -0.0422112570447293 0.0435753794373561 -0.0167710855843038 0.0055145754822101 -0.0184552561052769 0.0242434783118461 0.0378846707000853 0.0513712679729525 0.0053798735242568 0.0076350210823420 0.0384892935445736 -0.0457172880602184 0.0216480098301458 -0.0303383218488681 0.0194613392960922 -0.0453472266401681 0.0285062127360725 0.0419487814784134 -0.0560664514133741 -0.0413314907274173 0.0370892821723999 0.0331804212063128 -0.0376341988505338 0.0035396564003322 0.0280062699866379 0.0074555268504109 -0.0220819579454382 -0.0251033715166208 0.0422037701235258 -0.0584383635858967 -0.0128947946851397 0.0243253587931220 0.0338038737943363 0.0004070434475424 -0.0386465905508347 0.0386204746138321 -0.0560067017687264 0.0466004437812900 0.0401826362735743 0.0162113418366011 0.0318188556035449 -0.0073517479952759 0.0087694479653884 0.0176666715812853 -0.0185113725621434 0.0056184788273350 -0.0322719998655593 -0.0185682980811163 -0.0021629743839428 0.0404257799009451 -0.0442467023087771 -0.0408388238949860 -0.0373064589458102 0.0297694490159025 0.0561850840291621 -0.0484675633002649 -0.0078484224179563 -0.0071572246048861 -0.0448942004094182 -0.0133641932347690 -0.0292467565575870 0.1098089201915190 -0.0998446405471867 0.0854501782209429 0.0282480367019641 0.2217742038779998 -0.0219942587513702 -0.3338829745019541 0.0652914297841636 0.1542676246503195 0.1388597742846667 -0.3167433035158193 0.1583732301319080 0.1655566891925694 0.1420578744838146 0.1840252342346602 0.2229192240116935 0.1227975732538537 -0.3717050454883055 -0.1470586136704390 -0.1549254214056761 -0.2646479094459740 -0.0546940313610519 -0.0478278937709566 