solver_type L2R_L2LOSS_SVC_DUAL
nr_class 2
label 1 -1
nr_feature 76800
bias -1.0000000000000000
w
0.2942551220935874 -0.3494167053852156 -0.2093379483525492 0.4292442049012654 0.8817994925662556 0.0247595878538485 -0.0409502096644952 -1.0324450097800626 0.5103470598303889 -0.0889302098513910 0.1179653338173529 0.6606497501552352 0.6683116535563423 0.2151221249615821 -0.0706106130842198 0.2153547270499437 0.1807792250114109 -0.1397982633206688 0.1053002112548890 -0.1306892268343409 -0.1384090979349011 -0.1771841102294884 -0.3398736220833035 -0.2195586097751206 -0.3899323684955676 0.5715963860292621 -0.1751977341031896 0.0543147639053554 -0.3147653529642656 -0.3699202752297648 -0.0993861216252280 0.2999229169277430 0.3287698496560605 0.3825736050348572 -0.0015689002466769 0.2601705124909132 -0.0004266221035018 -0.2332935377090843 -0.1147166990759758 -0.2233675267578570 -0.1113535568532627 0.2069062449019816 -0.0650318106468091 0.1813839660546216 0.0198320217105457 -0.1779888854088221 -0.3339681489704027 -0.2344629199965205 0.2831743420492969 -0.0758932966993457 -0.2098953553345402 -0.2034216444634636 -0.1681050603445519 -0.2530688466141358 0.2699138697765832 -0.0098027987626864 0.1769797416885386 0.0389514865397668 -0.2934875560518036 0.4455569566854765 -0.1305271484540332 -0.1650317930443790 -0.0554435291218814 -0.0561349754335052 0.0273811904924014 0.0920539333667190 0.1248133425342244 0.0906129685980639 -0.0604362638453910 -0.0385979954642467 -0.1587643922546071 -0.0914625911558486 0.1457422834576370 0.1509747967908706 0.0047051310604995 -0.0855552977375046 0.0446289291554041 -0.2716125127408980 0.0262799148690390 0.0136455219098397 0.0187052641025721 -0.1948163338356813 -0.3194762444903215 -0.3282716846692336 -0.0824299572607948 0.2790925068430809 -0.0728439234177849 -0.1477737548504628 -0.0454233221598931 0.1625454555636432 -0.0037036076087760 0.0560479440275491 0.1438197827711265 -0.0768768033997940 0.0159386414928588 0.0457487431047186 -0.2566117638771836 -0.0790310047545303 0.0284425043688881 -0.1039622218650678 0.0504309331080289 0.0726295376980382 -0.0041800757604028 -0.0678270354953536 -0.0378018142816136 0.3165188804290315 0.0950009867680562 0.0588973961556151 0.0670992868962294 -0.0851092514873177 -0.4718640160706935 -0.0038933272454831 0.0858161061073883 0.0921703648283352 -0.0188130766329618 -0.0298429878729220 -0.0577141241471110 -0.2615943854737889 -0.2153499032366252 0.2119115712048933 0.2557886743197543 0.1057106726425885 0.0427214905749229 -0.1454589402372307 -0.0470779109575321 0.0038731442634594 0.1319089503548968 0.0267471541739273 0.1308736491420636 -0.0019615376144606 -0.1270319836585257 -0.3659005883605387 0.3673923622134455 0.1465768398152291 -0.0663855187582702 0.0326128918946878 -0.0255757141258532 -0.2169978487794150 -0.0032968856581318 0.1774463933446079 0.0367815301667933 -0.0921161980183065 0.0139277292453259 0.1914737339157739 -0.0962346071200009 0.0725549556577397 -0.0875812037223517 0.0401738278810959 -0.1443378366049901 0.1407634559118014 0.1605348082487882 -0.0207633998781339 0.0850341015817097 0.0577202682562223 0.0782816444550734 0.1610667970412118 -0.0600813814338240 -0.0623351399710315 -0.0051704125762208 -0.1793518469578440 0.0011121772120398 -0.2020819658687303 -0.1143280645872286 -0.1145175114208702 -0.3213085605510631 -0.1042400518291231 0.0544892930756786 0.3965482152281415 0.1919193107341592 -0.2605682996976842 0.1780815724086838 -0.0806190467240418 0.4232917346273062 0.0672768703337127 -0.1612865704561589 -0.0169078569347692 -0.0563550761814258 -0.2869197254494191 0.0173921752964521 -0.0705831166611934 -0.0870737529770426 -0.1224501984460637 0.0945983506872684 -0.0612666045796587 0.3317345765343533 0.1060586256177418 -0.2501199473441880 -0.3408648377022318 0.1526338410907164 0.2388193526481533 0.1142832627819383 0.2231214052386321 0.0291848180559624 0.1370733606570584 0.2388062450364806 -0.2204586546929105 0.2093244796252609 -0.2199803421507436 0.2254122984512091 -0.0961181860984051 0.4587328044893112 0.0100542129773864 0.0491502759793344 -0.0362773183866417 0.4317613802184246 0.2174014455992937 0.1733838152767227 0.0450251051283378 0.1801325684978488 0.1315434496676020 0.0745743355487067 -0.0923755145814899 -0.0906135614436474 -0.1532140851557113 0.1477713510012040 -0.0746975162872557 0.0414353649123374 -0.0021645458975814 0.0096619886469531 0.0024738843106424 -0.1758844918748911 0.2282424766273407 -0.2171072777828778 -0.0050236051537437 0.3079336289620726 -0.0874606462174353 -0.1045444714166885 -0.1240920462657775 -0.0676511563190216 -0.0289444780814833 0.0594489104150433 -0.1581960485128872 -0.0615740322808225 0.0685556164210113 0.0169741052158035 -0.0731849940330506 0.0559518562429112 0.0505790460851164 0.1156075300088739 -0.1277661879702563 -0.0779868342386370 -0.1931205383827929 -0.0106596088100747 -0.0881995510899679 -0.0675951015587655 0.2441340328268228 -0.0461756644498310 0.1579934346568212 -0.0359104599727522 -0.1758134268778035 0.0107968925312763 -0.0030030760197593 0.2967749854581636 0.4490577435459560 -0.1624131580955819 -0.2758751442302627 -0.0440975655488938 -0.1081172680151876 0.0541272551647557 -0.0627880481267574 -0.1453535146085054 -0.1248957868485848 0.1440560672376527 -0.0203682047740208 0.2306440357180003 -0.0782213929703753 -0.2212910636739450 0.0812842561667259 -0.1089627299484622 0.0727471619787458 0.1840072273453733 -0.2507335566788941 -0.0063439895720368 -0.0855173434174449 -0.1399282396692703 0.0990555001556577 -0.0651239530870331 -0.1817357478514960 -0.1260684643882480 -0.0287372003739742 0.0446835731900387 -0.2121763522148930 0.0794930074216923 0.0500829541664509 0.0204146829615329 0.1145351287217974 0.1041807138267364 0.2189047703761371 0.1185477515480960 0.0675524919885228 -0.0167041162659208 0.1199653868614886 -0.2492651536960637 -0.0876763049891100 -0.0750470932620388 0.0701362184787046 0.1130273987243295 -0.0058659679159793 -0.1378117325355110 0.1101587094552229 0.0006429663058904 -0.0016183935553127 -0.0046852895292464 0.0007994506089190 0.0038165350859352 0.0012911138946381 0.0065887240504007 0.0062126609462739 0.0001290058315095 -0.0018897905455372 -0.0039929379046770 0.0022355906540440 0.0011579995327563 -0.0037202386149588 0.0045335451017933 0.0023748432076676 0.0071678122441824 -0.0006089668305242 -0.0052970095205769 0.0043862207747247 -0.0096759810616460 0.0050982884434459 0.0012102520207007 0.0005006376616472 -0.0041239353772294 0.0047755906830256 -0.0064259244903181 0.0074664852432671 0.0023361798492894 0.0070160575303269 0.0033682984448519 0.0067883268035990 0.0039536989930806 -0.0031674494597249 -0.0006413817602053 -0.0040845174409087 -0.0032370825667544 0.0051083082578388 -0.0039908690224713 -0.0021520871918773 -0.0027761760172130 0.0080346835915098 0.0083266966050530 -0.0006444062630676 0.0069913633214351 -0.0053787179214220 -0.0056639447286369 -0.0071268059733295 0.0065295072454451 -0.0086493773196391 -0.0056807972750636 -0.0072771229952564 0.0022362143179118 -0.0030264827840360 -0.0073352001465180 0.0030169692208887 0.0012485687700442 0.0064531527718630 0.0058309766095125 -0.0012491547779494 -0.0070055275655583 0.0060013732089391 -0.0041779219720413 0.0007243404260039 -0.0020948776322056 0.0017826171879280 -0.0063423602866719 0.0084868765903973 -0.0038208926037775 -0.0057806778116554 -0.0068306153069146 -0.0067006224400214 0.0009236883269927 0.0062612111911864 0.0048183752013248 -0.0005278736744036 -0.0012650353508612 0.0044925891024195 -0.0007897812421355 -0.0050765881962207 0.0067052267368094 0.0041301017493039 -0.0007768807616780 0.0048251646742387 -0.0064889926010294 0.0053869924316676 0.0056947035015305 0.0014161040715136 0.0029803443953218 0.0026875970560329 0.0027059457911557 0.0057107040959829 0.0019019041556828 0.0002115164352107 0.0052298338707254 0.0075137131983218 -0.0062717194000699 -0.0078815778167648 0.0039614433436876 0.0007810345236445 0.0055009139570934 0.0021694629502843 0.0063475918056721 0.0065922645675303 -0.0071527108992299 -0.0034445178375276 -0.0087591131923301 0.0079983645894359 -0.0060365781799452 0.0092244785112557 0.0005947331712799 -0.0003605948481170 0.0049468776833466 0.0024225689969035 0.0049741484711156 0.0011522641727807 -0.0052788071461906 0.0068156084105674 0.0060406530331087 -0.0001235495900781 0.0070114878944371 -0.0025626453611004 -0.0004758867513502 0.0065502089332587 0.0007790775896971 -0.0039441776140352 -0.0027746272716751 0.0028405322150429 0.0070305927590069 -0.0063789403703481 -0.0083530819150226 0.0070293949513263 0.0016297690809835 0.0059706630490477 0.0058156535808016 0.0041564773478594 -0.0011517393899144 -0.0027682789662367 0.0046622109528689 0.0074039707211346 -0.0043350382958089 -0.0080080196958091 0.0028631129084325 -0.0025826185997612 0.0060998312270828 -0.0050605136026736 0.0079698078868398 0.0039650265333123 -0.0052036639616797 0.0039464727542638 0.0022896447233913 -0.0037650352531783 -0.0064341332683169 -0.0011175017271178 -0.0050593224338847 -0.0016643242821056 0.0006112453015682 0.0026709116581093 -0.0001152244238669 -0.0032895551971252 -0.0053806506563777 0.0070037968528214 -0.0042589359813533 -0.0048384724819597 0.0004939796800458 0.0024765952515567 0.0037990980952565 0.0006265718323163 -0.0072800088956284 -0.0061568862560792 -0.0063155459917955 -0.0073752623486328 -0.0042927647167891 -0.0054481237526679 0.0055087979335125 0.0035671646973982 0.0024666250341726 -0.0052354515180534 0.0031074632396424 -0.0060528291103846 -0.0057103020271849 -0.0006812590366109 -0.0014869365602274 0.0040474779718796 -0.0027558768493020 -0.0022807762491364 -0.0043869611084947 -0.0051936922437268 -0.0048879513314036 -0.0020751911217067 -0.0026865442086287 -0.0086257595363200 -0.0032805219503316 0.0000454939045674 0.0047440324433886 0.0065223171481345 0.0027323148961806 0.0082212616425296 0.0042356660482699 0.0024486427826571 -0.0004525663162239 0.0037035495736239 0.0069559827060930 -0.0030665345698196 0.0004062058453093 0.0054854268497093 0.0026369329185321 0.0027531734643490 -0.0048361201224716 -0.0036003181228485 -0.0052079419645705 -0.0013474540401181 -0.0037595177338123 -0.0043902728183314 0.0048152774800788 -0.0009499324266662 0.0007139861433069 -0.0055912499881057 -0.0005666013551694 0.0050972842862765 -0.0038104758442646 -0.0046645069620676 0.0006087201701252 -0.0058734819543295 -0.0060515123493728 0.0036278634524274 -0.0061162440912423 -0.0001969496834295 0.0009210414872131 0.0006271367356791 -0.0045205229342357 -0.0057278063160118 -0.0050067405116092 -0.0001072728075105 -0.0001748383913127 0.0035978502023582 -0.0090627670801448 0.0067181457973306 -0.0054208121275363 0.0009283090243736 0.0083187487367324 -0.0002702671842254 0.0005469737542617 -0.0053683732240196 0.0007516252109178 0.0051960294151994 -0.0031585221521094 -0.0055834144716370 -0.0037999887605912 0.0036905412540135 -0.0016047919687462 0.0031012542205207 0.0011337973788452 0.0050288379031208 -0.0101681521463521 0.0038830470801162 -0.0048380206111018 -0.0034211873634996 0.0000835628573373 0.0032278233529027 -0.0062554151419887 0.0024222823386349 -0.0096617637345298 -0.0078839757395104 -0.0009810496760716 -0.0000539222182122 0.0030424600078038 0.0054129511568948 0.0024662034686133 0.0030478885132946 0.0043860701340713 0.0045689999396023 -0.0008222365745557 -0.0002381351866469 -0.0003954970963927 -0.0036477103555993 -0.0066659834393160 0.0037816741911079 -0.0034192463097659 -0.0018503376468003 -0.0006044106928239 0.0039956972522439 0.0052767972064734 0.0030486563636290 0.0035933626811961 0.0014398199521730 0.0036851220410396 0.0030039189160892 -0.0040201349109403 0.0033021842956062 0.0009307367820603 -0.0027519731114774 -0.0000636906226477 -0.0026362441413850 -0.0038919149261643 -0.0015456497483726 0.0022720161632820 0.0036577931652104 -0.0008945491873135 -0.0019202879886693 0.0142178439876698 -0.0340192927784362 -0.0040062888483904 -0.0123933555389877 0.0171545530589412 0.0216122519599572 -0.0336933729123832 0.0088601772901612 -0.0280959903254802 0.0080104778153055 0.0242180838698213 -0.0186585747350390 -0.0478751520722021 -0.0444680720680695 -0.0404246993746714 -0.0048557080338494 -0.0335825965844556 -0.0404076456468038 -0.0333641612790347 -0.0334507780613956 -0.0331107397312047 0.0169387562606568 -0.0019864275027387 -0.0102788618625750 0.0246854746371069 -0.0123850919529473 -0.0101204794039792 0.0155853543643355 0.0295349823190216 0.0078485485215218 0.0094508969777484 -0.0217020430194082 -0.0316513112060221 -0.0356407739227057 0.0008662856666481 -0.0025491308575995 0.0317074943975362 -0.0269029390048533 -0.0013042186027263 -0.0333130755595716 -0.0211141108950169 0.0305921949961064 -0.0351367798118410 -0.0252421168307450 -0.0258381256551777 0.0091548404444432 0.0056073529434903 0.0113189402505404 0.0050681792867705 0.0112129786459950 -0.0024736507587249 0.0134030678658510 -0.0124243404425800 0.0271701174564240 -0.0150380549235847 -0.0304301714401651 0.0006103127556799 0.0436571226019765 -0.0095807605851441 -0.0249224439065242 -0.0114968750301823 0.0362840650298503 -0.0426874989231758 0.0557716682339274 -0.0149839663401311 0.0109451898728689 0.0268768180747456 -0.0210640811723418 0.0331507298486083 -0.0124004778507130 0.0122827204440909 0.0205237698042087 0.0055463781851229 0.0017665538396796 0.0050083528827592 0.0139812787531644 -0.0033699309413980 0.0082264077194038 -0.0244693445301325 0.0102306716648582 0.0223788814485462 0.0265372327386118 -0.0125478925215242 -0.0164346911235454 -0.0180718985153451 -0.0202380608182642 -0.0437673453365247 0.0128915676193210 0.0209658712879106 0.0497232419849294 -0.0255174927481335 0.0058797419007023 0.0156877923354145 -0.0130317206631240 -0.0560924215593395 -0.0425542887214634 0.0188426778221006 0.0272661751397847 -0.0265774403766134 0.0275064168754417 0.0170714213998081 -0.0171814049375575 -0.0362006630054607 0.0133950791695795 0.0429226759355576 0.0559909172507836 0.0138213911326781 -0.0299860651536269 0.0017596090509462 -0.0211218117592456 -0.0170077681160486 0.0284486149600491 0.0223044513730661 -0.0172699414683184 0.0001426145552489 -0.0087559423218780 -0.0084786890153452 0.0425478563043455 -0.0206564532626789 0.0103145486533268 0.0077237160677133 -0.0062954604604063 -0.0016294541563307 -0.0082672538402030 0.0166078857024196 0.0256561319961078 0.0022872457831383 -0.0064678285976256 -0.0409779718704379 0.0073522069233897 0.0099583661662705 -0.0231839972437478 0.0223039968897806 0.0106761437565862 0.0187190100819904 0.0327231759818602 0.0073053428554757 0.0237963678140090 -0.0054861309348074 -0.0199780862821971 -0.0054501153180638 -0.0220388491799209 0.0128623214389824 0.0061700562269414 -0.0200160542635610 -0.0001922027821512 -0.0338609537537233 0.0441650380862534 -0.0062570504866004 -0.0104278118759565 0.0142676495425564 -0.0361878135652524 0.0466732322649503 -0.0281453466628069 -0.0382609876898056 -0.0215075014788503 0.0030932709404870 -0.0200843017123651 -0.0037127403010185 0.0085985557733821 0.0204460054831450 0.0051106833974361 0.0339917313019324 -0.0209687630916545 -0.0070893554469419 -0.0124134225254663 0.0242884348129614 -0.0282931354693327 -0.0046165122855777 0.0523998639712064 -0.0044543696925129 0.0066701548108671 -0.0315043914179694 0.0009212609119368 0.0165603078653864 0.0009114446583922 0.0121750111582974 0.0170749371597066 0.0022774043907820 -0.0068349905538121 0.0071207187785207 0.0087223398363071 0.0292800908912739 -0.0130153914509259 0.0061004979381296 -0.0001081993111371 -0.0282642203726588 0.0305489732284367 -0.0022656525407611 0.0242026843953324 0.0004029397475930 -0.0299465831197500 -0.0096802372340093 0.0220735821393174 0.0082597895888529 -0.0047523965834438 -0.0326152696689510 0.0100347968253448 -0.0225626011939470 0.0063271703004604 -0.0298143645189322 0.0209510492122219 -0.0387038000504310 -0.0204605006971442 0.0100324317899870 0.0214123361252920 0.0258264446291109 0.0057659926966862 0.0186425128509741 -0.0168780411791050 0.0069200742744451 -0.0144884122729538 0.0188508489844644 -0.0217170818549037 -0.0246042092588444 0.0328776499924265 -0.0239543901831135 -0.0000737820767284 -0.0130990635752130 -0.0022784531796969 -0.0132179776329028 0.0007528150268214 0.0071877386733884 -0.0021867264267745 0.0232111743100314 0.0162983758683031 -0.0251436844535878 -0.0156805260483987 -0.0232693512836550 0.0388211316121235 -0.0086352948516342 0.0130799726678355 -0.0165895238335078 -0.0163838106036859 -0.0035624289919172 -0.0276520227435511 -0.0077728737751596 -0.0007341020785314 -0.0032768183712903 -0.0115804962787137 0.0060089904373025 -0.0071550117340489 -0.0294210902398282 -0.0127056322931978 -0.0109326330480605 -0.0030414424838011 -0.0139064621186254 0.0055706672590053 -0.0160810530316441 -0.0092543050120011 -0.0006653432710029 -0.0073069187901819 -0.0143979550744035 -0.0007552861387827 0.0039467189088135 0.0004735636167401 -0.0208994957352854 -0.0000860263784454 0.0101168074499332 -0.0081881945865553 0.0089503746684674 -0.0159729105065894 0.0371980280307616 -0.0038059722847586 0.0162350945981631 -0.0069759851875305 0.0186117376790537 0.0044374107947805 0.0037757430005295 -0.0023420597068044 0.0049639331017356 0.0151492549603412 -0.0006243225035565 -0.0077807066275787 0.0019415565519193 -0.0116165737119674 -0.0282124562310153 0.0152248813393723 -0.0113274831928291 0.0240874293427900 0.0025326929260698 -0.0042976125023746 0.0155469060431693 -0.0005494287725118 0.0048164441660460 -0.0141844512726345 -0.0123058806013646 -0.0211323151047953 -0.0133273711986943 -0.0198957914348558 0.0018977194573826 0.0091441933293494 0.0088332756393810 -0.0010549615325908 -0.0030327708833805 0.0130771281839664 0.0111156532240612 0.0110150838211992 -0.0097907121402658 -0.0012520203761783 -0.0475172232964327 0.0213377945781008 0.0901038764113223 0.0047701670232786 0.0329736995019781 -0.0176349902926367 0.0093196388831156 0.0610507218871431 0.0475821855670135 0.0177587772767153 0.0021144047771851 0.0016605767085724 0.0711551508136277 0.0348208342253308 0.0386833294714851 0.0254203533521493 -0.0312990426690077 0.0180930008623884 -0.0181662590058087 0.0246730643230434 -0.0116188116107441 -0.0120016955083947 0.0392196641925681 0.0274733621090380 -0.0176201456993500 0.0588963754302118 0.0028826378241544 0.0073130501161698 0.0043434082325031 -0.0207359579801265 0.0002299550890401 0.0504086264571359 0.0549861871375594 -0.0558765889420533 -0.0142960912043490 0.0008998722855589 0.0330146131044348 -0.0320293354686507 -0.0222279357125588 -0.0015956628173628 -0.0503285792864355 -0.0327534823653828 0.0218650200555678 0.0561215900461580 0.0429921540138052 -0.0175101188074486 -0.0189279415317150 0.0072678088925283 -0.0461003853667354 0.0464264766246597 0.0065374572196930 0.0604594814878588 -0.0255790359624281 -0.0203633839383906 -0.0151097858361916 0.0094327653547504 -0.0471425434777076 -0.0100751857848102 -0.0345573220113268 0.0218804486100273 -0.0013594293024077 0.0313136400155105 -0.0332970145787624 -0.0506853730477435 -0.0104759673417906 0.0390806946569803 -0.0625479602321659 0.0204734382128908 0.0180873425382802 -0.0457605175005644 0.0137345829293442 0.0913832688647817 -0.0281810632698771 -0.0188300136063414 -0.0487583265132115 -0.0401068823560723 0.0292511094689494 0.0816971787257909 0.0018902940944745 0.0000443845128496 0.0282383269808404 -0.0087971729315978 -0.0127581981349343 -0.0167457205615708 0.0278466097002297 0.0232526556106796 0.0576485358431523 0.0664844542268374 0.0071307392178452 -0.0094133322328849 -0.0103401639751341 0.0235858325733944 0.0394356722892549 -0.0346139470932437 -0.0133715159787915 0.0369557300220768 -0.0403034706913707 0.0082937741359856 0.0488288968713817 -0.0547402170320736 -0.0154584469744496 0.0610210445584258 0.0245015575660132 0.0343879192804200 0.0454334266892332 -0.0238895504933921 0.0179689965790061 0.0420124613031125 -0.0109997791348562 0.0106897374588079 -0.0064273382275750 0.0036413228820569 0.0389241101003251 0.0378045241386830 0.0017335075180319 0.0064575630967019 -0.0098212720643914 -0.0257666660484340 0.0190998373467674 0.0065902054588805 -0.0367208568914767 -0.0457035416850253 0.0315281311971565 0.0225150468959895 0.0403618832910408 -0.0722655449707445 -0.0392770336416230 -0.0554394844311398 0.0568818682501969 -0.0328777664276975 0.0092982589745289 -0.0143400186890162 -0.0428257986467353 0.0448936498432984 0.0171504651740580 0.0564695495318548 0.0480330081711035 -0.0272535298959355 0.0017197395132086 0.0764207878817802 0.0091862287235500 -0.0025361999158783 -0.0195542939777614 -0.0452929499253504 0.0665249281098968 0.0284883095486311 0.0274562559513841 -0.0336144492661939 -0.0518871991755242 0.0219735401667007 -0.0206716518909282 -0.0313855399450789 -0.0379241016947505 -0.0581928722411233 0.0208015773828536 -0.0552615321102307 0.0179197950239725 -0.0820106675123558 0.0485198205436607 -0.0324749104341993 -0.0606982044885187 0.0219684931406617 -0.0215213105074076 0.0786292349493546 -0.0160896692549290 -0.0394850538781015 0.0396925207328821 0.0206208189576437 0.0124784576104927 0.0406843738700435 -0.0046636556241935 0.0254016328091672 0.0114534208587547 -0.0356648883895306 0.0349242065057694 -0.0121895189376742 -0.0258143660320983 0.0299344930154748 -0.0078888318942696 0.0496494459591945 0.0445560200098823 0.0026622464259267 -0.0095736688595444 0.0454573125696325 -0.0309821861867569 0.0049365123592569 0.0172589395413988 0.0416829039390936 -0.0137103497675968 0.0358140098897416 -0.0199711863415409 0.0863265686879272 0.0437089907422059 0.0016926609325462 0.0152355506714396 -0.0109929766107142 0.0406578032623940 -0.0112965570001710 0.0124601783463851 0.0034716007949059 0.0244262002856502 0.0576122574640675 -0.0323540512170469 -0.0396747983458848 -0.0349101011303836 0.0171260253894702 0.0443692280310406 0.0134927637755566 -0.0722471940879526 0.0049123586323048 -0.0158789999485355 -0.0192806736956254 -0.0591755548937964 -0.0415395968821805 0.0337384917026669 -0.0652300308061348 0.0224543698489835 0.0273077775183011 0.0515322758748392 -0.0061112811486928 0.0070770847481896 0.0828504806228169 0.0169611276285588 -0.0532455730096771 -0.0679985608639551 -0.0191576305690695 -0.0523707809201096 0.0746166247237535 -0.0253432266355788 0.0261354772386104 -0.0089819163420668 0.0640502939714775 0.0204617999792287 0.0784982366463572 -0.0840335754314942 0.0059376271656953 0.0208557689666630 0.0220455676306504 0.0225869191213401 0.0280882489043073 0.0079136419199695 0.0149393786124408 -0.0897107940807824 -0.0013878832403565 -0.0217982448078341 0.0256153736603752 0.0333699523322903 0.0009169239053540 -0.0420854433304965 0.0192892980548787 0.0118316071512735 0.0154256682568222 0.0407939375857863 -0.0076124227706463 0.0238104275366854 -0.0099704541787898 -0.0441060984943631 0.0174688513544513 -0.0044097114911089 0.0195753099941911 -0.0179871587960598 0.0144941462154060 -0.0413922988877522 -0.0467613520849153 -0.0212863013093202 0.0202026505906852 -0.0254607010492608 0.0199943018068446 0.0210222531534906 0.0435236363959523 0.0165531622999993 0.0083404063034746 -0.0182766992814354 -0.0133264216389572 -0.0001885515537256 -0.0210474702201793 0.0083409333089858 -0.0053387431967926 0.0015341757740179 0.0091278143539034 0.0080187865930507 -0.0039761268616452 -0.0120948428791231 -0.0400567170631280 0.0049964608800342 0.0214698035611422 -0.0380018476095068 0.0297942798952732 -0.0035276071189278 -0.0243616933667533 -0.0318560522062063 -0.0163333002020448 -0.0318188276018772 -0.0257166764527774 0.0307542331478010 -0.0112663737870669 0.0351854593561840 0.0160937742029372 -0.0199526174231674 -0.0320915065798508 -0.0821786663656886 0.1600132137521586 -0.2291843284311203 0.1858817240834736 -0.0355045586369337 -0.0822354736640359 -0.0953362976086499 -0.0253800248308404 0.4326466077320885 0.2807133393644127 -0.0304415096424122 0.0115273661756364 0.4284871140241767 -0.2667015350803127 -0.2030324791149798 -0.0304417104837796 0.1161979230428017 -0.3811592653132128 0.3374506441102505 -0.0479109163036548 0.1680602919493071 -0.1641163460885370 -0.1105815544077793 0.0618890081069845 0.0701079547714315 -0.2578718140103466 0.0788616523389374 -0.1969127156951457 -0.0973547222865749 0.2516064797239222 -0.3201355737179229 -0.1796183134543376 0.0273029957169483 -0.0805067838275206 0.4102240261705367 -0.0995692815481667 0.0967299195825752 -0.0549795833310743 0.0525815375169104 0.3232590267111093 -0.0169379313789409 0.1477846785865858 0.1200636023730556 -0.0982249657781969 0.0543317263329882 -0.2670383492284576 0.0061942081947006 -0.4417666365929163 0.0229237653969261 -0.1800150461231951 -0.0908011320630209 0.6364909140233566 -0.0004109738128604 0.3962879383064452 0.3504005790183192 0.5345960356939041 -0.2728024630231112 0.3765493027469226 -0.6307896119917755 -0.5716323567153364 -0.0766742708912412 0.1313504421914901 -0.5442087334275019 -0.1665920252444610 -0.0756836195959018 -0.2009047004793735 -0.0086565806097758 0.2392072835540247 0.0879066748879924 0.1600263032183586 0.0948648039068484 0.4452802696286121 -0.2110129970035905 -0.0497685306882114 0.2302216326477611 -0.3341917696747848 0.1098061322136724 0.3399864293793104 0.2065236173313337 -0.1927574954289796 -0.1096442342137983 -0.2674976328756058 0.3693104998085316 0.0026217028878766 0.1476102440714015 -0.3407794068454330 0.3093719732987201 -0.7695071918242249 0.3938421295604288 -0.4942837654022450 0.2438796603979210 0.1073120042237321 -0.4060157948697898 -0.1163682305641508 -0.1999677982726940 -0.3985044158929458 -0.1629642837731573 0.2605919762108926 0.3957090898696178 -0.3425460939787772 0.0466578496742392 -0.2823576458668651 0.1673081547553131 0.1381017176209153 -0.5598747360443602 0.2446332284128429 -0.1587727550005668 -0.4020268703707878 0.2857207917542622 0.1637311903933972 -0.6507557723130585 0.0565292640192918 0.2888372379857265 -0.1972220675974139 0.0053018879679916 -0.1025129026697196 -0.1692549280805424 -0.0031112778285841 -0.3794424595391735 -0.2413111890315303 0.4821944850833935 0.0695686900001111 0.8565857050826037 -0.1762785194035570 -0.1657316005652829 0.6157009972753156 -0.1803314612857342 0.4387773222151307 -0.2015589150619179 -0.3391416752549364 -0.1192219990726812 -0.1142519497230584 -0.0901225104278687 0.1124175320414850 -0.1246958082912965 0.0976148215629369 -0.0880388392430785 0.1395971806756847 -0.1700203797958432 -0.2495095270433269 -0.0010266796073332 0.0221614317287112 -0.0999697295092594 0.1467808401736469 -0.2096740872177820 -0.1140678919378847 -0.3260118538438536 0.2856367702922940 -0.1326283890569667 -0.2874900497418895 0.3897910291001333 -0.1872093361361355 -0.1026762382222090 0.4719124102277137 0.3965917480038365 0.3095501922711566 0.9805492795558408 0.4619729613740553 0.4296713395592848 0.2566582220937631 0.2843108741394409 -0.4451156467206519 -0.2162946132675352 0.4952813220903292 -0.2406651386446568 -0.3127699761514215 -0.0442850650991535 -0.1370965377197842 -0.3689883698599699 0.7756198382383444 -0.2743457273105842 0.0284680917238146 0.0432914432448206 -0.0284777411381078 -0.4077831794103555 0.0162582845885150 0.0390337743399797 -0.0821450172669708 0.6334377333590526 -0.0385013586769700 -0.4288890652912034 0.2360729513620249 -0.3450526489279656 -0.0393290985713867 0.1029439058578445 -0.1759479500191080 -0.0210100272609651 -0.5195412791113521 0.2902027319390298 0.0012649707273200 -0.2585441970906909 -0.7692747970960149 0.4072153783284936 0.2349834823537158 -0.1702535129034080 0.1443151781497629 -0.0559152112731019 -0.2522834818219662 0.4063678884441138 0.1248249251294639 0.0143600903815512 -0.0639477263230526 0.2240263757988731 -0.2282175815259059 -0.0343898996029399 -0.0228163096577204 0.1871461383636561 -0.7138026180256526 0.2638516095870319 0.0521204784143627 0.0030644153712057 -0.5902963405491779 0.5304052781981515 -0.5725317366687391 0.0274208259775080 0.1806154114171284 0.6236108504921390 0.0036247252609241 0.0918187084212239 0.0381851573865391 -0.0152390992804106 0.2941935874221383 0.0295676281906353 -0.1727642189169597 0.0160905587665407 -0.1981071603154505 -0.1719554771446326 0.2830904182417696 -0.1250630462331637 0.0590675071712130 -0.3599120623962931 -0.0572602503724218 0.2855846348396119 0.2093631529894266 -0.0067862246378980 0.7060618750702826 0.4258601704496238 -0.0881186431427669 -0.1391341744287668 -0.2359233693124364 0.5498408739716911 -0.3598163147979739 0.3790120546765209 0.2909659248567318 0.4075738109228806 0.0162247585649561 0.2901315137230449 0.0839237189294454 0.0044422454767858 0.1662704888174966 -0.1833575588086309 0.0129950939909116 -0.0903144693460723 -0.1178940931397387 -0.2364213174163912 0.1983561371379508 -0.1926072808670552 -0.0533534209499489 -0.1102810627730843 0.2329068066409602 0.2120976090760085 -0.1146921966959826 0.0852551463275354 0.0197873087432069 0.0720621259068947 0.0423383969017397 0.0802754900233157 -0.3036705726444143 0.1668463872588896 0.1828037665382177 -0.2721618917517485 0.1693643308198327 -0.4085949354550601 0.4432553714853973 0.0651078914624585 0.4573770360569909 0.4459098808756557 0.1286235613896142 0.2156870762520589 0.0351606402669240 -0.0284450672243880 0.0094102278883319 -0.3046867203880924 0.0170029451889856 0.1017742043819136 0.0419153157600240 0.0081897523158163 -0.2059256308465936 -0.1095118620678247 -0.0470981649928966 0.1167903040632940 -0.0322015399566785 -0.1122290521042008 -0.0633928492198382 -0.1702787624394395 0.0152644909325807 -0.1441560272468499 0.0341109292081786 -0.0250756652099134 0.1368769884783928 -0.3041440378293125 -0.2393993231747618 -0.4248103098702544 0.2283905536188780 0.0836185237785665 -0.2222049782676209 -0.1592079015785903 -0.3192533228949895 -0.2985048506863154 0.3547828279281675 -0.0410085895725230 -0.0130893967856512 0.0701176765536383 -0.2024120215705327 0.3140339734812859 -0.1686072647815484 0.0011548672569951 -0.3512653523735088 0.2785952603490623 -0.0959387357360524 -0.0624335824755592 -0.2160313936696407 -0.2067718830586174 0.1447052616644599 -0.1767625617571948 -0.3285822002692200 -0.1941214745538433 0.1977141603917626 0.3407457466619912 -0.1284794105849844 0.3321297004124313 -0.0049044966444950 -0.2669318535134136 0.5445047726177508 0.2181739428400740 0.0324407616479740 -0.3212074159390769 -0.0642410707093441 -0.0518509870037443 0.5587174797515776 0.0709032552660284 -0.2436566675029568 0.1265559170175194 -0.0401313518861590 -0.0094370104700306 -0.2342474002250494 -0.0576838192868246 0.1521098147295012 -0.3662475528659088 -0.0420589967884735 -0.0789025051491375 0.4853538987653692 0.1033557193577734 0.3082422605596429 0.0057934224456509 0.1022330527933782 0.0764543414995591 -0.0431276540835309 -0.2453961054715861 -0.1330701511220831 -0.3539936558223830 -0.0636827675745690 -0.0780259133728270 -0.1557816207139007 0.2084605380377528 0.0306903890537785 0.0169984104700961 0.2606917119609639 0.1047081038099882 0.1192243244670218 -0.1613823476423833 -0.2536907644506501 0.1854329678618423 -0.1563275485375164 -0.0551103661819188 -0.2497819159382457 -0.1361641592462512 -0.0158433305883148 0.0210092336971464 -0.2412046247070100 -0.1688196303728617 -0.4811694829306168 -0.1615689290929631 0.1341477857067212 0.0388263555560095 -0.1834267610947896 -0.1746966437604487 0.1104370925335641 0.1189451702630985 -0.3735563511873824 0.5119231509222830 0.1620404431231367 -0.1054283801612803 -0.3734004336913166 -0.5455752486088680 -0.2639695039502135 0.3470269440580478 0.0458223431513587 0.2929674879651079 -0.2388140353856417 0.5567236532673150 0.1850926723469260 -0.0181087465230950 0.2553556040394045 0.2420291154467427 0.4911571146756917 0.2486105527033833 -0.0922509478177451 -0.1971918050438858 0.0628670588196676 0.1487527842732234 0.0009053824250324 -0.1412734543192688 0.4816778169804274 0.3069901003763866 0.0353345130201193 -0.2423320475889838 -0.2118518673285043 0.1868820606310304 -0.3194735210320168 -0.1571040044670868 0.0245351446576627 0.2739575113726960 0.0831198565030742 -0.1172394928280081 0.1793274849613919 0.6179903882379810 -0.2832458231447240 -0.1108124515074376 0.1904251265498298 -0.0643209426568099 -0.2895578031250358 0.1812465597493762 -0.1270851015227187 -0.0228481812845320 -0.0339069993160549 0.0781138160706568 -0.0849804990079965 -0.2991490113342854 -0.0954751210991187 -0.2045161374524535 -0.0181457804325451 -0.2056333886850916 -0.0675011725091656 -0.1471014741400594 0.0202252081857849 -0.0435863015270220 -0.1517492577612353 -0.1631042804994576 0.2172983760580845 -0.0768444579216419 -0.3826224192432332 -0.0747238979523156 0.0380577229009730 -0.3848740921233405 0.1991131245762556 -0.0287466429356348 -0.1914500119876871 0.0576481326816219 0.1773691146506089 -0.2838969300895154 -0.2104900388065883 0.1035338009442671 0.1128860504214795 -0.0539580063586134 -0.1815016596923316 0.2037227944097029 -0.1482167681472288 0.0402582164071018 0.1006937259420482 0.1984359569147899 -0.1797497557017222 -0.1550994770436093 0.0802295889898790 0.0200223923288753 -0.2280470739822052 -0.0893860942664942 0.3606410699041359 -0.0565687950036291 0.1434921556316247 0.1393608006553870 0.4020092347254769 0.0954870872998975 -0.2300330966977212 -0.3190916447248885 -0.0415436609776708 0.1232087330233528 -0.0206245985666359 0.0340018210618079 -0.4821501128439846 0.2126552661861566 -0.3434601943319163 0.1362479377176435 -0.3900141482808565 0.0600096075363980 0.0724988832689316 0.1401918232455886 -0.0775221135530663 -0.0934584176064758 0.0952302836211915 0.2456548296083456 -0.0078076407789459 0.0657579003768689 0.1038647502572141 -0.1033196019809660 -0.0688478029389484 0.1162162971265667 0.0354997707257267 -0.1924383179772305 -0.1171373242182710 0.0319254299575903 0.2648342074568243 -0.1284560748073827 -0.1373058558110730 -0.3456368406210935 -0.1176908683340551 -0.4071744004170731 0.1350505019518955 -0.2957193711236237 0.2919832838808736 -0.0342086400865202 0.1681731671397745 -0.1936732193698757 -0.0710641874386621 -0.1478970738494760 -0.1167806519509522 0.2823443338438579 -0.2489296431294506 0.2173515431459217 -0.2821721439990373 0.4574421807484321 -0.1362766545460837 -0.0075214891374757 0.0646549892588142 -0.0938776731585053 0.0323427707275822 0.2381539354219956 -0.1661327295301881 -0.1673966677992654 0.1941176512038226 0.1146992344295322 -0.3487570393794612 0.2786414868578306 0.2312327096750601 0.3471937965315496 0.0971905185243693 0.0230754816529823 -0.1910383185001996 -0.2676801561821206 -0.2384853066765535 0.0459831070846256 -0.1048134725344536 -0.2636793594497384 0.0421686628307813 -0.0129681089482247 -0.0056887471667875 0.0823720416045256 0.2291975655210489 0.0255223797156604 0.0835574081450277 -0.0494928977150837 -0.0119161761586968 0.2723420844917044 -0.3715885720172935 -0.0965431831858314 0.0493006338163187 -0.1835370173420843 0.1953538048375139 0.0553560492255580 0.3634817813659822 0.1566330754352636 0.0505758974298036 0.0836822692919510 -0.0163459141540846 -0.1781471492194160 -0.4407129722950682 -0.1795053489882501 -0.0749722483323152 0.1843560184658063 0.0202910949339034 0.1069182149127446 0.0418023148182625 0.1416363204213985 -0.0670812146768423 0.8482310625481371 0.0128632341133121 0.1739839907089136 0.0398294320080302 -0.1802867736377384 0.2071223466336148 0.1881385136105840 -0.0816272772665564 0.0281295762662241 0.2010723505059414 -0.2280752695870359 -0.0282197143175248 0.1503916139966850 0.0007000737830081 -0.0873320487208193 -0.1913366034645224 -0.0882699607335120 -0.1485557524532734 0.0110538228041391 -0.1172590462499356 0.0869407673505629 0.0628975657043549 -0.1687822253635555 -0.1122638963147169 0.0880684102604924 0.1426779417385270 0.3486833778134215 -0.1284524370362457 0.1320124953736097 -0.0491923491085524 -0.0520509728758199 0.0584397093971003 0.0914163461259504 0.0381613586576997 -0.2366013505130287 0.2244191149442656 0.1504279352185616 0.1159559326818155 -0.0636535987671669 -0.1877017005152627 -0.1797146278395544 0.0249330551090615 -0.0048021149855522 -0.0186337822733838 0.0420715430456437 -0.0869539355837800 -0.0236200190133267 -0.2212363105666855 0.1422407954539479 -0.0066195975610492 -0.1608328609753023 0.0703531117224712 -0.1944971229708614 -0.0149057160831566 -0.1696729106791899 -0.1655915904634588 0.3414849093760726 -0.1687246529007170 0.0121406102458153 0.1489822273519011 0.2023376220763279 -0.1710514318739999 -0.2378805933888975 0.1542467429821186 0.3757914654186297 -0.0003463273745211 0.0936559512848701 0.0236248266476021 0.0993892738378426 0.1054462873236770 0.0157158925548401 0.1462912038505723 0.1918910884666605 -0.0400780511742530 0.1634560217597424 -0.0261926292060868 0.0833904820995854 -0.1157674610792455 -0.1752458201237363 0.1627603074587345 0.0568272892423872 -0.1641443494133618 -0.0058605977442368 -0.2654948654829108 0.2769491540268851 -0.1200110106600175 -0.2165065466076569 -0.1664290240144428 0.0622908960342580 0.1325942612667623 0.0188803243829390 -0.0099177394944394 -0.0235932712827704 0.1296384678915630 -0.0769861241950475 0.0387281470956339 -0.0240568543280284 0.1348948196789362 0.3023415802325350 0.1291257735195166 -0.0146233530345286 -0.1552972762035692 0.0878192413901017 -0.1453871918573097 0.2749186762594088 -0.2767597878277115 0.2195180863993236 0.0477478913110694 0.0502336640075711 0.3018497309514558 0.0709256882105042 -0.0446394448869340 -0.1131422702249020 -0.0990311601625863 0.0548494667132028 0.1289251809076105 0.0836767880714977 -0.4206118333548072 0.1178566345573513 0.0363464781584512 -0.2226414398681204 -0.2634785081597518 -0.0311691773615859 -0.1096398865897698 -0.1023775533089595 0.1421911684249529 -0.1545934664636811 0.0601232186477034 -0.0201144255929850 0.0667742026139225 0.1468264036194512 -0.2180463926960389 -0.0989020710493445 0.1613326022044630 -0.0152277128467679 0.2079172526461259 0.0656239664990397 -0.1158830198239563 -0.1433559921484366 -0.1018649617306950 -0.0530386633544355 -0.0297163855916462 0.0788173180298218 0.0513018944432715 -0.1023058784396807 0.1189012736333024 0.0994756564959904 -0.0456344618830991 -0.0544333994752931 0.0906289969936713 -0.0301526973750683 0.2871218744009539 0.2235403148409751 -0.0727874308682216 0.0299862666471607 0.0774905106047215 0.0862916970611807 0.1293981634623987 0.1370054186999726 0.0117829173395001 0.0900753167658539 -0.2626772891320720 -0.0959658818774229 0.0583778797822126 0.1092096056715265 -0.0293156889013645 -0.0407353408595250 0.0044828270012215 -0.1184976845563300 -0.0527480180836461 0.0229247455187357 -0.0633163738251225 0.0273080104361025 0.0877322047451891 -0.0209173733209019 -0.0397467163194538 0.0075478823308283 -0.0807943578997389 0.1337626582325301 -0.0734299015967581 -0.1930622913627080 -0.0099706984266987 0.0006468799875366 -0.0056616819844199 -0.0726690618695313 -0.2793804350092720 0.1128186295371733 -0.1529001128850854 0.1295430654717173 0.1291723659940361 -0.2554932873951832 0.2220661054133243 0.0657604423421409 0.0570748715065985 -0.1275942099597993 0.0641487939632849 -0.0127086267057965 0.0670686634555549 -0.0454398851093108 0.2141623925132894 -0.1273590399975275 -0.1030865752023620 -0.0940501985152111 0.0809095830762115 0.0351986914152271 -0.1003671302855154 -0.1388180597263776 0.0503862283484645 0.1693221178059877 -0.0206999139011183 -0.0673662948257396 -0.0399940732484570 -0.0805800552512006 -0.1448394872221284 0.0717117653511870 0.1532487612832859 -0.0557789531363765 -0.0854276881728327 -0.1476372467515086 -0.1746320033449724 -0.0386204579621643 0.0105663241303930 -0.1092005058111651 -0.0718776011964391 -0.1766105975986128 0.0624014118325414 0.0095555538647432 -0.2503594371556274 0.0734626175895874 0.0791620069157304 0.0566955580555747 0.0713752382100405 -0.1140020258735794 0.1601017705336875 -0.0338273707035645 0.1816136894770512 0.0889541628620107 -0.1765611900566697 0.0310596055844596 -0.0795204019394890 -0.0445938858815175 -0.1932782878868348 0.0031678897552010 0.0074906950968343 -0.0831071282829674 0.0182003412027051 -0.1008053908732670 0.0779656186890313 -0.0896482830604021 -0.0314479149816415 -0.1289538229598968 -0.1713869814102954 -0.0522444925288099 0.0577888003148634 -0.0323068089580132 -0.1443066916034720 -0.1236294435870212 0.1122985250215539 0.0199112080478807 -0.0584135879843686 -0.0703090231708539 0.0252061098584061 0.0877300891046573 -0.0703679329296454 0.0892011781046381 -0.0468424867986918 -0.0122317971000398 0.1100086900179451 0.0448883650161080 0.0679724681823651 -0.0970499359142447 -0.1083116133428134 -0.1217414393031055 -0.1172906583144719 0.0726342369708054 -0.0425921766320448 -0.0304024910493634 0.0329762744163011 -0.1402528559801626 0.0340368380885470 -0.1967108254550136 -0.0153366393423120 0.0428953479954597 0.1131734632092995 0.0925627003687561 0.1153274386282243 -0.0983743471214875 0.0981405986419491 0.0033476090797868 0.0483658698686643 -0.1316650018139144 -0.1287941938678832 0.1244128833553572 0.0718469764837286 -0.0462662477739159 0.0586364625301602 -0.0210469655658973 -0.0895065775223918 -0.0759239743640440 -0.0459402177281754 -0.0389167502287919 -0.0114511017946470 0.1252179276586652 0.0152201263681338 -0.2045765070815690 0.0601446957094438 -0.1427569105444544 0.1830110061494022 -0.0204757477959655 0.0979400037840802 -0.0889763028406923 0.0150368408065036 0.0764752577599988 -0.1084298262698108 0.0552882780431780 0.0098378866695363 -0.1015000213058670 -0.2486532545880185 -0.6710257222300550 -0.0815376478967312 0.3034440749300253 0.1013377782520962 -0.8340246320956415 -0.4216709583562139 0.2277607731227621 -0.4967956603490776 0.1110633705553471 0.2859650428864607 0.5020341700577040 -0.1226141659288706 -0.0397431267857757 0.3634193855461332 0.2284786366274852 -0.3146034589165167 0.1796501436407401 0.1566956849702564 0.5201974555415112 -0.0896907496416247 -0.2006407868605658 -0.1722454441337723 0.1892414123533707 0.1398619511758864 0.1095019711052418 0.1617427977098355 0.2984171159770935 -0.3172898319817373 0.0279342709895118 0.0484850724018383 0.0060418231593174 0.0610235024511073 0.0761437721985927 -0.1393274868781976 -0.2469314182888229 -0.2883781652826597 0.1154903334273384 0.1750916401408430 0.2978524617013822 -0.2475371229747146 0.2952619906078233 -0.0791136979231010 -0.3446125863734867 0.3811802327414179 -0.3083881807930316 0.2265035327520651 0.1985083341158529 -0.0810379196700691 -0.2412274379216858 0.1893744387388970 0.1880718355765812 -0.0020501954171395 -0.1222301845802185 0.3225088148689424 -0.1967079730151661 0.1573428502932918 -0.0066852401796146 -0.0333433876554641 0.2647002168380224 0.0212582109279330 -0.0447117315859097 -0.2513899751777581 0.3071544151807616 0.1413146492607741 -0.0959250052024976 -0.2847579559779088 0.0765080931714720 0.3485408267604241 -0.5957487792911218 -0.0282527637922768 0.2368119473455861 0.2169548946220350 0.4659476579733848 -0.3457588947539965 0.1263054093224333 -0.1355091472616929 -0.0150710104925523 0.1839507316568322 -0.0626738656195034 0.0922505059826997 0.0186429476713670 0.2258293075707616 0.0488101868122752 0.0323484735095496 0.2438215255364035 0.0039266218256041 -0.0476062975508670 -0.1342243726233074 -0.1563974430194537 0.0632808340957054 -0.0680558969616509 0.0235574646364047 -0.2120728011838290 -0.2635754276507004 -0.2564592265534140 0.2484472833755772 -0.0158663554865565 -0.0107569083310511 0.1255919683135912 -0.1043083476429784 0.0515118716569937 0.0079977621905255 0.3090321648956228 0.0668213011463309 0.1676255287090583 -0.0387326671306219 0.0115811953767519 -0.5039248230829103 -0.3819972352402293 -0.0883696142338400 0.2806699712742630 0.0296335520603220 0.0903756808870297 -0.2415193860200995 0.1830605985828171 -0.2027129254346654 0.2974923973875424 0.0191332959114109 -0.0418919413533081 0.2132378735207899 0.2102021723938935 0.0626277584843600 -0.0377193047401472 -0.1046712370403416 0.1530291788443644 -0.3522964995386777 0.0821181018564419 0.3473626634017681 -0.0359068110402179 -0.2089528012850279 0.1992557902124191 0.1236974420464785 -0.1676262300482361 0.2873253373305347 0.4157650098596235 0.0240012469299624 -0.0885609042034541 0.2819414370684716 0.0309272887797588 -0.0533289023547226 -0.0672196236420099 -0.2218836527947031 -0.0859553271614959 0.0216768644875526 0.2687413929990614 -0.1843032059126005 0.0089664233585678 0.0511130246691279 -0.0367133071453036 0.0141564971192859 0.0962842276451675 0.0914839889043892 -0.3030008185311852 -0.1952403929703500 -0.2631549941763647 0.2402283578570660 -0.1465337477441199 0.2034738239152089 0.0165261131644771 -0.0805384932047680 0.3149228986563500 -0.1746101595658817 -0.0938352203460515 -0.0685466228965920 0.2747187915530787 0.2753928704309972 -0.5262146988849946 0.3934759100302241 -0.1747928968490775 0.2139000580039757 -0.0922352310698955 0.2797530681155387 -0.0842870218527926 -0.3319404385576902 -0.0968229778458498 0.1483352488161151 -0.0263528263800208 0.2191300210736860 0.2426081171079767 0.0248430461915287 -0.3781077234777236 0.5205984200441653 0.0064723612533120 -0.0992992223980738 0.1019781319429612 -0.1418993941489745 0.1126465193562254 -0.0845209420817264 -0.2760676893210063 -0.1151493114158873 0.1025790640065849 0.1596620831130175 0.0139377462270476 0.3102413812388040 -0.0177474482440031 -0.0455406935001660 0.4051295389342086 0.0916929318229713 0.3478834414206470 -0.1076916185986729 -0.3312898967674132 -0.0078112668264295 0.1988252184161090 0.3656630529759996 -0.0805982566954872 -0.0664895043428841 -0.1072618880623915 0.1686881632720343 -0.0476893068781125 0.0818811995786628 0.2467514323159580 -0.2151200867908027 -0.4595090423501906 0.1442832781582435 -0.2510370091620853 0.1232511394581498 -0.1159465383175562 -0.0336393242269049 -0.1421914106921688 0.2646843584001773 -0.0523760803547862 -0.0642946442120700 -0.1953456264805099 -0.0739854663780923 -0.1682072617584243 -0.0639925885942040 0.1796708484817940 -0.2213760644190965 0.3036257948972159 -0.1460908429017263 -0.1660061086087573 -0.0375288877187243 -0.0357718764276004 -0.0736285434540542 -0.1525337352707785 0.2650311592049667 0.3053604825296031 -0.4544081205064234 -0.1308467017289563 0.2925961324263204 0.0313648770154831 -0.0130818480254375 -0.1712161150896054 0.4121377899100481 -0.2771777764876057 0.1241900898269897 0.2121214093670317 -0.0673298363601156 -0.2442664917199282 0.0981730491094776 -0.1910653447632626 -0.0665046871309150 -0.2988316751497466 0.0098015223351812 -0.2747960617400206 0.0241751507415528 0.2122859574546326 0.0648141281210209 -0.1769131450118433 0.0314903198873164 -0.0933627555745811 -0.1142123585656239 -0.1430287821545226 -0.1530425959522872 -0.1392092347965897 0.3071002380430669 0.0546172075177976 -0.3389666641919230 -0.0496040614469512 -0.1651101140215580 0.2633390832859219 0.0877538923086734 0.1980771819391692 0.2074447274553601 0.1911096414506145 0.5263559670896274 0.3137688416127895 -0.1802765994765625 -0.1932449894546859 0.0641546990926894 0.5285680767064842 0.1884633917528078 -0.3609495242837108 -0.1954413455674563 -0.1894417946489957 0.1028163085636294 0.0433157755172792 -0.1833236324272497 -0.0360477908752888 -0.0635231569373415 0.0891731757308965 -0.2822820208768615 0.1209716031001337 -0.1088008196253985 0.2195551540633820 0.1882958496573954 0.0259146295970549 -0.1186908330626086 -0.1298190520202692 0.7744205839968554 -0.1936844137588867 -0.1896298321033352 0.4927488214270005 -0.5833436066468758 -0.2659066571921828 0.1244113775092063 -0.1724129331369551 0.1534449390538013 0.1389732191249513 -0.1899022927073668 -0.0803704023623277 0.5149944289361013 -0.1114637188785453 -0.1350488109713815 0.3101178197534621 0.0243143350442583 0.1444937468295740 -0.1757907170250213 -0.0394769409499523 0.3002003738724675 -0.1422878187222691 -0.5756777731193442 0.0338248080299396 -0.0188787248523239 -0.0246162802223921 -0.2296091625943348 -0.2242238302743484 0.4424883789923572 -0.2466689252000380 0.1474826858073073 -0.4140845134528034 -0.1110071716975538 0.7314494469971590 -0.1121464305665522 -0.2042338948384770 0.3980142363939054 0.4543276738377798 -0.1482122841989282 -0.1066559907284860 0.4861001885470126 -0.2251770872425207 0.0599599168251108 -0.4416388144137946 -0.1656087770147306 -0.0490514494500138 -0.5802775329099452 -0.0366799516251514 0.3467218931945767 -0.4741603125863887 0.1924700360009621 -0.4794733084665171 0.4256443667288667 -0.0569918573153546 0.3288539812409550 -0.2651509414961564 0.1479660571466404 0.1162879015672599 0.1855624095670287 -0.0117722912459654 0.5297047804783095 -0.3656751218304011 -0.1152881672505260 -0.0907244735412218 -0.0979842552068800 0.3470117394936650 0.1544573404875435 -0.2650599759958364 -0.2159296920547161 0.1511537799085878 0.4091967599531174 -0.3252323961242662 -0.2106570368282058 -0.1562159958035840 -0.1623603351868105 -0.0548022302822746 -0.3126377508618010 -0.3926941028783828 -0.2063547453646422 0.1912131816134177 -0.5484689963428498 -0.1605809978497373 0.4393241894227042 0.4269765809410824 -0.1430742086551675 -0.0929533508524125 -0.0103197802605235 0.1344649244853464 0.0126326642173938 0.1213698494687550 -0.1180627866903686 0.3444405616344434 0.2282535640867056 0.3464927844626813 0.2188353429264602 -0.3936253703531304 0.5815821759538958 0.2675550931078199 0.0187635685285730 0.0700836263466164 -0.0696619695216467 0.2372451101707753 0.4692514426759962 -0.9509845220383284 0.1339756238014387 -0.4485267008957275 -0.6046693423715367 -0.3099362417882569 0.0645346505960364 0.2504340653603348 0.0450830052408598 -0.1079460743702265 0.4710864115337400 0.0252603060503207 -0.5333856549290054 -0.0769817783053837 -0.4764711538533892 -0.6638124398975006 0.0277414601959117 -0.1076702317930671 0.0133534921454734 -0.0747350729285457 -0.0886698076693837 -0.0800736208490258 0.0812432430281873 0.0953027402987348 -0.0216755104831875 -0.2548500680849105 -0.1178662186538191 0.1710529024574504 -0.2696107458341032 0.0954295730867708 -0.0810280124803160 -0.0253073772831969 0.0821298414794367 -0.4469496981455675 0.0674977153492453 -0.4308942085835604 0.2119041675388155 0.1220205349679535 0.2980916876444992 -0.1671932523282287 0.0490885136791883 -0.0010497443929381 -0.1113942412270404 -0.2712970290580654 0.2092046837994375 -0.0592707140791046 0.1997884790080554 0.0835433535658300 0.0221661733255533 0.4616894523646759 -0.5704476195727082 0.5104430205201316 -0.0665238369205429 1.0575991959623829 0.2107674957026681 0.0994568507778999 0.1013853440974401 0.2424974755024487 0.0738625112953156 0.1915247648869358 -0.0455321472483499 -0.2682931934214065 0.0488009587569919 -0.0656872642945875 -0.0543099790304219 0.1785968198076522 0.4461344779085346 0.1569582470789324 0.2363002175416072 -0.0353146388572819 0.2257108711764738 -0.3327102858762601 0.1493217137454531 -0.0526372388518626 -0.2562003040660016 0.5264952866597269 -0.0075882395619707 0.2423149636555674 0.2478490739092102 0.0858321776425867 0.4175493017094642 -0.2182126609232684 -0.1030362028022879 -0.0119155205124628 0.1496863185137325 -0.1253653896530378 0.2420375081282362 0.3893714890527204 0.3202113878991470 -0.0230064763175083 -0.0057573659872276 -0.0586436171474561 0.0169670965505428 -0.0222650632150443 0.2910803122316735 -0.1736745256086898 -0.0002953115004244 0.2612861941345861 0.2679365353488535 -0.1199356772801271 -0.0509951056251184 0.3547057291388708 -0.2701138630883976 -0.3242558785209765 -0.4535300089313690 0.0146047759726830 0.3974131728463224 0.1653843077853776 0.0525441181687358 -0.0148352382816924 -0.5720292652872754 -0.5194234279909363 0.0174282800368741 0.0975870157219592 -0.1176510998976101 -0.2207894304816060 0.1315816617447030 0.0819293088286575 0.1586865697480019 -0.1199463334848857 0.0510212247613913 -0.1564476194753149 -0.2995661098201701 0.2384917637884688 -0.0824062692715433 -0.5345325721259672 -0.2834727709292748 -0.0114747472282076 -0.1179103409466704 0.2143852053703793 -0.2850814488174210 0.0856838170337264 0.0765441099616722 0.1478007328484995 0.3328928686956125 -0.0527700532187571 -0.3342998169226093 -0.0896525075060729 0.1639428807404371 -0.0950636229972636 0.2029461296544713 -0.2502090880685754 0.2565787069258657 0.2463474881008109 0.2023760331486056 0.2977712977793075 0.0236426861307272 -0.1046867645260670 0.1141910521414501 0.0180491266075422 0.1112488421433669 0.0208182717263236 0.0974763068833750 -0.0145495803358560 -0.0655518923804156 -0.0918290529021978 -0.1042666968491704 -0.0668924965307864 -0.2336203573467739 0.0874544765817463 -0.0747548249948561 0.2667276261015269 -0.1569054887135942 -0.0994305977643066 -0.1124557996190383 0.1872837261091740 0.0635074933051158 -0.1549550022579149 -0.1726493171377011 0.0328525182979435 -0.0346957291114408 -0.0176425844855807 -0.1209809786746420 0.3872080897522853 0.3426352309287419 0.2082539181639865 0.0784934498398339 -0.0225487335963731 0.0855441048386981 -0.0632234534923771 -0.3236817800875681 -0.5976652730015518 -0.2465554831763945 -0.0280003649659026 0.1692549748233890 0.3004740281891494 0.0017023586772036 -0.2662166783398797 -0.0627462500836559 -0.1511315883748008 0.0139355136207155 -0.0252943447694714 0.0875692658331727 -0.0477601333396917 0.0693796694266517 0.0186867603232842 0.0923815628090970 -0.1276201304623716 -0.0429847623966999 0.2378452937075392 -0.1409373876847861 0.1032627814787287 0.0101380400943297 -0.1152347628104903 -0.0407755006250731 -0.1034518502203229 0.0088258940620659 0.0229663657586802 0.0155093103316797 0.0263797094408008 -0.0381591048727632 0.1009500523434011 0.1896247358999245 -0.0320355407384550 -0.3150820277931704 0.1198953668400827 -0.0174411323019514 -0.0454430106073635 0.2633842553327703 0.0551795602037819 -0.0383602576853192 0.0312085976297498 -0.1039988185776874 -0.0688483808208838 -0.1075291770366701 -0.0279012080308039 0.1073849389393685 -0.0931088314473242 -0.3446413847050684 -0.0966380494565194 0.0104611408757550 -0.0979239602557460 0.0942975396015559 -0.0231885579586527 0.1652662940336883 -0.1393401739412271 -0.0791501946609507 -0.0471374328530337 -0.4373424558382381 -0.2016515943936303 0.1649033665764474 -0.0271769037297726 0.1582709809069801 -0.0004890955750828 0.0803737341573778 0.0825460438087620 0.0765847434717506 0.0140447100953434 -0.2405912626942874 -0.0363107803512628 0.1024933383609242 -0.0804238185697444 0.1096020939780196 0.2115726648238401 0.1248500247692771 0.0447703326221679 -0.0921381494865316 -0.1377955849737587 0.2770104982278607 0.2540234780003344 0.0909277739982321 -0.1309136812941104 -0.0169320925787214 0.0586143664975023 -0.0056797026941000 -0.0742924132295932 0.0154537544519468 -0.0706701424814339 -0.1390200525013190 0.0617564231643238 0.1717670122584611 -0.0346801563554389 -0.0810923303340762 -0.0329427114624741 -0.0706891117411330 0.2485174941378911 -0.1101231848410909 0.1174563903437047 0.0385584325249826 -0.0634923580009812 0.0763986582643196 0.0689734055485879 -0.0283393865955089 -0.1703301575767587 0.0949634025499364 -0.1407298225386845 -0.2699383477431735 -0.0520560570895305 0.0761497554243887 -0.0585738070587021 0.1701163176309911 0.2715784049221317 0.0813687318698492 -0.1628204172340440 0.3138540831639634 0.2662467887841832 0.1123543718903240 0.1126768432792327 -0.0830010381131657 -0.0988200524326737 -0.1984446544124350 -0.1705923283239504 0.0197430655176001 0.0248406519214951 0.0563213786967074 -0.0530522273581536 -0.0700973313262598 -0.0676372749770444 -0.1034697905675711 0.1921308939252821 0.1522633662334097 0.0526371755390988 0.1101298029322675 0.0654014727419387 -0.1553993968840985 -0.0706051890533519 0.0194332274122222 -0.1100917887656878 0.1771387206353850 0.1831153959369600 -0.1138117020785252 0.2624070356173194 0.3061232956139597 0.0196277796690716 -0.1363577239572052 -0.0839472683690120 0.2460302364877391 -0.0620359053438750 -0.1544417254626923 -0.0644540116344136 0.0448910822482530 0.1307204700110156 -0.1109958032231320 -0.0937580511851228 0.0379498466449417 -0.0186064582467208 0.2067269311336656 0.1312060272054862 -0.1074664499243747 0.0232673841650247 -0.1751742847483674 0.2346570740915959 0.1821701508482131 -0.0447502327742814 -0.1176251169898183 0.2347593732087607 0.1395604818062839 -0.1035365893846734 -0.1258028417397519 0.0047797995058623 -0.3416665430542888 0.3105781414804947 0.1843468234748278 -0.0214374126524244 0.1288284336663017 -0.0320883732636879 0.1043001225220830 -0.0264078685557676 -0.1451517069473960 0.0836603646273839 0.0635895961082925 -0.2228639579828710 0.2145432376820995 -0.0087743369442969 0.1077283632472619 0.0378703199978837 -0.1742759660203619 -0.0429907604810055 0.0408625047894787 -0.2691707196789034 0.3504994916978131 -0.5715252835160863 0.3048813296195464 0.1213390552693202 0.1265193079376491 -0.0340926540187758 -0.1313471292357278 0.0142271690294197 0.1051717665217006 0.1561577384042626 -0.0738991787186924 -0.2004490616489433 0.0926006282114333 -0.0649844516013559 -0.1342094910495941 -0.1556349035750362 -0.1394718582670121 -0.1972103300933886 0.0584141655620836 0.0769693142053666 0.2817964182792349 -0.1621836686740329 0.2757386655161889 0.0442431280546186 0.1143086531363083 0.0273017134569614 -0.0458785230008205 -0.0001810282758685 0.0903326249004574 -0.0326891382444644 0.0555992402895520 0.0514492723659534 0.1062631570963894 -0.1570780506601172 0.1963873166989246 0.1733154802504534 0.1751252203750931 0.1724921991276529 0.2593784895303077 -0.0727703620010029 -0.0024252204968336 0.2698499716524460 0.0061229718282181 0.0810599173952110 0.1376530525893636 -0.1698472648914436 -0.0543284024261420 0.1988854790611943 -0.1049402947090655 0.1748887930677812 0.0822807410643912 0.0785164079014732 -0.2328340085069611 -0.2335260863558418 -0.1807428735242092 0.0273275455513756 0.0005249364451958 -0.0323221393342013 -0.0874740992531104 -0.0176858435136733 0.0453350807178346 0.0127995118925124 0.1449401945225227 0.0161567152046190 -0.0145988306133119 -0.3433709897380220 0.2944266843220354 -0.0872936540926898 -0.1363934983523697 -0.1266328366193876 0.0755054996570386 0.0597428455804548 0.1490549440897765 0.1364553208970253 -0.0303628687704451 -0.0161283420791430 0.0717994577382339 0.1982029751303522 0.0218305564712110 -0.1886536508266710 -0.0810034659016617 -0.1606384916230996 0.0832261784487548 -0.0329587702620565 0.0613044972757491 0.0067318982517161 0.1480751281111575 -0.0008496260584140 0.1260992475213265 -0.1429118352162044 -0.0663610210917128 0.0097663318059084 -0.3210295338630234 -0.0376312181904902 0.0362023277481050 -0.0539086436331040 0.0697342044366452 -0.0681922820652739 -0.0705097160697176 -0.2454611437244588 -0.0489247985189537 0.0325710821655064 0.1576655658833902 -0.0657359957002532 0.1548239950132219 -0.0413338781383500 0.0280784854128048 0.0882047439291027 -0.0673980203170877 0.0458136928620655 0.1353180213022687 0.1193937262204939 -0.0028341388447322 -0.1313048709886350 -0.1675573676828254 0.0264407218670941 -0.0293227608095833 -0.0091882463987788 -0.0240693705994021 0.0176193895484311 -0.0827930556825651 -0.1040985333382826 -0.0457455717687680 -0.0461645769623345 0.0487285201937803 0.0007155688658396 -0.0369738310925391 -0.2208936654428302 -0.3213286319314599 0.0472940877076984 0.1338001844195747 0.1863808360661772 -0.0370170185227995 -0.3243632301943107 0.4686446959008184 0.1645928174950243 0.0315683329468932 -0.0937002339812359 -0.2129078245787782 -0.1673955023149559 -0.0478334273198196 0.0674929996892655 -0.0118462590543700 0.3038658819869824 0.3409410127304358 0.1417779303380197 -0.1178331518411485 0.0888324319919337 -0.2316097238500765 -0.2621492060405119 -0.3028206277390475 -0.1128774657032303 0.0405048907173697 -0.0862716083577456 0.0847786926499177 0.1170699959350651 0.1202095300071429 0.1528679618117063 0.2539545609338467 0.3074585962879793 -0.2134604827223512 -0.2027688726869200 -0.2016506820177544 0.0099930585279601 -0.0825774011946973 0.2127055666454360 0.1009446866186250 0.0705074964768812 -0.1104582175950032 -0.2434675312692631 -0.2129529779652099 -0.4286931002409907 0.0367234835827934 -0.1145798971523130 -0.3883933222586831 0.1398990358714772 0.1211897758387620 -0.2130271419794298 -0.1350635772682848 0.0104110538967857 -0.0623915792605648 -0.0533942314928036 0.1968678551995578 0.1067242917051801 0.2214916857715259 0.2354585719555392 -0.0595489413741578 0.1514680087740013 -0.0327796671555408 -0.1367544472856706 0.4577304560518746 -0.1794151507338875 0.1847324067835220 -0.1496336683802245 -0.3452547793827324 -0.3043607730367883 0.1529290708168647 0.3998021196509750 -0.0604018894630323 0.0248876558130262 -0.0520287167089062 -0.0757183808489623 -0.0676700307987757 0.1739427528167092 0.0844368622082146 -0.0597556304701722 0.0962293709493023 -0.0709256862550942 -0.0622077604006152 0.1678194052385963 -0.0901548606061468 -0.3634174269754776 -0.1376787725011411 0.0994672690221740 0.0761280001017112 0.0242063818873905 -0.1008153567346816 -0.2242287200824527 -0.2112871857314460 0.0723740221643295 -0.1249399768477126 -0.4002080998213198 0.1116732117112497 0.1077900485881985 -0.0544781003733941 0.2604739294309998 0.0776433909653853 -0.0212603701009111 0.2564658029485390 -0.2178160139363503 0.0306380684762597 0.2257485409019544 0.0197100173778170 -0.2156552070093777 0.0680867348817204 0.2370920144098986 0.0849338983614916 -0.2081451363229887 0.0779790347100345 0.2579969113168381 0.1177569694044474 -0.0119775817946381 -0.1866628194029509 -0.2775018661663434 0.2176857054865384 0.0601742518353991 0.0419572161777939 -0.1677176368548357 -0.2178433718450760 0.0618568965009560 0.1473327247314385 0.2119025966747041 -0.0211960531000514 0.1222266882358452 -0.1295587128549440 0.2631610117040338 -0.1365381567130494 -0.1927840564917389 0.3430427245559095 -0.1393957219027884 0.1506519164675024 -0.0835485917870740 -0.1646450180194201 -0.1381972841836673 -0.0879922908016895 -0.1122611637794992 0.0975172112446171 0.1351440866736689 -0.1558814588285105 -0.0747691932753907 0.0213672535225831 -0.0776636083544661 0.1221269888490284 -0.1237638535714392 0.0668369202854996 -0.3068291427825783 0.0169711043568642 -0.0003053807958184 0.1022696442703254 0.0902947868368413 -0.2746655689022258 0.0709494432610446 0.1408837032310150 0.0870803300213369 -0.1565736848361658 0.0006280438031504 -0.0074108013343871 -0.0916149848770116 -0.0760712619016468 -0.1656710505498458 -0.2120274211167603 -0.0272182995214419 0.1867205058479392 -0.2310999127715754 -0.0183086728568785 -0.0494385471723373 0.1017207778067299 0.0534490314199963 -0.1035578746073775 -0.0656612212011113 -0.1333013724862598 0.1043834688129956 0.0424393287294543 -0.0833624152173421 0.1500435021415371 -0.0373169404333042 -0.1470739353483768 0.0310435657015892 -0.0113119872271454 0.0271971508204133 0.2479292984969168 -0.2370003518924630 0.2687707444845283 0.1912140326035360 -0.1608483015210431 -0.0457858959773482 0.1816462823169359 0.2205679528325591 -0.1388421277576062 0.0767517119028258 -0.3209369989889550 -0.3840135988642435 0.2982350558350074 0.1795156707102324 0.1173085103206853 0.1123257458133826 -0.1958081659806441 -0.1431817528107260 -0.1938495421014485 0.1630544794857744 0.2614235875701837 -0.0728792013972666 -0.0478653743699917 0.1367756330285198 0.1637683317281274 -0.1950120008437219 -0.0079366106192885 -0.0669909425155320 0.1133264534523849 0.3189552367605012 0.0008731210757528 0.0503843742249526 -0.1512813352877671 -0.1399409608380304 0.1975701882812144 -0.1195969497270852 0.1020286327749693 0.1055688440371281 0.1494911160351647 -0.1288725694617102 0.0403069099515667 0.0691796138172964 -0.0210989595341273 0.1118879144037162 0.1213988784256938 -0.2099465569051964 0.2945879341951165 -0.0183820006861728 -0.2231140864738748 -0.0136062178980475 0.1410388448870880 0.1238884927777039 0.3118699688225830 -0.3159605181178223 0.0751036373465009 0.0081581337623430 0.0129859490765630 -0.2370483561434106 -0.2317547895969481 0.2285496922023181 -0.0404025987255603 -0.0693235462669143 -0.1384338917774340 -0.0097345303088408 -0.2407704945894202 0.1465340651405201 -0.0461677260671034 0.0254736286604886 0.0551669148353181 0.0298949449767680 0.0215201014667346 0.1892581728735431 0.0022319590309394 -0.0364858615503149 0.0779493947664335 -0.0394991422112097 -0.0471433104833974 0.0705391791739383 -0.0644757308756963 -0.1383366787875406 -0.0028305197922254 -0.0758481495324302 -0.0368648571273217 0.1779804423332968 -0.0637548727031799 0.2620190129081769 -0.1469202044963902 -0.0597902321606574 -0.1380437800948624 0.3722498834313568 -0.2060070102931886 0.1263861111026640 0.0548606215486154 -0.2086072998776893 -0.2244458636746487 -0.0767665828314518 0.2440172848102313 -0.0126861112187312 0.0294288526712967 -0.0732422631717115 -0.0955667847579855 0.0634322059407355 -0.2716013045827105 0.0192892688653140 0.0014894873004305 0.2098955957833461 -0.0085764156845388 -0.1634741491779676 0.0847342655622938 0.0099027616699102 0.0510784527514954 0.0249885427353406 -0.2862188957932699 -0.1466664655288294 0.0591150443557352 0.0338574696656658 -0.2228529656251260 0.0101963298746930 -0.0444896015036497 0.0002619208249258 -0.0890115428203381 0.1595705121973251 0.0132189110522567 -0.0477601987325298 -0.0084713669455347 0.0488605327500972 -0.0630739343826827 -0.0470878466847684 -0.0816808333226280 -0.1812315379043966 0.0150584228456043 0.0478697007485012 -0.0977330023815977 0.0064953089408997 -0.1225193121521276 -0.0853440676581954 0.0257275082269235 0.1019190615609828 0.0931481937108342 0.0732606573084576 0.0617759713141524 -0.0247621045024043 0.0303098076726006 -0.0218217830914435 -0.0264976130023206 0.0794501367939046 -0.0272882317609758 -0.0248514562729596 -0.0059576706548459 -0.0888388612940043 -0.0737792810117001 0.0783388382203883 -0.0984575157756490 0.1076817323796882 0.0118410013855839 0.0739710583184752 -0.0446663611184467 -0.0127962696154263 -0.0097986069385767 -0.0719036425786311 -0.0473114858588867 -0.0639736337453306 -0.0366643659111214 -0.0390065389696966 0.1568515951763206 -0.0537828820649808 -0.0230565204398100 -0.1087701521553569 -0.1101370609287186 -0.0322944182642785 -0.0262830662603125 -0.0103631025284146 0.0104898036394027 -0.1034058568282585 0.0832713635919599 0.1534783144880582 0.0106129101300348 -0.0313698535466567 0.0251471792236329 -0.1225173148317844 -0.1011387282116656 0.0343725614185957 -0.0023365966511312 0.0063804886320428 -0.0440559923630091 -0.0213468714187132 0.0334857723471903 0.0917790022738540 -0.0740761654578641 0.0792571614610478 -0.0568650932438324 0.0468586264059183 0.0309067551928966 0.0214429565543883 -0.0764333410436299 -0.0386964062779985 0.0183953021827339 -0.0154794352496483 0.0131844481035958 0.1586620316703379 -0.0823114123967648 -0.0382571794394137 0.0966183599630631 0.0598568599445071 0.0904254965694048 0.0207026024273838 -0.0471568016683263 0.0356316060838048 -0.0321072083252714 -0.0706329916060617 -0.1221045851473384 0.0014239266260241 0.0403228494638066 0.0749605457235323 0.0943464352420515 -0.0265490930257250 -0.0702184565061005 -0.0556507088367401 0.0544344069618535 -0.0865762026392129 0.0785244755167000 -0.0443261106412646 -0.0007910061954298 -0.0093015535088316 -0.0254469650445878 0.1732704729148372 0.0270446205820566 -0.0408402048855075 -0.0545049902887175 -0.0131569014367820 -0.0468062823824566 -0.1121834524420605 -0.0322942344651424 -0.0626123743665655 -0.0708908182228051 0.1115692498234428 0.0293272670855623 0.0364535518366848 -0.0573569333675835 0.0163465707808345 0.1016241701421821 -0.0508042929638799 -0.0320193220314862 0.0475270370290138 -0.0937668456857590 -0.0436226498165832 -0.0736895726527157 0.1831886910644088 0.0801887501965953 0.0124212550336321 -0.0195610034553881 -0.0256893058234289 -0.0092759681929019 0.0300268984858266 -0.0069141396222066 -0.0211470398588030 -0.0147364390825675 0.0432759192207777 -0.0610469832441584 -0.0780642974648952 -0.0455256379585353 -0.0007362832718378 -0.1404842599270798 -0.0449914466963202 0.0175057626506195 -0.0027939434111732 0.0625605414139037 0.0731100309105982 -0.0166071815304686 0.0674518094504583 -0.0516341992044450 0.1009925846944202 0.0566677198357732 -0.0503658949821454 -0.1105906094094785 0.0538439416202090 -0.0136854182547016 0.0062877112008697 -0.0034535524117057 0.0032525945240471 -0.0979484289361577 -0.0214661877166866 0.1054321707575650 0.0496158248268791 -0.0118683216656122 0.0912363858647611 0.0149189864892031 0.0023340107442832 0.0257627626684585 -0.0049358432032803 0.0214788796397523 -0.1421223813673657 0.0450944004180868 -0.0476780948817238 0.0375519489692398 -0.0268328259033202 -0.0848403233687986 -0.0715665741603970 0.0839414239580264 0.0370543105160741 -0.0755174624007043 0.0048699334652024 -0.1067683608506868 0.0022085162735119 0.0522422939959315 0.0898280764024090 -0.0249245846685463 -0.0306633055039463 0.0881504143036441 -0.0317375844495151 -0.0026000999446202 -0.1704490893690022 0.0578270553213877 0.0468329799599218 0.0423499784290705 -0.0624863167301846 0.0996096977037057 0.0241804392573140 0.0502989096892800 -0.1064803091661000 0.0505315118253146 -0.0409935179855863 -0.0126962733599259 0.0321810601414958 -0.0668703604303448 0.0369371876021624 -0.0572368517564512 0.0216212137809297 -0.0521434765188708 0.0277252967027385 0.0087952876543737 -0.0342658437077494 -0.0020519748685750 -0.0684169482707296 -0.0122844982559005 0.0055817425582313 0.0213960288939250 0.0001017280256812 -0.0395723510921025 -0.0476332986114168 -0.0441337948092950 0.0467329050924097 0.0326435674395988 0.0306865872014393 0.0466423425299648 -0.0147799565514486 -0.0440716835700758 0.0864526680425612 0.0426435378916466 -0.0082594447077980 0.0328706801543293 0.0017769502806283 -0.0998789945165730 -0.0143008847823034 -0.0323644696209206 0.0370555081092469 0.1317291032596711 -0.0682854407772090 -0.0226863004272864 -0.0094091124057288 -0.0411522108593218 0.1182153544599615 0.0695043172732762 0.0679230236164312 -0.0335489398949122 0.0598505866234858 -0.0489428054492732 -0.1249543704109552 -0.0417854659432420 -0.0399540327808313 0.0431252260446095 0.0361565878375090 0.0764143865228999 0.1124368473826220 -0.0155123229363547 -0.1151888011191430 -0.0580947238603043 -0.0234018527840804 -0.0264128507827645 0.1709040236902198 -0.0160168408741085 -0.0417096792715415 -0.0027280374668015 -0.0202464332182697 0.0060534267574102 0.0097737318774407 0.0761266964650595 0.0032077912096993 -0.0994050619120284 0.0990365572528331 -0.0085547487505193 -0.0748539271051672 0.0297225709576378 0.0060539705970243 -0.0684671488888148 0.0659771174400050 0.0182545099055928 -0.0431315676970302 0.1484356797332489 0.0096523429694016 -0.0227445156964089 -0.0155519499533819 -0.0591835134419509 0.1898115208387408 0.0149137901963338 -0.0009799876919875 -0.0624882335707528 -0.0089829421953180 0.0710183173614904 -0.0290601345746093 -0.0034559344885818 0.0385813774290091 -0.0398593424060788 -0.1058779036299379 0.0100702235810405 -0.0498812668771296 -0.1606097297164691 -0.1316551875567330 -0.2373382691799448 -0.2195839331996262 -0.2170255460722207 -0.1445353091735242 -0.2023015875050902 -0.2052218702885976 -0.1547678636554239 -0.0836134253589610 0.1019168868703034 -0.0427936369466902 0.1053064585089604 0.1520463895708221 0.2399570040952248 -0.1677104473465875 0.1673739893563509 -0.1163593046229038 0.0037876624664111 -0.1090096733510322 -0.0503193138856279 0.2285510189633595 0.0022814274812707 -0.1249501637045607 -0.0775538550971338 0.1534758199691549 -0.0835002103682061 0.0133393723918575 -0.2549794811602838 -0.0371809103350433 -0.1051785584937675 -0.0959378426878756 0.0483696917018463 0.0107610203228471 -0.2945104504059351 0.0806452323894234 -0.3413642896524727 -0.1085204897065565 -0.0121314728796608 0.1699084519959203 0.3246146235037376 -0.0613042966145498 0.2768796016152221 -0.0504520598166762 -0.0278523237248125 -0.0339099285334795 -0.0926604331771913 0.0750801653676343 0.2276633969299754 -0.0172939896581703 0.1745571374314507 0.0010112293769459 0.2113593303960896 0.0838065797369066 0.1123365532027820 0.0971373363370461 -0.0672674584419490 0.0174939089070575 0.2270822123252211 0.0449458757139972 -0.2659165984124062 0.0532730895615981 -0.2232750933978737 0.0417192649425418 0.0879920527862569 -0.0583502613633268 -0.0972428223309563 0.0088746579787652 -0.0366949612617536 0.1455577383414552 0.1576422088898924 -0.0321604646232796 0.0024312386566127 -0.1472789883648694 0.0905916231984866 -0.3489114138877514 0.0318766857335707 -0.0372805404614002 -0.1120181910115811 -0.1031708879491981 -0.0438313770521946 -0.1275515131510967 -0.0021637886791462 -0.0625109596939459 0.0989630794960868 0.0812749853516597 -0.0896289367411346 -0.0124338509590002 -0.1565185232898042 -0.0236206123456426 -0.0792725837278215 0.1078201072386112 -0.0138339620312134 0.0679034654658243 0.2580518765661690 -0.2004517145919586 -0.2022603831081248 -0.0046528078835533 0.1427052249774506 -0.0115938073551966 0.1212033926129562 0.2583084667594635 0.1072590425163167 -0.0853723599876599 -0.0588985498422758 -0.0364478447946638 -0.0801495012655550 -0.2502100428505953 -0.0076382792662866 -0.0160093500617125 0.0925803999439850 -0.0932076089616370 0.0629236990016785 -0.0177473928063164 -0.0602083890350819 -0.0225515900229812 0.0053507580547111 -0.0812421777509529 0.1262020364329044 0.2248630687538879 -0.0115551103860905 0.3018245243314094 -0.2450296239649506 -0.1719942780244831 -0.1235105615794932 0.0769953857021234 0.1150956626681356 -0.1225836843753107 0.0513283546695282 0.0611535517814648 0.0102781363419663 -0.0146881953927876 0.0108326095180613 0.1028938187350350 0.2900738284279278 0.0818507854206237 -0.1682515369548046 -0.0535834482671780 -0.1199791397647448 0.0078658921205600 -0.0934130681246106 -0.2110591076492990 0.0610675820650528 -0.1606405416822413 -0.1913366681144483 0.1288996288696010 0.0955251666150866 0.0118151132862061 0.2226094630100399 -0.1755734011265692 0.0942830359593302 -0.1383833026553005 0.0014231401219435 -0.0161498060359027 0.0300891990570560 -0.1793068667050030 -0.2169116338323017 0.1257260881521048 -0.3566769345130553 0.3847644852965238 -0.3508289275013419 -0.1788017649195267 -0.0724317136816721 0.0396218066710199 -0.0502395770620892 0.0690689225304050 -0.1146093517942548 0.1158086523015674 0.0408819936058981 0.0241246816514940 0.3124318131847379 0.0037596593290028 -0.1044852024015922 -0.2520858265336058 0.0388048273290193 0.2610264843188698 0.0973534453910231 -0.1444203828962989 -0.2872004699947587 0.0955740330899894 0.0453289582890313 -0.2648464594714436 -0.0802767654743441 -0.0393983220431732 -0.0724811126432210 0.0088772307017345 -0.0617380823567400 -0.0702284168162404 0.1217281458927694 -0.2474143365877041 -0.0094831946191063 0.0806651618120043 0.0035155180949420 0.2955473229568480 0.1737721561672908 -0.0752033381713194 0.0850356935035637 0.0211683720237829 0.0166948219528357 -0.0024590595630479 0.0457208486210846 0.0169916078643264 0.0890512048623461 -0.0101310329568840 0.0901153895650887 -0.1321117278571196 0.0441467871158700 0.0898160868150516 -0.2171288361383048 -0.0683190525634171 0.0376706661555081 0.0053365030107641 0.0826002390388153 -0.2427947863765072 -0.0739202605900953 0.1718086396203879 -0.0044099867142169 0.1249214154058368 0.0843175063976023 0.1567880121389103 -0.0832468791471985 0.1285090755930230 -0.0338108794706559 0.2005515393146562 0.0679856858919325 0.0248876497427329 -0.0387726933819793 -0.0269820274954889 -0.0594510233662163 0.0893870807305082 0.1586062335137393 0.0452758386820369 -0.0322857749058919 0.1225967941552966 0.1911264696144499 -0.2495124169193940 -0.0031049089154262 0.0126482952487469 0.0058403193648536 0.0882483208853973 -0.2054815327340016 -0.0669863821144638 0.2387681392714231 0.0047180653978952 -0.1172473401156300 -0.1682744939858391 0.1144820045455379 0.0048392918793748 0.0590507062946072 -0.0282755068649705 0.1006199829321904 0.1380590359706996 -0.0786393397386729 0.0930998246389857 -0.0245479582356351 0.0552454373362393 -0.0546540846940860 0.0939402097428629 -0.0239900600469359 0.0282829525752675 -0.0539297830609501 0.0797870998860835 0.0144606368617628 0.2480102445634273 0.1033374385550289 -0.0729381750429432 0.0683185256968449 0.0499041736542232 0.0360107418104633 -0.0144822969499556 -0.1800464999688890 0.0379976025980796 0.1483063609184883 0.0519014047417283 -0.0687812348642076 -0.0057559362578416 -0.0943905647044278 -0.1659053873572232 0.1014138031071927 0.0082237836550771 0.1160320303626739 0.1094303959303100 -0.0931262860641634 -0.0456427299910247 -0.2034167655845949 0.0167346797470462 0.0343201558338574 -0.0705480098846677 0.0733513150588020 0.2157577276094965 0.0180027361527867 -0.1323891198822506 -0.1066662987012575 0.0666190820048261 -0.0108892437548353 -0.0374435680354105 -0.0481272820003140 0.1381722466215305 0.0111620765484113 0.0943006502305281 0.0247092231430510 0.1818212214064016 0.1760841396828127 0.1834930437948204 -0.1636839054759708 0.0905309800551327 0.0433838482886233 -0.0385375095746669 -0.2292493796307299 0.0843786528867326 0.0089941842845019 0.1555225840796916 0.1652928808160497 0.1869809411261689 -0.0552484156674994 -0.0089296640242976 0.1317943516938938 -0.2362918973408051 -0.1957429373385718 0.2061166507351264 0.1343399835609959 -0.0064195824194049 0.1779015080419451 0.0148146762500360 -0.4649846286264008 -0.1098045444327043 -0.0909637344476115 0.0045551489007005 0.0625561277080032 0.2322058097439666 -0.0355724038808866 -0.0660779840638538 0.1438510467866567 -0.1192040409970354 -0.0785872810202425 -0.0037710141333002 0.0210188133325797 0.0271298698933817 -0.0729638219557996 0.0518049400466742 -0.0770817807758385 -0.0396825293456731 0.0747555477569577 0.0394422553743895 -0.0150916484381364 0.0885074089999701 -0.2511867815409057 -0.2718007291297113 0.0056760954648867 0.2359115777974614 -0.1106993329655974 0.2049197664079898 0.0292139016902741 -0.2153555224610402 0.0600220446591860 0.3682231066404479 0.2035817242550921 0.1304170744302981 0.1693911241173370 0.3005073611492206 -0.0767088235085669 -0.1546312317743083 -0.4023363104368399 -0.2323207147205262 0.1207666947108795 -0.1856938925940151 -0.2029885832398588 -0.0782925143062013 0.2572540806761318 -0.0090612904712013 -0.0674379257873635 0.1202968813739217 0.0406642614535379 0.0774124672918330 -0.1371427709053979 -0.2434397492406219 0.0387087203225267 -0.2230574985983066 0.1167232432016757 0.0459691617966255 0.0484345592918422 0.1841663361572181 0.1349576308600719 0.2116093944311889 0.2713687480891874 0.1380254566959983 -0.1223273398935625 0.0475032754794737 -0.0528300965099389 0.1571945193454787 -0.0066519781726493 -0.0949450828432088 0.0628214770192733 -0.0552352878826613 0.0955925103901528 0.0217549888942392 -0.1318655066774317 0.1408388034505497 0.0015890515211497 0.0729516438697586 -0.1443289141353667 0.2267867172939488 -0.0509045643982239 0.0148874417710433 0.2050781487972065 0.0385826423583880 -0.0131080655125627 0.1845990763721078 -0.0519090873411567 0.2181111264664991 -0.0399354240872626 -0.1480036450216459 0.0800815629002740 0.0714926222627486 -0.0795950257470551 0.0121892441367934 -0.0088141900566454 0.1266068563890395 -0.0095477933872393 -0.0648625119828297 -0.1263726165283144 0.1112862137987642 0.0239460493116683 0.1408080489993040 0.0313129632110297 0.2096140648427056 0.0737140141509262 -0.2406351532820158 0.0156767499740681 -0.0756518794408318 0.0477073857205334 0.1490462380540714 0.1283552491737706 0.2461551642276748 -0.0037986693220874 -0.2075515475857966 -0.2069801329459711 -0.0884262209652323 0.0708898657478918 -0.1312898039488806 0.0963633902179156 0.1223710191342294 0.0155919512446027 0.0344258612155599 -0.0019568128449092 0.1768523212296766 0.0168606102654290 0.2406548339292658 -0.0457499332431862 -0.1472075264355842 0.1447096654763364 0.0566530903580637 0.1381636923729767 -0.0568454948010769 -0.2578882665233880 0.2085217011169219 -0.0072413236400509 -0.0670483312832401 -0.1593463693178326 0.0447415577851708 0.1366506357704251 0.0477022526322890 -0.0266853599551113 0.0791892134732748 0.0329828991488362 -0.2926299138901746 -0.1065966065094706 0.0242079583164224 0.0772891537900075 0.1235338744740580 0.0399066107400461 -0.0849565966549590 0.1238533412423077 -0.1748520152945495 0.0938525914444386 -0.2444227266198364 0.0960713748578603 -0.0929601292335904 -0.0679170016318649 -0.1083848608124611 0.1243077020319791 0.0056686770162138 0.0292779659225267 -0.1372506954297728 0.1818101617156936 -0.0492175530209316 0.2422155635125963 -0.0456786967637689 0.0881560865355596 0.2453267247775610 -0.2891230265740344 -0.0631676370895966 -0.1361094602188979 0.0687244670627623 0.0070451605317840 -0.0338698738369595 0.1927547323295528 -0.2604783328659606 0.2903777213743194 0.1052246850681272 -0.0129721611587094 0.1202827612176134 0.1052484743948446 0.0200983110337508 0.0897459649642070 -0.0290361920216815 0.1332840365266562 0.2155103839174168 0.1217184698324178 0.1895847661147061 0.1087253049659206 0.2530022311987535 -0.1158078934938192 0.1775408183237393 -0.1045360378296313 0.0895733004574271 0.0964876564821745 0.1661046671523942 0.1683300994365932 -0.0744213995303298 -0.0962470477635713 0.0660349164964478 0.0483374896090739 0.1976719161454860 -0.1403390588664395 0.1444635509107467 0.0441246971443105 -0.1867364574064587 -0.0730786059997040 -0.0495253091965196 -0.0020740414785388 -0.0268046740325396 -0.0769422063215784 0.0502717563547938 -0.0347861438584860 -0.0476675664566739 -0.0347802193893557 0.1175041175515507 0.2440499240703360 0.0844828442131489 0.0708665719844936 0.0317631279130221 -0.0313931189972430 0.1558557014378362 -0.0965988439664154 -0.0219416296696903 0.0157219556034739 0.0212771398945869 0.0692858291929968 -0.1456588295263114 0.1422567355188173 -0.1359710241304503 -0.1083398087650973 -0.0743297567160833 -0.2252845442459738 0.0902061152795217 -0.0322275525168249 -0.0953489761802228 0.1050520158095339 -0.0178721551658547 -0.0599670551287321 -0.1273069285968838 -0.0940296357914794 -0.0474509079578662 -0.1327098327525274 0.0125543230910953 -0.1018375793377246 0.1823728542475850 -0.0752323498190141 -0.1622542936670449 -0.1550285471948054 0.0805846111819793 0.0400593948396415 0.0649775220943099 -0.1262997871205083 -0.0894825019318870 -0.1188676224348640 0.0684292152729187 -0.0195984076346353 -0.2235387674259074 0.0690435294706748 0.1318811979319729 0.0221470518321298 -0.1932586896873876 -0.0449435833000745 -0.0179808028144181 0.1168606494882041 0.1077294848089737 -0.0875521051596929 0.0626415056213052 0.0382947190485882 -0.0125098741138415 0.1687720324673988 -0.0152026439542725 0.0199231595214256 0.0781410714754638 -0.0534282539795087 -0.3363800847963168 0.0863449759159878 0.0173725642297232 0.0635973599566120 -0.0916810830025558 -0.1476016411701556 0.0158713603603212 -0.1102230492502675 0.1697471760972077 0.1450115750600388 -0.0695843966011592 -0.0963268587191540 0.1471256564928683 0.0239677658344376 0.0484023421976157 -0.1166064166396813 0.0877620865230653 0.1230548087709083 -0.0665668496672048 0.0686623266500294 -0.0540642070340165 -0.0119780614065638 -0.0246186017708509 -0.0341470824882372 -0.1339689832723777 -0.0787159498780702 -0.0421096266571062 0.0487649120161864 -0.1568417190597447 0.1132791727727352 -0.0815713693566314 0.0214239587625935 -0.0036103448247340 -0.0127158999780073 -0.0121950010314126 -0.1104925362879771 0.0592691125014257 0.0368616690713403 0.0982747494063121 0.0060387619986379 -0.0531020624341302 0.1460491868221255 0.1564953330517332 -0.0911085523938846 0.1057557958577502 -0.0696425883542761 -0.0376930342611531 -0.0657583308945985 0.0448084937031975 -0.0942282891821652 -0.0135232084973041 -0.0424808897112654 0.0970506405690011 0.0642998640797584 0.0662065619706481 0.0186672990013848 0.1489290737943839 -0.0011478262193441 -0.0539585258898362 0.0158290823063845 0.0987931313551662 0.2132026484088700 -0.0716886248313513 0.0095188372797129 -0.1054237770783186 -0.1219437421140356 -0.0308307420258585 -0.0279632373220165 -0.0900129201306679 0.0703462780893678 -0.0035139765019494 -0.1347386181100876 0.1669343360394427 -0.1352151516378028 -0.0952880307084299 0.0010027122289210 0.0337550943990501 0.0225475495938594 -0.1041311644145761 -0.0262677848279403 0.0188275886643394 0.0213571017618884 0.0260747923591905 0.0770291350833096 -0.0320388273990978 0.1092437610370944 0.1002454613553145 -0.0465267244794207 -0.0102946728516642 -0.0482682669568410 -0.1410043729208945 -0.0527940361308542 0.0397171552676025 -0.0189956683291444 0.0347695642687746 -0.1187200052420901 -0.0008416893255744 0.0333886701291281 -0.0205978421621718 -0.1232118327327993 0.0654319147840735 -0.0055746795809192 0.0640701138724382 0.1048230725765028 0.0135008431111310 -0.0739336827095521 0.0550411798623700 0.0590467904905115 -0.1494754680811190 -0.0809868743371103 0.0347792522284347 0.0283498257105619 -0.1597352939814022 0.0486935100457739 -0.0530875713410394 -0.0252171904812292 -0.0591986771014295 0.0328471698060597 -0.0021638807890621 -0.0252287652513968 0.1332659723759341 -0.0215938777574709 0.1870999010623075 0.0270922790036893 0.0930635223852815 0.0602592863142247 -0.0047181189940607 -0.1044228342921127 0.0170467998554459 0.0149780119773434 0.0459775436322969 0.1351166652196244 -0.0728998285474293 -0.0398033804352158 0.0695726092284801 0.0016120297767690 0.0077930752560429 0.1439183401824407 -0.0453115165141881 0.1762748189512556 -0.0305018892667439 -0.0123490098098912 -0.1116431497659404 0.0523757191209671 -0.0002758012120436 0.1372434430442357 0.1529280553199639 -0.0648289171757729 -0.0098254629732956 -0.0337054460666568 -0.0885751823406896 -0.1187057759951031 0.0083645863819789 0.0009082079372337 -0.1166610345963710 0.0258408217006209 0.0242369094655709 -0.0257108828302575 0.1186945024025810 -0.1148378518077243 -0.1370418310624279 0.0870362551703763 -0.0514588743309067 -0.0602036890726960 0.0111064936151017 0.0989268075879372 0.0725705517809328 0.0332449408867358 -0.0236023368172290 -0.0861501776128986 -0.0145839773172719 0.0355397239437860 -0.0751748360574574 -0.0958391609885885 -0.0997412003683104 -0.0593018160366739 0.1499629156993672 0.1062530525644873 -0.0708634777906324 0.1492789405234659 0.0015063157983673 -0.0236684986598208 -0.0366272311773501 0.1145364696333128 0.0818969762151162 -0.0852418464050684 0.1516456534489872 0.0903809436360583 -0.0974129366857968 -0.0440160593468725 0.0472704117862796 -0.0606051480489917 0.1349935519931008 -0.0689591088563411 -0.1611397247037059 -0.0875049526034077 0.0297435598942634 -0.1275119250152421 -0.3045185175983720 0.0783188667571261 -0.0477553661106973 0.3334842879261880 0.1504506919548674 0.0717622072087724 0.1177526058408723 0.0100113364307346 -0.1543682287714356 -0.0818179960984487 0.1554029265798334 0.0559872011345191 -0.1201258857479032 0.0987072105378591 -0.0278644063015983 -0.1289325886430510 -0.1826404075869095 0.1120373305052464 -0.0092973217112163 0.0552948184153993 0.0010287854630636 -0.0680595333958447 -0.0787711416175530 0.2031322339792754 0.0475818321574015 -0.0417794773562196 0.0882933225035048 -0.0118713494031785 0.1326877010402418 -0.0213931223096152 -0.1282451431585230 0.0045576846244246 0.1356230305827578 -0.0808920933857671 -0.0736005669087816 -0.1372623514066192 0.0010715423518713 0.0962779943863937 0.0594244895649861 -0.0851225231739008 0.0436938136575563 0.0381095015141860 0.0667013256431121 -0.0050467971323168 0.0774080589531700 -0.1169597446750843 0.0024564847628647 -0.0847858634725615 -0.1229311811899490 -0.0110090233289592 -0.0827917025455663 0.0545551322867429 0.0553113169253658 -0.0908118233845759 -0.0196589153568530 0.0112077943512075 0.0676155026983067 0.0901404977120972 0.0346549700013444 0.0718705433112114 0.1335004760159967 -0.0595870054820299 -0.0437910822157104 -0.0108551357148417 0.0125366403359156 0.0793855110908865 -0.0979118147400144 0.0784952436899855 0.0686937206785229 -0.0327327817331393 0.0253955704149805 -0.1107911349122837 0.0531968362636346 -0.0968375718642939 -0.0154580986410021 -0.0912384132623637 -0.1294742848042991 -0.0311653177450438 0.0959944743677454 -0.0218827107560084 -0.0087936237929458 -0.0000806088974591 0.0723042385539403 -0.0944379777211651 0.0717251596607659 0.0234845705124530 0.0385334980940219 0.0107502202224980 -0.1313023340588618 0.0547678588194320 -0.0321732470562200 0.0147289650044294 -0.0073460251087667 0.1119877737139184 -0.0273072312851542 0.0463703750431750 -0.1271880702897722 0.0895372975049761 -0.0190313522889648 0.0833317335594144 -0.0342328830886635 0.0581290131892502 0.0471607036857862 -0.0269108098568329 0.0362204552455594 -0.1286593909986429 0.0339235891592011 -0.3673011888844090 0.2556203523241363 0.0044935191982425 -0.1705801870052119 -0.0095291067239826 -0.3771311647657098 -0.0731129026574008 0.3390437131470486 -0.1456965704778164 0.1478191645868588 -0.4437132587246245 0.1129420472839725 -0.3016545438611881 -0.0140499046129897 0.1290852991425437 -0.3319588706062174 -0.4281606739998192 -0.1511179376081899 0.0409684254356796 -0.2345976248199426 0.3141478027110514 -0.1034152183752265 0.0947337163991005 -0.1326082568062452 0.1888485313495545 0.4021741596791495 -0.0308111175757784 0.0726039903530516 0.0070553345231039 0.1300048457439873 -0.1014260737217346 -0.3012945498653995 0.0524658502926418 0.2286134284761553 -0.0647949539405169 0.1128860854425585 0.0706223509932756 -0.2108708832153376 0.0742094949908313 0.0254239800957224 0.0570774766138806 0.0551669304464974 0.2335602421264934 0.1984305058278531 -0.0691263138689771 0.2167704997260678 0.0434157573604713 0.1023197203209732 -0.0520226539459866 -0.1885450615490410 0.0338196885883515 0.0097856416380065 -0.0913798598527700 -0.0079744185107631 0.2210031851573362 -0.0683057351872734 0.1968063652279862 0.0706056641381960 0.1194215683829961 0.1550370579725701 -0.1674995629294381 -0.3428589474386131 -0.4358997543482052 -0.1245300254077608 0.0701351225787568 -0.0613143301906304 -0.1676343596121634 0.1551124865268790 0.0480272052917308 0.2065373007151827 -0.1065403072817061 0.1748903147232361 0.0281558482239244 0.1589975024230448 -0.2413937868874829 0.0023775003228864 -0.1503074073041613 -0.1568245607577382 0.0470775527192610 0.1167657498828480 0.1842138936164945 0.0217774722886052 0.0473636076265783 -0.4648167450898855 -0.3877863762788054 -0.0965631156976141 0.0342362334469380 0.3110499969201679 0.0356758096950086 0.1888926167399800 0.0297927731576652 0.1553625042720924 -0.0971955920411962 -0.0173649851397899 0.3168937454538528 -0.1302667715033734 -0.1020097843232113 -0.1227653377332774 -0.0369493745642000 0.0166014567010663 0.0801806184811567 0.1803075069260198 0.0780676314593464 0.3226497818578422 -0.0158169847392080 0.1966762479059984 0.1770183761067783 -0.0135719235436072 0.2212192243112449 0.1488968989292798 0.3068105268149738 0.0490879292373778 -0.1121591051588514 -0.0362460483940871 0.1589892036516152 -0.1343091929863942 -0.1053122562551800 -0.0974864817566130 -0.0335389803518279 0.2523880733751862 0.0579734110984462 0.0540981643138383 -0.4164130306669677 0.1374268029286457 0.1276779205190980 -0.2822377176758538 0.2107848351009842 -0.3012019271300768 0.0544001232571305 0.1276831291364458 -0.0231581049486025 0.0896284857480917 -0.1433857946138296 -0.2852278466937444 0.1434412589111008 0.0955124232421256 0.0666981714389445 -0.2779469987229512 0.2011483198320270 -0.2913657198294116 0.2482484712396519 0.0954844466286378 -0.2010196856334830 -0.0843237077076426 0.0011464605259032 0.0325504108413295 0.0657426749275275 -0.0039593792154597 -0.1127054537200199 -0.1772487683816344 -0.0719413417559149 -0.0694340549394565 -0.3950178646520204 0.4044836732569410 -0.1939632405216877 -0.3014633068321411 0.2329298996717701 -0.1431963244082561 -0.1652809827122082 -0.1068237932273363 0.0753161847365208 -0.0086187580881004 0.4454509794156127 -0.1092092904420535 0.0000941753686537 -0.0508929066175208 0.0605671626308455 0.1748543716153874 -0.2125299496911753 -0.0096238875384870 -0.1346717496207785 0.0252502806328363 0.2433175512836407 -0.3601864437157171 -0.0306719076106100 -0.1298549811095894 0.2352553576717147 0.0036552226222936 0.2042052350873240 -0.0581911038829589 0.3496799965337890 -0.3867020436500677 0.1202466995647949 -0.0498422618260012 -0.0680692700137210 0.0685722048958954 0.2372421236860258 -0.1625265867005035 -0.2146329257314525 0.0461436836018283 0.0335885658971192 -0.1102454059456998 0.0107974541749840 -0.0407685668156723 0.1052703451145345 -0.2829826496572300 0.0440833580648987 0.3567840943402658 -0.0249158425743181 0.3598522081981208 0.0368437801605488 0.0430095903831110 -0.0423129420596485 0.2035902794105856 0.4513036470136759 -0.0384703335241276 -0.0223606368546660 0.3227867576364734 -0.1212142655108290 -0.2194361460327085 0.0731845624522647 -0.0586191395508628 -0.1576136670752691 0.0302792771648149 -0.0824434370518170 -0.0810315034352862 0.0559776495838771 -0.3723795037615788 0.0916125957822767 0.3577595295951900 -0.3439669162597027 0.5154472667953980 -0.1959690305025977 -0.1232972763602417 -0.3644095911711755 -0.2916016111480990 0.0526521986272252 0.1625859653293238 -0.2113085610991214 0.1704809710795003 0.0859206683735374 0.1363282909875395 -0.3976016856712442 -0.1747983445827596 -0.0307493788552148 0.1780621586223853 -0.0217611667191553 -0.1916251374806139 -0.2422559083018340 0.0056866018405919 -0.2247179868350835 0.0846660035941159 -0.0045427691396393 -0.3405098650098219 -0.1546568247598510 -0.0870375881441021 0.0793543284090794 -0.0665141623773529 -0.0933876326510053 0.0977793630259848 -0.0955108911206330 -0.0865122433703686 -0.1657705818736180 0.1944818381373776 0.0817833211003415 -0.0318261689285445 0.0991507397281460 -0.0012772144076482 -0.0531925187394508 -0.1984301180581671 0.0137673066872245 0.1481020621506943 0.0033406901090521 0.0445411970903584 -0.1585918774090370 0.0935834530083329 0.1289900671523347 0.1675547240433488 0.1784364027604694 0.0606251581356564 0.0597181980471305 -0.0715448352186666 0.2068072943897538 -0.1461949459662277 -0.5710997540501126 0.4669067608673470 -0.2765912156425357 -0.0847676954264308 0.0035700352213744 0.1568499583799817 0.0162724654080692 -0.0191521242726216 -0.0815683232295976 -0.2450975160526504 -0.1194673346047578 0.0726067159851591 -0.1757663995078753 -0.0234080507507758 -0.0215169313562344 0.0110252890572603 -0.0836414622646935 0.0298256300056307 0.0133603835257451 0.0446458265394146 -0.0365431025069825 0.1275795424739850 0.1966462654155590 0.2145327196126202 -0.0530493114405415 0.0522914507084179 0.0163814675309636 0.0209390392219150 -0.0389055796491475 0.0777038798617041 -0.0601256094688364 -0.0397477953629649 0.0138702266978924 0.0578510934974975 -0.0393041406951168 -0.0161655444133611 0.0284691095900512 0.0547927557409288 0.0562937471297555 0.0538070616538703 0.0014837601215791 -0.0270582736465118 0.0652915870829626 0.0162990244440803 0.0206590129754362 0.0003300928595437 0.0171238245521631 -0.0082934945570877 0.0453106328781980 0.0157200627683870 -0.0443103995627837 -0.0029153476786641 0.0471325558627970 -0.0238847295093956 0.0238806195984079 0.0081417427498467 -0.0002784499970038 0.0322858156144386 -0.0146963003640976 -0.0173613414381818 -0.0336879735538130 0.0060142706407524 -0.0438912595584601 -0.0470435769369667 0.0127457362275342 -0.0186368703127362 0.0342366952880500 -0.0397962782497358 0.0324726097736378 0.0024761391205060 -0.0319250154719236 0.0097196048319933 -0.0304844490028724 0.0399777714255828 -0.0406093005110082 -0.0141417651776691 0.0312711373568471 0.0383717494905804 0.0471904472698974 -0.0214829835327699 0.0267611764512634 0.0772424140131711 0.0352914732034249 0.0544757395645935 -0.0108036244106570 -0.0059261097749739 -0.0308341028671152 -0.0047585884147455 0.0220097535385532 0.0086816644054929 0.0074706572632340 -0.0341847919465513 0.0355431949673070 -0.0178719975460953 -0.0067776009840224 -0.0078308029167412 -0.0184182378207005 -0.0057709755184369 0.0061657988455681 0.0245575138343061 0.0167791517450815 0.0315403518406731 -0.0082885196497641 -0.0349208143353080 0.0241871054446442 0.0113882549006532 0.0254376304544206 -0.0129043321573353 -0.0238867242744906 -0.0105719661760660 0.0061676404768104 0.0264355938668750 -0.0434780891558485 0.0196690733736031 -0.0017028848032672 0.0124741686966935 -0.0110813599697035 0.0003609521491852 0.0143802972025584 0.0440014164002103 0.0177402111555295 0.0041306717711666 -0.0108959509134209 0.0015846807625910 0.0252321291042951 0.0423484148043312 0.0471676406770273 0.0419792072530092 0.0005064220061059 -0.0521783718897671 -0.0066789858864249 0.0044059261258224 0.0164293692626987 0.0477682314319895 0.0038662277448458 0.0164024382121935 -0.0331052260458797 -0.0177000039808211 0.0074935264619630 -0.0066216886295837 0.0144628110246031 0.0220121002893383 -0.0516070341119583 0.0156702823970148 -0.0428285544459926 -0.0188127265724711 -0.0253206637415357 -0.0009940818615865 -0.0102303533802596 0.0246475123970173 -0.0277290480450239 0.0424508894039849 -0.0312029246113862 -0.0075513366469512 -0.0402240875708803 -0.0007165503325512 0.0453451667873840 -0.0227000345995564 -0.0421798129894364 -0.0696071814619710 0.0300610695692999 -0.0123284597481708 0.0514659139396457 0.0644481247277609 0.0053518043576839 0.0604185052829227 -0.0334271633571753 0.0233621593773907 0.0627801812811483 0.0516335132239340 -0.0072856616656316 -0.0426441409392386 -0.0049705725247704 0.0155729807110452 0.0074660562586410 0.0221787606677901 -0.0386455088427333 -0.0111137449076786 -0.0503464157131610 -0.0035221830951773 0.0148938267942172 -0.0049515652339511 0.0244082853651210 -0.0319448128333359 0.0299283962039671 0.0073417234915510 -0.0329533574487279 -0.0183883145578060 0.0403691243006347 0.0212290854808420 -0.0072189899836126 -0.0243290586465912 0.0279420121920093 -0.0074782051442033 0.0026239039971163 -0.0218416056640254 0.0262482683934642 0.0230601945068107 -0.0058448623222059 0.0223329873224068 0.0001008480695149 -0.0465126685489789 -0.0100423244277876 0.0097533845449160 0.0241004735561390 -0.0578735813614173 0.0034993646012359 -0.0353517553347573 -0.0340516706862912 0.0081086469758404 -0.0451944641007135 0.0153774519407202 -0.0185143301678587 -0.0284432055416115 -0.0153701543600141 -0.0170877141109103 0.0072909153244530 0.0233435235824445 0.0012528597020280 -0.0119459666916134 0.0690166719910491 -0.0117522519118538 0.0391774867652810 0.0430244791383993 -0.0328853077255755 0.0038736820571954 -0.0107784271661615 -0.0715613186049272 0.0171040193488045 0.0105510567294757 -0.0155523263940231 -0.0098881747753163 0.0526054951610528 0.0104861357186799 -0.0484956504384301 0.0043127185380544 0.0168724036935197 -0.0126526286947982 0.0235267035531982 -0.0305822634808318 0.0267833087839827 -0.0292856277655390 0.0098448335342745 0.0286222145530064 0.0324498613777639 0.0118623766694335 0.0454951360250844 -0.0508116822929867 0.0135735771111948 0.0175042450766282 -0.0034294630918401 0.0076188714763583 -0.0294978143642241 -0.0150353852658305 0.0068930030252271 -0.0075024415891748 -0.0347304610907914 0.0276049370460196 -0.0139555941952263 0.0231855638659341 -0.0202849356225507 -0.0349501468722345 0.0186507787722399 0.0336141028153045 -0.0408533671891005 0.0419645942142715 -0.0167369687238989 0.0050996462630234 -0.0173844069633657 0.0237156610074394 0.0373183940140840 0.0499280868810444 0.0052586466851174 0.0071468213277015 0.0371874033215807 -0.0447479047642455 0.0219280793028625 -0.0301767592991677 0.0189107143329084 -0.0444311605890302 0.0276514039399796 0.0412439286762327 -0.0549108179342348 -0.0407993799754788 0.0361865002749990 0.0328003356601186 -0.0354215717092142 0.0043061745170952 0.0267323191001207 0.0067495156820495 -0.0213279799683433 -0.0244973768643845 0.0413600257451546 -0.0568899133344025 -0.0119433925196547 0.0229348046007490 0.0335663197805369 -0.0005852129652204 -0.0367492869757096 0.0384238953627927 -0.0549580707203177 0.0456320772218299 0.0388083311540534 0.0159753009782361 0.0311153607158704 -0.0074909749699396 0.0082858655217196 0.0164594931702055 -0.0171983538364869 0.0063648616409493 -0.0313199199611116 -0.0182930980111836 -0.0027268996372557 0.0401012221444910 -0.0435073088299386 -0.0400922668419705 -0.0360811432913619 0.0286652783462118 0.0551459725802060 -0.0475584932304374 -0.0085390727197965 -0.0061485385280512 -0.0437200229117943 -0.0134080555189194 -0.0282284958219260 0.1101760119982252 -0.0926711103666773 0.0863014029285383 0.0363446698818255 0.2185942600066030 -0.0141807154749041 -0.3321760245568229 0.0622132122408632 0.1480768621538408 0.1383401351703850 -0.3154114036618380 0.1574296024208180 0.1658674513273879 0.1356262447195690 0.1794957722233765 0.2247960022966570 0.1229939690275195 -0.3658777062572424 -0.1383604693524989 -0.1533686977451474 -0.2552393246959223 -0.0528643353719448 -0.0457499086620413 